encog,BasicNetwork,java,3.4.0,1,1670722309876
[BASIC]
[BASIC:PARAMS]
[BASIC:NETWORK]
beginTraining=0
connectionLimit=0
contextTargetOffset=0,0,0
contextTargetSize=0,0,0
endTraining=2
hasContext=f
inputCount=784
layerCounts=1,100,784
layerFeedCounts=1,100,784
layerContextCount=0,0,0
layerIndex=0,1,101
output=0,0,0,0,0,0,0,0,0,0,0,0,0,0,0,0,0,0,0,0,0,0,0,0,0,0,0,0,0,0,0,0,0,0,0,0,0,0,0,0,0,0,0,0,0,0,0,0,0,0,0,0,0,0,0,0,0,0,0,0,0,0,0,0,0,0,0,0,0,0,0,0,0,0,0,0,0,0,0,0,0,0,0,0,0,0,0,0,0,0,0,0,0,0,0,0,0,0,0,0,0,0,0,0,0,0,0,0,0,0,0,0,0,0,0,0,0,0,0,0,0,0,0,0,0,0,0,0,0,0,0,0,0,0,0,0,0,0,0,0,0,0,0,0,0,0,0,0,0,0,0,0,0,0,0,0,0,0,0,0,0,0,0,0,0,0,0,0,0,0,0,0,0,0,0,0,0,0,0,0,0,0,0,0,0,0,0,0,0,0,0,0,0,0,0,0,0,0,0,0,0,0,0,0,0,0,0,0,0,0,0,0,0,0,0,0,0,0,0,0,0,0,0,0,0,0,0,0,0,0,0,0,0,0,0,0,0,0,0,0,0,0,0,0,0,0,0,0,0,0,0,0,0,0,0,0,0,0,0,0,0,0,0,0,0,0,0,0,0,0,0,0,0,0,0,0,0,0,0,0,0,0,0,0,0,0,0,0,0,0,0,0,0,0,0,0,0,0,0,0,0,0,0,0,0,0,0,0,0,0,0,0,0,0,0,0,0,0,0,0,0,0,0,0,0,0,0,0,0,0,0,0,0,0,0,0,0,0,0,0,0,0,0,0,0,0,0,0,0,0,0,0,0,0,0,0,0,0,0,0,0,0,0,0,0,0,0,0,0,0,0,0,0,0,0,0,0,0,0,0,0,0,0,0,0,0,0,0,0,0,0,0,0,0,0,0,0,0,0,0,0,0,0,0,0,0,0,0,0,0,0,0,0,0,0,0,0,0,0,0,0,0,0,0,0,0,0,0,0,0,0,0,0,0,0,0,0,0,0,0,0,0,0,0,0,0,0,0,0,0,0,0,0,0,0,0,0,0,0,0,0,0,0,0,0,0,0,0,0,0,0,0,0,0,0,0,0,0,0,0,0,0,0,0,0,0,0,0,0,0,0,0,0,0,0,0,0,0,0,0,0,0,0,0,0,0,0,0,0,0,0,0,0,0,0,0,0,0,0,0,0,0,0,0,0,0,0,0,0,0,0,0,0,0,0,0,0,0,0,0,0,0,0,0,0,0,0,0,0,0,0,0,0,0,0,0,0,0,0,0,0,0,0,0,0,0,0,0,0,0,0,0,0,0,0,0,0,0,0,0,0,0,0,0,0,0,0,0,0,0,0,0,0,0,0,0,0,0,0,0,0,0,0,0,0,0,0,0,0,0,0,0,0,0,0,0,0,0,0,0,0,0,0,0,0,0,0,0,0,0,0,0,0,0,0,0,0,0,0,0,0,0,0,0,0,0,0,0,0,0,0,0,0,0,0,0,0,0,0,0,0,0,0,0,0,0,0,0,0,0,0,0,0,0,0,0,0,0,0,0,0,0,0,0,0,0,0,0,0,0,0,0,0,0,0,0,0,0,0,0,0,0,0,0,0,0,0,0,0,0,0,0,0,0,0,0,0,0,0,0,0,0,0,0,0,0,0,0,0,0,0,0,0,0,0,0,0,0,0,0,0,0,0,0,0,0,0,0,0,0,0,0,0,0,0,0,0,0,0,0,0,0,0,0,0,0,0,0,0,0,0,0,0,0,0,0,0,0,0,0,0,0,0,0,0,0,0,0,0,0,0,0,0,0,0,0,0,0,0,0,0,0,0,0,0,0,0,0,0,0,0,0,0,0,0,0,0,0,0,0,0,0,0,0,0,0,0,0,0,0,0,0,0,0,0,0,0,0,0,0,0,0,0,0,0,0,0,0,0,0,0,0,0,0,0,0,0,0,0,0,0,0,0,0,0,0,0,0,0,0,0,0,0,0,0,0,0,0,0,0,0,0,0,0,0
outputCount=1
weightIndex=0,100,78500
weights=##0
##double#78500
   -1.0556374937,-0.748872509,0.1918703628,0.7794580102,69.2280756358,2.1896405367,0.388720248,0.3634104205,3.0102046183,-1.4463698906,-0.2510906558,0.2633639768,6.1003349028,-0.8839664742,0.0542665518,0.0352644035,3.0799605555,4927.7374841828,0.0072031605,-69.1807875446,2.186167402,-0.1650641197,2.6881546908,-5.2793621676,-0.6427429211,-0.556050017,0.737787541,3.6348579645,-2775.0576038454,15.4785366538,-1.6435014885,0.9850599905,-2.8236083706,-58.0306111651,-10.493771601,-8502.7664676845,70.2728297528,0.0154721973,-0.9292194477,-0.573249238,0.7539116763,0.0197537932,-4.6074106638,0.6417114772,0.1470223141,-4.1443865146,106.5731941714,0.8982234664,-0.6830605136,-0.3615920139,-1.3240531515,17.3054434764,16.7084052906,2593.5772285477,0.037817941,37.3763541495,0.1369441311,0.2985713743,-10.1881352638,153.6649574015,-0.1492748515,-1.0609875659,207.5067244423,11961.9993322828,-0.2308758017,0.4813699403,-4.885863069,-0.5888412248,0.509823283,-1.4525381288,-17.427657737,0.5569900143,-0.6997850349,2.9804840308,-0.1168778893,1499.9357215984,2.3221422911,7.0525229278,22.933142017,9.5134883061,-1.2252296227,2.6320339119,-0.5873859946,-0.5004688489,-829.4836699379,37.110840202,0.2219486604,0.7179613963,-10.3685443421,0.3669004021,4.922233007,0.0417129265,-0.4264838502,5.1821610986,1864.3547738809,324.5893475498,52.6375885577,0.0624103578,-7.2428803679,3.7649186662,-0.186127497,-0.0946029224,-0.9511494689,-0.5962096179,0.3557454085,-0.0248510775,0.1561971892,0.2666646002,-0.5072845968,-0.225379205,-0.8498922656,-0.4085400133,-0.7005622634,-0.5950474523,-0.0644155541,-0.1333719638,0.0228899247,0.8915458374,0.5980880837,-0.2284438372,-0.3839582324,0.3229747723,-0.8580471674,0.2122610445,1.2780345681,-0.5669577528,0.7277379957,-0.742286419,0.3278685562,-0.981510654,0.7685132018,0.4614280213,-0.8635830896,-0.2538398468,-0.7235319143,-1.7646650255,-2.765119272,0.842966937,-0.7854971971,0.477658719,0.9488546067,0.1695208738,-0.6160525048,0.9770599988,-0.9789154685,-0.0008194052,0.1558432426,-0.6810082173,0.6196357992,-0.1802210119,0.3707222762,-0.3175534644,0.1034751037,-0.6441256185,-0.7520161809,-0.9064199797,0.9444242431,-0.0150522713,-0.4209303031,-0.863721246,-0.1474216746,-0.7214939878,-0.7753652601,-0.7905256642,-0.5923509861,0.7813245974,-0.2069309849,0.3937128493,0.3320181045,0.7375165208,0.0280180753,-0.0235074223,0.9512821388,-0.8857113254,-0.1992092615,0.5648651293,0.9025948827,-0.6519555776,-0.4675721644,0.4805207754,-0.1577892921,-0.6864155882,-0.6103168213,-0.8403399284,0.2541182845,0.5043653405,0.7345443686,0.4377863058,0.8125145861,-0.7151613289,0.2472109992,0.6202341865,0.576434375,0.7180671589,0.5413325995,0.7704163332,0.9513287639,-0.1099153458,-0.5283740416,0.5188924775,-0.6421935365,-0.0971925835,-0.8278779683,-0.6259987321,-0.9231045614,-0.2133745733,-0.9870378656,-0.8102582882,0.0392778719,0.3384189796,-0.8845709223,-0.4732646395,0.3425364188,0.1590850775,-0.35514844,0.3345194112,-0.4551609085,0.9797863133,-0.9810225844,0.8855228647,-0.6561155213,-0.8384415839,0.7069696958,-0.7762070447,0.8705376876,-0.886747968,-0.3342787677,-0.2387562391,0.8029930147,-0.2842604308,-0.7525377389,-0.9663184627,0.2531634548,0.5790152958,-0.9227096431,0.8786058386,0.6276355911,0.4211789957,0.1057617172,0.3324148511,0.6504388243,0.1979499773,0.4913376998,0.1448151291,0.2092638186,0.3181277984,0.4621934188,0.051542941,-0.8462791088,-0.0890321892,0.3413408656,0.5093139392,-0.7442850134,-0.8427894885,-0.3258960165,0.671458742,0.0922096301,0.2007381857,-0.3907766974,-0.1763321853,0.184814386,-0.2383872375,-0.168835253,0.0377813116,0.0300184037,-0.286734491,0.5589875344,-0.0574347931,-0.3926657055,0.7605835836,-0.4074093432,0.3647747165,-0.0049449068,-0.483697552,0.7865616989,-0.8996824164,-0.2512776569,-0.5748947232,-0.5212307102,0.5622688939,0.7186873864,-0.0641265991,0.3687400774,0.1026998688,-0.2903012995,-0.2978146977,-0.6328652529,0.7961012768,-0.0726614874,-0.5319433095,0.3727156152,0.0394197456,-0.1278162981,0.2426149427,-0.8887279676,-0.8073103654,-0.49117363,-0.2125536679,-0.7957750923,0.8562993928,0.6746072601,0.7411178922,-0.933822256,-0.2890189974,0.1639969922,0.982640027,0.4290398349,0.7904100697,-0.2292090104,-0.3408968242,-0.9727931394,-0.1265784919,-0.4915664753,0.0717012798,0.2505914155,-0.0256456552,-0.5755419954,0.8116520984,0.1246537864,0.4471048543,0.5323635976,-0.8902252514,0.9756901375,0.5420445649,0.0547010241,0.2234341908,0.210847314,0.9527106264,-0.6526262304,-0.2160083278,0.5731008067,-0.3959750459,-0.646304826,-0.9974152911,-0.0763907355,0.4952697163,0.8822403282,-0.8646976432,0.9694048712,-0.6942477317,0.63884923,0.1994309226,-0.5040688554,0.5192983916,-0.7429311702,0.8662077679,0.6062866185,0.9148111106,-0.8744594159,0.6168955281,0.5162904368,0.0120999134,0.2791999578,0.237971893,-0.5639007745,0.4977259466,0.7722405947,0.9699149183,-0.0700111579,0.817673619,0.7294385091,0.2142821238,0.8334942962,0.4772163986,-0.5416974184,0.9297146831,0.3541257825,0.8693484455,0.1868807707,-0.127029141,-0.4266957347,-0.0885638682,-0.2631658009,0.113713329,0.1786248838,0.8944375142,-0.6220747462,-0.4681007297,-0.456549027,-0.2628868463,-0.5100438334,0.6191695018,-0.2253106783,0.4959279719,0.0210433901,0.787678274,-0.2024047974,0.0363594061,-0.2350030206,0.1258967469,0.6502915779,-0.8728814768,-0.8736676226,0.7328096163,-0.6380834972,-0.7424341449,-0.8655154248,-0.2352056722,-0.8590998233,-0.1639653925,-0.7026582573,0.831679595,0.598420377,-0.1453752539,0.8605596236,0.1184454728,-0.3035161102,-0.6678408794,0.9292185317,-0.8054849992,0.0016892811,-0.8904506854,-0.0979729396,0.7837977065,-0.8903575268,-0.8887741228,0.3671161898,-0.9294287519,0.667717148,-0.5224504119,-0.0221510436,0.028638851,0.6752149399,-0.3126293998,0.2839434477,-0.4712981672,-0.4882660402,0.4462922662,-0.2330065379,-0.8577859317,0.7622992873,0.140013307,0.414970584,0.2903316127,0.7481000463,-0.117516917,-0.2337399239,0.3031515535,0.6058605403,0.7320170345,0.7817812076,0.8459312104,0.6510625139,-0.3930829027,-0.6266760906,-0.1674047062,0.9056685766,0.4179333646,-0.1198378356,-0.1660433219,-0.4715552834,0.3413832921,0.8220446141,-0.1921187252,-0.6994709021,-0.5410502111,0.3398132029,0.0914852005,0.8754173189,0.39130557,0.5962355867,-0.8040882728,-0.2826212452,0.7670450703,0.9138495303,0.1583845475,0.5762543865,0.4188263348,0.6448270514,-0.8281211297,-0.5093243043,0.2583605168,-0.3100458021,-0.3980072778,0.0406047623,0.0880112754,0.1686510114,0.4688633836,-0.2339993341,0.143345311,-0.8310154175,-0.6049758851,-0.5651383612,-0.4909029926,0.3326833244,0.2959870338,0.7828452519,0.8411549078,0.394925307,0.2946415163,0.2203164897,-0.4316072435,0.920482338,0.2822740007,-0.5489129117,-0.1047317813,0.073664357,-0.0303866867,-0.8369286615,0.841311535,0.6132337922,-0.6561783711,-0.9842972897,-0.7651912351,-0.6022463161,-0.9583199106,0.8878377242,-0.9078309334,0.6024827048,-0.6232134915,0.5209379218,-0.659063137,0.4093648057,-0.406030547,0.6693130001,0.541565126,0.970715456,0.1679523094,-0.5850562901,-0.3845130405,0.8421657539,0.7145323955,0.1513355645,0.1997217221,-0.5426957337,-0.4462365204,-0.9761292864,-0.9042864774,-0.912071603,0.5831279385,0.4513018788,0.8279365343,-0.106707749,0.5252467529,-0.3397540784,0.3096176301,0.5545137034,-0.3670591767,-0.4170871438,0.6032329811,0.7288516551,0.5360599929,-0.926881686,-0.9084199305,0.6593523767,0.4765293084,0.5880679449,-0.2559978037,-0.9894573321,0.554490884,0.1975292914,-0.1119578571,-0.1328915407,-1.0391823576,0.2921450807,-0.603369178,-0.3597575065,0.0008583921,-0.9816909872,0.1224096129,0.4966923697,-0.6817015244,0.9277328292,-0.3628421244,0.6466071121,0.9075529118,0.5902772072,0.2651416599,0.6650954552,-1.0089677973,-0.9533137097,-1.0048641907,-0.3402332136,-0.6426506013,-0.2780269735,0.9241432667,-0.1968907496,-0.2483726738,0.2551745925,0.8345554096,-0.7508414605,0.9065907393,-0.6956490681,0.6662825879,-0.3320653164,0.9291082724,-0.0787907418,0.0504606327,-0.9284758949,-0.708147965,0.1009906353,-0.8535392175,-0.2873729735,0.5246460698,-0.8862614048,0.6882107246,-0.3108711996,-0.2501404113,0.8394025759,0.1126111487,0.4125839759,0.180206311,-0.5632400798,-1.7343432187,-0.3361389937,-0.9839905165,0.5543428167,-0.5837425955,0.8816370026,-0.2586914447,0.9383284759,-0.8912889227,-0.6882382064,0.048629517,-0.394687537,-0.1013289791,-0.587944451,-0.454606139,0.2733022816,0.4969515974,-0.1540124552,-0.4838217339,0.455398116,0.7806350918,-0.7661058744,0.0875043225,-0.764719192,0.9256328443,-0.2332817001,-0.8267316596,0.6713259179,-0.9294060005,-0.798398288,0.4446764838,0.3939412274,-0.4902309965,0.1472992859,-0.4455749794,0.3326391742,-0.8642713612,0.144760065,0.6615080483,0.4725183262,0.5167974837,0.3768631371,-0.400530227,0.0572878368,-0.5136024978,0.2751995332,-0.2140212975,0.1028035557,0.8561465541,-0.363155812,-0.1347440149,-0.0778002596,-0.2011331339,0.1536040068,-0.6828877251,0.3096988928,0.0803029147,-0.0362352103,-0.2367662397,0.5219427526,0.40645842,0.3484618423,0.7508120928,0.858553284,0.8055546758,-0.3915832881,0.5067872506,0.198437253,-0.7008857055,-0.7783243475,0.9120835436,0.2842294693,0.1168691951,0.3816415465,-0.5384366792,-0.5910885849,0.4167044369,0.235540802,0.586190737,-0.4526679799,0.3373523788,0.578781344,-0.1155150721,0.9488690585,-0.8773621132,-0.0445846701,-0.7687257667,0.017390144,0.0593306765,0.6488066668,0.3732288924,0.1356096869,-0.0781734972,0.7559990755,0.2080257264,-0.2482438599,-0.5246358067,-0.4307539508,0.0591652765,0.092789333,-0.5401694947,0.1727629805,0.0903265705,0.488324283,-0.3230496968,0.3692606652,0.1283806761,0.4480265167,-0.058236489,0.5469538813,-0.4257745372,0.9134299645,0.5040484634,0.1124901441,-0.4969434757,0.3307241527,1.0639489079,7.798424748,1.9810098865,-0.7875605221,-0.0904615047,-0.4584843443,-0.5937968076,0.8787503606,-0.7083115608,-0.3054436812,-0.2193704897,0.0379218955,0.4149927984,0.1550180404,-0.6816110221,0.85472229,0.4135827197,-0.7981646423,-0.4989879722,-0.7006131564,0.1735757426,0.7403704873,0.6490543576,0.8860921167,1.0691562126,0.8985638619,-0.7922965058,0.679049086,-0.1136629801,-0.29482089,-0.3630778139,-0.0526342614,0.3866347387,0.8375707859,-0.3251979022,-0.7357565093,-0.6830169548,-0.3429771803,-0.9851430976,0.6160758097,-0.1026072456,-0.8547496242,0.629242973,-0.1506787958,0.0255525523,0.4299341348,0.4835494054,0.4331619905,-0.2837137566,-0.2190293093,-0.606458325,0.2231694654,0.8893785379,0.2281505965,0.4586629076,-0.3745006812,-0.1122844038,-0.4645286879,-0.6088582574,-0.8220961364,-0.5931534628,0.2496683831,-0.9061602306,-0.4224230696,-0.0306490952,0.4977802494,0.851137328,0.0995925479,-0.1218247273,0.4890672346,0.2822610633,0.958900317,0.2318885527,0.8288887946,0.1404031928,-0.5584387917,0.7754992712,0.7326467074,0.8467735536,0.3258608413,0.9868554466,-0.3574873234,-0.3731063039,-0.7822137858,0.8874370646,0.255551528,0.2899696661,0.1528680164,-0.7851452341,0.3203594133,-0.6477149759,-0.560932258,-0.5023011732,-0.498859878,-0.8981762695,-0.1164556898,0.5500484165,-0.8761494045,0.5888407112,-0.324228369,0.1577598103,-0.1307217032,0.3576243808,0.7288159654,-0.7084303716,-0.3254794792,0.0557428853,0.5844188667,1.0892865954,0.1837913165,-0.6776740101,0.2484695497,0.2998222552,-0.6569503615,0.7570497825,0.8450839391,0.1964674726,-0.0221222685,0.4010669293,-0.1745032135,-0.133346142,-0.2367643743,0.1764081077,-0.2458606785,0.5775201584,-0.9788419509,-0.7730895897,0.6196578955,-0.3801424491,0.4524604382,0.7115112812,0.9098895613,-0.659597463,-0.2986363442,-0.3320206323,-0.0666566234,-0.3637098978,-0.8306518604,0.9584857858,-0.6481240065,-0.6350212035,0.8703391975,-0.2399023547,-0.4263932544,0.7765886134,-0.882809362,-0.591247093,-0.0759698411,-0.7702995447,-0.5114917206,-0.3032201408,0.7568604754,-0.8436246338,0.6459044243,-0.7376108958,-0.0961706116,-0.3260609105,0.3454822707,0.891334388,0.7469736963,0.4127235379,-0.792880393,-0.5656839854,0.1418619646,-0.3351240458,0.7079266708,-0.5397133484,-0.4662583789,-0.6992385043,-0.9766745811,0.9376129283,-0.4129972419,-0.2573871471,0.3559675667,1.2139327722,0.6019896761,-0.2400536912,-0.6243684619,0.9696091969,0.6945459097,0.292878003,-0.9075363868,-0.707156349,0.9595617026,-0.2431368754,-0.2224088425,0.7077112564,-0.8454693054,0.752505726,-0.712364153,0.4793383686,0.505870545,0.537970915,-0.7833341335,0.0532588551,-0.3258576675,0.2424078188,0.0560954103,0.2587088569,-0.5293821868,-0.8269654648,0.1638094009,-0.961235687,-0.6477573435,0.9759900059,-0.4994170463,0.5338073733,-0.2535706567,-0.9147695288,-0.4052776376,0.4783263315,-0.5865304444,0.3406827353,0.6637077587,-0.8294131156,-0.0722332702,0.5272687078,-0.0829469454,0.0490539017,-0.9894720805,0.1337867097,-0.3349201775,-0.3246923018,0.8644529925,-0.5449004302,0.8162913796,-0.0699311762,-0.1035548222,0.5040269395,0.9531468757,-0.8256049352,-0.1059986977,0.4899653966,-0.0841161041,-0.068217529,-0.1700959836,0.7415139207,-0.4541797758,0.4474374577,-0.3595470281,-0.3932335449,-0.5921204256,-0.568662654,-0.9059557444,0.7046675112,-0.6947346807,-0.3759513205,0.4747291932,-0.3815544893,0.406482668,0.6751501126,-0.9003051009,-0.1783436125,-0.442276335,-0.9155652037,-0.7835733073,-0.5432770735,0.7661891112,0.5834625019,-0.7084346114,-0.3237922156,0.9065045476,0.1316776205,0.1555141582,0.6407015019,-0.3134626003,0.129237415,0.5833491191,0.9293827247,0.0633631195,-0.1423796614,-0.8960922015,0.8541739604,-0.0392752549,0.8946151461,0.1154243755,-0.4401978513,-0.6389542022,0.3252846948,-0.696925935,-0.2057444415,-0.7321669431,-0.9608702664,-0.269065592,-0.2402910795,-0.9917342895,-0.0074594229,-0.1536696043,-0.6083995031,-0.2568175921,0.4366322419,0.8319033283,0.9048840294,-0.5375450872,-0.4207477019,-0.3713775435,-0.9865102761,-0.8749466953,-0.9507730414,0.9984178191,-0.9407231063,0.1491491013,-0.3633853305,0.2254809442,0.8274590308,-0.9632878901,0.7421782768,0.369630931,0.1728932902,-0.3347501301,0.4607958783,0.9324352009,0.372206851,0.5055058455,0.9979934943,-0.9211088662,0.0799786724,0.4046530747,0.9327596352,-0.9467714377,0.3165122644,0.3040600232,-0.20104226,-0.524203899,0.5442735492,-0.564680481,0.0455279213,0.5484685388,-0.9926537157,-0.2683998242,0.6568372141,-0.1987177585,0.541973653,-0.8946679849,-0.0845572587,0.2319951213,0.6138007849,0.3295446382,0.8236404197,0.3008086934,0.8652204203,0.8895079204,0.1008785826,-0.036310853,-0.2563453114,0.8187173382,0.9534538836,-0.6606414015,0.4600513479,-0.5992074918,-0.0811558085,-0.7606265727,0.796950455,-0.6835499983,0.930563393,-0.0889724128,0.13744815,-0.6784563821,0.4523225617,0.5347625073,-0.2508452872,0.6742527184,-0.1087393242,0.6901015564,0.1208379125,-0.4453043036,0.828447811,-0.8577126983,-0.16854563,-0.2877872498,-0.0852609093,0.4927575773,0.7802100092,-0.888289342,-0.0188318937,-0.7350767465,0.7906728804,0.419381404,-0.0050594851,0.5724397679,0.5444236265,0.1106620127,-0.4637882956,0.7603293165,-0.989870812,-0.8085580643,-0.1613209994,0.4197679004,0.7125080111,0.6762334225,-0.758899847,0.6944317915,0.7813995027,-0.0349884985,-0.0830620757,0.0162718904,-0.4911075665,-0.9719737023,-0.7798630709,-0.9837420637,0.242118873,0.0619626706,0.937712635,0.3897688102,0.2024945638,-0.9143019413,0.1516704426,-0.5736189558,-0.5743908496,0.1060463774,-0.0848584987,-0.6818681328,0.0905116303,0.1434653118,0.5137742563,0.3032740898,-0.6509087671,0.0759416058,0.1628016735,0.9864589012,-0.2993917674,0.5338376723,0.7515896515,0.7260503069,-0.3208095355,0.84116028,-0.3236264956,-0.2830059734,0.7853432286,-0.932055537,-0.3632689651,-0.4685730335,-0.892338214,0.3170408225,-0.4762930645,-0.6229942984,0.0868766482,0.4749066412,-0.7579835721,-0.221290305,-0.9143819487,-0.531417384,0.8682042652,0.7234712279,0.8842517294,0.0571119754,0.0286141194,0.645145576,-0.6868177638,0.8364439106,0.0541291412,-0.9289387904,-0.2688023389,-0.0470208491,-0.020390657,0.1652907632,0.5026648394,-0.165117969,-0.0015874896,-0.1350035924,0.1851484412,-0.2811359056,0.2698784135,-0.4528141123,-0.8518756058,-0.50997314,0.2674628807,0.5766831844,-0.8323632192,0.4777336009,-0.445648436,0.4926087148,0.0524312338,-0.4548798263,0.6772660276,-0.6925023372,-0.0276611479,0.140158369,0.9692303702,-0.4062335937,0.4996190708,-0.1983634679,-0.6744131838,0.8301161444,0.1134602556,-0.1272137973,0.7894343475,0.2694684383,0.3798161707,0.2126030481,-0.8968709122,-0.9506088646,0.3762788207,-0.9006023835,-0.9139057286,0.0514214656,-0.2560953195,0.3399423414,0.9225087444,-0.221124589,0.0989178018,-0.8466588177,-0.5823909599,0.2050650646,-0.7481146501,-0.5198890965,-0.4091235486,-0.628615238,0.3433922682,-0.3323113913,0.0981117194,-0.573143631,0.343468182,-0.8445354831,-0.0044711287,0.2944753315,-0.0978025539,-0.3577763383,0.2586631579,0.7859992401,-0.852575414,-0.3365768424,-0.4992782867,0.7263872413,0.8248034513,-0.386834353,0.1059390381,0.5130706604,-0.5830990818,-0.6118968722,-0.4823990982,-0.2947103882,-0.4610912755,-0.7566484989,0.0564089866,0.221787405,0.4670715322,0.113333605,0.9014770844,-0.1331430503,-0.8779554425,0.3905623662,0.7378290092,-0.857080889,0.0867654222,-0.775454181,0.2370762079,0.3894812139,0.4773505142,-0.0447538442,0.4229060943,-0.0837065607,0.4616821224,-0.4540717122,-0.0479391527,-0.8048072824,0.8470251902,0.6594646178,-0.6328538235,-0.8161030248,0.1097377012,0.1407047674,-0.4847011013,0.6647095806,0.7804014853,0.8525861348,0.165649607,0.7878278139,-0.5944601842,0.1763775219,-0.1850899824,0.5618202938,-0.1110794489,0.6842774924,0.9774934308,-0.9376627572,0.6978309658,-0.4486785975,0.6182457457,0.6226679566,-0.520023909,0.7954720534,0.9108940818,-0.8657005714,-0.5326458925,-0.5583151077,-0.4466992524,0.3120453271,0.6286762481,-0.1010375838,-0.466639113,0.6493946351,0.9117487577,0.8017030961,0.7346736011,0.6660048343,-0.7908149294,-0.0490990628,-0.5650382234,0.5917100876,0.9789931475,0.9294923832,0.5756338629,0.0545800412,-0.8416388553,0.137115389,-0.8203471746,-0.1167680678,0.258379809,0.8643696941,-0.2870237341,-0.3956472662,-0.3194404639,-0.6480237115,0.7045075386,-0.5016358649,0.670190512,-0.7140743131,0.6847135575,-0.6434711737,-0.6635998502,-0.3073976549,-0.3567373484,-0.0797364041,-0.4331473737,0.0247966705,-0.5417532424,-0.1461460887,0.9248866285,0.6423659453,0.9486775628,0.4761709066,-0.9344248123,0.7671362341,0.7261978407,0.8672209416,-0.2392155562,0.6745410579,-0.7117693808,0.6966051974,0.8822797327,0.9013366538,-0.1944333691,-0.0890058867,-0.4616518918,-0.1722556168,0.2888029302,-0.4303792377,0.1589026956,0.3729815171,0.7918270934,-0.1928416169,-0.1928977938,0.5983494433,-0.2952861097,0.7645454838,-0.2548645525,-0.1181902544,-0.9000297754,-0.3998474586,-0.3103385043,-0.6472965498,-0.1265449918,-0.2970657617,-0.0003344908,0.2740968667,0.9049081961,-0.6771446492,-0.7275017559,-0.085134631,-0.7448693547,0.3468269622,0.2559322192,-0.6059964123,0.9233547667,0.5779541653,-0.4730876999,-0.1939623694,0.371897104,-0.2722851034,0.1441938563,-0.7187374093,0.9875745042,0.1704422318,-0.3459797576,-0.3765454163,0.4147868298,-0.3107431445,-0.3627868571,0.7580221684,0.4965309949,0.2295486637,-0.7622259213,-0.6737515212,0.7884364425,0.1673843928,-0.4493526085,0.9465935333,-0.2133788093,-0.8109997301,-0.8428863986,-0.2983482624,-0.0096361391,0.7291189501,0.6232378454,0.2792905088,-0.6821175176,-0.9817285825,-0.0009627829,-0.8541842397,-0.9847176301,-0.4711056613,-0.9179186032,0.7969303893,-0.308944627,0.8025681807,-0.7202990239,0.9839139095,0.1442343017,0.4781171522,-0.2725023614,0.5349625896,-0.0056664153,0.7461599282,0.6295865727,-0.9969551761,0.0821021516,0.6043129388,0.704373819,-0.1330464953,0.7908536731,-0.5471129453,-0.4771296188,0.5348992212,0.7175560184,0.520283553,-0.9418060025,0.4443548488,-0.8233397016,-0.933722745,-0.3951349431,0.6397293817,0.5314671625,-0.7297583634,0.7618642213,-0.6066033808,-0.5484373308,0.4814036766,0.6044004808,-0.8205446771,0.2943393494,-0.7796961869,0.1560906038,-0.0124792807,0.9766753641,-0.8572055786,0.0156614696,0.4908632535,-0.18590111,-0.8716038523,-0.8412118127,0.4918480484,-0.7339481959,0.1245092348,0.2010484266,-0.4679776212,0.7078638871,-0.1574687709,-0.6986484891,-0.264163333,0.7118787129,-0.8672344301,0.3386552162,0.1885002457,-0.5580028131,-0.9819482517,0.9694670548,-0.4541086449,0.0062136469,0.3422527907,0.98396565,0.8456409002,0.6807903895,0.7712644386,-0.0381897495,0.3324651064,0.7455132375,-0.3854429143,0.6065615718,0.131253351,-0.05242826,0.8697958205,0.2652570755,0.6455467719,0.4415588023,0.4064309026,-0.7690356302,-0.5592448324,0.4141188234,-0.7208386225,0.7437505468,-0.443503504,-0.9730517097,-0.9466274377,0.3893503697,0.4176014892,0.9954560655,0.6656816445,-0.8427572899,0.4254635371,0.8239666459,-0.3953826591,0.7267125847,0.8716549355,0.4700176211,0.6686019516,0.3039815204,-0.8031857109,-0.3791156578,0.7632969314,0.5648085716,-0.8953207683,-0.4133032332,-0.5914238956,-0.2943925421,0.9841008914,0.5890742134,-0.8794623174,0.0558985339,0.0688488726,0.774688404,-0.1464609078,0.448382632,-0.8835792913,0.0855082671,0.1060177792,-0.4493457569,0.4925685395,-0.6613937624,0.9565360615,0.5604783115,0.6566967005,-0.4789391536,0.9913625879,1.0042397352,-0.6982876576,-0.1590804776,-0.3716321792,-0.1574859443,0.8725063984,0.5917564526,0.1997894648,-0.4169899824,-0.8440740068,-0.0316336373,-0.5300957411,-0.2872800859,0.3818609353,1.0038421897,0.2186624595,0.1789157077,0.3954890085,0.5057498814,-0.5773466204,-0.2685373845,-0.2887916143,-0.350503203,0.7864519757,-0.4684297337,0.2989283245,-0.2272713156,0.7254942667,0.7083550891,-0.6202796346,0.6490725184,-0.5623421503,-0.2260355514,-0.6801176879,-0.7797928439,0.0898088831,-0.0419828198,-0.9338934407,0.6513591936,0.5675272406,-0.2900719794,-0.6602790679,0.2610337072,-0.2852864844,-0.8338117659,0.9040242258,0.1678217362,0.8035479142,0.0593936422,0.691622204,0.1209315895,0.0732693256,-0.745479594,0.8968987927,0.5594550708,0.6320592584,-0.6107657448,0.4805208015,-0.8923257198,-0.1552086161,-0.3075609861,0.9530369783,-0.7778979742,-0.8055090734,0.9154683809,0.1142484228,-0.8604177286,0.7392442137,-0.3786620892,-0.1279019019,0.3231011743,0.7802125047,-0.2498588694,0.396830844,0.9227138205,-0.0529923731,-0.8305207006,0.6834165181,0.1259551971,0.7078345824,0.1681490263,-0.0459313116,-0.3428651,0.2628581667,0.4402447617,0.4081678035,0.6331436908,0.939285589,0.1106818108,-0.2524793075,0.6612617067,-0.9531047155,-0.1167445716,0.5607436546,-0.7702486603,-0.2591552685,-0.3601321822,-0.052233888,0.2974329221,0.2516466498,0.7146028313,0.2074271475,-0.0720195401,0.684999251,0.2099312935,-0.8562322766,-0.7251259524,-0.0144291524,-0.9512376538,-0.4193745803,0.2881555576,-0.7049034372,0.8020560903,-0.9706462519,0.2287363097,-0.6268443885,0.4733775805,0.4249190669,-0.8854332096,-0.7650142979,0.4999842324,-0.0969276926,0.7770529769,-0.8845946582,-0.7993600271,0.0562112388,-0.0561759797,0.6579557853,0.3901775378,-0.6738278321,-0.5506216906,-0.3437415322,-0.8395622301,-0.1648615039,-0.1645483274,0.3110131791,-0.6785806596,0.774450929,0.6081426104,-0.1046843392,0.3119465826,0.4342919753,-0.9873690684,0.6743577979,0.3509864592,-0.5365511946,0.6804913957,-0.3688657226,0.8052030099,-0.5820149164,-0.1988841237,0.0056926719,0.1482383339,-0.6526380113,-0.5454793487,0.6155592639,0.3810259399,0.3958114765,0.2245273858,-0.5244896971,-0.0801170349,0.339757672,-0.0310366475,-0.1144821913,0.9724186075,-0.7482127925,-0.9473338822,0.0652845135,0.5144291833,-0.7397768215,-0.8693196384,-0.3726404567,-0.9303116283,0.0347016442,0.1973283154,0.3321346978,0.3360477176,0.2491493502,-0.3202019449,0.296006989,-0.829561021,-0.1169826846,-0.5518033417,0.0464043612,2.3485933525,0.3707290834,0.1981223699,0.4504688187,0.3136765781,0.0167409622,-0.6225042498,-0.0709801297,0.160410677,-0.2955900886,0.9462916936,0.3874233181,0.2368905631,-0.1419746156,0.1813523061,0.1141533658,0.6194718162,0.0193160483,0.0241243286,-0.6629382601,0.9874563224,-0.0036595828,0.3254915736,0.4271236518,0.7522020451,0.5167480131,0.0888794332,0.6076403355,0.47903253,0.4754854749,0.5755021092,-0.0757384773,0.3023319831,0.6870358897,-0.4762570135,0.9591899456,-0.5351663652,-0.168272665,0.4454248896,-0.8946091394,0.6175611809,0.0043075212,-0.5430162597,-0.8572570035,0.3409692423,-0.4506284619,-0.6723918995,-0.2457135332,-0.7035777768,-0.6704502604,-0.3426662908,-0.7021985996,-0.4709454831,0.1511584851,-0.3960484068,-0.4538552781,0.2317773643,0.6030765521,-0.7812324126,-0.3624348768,0.946534406,0.4585194096,-0.4791067017,-0.0921394141,0.6582134104,-0.9760863345,-0.529713976,0.7382331687,-0.8068028695,-0.284489974,0.5520973615,0.7290281566,0.5099879682,-0.18184094,-0.4835980399,-0.0432944765,-0.0286103942,-0.5449330064,-0.7861376044,-0.6819248244,-0.2232501681,0.7848429847,-0.9750071377,0.8031975002,0.3400077789,0.4454511389,-0.7582979995,-0.2888660127,0.6156605598,-0.9367766863,0.4067872024,0.5400661471,0.7782345806,0.661370269,-0.8671260977,-0.6486591574,0.373100528,0.4930647196,0.8600900385,0.586953622,-0.9270759426,0.0577034951,0.8479080501,-0.9869584859,-0.237013993,0.3902194625,-0.5315061008,-0.7456127526,-0.5121520744,0.064050951,0.8711917809,-0.1787555081,0.4309627934,0.9253211725,0.2627477953,0.8551596193,-0.3446538337,-0.7308125923,-0.5287513951,-0.412911675,0.4991882375,0.2780391596,-0.911449963,0.5680657786,-0.8285532887,0.5096564244,-0.6430296093,-0.4073850547,0.7082101768,0.2064627114,-0.385831566,0.5630643146,-0.7105450591,0.0938643924,0.3815287339,0.0588420324,0.576048398,-0.8740638513,0.0865109228,-0.4168913897,0.6136552631,0.3783401119,0.0321852086,0.2530981409,-0.4222723303,-0.9017285558,0.9017200862,-0.058413117,-0.0655155052,0.9337269392,-0.1738885256,-0.5927645391,0.9395934219,0.6531804474,-0.8826625001,0.7056863442,-0.0873335944,-0.5733199255,0.2731731326,-0.158734687,-0.7486327848,0.5545473513,0.9677411716,0.5129853542,-0.5234747211,0.6101110451,-0.6066510699,0.8829207919,-0.008547834,-0.2567391831,-0.1109331936,-0.9012236845,-0.8414519728,-0.4072363626,-0.0291474013,0.5950026391,0.8786507563,0.6250122065,0.5474624619,0.657400812,0.5675711875,0.1809729411,0.9902665508,-0.1373594318,0.6364547891,0.7996396716,-0.6771042495,-0.5388912286,-0.4783725959,-0.9216480934,-0.7331762723,0.4291098766,-0.4110743474,-0.6982577466,0.5517038891,0.1412938659,0.7130383818,0.3497063165,0.0242819818,-0.2608218401,0.4445752693,-0.0482881874,-0.4168207147,0.897283739,0.3500636606,-0.7871932023,-0.9057531155,0.3607046255,-0.2975865534,0.0669921683,0.6548759374,0.4226867647,-0.7805285972,0.3662268043,-0.764746371,-0.5683353742,0.3858636499,-0.1372077693,0.5274605199,-0.1336302775,-0.0181298081,-0.2314227425,0.1455049132,0.5493810299,-0.6805293499,-0.1637388863,-0.9135704229,-0.5718630743,-0.6308987329,0.3681396138,-0.6990843523,0.7964325446,-0.7684337337,-0.8341574163,0.4986568814,0.939025713,-0.1936460323,-0.6186658083,0.219017359,0.7529077436,-0.7271703858,0.9724303902,0.7519327775,-0.4741574494,0.0385680351,0.3864020295,0.0530573607,0.8241703824,0.4430404052,0.8072944939,0.6759542553,0.9030397621,-0.4764893272,0.050321714,0.7417017232,-0.0679203691,0.026435374,-1.2305637235,-0.1478910817,-0.9483921904,0.7451689478,0.2530623255,0.5518273915,0.0752326756,0.1824837437,-0.386154394,-0.2935878015,0.6226033304,-0.1425800646,0.543820046,0.3316030531,0.3252619407,0.4309038254,0.1769480847,0.2036384698,-0.7633166276,0.6643780664,0.6001037302,0.1347594494,-0.2644108802,0.8454595157,0.552295202,-0.3403407229,0.7078082546,-0.9133206947,-0.9567024673,-0.9029410279,-0.7042450635,-0.8983754209,-0.3474514056,-0.8420508184,0.6416699669,-0.2805477857,0.0898722928,0.9830160959,-0.2139894155,0.1226814586,0.266517519,0.1780450608,0.5638853802,-0.0635190168
   0.7976288719,0.1214897833,0.1078606967,0.9237958615,-0.4624780147,0.8197921323,0.5434571137,0.6980786949,-0.6080219901,0.5493423432,0.1683500081,-0.5113732357,-1.1940313033,0.1193266685,-0.1330609013,0.0168941852,-0.8638138478,-0.0289135516,-0.8952422705,-0.4713599456,-0.4559832566,-0.7565786685,0.9073097633,-0.7094296056,-0.315202131,0.9243088623,0.6999698099,-0.9900260115,0.1034645012,-0.5162659292,-0.7158169454,-0.7321282089,-0.0344583379,-0.0982507338,-0.4414720395,0.0806445322,0.0523832282,0.8507940836,-0.092160913,-0.6912578232,-0.4240381821,0.9148870106,0.371843116,0.5161510524,0.0116144512,-0.4196840024,0.0995346794,0.0158568256,-0.0525605515,-0.4884254247,-0.260143689,0.0067127447,0.4029939913,0.8598065587,0.20444031,0.6810710429,0.3874872929,0.2760117556,0.5595329625,0.3579521545,-0.4452499582,-0.4350090697,0.5536810234,-0.5653863154,-0.6784352866,-0.0032744642,0.7909750399,-0.1227500076,-0.7084395228,-0.5075066266,-0.379982568,-0.5808358501,0.5983422562,0.0240965769,0.7494844305,0.8977572647,-0.8330351928,-0.8394247346,-0.4473158596,0.7676267663,-0.3030529822,0.4368151916,0.2634893358,0.9464293269,0.8336187004,-0.4133291921,-0.0022617635,-0.5605445113,0.4539292207,0.1302831434,-0.7974096864,0.3238631517,0.2970608323,-0.9734336966,0.9598913787,0.6641275747,0.8968028197,0.2004034937,-0.7088306079,0.691798033,0.4117877116,0.4095472021,0.2938075292,-0.1251263998,0.9255216226,0.1760193908,-0.6154074981,-0.3135708518,-0.2729247095,-0.1436896362,0.4547711775,-0.0761847428,0.4657473349,0.4429869731,-0.7986518091,0.079412859,-0.870696606,0.1116151345,-0.6583269307,0.8185573503,-0.6031320721,-0.2118399994,0.7502272767,-0.5881238016,-0.1426001005,-0.0337138929,0.1644979925,0.9826784461,0.0959884599,0.041756448,0.9833180977,-0.8349590165,-0.3843386525,-0.825334208,0.8238371618,0.2281864618,-0.3322264011,0.7846627888,-0.2156860267,0.4325085895,0.1313701528,0.8450921953,-0.3371325092,-0.5201180822,0.0469016621,0.173841376,0.3879553485,0.80754216,0.1441543596,-0.6779237938,0.6705136626,-0.3338007383,-0.5305729026,-0.6891030202,0.162859901,0.9544195048,-0.6824583335,0.9120300599,-0.444376109,-0.2688939952,0.3190523847,0.4135829513,-0.9436521462,0.5031434492,0.9485155742,0.6669717737,0.2291169699,0.7918480082,0.000631045,-0.7794839924,-0.6536083875,-0.0509367821,0.217280192,0.577669742,0.2734586919,-0.6929618063,-0.3647883806,-0.1009048985,0.6525145741,-0.1897930785,-0.2598453753,0.7329481119,-0.4381711674,-0.6536959988,0.4160629361,0.6700836843,0.4920216455,-0.916957525,0.1483028142,-0.6575032856,-0.9194808254,0.614605021,-0.012239639,0.6672878238,-0.9740278957,-0.3394469958,-0.2985509104,-0.8183320016,-0.9625523407,-0.5603443137,-0.4869864516,0.2761978584,-0.9411848691,0.9482564227,-0.2688417646,-0.4178632299,-0.5881620406,0.753803477,-0.945004335,-0.9649743066,0.7389865388,-0.1472535409,0.6078394096,0.6732841909,-0.3270805431,-0.7943809725,0.908960282,-0.9378827375,-0.0382853056,-0.5981748644,0.2745710126,0.185267641,0.5846736791,-0.3917899097,0.3463021876,0.8253537516,0.5280908607,-0.9396339167,-0.2994792118,0.5907609586,0.0312394156,0.7957811092,-0.7224538105,-1.2289641642,-0.9318434116,0.1205304179,-0.0668083633,0.7222191541,0.614527727,0.2881522363,-0.5199028061,0.5932499644,-0.045667622,0.1999478626,-0.5624754826,0.5468976371,0.8835024164,0.67143661,-0.8906979932,-0.5849006443,0.7329620705,-0.457254558,-0.0599169124,-0.8480049987,0.3848737122,-0.4134557787,0.215101611,-0.7315989092,-0.0955622695,0.2961387758,0.8574338187,-2.7533907082,0.4848094076,0.011346133,0.3263832234,-0.3061168118,-1.004941703,-0.0235434609,-0.7607193083,-0.8879334599,0.9704432968,0.2262273678,-0.9478033299,-0.5193161292,0.8217760711,0.8798663392,-0.8088887104,0.8022351032,-0.5236914344,0.4144084451,0.6758059003,0.4068664833,-0.4228469399,0.3021419673,-0.2061255532,0.1832527783,0.8972361172,0.0085640515,-0.5460480533,0.0443061948,0.3633018986,0.239277007,-0.0934862237,-0.0129628846,-0.7015053589,-0.4110703483,0.2287619718,-0.8465370697,0.888716504,-0.1400556572,0.8866479631,-0.6166018356,-0.1774345565,-0.1381191601,-0.8639442356,0.2793437846,0.0238309107,-0.9598498793,-0.9072283167,0.9359513097,0.4675803748,-0.9768473105,0.9799586993,-0.8892284184,0.5034343279,-0.7248815199,-0.5817867412,0.6827770662,0.3252544782,-0.4850238381,-0.358099251,-0.1914528237,-0.7531112728,-0.2670561137,0.565573767,0.4337299478,-0.540461699,0.5446907554,-0.7125847441,0.2467689051,-0.4540297587,-0.8157564084,0.5213266071,-0.0115358574,0.8467616098,0.5878984072,0.7190225491,-0.7479520776,-0.7675075299,0.6802836427,0.1180919166,0.8701366831,0.6618251547,0.1773760835,-0.8086172312,-0.9467323054,-0.5679079562,0.3100034699,0.1582036813,0.2449269254,-0.2823082926,-0.8699535953,-0.5813068865,0.3654047665,-0.2443262404,0.6811730041,-0.9360722487,0.7776310498,0.536377776,0.8945205338,-0.8122676083,-0.5087294124,-0.2852386199,0.0052105257,-0.6843553861,-0.0286108553,0.5472004757,0.814048705,0.645573222,-0.7218019105,-0.7305080113,0.3451096599,0.6899128008,-0.8662524018,0.8098870575,0.0227894127,-0.4496203393,0.3818886516,-0.8016185943,-0.2191295529,0.2034860991,-0.4711085666,-0.9380840811,0.3165583654,0.6280061176,-0.8083712628,0.0963351264,-0.5177181663,0.9759617646,0.7041001043,-0.9578959682,-0.7975440868,-0.4687027155,0.1207996245,0.456141556,0.9818156989,0.8991655707,-0.1487430118,-0.059696758,0.4630899215,0.7175003978,-0.81919024,0.3886141703,-0.8388796586,-0.2749505375,0.3856834416,-0.5380893825,-0.1679756422,0.140734548,-0.2486202347,-0.1569660791,-0.6602066418,0.8407055517,0.4216091989,-0.0891758138,0.5386052111,-0.6247157167,-0.9420701298,0.4492358983,0.7416577223,-0.5264076537,-0.1849413163,-0.68265327,0.4340376352,-0.9857785953,-0.397468769,-0.6394415297,-0.3353065552,-0.0916989918,0.8673901603,0.1690297408,-0.305948963,-0.4301170599,0.8553145318,-0.0894081259,0.4086470109,0.5381209572,-0.7213812839,-0.5484483615,0.6315056578,-0.0690775289,-0.0135627333,-0.3572871726,0.1963331081,0.5344690127,0.1891320194,-0.6346129036,0.2596268499,0.4677600469,-0.8299451731,-0.6790180769,0.9954028321,0.7670105011,0.7902770204,0.7309139514,-0.3041014809,-0.5778869069,-0.6197907417,-0.9834593633,0.5862949419,0.7332517754,0.9931922932,0.6629871957,-0.8042868394,-0.1331144433,-0.4834534705,-0.5293631353,0.4428912502,-0.2727793547,-0.1095514716,0.4906060592,0.1430672509,0.9535992517,0.9040123057,0.4711723241,0.7861523804,0.1360288462,0.6720129433,-0.9590864131,-0.3319071549,-0.4210219314,-0.5215529892,0.7753259738,-0.2456035906,0.169906006,-0.1273704439,0.0938575711,-0.4325492507,-0.9713419413,0.5621454178,-0.0973917011,0.6477768383,0.5274989619,0.429548946,0.0938426996,-0.6766707127,-0.8974605898,-0.1050699035,0.3522467835,-0.4675970395,0.540757039,0.141709987,-0.5608782819,0.9143532424,-0.5055856461,0.7566644482,0.6569344059,-0.4308309939,0.5269421651,-0.3208474085,0.5313873296,-0.4451562435,0.9092898576,-0.7864349288,0.9323965977,-0.2314532563,-0.8635093521,0.3289376268,0.9997087003,0.1240010693,-0.6690345115,0.1684453913,0.5897988797,0.2848517088,-0.0397734572,-0.9724054102,-0.5977327812,0.9395995219,0.9029632246,-0.2393609864,-0.127364479,-0.224710028,-0.7318961244,0.9058377895,0.3508468659,-0.2050560928,0.9297543027,-0.8880925248,0.0019850364,-0.166381736,0.84851719,0.5252653231,-0.7791993791,0.2831148819,0.0992481291,0.1427747087,0.7160799378,-0.0364491766,0.4071991415,0.0072766928,0.3929779091,0.6615104312,0.4070805301,-0.8260528917,-0.6376949403,-0.5317299539,-0.3191373149,0.8864845965,-0.5338371377,0.8981622022,0.7888720181,0.5231111884,-0.2755415419,0.967783406,-0.7784532776,-0.2827447448,0.6245873375,0.1263048547,0.9580169838,-0.9438743467,0.4178764929,0.7545280438,0.6871403681,0.2948588029,-0.7622028549,-0.6701779187,0.6866266845,-0.5947073766,0.6882096006,-0.5294584885,0.1184336857,0.3437879601,-0.9619154912,0.9033291818,0.4145689745,0.1415608049,0.7400731476,-0.2998875423,-0.8489113409,-0.3805288721,-0.0144646962,0.3317948437,-0.0337262175,0.8419895063,-0.4983693865,0.8300875446,-0.8772714962,0.4081374379,-0.2982484653,0.3112952855,-0.3262383491,0.8094944902,-0.0895782761,-0.7339884326,0.5155270336,0.0318567387,-0.8286431488,0.706095486,0.5314931779,0.5533812524,-0.1609333765,-0.525619703,-0.5741855183,0.3605880412,-0.2713384007,0.8488243483,0.3045282173,0.9055635863,-0.734647648,-0.2047874718,0.8131629086,0.5930297184,0.0344536446,0.4121056653,0.2575492387,-0.1105051235,0.1904839732,0.9125149397,0.6070767203,-0.1565172189,-0.5046976693,0.8171808073,-0.8411689806,0.5006838706,0.3173404987,-0.6127769992,-0.4964946198,0.2071190489,0.3244734064,-0.6695338623,-0.4878929157,-0.4440954646,0.3428153795,0.8924416339,0.3629578712,-0.8535069959,0.9881774914,-0.7027344102,0.8379226585,-0.4748130042,0.4099847531,-0.8231824891,-0.3001970643,0.9454042552,-0.976262168,-0.2077529744,0.5008307758,-0.4411185523,0.1465102266,-0.8759928183,0.0979383798,-0.9624641107,0.871018627,-0.3014492418,-0.1242351235,0.9714029181,1.026142668,0.6378985374,0.2848140635,0.8303370875,-0.7626687107,-0.1496671905,0.2737584795,-0.1538614435,-0.4516188555,-0.2836378616,0.2152225274,0.4653850221,-0.4746980951,0.6020363689,-0.2276548228,0.5011341647,-0.3199448594,0.3660145595,-0.3174534788,0.8543887803,0.2937101644,0.390644345,0.8592478676,-0.9704832988,0.569331055,0.7425040126,0.3262086294,-0.2634860171,0.0991672071,-0.155576086,0.0691421321,-0.11191582,-0.6592766513,-0.4900519849,0.3909042737,0.5341470948,0.13740528,-0.2006530545,-0.4662568941,-0.7711897243,0.7345698451,0.5238630248,-0.8386036952,-0.3507966205,-0.2223304804,-0.5325601995,-0.8573854102,-0.6015788353,-0.724725315,-0.2519834633,-0.3109235197,0.0809859841,-0.5961486284,0.1967013075,0.5699369411,0.3124402953,-0.071436175,0.3059763856,0.6142271938,-0.0540671269,-0.7253242715,0.8583050491,-0.0332995237,-0.6265686761,0.7804594289,-0.78204037,-0.3958058414,-0.8401557194,0.859915963,-0.3566540073,0.6524728134,0.0173383408,-0.3751148493,-0.7551710474,-0.5383498441,0.5086478252,-0.363745355,-0.3104514695,0.9816573014,0.8386148992,-0.4148897957,-0.1263578522,0.1969310138,-0.5180558782,0.3367202662,-0.9387396415,-0.3654659282,-0.6997822238,0.2389173334,0.0744596264,-0.3903457471,0.7618091986,-0.1185800124,-0.4169651374,0.9605948946,-0.3836989566,0.2316435062,0.8537345572,-0.0038781265,0.128035185,0.794045484,0.3507753688,0.6631037523,-0.4584971393,-0.4802587127,0.9781427227,0.8441650391,0.6284660217,-0.1053682312,0.4825721849,-0.3566953843,0.7650509663,0.3888774431,-0.1747981855,-0.1761204839,-0.6414065926,-0.4541583718,0.659126042,0.2798296541,0.2358718062,-0.8459967921,0.9451240339,0.7263413569,0.0392787806,0.2351458759,-0.8946460518,0.5544493775,0.2997397408,-0.6375945457,0.1438967101,0.4518976241,0.3124585001,-0.1835807754,0.7890995718,0.328161512,-0.0873478392,-0.9253979564,0.2727273834,0.8775055538,-0.7415277596,0.7298327991,0.14828433,0.4389919781,0.6667897827,0.0759335844,0.983422096,-0.8132917564,-0.2666003338,0.0298922247,-0.4529523523,-0.8992137202,-0.7432575128,0.2616912706,0.7258610049,-0.4203642094,0.3990000127,-0.3780826589,-0.4644584989,0.7635408282,0.761803948,-0.5454687864,0.5127302945,-0.9733516271,-0.4228704306,-0.0564948616,0.4158346766,0.6409044876,-0.2423205717,-0.4318660123,0.9691896747,0.4336190715,0.9526760312,-0.1644522657,0.1661664135,-0.4106308772,-0.7299417501,-0.3027996993,-0.6021680893,0.4936976665,0.4980303216,-0.3465266257,-0.1643732257,0.7465703554,0.4634906949,0.3997246896,0.1589094312,0.3403565822,0.3808116154,0.30199969,-0.3795721229,0.9844497295,-0.1484047745,-0.216727867,-0.443910953,0.4532914715,-0.1683214808,0.5376097586,0.4177224286,0.4623362836,0.1136997556,0.3919786816,-0.2612470246,0.4195180274,-0.8563896002,0.6130314956,-0.9460105102,-0.445999779,-0.5468491951,-0.1740738723,0.1510590806,-0.9443320801,0.2627485893,-0.3812228495,-0.8600734257,0.0858361807,-0.6577580242,0.7798343996,0.0730631676,-0.0294407032,-0.1709450037,0.0864646328,-0.708443292,-0.0688216956,0.6308939137,-0.6942720353,0.6340052701,0.1544066513,0.1195237935,0.3729863185,0.8896925283,-0.5952683676,0.6033635838,-0.7763172917,0.8325850536,-0.6067630991,0.9753270428,-0.422327333,0.4080984779,-0.4122895182,0.6393059223,0.1061112129,-0.8313512387,0.4203376599,0.7041925842,0.8159013101,-0.7419028891,0.4713764192,-0.5544180283,0.9359572959,0.1233753903,-0.2381517681,0.7264119385,0.8996027863,0.0106017733,0.2112894771,-0.9891269967,-0.3554510375,0.8869603827,0.0316685768,-0.8110615528,0.7240326087,-0.5078823893,-0.2766945363,0.8254864041,-0.3451187497,0.8577659933,0.8200728279,-0.8639148276,0.0044770309,-0.7115836444,0.0615057179,0.1828755439,-0.0364910088,0.4055581514,-0.2341382465,-0.5003214647,-0.435124191,-0.7801113187,0.5143668717,0.0715353644,-0.5508549603,-0.815904106,0.8111206588,-0.3440370941,-0.409400498,0.323767371,-0.6337732874,-0.2273068143,0.5059249738,-0.5228766136,-0.7087676744,-0.1814951186,-0.054513337,0.0268184902,0.5641273101,0.3924911327,-0.2513664009,-0.331498685,0.2003497573,-0.4812963793,-0.9607028351,0.6430943294,0.1215229641,-0.7175936436,-0.0385834035,0.1050252297,0.4210806973,0.5515516151,0.8338950984,0.381442654,0.4371003752,-0.8481684975,0.3993461767,0.9176379219,0.8249934063,-0.2881524486,-0.9313152739,0.5977774189,-0.5524873463,-0.2848846772,0.0031774695,0.5028332959,0.9055417588,-0.9018957211,0.079963661,-0.7201562116,0.4281622917,-0.7083477332,0.3287273855,-0.0280077722,-0.55285163,0.2063233715,-0.6294444712,-0.6375039863,-0.7453940524,-0.608743277,-0.5288747497,-0.646682525,-0.6913097039,0.2708733175,-0.842223752,0.655569762,-0.5792148745,0.3763964009,0.2557697514,-0.8718227379,0.0341267383,0.784395237,0.405693954,-0.4335661421,-0.8208883097,0.8503225388,0.5838556648,0.5235446267,0.7501187758,0.2632191379,0.2638186936,0.4019454996,0.5343655227,-0.0248198956,0.2811355137,-0.3465454752,0.2637931801,0.2841735607,0.905546858,-0.3366606459,-0.2706014238,0.5887429265,0.341962554,0.0704398688,-0.4132173,0.7226426465,-0.9055176077,0.330692805,-0.6836012338,-0.1626931526,0.8969376474,-0.8041369424,-0.2362486756,-0.3901304489,-0.4774078984,0.1322900985,-1.192586414,0.7899464853,0.4057658151,-0.938105908,0.7521266045,-0.7529044501,0.2282745157,0.8610109041,-0.3565415508,0.4161542759,-0.9615465532,0.8433517955,-0.3953813888,0.0208766258,0.0205239753,-0.9459008998,0.5246504301,0.8804837968,0.7441622627,0.7833662059,-0.6696371549,0.2655223419,0.8615297906,-0.0497441917,0.9784886369,0.8940196798,0.2865339727,0.1358888408,-0.6160948422,0.2265015245,0.7068982522,-0.2605526273,0.8320542591,0.9750449129,0.6131675467,-0.1593891606,-0.4186700972,-0.0203078036,-0.2919632139,-0.8566634834,0.3851120902,0.0132981211,0.7058208939,0.6456592905,0.9907436557,0.1744488039,-0.5875004392,0.0755368755,0.0770771694,-0.586846128,0.7326826319,-0.9230186999,0.8280883728,-0.8222851815,0.443228195,0.5260300541,0.0089150867,-0.8686826851,0.0933371002,0.2660921461,-0.0189780494,-0.6649248281,-0.0196825965,-0.9036106056,-0.2983183094,-0.6977337449,0.3224657901,0.1514114588,0.0635109435,0.1209365029,0.7240069198,0.1426738653,-0.8832335262,-0.4103579085,0.8378353533,0.3057592998,-0.4549220474,-0.1754230675,0.7849393429,-0.0696614258,-0.9416974217,0.7726167217,-0.1282653915,0.3208643602,-0.8199605919,0.0699812846,-0.8750038878,0.0255280539,-0.7350253784,0.0696767105,0.5878718647,-0.1602281194,0.1599102082,-0.3662209994,-0.736741047,-0.3184838465,0.3064527065,0.075454247,-0.8727796366,0.7530778554,0.7050924583,-0.2850422661,0.1190904612,-0.706944302,-0.1720473188,0.8702691357,0.9057238734,-0.1191127184,0.8250836129,-0.1996831845,0.3482404184,0.3302475408,0.9491960359,0.8086319844,-0.2268669319,-0.9068813157,-0.2772992976,-0.069891365,0.7871687525,-0.6227367212,0.5851672239,-0.2397590085,-0.2882000368,-0.763873882,-0.5576720732,-0.0243915896,-0.5363700125,0.8320367449,-0.9953011062,0.4364046186,-0.3511403723,0.3463759942,0.5908458553,-0.148215625,-0.0185575898,-0.8135662159,0.0920679662,-0.4247664355,-0.2144089204,0.4161270816,-0.89905918,-0.3351990372,0.4658699809,-0.489850109,-0.3472665974,0.9091729308,0.5815999093,0.6862030189,0.2251295882,-0.9732127835,0.4553202981,0.7460950946,-0.9742994438,-0.2871366689,-0.0912906759,-0.2245087279,-0.7054139615,-0.9414081631,-0.2705372413,-0.4979864774,0.8465636539,-0.3907229717,0.8882823542,0.2908192026,0.5937849877,0.8711621755,-0.4544142964,0.6734924164,0.8444885218,0.246426976,0.3994043893,-0.0965484197,0.3513218963,0.7066401747,-0.5888512973,-0.576031647,-0.3695139226,-0.3657103744,0.6050706722,-0.970296178,0.1450687549,0.5094951456,0.3924686946,0.1992206878,0.2463526835,-0.009481922,-0.0954671166,0.6097809202,0.4460534028,-0.2849124291,0.5533516814,-0.8142245923,0.2845894899,0.1505012765,-0.4073336296,-0.5987477016,-0.3328026294,-0.5687101702,-0.0962369693,0.7194045385,-0.34863705,0.1433857353,0.8676487085,0.3852092118,-0.8981017534,-0.8355802888,-0.5184946723,-0.5155835391,0.7344941559,-0.5983573828,0.5936576662,-0.863453963,0.2945724017,-0.8758306901,-0.9010566497,-0.4844874142,-0.0587690898,-0.3392667921,0.404544638,-0.6503907478,0.9697302114,0.0022958968,0.4524511635,0.0018264665,-0.3706581894,0.3540790938,-0.2941745064,0.4499786487,0.3356426468,-0.0406874923,-0.6665339833,-0.0567761242,-0.8499630419,-0.7269924842,0.3004841544,-0.6211021227,-0.3777647314,-0.9724745112,-0.3834805491,0.7459240578,-0.6830504479,-0.3285124009,-0.1677710412,-0.1020751058,0.7991180616,-0.3735358959,-0.2970373825,-0.4753913759,0.5402905003,-0.5697529785,0.1817864254,-0.2681675314,-0.054013708,-0.5049908652,0.3315089262,0.6460686449,0.2306590814,0.7545120507,0.7208445282,0.1825367131,-0.0220486788,0.7073932814,-0.0976007764,-0.5905089289,0.8213236737,-0.843909142,-0.7074892733,0.5348245327,0.3053260947,-0.8094426602,-0.0513944703,-0.3307619979,-0.506935501,0.8396610164,-0.7203506704,0.5709551149,0.1732701111,0.7125145883,-0.7875672085,0.8829851625,-0.1827940399,-0.0608797614,0.565641566,-0.0204423445,0.6334743165,0.8440000011,-0.5505089159,0.3521286743,-0.6070923568,-0.8988079592,0.4953614858,-0.8677047576,0.1086397698,0.4714985362,-0.9155557642,0.0039799493,0.1816141867,0.4873590274,0.4772945393,0.1266984588,0.4440649843,-0.7565636095,-0.8299533189,-0.5435367587,0.8841814023,0.0804264301,-0.7927943061,-0.9360978121,0.4325979165,0.4509165172,-0.7999557392,0.8353514049,-0.7216464049,0.501604599,0.6810756209,-0.303301182,-0.7376756949,0.7015340083,-0.295428852,-0.1853386352,-0.5909887905,0.4530689553,-0.8220583753,0.5410845731,0.2742547374,-0.224851022,0.6150862288,0.7324837261,0.1909067838,0.2190656822,-0.8001701942,0.7863533732,0.0631506265,0.7071960378,0.6351624333,0.1136073615,-0.5891661865,0.208171682,0.318156502,-0.4145473887,0.7274655301,0.3559870357,-0.1226757207,-0.4633200521,0.1562677851,-0.9602924928,-0.4597644928,0.796710343,-0.8040239368,-0.2756031266,-0.3487266189,0.5770756241,0.3325249236,0.4793038755,0.3414129803,-0.6785393578,0.6890231981,0.3205676652,-0.0164537465,-0.8207056997,-0.6369824411,0.926702887,0.6667514109,0.8659651871,0.8882896299,0.2864061519,0.162398032,0.1174394702,-0.2182785775,-0.1691482638,-0.1111670868,0.2530067081,-0.8197308686,0.6478188775,0.8506407648,-0.369327463,0.2154481198,0.7314845561,0.948466479,0.8775248452,-0.3101184683,-0.3954518488,0.2905106214,-0.5700650184,0.3473897467,-0.2561248047,-0.3139671127,-0.1739502539,-0.265092593,0.4233251991,0.0045622289,0.397424704,-0.7746886114,0.8346545135,0.5235455487,-0.3679803558,0.8878152821,0.2635698473,0.2767433869,0.5012480539,0.9437655657,-0.1055347426,-0.2023366623,0.5212366657,-0.273932849,-0.6428288066,-0.6149428314,-0.1049072312,0.0902848545,-0.1606191338,-0.7746132996,0.2897093472,-0.6360591149,-0.0660810065,0.9163530168,-0.9918343147,-0.8296362641,0.0752302605,0.0923811869,-0.5141713659,-0.7230888536,0.7626386484,0.2404940741,-0.3009749763,-0.5727365899,-0.1984894196,-0.872830036,-0.3022787671,-0.3290532645,-0.0887440253,0.2532701745,0.7718818165,-0.1239805602,0.7483935061,-0.7757141939,-0.1655235504,-0.3931025783,-0.6481007399,0.2199089373,0.649863742,-0.5245537159,0.0698735695,-0.8332820897,-0.5928253502,-0.6208949954,-0.6262023185,0.8740479448,0.5721180745,-0.7034745464,0.8378087468,-0.937218252,-0.5118242999,0.5884912617,0.1695953571,-0.956512694,-0.8277377282,0.593125233,0.0523556911,-0.9526315227,0.3771553573,0.9225473768,-0.6055352705,-0.789433162,-0.0515809842,-0.8418546025,0.079892815,0.5427483073,-0.4715558833,0.3367020219,-0.503002243,0.5256713161,-0.6804627344,-0.5304788998,0.3795504758,0.0798464697,-0.812374891,0.0772359982,-0.5069608904,-0.4127029261,0.5208323995,0.6234105437,-0.6169175454,0.2119425469,-0.1026600688,-0.3050158329,-0.8085484285,-0.3749575466,-0.4072660243,-0.2480330842,-0.8370404595,-0.2463297588,-0.1550388198,0.5016742595,-0.0819294797,0.9827220588,-0.026495547,-0.7364965072,0.683310756,0.5761347092,-0.8848135326,0.013874435,0.4879684538,-0.0393692775,-0.5043084884,-0.6874465325,-0.2909363539,0.4310856972,0.85460632,0.7101881983,-0.7993099505,-0.0977155411,0.8469068681,0.1691776283,-0.2108909621,-0.0281518062,-0.9446514075,-0.9793027193,-0.5333498172,-0.2805480583,-0.5737379843,0.3002570854,0.4790348949,0.3289034663,-0.1250902352,-0.5226692905,-0.5392123292,-0.1686526964,-0.1171950249,-0.8011997088,-0.9558344832,0.3941934382,-0.4958184233,-0.4224634185,-0.7520885268,-0.2950093327,0.1620849316,-0.9580151248,-0.4124580032,0.0398645559,-0.7709037711,0.5125800313,0.0675346049,-0.6584045624,-0.9084434054,0.3649227043,0.4036855752,0.3106694882,-0.8326660915,-0.7524357335,-0.1382371718,-0.4412855792,0.5800867612,-0.2102475234,0.9245075916,0.493434185,-0.4858333777,0.695759507,0.0576319603,0.8447496152,-0.271002225,0.6296896016,0.1498786175,0.3534548022,-0.3537600781,-0.1314212074,-0.1124194124,-0.7549248796,-0.3386288452,-0.8586881579,0.1864904033,-0.6507953404,-0.7683262289,0.8020201901,-0.340465371,-0.2612152069,-0.3078350464,-0.297560968,-0.2635614158,-0.5263438304,0.0039756393,-0.6398268342,0.7105671617,0.6862032716,-0.0449669094,0.5711429919,0.7620300767,0.7710677912,0.8046339644,-0.9538328556,0.815701152,0.8857448225,0.3219794059,-0.9703947178,0.3088329648,-0.0737410819,0.3333391396,-0.39648947,-0.1993856457,-0.8027839318,-0.2145015443,0.3288622008,-0.3572787598,-0.4272060682,-0.5931017454,-0.3597931853,-0.674305368,-0.0683099917,-0.2217475808,0.7363676674,-0.0612767749,-0.0854212773,-0.2106908697,0.8025929389,-0.9694599178,0.401904008,0.8340354619,-0.1382860784,-0.1435168129,0.634140423,0.1387213927,0.2715635322,-0.616140177,0.2422509069,-0.0827692206,0.6966807112,0.8487967708,-0.2961778379,-0.7200893371,0.1203520437,0.8542207755,0.7420498988,-0.9368261923,-0.498333126,0.6681345047,-0.4761365444,-0.6212937468,-0.0383998856,0.4280647404,0.9439344589,0.8419730488,0.4540228529,-0.7736557463,-0.5926384435,0.2593559951,0.7995196212,0.5304012474,0.6896622269,0.6077100097,0.0314221857,0.1299354389,0.0727759442,-0.5371584497,0.1142620902,0.1611650057,0.8961820171,-0.0819016033,0.7542479555,0.1521771696,0.0188080072,-0.9128483129,0.6833256852,-0.2118406728,-0.6168771868,0.7578084724,0.9374490458,0.219272028,-0.4996746303,-0.2227277578,-0.3641985958,0.8156294485,-0.8891143533,0.9766139043,-0.4594782821,-0.4690726393,-0.3619177351,0.8907093574,-0.7232767741,-0.6021311775,0.9827742707,0.9241221917,-0.8222468321,0.3785311122,0.5810496938,0.8969801496,-0.8419878024,0.8434602695,0.6721550718,-0.3931982718,-0.4253096756,0.7295426807,-0.439824781,0.9190861442,0.7665944203,-0.2392467968,0.741472033,-0.7884223812,0.7833395699,1.2202470669,0.4213663043,-0.1130852283,-0.5821950181,0.4117044731,-0.5188549079,0.6739862702,-0.0414083598,-0.6622790089,-0.1808084166,-0.8963551341,0.9582837462,-0.5221914036,-0.284987055,-0.5490343335,-0.5716395406,-0.2517638865,0.4906462653,-0.9432154297,-0.1962870232,-0.7446636997,-0.4188516033,0.5991501757,-0.5808037432,0.5166677399,-0.3057547481,-0.6387382172,0.9110406685,-0.4034505703,-0.1480155439,-0.8537027081,0.5731451277,0.3098229548,0.218015299,-0.6256654481,-0.4334038603,-0.7771470821,0.9036827656,-0.2775267803,0.305571629,0.0442410726,0.0913780116,0.7926352889,-0.5110973644,0.0129134586,0.0023032504,-0.1119016884,-0.5859228,0.254108779,-0.7425253626,-0.153667395,0.0453825786,0.9329349724,0.0990972647,-0.7777978542,-0.7923017478,-0.3014964622,-0.1854573503,0.7334096187,-0.4802828504,0.0609204732,-0.5182988119,0.2870165571,-0.0731842262,0.334209571,0.9889597456,0.9040244051,0.7419815296,-0.9649610787,0.3759180052,-0.204788344,0.9230307088,-0.648718573,-0.9897915672,-0.2645791059,-0.5388492082,0.5308652811,0.3510413879,-0.264652986,0.2783845765,0.5535207655,-0.943059094,-0.2069715668,0.1368171023,0.1456870169,0.1442444057,-0.3623762111,-0.7035036205,0.2126595955,0.6163452161,0.2437251129,0.4727751129,0.4456684984,0.9526418473,0.0777627409,0.2893848939,0.8785108045,0.8683317947,-0.757014792,0.6168752964,-0.1256577914,0.2215017784,0.6693645812,0.4454357964,0.0167908948,0.9592651811,-0.5271137362,0.2120548112,-0.656233335,0.7909513963,0.7637939424,0.1781367517,0.9222216958,0.7283917656,-0.8667677253,0.4456968283,0.0418005196,-0.4288816385,-0.6521899498,-0.4420915043,-0.8649096343,-0.8993006579,0.7263619539,-0.2421327423,-0.5276331607,-0.3630400481,-0.4971997307,0.2519729023,0.4686218386,-0.5905115176,0.3784927995,-0.2983176101,-0.9922372424,0.5157083735,0.7967854983,-0.2986597285,0.048441312,0.630994789,-0.2638159762,0.4519306318,-0.3024568936,-0.40747563,0.1770439402,-0.1779440888,-0.2474461369,-0.9868136194,0.4997981853,0.7841395508,-0.9857618455,0.4737211623,-0.2867274865,0.0229525617,-0.293658724,0.4729619282,0.2681150816,0.8017699515,0.1086740319,-0.8470319649,-0.4257801371,0.6592494894,-0.8956387866,0.6773092128,0.6002635554,-0.2089042291,-0.639982998,0.3274152757,-0.7580201292,0.6714051057,-0.9043686742,-0.3212730305,0.9625074242,0.5030627877,-0.0024785783,-0.4117614085,-0.3970762732,-0.0060963603,0.5690354735,-0.4254811904,0.3336951461,0.6798151098,0.9481226279,0.8369214745,-0.7655330482,-0.9667421643,0.065766424,0.7364915111,-0.4580359698,-0.8555337709,0.1342636165,0.1712099176,-0.9764886145,-0.8681522356,0.1265465446,-0.4525548723,0.8470601093,0.9544317125,-0.2356630785,0.2067919274,-0.2455544883,-0.3687618995,0.258424849,-0.182333763,0.3814620162,0.7664979106,0.0824181451,0.2422100032,0.3504411017,-0.8211081457,0.5266156593,0.8216943497,-0.2754962152,0.6781668484,0.1692588164,-0.2548900829,-0.0474591033,0.5697420994,-0.6481391473,0.9552098665,-0.7358013653,-0.3014421161,-0.1914407806,0.4375949935,-0.2206133378,-0.9617431944,0.7212459286,0.8833573296,-0.7148335314,0.3377082227,0.186183895,0.9523783769,0.4457924451,-0.5255193041,0.8977635517,-0.0922774059,0.1502344695,0.7016909128,0.4348730607,0.106913264,-0.5530667942,0.8729828096,-1.0796695073,0.3431801714,-1.0253257374,-0.5486931239,0.0735582402,-0.9269494497,-0.08919744,0.7569853804,0.9377346892,-0.8783991704,0.435852328,-0.0962968936,0.6906956865,0.7912832299,0.9462828993,-0.6524835796,0.4744061504,0.6121133419,-0.3949133225,-0.9692526201,0.4251809208,-0.2467581853,0.3029962032,0.1198898537,0.3802040157,0.3961646502,0.8350389067,0.5379377286,-0.694727674,-0.899596034,-0.7490589481,-0.6640487075,-0.0499387186,0.2449397452,0.3811830671,0.2826963815,-0.9536598402,0.1005973341,0.3007540475,-0.7181023942,-0.2221340644,0.205425881,-0.9134064065,-0.4814657313,0.3139622119,0.6125493904,-0.7977403935,0.8296693085,0.8224282638,-0.0747817811,-0.4172029409,-0.2416933358,-0.7623619339,0.0697537062,-0.7493821135,-0.7051741071,-0.4614001017,0.6740250403,0.5722761821,0.5847791548,0.2187100838,0.3485541758,-0.4066198231
   0.98308256,0.1459277749,0.3493526226,0.4030166526,-0.8144785642,-0.4563865442,0.808931923,-0.6476027741,-0.666879321,0.7950358332,-0.6023864486,0.5902303925,0.7942835631,-0.3284995424,0.9015801088,-0.3961279095,0.673728745,0.5270923632,0.2908706771,0.9067496975,-0.6867092821,0.2538201299,0.4135398758,0.0955863151,-0.891877295,0.1725189933,0.4283076683,-0.5137723123,-0.4781382582,-0.2160219978,-0.5247681543,1.4430312532,-0.0780463585,0.6028675001,0.3602449507,-0.8296419658,0.1252897289,0.82796415,0.9716389772,0.8882230015,0.7889601887,0.2025023417,-0.7967997808,0.1462003467,-0.4284440675,0.5199447175,-0.8698495169,-0.7673077546,0.3489224846,-0.8498089525,-0.6349829274,-0.9610041853,0.4172789411,0.2502967412,-0.805705002,-0.0225567267,-0.002030623,0.0297488047,0.5045834672,0.6418762699,-0.1959255209,0.8627180929,0.9642651704,0.3559565558,0.2864316509,-0.8278934028,-0.1235599253,-0.421773163,-0.4783482317,-0.4741632439,-0.0667156174,-0.5495578625,-0.1287298233,-0.9724859448,-0.4312071639,-0.3722151588,-0.0605770447,-0.1080126703,-0.494238227,-0.2659552339,0.7836166963,0.6241798425,-0.2525800664,0.3204655562,-0.1645777369,-0.7141029501,-0.091635215,0.1974571243,-0.9288089919,-0.3662212086,0.7660157939,-0.0895749471,-0.0976547509,-0.3128942349,-0.9704111702,-0.4571792175,0.9486606004,0.5582517902,0.9138080953,-0.8543510412,-0.2930102584,0.2486092598,-0.363416895,-0.2736337183,0.7974853184,-0.1755233615,0.6552219541,-0.0430858338,0.6438858012,0.610525204,0.3072539763,-0.4431476492,0.914862368,-0.8022403534,-0.9484750738,0.1726683959,-0.1974113062,0.0642923952,-0.5355180791,-0.9046538932,0.6441079614,0.8182528064,0.8741697733,0.606586148,-0.4669595352,0.7834761141,-0.4569387516,0.5792112844,-0.0362078665,-0.503036656,-0.7712545057,-0.7497098142,0.9862859888,0.4016399744,-0.4535781486,0.4605612591,-0.6736160873,-0.2395857044,-0.4970233469,-0.5728697411,-0.341884681,-0.7419165619,0.1425175732,-0.3050958252,-0.0393114918,0.6143465609,0.3693091782,-0.4040761171,0.4934104683,-0.6305230932,-0.6950940485,0.607853513,0.2257556926,0.2044986279,-0.1629195845,-0.8979227684,0.5101947739,0.4681499411,-0.9188253683,0.9717877506,-0.5784556096,0.3068695513,-0.9773431468,0.3047927436,-0.7503291548,-0.1992283918,0.203800543,-0.6647434088,0.330190356,-0.2268430783,0.6965523941,0.9449651367,-0.322488415,-0.5828685467,0.4400538918,0.5202499594,-0.2520027421,0.3310187595,-0.9135510115,0.5656150777,-0.3693179403,0.2936260154,-0.3150482164,-0.7734014148,1.0674284005,-0.0119736642,-0.1788940445,-0.8261405443,0.2593278646,-0.488813508,-0.3701449827,0.5520045357,0.0871520631,0.1643634486,0.569600297,-0.6729997031,0.5737837414,-0.5886523627,-0.1329486228,-0.7657182062,-0.9418323175,-0.5967986679,-0.5106284142,-0.0441382088,-0.6039684589,0.5805181531,-0.4908621819,0.3762508226,-0.2066776921,-0.1388535454,0.2853247657,0.8293076633,-0.1247190301,1.101316487,1.0751626023,-0.7999667941,0.9656563239,0.8603575993,-0.709066994,-0.0814619648,0.2087067926,0.5354619826,0.6087765413,-0.033247886,0.163186157,-0.2560106824,0.4190339453,-0.5596367482,-0.9370196816,0.4901944281,-0.9687026048,-0.10244727,0.982183754,0.6869899707,0.324346612,-0.167027758,0.3777469781,0.7184678047,0.4247234272,1.011102184,-0.6168134884,-0.5359975764,-0.726303555,-0.0816679961,-0.1400911104,0.5853364584,-0.6858606634,0.2723828541,0.7933342709,0.6018174113,-0.4091627032,-0.8052927054,0.8029462604,-0.5078749682,0.4563789594,-0.552156366,0.4934913143,0.0214947081,0.0800182631,-0.9185162436,-1.0149648471,0.0811493822,-0.7474621069,-0.6744062507,0.6941883982,0.5904093463,0.1331614789,-0.4694037378,0.2264492857,-0.5958906822,-0.8526718706,-0.2793018221,-0.7971908122,-0.463408274,-0.9663283759,0.8272294501,-0.751389659,0.8912406294,-0.7185004842,-0.0478013079,-0.4061836261,-0.4572625132,-0.9637917401,0.0221963749,-0.8422468978,-0.2255770779,-0.618066943,0.0050041884,-0.8661115196,0.0749960537,-0.4520202604,-0.2817300343,0.6729902865,0.7941471509,-0.8328132643,-0.5105786131,-0.2714709171,-0.6549684522,-0.007128439,-0.1399859567,-0.1362729779,0.9171811667,0.6533665566,0.5844312474,-0.6980825518,0.7291314418,0.3580563264,0.0932019915,0.1754604454,-0.2855003176,-0.7523139425,-0.4661949394,-0.5143827326,-0.0094062697,0.8641457067,0.6031175161,-0.5740988144,0.5629929189,0.7411405733,-0.5771214188,-0.3124565888,0.6457240613,-0.3603035632,-0.2040955171,-0.3537946135,-0.6701820122,-0.9539727085,0.9774891592,-0.6514896442,0.5971292705,0.4642773715,0.0578266059,-0.5437124442,0.5590348783,-0.2475467433,0.1330940205,0.2470283494,-0.4296727775,1.0098089769,0.6478586335,0.31106346,0.2928682944,-0.2777702927,-0.5483431489,0.9574711123,-0.5234602982,0.1441724412,0.4725820512,-0.0925586013,0.4520295072,1.0018469972,0.5424661358,-0.6374518607,-0.4990166131,0.7453663205,-0.1227798928,-0.4464234308,-0.0583188957,-0.720325432,-0.1679448197,0.9693113291,0.6771767953,-0.6932786564,-0.6158229426,-0.7583293766,0.5470039505,-0.1008518399,0.8853401983,0.1749351104,0.330377325,-0.1263712928,0.9326202997,-0.5695133611,-0.5460555063,-0.0606488599,0.8092913417,0.4426007796,0.2528479673,0.3660582631,-0.3759404659,-0.3783387591,1.0043560204,0.1316227158,-0.8622988219,0.737456955,-0.9391339397,0.7035304346,0.1837611124,0.4753010981,-0.663032882,0.7612776541,-0.1820016531,0.6406550235,0.5664606296,-0.701082767,-0.0517735069,0.3002003175,-0.2658883689,-0.3170610126,-0.2136343037,0.5889151586,0.897281862,0.9722415192,0.4395187317,0.1636483041,0.2035194156,0.0649296686,-0.0530420812,0.9882879053,0.655714927,0.9742296991,-0.4257037082,-0.9439742909,-0.3423312757,-0.6092269001,0.7443694831,-0.4143963107,0.1367373198,0.4147772963,0.7479323385,-0.5445805814,-0.1494588043,0.5172558237,0.4127800289,0.457331949,0.5431395674,-0.5742698424,-0.2801349641,-0.0676305285,0.2627666168,-0.5695152332,0.5080119011,-0.6224444708,-0.1262804851,-0.3935739998,0.1065278308,-0.0270715557,0.5982306624,0.7844995268,0.6946245517,0.7342648424,0.480029499,0.2771860062,0.1702245202,-0.7336051899,0.9135900165,0.8817403036,0.9704284602,-0.7080180025,0.3059261858,-0.4169821331,0.4243175508,0.5805873911,0.2357400812,-0.9304690119,0.1045078102,-0.6295646144,-0.3848711703,0.0962521693,-0.9411624221,-0.7116811938,-0.3466833233,0.383770311,0.238685104,-0.1268332251,-0.4769017706,0.3485913103,-0.0160855043,-0.2852852979,-0.8868670458,-0.9609473747,0.0253328254,-0.9404951551,-0.8400912433,0.7950585014,0.1032664271,0.7536234826,-0.1711919456,-0.2564808149,-0.3033019579,0.440245938,0.6319370866,0.8928129114,-0.5763264885,0.5257226394,0.5439678285,0.6200681671,0.2801554809,-0.3773912111,-0.266467587,0.289952387,-0.3950035533,0.1022389874,0.0672235321,0.8234972878,0.7500637781,-0.0351278693,-0.8682084606,0.5224921224,-0.0226430021,0.4626845573,-0.1561657309,-0.0498263868,-0.8046000286,0.8540402057,0.1149786004,0.2424390491,0.2473170408,0.7096818469,0.5723454688,0.7642920095,-0.3031332087,0.6601962352,0.0203236712,0.0647016414,0.3836871521,0.5028799742,0.1370098215,0.9988172983,-0.6734213669,-0.4558621956,0.4220735722,-0.5024133914,0.2998864569,-0.408887476,-0.197599995,0.6183552855,-0.3613866004,-0.1477397151,0.8927197214,0.3512716867,-0.0050318568,-0.4187253158,0.5015800791,0.6844310352,-0.9270139472,0.8952393295,-0.9070351547,0.0974000979,-0.5248850867,-0.5449187871,0.9764733685,0.723169061,0.8110752482,-0.2751662083,-0.6602060988,0.8452894328,0.1993728708,-0.1332531832,-0.9693865486,-0.5096290846,-0.1259634328,0.8215709977,-0.8405305578,-0.0062788127,0.2908714815,0.7471678235,0.1175435485,-0.8031988657,-0.1003693955,-0.0438668633,0.4524261301,0.4643849441,0.5811834357,0.0349764408,-0.3637360412,-0.6564632197,-0.8808365935,-2.6176021696,0.6894531735,0.8428314786,-0.614317091,-0.3873480585,-0.0809256824,-0.9018118761,-0.7367155954,-0.5155085926,0.7605535274,-0.3815146559,-0.5898003231,0.2230327195,0.5414365168,-0.0573076207,0.063064425,0.9431467222,-0.456143044,0.4449219231,-0.3247959153,-0.7375519993,-0.6015218595,-0.1614560227,-0.5641806213,0.7494698583,-0.0782821491,-0.6138178212,0.5647142424,-1.0709927296,-0.4998909843,0.5084056099,-0.546784683,0.7570599154,0.8482239479,-0.2320768083,0.3331451735,0.910984114,0.0469445671,0.9650360044,0.3701715144,0.642804388,-0.1282970078,-0.0123151398,-0.1381001406,0.3746177465,0.8590681495,0.4768806957,-0.6897795814,0.7573181541,0.3611615122,-0.896973687,0.2949920583,0.9758092457,0.9324285387,0.0494481135,-0.6716075309,0.8501492681,-0.4255284701,-0.3896014202,0.7538444148,0.0299932449,0.0307587297,0.1884868893,0.05609185,-0.0896546053,-0.3027920676,0.1445398973,-0.7344115027,-0.8623537655,-0.406653284,-0.3345299116,-0.273138799,-0.2491869299,0.2513392422,0.3294358469,-0.0580683039,-0.3123064904,0.0084048768,-0.8952452539,0.0860461454,-0.4936548944,-0.6457070103,-0.8062251154,0.4010548636,0.4295021728,-0.3096179081,0.4775904185,0.0403322905,-0.5949854653,0.6084771161,-0.4969318218,0.9045912383,-0.7728197951,0.400189808,-0.770070296,0.3595186912,-0.858106735,-0.8548823764,-0.5383254304,-0.5814605957,0.8284380024,0.9546838566,0.2616611716,-0.0550753563,0.7050779209,-0.4463228881,0.6433994578,-0.0769459526,0.6199353797,0.2265761819,-0.0030724187,0.795718925,0.3656502485,-0.8876261021,-0.9009760531,0.2019849925,0.7890529493,0.2407481144,0.9051919079,0.7200537075,0.1660392338,0.2480228047,-0.8861328166,0.1368414599,-0.4379542924,-0.9848834544,-0.6087906834,0.0410470943,-0.3608700269,-0.2822304654,-0.965166404,0.9346468763,0.2307862415,-0.2415684594,-0.560991097,0.4384401455,0.7370035438,-0.9618341192,-0.6103664033,-0.8754057707,0.2798411324,0.150707985,0.5626918765,-0.6931224207,-0.2889075082,0.3975744698,-0.9873161964,-0.8535981127,0.7393009033,0.1755870851,-0.1738560463,-0.7367947613,0.4758225392,-0.0602592021,-0.6648191612,0.583797868,0.1386645518,-0.6708155606,0.9313181664,0.831719401,0.8870339154,0.6920339342,0.8419319668,-0.2112574969,-0.4658934009,0.7082080401,-0.4889126641,-0.2025241338,0.3100645183,0.8059422983,0.487429174,-0.1974507847,-0.8731895872,-0.7676574803,0.4163668163,1.4885027743,0.9782814741,-0.1374885781,-0.1167963357,-0.3864024981,-0.535842148,0.9368637861,0.5828523405,0.8777277573,-0.4760120483,0.9298448148,-0.1475194607,-0.7531796904,0.4852202254,-0.0878182248,0.3295964821,0.1405619228,0.1433280734,-0.1711046787,-0.4190351237,-0.3297464071,0.7537967006,0.850266301,-0.117050495,0.6126949417,-0.3204887377,-0.6176247208,0.5877004098,1.1460631783,-0.6022488219,0.0547229343,-0.8653865685,0.6557637136,0.5992548479,-0.2937244373,0.2771115553,-0.3634553238,-0.7519712091,0.1573396196,-0.9821184479,-0.1298396103,0.220361257,-0.7543382818,0.3993642285,-0.8260962083,0.5088292132,0.9193629599,0.9416052986,-0.2231501698,-0.1520735737,-0.9849949836,-0.3551718911,0.3424438847,0.7677958236,-0.0368360202,0.5525401602,-0.3368058755,-0.6250419078,0.6140850585,-0.8265368559,0.3578365402,0.0254357114,0.2938325039,-0.6247032164,-0.3513728779,0.0976544501,0.8678057941,0.4983117263,0.1433274154,0.8960920475,-0.3695941975,0.0537529404,0.0522917004,0.2652803313,0.2167909204,0.6699754806,0.0892554622,0.5539196739,-0.0235228302,0.6026165757,-0.322626098,-0.3758823518,-0.0468727882,0.4342940483,0.1061758768,0.2683521165,-0.1099306612,-0.27204529,-0.5798563224,-0.0221100033,0.4172719944,0.8682608589,-0.827260237,0.0417786448,0.9557535663,-0.5445269511,-0.2287869934,0.835196323,-0.4721168191,-0.5888719169,0.4585119838,-0.6197883105,-0.7465987751,0.3339072817,-0.3998347545,0.8912432351,0.6141061588,0.6757712445,-0.8325794839,0.4159726895,0.1006657564,-0.4132943504,-0.7471052732,0.8160164233,0.2536872443,-0.4617716549,-0.4178607854,0.6103894548,0.041053173,-0.0635866416,0.3215664138,0.0960354663,-0.7641517405,0.1980787996,-0.1563106001,0.5387421099,-0.1490097066,-0.1856730468,0.0046623346,-0.960932435,-0.0872045878,0.1101325082,-0.8340495845,0.0224823187,-0.589494821,0.212080364,-0.2069861528,-0.7251673755,-0.8769784389,0.6192773516,0.7463569236,-0.156947901,0.7267757436,0.2001830504,0.018947409,-0.4123501489,-0.9758342385,-0.9202466184,0.9715278771,-0.0135247559,-0.785547491,0.4797552917,-0.2255500343,0.7155212583,-0.507004869,0.5241537396,-0.2681877214,0.7450153295,0.8991985204,-0.369236353,0.5274847566,0.6383887814,0.9072851804,0.5827437299,-0.1493668017,-0.0668609475,0.5096492892,0.7760094439,-0.7037070713,0.5609955022,-0.6694735205,0.9345183886,-0.5106675103,-0.2038075119,0.3818723502,0.7070773323,0.8782035017,0.793817361,-0.7093336133,0.3057826926,0.4637514856,-0.4024343976,-0.1959807309,0.6512423701,-0.7828635674,0.016596545,0.2985264942,-0.8684425899,-0.6358748949,-0.9501258702,-0.2385202177,0.1591538016,0.4156808543,-0.970289692,0.1296090141,-0.605881057,-0.1199065886,-0.4668019458,-0.3930869284,-0.274198013,0.3294883609,0.7751754769,0.4777892094,0.6995515565,-0.7415362687,0.4180177178,-0.9492891836,0.2313611584,0.1255160358,0.1787995731,0.5399947499,0.1406766987,-0.0714928737,-0.1973415175,-0.2967826271,0.4816313749,-0.5486927169,0.0076025214,0.4507317126,0.9307296034,-0.8141026217,-0.8090648918,-0.9213644728,0.4435565706,0.9932531258,0.9942965363,-0.2018539479,-0.9204902955,0.5345940376,-0.7241317044,-0.4516246825,-0.3858623434,0.0689539782,0.0156727703,0.1126152422,-0.4615478577,0.4990161964,-0.4634388973,-0.3933156984,-0.9058877808,0.5455620139,-0.609106882,-0.392248476,0.1432405173,0.3138676364,0.7319253969,-0.6314405633,0.7800936995,0.375011344,-0.3530381928,0.1111305333,-0.2359886848,0.1357317301,0.9622500172,0.4925694734,-0.0299544378,0.8864369082,-0.5281928078,0.4659088158,0.4478543533,-0.580298849,-0.4813560868,-0.2638915642,0.6455703872,-0.2030869378,-0.5381315246,-0.9076343515,0.006853212,-0.1154216224,0.0429767693,0.886593661,0.7739891746,0.5594465002,-0.9778188479,-0.0296134091,-0.5054774078,-0.154952993,0.3405537219,-0.6190853633,0.1551998548,0.3678100089,-0.0554754105,-0.839740591,-0.5903119446,-0.2325420201,0.1296404714,0.3527845402,-0.208634793,0.506367407,-0.3374971973,-0.5010311861,-0.5598764676,0.3450683218,-0.1839531097,0.6071926618,0.7168569997,0.295363784,-0.8116099409,-0.788239833,0.6025158468,-0.01616811,-0.8778212613,-0.1280840502,-0.2395009393,-0.5181372818,-0.5566542648,-0.0439386068,0.6520580257,0.7508086144,-0.2793454217,-0.8496853908,0.5996726387,0.0549661434,-0.7738136509,0.7856374381,-0.4750259207,-0.0053270467,0.8953858307,0.911073591,0.2915473998,-0.5655321612,-0.3246817228,0.4194688855,-0.4804255762,-0.754341143,-0.3933213109,0.6266481916,-0.0906718366,-0.2045744935,-0.0310747476,0.0646322619,-0.1363429659,-0.4531096723,-0.8746272933,0.9569226504,0.3340547732,-0.1905006204,-0.9392285997,0.8898953994,0.1844353347,0.6657988829,0.8492381467,-0.4137760076,0.2299629405,0.9363685515,-0.7903948177,0.6130277508,0.9876277648,0.4981753469,-0.9572973025,0.5590590014,0.1143170983,-0.2859636978,-0.8337343467,0.9443600554,-0.3886870447,-0.1312346182,-0.5158881577,-0.7332511606,0.2543135539,0.8022699161,-0.0212101806,0.0944782789,0.4815898118,1.0502423033,0.1130543918,-0.2991194859,-0.6877072996,0.5440844316,0.0349673519,0.7022402688,0.7814765076,0.9291412269,0.0272780569,0.448703848,-0.3170507043,-0.1045408531,0.5339571481,-0.5146454179,0.3534177303,-0.1432831381,0.0663914156,0.8541291491,0.8327118183,0.3006588516,-0.8371328365,-0.6530545625,0.496305846,-0.3627568078,0.3469976784,-0.5616817036,0.1075890212,-0.0491405237,-0.9118264705,-0.1622695948,-0.9659971228,0.713518838,0.3827531749,-0.6553193988,0.8039570878,-0.9333334488,-0.4362921938,-0.7170315064,0.3888863533,0.5677091689,-0.4748610411,-0.5880682243,-0.3116766891,-0.6416556604,0.9658089658,0.1566480817,-0.9200418405,0.9936496651,0.6328025464,-0.0387694315,-0.2220723919,0.8422743003,0.4022878362,-0.6221340171,0.8235114349,-0.9060841051,0.4177020264,-0.07936359,-0.2029664972,0.5947466001,0.3136519692,-0.9719930375,-0.9256517468,-0.1762968934,-0.2974914266,0.2632406406,0.0924360513,0.2406579438,-0.2887037838,0.5386094127,0.973199244,-0.8370669451,-0.6391484129,0.2440479726,-0.103420951,-0.1124111546,0.5611547128,0.30203229,-0.8188001344,0.6505380158,-0.1784469749,0.8247100734,0.8139500942,0.30505588,0.2775535658,-0.1792852851,-0.8481990689,0.8414631878,0.9372690222,0.2911503579,-0.4378185883,-0.354805816,0.3252423886,-0.0116832259,-0.7419307265,-0.8332193073,0.5023886368,-0.7834251828,-0.4561743286,-0.151094051,0.4826861776,-0.0724000927,-0.5162616022,0.9321641777,-0.6181962001,-0.7802301674,-0.7244762028,-0.9242098981,0.5149518017,0.6482401834,0.1753693247,0.8924864722,-0.5113273818,-0.7709330091,0.1552820763,0.0119683468,0.5694697413,-0.0979880206,-0.4746459007,-0.7435561547,0.1551055282,-0.613027084,0.9731715775,0.4546480662,-0.415108161,0.5535372628,0.6603587132,-0.8317479473,-0.8664249916,0.466057322,0.5978852969,0.6070029752,0.8913910213,-0.9618611383,0.2987599506,-0.3859064304,-0.5915601575,0.7852493011,-0.2816549264,0.7293905905,-0.4847671632,-0.7837134321,-0.4486458637,0.2404798844,0.8482458715,0.8758111072,0.3588606006,-0.3281291361,0.3578145929,0.1483013272,0.3374714402,0.3187499114,0.6968061635,0.9463197846,0.9373136545,-0.8339730587,-0.3862389779,-0.6692995174,0.9045006646,-0.0450797731,0.7587311554,-0.1905152647,-0.0796717698,0.7405139219,0.4559196791,-0.0215244308,-0.139401504,-0.0407555534,-0.2569451425,0.8791308592,0.3862793362,-0.4207398879,0.0831566586,0.0535892523,0.8960106017,-0.0263212867,-0.6203501989,-0.4751459483,0.0400735837,-0.5813766572,-0.3602169771,-0.4427190348,0.993490242,0.0350064756,-0.820696236,-0.6642895256,-0.5107494739,0.9255174575,0.1669462077,-0.8760700437,0.5803526526,-0.3650828879,0.6120137028,0.2348910001,-0.1244539318,-0.0172479736,0.8179777491,0.2685337707,-0.3476994985,-0.2228487491,0.0902238775,0.148765967,0.3718767602,-0.2546880054,0.4655216828,-0.072128382,0.6129999866,-0.0033595877,0.0467478485,0.0985231362,-0.8434947254,-0.4107685171,0.5328886513,-0.6584439789,0.722363479,-0.6288331294,0.8290087043,0.0372441623,-0.4218918942,0.8622594958,-0.497431072,0.9032383223,0.5202731339,0.5929852882,-0.7027088413,0.3628195084,0.4348944619,0.2839639784,0.9644353236,-0.1488089808,-0.2189364529,0.1609954813,-0.3031349436,0.8857244065,0.4464499537,-0.2430261626,0.0185117374,0.4077968067,-0.7385940988,0.2057639624,-0.3846855894,-0.6115252157,0.8310808355,-0.17486341,-0.5963233292,-0.2660774597,0.5577463045,-0.839039293,0.6283471462,0.1827797993,-0.2960761041,0.7156151337,-0.7207987931,-0.4775967997,-0.0164069561,-0.1917503648,0.7537199942,-0.718280289,-0.8764691424,0.0167133634,-0.048481068,-0.5770275103,-0.1658592439,-0.448659555,0.2844915327,-0.0045250458,-0.2218333753,-0.5337190268,-0.9690627465,-0.2483400984,-0.0255532338,-0.8659164185,0.8575263018,-0.5462166724,0.340331142,-0.005981304,0.9365931523,-0.5288406828,-0.3910236873,-0.598225743,0.3908847127,0.561193566,-0.4817851759,0.4761179362,0.758251699,0.7406325327,-0.5260085708,-0.3171550584,-0.2071617476,-0.2717241496,-0.7911315852,-0.8729965489,0.3833887622,0.9377810575,0.6940997188,-0.980949716,-0.8040419829,0.8582557616,0.1621026359,-0.6994667837,0.1882379043,0.9843240064,0.5191457843,-0.1068035704,0.82157716,0.5453482052,0.396607043,0.2626725426,0.4537948859,-0.1195787001,0.9767577789,0.9684074982,-0.7379541644,-0.6049967878,0.555117536,0.9827256623,-0.8291333894,-0.2482254992,-0.9697293924,-0.7453970751,0.2711042178,0.6971866142,-0.9882062162,-0.7455328464,0.5101324147,-0.4187522895,0.2979559355,-0.5264737392,0.9281774038,-0.4670170212,-0.3952995675,0.7882754475,0.6642349537,0.6376738014,-0.9104194928,-0.5528590712,-0.4211831898,-0.713931022,-0.6001313344,0.1585897523,0.2393106121,-0.2338473971,0.3487769873,0.7791019794,-0.2727177909,-0.8405248631,-0.7788234478,0.4046499259,-0.2167411941,-0.2971454339,-0.2295202422,0.8708824712,-0.5587256833,-0.2739269539,-0.0634433417,-0.3591309594,-0.2487050654,0.2526734045,0.1168506578,-0.5095866183,-0.8695011157,-0.3194293194,-0.8854144043,-0.6472618411,0.3654080895,0.4674245454,0.15538839,-0.9424087793,-0.5722147126,0.8434347217,-0.3737538192,-0.8387477422,-0.2255459345,0.0009588458,-0.0840243859,0.7657632328,0.9271219591,-0.3014092004,-0.4782023862,0.3792622688,0.2675218975,0.2764677508,-0.0420302852,-0.3604367009,0.9545690327,0.1733404121,-0.9678390777,0.2430126783,-0.8261189296,0.2093628808,-0.4853163241,0.2441503031,0.0269534534,0.5759384283,0.1927068338,-0.0915934366,-0.1933698629,0.6295201741,0.7390393507,-0.1692206027,0.5739231238,-0.2852410565,0.3801927364,0.9185701663,0.0097329385,0.7800820557,0.9290561371,-0.8961877826,0.1098851005,-0.107673144,0.0014762152,-0.9954327724,0.642059239,-0.2646444378,0.2784989464,-0.2157226119,0.4282123363,0.8862856697,-0.7318780519,0.9196025345,0.5717615512,0.7592794591,-0.9700080344,0.8425440761,0.8549375342,-0.3273071289,-0.8144777085,-0.5122564546,0.2853247513,-0.5094184815,0.110476842,0.1319497067,-0.8818669845,0.0175516483,0.6790302595,0.1578661248,-0.5965555439,0.6014930297,0.6080186509,0.0778736441,0.9359644251,0.2945013704,0.8088262576,-0.6899106244,-0.4289965653,-0.8853749874,0.5174910988,0.375902247,0.8955966184,-0.3157954065,0.39251897,-0.6294733557,-0.3490490971,-0.3706704948,-0.1226810166,-0.6076068397,0.3031399834,0.6257651276,0.191394948,0.6335942413,-0.0740635128,0.1595319706,-0.9495066307,0.0617999891,-0.0466361877,0.2815899926,-0.0399466297,-0.6171244075,0.2951147496,-0.5208369146,0.8748763712,0.8083170933,-0.6877242531,0.6826459475,-0.6584124324,0.4492840258,0.4372365836,0.2034907886,0.6490982818,-0.1154449809,0.4818876591,0.0523340048,0.7922928468,-0.6702491328,-0.1285621397,-0.5317542991,0.1464789186,-0.2647107834,0.315142157,-0.6908401963,-0.9803488764,-0.8224319634,-0.5093790744,-0.9761152494,-0.7080299083,-0.386369506,0.6238893553,-0.495085004,0.8756864234,-0.7884739968,-0.2064400243,-0.8725317537,-0.4185272178,-0.5358538982,-0.3968984801,0.9681244967,0.9956807645,-0.4455572627,-0.345007983,0.2141030199,0.004265211,0.1863937176,-0.2179921077,-0.9600940094,-0.6482168156,0.4368271095,0.5166785561,0.9650962336,-0.4128632546,0.6947003497,-0.4512476359,-0.0969004285,0.1114729713,0.1536936999,0.7981269478,0.5135204724,0.8089469181,0.505464039,0.3855736054,0.7997936101,0.4188422391,0.5630946672,0.2264798164,-0.5859823399,0.7176280063,-0.0901222861,0.4964007611,0.9159332216,0.7431764323,0.4405864478,0.8847407349,0.7092818047,-0.0668475275,-0.7969858444,-0.7374284825,-0.0251462826,-0.224078283,0.8172338147,0.1504376683,-0.6528093248,0.5546092556,0.5382269322,0.2593121454,-0.9529046733,-0.8479325044,0.980360148,-0.4308953469,0.7053410925,0.6029456649,-0.9322241025,0.8082743027,-0.060127776,0.7486814654,0.0132964195,0.6997475127,-0.132181352,-0.9686253322,-0.7977511224,-0.6738597685,-0.0819409643,0.3284262009,-0.1780539316,-0.2365399366,0.6260660318,-0.7411272437,0.3596212335,-0.3776586183,0.0722509975,-0.5894139318,0.8248788291,0.5121837413,0.3983655482,0.1088310631,0.441469999,-0.4731907284,-0.8353493818,0.0078565627,-0.4866685922,-0.7943762855,-0.4717994348,-0.707437692,0.8594098279,0.0457379194,0.590482532,-0.2250320845,-0.7916956411,0.2357053297,-0.6658970224,0.1219666286,-0.0455913604,0.6593072769,0.2082139902,0.1777143072,0.6043009748,-0.3991360626,0.1669304073,0.33737811,0.0588399869,0.7859573945,0.5388095878,-0.8311834397,-0.0189304199,-1.01989646,-0.472917966,-0.115815108,-0.7006577624,0.7660159131,0.2859753137,0.1840254786,-0.5245936479,-0.9517805142,0.057748277,-0.4926693188,-0.6048976569,0.5583419566,0.1330641009,0.1103374882,-0.4371269283,0.3680976773,-0.1214624219,-0.9429573276,0.7119790984,0.9737444433,0.0925842304,0.9861940564,0.8080960563,-0.8157022504,-0.5757049684,0.0582399352,0.7729371434,0.6190962425,0.4055534078,0.4488591839,0.0760719812,-0.1168375213,0.9673821994,0.6690909677,0.5305746334,0.9896583195,0.1460614895,-0.1220344678,0.0429921078,0.8153753565,0.1142225378,-0.5001208756,0.4348830868,-0.5042781563,-0.9416830764,-0.525306861,-0.3796731384,0.4836475684,-0.5602765072,-0.6844415018,-0.7346895231,0.4186488959,-0.1355185535,0.0206186006,0.2685858374,0.5578486222,-0.2032658153,0.3206329478,-0.5692307888,-0.1854087518,0.6587048251,-0.2237709255,0.7749291881,0.8583944437,0.2084840892,-0.1900417615,-0.5026962457,-0.7778849358,0.7898704697,-0.422631969,0.5919726564,-0.52983725,-0.7039687962,0.7464073953,0.6538550985,0.9467798025,-0.1183513507,-0.8006113839,-0.738505023,-1.0532523339,0.4891287608,0.1008494751,0.8480105898,-0.6786366466,0.4756725552,0.9569374214,-0.5235521303,1.0047575432,0.1732702523,0.7918268199,-0.3108690798,0.8507286494,-0.6600998336,0.3757365128,0.9272983311,-0.4835057933,0.9707805481,-0.3495373313,-0.0000702691,0.1437901736,0.0516807052,-0.3251806341,-0.3304216194,0.4932820338,-0.6890131155,0.8497140714,0.4069814217,-0.821015993,-0.1454257526,-0.1582107293,0.0385643432,-0.8201956865,-0.6842845334,0.0661817118,-0.0338287757,0.0639432383,0.8869616349,-0.1773055324,0.0503196873,0.3996763557,-0.6609634388,-0.6914118092,0.6408778962,0.6289129424,0.7409239346,0.8761564457,-0.7142810409,0.2867213843,0.8007894408,0.033067338,0.1874474141,-0.3232206976,0.7363423824,0.0008786438,-0.9047647209,-0.5379795465,-0.5428711668,0.0324936468,0.003426545,-0.8718605275,-0.7267988137,-0.1456714967,-0.503648727,-0.6254063718,-0.9315413855,0.3874665224,-0.2585045792,0.9815152304,-0.9921609747,-0.9773094337,-0.4112720665,0.2927091367,-0.1911908872,-0.9910227276,-0.0131304106,0.1948617572,0.5110881875,-0.7462441683,0.1312389006,0.2817696586,0.4336239932,0.8329034581,1.0013607435,-0.9309338166,-0.1173975872,0.618623896,-0.134590029,-0.2328760801,-0.1806553365,-0.3336583478,0.1308113175,0.7127895148,0.4736315431,0.8739071232,-0.4984078353,-0.9439484103,0.3763101718,-0.4619078479,-0.3957588786,0.3679782267,-0.5614788949,-0.6118030382,0.9263870923,0.3427466111,0.8926197366,-0.559650192,-0.6375641933,0.4534242565,0.82956234,0.1471139507,0.4830349356,0.1189229768,0.8961608133,-0.1822091159,0.4922899822,0.454859895,0.4843873453,0.3078720824,0.4982501168,-0.6489838073,-0.0462791325,0.664591679,0.2890803714,0.9337026276,0.5745936927,0.9689045515,0.3085299906,0.0180262496,0.8512260913,-0.1915254449,0.9422536899,-0.5503456544,0.6260491432,0.5859639611,0.538266292,-0.9593736253,0.1866324128,0.6589534382,0.9120548992,0.4904859552,-0.3716173977,0.8773289722,0.6899945381,-0.0972006093,-0.913960056,0.6342786521,0.7785102274,-0.431809349,-0.5665842069,-0.6135391742,0.6480287433,-0.9621646404,0.7491898197,0.9524477987,-0.4420143845,0.9956891862,-0.0100476808,-0.1682562176,0.9845029578,-0.3325283726,-0.3554594528,-0.5714227623,-0.9754567682,0.4770865703,-0.282396498,0.1164437162,-0.1109523332,0.246062255,-0.1720097987,0.4298477025,-0.4334938329,-0.1523903688,0.633504738,-0.5125171455,-0.1273985575,-0.7424414161,0.5503908774,0.7489152005,0.3992532781,0.4773222974,0.333528948,-0.1188469415,-0.1005726692,0.0392559554,0.6957490691,0.9936190886,-0.7502434353,-0.5159040995,0.3786118516,-0.1295773342,0.3571016672,0.7168527698,0.4287897822,0.5087036985,0.3718710252,-0.968043189,-0.35158166,-0.8944648904,0.433850797,0.8749969309,0.291014863,-0.6749833568,0.649177267,-0.1901727635,-0.5274754118,-0.6340316356,0.1927313438,-0.0653576907,0.16865973,0.7452504237,0.987080996,0.5864724472,0.3154581449,-0.5282031687,0.9855292022,-0.9435628192,0.8057597814,-0.7319338358,0.5674083325,-0.2518756693,0.3925511747,-0.3047452126,-0.626598641,0.5316911156,0.3622745153,0.7328827077,-0.1307651933,-0.3524863465,0.3607954835,0.7460915151,0.8224908832,1.0065035867,0.0500249239,0.2985489573,-0.0386973183,0.8081727488,-0.681098057,-0.2514285897,-0.896189504,0.529479697,-0.1454012605,0.3977132013,0.5531448167,-0.5318186632,0.4315902175,-0.5101336689,0.4807936879
