encog,BasicNetwork,java,3.4.0,1,1670781195221
[BASIC]
[BASIC:PARAMS]
[BASIC:NETWORK]
beginTraining=0
connectionLimit=0
contextTargetOffset=0,0,0
contextTargetSize=0,0,0
endTraining=2
hasContext=f
inputCount=784
layerCounts=1,100,784
layerFeedCounts=1,100,784
layerContextCount=0,0,0
layerIndex=0,1,101
output=0,0,0,0,0,0,0,0,0,0,0,0,0,0,0,0,0,0,0,0,0,0,0,0,0,0,0,0,0,0,0,0,0,0,0,0,0,0,0,0,0,0,0,0,0,0,0,0,0,0,0,0,0,0,0,0,0,0,0,0,0,0,0,0,0,0,0,0,0,0,0,0,0,0,0,0,0,0,0,0,0,0,0,0,0,0,0,0,0,0,0,0,0,0,0,0,0,0,0,0,0,0,0,0,0,0,0,0,0,0,0,0,0,0,0,0,0,0,0,0,0,0,0,0,0,0,0,0,0,0,0,0,0,0,0,0,0,0,0,0,0,0,0,0,0,0,0,0,0,0,0,0,0,0,0,0,0,0,0,0,0,0,0,0,0,0,0,0,0,0,0,0,0,0,0,0,0,0,0,0,0,0,0,0,0,0,0,0,0,0,0,0,0,0,0,0,0,0,0,0,0,0,0,0,0,0,0,0,0,0,0,0,0,0,0,0,0,0,0,0,0,0,0,0,0,0,0,0,0,0,0,0,0,0,0,0,0,0,0,0,0,0,0,0,0,0,0,0,0,0,0,0,0,0,0,0,0,0,0,0,0,0,0,0,0,0,0,0,0,0,0,0,0,0,0,0,0,0,0,0,0,0,0,0,0,0,0,0,0,0,0,0,0,0,0,0,0,0,0,0,0,0,0,0,0,0,0,0,0,0,0,0,0,0,0,0,0,0,0,0,0,0,0,0,0,0,0,0,0,0,0,0,0,0,0,0,0,0,0,0,0,0,0,0,0,0,0,0,0,0,0,0,0,0,0,0,0,0,0,0,0,0,0,0,0,0,0,0,0,0,0,0,0,0,0,0,0,0,0,0,0,0,0,0,0,0,0,0,0,0,0,0,0,0,0,0,0,0,0,0,0,0,0,0,0,0,0,0,0,0,0,0,0,0,0,0,0,0,0,0,0,0,0,0,0,0,0,0,0,0,0,0,0,0,0,0,0,0,0,0,0,0,0,0,0,0,0,0,0,0,0,0,0,0,0,0,0,0,0,0,0,0,0,0,0,0,0,0,0,0,0,0,0,0,0,0,0,0,0,0,0,0,0,0,0,0,0,0,0,0,0,0,0,0,0,0,0,0,0,0,0,0,0,0,0,0,0,0,0,0,0,0,0,0,0,0,0,0,0,0,0,0,0,0,0,0,0,0,0,0,0,0,0,0,0,0,0,0,0,0,0,0,0,0,0,0,0,0,0,0,0,0,0,0,0,0,0,0,0,0,0,0,0,0,0,0,0,0,0,0,0,0,0,0,0,0,0,0,0,0,0,0,0,0,0,0,0,0,0,0,0,0,0,0,0,0,0,0,0,0,0,0,0,0,0,0,0,0,0,0,0,0,0,0,0,0,0,0,0,0,0,0,0,0,0,0,0,0,0,0,0,0,0,0,0,0,0,0,0,0,0,0,0,0,0,0,0,0,0,0,0,0,0,0,0,0,0,0,0,0,0,0,0,0,0,0,0,0,0,0,0,0,0,0,0,0,0,0,0,0,0,0,0,0,0,0,0,0,0,0,0,0,0,0,0,0,0,0,0,0,0,0,0,0,0,0,0,0,0,0,0,0,0,0,0,0,0,0,0,0,0,0,0,0,0,0,0,0,0,0,0,0,0,0,0,0,0,0,0,0,0,0,0,0,0,0,0,0,0,0,0,0,0,0,0,0,0,0,0,0,0,0,0,0,0,0,0,0,0,0,0,0,0,0,0,0,0,0,0,0,0,0,0,0,0,0,0,0,0,0,0,0,0,0,0,0,0,0,0,0,0,0,0,0,0,0,0,0,0,0,0,0,0,0,0,0,0,0,0,0,0,0,0,0,0,0,0,0,0,0,0,0,0,0,0,0,0,0,0,0,0,0,0,0,0,0,0,0,0,0,0,0,0,0,0,0,0,0,0,0,0,0,0,0,0,0,0,0,0,0,0,0,0,0,0,0,0,0,0,0,0,0,0,0,0
outputCount=1
weightIndex=0,100,78500
weights=##0
##double#78500
   -0.6950973462,11.1185799053,0.032538089,-0.8358350433,1.5164490816,-0.7624633037,-2.7623141514,-1213.2872658412,4751.1897468871,-9.4186386307,-4.0771469549,-0.0008805834,0.3007980418,-0.5394084813,-0.8493915756,-1.4778133628,-1.9645952616,-5.3031449871,-3.6405773066,-1.2564320742,-4.305531073,-15.946900656,-0.6564277814,0.810669845,0.1668996566,3.0624626445,1.1586432443,0.6027245015,18155.5065535312,0.313065427,-0.2768645474,0.7782532011,-6493.8963513009,-8.1011845933,0.9220812242,0.214756729,-0.6197308106,-0.4506234494,-0.8706001867,0.3233452558,9.5860400451,0.0905731532,4.3530468487,4475.1892257511,-0.0223424088,-0.0510094844,0.4004900353,-0.5116786587,3.2935566501,1.532797013,0.6116433606,-4.7447019603,0.0365765767,4.7600013813,4.0071135568,0.7683060269,-0.5480372903,-50.2518963092,4.9909644225,0.1041198798,-514.5469727248,0.5578393644,-0.4446023671,-3.1605987808,3.6908540276,-4.5760085669,0.2594129607,-1038.7711937649,-2232.5542345384,-0.2899367924,-1.1279597808,12974.0747369185,1113.942972692,-0.4769964227,29.9660428605,-6.0280409126,-0.0246019161,-0.4824884113,-0.1463783811,-0.0485551062,-8.5302365831,120.9879580483,-21.6913240761,0.0880324613,-0.4023894771,0.0239543133,-0.3679693961,0.2973924141,2.9395252452,0.1370060499,-1.5169268228,31.4917307018,-2.4060482061,0.0457540271,18.9634492194,2.2318935203,0.1755722056,-5.3841549485,5.4146421394,3.6712013586,-0.2582733155,0.1035240152,0.649772544,0.8349927033,-0.777853869,-0.7352058591,0.0247974664,0.6306348437,0.0972251466,-0.8897145861,-0.5953612536,0.2058714449,0.2362181622,-0.6281866651,-0.3416595077,-0.8719137593,0.1661520388,-0.7011743038,-0.0794940563,1.0219126058,0.9464938888,0.5959977042,0.07375981,0.5110302682,0.1701095884,0.5991807467,0.3622535603,-0.4574584548,0.0364423046,0.1680148345,0.9461193733,-0.1165386456,0.6193080427,1.0095996646,0.8318802248,-0.4027493189,0.7287649819,0.6200628073,-0.3070528632,-0.9199886066,-0.431201424,-0.347097836,-0.587322859,0.7272176433,-0.2306048899,-0.1936848835,-0.1371678969,-0.069050655,0.548114137,-0.6883485492,-0.448735055,-0.201183998,0.7298495448,-0.2099842179,-0.5245368205,0.0671485021,-0.2393927011,-0.0208027509,1.0528400012,0.6352465353,-0.7884908704,0.3844133249,0.0127467171,-0.4007677237,0.1439258285,-0.2472432499,-0.8689771969,-0.5430141626,0.2729192822,0.7875171213,-0.2505725426,0.3654264115,0.7657478933,-0.9746447477,-0.9964244558,0.5159821783,-0.5147684644,0.3981435597,0.3206149505,0.1342605655,-0.3169312444,-0.6041044275,0.1354700557,0.3190005407,0.6618620411,0.0849119432,0.2897790402,0.363742324,0.6617447073,0.2489296957,-0.635340819,0.9968422891,-0.167388001,0.7365223858,0.8544588482,-0.4978817915,0.8356342918,-0.4698433665,0.7988041534,-0.8742221245,0.8276935803,-0.3988983538,-0.7758635902,-0.7555541499,-0.1432755278,0.9758644221,0.896223786,-0.7245431469,-0.1153964722,-0.5371255366,0.3313913988,0.3352864751,-0.0148024998,0.6817649082,-0.4580868028,0.4205284606,0.4187952124,0.3687927082,-0.1996332453,-0.4268953492,-0.7612666601,0.7842420036,0.9635902972,-0.933835129,0.2887890085,0.4931552494,-0.6874462917,0.0980904631,0.1387584906,0.270146475,0.585152411,-0.0852059601,-0.8762862971,0.4230152374,-0.6881271366,0.4294005071,0.8711992574,0.042173427,0.7152240903,0.8976607295,0.0612458316,-0.9052111715,0.119985031,0.6756500861,0.606908394,0.8816221322,0.1667832204,0.8493581754,0.6709277444,0.8812136455,0.3393254332,-0.6901242725,-0.397214541,-0.0679592026,0.6190155345,-0.6079937802,-0.9482978853,-0.044968464,-0.336149969,-0.5617814371,-0.2453196721,-0.4111918541,0.3097122567,-0.9904228964,0.2925454731,0.9906281124,0.5473783895,0.9673352804,-0.9476490061,-0.8969192035,0.325087277,0.0249910635,0.8010581958,0.1792775745,-0.1607721081,-0.8484978394,0.1060662177,0.2094197007,-0.8424732848,-0.3185670714,-0.1924630642,-0.3194543614,0.2102711196,-0.6556995749,-0.1680995524,0.0886574241,-0.6105412732,-0.8752447523,0.8853495203,0.4618885637,0.9869063364,-0.9273669629,-0.5911053407,-0.376589938,-0.7162892257,-0.5538193863,-0.2990534736,-0.4930804509,0.9594684758,-0.7200809212,0.984104698,-0.1091805132,0.054145552,0.8429227804,-0.5037920897,-0.352512512,-0.5180294167,0.0113246481,-0.0215432669,-0.2913664831,-0.0534119183,0.1018310176,0.2857464514,0.4578528684,-0.8020928191,0.2224355616,-0.2654538158,0.6367238486,0.644015617,0.3116197329,0.9116500621,0.9405555547,-0.2587598846,0.9723725055,0.4632398094,0.1044318407,0.8856308517,0.1453376298,-0.0230996139,-0.5570781488,-0.741587364,0.5854894944,0.5692630263,-0.0638321743,-0.2745265486,-0.03634734,-0.8977874923,0.0457985831,-0.8746583807,-0.7557430011,0.513632658,-0.3420926869,0.0003635094,-0.8766282704,-0.9392665088,-0.1643501089,0.6692918407,-0.5793116871,-0.5134315862,0.9818374868,0.4846080338,0.183735879,0.4043595095,0.177997712,0.0248627229,0.1587829613,-0.0448952081,-0.5549549278,0.2169270987,-0.773452817,-0.1064704673,-0.3898133088,-0.7110631027,0.8276725185,-0.4220072417,0.2414734212,-0.3807236476,0.737604824,0.1434258683,-0.5834502723,-0.2460021835,0.3301396286,0.2939551793,0.4085978614,0.436592372,-0.3826894198,0.2658201592,-0.374064522,-0.1471722622,-0.1764359503,-0.7112227779,0.2135227497,-0.2857782062,0.0366183943,0.0182422473,0.9444933637,-0.4323950352,-0.6109498929,0.0814990262,0.0459487452,0.9250833791,-0.9794557181,0.0338915945,0.3733678482,-0.4312620681,-0.3494806867,0.1224624563,0.5876302731,-0.6621522444,-0.3532093123,0.3041767233,-0.9049253746,-0.3752423773,-0.1504013528,-0.8075500924,-0.8382039285,0.9834269529,0.1022251938,0.0663439943,0.7089894909,-0.4716969888,-0.5289298893,-0.169116145,0.3083060689,-0.4555902067,-0.1202499319,0.2420123503,0.1159983051,0.5819130348,-0.4723492068,0.2503455156,-0.589982865,-0.6461886634,-0.1467466368,0.7149120447,0.7978755857,0.0872084324,-0.4134180751,0.6222037897,0.7788247062,-0.73523954,-0.7433051573,0.6597915832,0.3727980647,0.1949753582,-0.1585941549,-0.8477322963,0.0588978018,0.1272639553,-0.5360192694,0.3432858144,-0.2150539896,-0.9195500379,0.6517827888,0.9270237352,0.0954399272,-0.8700238465,-0.4739323038,-0.9836971601,0.2690712001,-0.4551851881,0.4368745049,0.9767892289,0.7761614084,-0.4933219094,0.1149366504,0.1673137762,0.7228014151,0.5360520484,-0.742132159,0.1672538055,-0.1874333574,-0.7734457959,0.2512869296,0.5999235156,-0.0606213554,-0.5402552306,0.9726629033,-0.824088782,-0.0763093554,-0.5419841247,-0.4528044331,0.0605662947,-0.7713867355,0.2848998039,0.9503144689,0.5018526163,0.081885915,-0.6395813285,-0.5611067883,-0.6443405139,0.1430725119,-0.7691802659,-0.5142018651,0.7299439261,-0.2972274209,-0.0675325257,0.9113346949,-0.5299007086,-0.4094477373,-0.8936863344,0.3113695112,0.6951604919,-0.0093758275,0.4238298669,-0.3113646698,-0.1878465679,-0.2690002992,-0.8240108953,0.8792206318,0.1750167409,-0.3361803737,-0.3057688716,0.8197968507,0.7674557808,0.911514704,0.7480661438,-0.7734777139,-0.1491893274,-0.9893540992,-0.3007758857,-0.3559626418,-0.0852458714,0.5295267702,0.8447175955,0.8955012233,0.3335412467,0.635426586,0.8196193147,0.2709057371,-0.6950976186,0.1954954874,-0.4905616888,0.1528798647,-0.964838601,-0.5499198624,0.9766754018,-0.9693726352,0.9873869918,0.2815116836,-0.0116663735,-0.2218277486,0.3798968277,-0.5209214145,0.8557972642,0.4605184759,0.9652766099,0.9154729127,0.4890205615,-0.0620307502,-0.9215097086,-0.3617727654,-0.8576515257,0.5629591091,0.18485775,0.5355093067,0.1328903273,0.5760245975,-0.4992605029,-0.1199811135,-0.1462747958,-0.9769197013,0.1143052424,0.2157395849,-0.5375315739,0.9499444852,-0.7770008314,0.4886025993,-0.0833338708,-0.5901291725,-0.681289035,-0.5929327966,0.620513995,0.4195687886,0.2041402243,0.8995559099,-0.0394560007,-0.5378995102,0.661647083,-0.9702945989,0.8904343545,-0.0740993296,-0.5636999065,0.4633711887,-0.81217633,-0.8217456958,-0.0381833264,0.5473697498,0.4798985748,0.3290725596,0.7608013738,-0.5447903429,0.0883644576,-0.4287273867,-0.7344886155,-0.7574845257,0.3739071148,0.6259232598,0.2310320783,-0.8377117425,0.2167418041,-0.8314798277,0.825345867,-0.8022615728,-0.568727423,-0.1062067296,-0.6832859739,-0.3436781647,0.425964765,0.025418201,0.3906479152,-0.3478399827,0.4634474363,0.5147169434,0.3095941987,-0.8888700609,0.9865860651,0.7148187583,0.6832503969,0.0779234007,0.1884036329,0.2430385461,-0.5804803102,0.4655202695,-0.7589812754,-0.4550375492,0.7062430271,-0.1354647353,-0.9763030203,-0.3051648162,0.2291030178,-0.1189945198,0.0413963169,0.2950158931,0.5503221916,-0.9216024084,-0.4283222271,0.5804437455,-0.6307851258,0.5941206023,-0.6125426259,0.1002507127,-0.7899002225,-0.2689098929,0.3169376802,-0.7425862318,-0.5732330597,-0.5436319951,-0.1411767204,0.0254229985,0.614004359,-0.5707573505,0.8911213367,-0.3134720395,-0.1540051394,-0.0845513851,-0.283299937,-0.7385497807,-0.3503386213,0.8069671843,-0.6217511008,0.5874949737,-0.1410647602,-0.5343137051,0.6247412632,0.625043442,-0.0822737259,0.5347743745,0.4055354593,-0.3464640254,0.3292695821,-0.2875318581,-0.7252360586,0.2399219386,0.6427786623,0.5694096118,-0.0918756691,0.1192270024,0.8094646508,-0.3072102358,0.5580253356,-0.5000462991,0.7173576803,0.3520335703,-0.8163835976,-0.4195874268,0.2821239334,-0.6406725075,-0.641161674,0.8059966579,-0.6230638019,0.414229776,-0.158171148,0.5270228635,-0.1701233272,0.3009951406,-0.269839371,0.1492746977,0.6950411919,0.1611238161,-0.2811266276,0.2105577503,-0.9682981298,0.4946749535,0.2592566006,0.1059283996,0.4772558031,-0.1741580526,0.6577385449,-0.3741443308,-0.5693493551,0.635790973,0.5205279567,-0.990353983,-0.916972884,0.8237828407,-0.241997646,0.54012195,-0.1732292923,0.3760209734,-0.912672506,0.2337265563,-0.2948569115,0.5300221877,0.3123143991,0.0404683111,-0.5898174642,0.9185604611,0.8501822344,-0.3288474282,0.6180115204,-0.5485738042,0.8032533391,0.5251153683,0.9050059745,0.20935753,0.8780633936,-0.0503652219,-0.0301433465,-0.9555599219,-0.9009481142,0.2394887431,0.4262636547,-0.9913216502,-0.9582527409,-0.610659692,0.3183188314,-0.4531463354,-0.4167866584,-0.9794797623,0.7320265802,-0.2486872817,-0.7160484575,0.1808919659,-0.8201105423,-0.5945087118,-0.3197750933,0.7786104669,0.1697892675,-0.0208955602,-0.6924030372,0.3766329719,0.4440014669,0.7707300145,-0.0544812612,-0.5724482323,0.825607179,-0.3134592286,0.0977634469,0.6318040128,-0.634756449,0.3003738063,0.6276385986,-0.0576645496,-0.7772490267,-0.8982795009,0.597683406,-0.9005366739,0.0370277082,-0.3232487138,-0.1449159027,0.8846912106,-0.0599467385,-0.2498082844,0.372342107,0.5074271914,0.5822179095,-0.8711957939,-0.6947437158,0.198195242,-0.0992029052,-0.54759175,-0.153878328,-0.4129352148,-0.7745619112,-0.2411113031,-0.6721663321,0.9353039427,-0.3795496367,-0.0814765087,0.6901328032,-0.6227160435,-0.0344513394,0.3252636756,0.1811030218,-0.2836250585,-0.9190283255,0.0330383548,-0.5288465687,0.4643762292,0.0385231458,-0.0057624238,0.3357843257,-0.1476771756,-0.7574131256,0.6977074499,-0.3418598671,0.9106192073,0.5935388896,-0.2906128415,-0.4434786611,-0.5328823401,-0.4800229231,-0.6863403975,0.4401591482,0.462437794,0.9695428279,0.3154891819,0.6617917003,0.2732356736,-0.9390912626,-0.6955417436,0.6680310594,-0.3726235323,-0.6236109891,0.9254846573,0.4779551658,0.0210724838,0.652998881,1.0027888325,0.0188224542,0.7838302859,-0.4267622237,-0.6983579788,-0.2638043916,-0.4064285458,-0.9565117691,0.8376890266,-0.934063243,0.732240973,-0.1442940154,-0.8896163189,0.5438112783,-0.1447647893,-0.8782699931,-0.3910807736,0.8085301747,0.5142007597,-0.6444158626,-0.0932535222,0.8017456844,-0.4661013369,-0.862380947,-0.5965941354,-0.9467902008,-0.3019210334,0.9802896088,0.2413078077,0.4323101741,-0.4875440265,0.6809625628,0.063406769,-0.526744275,-0.2782366768,-0.7661976489,-0.5499833123,-0.3844257619,0.4241409596,0.31259702,-0.8655688734,0.0677045932,-0.6004444111,-0.3665381564,0.2334669111,-0.1533159595,-0.0031921355,-0.7979734952,-0.8655325189,-0.4051176879,0.752002433,0.4489846145,-1.0026716318,-0.330574968,-0.8077666339,0.002908039,-0.7979304909,-0.606381649,0.2545944726,-0.1477406078,-0.4939496205,-0.380014415,0.9697424971,0.5331406166,0.359121632,0.7145880788,0.1867443133,0.8510697433,0.3668805105,-0.5714979431,-0.1117092583,-0.3842469194,-0.1918111313,-0.1002911967,0.623157088,0.7598381291,0.42530561,0.4653903926,-0.9602689372,0.6261098957,-0.4355347944,-15.1632795087,-0.9930023227,-0.2604114819,-0.3091889182,-0.8288071956,-0.9652548669,-0.2554411649,-0.5266711793,-0.4888232323,-0.4519185631,-0.8659567455,0.1318614702,-1.0061515259,-0.7362433476,0.2905730986,0.0896082265,-0.6513286974,-0.6755437838,-0.5771259572,0.8626850085,-1.0356485618,0.891469863,-0.3396554681,0.0515494032,-0.6357973154,-0.1618795977,-0.7969816011,0.6051929893,0.3764311327,-0.5478753209,-0.1915005061,-0.1853284012,-0.7757313674,-1.0730856091,-0.8223349067,-1.0256480151,-0.9415650633,0.5325382841,-1.002324557,0.0403133867,-0.3210081048,0.8839439931,-0.7961842667,0.3347640774,-0.7796593418,0.6159654428,0.0368252222,0.1466280421,-0.2703412302,-0.1995297032,0.5936844208,-0.135439223,0.835820878,0.7377102039,0.193587539,0.8822547202,0.6393316271,-0.0721745707,-0.4539409333,-0.1653027218,-0.5740018184,0.4408719149,0.3524162201,0.7459780617,-0.1654932869,0.1011777861,0.8302921417,-0.0271480349,-0.5037826228,-0.6002585334,0.1604383109,-0.3863712298,-0.2889432824,0.0300337321,-0.7106608354,0.5063114914,0.2576345652,-0.89992257,-0.4752868125,-0.0433196447,-0.6847889453,0.5731150715,0.2409309668,0.4860741481,-1.004892123,0.4309670029,-0.487101729,-0.702064391,0.2516577447,-0.5468722602,-0.8149531767,0.7596222007,0.4094197171,-0.6158396303,-0.2270764669,0.6075576702,0.4773307988,0.4695967608,0.0885954912,-0.8813861823,0.3775590392,0.5731859406,0.5169218478,-0.4550314304,-0.4971312256,-0.3278468734,0.089775053,-0.4707505002,-1.0614133978,-0.2668628803,0.5249856837,-0.2514526788,0.7366777392,-0.9565349471,-0.4557763386,0.4648072485,0.511350971,0.744175978,0.0339206359,-0.5816495454,0.7691072876,-0.8025219038,-1.0571796073,-0.8109609797,-0.915465382,-0.6855498468,0.0776296705,-0.4620063705,0.5263446581,-0.0406355298,-0.6499961496,0.6760632011,0.504250897,0.1828694911,-0.2633468927,-0.4156072313,-0.3855687445,0.510549294,-0.3915782207,-0.9203919159,0.3679947662,0.7160094009,-0.9436536547,0.6181774908,0.2013202142,-0.5593610963,0.2315652141,0.5492280268,-0.6106337593,0.7988511175,-0.0942639962,-0.3080044389,-0.8482280911,0.2807960973,-0.7670838362,0.7630587442,0.9043027092,-0.5183440094,-0.8741531576,-0.4205920005,-0.600203668,0.4238148376,0.5943809343,0.2246005439,0.0519867754,0.6878764181,-0.5847117159,-0.7743208656,0.7597377773,0.4257652832,-0.0687057613,-0.4092557203,-0.5854192796,0.8623650146,0.1182420367,0.4058036708,-0.6232905461,0.870894533,-1.100338897,0.8283715781,0.8808921887,0.4807528474,0.7780757271,-0.7439276842,-0.1158846124,-0.1148361717,0.5162881856,0.2818644323,0.7633782893,0.8706921657,-0.5944979972,-0.3086316785,-0.3630589783,-0.2420440187,-0.2741701734,0.5379505742,0.7930196436,0.155889875,-0.8524496758,-0.7040612615,0.4504195443,-0.9848826768,-0.2101459609,-0.8429919485,0.6380286735,-0.2065900568,0.0322256262,-0.9461487854,-1.1000637563,0.3890290135,-0.7571426316,0.3240329546,0.2924370612,0.1952205971,-0.5407658879,-0.4041613199,-0.3984551166,-0.0821286924,-0.9080835968,0.4893269493,0.5473613468,-0.7428833834,0.7940685412,0.5848366706,-0.3225044517,-0.9169559301,0.036584919,-0.4503776045,0.07509699,-0.6488316033,0.0446446317,-0.0890359367,0.3185865699,-0.2821983378,-0.3367094638,0.8131555093,-0.5130231253,0.8776780255,0.1589164208,0.8193287465,-0.519353646,0.4758349216,0.4191137929,0.7089224518,0.8127938588,-0.5980452684,0.1482928515,0.0787676694,0.7451010314,0.6690248068,0.4532671743,-0.4230015378,0.5331517798,0.0524138735,-1.0806793448,-0.9844086253,-0.7889222204,-0.1910000796,0.0018223726,-0.6275412992,0.644683228,-0.0072152132,0.0653908183,-0.6313140427,0.1985772667,-0.2055835758,0.6061695235,-0.8352258287,-0.4261155519,-0.4092830459,0.8687030562,-0.9364032532,0.6291772212,-0.8499880013,-0.1095726567,0.3406216186,-0.0252253417,0.8204034678,-0.3402709965,0.2757042045,0.5659558188,0.9280598753,0.868519241,-0.3766873076,-0.1566302643,-0.835552052,0.2990376205,-0.074131737,-0.6951372518,-0.932359159,-0.5315794784,0.6837028914,-1.0433261595,-0.6008724538,0.2372970024,-0.8952237467,0.875899796,0.1601563877,-0.1832573709,-0.2269644557,0.5909856814,0.6114677829,0.1714996736,0.1943362842,0.3859313335,-0.9652313224,-0.7713704246,-0.134028251,0.9716228465,0.7532561987,-0.5784507957,-0.7856670779,-0.8347954653,-0.0057553532,-0.9471385277,-0.5201650748,-0.3271787607,-0.2430452001,0.137811462,-1.0177615906,0.616298733,0.7915188484,0.0713113152,0.1402760711,0.221306814,0.7562454383,-0.6168185304,0.3599032263,-0.6197772703,-0.477196543,-0.3379314313,-0.2406463966,0.2509204298,0.3961817509,-0.6205003282,0.2028492204,-0.9353373675,0.604105354,0.3496190219,-0.3204350029,-0.9880455192,-0.0295603925,-0.9336719008,0.7357600557,0.6976685596,0.6865042054,0.8802201006,0.2552750961,-0.5459573291,-0.914175717,-0.1546127348,-0.8269031881,-0.0296004631,0.301566051,0.865445682,-0.4628125391,-0.8604073718,0.2364029436,0.3727287099,-0.3522849834,0.1385879426,0.2876916284,-0.804454364,-0.8937446108,0.7734218814,0.1620807239,-0.6600556523,-0.0223610242,0.430919326,-0.2428741683,0.2413712651,0.5779820755,-0.9189214945,-0.2897774088,-0.1502291995,0.3613965854,0.6475567619,0.5624995953,-0.5200013651,0.0892779674,-0.4148566086,0.2004416045,0.4166174464,0.4509727887,-0.5139591041,0.6592882634,-0.1635059407,0.82175877,-0.0318384878,0.2387656462,-0.8683328236,0.1421486057,-0.3894925389,-0.7233456367,-0.7393551985,-0.4971201976,0.6707635221,0.5581120738,0.3847894492,-0.4261810265,0.2812802477,0.542944891,0.0198786576,0.5449278045,-0.1343560496,-0.3013697617,-0.2725991553,0.6542192561,-0.4242057472,0.3348763384,-0.338905476,0.4154868374,0.3390406138,0.72975128,0.7065961173,0.3565823615,-0.3442742403,0.6679142064,0.0823501809,-0.9658281633,0.1367465486,0.7517930903,-0.380364322,-0.5686384996,0.6609732297,0.5563381256,-0.3031169228,0.6563755537,0.6463506822,0.1097950464,-0.9676634631,0.3584093003,-0.1659891666,0.6829965336,-0.0863299307,0.0589148965,-0.7434419748,0.8051150369,0.4387450357,-0.3348438556,0.5919721217,0.5443898364,-0.0088932332,0.7254973184,0.758176095,0.8618330084,0.7261646269,0.7554346647,-0.4733800921,-0.3741159604,0.6503997299,-0.6782563648,-0.390094533,0.0201646156,0.1768918685,-0.8328358524,0.6427863314,0.7123931734,-0.0518643053,0.0562614418,-0.7964003244,0.9582864463,0.0838614684,0.3237436499,0.1006637808,0.9157677768,-0.3062775224,0.9051225689,0.5231598733,0.4846574357,-0.7929977794,0.7164839597,-0.6573754473,0.506363069,-0.8820484385,0.8252902654,0.4465124151,0.0315986091,-1.0157178303,-0.1324975596,0.5866513111,-0.0966405473,0.1615992123,0.5454736612,-0.9592351183,-0.5635563763,0.7352026612,0.2938768644,0.4934688574,0.2794828007,-0.1389764328,0.6792438641,0.5828816583,-0.3149907137,-0.6664225863,0.2041268299,0.8659032861,-0.8205028624,-0.6553002616,0.3786642413,-0.8277600636,0.4909930478,0.3711070472,0.7963358383,-0.1216790502,0.7275108837,0.6191285844,0.3401747826,-1.0029297867,-0.1524987349,-0.5032377313,0.2410354992,0.8187138081,-0.0340864688,0.4446989172,-0.1960343659,-0.2287439403,0.3209354062,-0.8839866119,0.3224055205,-0.6021311323,0.2042510606,-0.4895833004,-0.5761750899,-0.8189503777,-0.0365691881,0.7370885472,0.0927314932,0.5409147955,-0.9060218908,-0.123255089,-0.3014962281,-0.8329173072,-0.8184987233,-0.0403577885,-0.3875397292,0.6456435433,0.0663845575,-0.2902154156,0.870880226,0.6668497935,0.2052001545,-0.0909866335,0.0868422306,-0.6251293983,0.6795359424,-0.731808704,0.4636358717,0.8655507215,-0.9460193584,-0.9200722762,0.0474618198,0.0375466232,0.6499600218,0.9455267192,0.3393245746,0.8170020633,0.853829139,-0.1096806043,0.6581794269,-0.7724756559,-0.2772274214,-0.8499967824,-0.6075007728,0.8884827217,-0.8493657813,-0.7710404595,-0.4419407767,0.479574643,-0.1001209892,0.0794525911,0.779475543,-0.5338496745,-0.2544673169,-0.9567346699,-0.9136204937,0.6630290674,-0.045311976,0.228393863,0.0821442978,-0.0120565951,-0.1115293171,-0.4152368543,-0.4837081459,-0.1718320583,-0.2126628446,-0.0154560277,-0.6268131159,0.56640758,0.6545810507,0.014776353,0.0468456809,0.3062187778,0.5668853685,0.0706097412,-0.4688417711,-0.8621232994,0.4231372418,-0.8832350156,0.308538321,0.3956988457,-0.7145167152,0.5820692998,0.3683458809,-0.7688310222,-0.6406559575,0.6294480195,-0.293960747,-0.0805635932,-0.897137369,0.2754488557,-0.7969289051,0.2441566963,0.8473247436,0.1356072386,0.48894812,0.0839247217,0.7521540335,-0.6457389907,-0.388066129,-1.0585671585,-0.363020647,0.0824729202,0.0962008059,0.2318720065,0.9790152793,-0.134179863,-0.6929267999,-0.1247580391,-0.8475813394,-0.1406722098,0.9353030912,0.3962105191,0.8307558537,-0.2487744969,-0.6997420241,0.0519338675,-0.9108954109,0.9306876642,-0.3081521949,0.1724238977,-0.1116479208,-0.1390192515,-0.3493991321,-0.107540354,0.0894286548,0.1591440651,-0.6830928753,0.1371580674,0.0549461089,-0.3014780345,0.8941851278,-0.9787323716,0.6061344105,0.0443086124,0.9130041555,-0.6439473779,-0.848182004,-0.4280690497,0.8055928173,-0.4711221259,-0.4796486344,0.7618199001,-0.4088998718,0.4206013503,-0.8065953987,0.7340513207,0.7551273027,0.0123440236,-0.5176946274,-0.1917817432,-0.3176989311,0.4729425698,0.3800811764,0.6250521015,-0.243772644,-0.2187066487,-0.2713007584,0.8220087205,0.3243049666,0.500173304,0.4534518235,-0.6064425428,-0.3523783202,-0.5672861869,-0.8281141874,-0.0233534037,-0.9498260484,0.2506401653,0.4878868291,0.8414447456,-0.5737265978,0.3617089386,0.2888991022,-0.6811913174,-0.7283022553,0.0624553632,-0.0995805709,-0.5676158271,0.674338839,-0.2230222136,-0.9893267317,0.7985150904,0.3101307709,-0.2966356355,0.4723384046,0.7402382754,-0.4916399572,-0.2959399018,0.8295736507,-0.6955085965,-0.1049510212,0.6305382039,-0.5415507925,-0.9125326356,0.1382648482,-0.2172229747,-0.3875242147,-0.5725654965,0.106339046,-0.4523015353,0.938943635,-0.1060103492,-0.173393973,0.2640341355,0.6247239643,-0.7701295498,0.7384772446,-0.7419509539,0.7710836825,0.6118792613,-0.4211301513,-0.6411231149,-0.2531296218,0.4590986318,0.2425361309,0.8829560335,-0.7931409623,0.9193947824,-0.5889051743,-0.6857440244,0.9121444189,-0.9758739066,0.1172767737,0.5510602829,0.9680149126,-0.2285425108,-0.9251497456,-0.4536513368,-0.4104046363,0.6367637401,-0.6322430043,-0.0950639306,0.3241622913,-0.9865985267,0.2988036249,-0.1059849276,0.3889687845,-0.4044110015,-0.9688215219,-0.6580579559,0.1101996075,-0.0096386207,0.9366855734,-0.4031783333,0.8470767565,-0.3378260964,-0.8839971764,0.1345895887,0.2488882297,0.6291643566,-0.3762426293,0.0949295409,0.1797413936,1.0430071296,-0.2710975519,-0.7320071763,-0.6256215848,0.8525658746,0.763023724,0.8711152664,-0.8251577807,0.8823420533,-0.434590414,0.8482858482,0.673015859,0.9804441972,-0.893354431,-0.3360883912,0.527917743,-0.8593203049,-0.0462173651,0.5184442019,-0.9121965301,-0.3754656437,-0.8050230685,-0.4266259491,-0.0150901465,0.5341749806,0.600500733,0.0542103161,-0.5701211966,0.0920990482,0.7270914291,0.5100186882,-0.3218856535,0.0369764875,-0.7071997188,0.5271339737,0.3418317514,0.8723420697,-0.6507662333,0.095825262,0.6917022844,0.7015515674,-0.5869956857,-0.3146554911,-0.9890869609,0.0790673714,0.5953902276,0.7545852851,-0.3611247901,0.8665802355,-0.0319401992,-0.5067680927,0.5638097252,0.2761445734,1.0649962457,1.0524577749,-0.0518640168,-0.1198674718,-0.0918088851,0.1128902719,-0.3459459424,0.2045033499,-0.6730490526,0.6621832512,-0.5660770246,-0.5946208612,0.3094470187,0.9591056934,0.5310611073,0.7949811144,-0.6368126469,0.4712779665,-0.3586331303,0.9290572382,-0.4104391794,-0.7457052933,0.9080587339,0.2957917901,0.5771325672,-0.5512045418,-0.5851866945,0.4964200737,0.2480842146,-0.8979583356,-0.3732667144,-0.3181888165,-0.499413628,0.0584482295,-0.5222971819,0.6135046882,-0.7249640613,0.8896007995,-0.828233085,0.9351721667,0.5676114836,0.4613257038,-0.0114009667,-0.2968806808,-0.9061191269,0.677457795,0.1188912843,0.6497606585,0.0518583356,0.1776582539,0.37852857,-0.0946371985,0.1594352804,1.0992566131,0.0055611903,0.1037433264,-0.8614515397,0.7727105092,0.6861660979,0.4472733744,-0.8378477379,-0.5675200343,-0.562621997,0.2455263983,0.4539692257,-0.3100423179,0.6757792565,-0.5547850478,-0.4777961975,0.8788234295,-0.9788376326,-0.5824268613,-0.5013025015,-0.3799261692,-0.072299399,-0.4390310666,0.2921785055,0.6961614552,0.6929189447,0.0911861318,-0.538222831,-0.3768652604,0.2286563614,-0.5460589679,0.5940560689,-0.0587808532,0.4424172828,0.4583882983,0.9941773786,0.3787761068,1.0075748597,0.8573786841,0.6555153839,1.0001901942,1.0714847793,1.0619989616,0.7319333599,0.5841761793,0.1227452989,-0.3390619792,-0.307734583,0.71426689,0.0664761676,-0.739002784,0.11397097,-0.6237312429,0.0301015889,0.6239053248,-0.0659987117,0.1499564901,0.3297278341,0.3014438707,-0.6637523301,0.6825270641,-0.5697503304,0.603223686,0.524799134,-0.8524285686,-0.4108162447,0.1514970779,0.7003438649,-0.4773905422,-0.4316400873,0.5975826165,-0.7723457686,0.7508977534,-0.0323928002,-0.4286686706,-0.6286421163,-0.1764868797,0.3737504115,-0.5836727332,1.0049137365,-0.3942256069,0.018440686,-0.6578940023,-0.068021328,0.372220033,-0.1575832157,0.1999813501,0.7105625813,0.1358809064,-0.0693370858,-0.412622139,0.6347267688,-0.4090475022,0.4339679432,0.7284021298,0.8028682798,0.8626600406,0.7962660193,0.2483384108,0.9295860138,0.0648203765,0.759373583,0.0833556972,-0.1985571504,-0.4453960079,-0.5445008393,0.1921650719,-0.2066471252,0.0022363916,-0.2500696872,0.566340618,-0.6433603953,0.9260400442,0.0217325856,-0.7019730066,-0.753063512,-0.3200568194,-0.656527055,-0.2960281987,0.2673638272,-0.3096432283,-0.4291881818,0.8005134665,-0.758402873,0.4694989946,-0.5555621131,-0.2096925958,-0.2291940724,1.0854786641,-0.2295552977,-0.2899251899,0.504448021,0.0159006202,0.318591818,-0.1927738624,-0.0437922299,-0.8836816312,0.8783680561,0.4812400795,0.5903901998,-0.7586969745,0.1574152329,0.5566621409,0.4549727572,0.4493983811,0.4794370157,0.6822912353,0.0437379741,-0.7531587254,0.5900847017,-0.4947831114,-0.7311096731,0.0469999049,-0.4977633998,-0.8628083619,0.3689492021,1.0411136948,0.1773808343,-0.7143365206,0.9686303912,0.8974156512,1.0950108496,0.4028152567,-0.8561574985,0.4689405559,0.1671365431,-0.2323041108,-0.6376412974,-0.4935477342,-0.2220347696,0.8077698825,-0.7182622143,-0.1375074265,-0.7897608075,-0.0741614787,-0.2636779928,-0.7598435448,0.6340861256,1.0813881715,-0.5369461383,0.7909810135,0.4077771445,0.8286939435,0.3221026698,-0.32216374,1.0254785545,1.0601356723,-0.3593601254,0.5091387275,-0.8546204825,-0.8779712148,0.8949562141,-0.2032575625,0.0266123926,-0.2229446024,0.7795564076,-0.3254697735,-0.1738641101,0.3917221028,-0.5478628739,-0.7491859174,-0.063670533,1.0400540538,0.1274061376,-0.3345145547,-0.4473662483,-0.2951797326,0.9657830761,-0.3332226325,0.2318029036,0.7084089443,-0.225220918,-0.3660034212,0.0710130647,-0.6035116694,0.7841213112,0.6451615837,-0.2369782276,-0.545563208,-0.8231032759,-0.7053830362,1.0507775874,-0.7718398284,0.4761338224,0.0178551346,0.8481844316,0.1503338692,0.7865210692,0.6692821426,-0.7455361322,0.3288357801,-0.2972642876,0.4103323701,-0.8444744874,0.8565683961,-0.2253356254,0.7766374098,0.882045057,0.9403389843,-0.2432974531,-0.6392876385,0.811775555,-0.4216134421,1.0146514667,-0.8751094669,0.5359933183,-0.6423726116,0.4638850373,0.4391617337,-0.0066641051,0.5424375279,-0.7028209787,-0.0298869376,0.9469081247,0.8769214372,-0.8068981684,0.8449199862,1.09703618
   -0.5439479038,-0.4208266814,-0.759759226,-0.0150542005,0.7840414913,1.0966148657,0.1606599816,0.3637635052,-0.2876712876,0.0297484802,1.0779731789,-0.5230874386,0.8766192123,-0.5080554268,-0.3036022822,0.9583962788,0.0112439958,-0.8867364513,0.709674683,1.0879734014,-0.5987014921,0.1375898012,0.4818524212,-0.264154606,-0.1830738047,-0.2515624008,-0.5761574052,-0.3711352997,-0.3360209337,-0.3848630746,-0.479650324,0.8133190597,-0.7687764886,1.0183232928,-0.0710092178,-0.3023116962,-0.1426897883,-0.1694321961,-0.1418616745,-0.1759166991,-0.4728648399,0.0061911416,1.0338894725,0.505564535,-0.1743950773,0.0967851419,0.7511321194,-0.1574009694,-0.258830647,-0.2836323599,0.6423187283,0.6465480198,0.2294438266,0.6222208933,-0.1151016353,0.2024364474,-0.4021003925,-0.2193118267,0.4697353663,-0.5474825776,-0.7609572094,-0.8729215545,0.0434931955,0.9586331439,-0.322264727,-0.3395797723,0.7520796607,0.7570161718,0.7240093169,-0.2410198156,0.9858338404,-0.4663308231,-0.6332547329,-0.7276247973,0.649579541,0.8624486799,0.0776273036,-0.6479032523,1.0800701118,0.0512570156,0.4229769955,0.5663244784,-0.4316992812,0.6068886769,0.5212225499,0.9648889257,0.423768864,0.8872055696,-0.1228523952,0.873747489,-0.6577302454,-0.0308087917,-0.6161420685,-0.5264165088,-0.1271090474,-0.0126854512,0.1365983769,0.8814008233,1.0207757047,0.5726895177,0.0168707839,0.8647549836,0.3044143941,0.4418312099,0.6448592558,0.4234786445,0.8792987055,0.8769902136,0.5591953867,0.2581445548,0.7333836872,-0.6371027737,-0.2563873836,0.8120778609,0.9097575423,-0.6942491824,-0.4534111598,0.8012268832,-0.4150191318,0.9831646444,0.2160834683,0.1141590203,1.0078652872,-0.4523149507,-0.1632090777,0.2351871425,-0.8978593884,1.0740130576,-0.0832034856,0.8148577883,0.7710169141,0.7809226634,0.924334277,0.2117636933,0.3725800391,-0.5089768299,-0.2552911482,-0.3918728247,-0.3893286083,-0.8761123201,-0.0125695663,-0.2297876029,-0.049347291,0.4460921517,0.556512654,0.9933032707,0.8009227973,-0.0513073076,0.223077103,1.0939424008,0.4995034955,0.9326685164,-0.1391105574,-0.0753013212,0.5263515558,-0.098980081,0.3038035212,-0.0241623406,-0.8569545959,0.0832834766,-0.5078911042,-0.1181453415,-0.7597040772,-0.2618873654,-0.2163533401,-0.7045695222,-0.4637510387,0.9444591563,0.196505308,0.1466626983,-0.4360149781,0.5542261908,0.8871080127,-0.5782109549,0.7512269819,1.1129460098,-0.615295941,1.0265207854,0.5974913467,-0.4265787123,-0.9374072512,0.6584440357,0.2542557896,-0.6759070568,0.6422294461,-0.8636598425,1.071099776,-0.4049954861,-0.3450704305,-0.3991493487,-0.0764701588,0.114114746,-0.672441933,-0.5393336149,0.9595187287,-0.5704738903,0.406195561,-0.7655557503,0.8495876079,0.6750616602,-0.1091954622,0.3741913924,0.2929329063,-0.2927489194,0.209325298,0.9372316518,-0.7312460685,0.469663683,0.7752176218,0.8796761365,-0.7824115705,0.6251485137,-0.083206328,-0.7398382648,-0.4457567592,-0.1462085512,0.0806737728,-0.5003639417,1.0982517155,0.3749084136,0.5382227548,-0.0680311535,0.7433666132,1.0169040416,-0.8863371434,0.7068091679,0.5026083514,-0.1329200864,0.3501938156,0.4065860166,-0.1991315284,0.5282482531,0.6280967801,0.1756713178,0.7524471855,-0.5365220597,-0.3971166914,0.7099397283,0.0767461545,0.1949225433,0.8689497736,0.2616853678,-0.6470460821,0.346052817,0.9286994088,-0.7798217662,0.3315308166,-0.8755188632,-0.6462192752,0.360619435,0.6437995153,0.4127855002,0.1492497498,0.4233181733,1.0341877274,-0.7491463814,-0.1398887321,0.9214444639,-0.3405458859,-0.0154678035,-0.8617263523,-0.6156875015,-0.1830593421,-0.8805761255,-0.7272692545,0.8679109381,-0.8709491275,-0.7866037544,-0.3506397303,-0.3220158708,-0.053246569,0.8244370749,0.2427747273,0.9157272551,0.7134560422,-0.5331651516,-0.1453251953,0.7124629793,0.4571375564,0.1212686044,-0.1842298755,0.445182296,0.1767300286,-0.5696564074,0.1234884011,-0.151175311,0.1984279514,0.2383505311,-0.5101178395,0.8420623872,-0.5252086026,-0.3484726581,-0.0057630469,0.148705477,-0.3985038688,-0.0868068027,0.3912768357,0.3772522975,0.5246252353,0.0040933953,0.2873445625,-0.5846201992,-0.099332187,0.5056790742,-0.6317704547,0.5735124667,0.6505969405,-0.4851240521,0.7925092997,0.9414456654,-0.0780601826,0.7834756792,0.7189928362,-0.6374541119,-0.2659399586,0.724142051,0.9529893623,0.3091729845,-0.1246167276,-0.2329579255,0.542071899,-0.5609768035,0.3238321009,0.1782469364,0.2764452,-0.5210345616,-0.283028509,0.6877553822,-0.5937721873,-0.1275832274,-0.4759912675,0.7399795123,-0.386210427,-0.5240918107,0.5249332598,-0.0096187989,0.6393350584,-0.8870918777,-0.0906321954,-0.7784388444,-0.2387994771,0.5098073821,0.8556376415,0.7621226386,0.4992883283,-0.6040053864,0.4369443836,0.0894544295,-0.5945029167,-0.7234739693,0.5694085798,0.6556826094,0.9789642699,-0.1003288843,-0.07331331,0.9566083252,0.6895935322,0.3247164158,0.6954364886,-0.2606517198,0.0232128354,0.2263426913,0.9797117745,0.3904732927,-0.8415563338,0.8112857949,0.4245555691,-0.5306841246,-0.2985380895,0.8848673724,-0.4261334112,1.0210783216,0.4491836855,0.4418904408,0.3993054847,-0.1512588336,-0.1889922045,-0.3305707025,-0.2985899071,-0.6286785391,-0.401288354,-0.5702205536,0.1390525238,0.5325929424,-0.6089842753,-0.2371184732,-0.5423495353,0.6919458643,0.4174406531,0.3772228249,0.0989910162,0.8275497119,-0.1654299559,-0.367356698,-0.8777700856,0.4264427557,0.8814623439,-0.6423100829,1.0687905588,0.7562260266,-0.4111653055,0.471655319,-0.08848984,1.0778719546,-0.2867521463,0.1326591515,-0.737369437,0.5519416301,0.9320173065,0.1484110046,-0.9874469962,0.3776298277,0.7244132836,-0.1623821132,-0.244271105,-0.0227897087,0.724293294,0.7003186092,-0.1445990958,-0.0000419112,0.8592225639,-0.5284839538,0.7725937548,-0.5739691641,0.4375992053,0.1207714557,-0.7776392483,0.3822050864,0.1418313553,0.1575072279,0.443538155,0.9128908007,0.1720938025,-1.0344077048,-0.8107573969,-0.8343963876,0.0719165702,0.0464200071,0.9478099286,-0.4402542453,0.4657494028,0.3850634706,0.1611439939,0.0975339401,-1.1050127252,0.7506630409,-0.6390738203,-0.0900300901,0.2902480265,0.761671311,0.388302127,0.5746704833,0.6931937855,0.4858163034,0.4234946047,-0.1780434415,0.4807657552,0.7648219334,-0.399733879,-0.460428933,-0.0510068293,-0.7720915638,-0.6084172944,-0.8658523273,-0.0416842816,0.9685222228,-0.6808652607,-0.6812879346,0.4402985731,0.069218597,0.721983989,-0.5187746515,-0.3788117717,0.1594026662,0.4374543915,-0.7096297278,0.9772494332,-0.0615113935,0.5710031554,0.7896520134,-0.5322463173,0.0148910001,-0.5421519878,-0.1703720886,0.047958327,0.8347718682,-1.3830292646,-0.7944053092,0.3306069172,-0.778724382,0.9609302029,0.1139569293,-0.256215915,0.5338087817,-0.5077963317,-0.062687415,-0.9574049256,0.3535360238,0.0588437788,0.0747380832,-0.8180371843,-0.7368150458,0.3101876329,-0.2304362275,-0.5185853774,0.3266721355,-0.2024809966,0.3167478746,0.3616892324,-0.2286574797,0.4128397971,-0.9091181345,-0.1365253119,0.9723427243,-0.4262407079,0.8530132811,0.1649540631,0.1197121973,0.8472293852,-0.5205945728,-0.4625363,0.7798103275,-0.1033328662,-0.1448316122,-0.1853269012,-0.12602663,0.3512837224,-0.4642931163,0.283450467,-0.4167715844,0.1098957751,-0.2964467371,0.5407533172,0.5906248425,-0.492040543,0.7580440955,-0.9809238718,0.4192511013,-0.5607304965,-0.5698461076,-0.6194621417,-0.3530226008,-0.6115107697,-0.2036133419,0.3774366043,-0.9124662929,0.4214349185,0.7117500737,0.5349530385,0.0325922693,-0.9409512345,-0.317454164,-0.7571326219,0.5109225103,0.0571998715,0.4025399375,0.086464835,-0.2759515844,-0.480702204,0.8371533646,-0.3730727288,0.3230430714,-0.108906363,0.4774403521,-0.7537030073,-0.7462875989,0.2969218082,0.3736312568,-0.965691098,-0.1638760791,0.978923311,-0.1218869938,0.9439021424,0.437190713,0.6768203532,0.7594903477,-0.1081575631,0.5952986801,0.3336346784,-0.8665332169,0.410232237,-0.8132970894,-0.2985912137,-0.0660699478,0.6971913861,0.3008949025,-0.7568284375,0.2655693347,0.4325699659,-0.5158507831,-0.1916209086,0.4738507037,-0.0874868785,0.6015630514,-0.0706176847,-0.5290686845,0.263308396,-0.6209559585,0.3185664265,-0.1493968211,0.3889215812,0.7462783856,-0.3123804136,-0.6258218256,-0.8450092657,-0.9081494497,-0.2069735639,0.4498914405,0.4768148165,0.9576946635,-0.7845970422,-0.412788995,0.3351097883,0.8529600472,0.3246158624,0.3908919422,0.312357048,-0.5427155734,-0.8280907196,-0.0985349547,-0.663494033,0.7248921329,0.4190625196,0.4997749995,0.9163413058,0.0739417995,-0.2292600618,-0.0233952381,-0.5324497888,-0.4137271623,-0.2522855988,-0.8412592899,0.1864336548,0.7303283745,0.4967390745,0.0416972293,0.4296969449,-0.4555133228,0.59788582,0.024472315,-0.4209758254,0.1622658864,-0.635507944,0.7229416051,0.2584781119,0.862925688,-0.8322420759,0.4376590995,-0.138143013,0.0417490834,-0.4381827057,-0.4374486263,0.036161558,-0.9660560557,0.9353277605,0.1531263937,-0.717827564,0.6016950661,0.4808218544,-0.9935449196,-0.3277578707,-0.0390469594,0.2670411773,-0.8716134602,-0.8237690321,-0.8278279209,-0.6431871489,-0.8176819803,0.9136419132,0.0119263015,0.4708246388,0.4784665604,0.9378500531,0.5685579246,-0.460744262,0.3451296818,0.7074736569,-1.4999666273,-0.3475419713,0.0438581536,-0.6123820774,0.0104814402,0.8413463631,0.9592623109,0.732956253,0.7548194416,-0.1494673751,0.2671023714,0.930618259,-0.9833885468,0.1619093573,0.89424579,0.3092083133,0.2504819043,0.2923772924,0.3132122463,-0.7861968716,0.4395968694,-0.8709703142,0.7266033849,0.8341485442,0.1920255116,0.5248085893,-0.5033038652,-0.0449769558,-0.8428298643,-1.026489638,-0.4441691205,-0.2019840517,-0.36725516,-0.2517363684,0.0832366401,0.1080086189,0.4078295582,0.175770075,0.8595845927,0.296244955,-0.4056591632,-0.211887956,-0.8918589999,0.8221496742,-0.6654224567,-0.4624547276,-0.692626473,-0.3478445555,0.8285956254,-0.1070280586,0.8774153269,0.9209027653,0.426432981,-0.2457815318,-0.8064452323,0.2014826858,0.4511031447,-0.3735799657,0.1983773798,-0.4523523917,0.630413481,-0.7949837459,-0.7126136742,0.1158754752,-0.3659180475,0.2003667441,-0.6059884754,-0.6330558068,-0.3631583895,0.2191313625,0.5773370992,-0.2667090123,-0.3695171001,0.0462462476,-0.785399745,0.3331051834,-0.8657385852,-0.6335543421,-0.5402732367,-0.3485717803,0.8975852866,0.8640998544,-0.2865454179,0.1623686255,0.346401824,-0.4657646191,0.8294313493,-0.0771533293,-0.2537458778,0.855457475,-0.7816239496,0.2050537942,0.4989524732,-0.3401896576,0.5471105239,-0.1067777768,-0.9278409501,-0.9098326812,0.6263202411,0.1432285048,-0.3707283614,-0.8841545238,-0.6740956164,0.3170158043,-0.4408224452,-0.4319289444,-0.0398985137,0.5436485486,-0.2478635551,-0.2824050431,0.5787939015,-0.1260317395,-0.905956597,0.136209544,-0.3617137366,0.2269400904,-0.0690595628,0.5348471598,-0.4728748171,-0.9479013094,0.6101599437,0.8228906412,0.7283994809,-0.6800544889,0.1095683544,0.5640565903,-0.1132319855,-0.0443883298,0.4075805967,-0.1803708176,0.9844552392,0.8744212227,-0.403460863,0.6386691412,0.7041451582,-0.7364073632,0.987784843,-0.7332166197,0.553801359,0.5007130637,-0.6889132507,0.1409891079,0.0206087542,-0.1966261665,0.2023520497,0.6422443457,-0.0095623452,0.8831109579,-0.4106927639,-0.4100986051,-0.3561857813,-0.9726548481,-0.2685559934,-0.0147142114,-0.9382886288,-0.7291743407,0.2374682845,0.1467310348,-0.209360474,0.1099273569,0.0780817989,0.7673427185,-0.8582459182,0.5845602152,0.7411597231,0.417189842,0.1760506691,-0.6255366912,-0.1422726164,-0.3984413696,-0.321341522,0.4644677861,-0.4203735683,-0.0069164036,-0.7868163881,0.1249405876,0.6644960563,-0.8337218192,0.6473399909,0.6901840334,0.7209253612,0.8384438743,-0.6477152293,0.5634989188,-0.708088797,-0.609110986,-0.6350516888,-0.4625308934,0.4091180047,-0.99080149,0.1121490687,0.9330863464,0.4835247707,-0.7400651886,-0.6821628953,-0.6978311543,0.993051357,-0.9892364891,0.9813563184,0.640610403,0.1137408009,-0.564703589,-0.6235250712,-0.119589534,-0.3895880059,0.8280745474,-1.0017295114,0.0243865175,-0.1655572939,-0.1759457181,-0.9248843295,-0.2294982725,-0.6988759868,0.0862717816,0.5739096282,0.1268937555,-0.7367988268,0.8825217414,-0.6010822443,-0.173466676,0.6873775272,-0.0244104348,-0.7328619588,-0.2784457145,0.7914989676,0.6782570692,0.0961733952,0.1556821733,-0.1181399616,0.6052742886,-0.3394794921,0.6568102916,0.1264761831,-0.4736639063,0.0338397765,0.9191073792,-0.6350833023,-1.0160735572,-4.8301028222,0.423756669,-0.173051648,-0.2261743417,0.5890217936,0.9040728372,-0.454164191,0.3696430564,0.8278665004,-0.6903094024,0.9896552618,-0.1731490535,0.0347089887,-0.6765079675,-0.6790642349,0.554902571,0.6476610264,0.3444756834,0.8491288192,0.9441457207,0.967587444,-0.0362865145,-0.1944163062,0.0405748119,0.4627760816,-0.247570164,0.9568766699,-3.0755053922,0.0568578023,-0.5774860519,0.216758097,0.7887626898,-0.0563806272,-0.6434234294,-0.5297310736,0.9016986027,-0.0206198758,-0.9566951365,0.8738327521,-0.3565515234,-0.344279626,0.7680483066,-0.9045185539,0.5995048415,0.5099078388,-0.8255526264,0.8001802699,-0.3012371045,-0.8964270499,0.5600105003,0.3382242152,-0.4716711126,0.7953585971,-0.1593475222,-0.5422547171,-0.6921456936,0.6562882059,-0.262515921,-0.8959600303,0.7619417585,0.5674210916,0.3747307288,-0.6316162535,-0.6462094832,-0.062916483,-0.3982392596,0.7573739783,-0.0536588719,0.1303830538,0.5546480689,0.6835172456,-0.6777873266,0.0922222332,-1.0689390024,0.0377110324,0.9316431366,0.1717140614,-0.1100880191,0.2947587199,0.3483634583,-0.4087664279,0.188137352,-0.6927716804,-0.0447054806,0.0302856423,0.6604310247,0.9781466531,0.346370523,-0.7087889638,-0.3364354412,0.7915345711,-0.3617975886,0.8450645018,0.7137484404,0.5352871708,0.6289633048,0.8473161117,0.0835043467,0.3474623624,-0.5143978614,0.413151067,0.2816126536,-0.1726020109,0.306790396,-0.1973092499,-0.1665650366,-0.1154994044,-0.6940079317,-0.4177163817,-0.4861696947,0.0190705546,0.9202089429,0.1782630237,-0.5058573336,-0.5117478996,0.5906927168,0.1808050239,0.1032311771,0.6019886754,0.9899096084,-0.7568156084,0.3874157473,0.9947055401,-0.5869356437,-0.4708935139,0.5740288812,0.6688001894,0.5716199191,0.1620428319,-0.5241304006,0.493091703,0.0240247533,0.2570234737,0.8300960405,0.4546597552,0.0012091952,-0.7537955003,-0.1625022269,0.4216941554,0.294973372,-0.6049004021,0.5604102989,-0.6602850962,-0.5189383643,-0.3956637799,-0.699268757,-0.1506739395,-0.4989029299,0.8683887213,0.8290916288,-0.4030061449,0.2378834693,-0.3362668073,0.0733635899,0.1546108845,-0.8957356061,-0.5584198636,-0.4704389725,0.9612492618,0.4903370033,0.3020290075,0.3760983496,0.7525690042,-0.4309942978,0.9003162945,-0.6344977491,0.9427142058,-0.2413472741,-0.879002943,0.6842048526,0.3133725733,0.1794254544,-0.1514863091,0.7315075684,-0.1911780725,-0.2062791284,0.5904392848,0.4669831225,-0.2598868358,-0.3640833457,-0.9817554802,0.9555801065,-0.4782672317,0.3349435994,-0.1967390377,-0.391489338,0.9409502989,-0.895370524,0.014987801,-0.5972063253,0.6612826056,0.2714566553,0.9042464839,-0.2073264478,-0.2323516917,-0.9172718667,0.9813917795,-0.3671918704,-0.1901390907,0.4532346127,0.6503075681,-0.4062956143,0.1970643614,-0.7412058609,0.0270799368,-0.1739206493,0.4367898025,-0.7095829282,-0.0997268275,-0.5883965688,0.3817761865,0.6409489424,-0.2093123118,-0.7558723481,-0.9093833518,-1.0112354137,-0.4039902874,0.3150489238,0.9618242843,0.3364077849,0.4699647482,0.4843180544,-0.5935310413,-0.708577213,-0.9395356284,0.7824342139,-0.6920085768,-0.1477797206,0.1794309814,0.8252365895,-0.4924180341,0.7912601512,0.9759705588,0.2215441311,0.020428965,0.8535239903,0.1523013826,-0.8866453076,0.000693425,0.758974895,-0.9497430923,-0.2417422763,0.6384244682,0.3271212923,-0.9908415351,0.4557761867,0.4662682932,0.6976008208,0.6741031839,0.2405128795,-0.225272653,0.3332204871,0.9499458221,0.8927890923,-0.767535805,-0.5114332452,-0.333463047,-0.6215222463,0.4763547227,0.8303832517,0.4239449358,-0.8111787554,-0.5431928931,0.2951412562,0.2869381941,0.1221692178,0.4518589864,-0.8264472901,-0.4139424937,-0.6337420868,-0.4488977203,-0.4526957462,0.0536978502,-0.0687719653,-0.7381528327,-0.0530951494,0.2198424483,0.2866745909,-0.0539962843,0.048929104,-0.0839402034,-0.1023951705,0.3490963754,-0.2882369868,0.9020260036,0.2278502945,0.8940598543,-0.8337657194,-0.9811148121,0.12437444,0.4694082774,-0.6699026133,0.6231305567,0.0961726597,0.1832217869,-0.2328509828,0.5133470671,-0.8746561446,0.2294548072,-0.2503198625,-3.0295803576,1.549622587,0.9280765269,3.3743204474,-0.9308170847,-0.6886506755,0.9722019686,-0.5240915753,0.4766543346,-0.0455395309,0.1948956589,-0.0937376136,-0.5431457796,-0.3746191445,0.9134952483,-0.2783164559,0.6629317296,0.5703622301,0.4289718851,-0.9208945045,0.5632549407,0.2087632332,0.6825367688,-0.3798454947,0.0788817737,-1.0613672844,-0.802265988,0.6573841017,0.1192628915,0.503201158,-0.078799228,0.7536274586,0.4138604844,-0.5860536481,-0.8549238983,0.90157075,0.0790817606,-0.1343090581,0.4810226167,0.7706575147,0.9536286154,0.3250680054,0.4936251011,0.9926536787,-0.0356226669,-0.2452879003,0.825759149,-0.4581363482,0.9836777732,-0.276345311,-0.2739835191,-0.2399139828,0.4862522689,0.6085131467,0.6254493869,0.1152560036,-0.559541969,-0.7141027921,0.0962607664,0.144974259,0.4738622265,0.747648952,0.3621872617,-0.0796168514,-0.0578620124,-0.9071427856,-0.8772612969,0.2114697089,-0.7039427423,-0.1971243245,0.7805062919,0.2027859971,0.0926722433,-0.3807796666,-0.5140495825,0.315547425,-0.1645783452,0.6334959806,0.7955109157,-0.6044279624,-0.0788791452,0.7533743461,-0.387990619,-0.1474086696,0.23253941,-0.5522160382,-0.2031138985,0.8502723659,0.531364991,0.8679944213,-0.3497871523,0.6847862682,-0.4667901248,-0.9593865143,0.8684884299,-0.7552998111,-0.0557566604,0.960628716,0.1011498382,-0.7940529168,0.3706491616,-0.6043392912,0.0940251193,-0.1949059662,0.8787537777,-0.3218995483,-0.5215501266,-0.5840598767,-0.3795269744,-0.1875580009,-0.6981234863,0.5097850515,0.9219286729,-0.8593100146,-0.5901839267,0.0271636681,-0.2179190834,-0.1170884688,-0.7917492799,0.9645413827,0.9666596151,0.6503999721,-0.927182561,-0.0588362532,-0.9934169647,-0.7908719289,0.5040321678,-0.0644335396,-0.7136362909,-0.1831877523,-0.8314133076,-0.879244902,-0.2337625115,0.1531936917,-0.6446678729,0.3988646157,0.7697726753,-0.9373106329,-0.3442802708,0.797586778,-0.3818974147,0.6569880609,0.3941707266,0.2908527714,-0.0640161721,0.9320362709,0.089718206,0.0249046468,-0.8636745253,-0.1074406567,-0.4686112484,0.7297888372,-0.1712699776,-0.9380846883,0.3902733153,-0.3288568515,0.6537372215,-0.9888040509,-0.8175205013,-0.9113672626,0.0694905547,-0.2158322377,-0.4866188225,-0.2742299984,-0.2694093265,0.5795591697,0.2380034664,0.8749442462,-0.301235437,0.6537203359,0.1545514133,0.2868065632,-0.3641986508,-0.6674349407,0.1486100176,0.0814301437,-0.2279103487,0.4614129129,0.6875516675,0.2146297835,-0.0823428943,-0.0912344816,0.8525848582,-0.9575272721,-0.4362802279,-0.5539178806,0.4680252346,-0.3470085061,-0.3129130028,-0.5899399756,0.3133660913,0.8429548535,0.7850619699,0.4364320636,0.6978990557,0.585778319,0.1490416148,0.0937369709,-0.7071571735,-0.8246498786,-0.6209216787,0.0888722392,-0.299791312,-0.9066655901,-0.9964531319,-0.4993545087,-0.8370766166,-0.4260152197,0.6488064283,0.311792563,0.4943707445,0.0731901185,-0.9528192441,-0.082504738,0.3990337041,-0.8174853811,-0.10380591,-0.0919159937,-0.2553942379,-0.508139728,-0.160955481,0.4711115896,-0.5839383297,-0.6341621893,-0.8333498774,-0.842104514,-0.6420039889,-0.5320103368,-0.5689038075,0.4996136602,0.0028719065,-0.3457716334,-0.0902442278,-0.5112602999,0.8836560502,0.1197438183,-0.0375072123,0.7735789116,-0.9964528194,0.6394331721,0.0299692914,0.2829899544,0.092931146,0.0970193136,0.0549937801,0.7791476386,0.5557676059,-0.1209081031,-0.8050395558,-0.6555181521,0.0757618495,-0.3894519043,-0.925664384,0.4958521062,0.273252416,-0.816555337,-0.4670276192,0.4105731065,-0.642880969,-0.6095817475,-0.8645655283,-0.060564312,0.0459003692,-0.6107382483,-0.8037633655,-0.0465391317,-0.4454250182,-0.6135810288,-0.604477779,-0.1009614006,0.5203592619,0.9767085011,0.5304104198,0.6748620007,0.6322965774,-0.5722729096,-0.7520406814,-0.5663028226,0.8486885837,-0.5888029397,0.2135204101,0.5459582534,-0.5282872757,-0.6329244336,-0.0678068948,0.3775106122,0.0479905572,0.9474220169,-0.4393255946,0.6789284699,0.5149551522,-0.0718942247,0.1860517046,0.9615352751,0.7934611007,0.0687150555,0.0200953606,0.6315982527,0.0251486154,0.2409867692,0.6593328896,0.9453945699,-0.9744989367,0.5895640424,-0.1059318767,-0.5826555207,-0.394462401,0.6663982305,-0.5102539225,-0.0407834962,-0.273726318,0.5615283166,-0.423021079,0.3948608599,0.9607508063,0.1418429431,-0.201967443,-0.4359933334,0.8320093592,-0.3746014198,0.6955726423,0.0687741045,-0.7184811039,0.5670443721,-0.1632071105,0.1221239521,-0.6588680213,-0.5775200464,-0.0108547515,-0.7617469294,-0.6885819168,0.7262712606,-0.7445720405,0.8153550385,0.7207849119,-0.6106232311,-0.0312315419,0.6740152391,0.2429330633,-0.6346399702,-0.2941801425,0.6716231687,-0.8886021959,0.3784370706,0.7314068827,0.697204556,0.4930789887,0.3252532038,-0.0343967498,0.6734537146,0.9606126784,0.7705039138,0.5537002899,-0.9194730111,0.3193963915,0.2130390385,-0.8351327717,-0.1331248877,0.7541760946,-0.9772252214,-0.1456696806,0.6235163539,0.1827913481,-0.859009881,-0.2639664179,0.1537405537,0.4870826747,-0.5300629718,0.7799932879,0.08114139,0.9539835735,-0.4282067549,-0.888649196,0.8721260452,-0.9266312457,-0.4105578513,0.9288270925,0.4721239602,-0.6088916867,-0.2705589786,0.9249950767,-0.0364555242,-0.6227621121,-0.0717210607,-0.3842389803,0.786891337,-0.8985526223,-0.947839739,0.1731789461,-0.9534273577,-0.8294898486,0.0562597072,0.9755990675,0.1565070554,0.0600164117,-0.5721760768,-0.5273897908,0.7149883938,-0.9772341717,0.6419859872,0.6170063968,0.716212348,-0.2986532398,0.1473798522,-0.3368350896,-0.4445419434,0.5125801792,-0.9696766286,-0.3890639522,0.277128685,-0.1442065402,-0.028972299,0.9349556633,0.4385181691,-0.752388456,0.4628308835,-0.7590909092,0.2952498839,-0.9062125665,-0.6505567566,-0.6258856453,0.5884453192,-0.0847121943,0.5884404269,-0.1422434855,0.8300777591,-0.1397133665,-0.9210370388,-0.7991535269,-0.8305307804,0.7487999983,-0.6018387841,-0.255232266,-0.3378147754,-0.9742294031,0.9897211219,-0.3475965612,-0.0776784994,0.538611837,-0.6126654374,0.2826216105,0.6802289381,0.3014981525,-0.4644389801,0.1231882277,0.0600567789,-0.6065954025,0.2951045859,-0.3739471105,-0.1877283414,0.6064167321,0.8674133402,0.3822226921,0.2515956756,0.7886050861,0.1501328356,0.8360024242,-0.9939133951,0.7778376124,-0.5896731278,0.8603657652,0.3988893248,-0.7546268546,-0.0100516565,-0.1460267445,-0.4888112322,0.3032805722,0.5723017519,-0.9781047612,-0.0388388902,0.9560703992,1.0008995066,0.8987088084,-0.4732885765,0.458344691,-2.6459583298,0.6889527684,0.1432029438,0.2395675615,-0.306871985,0.7926228052,0.2544778678,0.7863456594,0.0393919607,0.1074132908,-0.525176771,-0.3881186746,0.3621263933,-0.9684668096,0.4659044497,0.1567839749,0.4736919603,-0.9190177696,-0.2133969983,0.8920578715,0.5802893899,0.6692776784,-0.1555857194,-0.2149474509,-0.682607434,-0.7018071316,-0.4466246887,0.2610198501,0.7321829628,-0.4992563397,0.5614340045,-0.2652533713,-0.6898823831,-0.3883221759,-0.1928388188,-0.0160920654,0.2002704185,0.0718224184,0.418182053,-0.3301794225,0.4291528134,0.3427352904,0.7474569439,0.1967894477,0.038393822,-0.1883937967,-0.9341034931,0.0693717898,-0.7316019597,0.8576313022,0.2024251313,-0.6092223857,0.8922764875,0.4893798514,0.8417586609,-0.6730977807,0.20472024,0.1081311217,0.8809917515,-0.9940636465,0.442466118,0.8539780593,-0.7982122583,-0.3365747525,0.0166786333,-0.553758239,0.5945877688,0.2310313658,0.9361292744,-0.3118151602,-0.9254437285,0.8567704661,0.9389304485,0.3964501929,0.8946737746,-0.6069079302,0.8100900975,0.1565802863,0.452920992,0.3923313558,-0.3056489,-0.341210639,-0.4903080634,0.4180422788,-0.1043123796,-0.1348098731,0.8766779691,-0.3547861691,-0.0278014304,-0.7210299717,0.0573728595,0.1614595733,0.8666744105,0.8152726631,-0.2930275645,-0.5670462344,-0.5926900992,-0.1475706863,0.6732299416,-0.9563727337,-0.191996214,-0.6198501228,-0.844738269,-0.8413806782,0.3090905994,-0.2715840063,0.8511097309,0.7806036108,0.9611949016,-0.7065312595,-0.0412845403,0.7102270798,0.7533144279,-0.9928904776,0.4632479527,-0.7003932883,0.2737359513,-0.5249958037,-0.6739084416,-0.59910458,0.5808710936,0.6904359841,-0.0722995098,0.716479741,0.1387307531,0.5980726883,-0.9911947484,0.9353763037,0.1922222198,-0.7228095206,-0.2270215828,-0.011177968,0.0035559385,-0.762022239,-0.4410773049,-0.859755873,-0.4403505131,-0.2140398455,0.0466981306,0.255736092,-0.7509594981,-0.3671211853,0.8708130361,0.8180621625,-2.150303465,0.0177541282,0.5137539326,-0.4046250029,0.9760000341,0.1239772292,-0.6127508007,0.6868500162,-0.3909772764,-0.5829651969,-0.7754433714,-0.8411214658,0.8657971079,0.5803912198,0.0915673494,-0.939560533,0.707714476,-0.1756589079,0.8801156391,0.5547813715,-0.9076029495,-0.319960076,-0.0908668794,-0.7138811297,-0.2831286462,0.6011014268,0.5680655115,0.450776148,-2.1976871554,-0.0962238039,-0.9879375365,-0.8019250952,0.3074457005,-0.3808928623,0.5585779034,0.4665623339,-0.1253253885,0.3907531556,0.681248391,-0.2045646548,-0.2003089024,-0.2247947463,-0.4344110559,-0.651491356,0.7264751354,-0.6876157923,-0.5943135798,0.6955904598,-0.7681399528,0.2979215636,-0.7778815168,0.5637166056,-0.6126883603,-0.2805017647,0.198827425,-0.3659877861,-0.6326461656,-0.9215341156,0.9617268557,-0.8746068854,0.7062866626,-0.3272474071,-0.0931578049,-0.8409286902,0.6455548278,-0.6442233741,0.3666615142,-0.7884128289,-0.1738698007,0.5906249436,-0.5609531568,-0.8563744629,0.8127755297,-0.5242089532,-0.2121862794,-0.6818623716,0.5698891523,-0.791963236,0.1336599444,-0.0385711925,0.467506458,-0.5397906049,-0.1971965236,-0.7097006989,0.1875990867,0.0985678334,0.6003158742,0.4193620689,0.8387018309,0.885969018,-0.2693621958,-0.5677658607,-0.3453084292,0.3139779054,0.938899352,-0.3765957659,0.3407770024,0.1725457938,-0.8457258396,0.8244547288,-0.4638379459,-0.6510042495,-0.606181471,0.8564153565,0.8341130966,0.6791236537,0.4288541417,-0.295813795,-0.6589456544,-0.5139239946,-0.9964130791,0.9401089162,0.142802808,-0.7176016686,0.1440061832,-0.4671089832,0.537977903,0.6347044107,0.1864268855,-0.9304458258,0.6456660177,0.973519255,-0.9481574665,-0.6899003194,0.2561754987,-0.978916025,-0.6333910526,0.8564260005,-0.4419455155,0.6271712155,0.9629791833,0.230515259,-0.7318375066,0.1991964514,0.0947165793,-0.9092235461,0.9219604121,-0.5946981677,0.269394662,0.6201721177,0.1875582068,-0.3908481105,-0.7493524562,0.0807730317,-0.8700651372,-0.0487637137,0.3245502701,-0.8066940547,-0.8263737879,0.0706397372,-0.0381431105,-0.9537004883,-0.2197256629,0.6429985611,-0.4225494915,-0.3764228214,-0.0465242297,0.5582113523,-0.9869541928,-0.2246528585,0.8800630164,0.4997012291,0.0640189689,0.6612597203,0.5033705565,0.9797796794,0.0608778559,0.4942744576,0.3228663455,0.2713141797,-0.8771302611,-0.6828570831,0.4236602654,0.3769147901,-0.7335067634,-0.2677847407,0.9007407274,0.0151875848,0.0246864563,0.3366606748,0.3522309546,-0.7385489246,0.3528262129,0.9626363203,0.6344237234,0.8222125478,0.9235377346,0.9810800653,0.5792001796,-0.4747350232,0.7117665683,-0.0562169374,0.9544764993,0.9154058206,0.8474487004,0.7764563964,0.9538731883,-0.561657575,-0.5724590003,0.7247032671,-0.9387423326,0.8373183512,0.2818259092,0.2980009279,0.1593462199,0.6657796659,0.2447214478,-0.4347491229,0.3148811904,-0.7750607416,0.139916205,-0.0183992969,-0.6660523464,0.989592672
   0.3038994487,-0.4068655012,-0.545147103,0.2080181801,0.921563532,0.3691460273,1.9976239838,0.1726828288,-0.8071828848,0.7843521719,0.7810340491,0.6305170658,0.8948566543,0.5954664597,-0.6800323966,0.5662572957,-0.5181628258,0.4297169435,0.287356732,-0.8034550126,0.5502598354,-0.0760251576,-0.025233193,-0.483981787,-0.8293714826,-0.0497583153,-0.2377103044,0.3357039892,0.1280272491,-0.1765182921,-0.6847899424,0.8210477922,-0.2696979245,0.9963745989,-0.8973315641,0.042182867,0.0244273689,0.3229442125,0.4221481564,-0.4423213633,-0.3322810807,-0.7030638414,0.9715037646,-0.589990299,-0.2196569474,0.7019346117,0.0176931577,-0.0675748959,0.8440619151,0.222373566,0.6697393649,0.6823761625,0.4923296123,-0.1529344072,0.0027464304,0.1053789897,-0.7793436078,0.0628954133,-0.7388135825,0.2482952268,-0.3674061249,-0.4696967809,0.5208911416,-0.5053850717,0.5338299841,-0.2292726393,0.8728466491,0.6314136593,0.3103671581,0.1060555878,0.0310470837,-0.2852423961,0.9945911618,0.5244490498,0.8415690482,0.6491437695,0.2934786175,0.7613789125,0.1942071172,0.3412279902,0.3927526928,-0.9921324784,-0.8156120445,-0.1294156468,0.2879237051,0.8893227371,0.0903836981,-0.7072933988,0.8940307591,0.0176827434,0.1619572619,0.8992827921,-0.6811647583,0.4522560888,-0.0440450095,-0.268753491,0.167546649,-0.4811559907,0.9470912149,-0.5712796139,0.2086588736,0.9779479735,0.814196736,0.0430398345,-0.1441512144,0.3875477944,-0.4342636617,0.8453299295,-0.7968990354,0.3198850863,0.861103404,-0.1673303292,0.3892712865,0.7662036719,-0.5146436589,0.7103088079,-0.5259701616,-0.7923792741,-0.903654373,-0.2577585182,-0.5809379865,0.8076508419,0.2265801089,-0.9731207398,-0.5350577024,0.1135422131,-0.6122853374,0.4017932751,0.4243862721,-0.2039289987,-0.8872453075,0.8935154458,0.500798688,0.6022629149,0.1758344018,-0.7817675159,0.2177848789,0.8090182009,-0.0551022169,-0.5671538371,-0.4899744423,0.4883093516,-0.2556674625,0.1496448641,0.7029023904,-0.0348371238,0.9099584079,-0.10965132,0.0268463534,0.6392503065,-0.898643152,-0.7891219628,-0.0956345216,-0.4376836354,-0.195463975,0.7617996966,0.3182347974,-0.1538111196,0.6662938318,-0.7056698938,0.0387074968,0.7269179172,0.8275546365,-0.8532105616,-0.8279697014,-0.4527427747,-0.9669438584,0.2239247619,-0.1859414033,-0.4905275298,0.5967660666,-0.7008888207,0.7895805188,-0.2368303079,-0.5824103036,0.8654469419,-0.3844591273,0.6495430223,0.0595761526,-0.2938622748,0.4657865703,0.7156893699,-0.3718994408,0.1991091438,0.5742223152,0.655235657,-0.9292281269,-0.2891897426,-0.7398493816,0.864074657,0.0647795082,0.8967329462,-0.842584036,0.3589192148,0.0459371533,0.3204445877,-1.5477986978,-2.8366733873,0.2369155878,-0.6693606023,0.1820664062,0.5425946593,-0.3224195085,0.7309628644,0.4849624413,-0.5054185028,0.3039018905,-0.6473577558,0.8527155689,-0.2296333877,-0.6656533042,-0.1296150514,0.3133709166,0.5008369675,-0.8791382089,0.4561944288,-0.4889310194,0.8097103342,-0.3011720506,0.3683833966,-0.8719736218,-0.736122305,0.8065034287,-0.9707231809,-0.2224827426,-1.1686353036,0.7519874207,0.9468983982,-0.7181555638,0.624841567,-0.7563804098,0.226689624,-0.9464087608,-0.145756403,-0.5230789303,0.9005860605,-0.194324431,0.7999508346,-0.1395504978,0.6406470566,-0.2376427991,-0.47812941,-0.0911043456,0.5669744339,-0.0841090702,0.4924543417,-0.8982981722,0.5362372019,0.2553471818,0.0675503001,-1.2337894476,-0.6663809937,-0.2799081518,-1.0634706545,-0.3163691279,0.7464372036,-0.397865412,-0.7013858051,-0.7963652493,-0.4510112591,-0.5188185182,0.0581045463,0.5353775842,0.1871256259,0.2662002451,-0.2217491295,-0.3196695514,0.7818016454,0.0855374642,-0.3622674382,0.3002054392,-0.9926887965,-0.2095561335,0.6516678424,0.2073745746,-0.3424793084,0.2469432944,-0.5395194639,-0.3455453986,0.3235017945,-0.2405668665,-1.0054143403,-1.0415397499,0.9662589824,0.7241801893,0.3940619571,-0.1330266636,0.4699415689,-0.1481119914,-0.8937127316,-0.6459585135,0.3802372332,0.0855199894,0.8281922779,-0.0262353677,0.4176650659,-0.0951154944,0.4487570791,0.1371214967,-0.024177432,-0.2392733319,-0.4033654827,-0.1946893855,0.7523160893,0.5742594079,0.4644942272,-0.282918444,-0.1202929646,-0.5645565692,0.3916254586,-0.8765503519,0.2548395055,-0.7158468553,0.9703902991,0.4604885772,0.8241400785,0.4231872347,4.3285798992,-0.4117936549,0.0785724041,-0.2683563066,-0.4794996264,-0.7032744824,-0.5885990577,0.85738615,0.1114707148,-0.6082954517,0.3937681458,0.0141814414,0.2388328029,-0.9267621079,-0.5258804006,-0.5305928111,0.3382574921,0.3238477405,0.2970344255,-0.2932821223,-0.0034902628,0.3734894884,0.5974681148,0.7874659408,0.2249223157,-0.988632113,-0.4801282086,0.7641554007,0.7585082105,0.1051164167,-0.6571113015,0.488323302,0.6679619664,0.9841101502,-0.3264940101,-0.4493871456,0.6569969891,0.4049651533,-0.7410584485,-0.4368233014,0.1507525861,0.359474586,0.613534406,0.9091382949,0.0205523916,-0.9656249488,-0.4683011114,0.8662194967,-0.6781672123,0.0731660538,0.2192681664,0.7857863083,0.4496998605,0.7008788135,-0.9480698152,0.6170090523,0.1114330996,0.2437124898,-0.1577126713,0.3468512559,-0.3852846374,-0.4288679376,0.7732105035,0.8383064196,-0.9762280274,0.6840858314,-0.8615941687,-0.8313190606,-0.8081426312,0.795240523,-0.7676004109,0.6972320652,-0.0773601725,-0.2659195212,0.515567823,-0.2943854137,-0.6569113213,0.0885489155,0.4608293016,0.4432212375,-0.6385942642,-0.3415864783,0.0455358587,0.3948836554,0.2626337201,0.1300213699,-0.5147747707,0.2732841806,0.7581850052,-0.4570161756,0.6333222233,0.2044559468,-0.8382986694,0.3838372323,0.0482086003,-0.5053822471,0.6640170499,-0.8230618013,-0.5188851035,0.4644921789,-0.5427181264,0.8152446019,0.976932223,0.016051897,0.9414600733,-0.2571512415,0.8456461357,0.6524850545,0.5043664314,0.3655189518,0.6334148694,0.8422423044,0.4672301597,-0.5317111877,0.2808615746,0.4114076293,-0.773140814,0.6513987576,0.0621298997,-0.5372396145,0.6451560326,-0.320281624,0.9664146142,-0.4962496278,0.9861283019,0.1572972855,-0.0937445078,-0.9287750026,-0.2414279919,0.3529254429,-0.7709068307,0.2094623076,-0.3931199147,-0.2211333693,-0.8805094027,-0.3509191784,-0.2960079387,0.5246054432,0.4508864308,-0.5658994952,0.1133852776,-0.3446570302,0.0586596643,-0.8931405843,0.7416036235,-0.349840306,0.3673228123,-0.9226279815,0.4713008585,-0.9156511678,0.8008363728,-0.4590144848,-0.2450961504,0.0456390282,0.3315099468,-0.5604799147,0.1265636988,-0.09179822,-0.1367529081,-0.2311849478,-0.2131075299,0.1811608214,-0.3649507298,-0.7712979155,0.5615623897,-0.3879930158,0.6941496617,-0.517978439,0.6037130223,0.9474418983,0.1693735228,0.2230266256,0.191369877,-0.2417838344,-0.7153490523,0.356090584,0.2984183125,0.4975571892,-0.3773839772,0.1799134639,0.0994301356,-0.226713501,-0.575721033,0.8072400325,0.6359123963,-0.7829381534,-0.4226284813,-0.5234641364,-0.1312394861,-0.6010617182,0.6753780853,-0.9349975726,0.645464185,0.2430219857,0.4811444729,-0.253124023,0.3530887209,-0.4933450075,0.0007756169,0.1654406015,0.1133247758,-0.0555544083,0.7156640857,0.8215576222,-0.1379877649,0.38104573,-0.2822082911,0.1935916535,-0.5732006475,0.661031279,-0.0176142594,0.2768696265,0.0651008138,0.1743713321,-0.3649833954,0.6023681896,-0.2792300148,-0.7517188501,-0.3908893902,-0.1476812308,0.6044124572,-0.5781499841,-0.1820752441,0.1402425429,0.5533910719,-0.4922479574,0.0261102869,-0.6425039937,-0.006443334,-0.5301373072,-0.9145531196,-0.9860152133,-0.2106382053,-0.8271833229,0.4724461886,0.139645695,-0.9549775052,0.0033535083,0.7530151752,0.3319240019,-0.1917216041,0.552948374,0.2730137852,-0.9599555929,0.8400831743,-0.3407708074,-0.4975712527,0.3269156341,-0.1647056939,-0.2938034519,-0.3616369218,0.5526882716,0.7071059887,0.5647803467,0.6054413652,0.3441162948,-0.2712522402,0.0940875072,-0.9569047476,-0.3039228796,-0.0633153933,-0.2163355778,0.21333278,-0.2038142629,-0.5649679383,0.7958085339,0.3103158423,-0.7690744557,-0.5291413292,0.2092267142,0.9300281915,0.8867253871,-0.8292630956,0.0624970051,0.3325335739,-0.4589359309,0.1142654051,-0.5967897165,0.8673572041,-0.6630319977,-0.4265303768,0.8184532958,-0.7502024199,0.4778505388,0.2452174092,-0.6791055219,0.8926779051,0.6194585951,0.9663184737,0.7572382494,0.6752803863,0.6712813273,0.8804102543,-0.0579743615,-0.8754097251,0.0619025698,0.8075494269,0.8378017929,-0.0479644587,-0.2817777244,-0.3084212202,0.8932188424,0.5145015433,0.5643547056,-0.5499029766,-0.2748153738,0.1574464569,-0.6111040033,0.148516098,-0.9101803741,-0.4849518825,0.5207026771,0.0512554886,0.0646849525,-0.7300801376,0.0041421291,-0.7030982994,0.5753149508,-0.6005237293,-0.9731309798,-0.834103648,-0.3987351613,-0.8950113077,-0.3011829197,-0.9658282459,-0.9563854703,-0.7846392391,-0.9940615751,0.6944822922,0.1816450127,0.8786261213,-0.0699604678,-0.8033175974,-0.1870657431,-0.7162117785,1.4114338174,0.9571221003,0.9467820799,0.0753619477,-0.8536764008,0.4317375364,-0.6296220869,0.862321643,-0.3558876102,0.5921217958,0.5993053724,-0.728643548,-0.87755006,0.5560850727,-0.8809331296,0.6165126705,-0.4761168301,0.4947514446,0.0564825195,0.9723652021,-0.2959843954,-0.9545238295,-0.2531729623,0.7035547891,0.7021499883,0.8458987392,0.7873982029,-0.9320642471,2.7016748185,1.3318531537,0.3663143995,0.5006861618,0.3896064329,0.3728769423,0.8094493753,-0.7922943937,-0.2560727793,0.5544019719,0.7250631538,-0.7388162206,-0.7833701668,0.1769806818,-0.0264203214,-0.679397291,-0.6494834183,-0.3604165232,-0.2602714024,-0.4630284666,0.6965836496,0.0023506912,0.8325780604,-0.692495894,-0.1198633337,0.4181491037,-0.3382201682,0.2492478102,0.3412723746,-0.7349931177,0.2337140725,-0.0241222833,0.4348023083,0.7986106518,0.2247712963,-1.0919700249,-0.3922508509,-0.6876700794,-0.6184210399,0.0119959592,-0.7290483519,0.557153875,-0.0863295372,0.6411776605,0.2706640459,0.5161362099,0.1942909163,-0.3718932099,0.2780133166,0.8112809347,-0.2112434574,-0.8738023576,-0.6801672404,0.8784605087,0.2195183923,-0.6896667773,-0.3821552206,-0.1621486878,-1.1162117978,0.3232303988,0.4665661937,0.1484654978,0.0878866929,-0.7027452888,0.1755793961,-0.0833385632,0.3208287387,0.7803801768,-0.3715096192,-0.8354109279,0.0009407787,-0.021967775,0.5877280553,-0.0774282918,-0.4642031504,0.69524553,0.130615378,-0.4935763826,-0.052333347,-0.2805298215,-0.7362660048,-0.8276063844,0.2989896239,0.616285816,-0.5607874462,-0.2398339435,0.3606435189,-0.4503605993,0.0079157173,-0.2658771896,-0.2401715344,1.0979353157,1.2834425992,0.2410294154,0.0562424966,-0.3418871268,-0.1103035269,0.7115179055,0.8134937262,-0.2222053945,0.4818896075,0.2778405381,-0.422746064,0.2019480267,-0.3623350261,-0.8680876458,0.1411641349,-0.244157913,-0.3069395723,-0.0462742909,0.4800698308,0.717075013,-0.7307184528,0.3787045139,0.3807983163,-0.8170937148,0.4035602024,-0.5738065986,0.0508997253,0.0647896998,0.8372673895,-0.6854360972,-0.941158119,0.9075204394,-0.8271145992,-0.7440605372,-0.0431198199,0.8788981639,-1.0004510949,0.0496586358,0.6244487555,-0.4022495977,-0.1741443245,0.4505741525,-0.8393694485,-0.1352154002,0.815344273,0.0764703109,-0.3027018911,0.4918651112,-1.0190809777,0.070534718,0.5045984915,0.6738057177,0.7610373852,0.1330494575,0.9193221202,0.9816947972,-0.1941116669,0.5791836143,0.12909305,0.3580258665,0.4542064827,-0.9608218119,0.9122865208,-0.4671362639,-0.1968658801,0.6484915707,-0.0673337343,0.7903962026,-0.9995283475,0.0249747236,0.3707845838,0.345908476,0.6025999451,0.4445817462,-0.6816108614,0.7271055135,0.7772151026,0.3027109704,0.6293027568,0.6945682139,0.5065469125,-0.0937546641,0.268085977,-0.7082889973,0.7951355433,0.6780712216,0.424916378,0.7110192817,-0.7575227855,0.7153294505,-0.4249466724,-0.4595821754,-0.16782324,0.3705285348,0.5069879929,0.4088635016,-0.942156985,0.6223948219,0.4056368462,0.308772591,0.0747556127,0.8353684425,0.9461199262,0.0039738505,0.2171189285,0.5110378879,-0.3857209476,0.493235,-0.2196169492,0.6298788613,-0.0193105793,-0.112604776,0.4098820172,0.4354952794,0.0812411243,0.5468951433,-0.9498272192,-0.8245435622,0.9412005634,-0.639285181,-0.8111137903,-0.4957755751,0.0290021612,-0.4139645129,0.4937464332,0.9621964943,-0.511219973,0.812866843,-0.4946482194,-0.9418299138,-0.943426243,0.0711488312,0.6427405855,0.7836116907,0.0354671774,0.2784910695,-0.6088011445,0.4564035155,0.5552586555,0.8183356705,-0.2964222538,0.2693902642,0.0748218445,0.2017459198,0.2270509071,0.6730366344,-0.2164439007,-0.91265661,-0.171961297,-0.1379738208,0.7313335616,-0.3317664939,-0.0376776765,0.8981843473,0.266920494,0.4606363845,0.2737214101,-0.0711407178,-0.7058122528,0.4794264023,-0.4283078665,0.6652627019,0.9688847803,-0.9286619753,-0.3717870071,0.9386193405,-0.1461559344,0.3906947475,0.8226829619,-0.0571648622,0.1702601074,0.8289895401,-0.5783986051,-0.1295603678,-0.8976961907,0.6698067729,0.3957841693,-0.8481149819,0.4896344367,0.826420829,0.2007261787,-0.2940727183,-0.4839152028,-0.4691155104,0.2889318656,-0.0824321368,0.6297265431,0.5349701576,0.1889235237,0.8651756713,0.8930033599,-0.0123558787,-0.6089398091,-0.8692884911,0.9014925163,-0.2230063141,-0.3032854753,0.2265127102,-0.6553530201,0.832426805,0.8732822631,0.0255996918,-0.5517052925,-0.2103436739,-0.2847127723,-0.7611331274,-0.6598055754,0.626516298,-1.0122004724,-0.1941505116,0.5555475557,0.0455145891,-0.372987796,-0.8841230894,-0.9564644323,-0.0445463128,-0.5655816441,-0.8611405585,0.5942479972,0.8627404345,0.053076816,0.375009637,-0.8980952136,0.1894865606,-0.7696755264,0.4605917621,-0.2267453911,-0.8068931885,-0.6031079382,0.7505973317,-0.9531357848,0.0108919797,-0.0185047117,-0.0513271407,0.365491487,0.5494044915,-0.2385362512,-0.0334519322,-0.3683463367,-0.1388028754,0.7808774976,-0.0130527741,0.214674581,-0.8726748878,-0.9227511171,-0.0824898001,0.3822147009,0.2531006972,-0.6793607546,-0.6796539733,0.0381576166,0.9690067882,0.7923028554,0.242336933,0.3000035115,-0.9222868787,-0.8938009301,-0.3148651263,-0.3585805713,0.9371120123,0.8929180286,-0.6601193692,0.2665380243,0.6344984148,0.1920331097,0.1619412794,0.7233488435,-0.6901573275,-0.9381318427,0.7513711715,0.4388659536,0.7384102939,0.8130183244,0.7551741803,-0.8065359558,0.2055052623,0.4096954987,0.276133112,-0.5373479905,-0.719634461,0.4554039866,0.7978985833,0.7687363041,-0.6784186023,0.8341887618,-0.4389507161,0.9158607805,-0.7858809083,0.6727473588,0.2349609902,-0.3639968895,-0.7769348254,-0.7642196069,0.3688758792,-0.1525215002,0.9134438423,-0.7595859079,-0.1115985528,-0.5623572577,0.9118458449,0.5530449874,0.0558318988,0.9252603972,-0.1183195543,-0.1583670972,-0.682612829,-0.9161963304,0.0109476872,-0.4988987185,0.086637743,0.6609235601,0.8121877385,0.3844139248,-0.9140373449,0.1128582799,0.0795760017,-0.2215978457,0.3370383258,-0.6091606157,0.2634906198,-0.8067250249,0.8757670688,-0.7462709692,-0.3263441636,0.2905950522,-0.9610252377,0.235851765,0.823014972,-0.9156430452,-0.8804364008,0.5411785823,-0.912039967,0.7763866885,0.6382506348,0.5457525046,-0.151177192,-0.012037786,-0.6110204381,-0.4604897493,-0.88634207,0.5616091105,-0.1664920727,0.5515274567,-0.1592579644,-0.3162572634,0.2674791311,-0.2978882648,0.2421893559,-0.8430234811,-0.2018353014,0.1832322236,0.7036537284,0.532719344,-0.6594757515,-0.2196490758,-0.5209139094,0.8105735174,0.2260002264,-0.957213911,-0.9044094769,0.157726667,-0.4086145701,-0.4676587601,-0.3850920726,-0.7962627099,-0.1144203624,0.6254917151,-0.7077559896,-0.6147586271,-0.8433118859,-0.9020833695,-0.3036031394,0.041147027,-0.0455602246,-0.3399515541,0.1881044801,-0.2610647581,0.8910933436,0.156396014,-0.5798624014,-0.833700465,0.3108176071,0.366588774,-0.5087494901,0.6536257688,0.7581517428,-0.6674136341,0.7304365941,-0.5381633805,-0.344513227,-0.3668348853,-0.1617728908,0.1016628892,-0.0989613108,0.3375011448,0.5019504805,0.7212851156,-0.6733099059,-0.3558909034,-0.7887802473,-0.6861372064,0.7954053303,-0.7857307943,-0.4565020872,-0.5322874408,0.9022280892,0.8120364131,-0.4471346073,-0.8428782257,-0.606994817,0.7633642482,-0.4772971876,-0.4806925265,0.0379902174,0.224437281,0.4988208986,0.4536724903,-0.7019509546,-0.8924502815,-0.0050641701,-0.1330666204,0.1729776882,0.2447327118,-0.8396027842,-0.6566033834,0.7332205413,0.2389645249,0.7268468283,0.7224304616,-0.435606485,0.268306194,-0.9854731255,0.5441859822,-0.8049342314,-0.7457306218,-0.6415109533,-0.7728205044,-0.3075459324,0.9458945441,0.0472983362,-0.9951833235,-0.2705510248,-0.9566184279,-0.3871570366,0.7203853154,0.4834621065,0.9026665163,0.2078450169,0.7075486689,0.4120037685,-0.991407882,0.2020148272,0.4930524835,0.8177646925,-0.7768121058,-0.3468899681,0.9150929314,-0.1963141388,-0.155183884,-0.7338402465,-0.9918036567,-0.4077353933,0.001558263,0.6488726366,0.5510921027,0.2581018335,-0.6502171905,0.9877107761,0.9357508071,-0.1753479626,0.3743130672,0.3579932255,-0.4785394208,-0.9927242944,0.0759722672,-0.9761357844,0.1855062123,-0.9398885248,0.8530494092,-0.1911970859,-0.3171339806,0.3669284483,0.695681841,0.7918948595,0.6212283439,0.2833459413,-0.1167340004,-0.9493037481,0.5936953966,-0.7209165871,-0.2066253294,0.7196905649,-0.9592933712,-0.8221456164,-0.9578213576,-0.5894984819,0.3973492491,0.8113762205,0.7687263062,-0.3645835113,-0.253683339,0.6319149361,0.3138461457,0.6099939069,0.8893044461,0.2293643934,-0.2939683045,0.4348733464,0.1371892303,0.8019113861,0.075024521,-0.7933267489,-0.457380978,0.2914717476,-0.7032012238,0.6176863479,-0.4423940845,-0.2026191528,-0.9628046579,0.6134461449,-0.2425796212,-0.0633803727,-0.9010813623,-0.2536919326,0.7934257348,0.260143893,0.2597692088,-0.0182029388,0.5011197951,-0.6283974317,0.607555051,0.8581058752,0.5635098152,0.0405744555,0.3010584554,-0.3532533183,-0.6127380404,-0.6515111725,0.757444033,0.1654900491,0.6145935263,-0.9000922172,0.0756877894,-0.7815631644,0.7566063171,-0.5737848173,-0.2307971033,-0.964730117,-0.8559173881,0.4442746605,0.7087219859,0.4604545979,-0.7904534561,-0.2929039687,0.4508372416,-0.9350629089,-0.2776262002,0.3612490186,-0.2221513493,0.3630601793,-0.1891186946,-0.2742989124,-0.217378971,0.4239737005,-0.5089725872,0.4235577905,0.4799461843,0.0617556755,-0.2402880832,-0.67537893,-0.4810636116,0.2785579944,-0.283356099,0.1250991646,-0.2358893002,-0.9480127417,-1.7715558696,0.0425823224,0.5044064831,0.8866664716,0.9248819167,0.2162936721,-0.4675518011,-0.5256541773,-1.0024765802,0.5081839607,-0.7505362304,-0.5408844914,-0.8030846346,0.9025333865,0.925603014,0.1810743162,0.2331897672,0.4349892043,0.1486101213,-0.6909770497,-0.9121555156,0.0707889151,0.3273166333,-0.4843801898,0.9319277524,-0.2818512805,0.8628583951,-0.0379156977,-0.1652326507,-0.8808749467,0.5454633572,-0.339969235,-0.1507025561,-0.1010561954,0.4337533269,-0.8224096418,-0.8646086774,-0.5019345276,-0.4567080587,-0.389365989,-0.9964451317,-0.8718428048,0.9327413475,-0.3515591183,0.0768186562,0.5302640399,-0.287422777,-0.16564021,-0.9002429419,-0.4889038123,-0.476944729,0.8562845969,-0.7948720748,-0.2079126736,0.1783065597,0.2875688358,-0.4530064321,-0.4422594438,-0.1170414023,0.2679431682,0.6505666838,0.537427658,0.1981832562,-0.2432809318,0.3870714449,0.4160926941,-0.680512863,0.6794737212,-0.0274819139,0.7724586928,0.607049475,-0.7031589021,0.8210554982,0.064108409,0.1095076561,-0.7708031602,0.1468345405,-0.247146459,0.8952678303,-0.5105577788,-0.6455645846,0.4735028964,-0.0601077817,0.6666720329,-0.8671423983,0.6986102067,0.8327127146,0.277580457,0.0547732153,0.051718789,-0.6876187935,-0.2874580663,0.1001475117,-0.0470017064,-0.031052469,-0.3375244024,-0.3741370533,0.1551561185,0.857644407,-0.2072048629,-0.0310842353,-0.5421058595,0.6256790596,0.8811675663,0.1757589032,0.5489540498,-0.9258235948,0.9725203715,0.4975432664,0.7619645625,-0.5531851949,-0.1680264042,0.595417496,0.8433222436,-1.0012455765,0.9606780723,0.9977989651,-0.0885201156,-0.6317459657,0.6872506924,-0.995484828,0.4577858449,-0.3563972225,-0.802197466,-0.6056230166,-0.1860681428,0.9656804376,-0.1782149529,-0.6839292674,-0.8187571239,-0.2459287461,-0.0491670222,0.1648539548,-0.8324899633,0.6450904678,0.1747810421,0.8545380881,0.8741345691,0.1740518749,0.6826342119,-0.6468094342,-0.3078618765,-0.5710829845,0.7839785337,0.2411037056,-0.8232499332,0.4594146252,0.8984349834,0.7523682247,-0.9612342432,-0.9466886966,0.9852846901,0.5894551081,0.076065429,0.5729637738,0.0470558554,-0.2994748802,-0.3568577367,0.1888608259,0.6914644595,0.6164072225,0.3230190297,0.2535859115,0.7554475128,-0.321448871,-0.3683542928,0.8469123398,-0.5759818329,0.512796445,0.2834411797,0.3949597399,-0.3060556943,-0.937946095,0.6491854427,0.3261254066,0.8404567515,-0.2030118109,0.8565456979,-0.3671361543,0.7835136443,0.855888104,-0.8304135205,0.4338545277,0.8549530435,-0.3736035689,-0.7302852593,0.1224437013,-0.3324663634,-0.8647586719,-0.6574299788,0.0515940808,-0.7513798586,-0.1560028593,-0.9765086313,0.1066555517,-0.7336011743,0.3889334854,-0.4848270384,-1.1325925945,0.2016324033,0.1351759928,-0.5995119158,0.3427958562,0.859968345,-0.6874728793,-0.7841377534,0.7445381084,-0.4027859607,0.469235664,-0.3112423051,0.009598614,-0.1508820901,0.0572294204,-0.9031505789,0.4903860398,-0.1812080614,-0.4548787904,-0.9637439602,0.9116747224,0.148179808,-0.7611992827,0.119842072,-0.5394699875,-0.6574277922,-0.2658067501,0.0475537182,-1.0799367281,-0.5675963672,0.0928876049,0.6704876162,0.3745266595,-0.882635759,0.9159840497,-0.2740218709,-0.5699744321,-0.9983850546,0.1501682071,0.8396242224,0.2027594318,-0.1445060085,0.8788823465,-0.1558132324,0.7882188242,0.0819693058,-0.5039310629,0.9329828046,0.2289005125,0.5358458917,0.6464865145,-0.728929059,-0.9473807552,-0.1063530587,0.7369741924,0.3125970611,0.3249351382,0.6380240251,-0.1960974637,-0.1639019133,0.7817373284,0.2732449706,-0.3888270021,-0.3582914858,-0.9111125452,0.2790684005,-0.6627877216,-0.2332525696,0.7906803273,-0.2297412587,-0.8109360891,0.2423586645,-0.4975275319,-0.1578353983,0.0931128616,-0.0899133378,0.3313238178,0.9334516068,-0.9543571142,0.1277260897,-0.9845901246,0.3073523878,0.6782823124,-0.6101675452,-0.1509907365,-0.5034817044,0.6327619936,-0.4186511609,-0.933028684,0.5547741929,-0.7233038148,0.1966881364,0.76415281,-0.2867158966,0.0710348829,-0.2416289216,0.8483181069,-0.1494374433,-0.856382554,-0.6433929137,-0.8538976266,-0.0337495433,-0.6129390319,0.049314009,0.9222660785,-0.3370757495,0.2402402543,0.2084489748,-0.4118055258,0.2895423245,-0.0993364747,0.9096709328,-0.4794071665,0.0116442504,0.7575801699,-0.6393037064,-0.2004610667,0.3519167694,0.5462718153,0.0190970052,-0.1967281943,-0.8796137977,0.0450430969,0.6228306129,0.5048741884,0.6693766441,-0.302788493,0.6765212513,-0.2153627587,-0.567692789,-0.7706815904,-0.0555321177,-1.0571755796,-0.1942234585,0.1411222419,-0.6852773241,0.6590601348,-0.8936295892,-0.349134341,-0.4903825546,0.5398856948,-0.3223950712,-0.8113741673,-0.5110254256,-0.7567855137,0.3032351851,0.1489793065,-0.6836145863,0.9165634192,0.8964576238,-0.2695080806,-0.0023998052,0.2182279385,-0.4585330356,0.3800296243,-0.7240227154,0.2616054337,0.735426606,0.2334627512,-0.1092648203,-1.3327218094,0.4225568501,-0.9585745175,0.9148104747,-0.8133075515,-0.2403400946,-0.5525812571,-0.6805599259,-0.4276340804,-0.2072119719,-0.7915417691,-0.2352797141,0.9012806493,-0.9270099317,-0.1802286648,0.8525831553,-0.776945572,-0.1772968074,0.1975746442,-0.7905885584,-0.9569590692,-0.3648266112,-0.0714968093,-0.7798396382,-0.8985630313,-0.9008087244,0.373584564,0.4919180178,0.4302825342,-0.4996277098,0.6069950621,-0.7808847304,0.3674558815,0.1695945179,-0.979901877,-0.1021105976,0.7171330614,0.3879413982,0.2485002834,0.0158600655,0.1861331151,-0.7348967292,-0.45228654,0.0755102613,0.2127154515,0.2251824253,-0.4404385246,-0.0054192333,-0.9944663482,0.4445037291,-0.1437868536,-0.0776174164,0.023845799,-0.2793130633,0.1303239473,-0.4694120093,-0.8912295643,0.9484189657,0.1982032006,-0.9674026877,-0.4549504957,0.4863745537,-0.2333998864,0.9712337393,0.6424837649,0.2781903035,-0.0415288454,-0.0394488526,0.0152991749,-0.2635033262,-0.6869046451,0.9039378987,0.1306058956,-0.1584927096,0.5438563965,0.3789683763,-0.2681486572,-0.7295970114,-0.2113546677,-0.7794576735,-0.8560468209,0.7971266124,-0.9213577142,0.1837502536,0.5871746163,0.8051666216,-0.939289995,0.0419516257,-0.2699838907,-0.2240241654,0.2631439436,-0.1163195853,0.083320808,-0.0738834574,0.1777971144,0.1020847869,-0.9881830412,-0.2461050375,0.7236834742,0.3949834141,0.9203515296,0.4215616257,-0.8101436736,-0.9824474475,-0.9560421563,-0.1038033419,-0.3091027552,0.1758705996,0.2116241462,0.5452379674,-0.5682972524,0.1171447707,0.4248705178,0.5080232067,-0.3121165614,-0.5294626016,0.060332552,0.7272373931,0.9231777059,0.0632907721,0.053700534,-0.7563453154,0.4688870318,0.4014841539,-0.864583444,-0.4647862823,-0.6773113014,0.9760605167,0.6149967894,-0.2985975633,-0.9009173721,-0.9298503357,-0.7748815646,-0.3930855146,-0.7909378565,0.9907858742,-0.9307606982,-0.6125319704,-0.6505395663,0.5314133503,0.185324872,-0.500161465,0.0031128921,-0.0917506699,0.8532174899,0.582655734,-0.3671939486,0.9378931743,0.9335726371,-0.088803109,-0.4761619005,-0.9013594347,-0.6692834658,-0.892832096,-0.5676270948,0.6897464806,0.5507797925,0.5062974938,0.7308616141,-0.4976062864,0.9650956898,0.1752870623,-0.9992461799,0.1720066678,0.6491273382,-0.5388130303,-0.1308421222,-0.8639097221,-0.6295523317,0.3322464628,0.944268874,0.3650533655,-0.6824466088,-0.1333402107,-0.9397396764,-0.5216307942,0.4615277207,0.6920525631,-0.0417924528,-0.4228486541,0.0093645191,0.557350328,0.8779252736,-0.2098383368,-0.7196829633,0.3290806131,-0.5582280772,0.8885779291,0.9688356245,-0.3204777268,-0.1741783169,-0.2701704547,-0.2428010724,-0.6145104692,0.3265561952,-0.3116573397,0.3744079872,0.7761677259,0.5075264312,-0.720633044,-0.9998411092,0.2818790446,0.765609934,0.4462472083,-0.1166265725,-0.152710816,-0.3086317311,-0.1052029574,-0.5031706965,0.3547032122,-0.0584276009,0.1601990222,0.1228556669,0.7376897619,0.2391726842,-0.4160564524,-0.4734649611,-0.9240886596,0.1782839119,-0.2113491886,-0.7126515127,-0.0818032155,-0.9138161315,0.682035621,0.981807087,0.3118063946,-0.0825182444,0.8596010771,-0.5028710689,-0.2710095509,-0.2439314237,-0.4655277217,-0.5449209143,-0.2381874856,0.3453431336,-0.8357756728,0.2935372806,-0.6162932671,-0.6486720801,0.0382181262,-0.7816671627,0.7530952396,-0.2363228875,0.7977854642,0.5927641614,0.2548923212,0.9357124833,-0.4830417331,-0.5223039639,0.0232037124,0.2478219514,0.5018415102,0.7787132101,0.2862439154,0.4506226864,-0.6642753381,0.5849180115,0.735506262,0.2634683602,0.9471193804,-0.7915470951,-0.241452308,0.2617500958,0.3971175954,-0.1596397482,-0.4669910763,-0.5117093281,-0.7485540195,0.8679592428,0.1972675781,-0.6729467143,-0.3153238056,0.9014220181,0.8735004609,-0.2678288671,-0.3517734399,0.5852286403,0.0081301203,0.2725499076,0.2340068707,-0.666728147,-0.6912513693,0.0019672651,0.1715896197,-0.3926116939,0.1805433678,0.5912536705,0.3935245097,-0.4385848276,-0.5980600843,0.862957984,0.2438815676,-0.0145157937,0.0992061616,0.0045139015,-0.2338973838,-0.048458112,-0.7386699488,0.4133791711,-0.7302221078,-0.8409400541,0.7702336733,-0.8663158486,0.3659895965,0.4789440844,-0.1714987727,-0.896709717,0.9206734643,-0.355645833,-0.6019538257,-0.3241973732,0.5940899358,-0.8608695175,0.0856251376,-0.0251406387,0.6521476041,0.7488153198,-0.2788348272,-0.4777607116,0.2052033239,-0.8048190562,-0.8046116986,-0.9075440162,0.8723628424,0.8620073413,0.5391755433,0.5215420758,-0.437707455,-0.9516824241,-0.9276892697,0.9478735018,0.9761004668,-0.9709361812,0.6516847107,0.046616597,-0.2388050021,-0.8169020448,0.3815231115,-0.4528586099,0.0579709177,-0.2945907732,0.7622661502
