encog,BasicNetwork,java,3.4.0,1,1670728362610
[BASIC]
[BASIC:PARAMS]
[BASIC:NETWORK]
beginTraining=0
connectionLimit=0
contextTargetOffset=0,0,0
contextTargetSize=0,0,0
endTraining=2
hasContext=f
inputCount=784
layerCounts=1,100,784
layerFeedCounts=1,100,784
layerContextCount=0,0,0
layerIndex=0,1,101
output=0,0,0,0,0,0,0,0,0,0,0,0,0,0,0,0,0,0,0,0,0,0,0,0,0,0,0,0,0,0,0,0,0,0,0,0,0,0,0,0,0,0,0,0,0,0,0,0,0,0,0,0,0,0,0,0,0,0,0,0,0,0,0,0,0,0,0,0,0,0,0,0,0,0,0,0,0,0,0,0,0,0,0,0,0,0,0,0,0,0,0,0,0,0,0,0,0,0,0,0,0,0,0,0,0,0,0,0,0,0,0,0,0,0,0,0,0,0,0,0,0,0,0,0,0,0,0,0,0,0,0,0,0,0,0,0,0,0,0,0,0,0,0,0,0,0,0,0,0,0,0,0,0,0,0,0,0,0,0,0,0,0,0,0,0,0,0,0,0,0,0,0,0,0,0,0,0,0,0,0,0,0,0,0,0,0,0,0,0,0,0,0,0,0,0,0,0,0,0,0,0,0,0,0,0,0,0,0,0,0,0,0,0,0,0,0,0,0,0,0,0,0,0,0,0,0,0,0,0,0,0,0,0,0,0,0,0,0,0,0,0,0,0,0,0,0,0,0,0,0,0,0,0,0,0,0,0,0,0,0,0,0,0,0,0,0,0,0,0,0,0,0,0,0,0,0,0,0,0,0,0,0,0,0,0,0,0,0,0,0,0,0,0,0,0,0,0,0,0,0,0,0,0,0,0,0,0,0,0,0,0,0,0,0,0,0,0,0,0,0,0,0,0,0,0,0,0,0,0,0,0,0,0,0,0,0,0,0,0,0,0,0,0,0,0,0,0,0,0,0,0,0,0,0,0,0,0,0,0,0,0,0,0,0,0,0,0,0,0,0,0,0,0,0,0,0,0,0,0,0,0,0,0,0,0,0,0,0,0,0,0,0,0,0,0,0,0,0,0,0,0,0,0,0,0,0,0,0,0,0,0,0,0,0,0,0,0,0,0,0,0,0,0,0,0,0,0,0,0,0,0,0,0,0,0,0,0,0,0,0,0,0,0,0,0,0,0,0,0,0,0,0,0,0,0,0,0,0,0,0,0,0,0,0,0,0,0,0,0,0,0,0,0,0,0,0,0,0,0,0,0,0,0,0,0,0,0,0,0,0,0,0,0,0,0,0,0,0,0,0,0,0,0,0,0,0,0,0,0,0,0,0,0,0,0,0,0,0,0,0,0,0,0,0,0,0,0,0,0,0,0,0,0,0,0,0,0,0,0,0,0,0,0,0,0,0,0,0,0,0,0,0,0,0,0,0,0,0,0,0,0,0,0,0,0,0,0,0,0,0,0,0,0,0,0,0,0,0,0,0,0,0,0,0,0,0,0,0,0,0,0,0,0,0,0,0,0,0,0,0,0,0,0,0,0,0,0,0,0,0,0,0,0,0,0,0,0,0,0,0,0,0,0,0,0,0,0,0,0,0,0,0,0,0,0,0,0,0,0,0,0,0,0,0,0,0,0,0,0,0,0,0,0,0,0,0,0,0,0,0,0,0,0,0,0,0,0,0,0,0,0,0,0,0,0,0,0,0,0,0,0,0,0,0,0,0,0,0,0,0,0,0,0,0,0,0,0,0,0,0,0,0,0,0,0,0,0,0,0,0,0,0,0,0,0,0,0,0,0,0,0,0,0,0,0,0,0,0,0,0,0,0,0,0,0,0,0,0,0,0,0,0,0,0,0,0,0,0,0,0,0,0,0,0,0,0,0,0,0,0,0,0,0,0,0,0,0,0,0,0,0,0,0,0,0,0,0,0,0,0,0,0,0,0,0,0,0,0,0,0,0,0,0,0,0,0,0,0,0,0,0,0,0,0,0,0,0,0,0,0,0,0,0,0,0,0,0,0,0,0,0,0,0,0,0,0,0,0,0,0,0,0,0,0,0,0,0,0,0,0,0,0,0,0,0,0,0,0,0,0,0,0,0,0,0,0,0,0,0,0,0,0,0,0,0,0,0,0,0,0,0,0,0,0,0,0,0,0,0,0,0,0,0,0,0
outputCount=1
weightIndex=0,100,78500
weights=##0
##double#78500
   -0.705370462,0.069556087,2.1263243288,0.0537013713,-23.5981746449,-5.5085158382,0.6462727018,23.144941664,-1.6294890321,15.7007795472,0.4434923822,281.5030821998,-6.5914967559,6.341457525,0.4383604084,0.4316897359,-0.2419071433,-43.2658043446,0.8400163648,0.695557208,0.4822404255,-12.8575339532,-3.2140190169,-0.3434711929,0.7514592696,-0.7766524807,29.7068513676,-1.4314527125,-25.6204862014,-0.511910537,0.7762364286,-1.8380154483,-4.1530549006,-7.3610322158,-0.2412099,0.0268443531,-2.4567387301,0.7476234172,2.478653865,-0.6188646192,0.3198353652,0.9915415374,0.8533047478,261.8223540667,-1.4742191081,-12.7818823501,-0.2823041365,-0.4623524478,1.8740935757,-0.5547004167,0.0190951875,-12.6133488999,15.2163487224,0.7524651829,-3.6156757528,2.5235046744,5.5691713055,9.952345223,-0.8085849491,-6.672168842,-0.5440744034,2.240942368,-18.9703653063,84.5958659406,0.8660745547,-11009.0835785198,-0.5805146344,-11.8207536647,2.7240745137,0.523130455,-0.3232771694,0.0941250848,5.4708595805,0.1221210396,0.3320524106,-9.692976688,-5.6673601371,-4.0041828595,-0.062039692,0.8623982717,-0.040117515,2.175120851,0.9951245071,-0.7922623597,-8.4031317336,-0.6823321471,0.1708986816,34.9268119648,-3.0385633284,-0.9458217642,0.7674809939,-0.1725886286,0.3537283957,-614.9104939778,-369.2954612875,75.2418080859,0.1198835283,19.2094558048,-24.6812462022,-2.0989824783,-0.2408051844,-0.541798109,0.9639184955,0.3123258172,0.4839662707,0.4576961527,0.897681609,0.1909097309,-0.7371243447,-0.8154495757,-0.6960456171,-0.6254392718,-0.5109245498,0.0180243588,0.6565335713,0.6108843626,-0.9270395137,0.6024113469,-0.1768730382,0.4879992296,0.2246816291,0.4584724992,0.2826780781,0.5380567772,-0.3190473645,0.678204375,-0.7253066846,-0.0406720366,0.700496817,0.47736186,-0.9566879811,-0.167981366,-0.5751929247,0.432999539,0.7055115157,-0.2127659241,0.3493969938,0.4489183279,-0.2227938717,0.1156103687,0.7718032279,0.0642367923,-0.7338433076,0.2019558716,0.3700498211,-0.4435941702,-0.2865249554,-0.8357029722,0.81900115,0.8637352472,0.9360331657,0.6572234704,0.7963432195,-0.4753681187,0.4407958566,-0.4803428334,0.2737799598,-0.7042265098,-0.920679245,-0.9326590923,0.4134878691,0.9377510964,-0.2982990871,-0.424224279,2.1742824112,0.6420469824,-0.9639992237,-0.700850978,0.2916852362,-0.387248325,0.0218339897,0.8477728546,-0.284942043,0.3237086022,-0.6032732228,0.2695980545,0.7462390399,-0.3713121047,0.9775214339,0.8128329203,0.7829380757,-0.6825892461,-0.0712446493,-0.3127345999,0.6900393308,0.9968772334,0.4676324485,0.1467524658,0.6564500362,-0.8397610371,0.3843158307,0.0002011496,0.9431661925,0.5607778562,-0.2158159355,-0.0187115016,-0.7742786519,0.4144644623,-0.909408073,0.0855188022,-0.3735261488,-0.4130813863,-0.5302911253,0.6380927353,-0.317754162,0.2264269263,-0.7176911188,-0.5302603419,0.9820393565,0.1418886385,0.0682259106,0.8178880722,-0.1236866356,0.9427101496,-0.9239458201,-0.7042394605,0.2215024325,-0.7126093888,-0.7035916938,0.6612813376,-0.8606124456,0.7214607267,-0.759120656,-0.9413199361,-0.4509873766,0.9681713756,0.5930438043,-0.6917772583,-0.0465999649,0.4438813257,0.6449647291,-0.2473663273,-0.1133096228,0.9800928226,0.8925078961,0.3762327518,0.255263996,-0.0482486884,0.7580520191,-0.1650775528,0.0888025286,0.5662882011,0.3803747119,-0.8094505033,0.7360682195,-0.8265190955,-0.4363305806,0.2324473666,0.7210199608,-0.2917677095,0.9976065418,-0.0025622391,0.0847218971,0.3955249751,0.927179346,-0.4991830828,-0.1593390754,-0.4628214429,-0.7449890858,0.3634018349,0.4179911187,-0.7650887114,-0.8017959321,-0.1736572398,-0.1179745095,0.1071831736,-0.973362074,0.7018996396,-0.4227040023,-0.3917307442,0.2935384421,-0.7134299813,0.8011853331,0.548785519,-0.3877756092,0.4177925624,0.208155205,0.2366436643,0.4981103182,0.9437937817,-0.24481886,-0.4664200104,-0.780032718,-0.7129679898,-0.8546399155,-0.9310024238,0.2700020705,0.7828114207,0.9918991176,0.1189658288,0.2131751144,0.2854349294,0.0684044559,-0.6856450242,-0.1646524075,0.3459224864,-0.9241807745,-0.4824864079,-0.8055658321,0.0022138782,-0.164316623,-0.8355816309,-0.1029006405,-0.779451899,-0.3300018454,0.2309821852,-0.4557545016,1.2953785957,1.0212907089,-0.3360036559,0.4917197399,1.1389055677,-0.6391569063,0.0939082239,-0.7694979418,-0.9029994599,0.8132197092,0.1982831626,0.8282147518,-0.5902912786,0.2591865238,0.1549015788,0.2374062342,0.4518198335,0.1971650187,0.6006441927,-0.0958298146,0.4763805427,0.8167150334,0.7833659223,-0.6943323521,-0.5642753076,0.5649034414,0.3633590765,-0.8422912034,0.3023462886,-0.708282954,0.2000882683,0.7526138591,-0.7938855685,0.7031093423,0.7526877034,0.799569874,-0.8823687011,-0.9326247839,0.0811579607,0.5221156259,-0.531253165,-0.0476494012,-0.9269774426,-0.0926595264,-0.8338349224,-0.0302223463,0.1529293973,-0.6570538586,-0.2565092882,0.0219774161,0.1822175534,-0.6441713831,-0.705101496,0.0500753572,0.3942557144,-0.9085362774,0.9596591827,-0.7459947752,-0.5742504517,-0.6838929718,-0.1735592221,0.9771802296,0.5007697579,-0.773016886,0.5363765536,0.035002186,0.164462261,-0.3147715827,0.5543988071,0.7253997408,0.6028669347,0.3458460988,-0.5382805803,-0.0992730051,0.2677714676,-0.2303610669,-0.6336944556,0.7224839351,-0.090553196,0.4086401312,-0.7062807206,0.3747287073,0.2286840582,-0.323192444,0.1748039529,0.8509088437,-0.9536299724,-0.1767597591,0.1584940819,0.5496258584,-0.1700970657,-0.7532590382,0.404119223,-0.0999012541,0.2340277537,0.5815403379,-0.3782581762,0.6786744611,-0.2314534122,0.1859345002,-0.0571127634,-0.6119028671,-0.840244576,-0.2204898059,0.9122674582,-0.855026038,0.7262905967,0.6205545978,0.0642312745,0.4946546813,-0.0637671144,-0.6548070355,-0.3050716444,0.3753467857,0.9714153421,-0.9248615999,-0.9892117088,0.3229307878,-0.9397143136,0.5937188062,-0.3016991333,-0.4744676806,-0.4783104683,-0.7383590295,-0.0415819484,0.4228839715,-0.5137473087,-0.507368511,0.7786290634,-0.827026779,-0.7208325038,-0.8080470734,-0.0296516098,0.8809514922,-0.8738189226,-0.3267154214,0.4945357101,0.491208499,-0.4314659302,-0.9898657712,0.2067117281,0.6188602534,0.1368201498,0.6367866128,0.2278379228,-0.6452682062,0.3675243463,0.9207556439,0.718116938,0.6635124411,-0.9518796153,-0.8085057372,0.9917265758,-0.0730995773,0.0264984603,0.3502502058,0.7909394841,-0.3816574746,0.1631870758,0.0895130031,-0.0200871566,-0.5826160675,-0.2567614845,0.8375744165,0.2127300045,0.0579693414,0.6244858869,-0.5890495627,-0.2011324111,0.2044487,-0.0006306773,0.3876374403,-0.8075234551,0.9757094886,-0.5770774444,-0.3209421635,0.3366894384,-0.923519627,-0.555738061,0.268125121,0.4195900257,0.5363009731,-0.8198776652,-0.0540442993,0.1247253189,-0.439965671,-0.7114101851,-0.5287392709,0.930318547,-0.8853591698,-0.955626209,0.6626049922,-0.2586057527,0.41530466,-0.502689362,-0.3517920714,-0.3349125536,-0.603303561,-0.5155719686,0.5026881397,0.6210748643,0.3610763763,-0.3401214686,0.4531088762,0.0548792601,-0.0217754259,0.3998108631,-0.2365960832,0.5593220736,0.8172491183,-0.3073756132,-0.4784145793,-0.3103409489,0.2748004972,-0.6518770197,0.8514785305,0.1722303253,-0.3911255133,-0.2346819416,0.8784455268,0.6772113169,-0.2368627139,-0.3982179843,-0.7738291679,-1.0218147702,0.4394146882,-0.2664008457,0.7119612558,0.0626461587,-0.6789355018,0.804126014,0.6592135062,-0.914594532,0.7604266617,0.8913998361,-0.0856998552,0.3227431353,0.1995665873,0.5582737868,-0.0735053932,0.7662318026,-0.1499185891,0.9346260952,0.3463861218,-0.7749466461,0.0265944834,-0.586784403,-0.3972341257,-0.9564222993,-0.8451070518,-0.842409202,-0.9988032635,0.8786311967,0.2862523514,-0.4495676212,-0.4033996833,-0.261345788,-0.902671389,-0.7962681412,0.7874068401,0.7686784543,-0.2942824512,-0.9062306229,-0.1451909893,-0.2454785879,0.8512262629,0.552151367,0.5457369637,0.8431175423,0.8088920698,-0.7984427469,0.3070196389,-0.1910634274,-0.3301984737,-0.9134767343,0.3805992825,0.2042987702,0.8593502591,0.8290828465,0.0970287939,-0.1881865946,-0.7800259031,-0.1177039247,0.1920716628,0.4555942266,-0.9990785948,0.3830724419,-0.7591539242,-0.7227548013,0.9740669571,-0.515020664,-0.3404255912,-0.7660685664,0.251630506,0.0026444136,0.678425226,0.2509990819,-0.1387741314,0.6060665849,0.8636264081,0.0163317564,0.5355386039,-0.4545899907,-0.7361107206,0.3738179665,-0.8070019398,0.9908495034,0.6887852761,0.4307034792,0.962122007,-0.7395144336,0.6702811153,-0.2115546979,0.4921593961,-0.2159565196,-0.51436488,0.1725496745,-0.0753195591,-0.163702891,0.2387761773,0.8168145412,-0.1144562476,0.8268011798,-0.0097324034,0.5639321732,-0.5341040353,0.3979856398,0.0729495847,-0.0731981037,-0.640594895,0.7161615661,0.3921119456,0.6775852697,0.2961001221,0.770613942,-0.6435152538,0.672698207,0.6731887889,0.9880085544,-0.1248980182,0.7448398774,-0.7438320469,-0.8364110922,-0.5957405629,0.8935028957,0.5393358141,0.8989685275,0.8008567932,-0.8016457159,2.5816602664,-0.2039220105,0.3000836905,0.4807240502,1.9732964989,-0.325731483,-0.1683956285,-0.4703017137,0.9286494085,0.9000962935,-0.7385835528,0.021681363,-0.6603654963,-0.4701421934,0.4806789975,0.6790427652,0.8895657733,-0.019430823,0.6199666211,0.7971072908,-0.5743033206,0.1602426587,-0.2006340405,-0.3718262878,-0.6209410228,1.2142094508,0.518073169,0.4543027995,-0.4041440954,0.1186481824,-0.408254739,0.0506169463,-0.0676380444,0.3417216875,-0.9765624491,0.6506895276,-0.5270131264,0.3087407289,0.8395184788,-0.8362748721,-0.6129787459,0.1724406743,0.7941472938,-0.1824359749,-0.6599994575,-0.5397415094,0.03046309,-0.8009569908,0.4758033743,-0.7192443253,0.0914514262,0.4456471293,0.578013004,0.7877641875,0.7362716591,-0.9599294609,-0.1406712488,0.5548954981,-0.2389652446,-0.7973847388,-0.494321974,-1.1819452788,0.287590375,0.0114228809,-1.0065293033,0.3938749162,0.0491931562,-0.2979892455,0.090199827,0.1072745993,0.3438644393,-0.6025665552,-0.5267192213,-0.7521529329,0.1130690856,-0.5796022821,0.1159285149,0.5213016888,1.2504254839,0.264357468,0.2587019838,-0.4906963163,2.2194412656,0.9406635765,0.4382587397,0.7183473597,0.7040814506,0.3601854792,-0.8561111511,0.2482279269,-0.3668224816,-0.83021701,0.4284402085,-0.8546326425,0.3976432163,0.5970252357,-0.0670661469,-0.2697550442,-0.6603686694,-0.3730333086,-1.0016989106,0.8185440897,-0.7958156827,-0.4944334596,0.3479622707,0.3199408976,-0.7448832318,0.7702148881,0.2602372086,-0.810495467,0.1723025497,0.8143474174,-0.6585943881,0.9571399587,0.4202614326,-0.6346010115,0.8724652971,-0.2371516226,-0.3215046492,-0.9057311375,-0.4533527267,0.7067918656,0.300217256,-0.7744427269,0.3774053656,0.2400566296,-0.8305855992,0.1553066576,0.3011683189,0.8159762846,0.6066644517,0.6710882558,-0.4757034783,-0.19052071,-0.3540015077,0.0728016691,-0.5715444184,-0.0210460175,-1.0066792809,0.5974089936,0.5079054983,-0.2962800797,0.7205365679,-0.4301840859,0.0072739849,0.5167137238,-0.6027231637,-0.8384112704,0.6496297147,-0.0954058353,0.496099623,-0.4986728454,0.8382107973,-0.7056598548,-0.720512561,0.7316031318,0.9822766364,0.5514993213,0.9597380223,-0.9869699368,0.2318367272,0.6184878374,-0.9059646634,0.3591599726,0.942898839,0.907729147,-0.7508817114,0.7899433132,0.4292879662,-0.1610751503,0.1287171817,-0.5562278636,-0.3240124071,0.644972716,0.5418334053,0.1546731378,0.5446330112,-0.038869068,-0.313486008,0.7268353157,-0.3797638522,0.3554320836,0.3031883683,-0.0958302602,-0.9903857988,0.8166596462,0.1108978697,0.1696214839,-0.4666029491,0.5114608558,-0.9469432382,0.7834589222,0.1398065318,0.6264439037,0.6866912781,-0.0148905749,0.2674727153,-0.9500536495,0.8147616131,0.5629623373,-0.3492745011,-0.5376613477,0.3460155939,0.8158585532,-0.9062790965,-0.2671798736,0.7383281527,0.3697509784,0.9944720213,0.862142926,-0.328340511,0.2200471437,0.5971354936,0.619815711,0.963326917,0.6573307032,0.3601850832,0.1496481314,-0.3933908081,-0.3591005583,0.9886956521,0.0815762435,-0.8760365288,0.4308621553,-0.6643233295,-0.6795474489,-0.5925184422,0.6200297981,0.3133937968,0.8781136079,-0.2807726245,-0.6364232174,-0.3656685227,-0.7561385809,-0.4847095288,0.8858479885,0.6780803848,-0.6608618917,0.593091546,0.9026168089,-0.85339916,0.3007449504,-0.9262436178,0.8509139984,-0.0311377862,-0.2329196059,0.7393035909,0.9328077595,0.372003242,-0.2596145096,0.576831109,-0.6367988574,0.132847364,0.3480600878,-0.7752122097,0.7867486162,0.5451159194,0.3229525675,-0.4706987293,-0.5026703929,0.0385932866,-0.1203957854,-0.0187614828,-0.6684731252,0.0767860876,-0.4675618307,0.8860400927,-0.6984682144,0.7032983272,0.8702995371,-0.5395167822,0.273957952,0.8542391796,-0.589051646,-0.081090661,-0.0871821872,-0.3506856015,0.0270982124,-0.3084666618,0.890101061,0.9615823872,-0.05945234,-0.119045156,0.0973718264,-0.2112191519,0.4760548403,0.3846461972,-0.8642239394,0.9583240473,-0.12369684,-0.1648921989,0.4628416065,-0.3162507385,-0.7998129983,-0.9647682612,0.5792627795,-0.8040104029,-0.4311467887,-0.6098699799,0.7987498888,0.9187647126,-0.9319584487,-0.3710526519,0.7005360779,0.4314781008,0.0462316186,-0.0973121151,-0.2774257144,-0.4868489801,-0.0127763544,-0.5130517479,-0.8399906119,-0.6801663789,0.3548982536,0.7875022744,-0.1995465424,0.2022783122,-0.1617822649,-0.2913154958,0.6410338626,0.7373490942,-0.1045031674,-0.2376113269,0.9596396083,0.0008446522,0.4051654432,0.7771773934,-0.3537163728,-0.6337428671,0.8019242123,0.2002010409,0.9632413134,0.890114414,0.0206548229,0.1223125404,-0.6604137864,-0.2053896263,-0.9294831914,0.9897131258,0.2318817344,0.1057607806,-0.0435300783,-0.8541471617,0.8241390972,0.743698336,0.4321175718,0.6033284225,0.2718421052,0.0456159737,0.2997985052,0.6523308099,0.1661994833,-0.4386201152,-0.5526027489,-0.5306442861,0.2213642465,0.1257565012,0.920981726,1.0015797248,-0.1478074127,0.79374413,0.428469837,-0.6144547392,0.8409489274,-0.8091416246,0.2536503228,0.6044709414,-0.2883653652,0.3942092593,-0.5611204626,0.7444719488,0.012165725,0.1451987092,0.1491060656,0.2511638243,-0.7115341422,0.9328336095,0.2447829688,0.3002138017,0.2441044722,0.2176029992,-0.5765012118,-0.7554422646,-0.5381651483,-0.6776542175,0.5143949436,0.4397365546,-0.9501404122,0.0413461612,0.8031083627,0.9109010295,-0.8926798812,0.9681236354,-0.5577769269,-0.5099405798,-0.545625126,0.0797959624,0.2676230391,0.647843817,0.2862009347,-0.7340044162,-0.9218634095,0.8054574307,0.6342462423,-0.3981641165,0.743142887,0.0190154524,0.8444682187,0.8442177526,0.5152479546,0.2750050913,-0.5323234968,-0.9178609604,-0.0415648092,-0.2636565031,0.803755036,-0.8817268253,-0.9095775314,0.4872391017,-0.4258632964,0.7558483315,-0.5630357889,0.6113856285,0.2799016707,-0.7612710244,0.7034245028,-0.8803231712,0.1569661429,-0.9017377938,0.3924960877,0.5500276814,0.4253803828,0.3247167876,-0.3081588242,0.3480957814,0.7060665995,-0.6547228108,-0.5351756801,-0.4564704029,-0.5827453246,-0.1952772071,0.275990134,-0.2024640335,0.2212447892,0.1293883541,0.4301184752,-0.1345678121,-0.5097462396,0.5500548005,-0.3179728123,-0.0365911783,-0.8497871347,-0.104378564,0.8979415907,0.085693299,0.973359386,-0.8658297641,0.2478591937,0.6056609025,0.0530436331,0.364555495,-0.3765820322,-0.0857208176,-0.9092260251,-0.5091580207,0.877802787,-0.0901250067,0.4497864105,0.5590488751,0.4622595004,-0.365056141,-0.7509863478,-0.4900817103,0.0096442563,0.3672295793,-0.7049291442,0.1422307884,0.3698745403,-0.8664280321,0.1756826663,0.2683115236,-0.1971764876,-0.5274749027,0.8570410362,-0.2606318878,0.7114978914,-0.1554435664,0.1189036482,0.4304468656,-0.5068431536,-0.3322180542,0.4141528027,0.5446614348,-0.4348025551,0.0150783085,-0.6782545959,0.9106205573,-0.6612348354,-0.6876106377,-0.6519607267,0.430053858,-0.6648263007,-0.0546147794,-0.4000004873,-0.6974511845,-0.0171794139,-0.1261063292,0.0510557204,-0.8098407725,-0.5152899221,0.2910128054,-0.2286281284,-0.1205307049,-0.4643321314,-0.320305129,0.6198296044,-0.4092512477,0.345121827,0.3324953651,0.8281030924,0.6828137875,0.5439018847,-0.5754053596,-0.7256799142,0.2164333916,1.1169686331,0.8066090515,-0.6164153774,0.89129016,0.8400258674,0.0242625285,-0.9247777043,0.523081261,0.5019415482,-0.0037715383,-0.7677365546,-0.9583042374,0.3112836971,-0.7603769168,-0.0289904966,-0.1752031044,0.971210304,0.2410390174,-0.5001958626,0.2217458044,-0.3649119752,-0.0252457934,1.1267769873,0.0914872145,0.2708803285,-0.551467315,-0.7064546159,0.8320363972,-0.2885518473,0.7731405558,-0.2196729679,0.533843612,-0.8129733899,-0.8599883356,0.955366617,-0.3488078547,0.8545823263,0.6126833377,-0.6188903871,0.9148367388,-0.6916802404,-0.8363251778,0.1854496737,-0.1670683459,0.4250531909,-0.1924128939,-0.1871042616,0.5065086105,0.3340922784,0.1914988921,-0.5368968164,0.5001737376,1.0815651697,0.9845952602,-0.2089549929,-0.3907886492,0.5435453027,-0.0982435606,-0.3557778158,0.4276087243,0.3858632145,-0.0878413122,0.8633431311,0.6223132387,0.3227422115,-0.5259503352,0.5079014731,-0.4088200755,0.9087097128,0.5770834523,0.8308213892,-0.92053097,-0.0522318999,-0.3041330479,0.1050745315,0.4625673386,-0.5066147632,-0.3427464802,0.8085772133,-0.0567291394,0.3229210772,0.3299488285,-0.4327483853,-0.8229098071,0.8174314373,0.6103021012,0.1938752817,-0.6499506161,0.0076359467,-0.0643061646,0.1019211666,-0.1738973418,0.2815296061,-0.0496976918,-0.9381158269,0.5388086207,-0.0931784942,-0.3451375242,-0.5539823628,1.0015865727,0.1197723266,-0.6337935505,-0.4017027302,0.9959610204,-0.0448695603,-0.6843441,-0.2760412202,0.1289613059,1.0484190636,-0.1249381969,-0.5805283668,-0.7651910424,0.7822003825,0.7195911028,1.0155481862,0.8697498202,0.6836169645,-0.614941058,-0.0926089749,0.3313345619,0.8110454995,-0.1983683178,0.8912057234,-0.1765202468,0.8229111798,-0.7724278948,-0.2396534798,-0.0987582772,-0.2702264579,0.6224428914,-0.5838069765,-0.1964497211,0.7629410293,0.5330384677,-0.5537659636,0.7621027164,-0.5312341326,0.3957400359,-0.6165022349,-0.661673893,-0.129827742,-0.9784339002,-0.2740433738,-0.054416192,0.157386835,0.5224248272,-0.3928647222,-0.8528275767,-0.5999859366,0.2555793405,-0.9974470856,-0.0098888206,-0.2797989042,-0.2288205623,-0.4787812752,0.759977683,0.632164821,0.3204292308,0.7841149829,-0.3964090166,0.8414885185,-0.0527081859,-0.2593128053,0.0650461659,-0.1956629456,-0.4860973846,-0.4949103966,0.6281752181,0.706147859,1.0765482301,-0.0925592769,0.2344573279,-0.8241610765,0.0786941884,-0.9732380078,-0.2717424239,0.2898651106,0.7900240989,1.0158063286,-0.4557746732,0.6515432344,0.459191063,1.0640728626,0.1314964401,-0.2446894895,-0.1416356042,0.2355662758,-0.2810142074,0.635209852,-0.6126548505,0.5190470961,0.0946811889,0.63217561,-0.185404713,0.4808645778,1.0886461326,0.6778763224,0.9755899482,1.0656018165,0.2820528091,0.2592327302,1.0427670179,0.4840272263,0.6120559879,-0.6422654084,0.8156070915,-0.3663681806,-0.0646845546,0.3184178849,-0.4078277108,-0.5371440064,-0.878804129,0.1606063957,0.319831635,0.1188492581,0.3656249222,-0.2939982498,-0.7512773945,0.5440903913,0.7192745525,0.7024106172,0.9029544484,1.0170495456,-0.2468101439,-0.0952475227,0.7169203988,0.7018598747,0.2716392912,-0.6609879305,0.898452016,0.3435425254,-0.6429566122,0.0802526621,-0.2112101333,-0.189662457,-0.7994244138,0.0747430019,-0.5049330595,1.0891992011,0.4752071147,0.6999237053,-0.2475439386,0.3902070727,0.0615624565,0.3802070058,0.8418861965,-0.4001882266,0.3221749187,-0.1622972876,-0.0402997023,0.8087928365,-0.4291488848,0.7592367364,0.4303278095,0.6830295076,-0.6926303712,-0.6407694856,-0.3740128995,-0.2397071026,-0.8342861567,-0.3864694084,0.2869481159,0.5628144376,-0.1895138687,-0.0033494254,0.8837693156,-0.3129129959,0.0347873832,0.4712093537,0.0019918134,0.6528078583,-0.4292056864,1.1422857537,0.3599690845,-0.0123429209,-0.1791075914,-0.3647975267,0.2568102643,1.001053616,-0.0584830507,0.7670773191,0.3300106278,-0.6883523768,0.7216501819,0.5330336846,1.0755906792,0.9167430133,0.0381181845,-0.6364849421,0.1478331979,0.0188918391,0.7502973331,-0.2574945776,0.5352517098,-0.0939183424,-0.1877145377,0.0036056052,0.9098129073,-0.0614119353,0.0725379915,0.3272134581,0.7619856324,-0.8857984006,0.2017499205,0.647763075,1.0084932258,-0.6365840866,-0.6084629218,1.0719675521,-0.3994241032,-0.7188823309,0.5507888888,-0.321972869,-0.4655495122,0.3891052473,0.755594565,-0.8051088865,0.8061143596,0.2792276319,-0.5528729497,-0.7929888172,-0.5036515899,0.4484261499,0.2648988787,0.190651352,0.3050733113,0.1581944262,0.9655540816,0.630234836,-0.4042282456,-0.138799879,-0.2275649331,-0.5973326084,0.2301500663,0.7787137629,0.5917579942,-0.4317976554,0.9261390414,1.04022992,-0.5997818976,-0.191522359,0.0551057753,-0.4001086682,-0.4637460226,-0.3625782499,0.9467738478,0.2176932541,0.2501589665,0.3825804033,0.302266067,-0.2773590808,-0.2342454018,0.739790601,0.1698271995,-0.2118397819,-0.3580139592,0.6440187447,0.1224723396,-0.7543124646,0.7167913997,-0.2986227921,0.4648534932,-0.3541733748,1.0454493399,0.8773864794,-0.7439433222,0.8849802925,0.717722833,-0.6886676665,-0.504318717,-0.3005483966,0.2777090763,-0.9415299688,-0.337362816,0.0336149744,0.9764511039,-0.3080964813,0.2493369958,-0.6487653866,-0.5258852757,-0.8208950163,-0.9134684882,0.6599292831,-0.830607603,0.3965063656,1.0695834274,-0.0957028858,-0.6862027795,0.360424198,0.8941288925,0.8962979218,0.0661119111,0.3968071788,-0.496677879,-0.7944317834,-0.5630021487,0.615777707,-0.1645752312,-0.2743130759,0.2029750823,-0.1952428997,0.6632279098,0.7301944572,0.7440416192,0.6258687178,-0.8846687145,-0.3051515793,-0.8303239176,1.0167651613,-0.572265666,0.6393040658,0.2900434598,0.5332539102,0.5796381656,0.3162414707,-0.8114293004,-0.8029238558,0.3405753057,-0.8006797154,-0.7643821023,-0.4329210248,-0.9621632304,-0.3858183762,-0.089383388,-0.0616393434,-0.3822780995,0.7891605921,0.7184309197,0.0256613976,0.622334824,0.0819823821,-0.2457214198,-0.8671201359,0.7639163059,-0.0478285086,-0.1565234576,-0.895658397,-0.6153201123,-0.6903312705,0.5340163059,-0.7401652743,1.133289248,-0.2317133142,0.6638877715,-0.4991652728,0.6732311194,0.9917082943,0.6808650281,-0.2716905134,0.4322219856,-0.4851257596,0.3013079735,0.6253087704,-0.6795091726,-0.1484003755,-0.6450850316,-0.3463622779,-0.9241142945,0.3807398055,-0.2959052946,-0.0267012349,-0.2672602567,-0.8966320089,-0.4372950078,-0.5163654261,-0.0685973956,0.6807625897,-0.0225817317,0.2661811465,-0.5094880892,0.5089917453,0.1201998497,0.5846081798,-0.5694581628,0.5331421823,-0.7067136303,-0.4358698854,0.9131529076,0.2813789615,0.0520279065,0.6441228919,-0.2603539137,-0.6991434291,0.256985138,-0.6382895826,-0.444490562,0.2418044538,0.2863601806,-0.4732994236,0.5289100599,0.5038763474,-0.1639830053,-1.1844467843,-0.6297462615,-0.3521291142,-0.7183996088,-0.4921181593,-0.2295148074,-0.9136915596,-1.0968832139,-0.8748490999,-0.3166520841,-0.2155830684,-0.0495433529,0.1141447203,-0.5093413024,-0.7714151274,0.4829777399,-1.1766858617,-0.1485126917,-1.2027728384,-0.8432305733,0.022600311,-0.3971960215,-0.5060745235,-1.008293591,0.2044834889,0.2141600298,0.2857807018,-0.7383757871,-0.8969733984,-0.5745030029,-0.0915254839,0.5519483359,-1.1677628162,0.7290684155,-0.8786988991,-0.2494348672,-0.4766578774,-0.3635165327,-0.0825101946,-0.0129039647,-0.9011688589,-0.155755672,-0.2680588603,-0.3042874924,0.5013730905,-0.7033111667,0.0448245462,-0.5740995644,-0.1280444415,-0.3271914592,-0.8216113226,0.3033259501,-0.3108935933,-1.0935991913,0.1881406124,-0.6151854569,-0.0261314516,-0.8117622666,-1.3357644607,-1.2007069852,0.0011245709,0.675300665,0.1157989078,-0.0781411562,-0.8296229215,-0.7190628198,0.2542667356,-0.2846402456,-0.2629434001,0.5409339298,0.8082477594,0.0953351682,-0.7087155282,0.5526423537,0.6042563769,-0.5720796846,-0.3647849972,0.2672853921,-0.9549221857,-0.998864879,-0.8335365578,-0.4938359973,0.4388883925,-0.0448306926,-0.4228226167,-0.3856649295,-0.5377023298,-0.2354971085,-0.9715517991,0.6464686896,0.7447674105,-0.6054058491,-0.2037277038,0.6812580298,-0.5399361766,0.4342887478,0.5161253661,0.9607962489,0.7233741871,0.4744532665,0.4102023688,-0.622580337,0.279427834,0.5925753942,-0.5363674212,0.7788007161,-0.0749677437,-0.0705664022,0.7640928522,0.2118918844,0.7128186491,0.5647469175,-0.4744178206,0.4818788971,0.3577222025,-1.0183515966,0.2756792771,0.0560673388,0.4495455324,-1.0163455987,0.4226652702,-0.3497022076,0.2727993311,-0.3695557142,-0.4822253162,0.0938259241,-0.4679553786,-0.4999444548,-0.1327837148,-0.907650863,-0.2762816396,-0.931099332,0.3739427903,-0.0859001128,-0.3601069826,0.4755046279,-0.0546800833,-0.3102473434,0.3631808523,-0.4382620468,-0.6419549809,-0.8852699366,0.3011332746,0.7888331855,-1.1126858014,-0.5330349554,-0.2971726975,-0.2488874458,-0.1606689283,-0.2331330768,0.7566272897,-0.0698553182,-0.6380664138,-0.5410281181,-0.5864719979,-1.1866603019,-0.4706792719,0.1656908844,-0.1444868759,-0.2508155901,-0.6809875619,0.2919590981,-1.0306622093,-0.9626998444,-0.1626788064,0.0380295837,-0.1021074849,0.6308674022,-0.27386822,-0.9455582032,-0.9044344196,-0.8917489569,-0.9032759151,-1.0267528036,-0.4842079094,-0.317630763,-0.2601206064,0.7000690201,-0.075254579,0.6156856849,0.2296836582,-0.3176795751,0.5739612615,-0.7854939426,0.5242738245,-0.2196225058,-0.7435601264,-0.1062607188,0.485072512,0.4616359549,0.6858224685,-0.2945080485,-1.164329322,0.3983284092,-0.4513443515,-0.2635310976,-0.4997795074,0.790718385,-0.2515552103,-0.4192850776,0.3719267456,-0.1783553398,0.4730352656,-1.1971887803,-0.4512390435,-0.7373323552,-2.1542215715,0.4823058197,-0.5699257883,-0.5814923034,-1.0663934711,-1.1654952263,0.0671342462,0.1377247031,0.6104869379,0.3956581999,-0.69476162,0.3195675658,-0.2031846912,-0.1161566928,-0.5244538414,0.4119817308,-0.3415776496,0.2064669957,0.6494091778,-0.165649691,-1.0988100313,0.3468091967,-1.2790028186,-0.0064916443,-0.8076325725,-0.7209469193,-0.6948212049,0.5313185846,-0.4143214456,0.4868395643,-0.8197064645,0.1499821775,0.1805393193,-1.2117918144,0.1432291142,-0.3481510862,0.4690930217,-1.0206783543,-0.9130654064,-0.3093130999,-1.0167522666,0.3573997869,-0.2331845533,-0.6689596868,0.5775250633,0.0775311298,0.7201005935,0.3184948045,-0.4541851732,-0.6372118974,-0.6700291506,-0.1289305764,0.0697359774,0.7358710464,-1.1164454689,-0.5258808729,-0.1866626169,0.2568891367,0.0053045482,0.0395359386,0.7677127416,-0.4230696371,-0.161633762,-0.0240628785,-0.2599796089,-0.0667964012,-0.5158102637,-0.7397798499,-0.2090606759,-0.7289766363,-0.3396393572,-0.5819576275,0.1980929429,0.2679214452,-0.8323662159,0.194514087,0.6677951146,-0.6410444979,0.6259381205,-0.3781577459,-1.0809503136,-0.256473297,-0.2856655758,-0.5956677712,0.5743513591,-0.1504990063,-1.559704027,-1.102217636,-0.0812705762,0.56950341,0.3682272808,-0.1264216981,-1.103716289,-0.5796532799,-0.155385807,0.5723121199,0.7158983127,-0.4313618057,0.0704360379,-0.3596041869,-0.7948831368,-0.4792629588,-0.1079346335,-0.1555732512,-0.7447876044,-0.3326107705,-0.2806017914,0.505082057,0.3481135763,0.1818374314,-0.4355410686,0.4072951761,-0.6095890925,0.364025117,0.5729944246,0.1921200251,-0.0455508188,-0.2020819108,-0.9708835854,-0.6625637125,0.7640310962,-1.1461834309,0.5937126511,-0.0518106458,0.606212084,-1.1258769816,-0.55987219,-0.8260334587,-0.6758394112,0.7339791241,0.334150169,0.4326435708,-0.5070417747,0.1475191689,-1.1459628428,-0.8703757446,-0.7028955259,-0.7291422781,0.2411111833,-1.2187172575,-0.8611171212,-0.3893574158,0.3739749143,0.5418210482,0.7542286937,-0.2955419936,0.008304807,-0.5963518232,-1.0446862413,-0.5358100831,-0.5961171619,0.0551757985,-1.1331596013,-0.8349641032,-0.6849727031,0.2868379143,-0.7753328566,-0.4296085918,0.3978921517,-0.5491867762,-1.2131832062,-0.7369749914,-1.2836198797,0.123701227,-0.2894117703,0.5087431099,-0.6663554176,-2.4783209521,-0.3910592636
   0.5826259417,0.29269378,-0.0877602612,-0.7116058562,-1.1322761699,-0.0678119798,0.0467362809,-0.3517620557,-1.1086900107,0.7176152854,-0.4333545211,0.1239078459,-0.4407188262,-0.8421903722,0.5168044706,0.7323767089,-0.8983235484,0.6793549521,0.7505145253,-1.1254585149,-0.9209857772,-0.4248081025,-0.2219940593,0.0515165138,-0.9321061587,-0.7273573427,0.5345058799,-0.7259128669,0.2069228053,-0.0453189584,0.4099617394,-0.8807592956,0.5529283585,-0.1097106846,0.3902746015,0.6740026435,0.2284476068,-0.3519360161,-0.4683033879,0.0869691426,0.2407120915,-1.0197549933,-0.2786758881,0.5851312976,0.0543537878,0.5461316465,-0.1495501161,-0.6152802122,-1.1077354762,-0.0390312245,-0.4958718907,-0.5073997525,-1.1533952806,-0.0529527044,-0.8758253151,0.1694110172,-0.8662266965,0.0370018894,0.2762616564,0.0283478927,0.1238501728,0.0916245092,-0.6524123874,-1.0242920231,-0.5466255461,0.3540824729,-0.7701724409,-0.7361034004,0.4608316625,-1.3406358185,-1.3005044837,-0.1122501289,-0.8562929274,-1.1434688327,0.0953276088,0.0980238652,0.2926238676,-1.6985554698,-0.1209379328,-0.0665882905,-1.1226909079,-0.5030115922,-1.3181305635,-1.1237439918,0.4410733679,0.3853611733,-0.3656761584,-1.3168747942,0.3294825894,-0.6880498433,-0.2651137895,-0.3760730597,0.3364319127,0.450436076,0.7104608814,0.3951369776,0.9856290694,0.1691307316,0.0711299511,-0.4788508005,-0.6999499168,-0.4796287817,-1.759257714,-1.9898996752,-0.683160471,-0.4995491898,-0.1163397101,-1.2720171538,0.0410154236,0.4833286498,-0.2380299695,-0.0777930861,0.5950757379,0.312843627,0.1144024125,-0.417075324,-0.4128656407,0.2210198356,-0.8252549222,-0.9200863606,0.4003343845,0.469717464,-0.6940139231,0.4208287563,0.6671923362,0.9021019805,0.0065853551,-0.2005407052,0.3150925624,-1.1513669741,-0.0063101185,0.2257743051,-1.2689858404,0.2451904255,-0.5063833805,0.2149536065,-0.0226628036,-1.0121548762,-1.2445573226,0.0730832615,-1.1945428864,0.5009333278,0.3142125769,-0.0829114811,0.0902449681,-0.7898750472,-0.3946507978,-1.2697133858,-0.6992528965,0.5717098168,0.137482102,-1.0270600784,1.742879795,0.0961456767,0.1884690566,-1.0496463629,-0.7389049706,-0.5337048619,-1.3937894244,-0.6918006335,0.1439998597,-1.492611123,0.0102882301,-0.8625151124,-1.3260804273,-0.5623897679,-0.3866801894,-0.8628713737,-0.1539023359,-0.5067637631,0.0508773993,0.6090552742,0.5577950609,-0.7654802286,-0.9246068221,-1.2793904919,0.7220870635,-0.8789743462,0.597918928,-1.0325991511,9.2113080567,0.5612805996,0.60937931,-0.2305109446,-0.3490632769,0.5022935395,-0.5714864378,0.0224485231,-2.1022701194,-1.6338703036,-0.7136392283,-0.0758522529,0.2511865246,-0.187422441,-0.5822746135,-0.479697852,-0.7200204201,0.4895669185,-0.724005049,0.5237077558,0.1039923434,-1.253575362,-1.2336066931,-0.6310100617,-0.3210014186,-0.8315824413,0.0955302879,0.081666056,1.0146921859,0.5509425895,0.0749929798,-1.2400224788,0.4184186466,-1.3038898142,-1.3653142764,0.2312182707,-0.3533099519,-0.1159202601,-0.9396086658,-1.3840708236,-1.3468490098,-0.7865667703,-1.0683655706,0.0921135643,-0.8219259954,0.6376564988,-0.6279434053,-1.2164133606,-0.9837650016,-1.0680573334,0.3753298422,-0.5748447323,-1.0115546089,-0.5752281566,-0.4819555031,0.2870092524,0.6592722857,0.9426607614,0.0676786276,-1.3534659539,-1.1946724169,-0.7707362306,-0.1491034297,-0.7121335286,-0.5169111537,0.4407637039,-0.6820583296,-1.2906110707,-0.0503497726,-0.2600917423,-0.1479356661,-0.1122608001,-0.8691848623,0.0668702394,0.4047051309,-0.8323804612,0.2717670962,-0.3741023685,0.5192316746,-0.2410561986,-0.6919174876,-0.4124163759,-1.370901307,-2.074908521,-1.0128659322,0.0174069093,-0.7690264773,-1.0873174796,0.2297959914,-0.4371645435,0.1805504327,0.3454790075,-0.1012054835,-0.3061425233,-0.5828323044,-1.2542695448,-0.2987842241,-0.0038128027,-0.7140746848,-1.0069094219,0.0341682921,-1.1391940562,-0.6659525183,0.0397027378,0.1161250582,-1.2386340538,-0.3709614848,-1.2643270815,-1.2407168363,-1.7049075827,-1.6598099289,-0.6251075051,-1.1528502126,-1.1428269004,-0.7566227826,0.4107352519,-0.4865950865,-0.9099875697,-0.8589811825,-0.9171960366,0.5255149757,0.2543902757,0.1414831876,0.1511312544,-0.3395835271,-0.4351128375,0.4722826699,-1.2144826881,0.365457319,-0.1483774807,-0.2861632991,-0.7157254911,0.2415921306,-0.0869473906,-1.082413301,-1.5240608964,-0.5153092468,-0.7840929976,-1.6045426674,-0.4298154331,-1.1614139434,-0.0338219839,-0.4329097888,-0.1735609932,-1.0559735392,0.0090612447,0.0886436332,-1.1561233057,0.0593942394,0.44247385,-0.862839957,-0.3440622666,0.2539038355,-1.098688249,-0.2028543732,-0.7315161674,-1.2889157287,-0.4784435776,0.5546912995,-0.9479211559,-0.6423157378,-0.2734668817,-0.5325427148,-1.412971045,0.2167956688,-0.5879531757,-1.2819835032,-1.1672711107,-1.0737163956,-0.5075626754,0.1776452935,-1.0265801836,-0.5905335903,0.0868731766,0.4554576362,-0.6184832352,-0.5188520245,0.1510690279,0.0430626867,-0.2264268678,-0.284382271,-1.3128044431,-0.962799502,0.0930196147,-1.3488817926,-1.005774785,0.2101045299,-0.8354465719,-1.3797275243,-1.2776557033,0.2989042877,-1.1559716642,-0.0591563067,0.4639838907,-0.2777603246,-0.6653751405,-1.1639772019,0.1496531717,0.4276415641,-0.8799839059,0.0565860025,0.1605809892,-1.1627519092,0.3019621862,-0.4592862893,-1.3077046601,-0.9134550778,-0.0149198297,0.4210667513,-0.8571063722,0.3989554856,-0.154747733,-1.3920895785,-0.7252731343,-0.7205481357,0.2631206328,0.0691195589,-0.4843636757,-1.2858958626,-0.6751656085,-1.3982895323,-1.0530677764,0.06379122,-0.6597896284,0.9947583362,-0.9134296383,-0.7285485576,0.0121355854,0.682483125,-0.911356892,-0.3247153677,-0.649526853,0.086600941,0.0358920299,0.02844158,0.5420944682,-0.5591195055,0.6154418207,-0.5884405695,0.3574982201,-0.0389494735,0.5454650493,0.513085837,-0.3340409302,0.8959553633,0.982940208,0.3072151497,-0.7585513861,-0.6631660113,0.6647538111,-0.6795302988,0.5684992972,-0.0149695275,-0.9772659462,0.5672176134,0.0940105551,0.0287137384,0.0691194279,-0.2781894461,-0.2331025709,-0.4474377656,0.9052038271,0.5501652066,0.946071344,-0.7509766726,-0.0185516538,-0.7980877414,0.3107346521,0.9868541514,0.3463406247,-0.3874409199,0.7394579105,-0.2067234525,0.9391437981,0.7800815514,-0.1872528746,0.4326485178,-0.8253127861,0.1493430382,-0.814609736,0.8743439879,0.9940865577,0.4854449387,-0.1716445505,0.6988260015,0.5978306483,-0.7309891138,-0.9365500838,-0.7329157699,0.6629555847,0.6515449817,-0.2563022797,0.858944545,0.6229210937,-0.0436035279,-0.7023316137,0.8485758026,-0.7193746334,-0.5358650715,0.6307086738,-0.4904928458,0.2627781827,0.5954721592,-0.6590015807,0.7675804491,-0.1856314105,-0.5652778044,-0.5818859759,-0.6589093057,0.2404279648,0.5978134758,0.4757888585,0.6981212448,-0.2328399079,0.5123468932,-0.1704999921,0.7292202791,0.795058365,0.1066911143,0.2962126763,0.4549133907,-0.5369685998,0.2301437832,0.3613038442,-0.7504767438,0.825093821,0.2643028782,-0.6121216024,0.5382729313,0.4633674208,-0.5454511215,-0.1379801334,-0.4692985648,-0.8066957753,0.9928004686,0.9824774686,0.6956667588,-0.7198322192,1.085034899,0.8482828877,-0.6731168368,-0.6854642683,-0.0342559946,0.5067730205,-0.8165790366,-0.3107171894,0.776910382,-0.0464747714,-0.0695770304,0.4141828869,-0.1619151858,0.5146174767,-0.7432755433,-0.1975253703,-0.526782312,0.5630744313,0.5842212713,0.0842462069,-0.2169995462,-0.0140354208,-0.4477189217,-0.0242524459,-0.860765484,-0.4968382896,-0.1964668458,-0.8382473472,-0.8011796559,-0.3332132828,-0.2801665822,-0.6034853584,0.4523952376,0.278173554,-0.551923548,-0.5990071473,0.7607981502,-0.692143548,0.5826663325,1.0298490993,0.9916449027,-0.858760564,-0.0662609289,0.0125657381,-0.8319008559,0.0061715304,-0.3783121483,0.0245890384,-0.2757845469,0.8465464377,0.1049928899,-0.2158963412,-0.6520252265,-0.8256612968,0.2256203715,-0.7284394457,-0.1062035172,0.4052598795,-0.083105201,-0.2207170863,0.5938888426,0.0399969186,0.3921501292,-0.7286781045,-0.1244611861,0.0516761905,-0.8654424816,0.9492622159,-0.728611714,0.6466424214,-0.0758139859,-0.3376294368,-0.1833092735,-0.6841942862,0.6635526531,0.7440733466,-0.8586851061,-0.4689440816,0.0332156116,-0.054414684,0.609853299,0.5353544578,-0.6033219257,0.9369318329,0.7745464177,0.6756934607,0.2866448138,0.1415025542,-0.464570481,0.4935639065,0.881107825,-0.1855113607,-0.4595501499,-0.2110688331,0.9015811529,0.9411212934,0.4901977979,0.3466355723,0.4863053558,0.1864461275,0.0293901299,0.391133705,0.4532958601,1.0206528719,-0.7661756612,0.1299717497,-0.2774956108,0.9830559437,-0.3274097532,-0.2834860607,0.6668667185,-0.0400992305,-0.4657238137,0.8482609003,0.1862105676,1.0613124087,-0.3839002256,1.0042279761,0.0834736329,-0.5534321757,0.0038182616,0.5809424487,0.9902697153,0.6644191368,-0.4449992716,0.6215996418,-0.2885701406,-0.1929451308,-0.6350538455,0.3114298456,0.8064647031,-0.1571312644,0.9942017733,0.8602032104,0.4779372732,-0.4969411733,-0.4773786051,-0.5821534971,0.7900960111,0.2881186941,1.0204434711,0.1244677913,-0.8325168648,0.4476849308,-0.6516236896,-0.7021999461,0.1675219864,-0.6827724144,0.575133045,0.0024600142,-0.1281497362,0.3232690965,0.179619107,1.0997733525,1.0525660629,0.041349822,-0.184119266,-0.2831318185,-0.1693349766,0.1123226752,-0.4339402393,-0.7652010928,0.374813475,0.7981155792,0.7064809989,0.5215857369,0.6524132485,0.9172112829,0.6244339587,0.4198365589,0.9745850367,0.028489255,0.6281636126,-0.8850604835,0.3442736948,-0.2850148416,0.3325828481,-0.1386061234,0.9654025999,-0.3255870637,0.0829867428,-0.3870175725,-0.7200105181,-0.7521610575,-0.4215565304,0.0686586515,-0.7416138198,0.4957612667,0.2005048573,0.7288255256,0.895397962,0.8040504876,-0.2670143735,0.4742636245,0.6781691296,0.4620530503,-0.6687497372,0.5073797755,-0.2954061596,-0.8393748101,0.2403356432,-0.8536949322,0.6243974805,0.0435241964,1.0368430973,0.4489449,0.3518214865,0.0875553324,0.7697381169,0.9230452341,-0.2468656174,0.6305867623,0.394987066,0.6730171719,-0.4716580577,-0.2263858233,0.8546048607,0.3453614434,0.4042025277,-0.1813841601,0.7722247456,0.4096632707,0.210503638,0.1977433044,0.6139664563,0.994300151,-0.374589355,-0.4179057478,-0.4361205813,0.24109334,0.4597235431,0.6914846051,0.570822076,-0.6752205766,-0.6347080849,0.9864881093,-0.3217975157,0.203664186,0.396905978,0.0121935144,0.3444539914,-0.4101850462,1.0903046657,-0.6389803845,-0.0717447671,0.173266234,-0.6603264227,-0.0953025348,0.909899184,0.985130623,-0.8311931843,0.5045675492,-0.0483970058,0.4258140073,-0.2852277309,-0.7435696803,-0.406223292,-0.5944045276,-0.5838404098,0.6083084484,0.761785624,-0.7273002713,1.0554528046,-0.3270878273,-0.1078519119,-0.284080561,-0.8553333448,-0.3438118969,0.4694007076,0.5417536143,0.6994091062,0.5273816941,0.5427119268,-0.271389371,0.8366337885,0.5146483473,0.1233353671,1.0628138797,1.0208560411,0.3416125673,0.5567162603,-0.203136624,-0.8653713601,-0.7436764077,0.3896996218,-0.4509018203,0.9079695507,-0.53842508,-0.5764141811,0.5858385022,-0.6334941592,1.032906698,0.1722431013,0.4746958487,-0.5098857821,-0.6472089283,-0.829248243,-0.4631322589,-0.8525183387,-0.8342481001,-0.5663263354,0.4269201877,-0.057668553,0.4676571112,1.0026108351,0.6012544981,0.6444473927,0.3707490506,1.0400548937,0.4756063403,0.0532993262,-0.1688053395,-0.3672046551,0.9542157311,0.8196548667,-0.0177435865,-0.8317065057,-0.8116567295,0.4605570905,-0.5861263947,-0.6297005943,0.5198452963,0.6711068959,-0.4473293333,0.4122371715,-0.0846063425,-0.4953122876,0.879694817,0.154683155,-0.6726930917,-0.4102223444,-0.4177492106,-0.900072792,0.6181646109,-0.9980841946,0.1892338813,-0.4307021763,-0.9584877175,-0.287257283,0.7571686128,-0.0073362342,0.8217469433,-0.4139029023,0.434821631,0.9693450697,-0.0466681385,0.1055535123,-0.4468035095,-0.8498527894,0.4598232341,-1.0166196132,0.1956111506,0.4639941296,0.8156347715,-0.7394113363,0.3912597702,0.9728178427,0.312827973,0.0406105057,-0.1743140483,0.8761339879,-0.587709114,-0.822761906,-0.0333464769,-0.8415181769,0.4466425452,-0.0050450135,0.5275790855,-0.7013939044,1.0021292773,-0.0771950087,0.4802857163,-0.0556044104,0.3148197964,0.3488427179,0.4601759004,-0.1713843206,-0.0030417664,0.9012764347,-0.4276072902,0.8194511509,-0.9568348492,0.5837310932,-0.0834365535,0.3717790839,0.3406086564,-0.1416001095,-0.7452590712,0.3375956729,0.7510521948,0.7944364345,0.2545573471,0.2150650856,-0.7583517354,0.7695317007,0.6156643768,-0.0337640185,-0.5095665343,-0.9011604913,0.6526120684,0.8106944591,-0.1647235822,0.8342683033,0.5008840465,-0.7058770371,0.939986898,-0.7953182089,-0.3579792078,-0.8028919852,-0.4790415415,-0.6183938679,0.4296234448,0.2647816481,0.7764440026,0.8762039073,-0.8032379776,0.8291563789,0.453256285,0.3092447211,0.7312909267,0.4302497629,-0.1574104631,0.969163116,-0.0089631679,0.7322125902,-0.0420882054,0.7103032334,-0.4244461869,-0.3331525227,0.7664784447,-0.5623413857,0.9525819191,-0.3861805419,0.6756201783,0.2437454535,-0.2083345389,-0.796760975,-0.3781154995,0.0144350627,-0.7649272127,-0.9127891862,0.2668108167,0.1480848824,0.8607507253,0.4479020413,-0.0297419853,-3.2412283329,-0.0070113358,0.2924124571,0.0055467486,0.4053916962,0.1497423882,-0.5509224083,-0.6859353734,0.144710093,0.1819280756,-0.4043430136,-0.140910811,0.9717764041,-0.6349656059,-0.7288739937,-0.3388350701,0.6930030982,0.7471801935,0.7901111151,0.82963979,0.1224568247,0.3563518895,-0.8907934119,-0.5865079266,0.4762603893,-0.0071494548,-0.6313654229,-0.3904108004,-0.4865162127,0.4982013158,0.4769419791,0.2480543273,0.1202217343,0.7732823807,0.38667787,0.2103919322,0.0031726991,0.9368704357,-0.4786982765,-0.0172720816,-0.3816576241,0.2769324431,-0.9006797974,-0.8749137702,0.542434429,-0.5328822665,0.6751145586,0.1055658967,-0.002465865,0.0331822307,-0.1415410594,0.4273178667,-0.5118045982,0.4477104435,-0.7102998711,0.7568638254,-0.8877914971,-0.7100736106,0.4985604635,0.7998517172,-0.6581104658,0.863244547,-0.0943509985,0.9687995586,0.4125725486,-0.1326731409,-0.52276721,0.2106420197,-0.7321811619,0.7966144871,-0.4670749426,-0.4435963384,0.570864698,-0.7966420076,-0.9787324524,-0.5790331791,0.2613447133,0.0597004791,0.8329171731,0.5518774112,0.1313541007,-0.2560041528,0.8337185145,0.6920046837,0.4315803867,0.8955744359,0.7550845029,0.3389728322,-0.6356503428,0.6014717307,0.6102605965,0.3943355783,0.3626618829,-0.531577217,-0.0172409605,0.5989670466,0.2329619793,-0.6793456541,-0.6842683827,0.9127765647,0.3321404305,0.4602793799,-0.2200250743,-0.2180981345,-0.3057603267,0.3307454892,0.3801097667,-0.1980249689,0.5999580353,0.3217725788,-0.6285599941,0.2988567171,-0.9657660401,-0.690269566,-0.0128760424,-0.3364959728,0.9649552558,0.9448090992,0.3814388164,0.0955400718,-0.4592895515,-0.4849688444,0.9559921654,0.7179911395,-0.1122383083,-0.7020236813,-0.5937711643,-0.1551750932,-0.4825383765,-0.7189489242,0.8552259968,-0.9460816554,0.8790644166,-0.4864346662,0.9524354276,-0.6371952285,0.5331419225,-0.5932825909,0.958326897,0.4360097401,-0.9449802007,0.207231374,0.1251555516,0.9979043596,0.557549021,-0.7419875348,-0.8108297399,0.6581069344,-0.2716171889,-0.4096687093,-0.7884932208,0.2647876505,0.8485995707,-0.1534178545,-0.1102119972,0.1413591397,0.201893558,-0.1402082691,0.7571320276,0.7011535721,0.4439808744,0.827815673,0.2432248627,-0.5705558838,-0.309017489,0.2814168394,0.6351864003,-0.9188554486,0.2403467329,-0.0846562429,0.2293738416,-0.5775376961,-0.2357243282,-0.5232292843,0.0428656023,0.2994350259,0.3009430863,-0.2804890967,0.7093417381,-0.5384207913,-0.9546646982,0.9586253408,-0.5125508064,0.555999933,-0.9608785042,-0.8166928766,0.0072865893,0.5851836374,-0.8985726411,-0.3345610559,0.8067483582,0.3387355106,-0.5955103064,0.5514217341,0.9283263503,-0.6580381669,-0.7638788168,0.0233913734,0.2007619787,0.7473998952,-0.43692087,0.8089797733,-0.0527205831,0.964902999,-0.4273660765,-0.7861029553,-0.0779610891,0.147752995,0.0421272273,0.084075517,0.4452512719,0.052081133,-0.7224120138,-0.4082014883,0.9425035406,-0.8572749435,0.8158271028,0.5247055017,-0.7597991274,-0.6479818674,0.7741734413,-0.4018152663,0.1167341039,-0.7704426891,-0.2930313779,0.6870510982,-0.4050788374,0.8606174306,0.6802259703,-0.1500195789,0.5871451485,-0.4423564148,0.7838816924,0.2962276791,-0.1956154063,0.1625665349,0.3186944025,-0.8303968886,-0.2824766392,-0.3398354062,-0.2967540302,0.2640704104,-0.3958529922,0.6330074222,-0.5612044872,-1.0206896124,0.2070735447,0.5114096619,-0.1927079159,-0.7116717197,0.4600689421,0.4207900222,-0.776538441,-0.7295561952,-0.0972863704,-0.4140737354,-0.1583805347,-1.0778469308,-0.8873937947,0.5295772649,-1.0020229606,-1.0439695029,-0.3141762235,-0.5896168217,-0.7584348429,-0.1128672985,-0.4021907367,-0.6802330155,-0.9671394454,-0.6132337353,-0.9275859531,-0.156508369,0.3046421132,0.2663711017,-0.1993011985,0.1520887039,0.4276004968,0.0159359342,0.698271008,-1.1085222084,-1.0312541693,-0.3548875486,-0.1459017982,-0.8759660581,0.3375592832,0.880672593,1.180063418,0.4757739281,1.1223691711,0.8112895703,-0.3474204181,0.4214038936,-0.2004123867,0.706211591,0.4947708177,-0.2828111914,0.4158995001,-0.4748180603,-0.8671784175,0.6107379992,0.2389224472,0.7319172935,0.3024742228,-1.1374092996,-0.9472804577,0.109894948,-0.1526063051,0.3689861499,0.3432615532,-0.2653970618,-0.795503662,0.4040460428,-0.9424944511,0.4483729221,0.1365585348,-0.3392681844,-0.28717179,-0.6507989835,-0.8689873423,-1.1396068503,-0.2517626144,0.3377227184,0.4216667045,-0.6465351024,-0.0715250064,-0.8658053928,-0.6050286139,-0.3278039545,-0.6821301821,-1.092216148,0.2753615776,0.3892227935,-0.25725862,0.5159982203,-0.9011610376,-0.8721540018,-0.7899352268,0.1869740413,0.4575011343,0.5480184617,-0.1613112472,-0.2428866931,0.6932072655,0.8150071534,-0.334990884,0.7573592395,0.5136256448,0.2396140152,-0.4207609453,0.7974102466,-0.4045630567,-0.358698651,-0.4371678316,-0.3172506701,-0.6907793325,0.0523492919,-0.0393263087,-0.2665960193,-0.9223237809,-0.4056663171,0.4409955708,-1.0176028712,-0.230999098,-0.0993333783,-1.109950771,0.299650956,-0.8178760158,0.3303901322,0.0645055925,0.5713409036,-0.1400301949,0.5448045275,-0.5058809228,0.4233435639,-0.6441180318,-0.3931512055,-0.9203031385,0.0460157695,0.8203834463,0.3286781196,0.3012808651,0.4463961737,-0.53671706,0.5194479097,-0.9824232917,-0.1337470856,-0.4482016212,0.6526141329,-1.1422232442,0.1244604774,0.4295860589,0.063369595,-0.710619992,-0.1419095578,0.6332825936,-0.0046547755,-0.8132663407,-0.7605558441,-0.5582060936,-0.6915391692,0.4031004196,-0.8952430595,-0.1421567996,-1.0329189211,0.2066670831,-0.3669672611,0.0047831384,-0.4860596404,0.2542857039,-0.2384729663,-0.6733329478,0.5662766583,-0.316116413,0.57055366,-0.2725774755,-0.2395813694,0.2730013745,-0.3545722487,-0.7494546039,-1.1877214013,-1.1371838398,0.3104782807,-0.0685202405,0.5432245494,-0.7913165093,-0.142415557,-0.5724591567,0.538825702,-1.0907109543,-0.6117562981,-0.3758775511,-1.0887837403,0.3614034255,-0.8471610831,0.2628424923,1.0606763636,0.3310313155,-0.7055886374,0.4090158928,-1.0362661297,-0.8532949243,-0.8903679749,0.3874812873,0.7509199322,0.6569502432,-1.0006272471,-1.0857729053,0.6626286672,0.5820881531,-0.6662520736,-0.6996912398,-0.3684677948,-0.3575747831,-0.4773897409,0.5232942184,-1.1068629136,0.1129973206,-0.7747047819,-0.1028998641,-0.9519282082,-0.1684373669,-0.9266238348,-0.5461906328,-0.1474756457,-1.0570713859,-0.1012281583,0.3841186095,-0.6900528221,-0.1064154648,0.0252273298,0.8131930196,-1.1200896503,-0.3667925492,0.3779340705,-0.5107017692,-0.1031976059,-0.682016735,-1.0267055524,0.3474789403,-0.5567921144,-1.1584844033,-0.0602645792,0.0426419073,-0.1084455646,-0.7841551334,-0.4085232729,0.0793744999,0.2832249276,-0.8066591823,-0.9315791786,0.1342371801,0.3166464811,0.2721324598,-0.1807901218,0.2606482291,0.2201029575,-0.6726624306,-0.7446802925,0.4779853712,0.7336995608,0.3021266472,0.515620347,-0.186405573,-0.787924565,-0.5271267377,0.8058250832,-0.766799637,-0.519545001,0.2792935129,-0.5202257111,0.1130663252,-0.0489351964,0.3002250075,-1.0578190213,0.213511364,-0.5075075639,-1.0262251147,-0.8235898479,-0.8854293627,0.8044589499,-0.1563207738,-0.8539835763,0.6931528703,-0.5878439411,-0.0668631886,-0.3514320277,0.0770640219,0.5668651558,0.6374059096,-0.7437603318,-0.4741539792,0.3669110931,0.788054845,-0.4842157494,0.7527119166,0.57879673,-0.1593920148,-1.0591412226,0.7311465946,0.7253930302,-0.7517261129,0.1098768151,-0.8647323711,0.1989674374,-0.5408335737,-0.9716772105,-0.0169252096,-1.1550128998,0.3570539844,0.1404178373,-0.4643507217,0.2478415864,-0.3594075171,0.2332284961,-0.2099293003,-0.8279748834,-0.1815588445,0.1634698623,0.4849869344,-1.0836715966,-0.4168617406,-0.743315254,-0.7583310459,0.2806765431,0.6061539166,0.4109926288,0.3145015548,-0.4789547764,-0.148423959,0.3262772955,0.0442543521,-0.4072074744,-0.6678898197,-0.2070631447,-0.2936784774,-0.5142968863,-1.0895979367,0.4833944682,0.290206566,0.2721947065,0.8009488699,0.4559279725,0.2452184723,-0.99738087,-0.0550639912,-0.8932008531,0.2105376863,-1.1559954882,0.4538691054,0.2741224087,0.6051341879,0.5660621598,0.1969512329,-0.4810290864,-0.2443747043,0.0994400625,-1.2512388355,-0.5367461385,-1.1867991416,-0.5824167605,-0.1004473327,-0.401328978,2.9721735139,-1.1126934047,0.6610274462,-1.0483816013,-0.9557807603,-0.3211405303,-0.7601980249,-0.0739187002,-0.3739911494,-0.6538901108,0.6279120861,-0.1349801708,-0.0829374653,-0.3460300262,-0.2783439983,0.2127849745,-0.7479982505,0.4573540469,0.510814386,-1.0083210165,0.3738458256,-0.0701668454,-0.8098850638,-0.9800757976,-0.7594688438,0.1128219504,0.6712720217,0.4522889702,-1.1573889561,-1.0425758012,-0.9732023372,-0.6091863618,-0.6723473311,-0.4792031111,0.8276636441,0.1947156603,0.0683676072,-0.7328582214,0.8280222853,-0.2109212344,-0.4327723324,-1.084987683,0.3124515667,-1.1195433111,-0.83350575,-0.0678126675,-1.0862890333,-0.9325900832,-0.1227495021,0.0257482986,-0.4664446616,-0.0590223749,0.0843497163,-0.361729763,-0.6554860748,-0.5160058395,-0.8128956298,0.4245010471,-0.1500813685,-0.8115772117,0.3551464352,0.1776039549,-0.3490828536,0.5065526634,-0.6440735613,0.2229147845,-0.4884723104,-0.2926465729,0.2894702538,-0.5993387948,0.4761307652,-0.4914493158,-0.308581398,0.6116697804,-0.3266444937,-0.8652266262,-0.8971329456,0.7259068633,0.0289983117,-1.1144358082,-0.5610144636,0.541224926,-1.2224930704,-0.0573984912,-0.6215147129,-0.2106298464,0.1321342428,1.0252487523,-0.270247878,0.3918643543,0.5535145149,0.8179040923,-0.5269896731,-0.3038586999,-0.0050711433,-0.7469610199,-0.8606625265,-0.3492015197,0.5980044494,-0.7726534863,-0.0145420911,0.3450587758,-0.284414329,-0.570256687,0.268746704,-0.4084218551,-0.1831755605,-0.000663624,0.6683776542,0.2372635256,0.2929078806,0.062400399,-0.0273310694,-0.820589272,-0.7794494676,-0.1431514757,0.0638944131,-0.0629717222,0.4632047629,-0.5075132869,0.4870118445,0.3100582269,-0.8687133138,-0.2095828618,0.3824004931,0.7870837363,0.6689368077,-0.8847406907,0.2574379327,-0.7739656051,-0.1034947643,-0.2080071585,-0.3855783445,0.6343617263,-0.1917995918,-1.0107498571,0.1125199202,-1.0559004964,-0.5044006055,-0.07044092,0.6069826929,0.8427849459,-0.2906231611,0.6001331234,-0.2943124724,0.5867181847,0.685805145,0.4873584227,0.7916118894,-0.7561521072,0.0221062112,-0.9193801924,-0.0908349885,-1.0151178499,0.4378325212,-0.4251893778,0.6215334746,0.0684991603,-0.2316181288,-0.8399691784,0.6308237529,-1.1106424943,-0.7313071379,-0.7811405164,-0.7490155977,0.2409119835,-0.089223245,-0.6726062613,-0.9421267823,-0.0754849387,-0.8176722357,-0.664141852,0.3547948074,-0.6167223853,-0.8355175912,-0.5634039755,0.0395560412,0.6039766417,-0.3892191851,-0.5367310046,-0.7520346647,0.8536712762,9.1015164245,0.5217702706,-1.0296576591,-0.0546108901,0.7181725045,0.6775576797,-0.4508978002,0.1087222983,-0.7732841061,0.072658066,0.0802568207,0.205915185,0.624860392,-1.1220377947,-0.0793751425,-0.4966367738,0.4113583874,0.6008392351,0.0643097511,0.8800900079,0.7231964514,0.0621259983,0.1072995488,-1.0657033425,-0.0637834585,0.3498189219,0.6595984108,0.0619481181,1.1024558929,0.1061609922,0.9579222364,-0.4666087122,0.330005886,0.0311574177,-0.1366963066,-0.2678688122,-1.0611764918,-0.5149062737,0.606016055,-0.4132186862,-1.0913951838,-0.1459087823,-0.2354567745,0.085888213,0.597419851,0.5072465753,-1.0582556981,-0.5511275562,-0.8709360781,-0.4769639992,0.0680566192,-0.2570276459,-0.9618910537,0.0175756602,-0.0402837635,0.3231963933,0.7205456795,0.1674739656,-0.2069799722,-1.0457825489,0.7526919816,-0.2753652072,0.4784147121,-0.2241864075,0.645111155,0.609057459,-0.4545986715,-0.7835037271,-0.5456942044,-1.0897898727,0.4490572337,-0.197866261,0.276779501,-0.7153197094,0.1360416209,0.8287952707,0.7618760529,-0.684061356,0.4251816126,-0.8012118245,0.5938223681,0.4775521583,-0.8774024967,-0.5553671161,-0.7472488797,0.6935706501,0.2943144091,-1.1482277602,0.4853453203,-0.6268853604,-0.638475931,-0.4898587905,0.5609108748,-0.4444004762,-0.0399605139,0.0835872024,-0.6067521637,0.1165349334,-0.2833141036,-1.158217103,0.1245173401,-0.7974361888,-0.8520858004,-0.566995926,-0.1906115637,-0.0303811704,-0.7493934345,0.0986392024,-0.6906536767,-0.6474006884,0.1228042077,-0.6503100066,0.7543249698,0.2225231009,-1.0777158316,-0.3271213796,-0.8350892764,-0.6859439737,-0.7995111016,-0.3573195829,0.6819137155,-0.817470229,-0.564478561,0.7757711233,0.2089894386,-1.0337868079,0.8050017367,-0.9182447708,-0.5427817561,0.5903019117,0.1596642538,-1.1566653231,-1.1416493703,0.2885261623,0.1579192944,0.3205205385,-0.1964085113,-0.333636889,-1.2453916252,-0.8080692001,-0.7681188022,-1.0889231393,-0.0582587176,-0.1179160524,0.323286135,0.0079866703,-0.9932175255,-0.6370772055,0.7504911038,-1.1678298859,-1.0960125607,-0.1256581146,-1.1545578599,0.54396241,-0.6218605783,0.3785210633,0.4432371596,0.7423147662,-0.4860398817,-1.0784575676,0.3246934041,0.474781133,-0.2283689639,-1.2332028367,0.7314673259,-0.542417636,-0.5015339006,-1.1970530305,0.6562477888,-0.8607093706,-1.0356317699,-0.1744245241,-0.602466574,-0.743309203,0.0002811356,0.7154208702,-0.698640706,-0.6180736933,0.3934020242,-0.644518213,-0.1756173002,-1.003448953,-0.2040630034,0.6126792689,-0.3960878909,-0.4464499167,0.2213800658,-0.5472994739,-0.5880687195,-1.1099635769,-0.5293494393,0.0871120001,-0.8454603367,0.5853475915,-0.6660281738,-0.5535912333,-0.2332566206,0.7901986283,0.093148077,-0.0055703951,0.1299906047,0.5481795135,-1.0233561917,-0.6596081652,-0.1553261561,-1.1771170007,-1.0796932203,-0.1700584844,0.703860317,-0.5637264771,-0.3457107444,-0.8118019262,0.7139455836,-0.1247886238,-0.752083151,0.3730793764,0.3242114738,0.0054917683,-0.7469414649,0.6152766133,0.4613681153,-0.0404622682,0.157174059,0.0910961747,0.8508373373,0.3786887455,0.3133955127,-0.0955348626,-0.7446343791,-0.8998788699,-0.295680245,-0.0845045961,0.5323350162,-0.1503214128,0.3592931901,0.1842983776,0.7633685468,-0.6493270866,-0.1177532716,-0.7293615978,0.8240077551,-0.1098136636,-0.4349176236,0.0793634022,0.8394969625,0.0752178617,-0.0865900748,-0.7751743726,-0.4291843793,-0.0974406313,0.8940656659,0.7310020358,0.6845482541,0.4797457082,0.9333601871,0.0406335679,-0.6167261936,0.9649093395,0.2030852458,-0.1638409945,0.7968018924,-0.1881555876,-0.4394411027,-0.5540359772,-0.8366179374,-0.8570752692,0.9902786478,-0.4611053481,-0.2203554399,0.790300426,-0.9374111849,-0.7412604288,0.1145181226,-0.6682242654,0.7126130428,-0.4860978169,-0.2876896732,0.9551932354,-0.1620824428,-0.5979974392,-0.6601089381,-0.6265407313,0.3034442358,0.7524172204,-0.0988744353,-0.5430738718,-0.0070470538,1.5027150379,2.8474408216,-0.6832361745,0.1320702048,-0.0163444442,0.7852224103,0.678634203,0.0662799447,0.8773512045,-0.4644318936,-0.3202443315,-0.638038059,0.9274838317
   -0.354133576,-0.7960598547,-0.6122614758,-0.2379996703,-0.9910930675,0.9380394549,-0.938554238,-0.3574040299,-0.3360699983,-0.6789597793,0.3629889777,-0.92172309,-0.0124823818,-0.0155760761,0.9412048248,0.5830222265,-0.1825880319,-0.9543283054,-0.9555074083,-0.2187506683,0.0944311356,-0.1191515881,-0.5880009748,-0.375811586,0.9455569396,-0.5141270625,0.4968399159,-0.2409415136,0.4856498568,-0.8391469633,0.606446586,0.832584616,0.8279322138,-0.83825515,-0.9031964385,-0.7384904035,0.7007011124,0.83999691,0.7258213336,0.7975505864,-0.135194086,0.0607925249,0.500059739,0.8821621971,-0.4978907925,-0.0026618817,0.712790155,-0.1730042083,0.5711966865,-0.6977954931,0.0099459496,0.1878412124,-0.5032030525,-0.0578140485,0.1256804857,0.2961234588,0.1508661685,0.6109108367,0.304496163,-0.1124808618,-0.0064490329,0.0553430828,-0.8415852295,-0.3241693941,-0.5692626487,0.5403614232,-0.2994202174,0.3210484017,0.7009883064,-0.1335359371,-0.5238563003,0.1321279482,-0.3436402792,-0.132105468,-0.4012073909,0.2452990853,0.9547792603,-0.2775678713,0.2148125882,0.7154941167,-0.7053212423,-0.306620347,-0.721682138,0.7213413463,-0.7911381699,0.8913453222,0.5900358452,-1.0002813958,-0.3167640344,0.9783982516,0.1318295677,0.1524262199,0.3831886289,0.4504072932,0.6135348071,0.0375552271,-0.4071622745,0.294350511,-0.407829448,0.845086573,0.6859581334,-0.3167553799,-0.3096937966,0.0980538439,-0.3940054299,0.4871535442,-0.8171185345,-0.0616021297,-0.2556064317,0.292874468,0.2387993085,-0.7106050782,-0.1205329409,-0.9350366627,-0.536466716,-0.8551485034,-0.630934339,-0.2624489431,0.5979195699,-0.5416805878,-0.5096069309,-0.819928955,-0.2525260883,0.5675203505,0.8341397518,0.2126318931,0.9840779203,0.9333871623,-0.6276696329,0.872372868,-0.2052809392,-0.3044762393,0.9457327701,-1.0027621342,-0.4689978089,0.4801494167,0.7603619971,-0.584303812,-0.7481078532,-0.3567182213,-0.7312788121,-0.4275438369,0.9402525274,-0.5220408805,0.9327214273,0.541584612,0.2923229965,0.8784966287,0.1990466324,0.7648431621,0.3501390534,0.922006128,0.8288239509,-0.8622689649,0.5405954563,0.3824472138,-0.8962175275,-0.8069285076,-0.2643543104,0.8567505383,0.7451119933,-0.6071343608,0.7137075357,-0.1830640506,0.7601718965,0.3467574844,-0.205841095,-0.8540097679,0.5048474573,-0.5890648267,-0.6175505023,-0.2679080558,-0.7372665908,0.7457128221,-0.5637554864,-0.5308355892,-0.9150710286,0.3547765214,-0.4300810999,-0.3326303771,-0.4612908227,-0.9536679957,0.4851490527,-0.015101685,0.8165750927,-0.22742734,-0.0553032593,0.4441717694,-0.8964962898,0.2886371899,-0.5063512743,-0.405005195,-0.3968059176,-0.6415586372,0.9281044224,-0.2922580111,0.6717442835,0.8052600571,-0.9751711273,0.1783342854,0.5969735889,-0.6183312562,-0.8083250382,0.6225263602,0.0887285729,0.9242982317,-0.2001733417,0.6692056143,0.1351703703,-0.0866417674,-0.5963527551,0.72773171,0.260009561,0.3005857488,0.4292789697,-0.6710108797,0.6437935446,-0.8520146132,0.6088838323,-0.6863621923,0.7265220645,0.2602364766,0.0154045071,0.3348022874,-0.0970403172,0.6572944582,0.7207756728,0.7799132027,0.0429167545,0.1384517655,0.1840419807,-0.1208311059,-0.0471131947,-0.6402097813,-0.5315238354,0.7076545747,0.5938018798,-0.1732108715,0.6799299229,-0.1783019931,0.3539811123,-0.1551621365,-0.415220835,-0.0974164706,-0.6446444166,0.1288815917,-0.9548183888,0.6882202611,-0.7933745777,0.4783835393,0.1014617337,0.5642355436,-0.1239777072,-0.9140832384,-0.1879123808,-0.8146942927,-0.2578176843,0.8314413316,-0.1255565104,-0.6419444948,0.04648581,-0.8859831462,-0.1481944043,-0.4686867921,-0.4172610491,0.3224857574,-0.032653619,0.2884494911,-0.7963060213,-0.5749919741,-0.6590738776,0.5225153691,-0.6799532092,-0.4999831688,-0.4590486495,0.9486045368,-0.4645336188,0.7356614898,-0.6486944555,-0.0612046842,0.481713873,0.4536733387,0.4431997813,0.1548160557,-0.7148089162,0.994245511,-0.8333667894,0.5314325519,-0.1812218685,-0.427288839,-0.2138457033,-0.3122585512,-0.185483884,0.4486058098,-0.9136611355,0.1673020321,-0.171353653,-0.5846963281,-0.5294091596,0.6204749423,-0.7008949602,-0.4900058598,1.0803350278,0.5471427143,-0.8711246204,0.7508299871,0.8775452792,-0.6538187817,0.3526080039,-0.668134519,0.2790941814,-0.8704107672,-0.170923288,0.5907623088,-0.1623994532,-0.0904751692,-0.0821994743,0.6507706995,0.1414942705,-0.5921070334,-0.6093778603,-0.7299284498,0.9063169982,0.7056070368,0.9057343631,0.0389130666,-0.0926082788,-0.0548176606,-0.0195789037,0.0115085858,-0.5181900583,0.339474211,0.4455080037,-0.8493021085,-7.4122446357,-0.6702819308,0.6043658693,-0.2051275616,-0.183100939,-0.8911958907,-0.2793414515,-0.1552038524,0.0019107743,0.7288219526,-0.1321832202,-0.3389406436,-0.0308254394,-0.6159557512,0.004017173,-0.9818354355,-0.3299038184,-0.0827798331,0.196959586,-0.6288715144,-0.0106901569,-0.6655710943,0.5232162744,0.9771262465,0.8009706965,0.0182800295,-0.1602610063,-0.2717563087,-0.6603476505,-0.1191245971,0.3194698821,-0.7004462207,0.6280842545,-0.0485533489,0.2855320679,-0.4463787494,0.6172342151,0.9988081348,0.2328986034,-0.5433716431,-0.2864972301,-0.4455738641,-0.6629794627,0.9257726311,0.4200324569,-0.7662595424,0.9388561753,-0.0924081107,0.6417067452,-1.3495774854,-0.6815621544,-0.603372646,0.8084043628,-0.1807455812,0.8992316291,-0.7334984892,0.0990400391,-0.5454143715,0.0076022688,-0.291760659,-0.2924301975,0.1852797823,-0.340757818,-0.285831781,-0.4854656983,-0.2401110352,0.1564179651,0.4571433876,-0.207678178,-0.5038415098,0.2055458523,0.13998727,0.4598183423,-0.4229752575,-0.5854289759,-0.0581192721,-0.8014481375,-0.3312350303,0.2339450954,0.4321431346,0.1009634744,-0.20953979,0.4023082267,0.6195522546,0.1223193046,0.3612574617,0.4725791332,-0.5080851919,0.467310884,-0.6437134095,-0.4522009219,-0.5658558424,-0.3901973144,-0.9313583168,0.8669675762,-0.697033827,-0.9864961765,0.8716504158,0.046430828,-0.072527899,0.6349356005,-0.0041932483,-0.5239439379,0.1216528696,0.6891663512,0.2928378788,-0.963582166,-0.1706145031,-0.5457334751,0.4978702247,0.7031516575,-0.8043695794,-0.7739057272,-0.1414150467,0.0611483961,0.1096752483,-0.783713438,0.7030727316,0.2931762389,0.8881014845,0.6979413318,0.2563040255,0.0482090262,0.0668127364,0.2938816296,0.4119422966,-0.0187084471,-0.1026594162,-0.4329105078,-0.1362459075,-0.5819197771,0.4876562913,-0.7153386253,-0.9665245562,0.015935941,-0.2278080095,-0.6821671962,0.7758474358,-0.0138684687,-0.9113989312,0.1387998162,0.5542546276,0.1014411658,-0.9971787256,-0.0850602702,0.5244260082,-0.9415150134,-0.1323326314,-0.4161292165,0.2605376038,0.0674104807,0.7454140671,0.5127646491,0.0592490905,-0.6128376668,-0.9291080106,0.1632439996,-0.8719429281,0.3162313729,-0.9961429648,-0.8636250516,0.190619824,0.6112324615,-0.5093835605,-0.9171037749,-0.5100266935,0.8480999537,0.5825436446,-0.7893344094,0.1797609564,0.7604041349,-0.6057737254,-0.1727713983,0.469103492,0.0077226956,0.9677819574,-0.4880797291,-0.7774996531,1.0915376038,0.4235134629,-0.1990943287,0.0461372114,0.6279695694,0.5583365729,-0.0041133641,0.8289993528,-0.3579967767,-0.2215684895,-0.4071887095,0.5777327194,0.9816723975,-0.6230129966,-0.1580403794,0.652357272,-0.9791979031,0.356555315,0.388954144,0.3675653866,-0.3671345336,0.5921184027,-0.2338440466,-0.5768483799,0.2516493751,0.0877151108,-0.9739037881,-0.466306003,0.8515351555,-0.665103753,-0.1539142951,0.1921050386,-0.8762587671,0.1241578276,-0.438499734,0.5166998026,-0.4372911899,-0.8250395537,-0.2631531966,0.5528546002,-0.3922801569,-0.6812565056,-0.8313481611,0.5651345246,0.4148152823,0.4849249222,0.5238061276,-0.154125432,-0.9051275888,-0.6943188824,0.3663005011,0.0226631472,-0.8159324178,0.3791858023,-0.5852981074,0.2489214705,-0.8772453768,0.4903805843,0.675797492,0.7031734403,-0.989314264,-0.9057529553,0.3276519436,-0.8277685163,-0.8966475732,0.6248785045,-0.2718015813,0.4602029174,0.9494716613,1.4762346272,-0.8929060158,-0.6786543563,-0.1559899742,0.3642576468,0.6349317262,0.8008557352,-0.6359669446,-0.9504955795,0.6728759296,0.5608091113,-0.0993680701,0.2067479453,0.0609440343,0.9182431793,0.9635133315,0.5864540029,-0.6861887744,-0.8837490609,0.6611862516,0.577465234,-0.8561039717,-0.9548052376,-0.5407496368,0.4553904777,-0.8049747253,-0.4214345442,-0.6756248336,-0.1942067272,-0.274487503,-0.4138597384,0.2617587519,-0.602199737,-0.2383390827,0.7269409554,0.2667703551,0.6212084724,0.4481330506,-0.372272253,0.3367034626,0.0305582282,-0.8985007824,0.4471542688,0.1072099158,0.4009484904,-0.17357632,0.7001474404,-0.7926893483,0.7981297724,0.1379930984,0.0477730242,-0.2348127197,-0.9788975608,0.9735505396,0.7647797917,-0.0474537585,0.6501974927,-0.8967956974,-0.0985153879,-0.4221229229,0.3698468856,0.1356246126,0.7014848773,0.5944523535,0.6167534209,-0.267122884,0.7508292217,-0.0569420051,0.4419026309,-0.276525866,0.4679553811,0.3949015815,-0.8679808674,0.3339297031,-0.1242278656,-0.0801138999,0.7453445026,0.4363633186,-0.4294436741,0.7433132103,-0.9201056581,-0.7365366079,0.3389285279,0.9909980391,0.226813596,0.2183818922,0.9432398575,0.6337765669,0.2010467382,-0.6675347085,0.1792492709,-0.1754609983,0.3377805154,-0.3609193811,-0.9974537049,0.3031687445,0.1048696429,0.124775855,0.9637245855,-0.8007478844,-0.1862828235,-0.3410351592,0.2498680538,0.1840691024,0.7072555801,-0.3874877395,-0.5082037988,-0.0949650708,0.6362596379,-0.5053169983,0.7732945912,-0.0421450021,0.5288056152,-0.6282333556,0.7279987109,-0.641083949,-0.4719540123,0.1607926985,-0.1403278676,-0.7767083711,-0.5953184269,0.4440204601,-0.3418542451,0.5392697902,0.9931604951,0.7316783753,0.3709396832,0.5333441244,0.0966969736,-0.403840309,0.2424154078,-0.4640855628,0.7708329349,-0.8403271507,-0.1068345522,0.4151595531,-0.96195825,0.0640468244,0.1386342521,0.4341941555,-0.1575492296,-0.356484111,-0.237398537,-0.8519244792,0.6212692272,-0.5276332083,0.1651540245,0.3420826256,-0.9209307999,-0.8035439747,0.2114400665,0.2203520101,-0.8880343983,0.5828287282,-0.4835968325,0.9586911863,-0.0328236428,0.4461026655,0.9569658807,0.1625144361,0.1688280952,-0.2196550811,-0.7121210954,0.0459491754,0.8615848524,0.0259175553,0.7711949435,-0.7397804474,-0.1860054611,-0.4814717442,-0.5940254539,0.0138837328,0.2816070832,-0.4614354408,-0.9039160258,-1.0004039261,-0.1041223545,0.6542590178,-0.1322542274,0.2243268123,0.3095057133,0.1690777289,-0.7350493985,0.5417962525,-0.3590687967,-0.2840648163,-0.8605598994,-0.3828444071,-0.1257996486,-0.502462938,0.5319545524,0.3132986702,0.9581489994,0.6396995752,-0.6752571059,0.7908131555,0.4321026549,-0.509233555,0.9560059588,0.6116609093,0.7115576995,0.2170660139,-0.152016076,-0.1471750936,0.5110481058,0.7406634531,0.208866722,0.5395383478,-0.9700464463,-0.6586447521,-0.6298607842,0.1551483242,0.9406648923,-0.2212636685,0.3701804889,0.1065600023,-0.6135868427,0.6394282387,0.288064599,0.8830248723,0.5017009501,0.5237032082,-0.1022454913,-0.8282837903,0.8779518926,0.5096818237,-0.9012294527,0.005067587,-0.8050155982,-1.6104497054,-0.9346846413,0.3771291557,-0.3294496296,0.2808866246,-0.3884262657,0.9157298399,-0.1680523521,0.0498950478,0.1352841003,0.6974165086,-0.4029124479,0.215103959,0.4038554072,-0.3310069283,-0.7312382541,-0.0404655468,-0.0017589779,-0.2211969993,-0.6427909864,-0.6896378981,0.0684574507,0.8524100709,-0.8457337572,0.7507934997,-0.047138888,0.5759607308,-0.6451687579,0.7284717482,0.5477027363,-0.2969734633,0.140676,-0.2039713942,-0.4674967708,-0.0818588127,-0.77551887,-0.368394194,0.4513598311,-0.3004248341,-0.7225427022,0.5007353476,-0.4268612351,0.2050081961,0.724315931,0.7982398586,0.4945858547,-0.5343968579,-0.5490441631,0.6498314916,0.1164535763,-0.5873598957,0.4111732377,-0.253792048,0.8551060411,-0.0533136177,-0.7831633983,0.0236728363,0.148129367,-0.320758136,-0.3481267847,0.8940120795,-0.7389185839,-0.286240654,-0.5914549716,0.104348332,-0.8547902738,-0.1338597894,-0.7504510509,0.5348690792,0.7290957202,0.5186774169,-0.5920886055,-0.3519707137,0.7173257715,0.2427302451,-0.4558836641,0.9954064451,-0.5877789663,-0.630301794,-0.5793897644,0.0305062227,-0.1287286636,-0.4178339273,-0.37522963,-0.7176251793,0.0491584233,-0.7022220578,-0.4696559871,-0.0359974087,-0.4133252469,-0.0222334918,1.001280148,-0.3905950417,0.6570951445,0.1857734826,0.8975219048,0.5166187236,-0.6261740526,0.0053782139,0.0094263217,0.7563799574,-0.8400061086,0.3352045857,0.9391367585,-0.1670647585,-0.3745501555,0.515907761,-0.3142111483,0.7668302739,-1.6596267526,-8.8870512057,-0.6455446687,0.0402224381,-0.1308649742,0.6362730342,0.1620176447,-0.6863439634,0.3289477872,0.3484847472,0.2779138245,-0.4129634745,-0.4516025575,-0.079866421,0.5409485066,-0.6327895392,-0.7694459455,-0.8413994376,-0.4586211718,-0.4177091694,-0.0081448285,-0.0038316891,-0.4068779254,-0.9870546762,0.5358428646,-0.9178373119,0.647550897,-0.0892103982,-0.7282315119,0.8516412184,0.5879841371,-0.7451473826,-0.5976430234,0.9963993878,-0.1544746245,-0.4249896003,0.0043226309,-0.8286079638,0.4466517687,-0.8160610793,-0.8065112254,0.6557572405,0.5504016445,-0.7367304859,-0.2529343709,0.5465356168,0.1606856735,0.8723059006,-0.9669104225,-0.3555374988,-0.8505057716,0.7159467409,-0.7002469621,0.1055583571,0.9182368602,-0.3158502636,0.1977024129,-0.622087658,-0.0820069006,0.8756106558,-0.0548691673,0.2789377972,0.8345999966,0.331452344,-0.4730070068,-0.9613960014,-0.2275869525,0.7282658303,-0.8976682614,0.5661138615,0.5164080233,0.7111229103,-0.0957773217,-0.6840269187,-0.4519243546,-0.5391289243,-0.0590122101,0.0622906125,0.5078117305,0.8197734266,0.9638090149,0.3840888432,0.0851875316,-0.8628972414,0.5169290559,-0.4106799872,-0.6912797975,-0.1315806219,0.3896789497,0.6215470959,-0.8410723073,0.1599966781,-0.7800861609,-0.5644492176,-0.6755251575,-0.9677162525,-0.4374774689,0.5009784134,0.5247660264,-0.1495682403,0.3156821311,0.1170729648,0.5692036351,0.3668772579,-0.0707810887,0.2712540352,-0.6771698944,-0.0569398557,0.6186242115,-0.9285205106,-0.3306130124,0.0762191459,-0.2000665787,0.2870816503,0.1045902958,0.909895991,0.7475437363,0.1359858504,-0.2525936388,0.0161867622,-0.6067466492,0.8144947273,0.1346914418,-0.7858227441,0.399528868,-0.1470008946,0.0101574512,0.1184804966,-0.9831754831,-0.499142048,0.323711712,0.797463677,0.2020757416,-0.1277274221,0.7830175921,0.8769301456,-0.4654707543,0.6657262491,-0.4169111795,0.4644318404,-0.1412741061,0.2408853263,-0.1954176383,0.843607246,-0.2079625372,0.8882289972,0.3159294614,0.1148609174,-0.9259313375,-0.3835264178,-0.1091519478,0.9450568561,0.6191710584,-0.0992718984,-0.6070518375,0.1235945325,0.1320531753,0.0444938224,-0.6489938633,-0.6097720594,0.0787006147,-0.9567894384,-0.1818158158,0.1735283409,-0.2104590274,-0.2056559209,-0.7810599658,0.2166012345,0.3292162529,0.8829382997,-0.1429020062,-0.8152252484,0.6075051857,0.3742311004,-0.2443936811,-0.4088039485,-0.6769155048,-0.3842415128,0.7551690021,0.053148388,0.3433471213,0.7822778129,0.9360063485,-0.0221996962,-0.4274919545,-0.0405794792,0.9235069615,-0.960443365,-0.065653711,0.5932916311,0.6410592032,0.9130599981,0.7393127758,-0.2298540248,0.0376657756,0.5600732269,-0.6506546343,-0.4913970545,0.4025266877,-0.3565612473,-0.5203751161,-0.4616066512,-0.6235542254,-0.3892234315,0.5862695826,0.4084528496,-0.1829437131,0.8758295439,-0.118590208,-0.8970729054,-0.6331728053,-0.8271265873,0.2925165192,0.6955274127,-0.3398437119,-0.5018887657,-0.1807898935,-0.4947382015,-0.638641868,-0.4241464489,0.8857076001,0.6515637173,0.1341415973,-0.5092783534,0.971378166,0.6130774736,0.4372129209,0.8235538446,-0.0375686659,0.8309653271,-0.4448912713,0.4218730497,-0.5997437066,0.9107690064,0.4069523909,0.5311991231,-0.4057834974,-0.143789029,-0.4836633508,0.6544067952,-0.6283399167,0.1656355383,0.171097327,-0.7567442303,1.0035162232,0.4545739895,0.8388236817,-0.3594104866,-0.4024018858,0.534332748,0.2132931523,-0.6120090614,0.399241379,-0.281327037,0.9519851341,0.7030492591,-0.6607832066,-0.9938949855,-0.8400644003,-0.6235306866,-0.1715246647,-0.8310241012,0.7915016079,0.8116223348,0.7016857917,0.8212856068,0.627659429,-0.0530832065,0.2822301607,-0.0441993618,-0.2295088278,0.7667150453,-0.2685754757,0.2610066155,-0.2217996828,0.2291916137,-0.4073538504,0.3695015255,-0.1916885154,0.1504883623,-0.3644282395,-0.3832357025,0.517333369,-0.1580535494,0.337657402,0.5859707801,-0.2267150012,-0.2832770669,0.0717348583,0.9325150998,0.4811265088,1.1340685282,-0.7314148529,0.2652922562,-1.022441757,-0.8770365854,-0.6485228552,-0.4878037662,-0.3480886586,-0.2105243354,0.9077873983,0.3078072918,-0.2705090261,-0.3372751645,0.0297014205,-0.4187635503,0.7004599342,-0.1307116776,-0.4731671542,0.9564700136,-0.829265773,-0.5543744217,-0.5709950729,-0.8270306314,-0.5468777568,-0.3573162392,-0.2220172777,-0.3462810099,0.711771643,0.5975355273,0.8400821291,-0.6666732571,0.0642075235,-0.9896115061,0.9829892054,0.2400078697,-0.9935809067,0.3391702647,0.7466155932,0.3125618951,-0.9117916441,-0.8974270251,0.9354904609,0.7687468907,-0.7137470077,-0.2566292251,-0.3059635592,0.5121945738,0.0717106079,0.7517320829,0.4612362173,-0.4196616117,0.5192021886,-0.1173859487,-0.5540231882,0.5366974985,-0.0972892744,0.4907142381,-0.9354319854,-0.745760956,-0.3572926743,0.8364957624,2.3449528739,0.626929994,0.8627809806,-0.5094334777,-0.3089982078,-0.6957403795,-0.1526028024,0.2996081117,-0.7753672745,10.7575499231,0.5761669335,0.9921664583,-0.7134224236,0.0174522772,0.5557069364,0.5688039752,-0.8154800947,-0.6407058017,0.3808054511,-0.8194214162,0.6065117666,-0.398497906,0.4971847301,0.3865732674,0.3400633431,-0.5116612437,0.9033286983,-0.2721888815,0.7389432443,-0.3624666551,0.2340076186,-0.3496717396,0.2754210527,-0.4726371153,-0.4163216167,-0.7165305654,0.7582396632,0.2383854813,0.0852740694,1.0024056526,-0.8725990505,0.3653864211,-0.1193973546,-0.7977160501,0.9371998819,-0.6579622663,0.8960450177,0.6556942988,-0.7212992889,-0.0509324651,0.0433532073,0.6747469463,-0.3134642692,-0.8617128664,0.8547837239,0.5798251475,0.6802784428,0.3152580365,0.4478196016,-0.7918850821,-0.2102943429,0.2973839928,0.9790500479,0.2706532118,0.0094483543,0.8495586932,-0.0027342964,0.6465446994,0.5811764916,-0.6844417944,0.7896628391,0.6852359925,-0.9028500536,-0.7775352208,-0.589232912,-0.4645030531,0.0947577583,-0.0976868902,0.2094269215,-0.0830503064,0.2095668205,-0.9462460783,0.4827315863,0.2500467305,-0.0018303137,-0.3326544523,-0.3089233985,0.4511865207,-0.3643717207,0.1331279392,0.3342274183,-0.4515922823,0.3489521175,-0.938554305,-0.53383657,0.4882627333,-0.9345155131,-1.0064263652,-0.7202132608,-0.6871478394,0.479822526,-0.8695457453,0.1360306844,-0.9019190086,-0.7211492208,0.175193495,-0.6328309463,0.9642778668,-0.1136126219,-0.2562119996,0.786874629,0.1834631086,-0.4177251765,-0.9931138685,0.9557698475,-0.7489727757,0.171297995,-0.346203291,-0.3615333672,-0.6028348017,0.2824606995,-0.0154449594,-0.3894836242,0.5789557106,0.8486523409,-0.7962697873,-0.7963360055,-0.379860646,0.8137715098,-0.3103396817,-0.9767953845,0.0064154209,-0.9861767017,-0.0233150204,-0.140433391,-0.4497351094,0.6213822029,0.7802739165,0.1911028924,0.849952609,0.2018754386,0.3292487221,0.3120271698,-0.0779363701,-0.7802170501,-0.4631720663,0.3430889105,-0.02283605,-0.3058508658,0.9290854058,0.9059065497,-0.6664316505,-0.1009090298,0.9333503595,-0.3646302858,-0.7971680185,-0.7951617996,0.8720630806,0.8795808115,0.0652288381,0.2452275626,-0.6212139345,-0.0059696387,-0.4254334172,0.3685293226,0.5360268935,0.77723547,-0.1244502639,0.6192208708,0.4894074588,0.8841453782,-0.0588905197,-0.7715172228,-0.15220877,0.4146593945,0.2181998324,-0.593703135,-0.8139649568,0.7380895954,-0.5891404594,-0.4279298619,0.0952993805,0.8593160244,0.4161602284,0.9126410473,-0.5594472884,0.8473631945,0.8775795006,-0.7599553434,0.5051223767,-0.8961874233,0.7132281886,-0.4939382226,0.8715724577,0.40795265,-0.2025224626,-0.6937337007,-0.1570208647,0.4605088086,0.3895966734,0.8352255605,0.5538194378,1.010440224,0.6516701531,0.0640707524,0.1625752259,0.4765101229,-0.1676473553,0.0021623046,-0.1958671962,8.8546339291,0.6212699407,-0.9435314218,0.2555119494,0.8065139296,-0.0221020177,-0.1445419338,0.7795096596,-0.7536116737,0.8893169944,0.3607831397,0.2903296764,0.3951797828,-0.358948575,-0.7228756991,0.2033376023,0.6765031147,-0.039366058,-0.5528203817,0.7318243021,-0.8342530385,-0.8801432569,0.9987839403,-0.9334014765,0.2112800611,0.0265872758,0.1215577671,0.2849647839,-0.3952213674,0.6951402019,0.0122531717,0.3632034801,0.3393067289,0.5309599408,-0.7573396126,0.8182710798,-0.3793142892,-0.9796647766,0.1107526234,0.2053613276,0.284821291,0.1345001505,0.8160055701,-0.8791901209,0.9360795366,-0.1479645534,-0.2278993998,0.4646145727,-0.7285499077,-0.3384576645,0.4081738082,-0.9425126697,-0.1396334998,0.3593949285,-0.065133183,0.0240893122,-0.3352067305,0.2897022583,0.1260602439,-0.1946134084,-0.9955418836,0.2852345789,-0.2919937536,0.394719754,0.5631847836,0.0449657094,0.7735329254,0.3870610341,0.1348461754,0.2083078285,-0.4528371709,0.5675031885,0.1079611208,-2.3909912309,-1.4439728946,-1.1773238674,-0.0197769693,0.8510852244,-0.6760385836,-0.234614815,0.5343414009,-0.2785459867,0.4074390341,0.0095120339,0.5027162135,0.5625474908,0.8161590423,-0.536041985,-0.4868006881,-0.5553855021,-0.1994606733,-0.3466078535,-0.7784373023,-0.0711838873,0.3265931624,0.6483924483,0.491403775,-0.0295101574,-0.0005584079,0.2772837759,0.0569276617,0.6061970084,0.8564746997,-0.3907118678,0.8250906721,-0.5544969825,0.0009817264,-0.4266359324,0.5047919882,-0.2191419388,0.1265258615,-0.3712654734,-0.0130512963,-0.8367332677,0.2535433522,-0.4828901004,-0.4130217571,0.79382957,0.6012538587,0.4129943307,-0.3633230914,-0.8107652947,0.1309317358,0.35519213,-0.4802212688,0.0969093217,-0.5425305059,0.7282356927,0.3147800063,0.9157216599,-0.5810216116,0.7640290752,0.8263358633,-0.3526472865,-0.6125884313,-0.6306852107,0.3306553762,0.6081952374,0.3272149723,0.1798166349,-0.7481990654,0.8162815114,-0.9421036514,0.3297669031,0.3668743808,-0.582715788,0.301323532,0.2584911842,0.6421311381,-0.2552891309,-0.0112261002,-0.9725749435,-0.9472171053,0.8093967146,0.9943871013,0.8979126478,0.0451885444,-1.0187663716,0.2973227831,0.0705270473,0.5355069336,-0.4747076907,-0.1080184551,0.1033820853,0.8235243278,-0.8145865743,-0.7492759779,0.0443788599,0.149631967,0.1532029973,-0.6058631198,-0.6191672734,-0.3955634632,0.5731918583,-0.3432437325,0.4582157602,-0.2089634876,-0.2856895837,-0.640252515,0.3659093917,-0.3624007135,-0.5738540132,0.3929535468,-0.4443831815,0.3979414924,-1.3864364405,-1.0598084262,-0.1167357007,-0.4185497086,0.1643704487,-0.9098902407,0.1906185804,-0.3424840022,0.5450542204,-0.3158200908,-0.5005302072,0.7403210548,0.1779778588,-0.3467510375,-0.9443495909,-0.8300306734,-0.5850531059,-0.1609989693,-0.4199179394,-0.7390488221,0.1115037144,-0.5382821656,0.0129523458,-0.973674334,-0.833178811,0.0039653116,-0.1209080681,-0.4398247768,-0.9347080538,0.1906371552,0.4823166374,-0.3174302082,-0.5088516155,0.9154846271,-0.4831566486,0.2374713018,-0.4171445047,0.1364215412,0.634966684,0.9505859147,-0.6717846102,-0.0656388701,0.8426735125,-0.3708062949,-0.2219286385,0.5996801719,0.2130039948,0.0253960522,-0.6810941443,0.3265262673,0.5160840651,-0.8100498534,-0.288162598,-0.3806689954,-0.5874371488,0.3163653028,-0.9161600666,0.6262574302,0.4471283586,0.3818832501,0.2857299452,-0.7197420982,-0.6595739242,-0.0523594708,0.4421336999,0.7281579767,0.4792062188,0.8678543432,0.5480231982,0.3258017237,-0.2118731897,-0.1212940503,-0.0885342773,0.9519463716,-0.6539523975,-0.3643819985,0.5230523061,0.75330192,0.2236382374,0.1358644862,-0.2470332026,-0.6044062827,0.7083104874,-0.1060245226,0.343347768,0.6735723039,0.9736551151,0.6763885964,0.5652734112,-0.7068145777,0.0953932094,0.6958723618,0.2577086042,0.0146422493,-0.121102497,0.7208458649,0.3543362868,0.82715039,-0.1174614122,0.4635084505,-0.9302501739,0.6851129248,-0.8548642903,-0.7886467769,0.8079339693,-0.7255187737,-0.7729031995,-0.8245289241,0.6627768287,-0.3223456171,0.5256483526,-0.8120536779,0.3583009981,-0.2764191092,-0.2319411112,-0.6836844098,0.1320896674,0.7010358776,-0.1051997159,-0.6221932017,0.2584589348,0.1425882798,0.8735872843,-0.3540286518,0.0040994982,-0.5115176447,-0.1317686958,-0.269156515,-0.4006124071,-0.3287074744,0.7677310825,0.1684242545,0.9496426741,0.5642658059,0.211626509,-0.9614185978,-0.6643399396,0.1685622779,-0.2591448005,-0.3397532865,0.1442199918,0.5408214024,0.661470413,-0.6695969403,0.8743101994,-0.4539442657,-0.5209312794,0.52053172,0.2002053696,-0.4884156448,-0.5971076576,-0.5616640144,-0.9398675613,-0.0665369375,0.2814265657,0.3515680559,-0.0935877136,-0.2981140584,-0.1810757554,-0.4683400659,-0.6863607897,0.5796892347,0.9284022041,-0.2178566438,-0.4026341163,0.0794714825,-0.9424819985,-0.5041831561,0.4530221669,0.7853150969,-0.8129338055,-0.7763322015,0.9500614085,-0.9566664746,0.7776173087,0.4536853316,-0.3685913859,0.1053835812,-0.2598032,-0.5191415795,0.12111943,-0.129445947,-0.7059455998,-0.6182412606,-0.8512363266,-0.497120392,-0.2460272438,-0.4645692671,-0.2499688354,-0.3292118863,0.2745812636,0.5961842718,0.1499206524,-0.6399354815,-0.3369945034,-0.9473614612,-0.7271782564,0.9222063424,0.7177017288,-0.5582244072,-0.2579888894,-0.8597704306,0.4461989484,-0.5892888874,-0.6237834084,0.7689833952,-0.9207682755,-0.141266609,0.158817496,0.3506421118,-0.3203994674,-0.2679118711,-0.845915161,-0.3425157703,0.5810956282,-0.7496840809,-0.8090238569,-0.0752296178,0.2273228148,-0.2591649134,0.9245200667,-0.9194897995,0.1493874309,-0.1179394902,-0.346826151,0.1048305837,0.570061289,0.6936962885,0.0136503764,-0.1778885085,0.1403053227,0.5070007879,0.4375597074,0.8601729699,-0.390056469,0.6373382616,0.4374470809,0.7853334594,0.5211316836,-0.8862268553,-0.1377384451,-0.2280115253,-0.3637924473,-0.7006233195,-0.5019271966,-0.4901642233,-0.810360546,0.7831938208,-0.0526217003,-0.7294656536,0.0786051921,-0.0530593091,0.5693082297,-0.7213981782,0.0223509457,-0.3641970929,0.0641331587,0.9364904978,0.1190279419,-0.614071669,-0.3196426271,0.322405047,0.6601501259,-0.4986189192,-0.3135654443,-0.9050988756,0.7639322838,-0.479062524,0.1232825205,-0.6516587202,0.3623469719,0.5674658156,-0.8371074179,-0.0831139589,-0.022316703,0.0331053165,-0.7109874501,0.890198758,-0.1823461684,-0.9199638654,-0.9715218409,-0.0190850091,-0.8483401954,-0.8208244451,0.6371358084,0.7309090829,-0.3803727511,0.8097255271,0.4160151515,0.3762294483,0.2437269693,-0.9667845187,-0.8344175448,0.0616994726,0.1020492436,-0.159344174,0.3357685717,-0.3748513835,-0.1037726965,-0.6348796857,0.1305572221,-0.966522259,-0.6980455946,-0.9461311105,-0.6317118984,0.6634004041,-0.7794399889,-0.46957571,-0.7447024591,-0.580087081,-0.3766835699,0.9770512073,-0.425804933,-0.865632638,0.238873506,0.0206851276,0.2678372084,-0.7104098051,0.739265482,-1.1881204163,0.2594960245,-0.411846704,-0.9452273502,-0.6095057581,0.2473073521,-0.2003130151,0.1584412307,0.2256358302,0.7782136316,-0.3607677238,-0.3780493308,-0.5156038581,-0.3213693833,0.7356401494,0.5050940864,-0.9359278588,-0.741471931,-0.6661873385,-0.3968352969,0.5192565448,-0.3459497546,0.3113140779,-0.1625110287,-0.0887055962,-0.597828039,0.3226950326,-0.7228429921,0.8192797834,0.5928184763,0.7675306056,0.5569456455,-0.248704358,-0.0311940578,0.8710833929,-0.0753596018,0.7983422755,-0.2792861407,-0.4268916162,-1.2094036016,0.099606352,-0.7165888761,-0.6508362214,-0.5424962746,0.380297515,-0.2603312467,-0.9952274396,-0.0415715978,0.6265932996,0.2829188975,0.4284484345,0.7429672017,0.600944519,-0.2756696366,-0.2985598213,-0.1491115381,0.6288537613,0.6428090213,-0.9742953932,-0.684487871,-0.7232997934,-0.8519066728,0.5987375224
