encog,BasicNetwork,java,3.4.0,1,1670727835928
[BASIC]
[BASIC:PARAMS]
[BASIC:NETWORK]
beginTraining=0
connectionLimit=0
contextTargetOffset=0,0,0
contextTargetSize=0,0,0
endTraining=2
hasContext=f
inputCount=784
layerCounts=1,100,784
layerFeedCounts=1,100,784
layerContextCount=0,0,0
layerIndex=0,1,101
output=0,0,0,0,0,0,0,0,0,0,0,0,0,0,0,0,0,0,0,0,0,0,0,0,0,0,0,0,0,0,0,0,0,0,0,0,0,0,0,0,0,0,0,0,0,0,0,0,0,0,0,0,0,0,0,0,0,0,0,0,0,0,0,0,0,0,0,0,0,0,0,0,0,0,0,0,0,0,0,0,0,0,0,0,0,0,0,0,0,0,0,0,0,0,0,0,0,0,0,0,0,0,0,0,0,0,0,0,0,0,0,0,0,0,0,0,0,0,0,0,0,0,0,0,0,0,0,0,0,0,0,0,0,0,0,0,0,0,0,0,0,0,0,0,0,0,0,0,0,0,0,0,0,0,0,0,0,0,0,0,0,0,0,0,0,0,0,0,0,0,0,0,0,0,0,0,0,0,0,0,0,0,0,0,0,0,0,0,0,0,0,0,0,0,0,0,0,0,0,0,0,0,0,0,0,0,0,0,0,0,0,0,0,0,0,0,0,0,0,0,0,0,0,0,0,0,0,0,0,0,0,0,0,0,0,0,0,0,0,0,0,0,0,0,0,0,0,0,0,0,0,0,0,0,0,0,0,0,0,0,0,0,0,0,0,0,0,0,0,0,0,0,0,0,0,0,0,0,0,0,0,0,0,0,0,0,0,0,0,0,0,0,0,0,0,0,0,0,0,0,0,0,0,0,0,0,0,0,0,0,0,0,0,0,0,0,0,0,0,0,0,0,0,0,0,0,0,0,0,0,0,0,0,0,0,0,0,0,0,0,0,0,0,0,0,0,0,0,0,0,0,0,0,0,0,0,0,0,0,0,0,0,0,0,0,0,0,0,0,0,0,0,0,0,0,0,0,0,0,0,0,0,0,0,0,0,0,0,0,0,0,0,0,0,0,0,0,0,0,0,0,0,0,0,0,0,0,0,0,0,0,0,0,0,0,0,0,0,0,0,0,0,0,0,0,0,0,0,0,0,0,0,0,0,0,0,0,0,0,0,0,0,0,0,0,0,0,0,0,0,0,0,0,0,0,0,0,0,0,0,0,0,0,0,0,0,0,0,0,0,0,0,0,0,0,0,0,0,0,0,0,0,0,0,0,0,0,0,0,0,0,0,0,0,0,0,0,0,0,0,0,0,0,0,0,0,0,0,0,0,0,0,0,0,0,0,0,0,0,0,0,0,0,0,0,0,0,0,0,0,0,0,0,0,0,0,0,0,0,0,0,0,0,0,0,0,0,0,0,0,0,0,0,0,0,0,0,0,0,0,0,0,0,0,0,0,0,0,0,0,0,0,0,0,0,0,0,0,0,0,0,0,0,0,0,0,0,0,0,0,0,0,0,0,0,0,0,0,0,0,0,0,0,0,0,0,0,0,0,0,0,0,0,0,0,0,0,0,0,0,0,0,0,0,0,0,0,0,0,0,0,0,0,0,0,0,0,0,0,0,0,0,0,0,0,0,0,0,0,0,0,0,0,0,0,0,0,0,0,0,0,0,0,0,0,0,0,0,0,0,0,0,0,0,0,0,0,0,0,0,0,0,0,0,0,0,0,0,0,0,0,0,0,0,0,0,0,0,0,0,0,0,0,0,0,0,0,0,0,0,0,0,0,0,0,0,0,0,0,0,0,0,0,0,0,0,0,0,0,0,0,0,0,0,0,0,0,0,0,0,0,0,0,0,0,0,0,0,0,0,0,0,0,0,0,0,0,0,0,0,0,0,0,0,0,0,0,0,0,0,0,0,0,0,0,0,0,0,0,0,0,0,0,0,0,0,0,0,0,0,0,0,0,0,0,0,0,0,0,0,0,0,0,0,0,0,0,0,0,0,0,0,0,0,0,0,0,0,0,0,0,0,0,0,0,0,0,0,0,0,0,0,0,0,0,0,0,0,0,0,0,0,0,0,0,0,0,0,0,0,0,0,0,0,0,0,0,0,0,0,0,0,0,0,0,0,0,0,0,0,0,0,0,0,0,0,0,0,0,0,0,0,0,0,0
outputCount=1
weightIndex=0,100,78500
weights=##0
##double#78500
   0.058421943,0.0865046308,2.8507396264,0.6659329945,0.0016979411,-1.6930607153,0.6595161071,2.0481925608,-0.8577740819,-4.0075800205,-0.953200137,0.3737875391,1.9135732958,-6.8633886216,-0.2267879197,0.6182127333,-0.0856736366,2.6853251288,-4.3910316869,2.1525129458,0.585864517,0.6875662699,-7.38851183,-0.0808674737,0.2254969169,-7.3095739727,-0.534077586,3.5636575104,141.6758060792,9002.3517699473,4.8166816303,4.1981630222,3.9686528247,5.0031027933,-0.5978314889,0.4088540829,-0.357846894,-193.2005384867,63.4559517115,-1.8572306385,0.1729778307,42.2821680189,-1.6156156928,-114.2092714571,-1.4220506937,-0.302627948,-0.3326488011,-0.1874288704,16.9109662616,-0.1224678511,0.4957064031,2.6327145508,-11.7853470832,-4.3183605956,-3.5800559095,0.2945562401,0.0681422513,-0.8610812877,-0.9684015849,-0.3050052481,-0.8887749354,-1.7589870052,2391.6654108168,7.6586080264,-3.7534816088,28.8976193281,0.6605489829,2345.6453010291,14.9170169727,3.8162931655,0.3668171795,-6.4832813092,-0.1375821821,0.4040915265,2.1468080824,-0.6556343078,0.7837594263,-25.6359937986,-0.0548231223,527.411243156,-0.1470269892,-1.5673030195,-0.9428901861,-50.6071150113,0.451308509,-0.4633237845,-0.8340722038,-5634.8952600368,11.8789000216,0.4073333773,0.001735931,0.2654526715,0.2990033496,3.6118774526,-1.3294275151,-3.7418363724,10.3392221975,-3.4622614936,0.699836966,0.9355526174,0.0681515023,0.3767238673,-0.867073662,-1.1244722876,-1.1384364613,-0.7025786095,0.5950242193,-0.2849915363,-0.5165257672,-0.3969270001,-0.4036760664,-0.6097316137,0.1217158229,-1.023901639,-0.4480809659,-0.7967624028,-0.6732407677,-0.6188101795,-0.6793183921,0.1896962279,-0.7280459689,-0.6455171559,-0.8493951225,-0.2993135795,0.4667469092,-0.9647297636,-0.5347115723,-0.4194562088,-0.9283575819,0.2169106825,-0.9490456274,-0.4438938105,-1.1204345546,0.0297774554,-0.8626781191,0.2685742609,0.6628935554,0.6091644233,0.1450711415,-0.1186496727,-1.0532749942,0.5332192401,-0.4486564075,-1.0115090881,-1.1253940781,-0.3298462736,-0.2801029305,-0.825020267,-0.2924508698,-0.5450258432,-0.8634020844,-1.068313267,-1.0501466996,0.1750689544,0.6728605412,-0.73432102,-0.1912822856,-1.1900475639,-1.1852448604,-0.0803986785,-1.0209374925,-0.7714732023,-2.3424869433,-3.5233462328,0.5920283677,0.7151774786,0.4379228334,-0.6572875602,-0.475464087,0.0106805228,-0.8958279868,0.1353641093,0.4909768815,0.3820022247,-0.2158182363,-0.7074538542,0.3583664551,0.4052619109,-0.6540918457,-1.2437315471,0.4111905625,-1.2579395154,-0.5768200926,-1.0657837786,-0.2683916152,-0.2775686746,-0.4791727987,-0.8236943217,0.2631733696,-0.3028326446,0.0162574903,0.7003755439,-0.4838166598,-0.0557546417,-0.087040508,-0.8359680348,-0.3382204103,0.5324330512,0.515394392,0.6801128708,-0.5957810408,0.3968090829,-0.0556407126,-1.1515084368,-1.2183153489,-0.5332649417,-0.6589397014,0.4445071749,-0.9763247186,0.1309806073,0.5004785686,-0.2684022589,-1.0818252626,-0.6227376359,0.1259952,-1.0741745657,-0.0962965692,-0.3470465759,0.4195162746,0.6438284696,-0.430657587,0.3793157495,-0.0773605405,0.2259332112,-0.2646963624,0.0958185836,-0.2144378489,-0.431106325,-0.9513412011,-0.6988791764,0.1400362219,0.0450898042,-1.2307397254,-0.1170036912,-0.517863849,-0.7139671208,-0.4506594175,0.3888921228,-0.8418205738,0.7194601207,0.3525868494,0.4078611556,-0.6949230091,-0.6653827459,-0.1285993123,-1.0852954435,-1.8275222336,-0.674790242,0.578702294,-0.6178149502,-0.7483608485,0.1899907938,0.1802590679,0.2209182197,-0.9101402191,-0.9536709774,-0.9537881769,0.3800023952,-0.8489004629,0.4304956716,-0.3322163747,0.2030742564,0.1124135873,0.6420074471,-0.1331159613,0.5159210681,-0.5647722128,0.1522869671,0.2260202726,-1.10550691,-0.3270732666,-0.4730828289,0.502781955,-0.0830069326,-1.0367552988,0.2368250059,0.2337690485,0.4016285949,-0.8095113505,0.5026651078,0.0333606652,-0.6613302795,-0.7759628337,-0.2333810784,-0.3641553354,-0.0469144866,0.573250163,-1.1627574158,0.4120672781,-0.5677610834,0.3321259598,0.72701353,0.2959115577,-1.1454216369,0.4472156204,-1.2157846241,-0.3707661764,-0.7134728863,-0.2222111621,0.2461202045,-0.3258760633,-1.020116289,0.2060239091,-0.1507569944,-1.1111423676,-0.5046729589,-1.2368012549,0.4112167583,-0.8296122474,0.0558731822,0.1908492586,0.0581310634,0.0672100259,0.6079020207,-0.3733643176,-0.7923161339,-0.9032009543,-0.6672065359,0.0474156962,-0.6066137496,-1.0692259352,-0.4313759341,-0.9497587001,-0.9443997489,-0.002227262,-0.0583159327,-0.8125926221,-0.480046351,-0.0811741322,-1.0891601047,0.1465919767,-1.1278289288,0.5864460059,0.7207707833,0.24136317,-0.7617667499,-0.0192578214,0.281562237,-0.558964958,-0.464567968,-0.9589839293,-0.7175002761,-0.218512615,0.6311785816,-1.1693622306,-0.1100731028,-0.459397912,-0.725491228,0.4323611421,0.1518674756,-0.1056070762,0.3184490739,0.6395886404,-1.0083460001,-1.0566815015,-0.3884511498,-0.1213887364,0.3258563344,-0.0091789582,-0.6233391593,0.695514833,0.0300907328,0.4737154873,0.0436043285,0.103674136,-1.1608177442,-0.2144058633,-0.231479789,-0.9504322093,-0.9442237878,-0.8019045928,-0.8580321474,-0.2516844264,0.6744773355,-0.3860919099,-0.5944477038,0.441833488,0.1172566042,0.3581049377,-0.3567270392,0.1717404198,-1.145110753,0.5523232019,-0.0256504538,-0.3447878473,-0.3919793539,-0.2408162318,0.0637776742,-0.6193454682,0.1782081044,0.7563257103,0.716543933,0.6543928077,0.6070297855,-0.2704269773,0.2023666281,-1.0599842163,0.518210432,-0.2530249003,0.6114489259,-0.1900314834,-0.211519072,-1.0133862877,0.6272477565,-0.927698081,0.4307237187,-0.7101006584,0.4112688131,-0.5926657412,0.4939027541,0.0956542983,-0.618242401,0.3406378405,-0.6391078839,0.2309697474,-0.3704017711,-0.0590493288,-0.9778897302,-0.2356907217,-0.8748230307,0.2773249301,-0.2313506799,-0.8989774703,-0.7592503727,-1.1318866608,0.6257926299,-0.3065934268,-0.3672399867,-0.7159963322,-0.0963015799,-0.0648242457,0.5768277494,-0.8385437968,-0.7948709731,0.5565857174,-0.0180291599,-0.5539432222,-0.7009164942,-0.6701320718,-0.8227064759,-0.1279964037,-0.4135070149,-1.0004682156,0.3644388634,-0.9113767451,0.4592606798,0.5635138291,-0.0710664096,-0.3296373824,0.1727393057,-1.209933571,-0.6135626399,0.2870626671,0.6499715638,-0.2317020504,-1.2495185241,-0.6421396287,0.4957905708,-0.5299335515,-0.7962251483,0.5547519034,-0.8563755783,-0.0158739795,-1.165735956,-1.124379858,0.2211958772,0.1494514086,0.0888476822,-0.7315317243,0.2238001766,-0.9255399956,-0.7454494744,0.6404719413,0.3297379736,-0.9379720985,0.0814194471,-0.7241063819,0.1248072656,-1.0863386437,-0.032689699,-0.6642699408,0.2509839875,-0.5302342652,0.1129917964,-0.5491700962,0.0158809172,-1.0635660746,0.4280887112,-0.9338997361,0.227422765,-0.4555370806,0.3344872698,0.2977530606,-1.1363416471,-1.121819137,-0.5150832005,-0.3141683662,0.4744199201,0.28106356,-0.0780524899,0.7581329824,0.1857640982,-0.8321078856,-0.8934558092,-0.810722958,-0.9226896476,0.4593331282,-0.1634007594,-0.2062184809,-1.2255095916,-0.7958828504,-1.0048845429,0.0163816474,-1.1370023062,-1.2251957476,-0.0526892062,-0.702249989,0.2216813309,-1.2400274629,0.3517970683,-1.2447751467,-0.2780227868,-0.4425441528,-1.1819870629,-0.077814262,-1.1247845091,0.7310805008,-0.7586359221,0.0495611977,-1.0462398781,-1.1402546582,0.1534295907,0.2878085908,-0.7106262021,-0.2671339963,0.2542076493,0.216595792,-1.2207891966,-0.4662655761,-0.9315930811,-0.1999503663,0.438413919,-0.1808548632,0.4309093614,-0.1567288146,-1.2024153294,-0.6654183294,0.4957816929,-0.2335233139,0.1904635663,0.3678699693,0.0404063698,0.3150371974,0.1349657745,-1.2579031255,-0.6758751188,-0.080272246,-0.0814768989,0.6178711529,0.5038964127,-0.7900350809,0.1514557054,0.6941597588,0.5985240524,-0.1902237195,0.3276672604,-0.7643937074,0.5438964664,-0.6745343734,-1.1085216767,-0.0654406643,-1.0082306882,-0.2786404485,-0.8460711288,-0.9014458963,-0.848215829,-0.9332474293,0.0526714206,-1.0187020014,-1.0608726693,-0.8322341045,-0.2826440066,-0.3432942144,0.6562252508,0.1153015884,0.1508576661,-0.0467336915,0.7209257196,-1.1613680471,-0.9911960593,-0.0606913387,-0.7630749424,0.1543557512,0.3490042135,-0.0155887936,-1.1238303592,-0.3324186833,0.344514834,0.3752497743,0.5346728993,-0.629445616,-0.4553782107,0.543837889,-0.5881600594,-0.8851236712,-0.9831834726,0.4392837321,-0.8034187756,-0.0209520124,-0.7099760728,-0.8850356388,-1.0133338195,-1.2287732419,-0.3643556741,-0.2810061989,-0.4435626222,-0.06259708,-0.5136481034,-0.7048385714,0.2085476726,0.2683865347,-0.3440116676,-1.1703615345,0.5760169422,-0.7318812299,0.4683804161,-0.6486689266,-1.2572210282,0.2760206353,-0.8744040208,-0.5149669617,-1.2578085245,0.2253930809,0.3166487364,-1.1665636313,-0.0849179569,-0.6505348467,0.4962646564,-0.5432826973,-0.8630451675,-0.2401530466,-0.7136584082,-0.2089806359,-0.3974530022,0.2994596953,0.6635937787,-1.1810041242,-0.8613362425,-0.3426576035,-0.3491107628,-0.6950334131,0.5502530879,-1.1086584202,-0.2390911051,-0.5697833365,-1.130948121,0.3030967837,-0.6966710913,-0.3999212171,0.1354171484,-0.8449741169,-1.9146573122,-0.1207898624,-1.0343430667,-0.3492235668,0.6600501367,-0.9842314733,0.3260399458,0.0566108872,0.0294967721,-1.073344622,-1.1775093939,-0.551201032,0.3459239987,0.7125793841,-1.1979352252,-0.163407487,0.4643580871,-0.0429744966,-1.1880176433,-0.4484122783,-0.4848422241,-0.8621361163,-1.0401722096,0.4758882701,-0.3923572459,-0.4801797,-0.9314635507,-1.7314539637,0.1357558505,-0.8943361486,-0.8243404697,0.0468454928,0.4068486069,0.1975001124,-0.6809785243,0.0841229502,-0.8181027574,0.2328351506,0.5228187337,-1.0883008809,-1.2456161204,-0.061819747,-0.9717896769,-1.1264213506,-1.2142717035,-0.1101539494,-0.148983326,-0.1576940376,-1.0807456813,0.5544960897,-0.0379631292,0.0626281153,-0.1957871646,-1.0411028585,-0.1804812703,-0.8007732742,-0.4787098317,-1.2800534579,-0.4095296745,-0.9431368953,-0.4648904712,-0.4216222942,-1.2296423368,-0.0531895327,0.2161919165,-0.686798636,-0.6671874536,0.3867207058,-1.2560014163,0.3735448174,0.3771857748,-0.2721857197,-0.4687490182,-0.7000522507,-0.7283708589,-1.1703791375,-0.5423762684,-0.3725171838,0.5142343772,0.2180080021,-0.3976737983,-0.7942806733,-1.343511711,-0.8969668518,-1.2111900384,-0.2840993228,-0.2957875118,0.1828034707,-0.7880160511,-0.8255920672,0.4907943772,-0.5187052566,-0.9992235337,-0.103654822,-0.6100912707,0.1820202856,-0.3685731318,-0.5183784266,0.2240549791,-0.5831017537,0.6073365761,-0.4501714344,0.0627615281,-0.471073656,-1.144023993,-0.7342910416,0.4218862873,0.6124398964,0.5228357596,-0.2711621182,-1.1436655693,-1.2458347135,-0.7911864373,-0.2060864607,0.2040533807,-0.0698200206,-1.2450031606,0.1386829222,-0.9518354558,-1.1169244603,0.4439124775,-0.5934982044,-1.0395208416,-0.4534848275,-0.0603889305,0.2769439257,-1.2808111237,0.0689902053,-0.9009684831,0.2616806917,0.0292183414,-0.9977124444,-0.6352732005,-0.5976985677,0.3886411712,-0.05866497,0.4694518659,3.0506637016,5.366106403,0.0968953162,-1.2951549475,-0.2335669415,-1.0458078545,-0.0879477979,-0.7523464359,-1.2287700627,-0.9065119046,0.1236078298,0.293682098,0.6334740308,0.4346899913,0.0565359798,-0.2197901068,-0.3429683668,-0.1358599803,-1.2984532004,0.1514402437,0.5725626923,-0.7405936351,-0.9480334148,0.4452237438,-1.1122361474,-0.105312756,-0.1327659545,0.4096788905,-0.2775516384,0.6992984733,0.5907683371,0.4693227091,-0.1318381087,-1.2533260533,-1.2967572171,-0.97155747,-1.0914737315,-1.2187179095,-0.1946460167,-0.5936661346,-0.2404532804,-0.0934604372,0.1757439092,-0.8603995302,-1.1146030272,-1.12152266,-0.3083044414,-1.1654023752,-0.3574402928,-1.0876622756,-0.5828394122,0.2565092993,-0.6073461728,-0.4194320846,0.126419809,-1.1002777467,-0.2899727278,-0.3223702998,0.3386410362,-0.5449714351,-0.1010486483,-1.0892519047,0.429214215,-0.9944535118,0.0119637147,-1.1333395086,-1.2169451884,0.4270447079,0.4987842341,0.0638181535,-0.5068148189,-1.1083889689,-0.8965247384,-0.9396138061,-1.086688868,-1.0799647925,0.0306095817,-1.2401766494,-0.2632156772,0.5652677706,-1.0013691694,0.3129407936,-1.3721381469,0.0410739705,-0.8283032159,0.234634928,-0.7857456963,-1.0377933593,-0.9665345816,-0.0952195649,0.5875250368,-0.26222156,-0.191992452,-0.8732707944,0.7133219481,-0.8050960009,0.222060361,0.0004606669,-0.3059805698,-1.1402947366,-0.6094985535,-0.851297271,0.1162309844,0.1537137541,-0.9823651555,-0.5916503629,-0.6848329492,-0.143228315,-0.2257377015,-0.2140590705,-0.0087462132,0.4660683833,-0.2987083577,-0.9096313919,-0.1290545674,0.4653948933,-0.8200384062,-0.1269433351,-0.7443732884,-0.8147177676,-0.6810196066,-1.1602949592,-0.5061562754,-1.2199670389,-1.0633547915,-1.1896839493,0.3116595734,-1.2134757306,-0.6302100542,-0.3022038253,-1.147696479,-0.3893008538,0.0392709829,0.0748163936,-0.8064569024,-0.0279211468,0.7016470115,-1.068477841,-1.1922701491,-1.0541203068,-0.2500027234,0.0064241574,0.5470528554,-0.613672801,0.1170935656,-1.2528162942,0.3833582593,0.1435108441,-1.9313528795,-3.8177733437,0.406616082,-1.1043279606,-1.0926976612,0.3804607151,0.7227803897,-1.0506271049,0.5469995999,0.0731247117,-0.5872122865,-0.2718196316,-0.7049492787,-0.2973480722,0.2673724264,-0.1154557037,0.7000673789,0.1682230713,-0.5274379626,-1.1739058513,-0.4769195862,0.0614734059,-0.250836956,-0.8762429335,-0.054926453,-1.2600746955,-0.4479519089,-0.541588414,-1.1706615921,0.35819603,0.5855762351,-0.4013626355,0.0261685696,-1.0832222716,-1.2368412861,0.4266054998,0.564046241,0.2761440235,-0.5811825208,-0.0670243905,0.0781875786,0.2755593371,0.2064196208,-1.1207587821,-1.1396845324,-1.0309986478,-0.8276059797,0.5677467969,-0.7706410238,-1.1337420429,0.0721303454,-0.7046310694,-0.1890566434,0.4348660903,-0.7807316477,-0.1329226121,-1.2020085364,0.1958877498,-0.1482436918,-0.7275394588,-0.9713973431,-0.5454563872,-1.2248859279,-0.6286711621,-0.8602277141,-0.0920317457,-0.7998172415,-0.5462209586,-0.2984798078,-1.0100954916,0.6136496618,-0.398115039,-0.8049205501,-0.3910040977,-0.2103059132,-0.5124084599,-0.4411846787,-0.6862065373,0.1831432936,0.2296083103,0.2957900097,0.1592607837,-0.4630604033,0.5304150072,-1.8451878487,0.5444142095,0.6223077461,-1.063085592,-0.960342669,0.2862262168,-0.6112686554,-0.4641627658,0.5756189639,-0.6495873651,-0.3635384423,-0.5675375247,-1.2383078797,0.6408210878,0.7180251762,-0.5527145036,0.4644116804,-0.9279270865,-0.9494427139,0.1577799185,-0.8224723896,0.212412949,0.2461485815,0.2672452119,0.4798718667,0.6154946191,0.4947341917,-0.4481615496,0.7043571886,-1.1852658557,0.7037846631,0.296154718,-0.9435518792,-0.7729016482,-1.241297726,0.2150174254,-0.4074341714,-1.0057823569,0.6095066408,-0.4824721352,-0.8085767231,0.423291322,-0.1122953368,-1.075579683,0.4804932066,-0.8166136684,0.3164855274,0.3746190946,-0.1603291187,-0.1228893127,0.1166651085,-0.1043112001,0.225005651,0.3507224651,-0.607642102,-1.21132529,-0.7007342934,-0.219836724,-0.8145639514,-0.0978606995,0.4443408675,0.3984673506,0.514034016,0.0512955155,-0.790437527,0.4625047775,-0.9703418405,-0.5236539714,0.0570715277,0.5668959585,-1.0953410859,-0.5975024356,0.2883215393,-0.1114196044,0.3552437013,0.3174458077,0.5220132434,-0.6493510253,-0.7081540811,-1.248759737,-0.7368940095,-0.3673170335,-0.9448204721,-0.6842549755,-0.326908549,-1.1297045053,0.6127940001,-0.3409523156,0.2568924296,0.2093508377,-0.7841698112,-0.1960814581,0.6713953849,0.3001823039,-0.9747401605,-1.0339440176,0.6685369859,-0.7687493985,-0.2178336158,-0.8971176157,-0.2772560824,0.5182226942,0.4551778548,-0.0209015635,-0.5708714729,-0.9705091872,-0.8862407569,0.3818834243,-0.9161057015,0.6821356893,-0.3574562719,0.2421889358,-0.8975206266,0.2316529839,-0.3688916423,-0.5647066014,-0.6608173976,-0.5439415469,-0.6663407084,-0.8975522765,-1.110886622,-0.6894972273,-0.4666446023,-0.974806007,0.2927606289,-1.3820245687,0.1454100715,0.3522721847,-0.8692561553,-0.6510803013,0.5300495004,-0.6812836122,-0.0296635879,-0.9131537206,-0.9185433475,-0.2562407135,-0.1812479927,-0.2645223405,-0.3681681634,0.6858849495,-0.56232733,-0.6173330433,-0.514666063,-0.6045099825,0.6523906409,0.3319965877,-0.5496197749,-0.3308847335,-0.302010949,-1.1146601833,-0.8117414854,0.508212877,-0.3706133339,-0.3282507237,0.3208019216,-0.5834050946,0.620257799,0.1130929486,0.1182009662,0.4692251212,-0.7843287992,-1.2254682016,-0.2025292277,0.4855611797,-0.9302194705,-0.745355332,-0.5539587513,0.3531705142,0.1081196493,-0.9946050402,-0.5430193941,-0.9266957021,-1.1648209501,-0.1541481128,-1.1534782854,-0.419183278,-0.4288394386,0.0054730197,-0.8189716959,-1.0311696378,0.2637242195,-0.0998101692,-1.2345666386,0.355512074,-0.8568401648,-0.2254872548,-0.4962740342,-0.4255934411,-0.7780713986,-0.7901554376,-1.2276219516,-1.1743464613,-0.0542306084,0.5746724119,-1.0555745113,0.5703252234,-0.7584908491,-0.2964641536,-0.493876575,-0.8570853116,0.3067580748,0.5001941978,-0.686546427,-0.2842746461,-0.5717161269,0.4710716643,-1.1759354566,-0.3857405542,-0.8081705694,-1.2217272069,-0.316473814,-0.2830129486,0.1674521673,0.0883778746,-0.2077238577,-0.8882540374,-0.3450806178,-0.9209766759,-1.3634096809,0.385093886,-1.2462250627,-0.0698468072,0.0210245602,0.2526214995,-1.3368436306,-0.1148127066,0.2791205179,-0.3935755818,0.1966142686,-0.2565012369,-0.6226749907,-0.9533781943,0.0785847728,-0.5692412927,-0.5938672548,-0.8501891504,-0.9448039357,-0.2086504343,-0.5654713568,-0.6439947991,0.3402828912,-0.6960953411,-1.1215470021,-1.1349648259,0.4876441362,-1.1779109195,-0.0638308686,0.068078261,-0.6179000585,-0.3302549767,-0.0369784156,0.0222403905,-1.1863082151,-0.8440178998,-1.2322767436,0.5865045131,0.2704386302,-0.6093321561,0.4289359508,-0.0614788322,-0.515395087,-0.0443586424,-0.3142538737,0.1323476615,-1.2849700646,0.0177183401,0.1714174897,-0.3575002932,-1.1526054778,-1.1877728438,-1.1875308766,-0.4132750467,-0.6714378938,-0.8892362302,0.4443901204,-1.3093553497,-1.3580134436,0.1512564999,-0.5602282744,-0.7078749592,-0.0393794185,-0.2984790074,0.3416989737,0.1012696312,-0.5539494442,-0.5914911339,-0.9065853284,-0.4780975285,-0.9262854013,-0.681747435,0.4078754337,-0.5213176563,0.1008488389,0.3520753393,-0.846089585,0.2163933084,-0.7995688086,-0.9959957325,-1.1918706844,-1.2463150196,0.5687245747,0.0791917022,-0.3215021558,-0.4331715268,-0.0489711645,0.5359980704,-0.6096761598,0.497174409,-1.2498757622,-0.9388008695,0.5489394282,-0.3910669656,-0.0284038243,-0.880812932,-0.2571667177,-1.289021171,0.2987918143,-0.8010363393,-0.7351553323,0.1718130965,-0.1622985696,-0.9938659915,0.436632196,-0.4577806134,-0.0944712304,-0.1798889272,0.576441844,-0.1363494152,-0.5915416467,0.4294847617,-0.2029954231,-0.2979488503,-0.4985348584,-0.3581906332,-1.2591988856,-1.160640324,-1.1760565111,0.3978134428,-0.950774172,-0.9810821349,-1.2519512128,-0.9814156431,-0.6638600592,0.1868246375,0.3890053829,-0.853250816,0.5283648957,-0.7935499552,-0.2119674576,-1.0084555169,0.0631297712,-0.1901779051,-1.1010242071,-0.4078008658,-1.2961813629,0.4748202308,0.1857058604,-0.1901413379,-1.1269924518,-0.8275494206,0.3223969283,0.2051540132,-1.1212014028,0.4031645024,-1.1289700344,-0.6928946208,-0.951537603,-1.1205091341,-0.4775854298,-1.1633250822,-1.2123435263,0.0421204856,-0.0201976238,-0.9444629073,-0.1400719832,-0.9062546901,-0.924145475,0.0159188935,0.6174412372,-0.2889433572,-0.803743244,-1.259077015,-0.0853862101,0.3380039194,-0.0312759766,-0.1069133022,0.1897514897,-0.7835652987,0.5123454232,-0.473071876,-0.1735362892,-0.524582617,0.2284374174,-0.1959611672,-1.0494946772,-1.2002848829,-0.9201811283,-1.1345339497,0.5138399887,-0.3460058333,-0.048089263,-0.29054113,0.1752896189,0.4540449592,0.4105539856,-0.0185319813,-1.3230738348,-0.7163436688,0.3069104294,0.300010064,-1.221242101,-1.1780867565,-0.1382134676,0.2689785797,-1.4939062614,-1.1129536873,0.3061594564,-1.2302577262,-0.8772911926,-1.2619656086,0.5383686934,-0.8664688262,-0.0281882092,0.3624727307,-0.1451881252,-0.0419711426,-0.1528518635,-0.0187980462,0.1577813836,-0.4212824633,0.5711122953,0.5490761271,-0.1336032225,-0.2814122517,-0.9626527936,-0.7055231281,-0.8202654898,-0.5916060181,-1.320059576,-0.36932489,0.2961083415,-0.8949064826,-1.4360866512,-1.0866772996,-1.3083391364,0.2813608045,0.3704268141,-0.4593005152,-0.7617571981,0.0811527475,-0.6486857424,0.3967936071,-0.8908493066,-0.5808239523,-1.2438103324,0.0769888092,-0.8821038309,-1.3520342809,-1.1746359088,-0.6359376199,-0.4912172845,0.0250625083,-1.1384425485,-0.8688671759,-1.3571436949,0.4913691154,-0.2214334494,-1.0125264996,0.0237520752,0.4504695536,-0.7834805763,0.5142287918,-1.3076508837,-0.1072838592,-0.1279935589,-0.4745530478,0.2863008403,-0.7866739666,-0.9547210483,0.4537977363,-0.8184113478,0.6083322469,0.4235327822,-1.1651806245,-0.5581809307,-0.9097646584,-0.0839351909,-0.3068801221,-1.3112214158,-0.8271146803,-1.2093187836,0.0725519036,0.1408395964,0.1950737526,0.4130395879,-1.1275275466,-0.1437661278,-1.3481259719,-1.0655908092,-0.9154816559,-1.0348468597,0.0067397858,0.1541961234,-0.7436824917,-0.6803144248,-0.0031138317,0.3274651321,0.2058335535,-0.5378401748,-1.2155014451,-0.2325109466,-0.9013987844,-0.3994755174,-0.0494488264,-0.6287703056,0.30674257,0.408545823,0.1630251924,-1.2352872939,0.6122211449,-0.9421673782,-1.1335186486,0.1286317845,-0.5665263012,0.2227939038,-0.0401212422,-0.4654484428,-0.1684823524,-0.6754438498,-1.0842911982,0.3461668742,-0.7294400437,-0.8852649873,-0.1208491677,0.4171518798,-0.5464745781,0.0349670476,-0.7801393598,-0.4488454458,0.4134954617,-0.0305301134,-1.0409139478,-0.155735398,-1.1172192742,0.1759042655,0.4022018106,-0.2824780739,0.0618150451,-0.7985901225,-0.5519858238,-1.1029068105,-0.4349908678,1.735698372,1.9277226861,-0.5771880013,-1.1636008873,-0.1247830624,-0.1685254379,-0.5168581348,0.4065932428,0.5291632263,0.4200736858,-0.6955710789,-0.4073163221,0.3041647235,-0.1370748219,-0.7921056032,-0.5984663818,-0.7811691045,0.3138231174,0.3442691536,0.3931456096,-0.9790410478,-0.1567733737,0.0682996374,-1.1575484681,-0.5800338805,-0.0622717161,0.1569619384,-0.867890735,-0.7916490451,-0.0838150244,0.4766391933,-0.5543504902,-0.9865900238,0.0344000049,0.1879602161,0.4652530693,-1.3164636438,-0.4883431812,-0.9768682461,0.6254128434,-0.6255544549,-0.322610738,-0.5471859462,0.011724877,-1.255600964,-1.3213576427,-0.0512088722,-0.9540542391,-0.7128994501,-0.3884464912,0.0876690541,-0.3293579261,-1.1733865846,-1.0168949475,-0.5192715396,0.4102908953,-0.894288628,0.093635139,-0.5764154355,-0.5554304086,0.0393119954,-0.2234713716,-0.8939175295,-1.1941255689,-0.1953468995,-0.6903183923,0.3964080825,-0.9206579899,-1.1628851422,-0.6742967674,0.1165746541,-0.8341416642,-1.226604344,-0.1159816063,0.0654867768,-0.1205091231,-0.338631788,-0.1546572695,-1.1394331898,-1.2928454705,-0.6851129472,-0.0113075745,-0.9490926712,-1.1741993788,-1.2607471666,-0.8155006928,0.8711534907,-0.4712973263,0.1613685777,-0.7108036361,0.7216368462,0.7185151163,-0.3301322315,-0.9692327529,0.6511141407,-0.2667852077,0.6806778362,-0.6671408733,-0.5549552723,0.549609045,-0.0930571718,-1.0228461532,-0.4148142866,0.7167267888,0.2680249138,-0.1475696622,-0.1257691219,0.1017145829,-1.0366790309,0.256002575,-0.5199361937,-0.8551579345,-0.9491560456,0.9201167924,-0.0924224183,-0.953502172,0.2438384247,-0.534020893,0.3515830594,-0.0375012382,0.3362524476,-0.0574490773,0.5910538369,-0.0879699573,0.4203691882,0.1912726473,0.8861550973,0.3024003727,-0.1259594082,-0.3694729134,0.4079814538,0.426384787,-0.2261309372,0.8995998422,-0.4717923988,0.1893554577,-0.8139154567,0.4756765484,0.0680187541,-0.2691710603,0.5580364307,-0.6466354536,-0.8681658395,-0.1598768926,0.6437953665,0.0927704332,-0.1294546523,0.8345359298,0.0648315674,-1.2148551851,0.3881189215,0.9484340977,0.8154261379,-1.02857879,0.5103129553,0.2560285669,-0.1815956935,-0.1470196398,-0.15121518,0.0414884289,-0.045527934,0.3328889189,-0.6335147923,0.5970048405,-0.1031077579,-0.2255932492,0.8730159444,-0.7073465054,-0.638522239,-0.544324713,-0.1818590487,0.0137806547,0.8550269137,-0.4823236278,-0.9205483444,-0.2987159953,0.6927143283,-1.0002820622,0.0739566981,-0.9415690277,0.4046516112,0.2029932277,0.2850058404,0.0317314878,0.4470026229,0.3535253687,0.7996611696,-0.26685705,-0.8463263351,-0.4012942708,-0.3671852093,-0.9419982719,0.47969545,0.352412467,0.4472072277,0.5193851941,-0.1935095012,0.5847648304,0.0007816168,-0.9453835336,-0.7960171302,0.9189980458,-0.1049902096,0.5323678699,-0.9934509302,0.7890318497,0.326006117,0.7801971648,0.8735100958,-0.2954450391,0.3603356721,-0.9367689418,-0.0797233196,0.5926057885,0.0338138926,0.295603851,-0.683290592,-0.6110551005,-1.0190775857,-0.8928593512,0.3730228896,-0.5800717308,0.5586036473,0.7630127523,0.6141020781,-0.0398830452,-0.5684060353,0.3970062743,0.1503634145,0.0162421314,-0.4880066378,-0.1203597051,0.108071224,0.8811955657,-0.7375397598,-0.2178231594,0.2573593179,0.6350002587,-0.2613491855,0.4150270187,-0.190271397,0.2471434479,-0.3951028517,-0.1201202173,0.150755445,-0.9978208309,-0.3556439338,0.2954243779,-1.0106222417,-0.2052119432,-0.4964034094,0.8709290558,0.9614846425,-0.9173062734,-0.3089824047,0.3609010224,-0.7385254273,-0.7262254661,0.35259534,-0.188753067,-0.1675620236,0.5545202975,0.7928347474,-0.3327605981,0.9240148503,0.8903866483,-0.9556829547,-0.4793689544,-0.828015841,0.1197850211,-0.6449079773,0.9126172484,0.8090272272,0.3545846303,0.658776616,-0.4927875264,-0.3820350222,-0.7220436003,-0.5091869037,-0.2917586561,0.0515223446,0.7972514676,-0.7138272524,-0.3327031482,0.2957632493,-0.5469818923,-0.3034686052,0.117399562,-0.6561069667,-0.7498498109,-0.2523337054,0.3682367737,-0.0594151677,-0.0252806907,-0.5269919869,-0.9332542513,0.031636073,0.1329234514,-0.3580826011,0.6151277661,0.546554792,0.4233504013,-0.8157938803,-0.5653254558,0.2374755534,0.1240859588,-0.0823476701,-0.3355076716,-0.7756434506,-0.9419983914,0.3969159041,-0.5731198286,-1.0359987708,-0.0033080204,-0.1142758288,-0.3918902197,0.5788402218,-0.6306977047,0.9301857284,-0.5251642667,0.5958318408,0.3791893351,0.8137635958,-0.7984084704,0.7024938136,-0.2969908735,0.0574818341,0.015313809,-0.4985716013,0.7745864518,-0.6725783793,-0.2067648512,0.4349177486,0.7187217111,-0.6632374001,-0.3123731389,0.8823813975,-0.6284481274,0.0964584269,-0.3804402056,0.6111573159,0.667127423,-0.1678606287,-0.5110237416,0.9453119479,-0.6350123124,0.743689618,0.2729440504,0.4947918722,0.666968437,0.0181719184,-0.0081331371,-0.9311682353,0.7006942626,0.0103202042,-0.0752964918,0.2721019699,-0.2783682601,-0.0137646277,-0.0847808238,-0.4633945615,0.1390045598,-0.9037704784,0.3419665976,-1.0112033558,0.8990961987,-0.4146277355,0.2032380533,0.0142844082,-0.2178749997,-0.2492146234,0.9173555632,-0.3324834531,0.9706428762,-0.6760903367,-0.3199260208,0.738834901,0.3303455283,0.8390572365,-0.2613801625,0.243209461,0.7957471464,0.1096287944,-0.4933833031,0.7735737352,0.4074441204,-0.5598149591,-0.477633883,0.0867500702,0.2475466472,-0.8897153431,0.1557863764,-0.5460214379,-0.0571328593,0.0557504609,0.7768565639,-0.4548872544,0.8307068251,0.1951579075,-0.5848793511,0.4703833378,-0.296633288,-0.7443502754,1.0224420159,0.9375093406,-0.0531941061,0.8803452154,-0.6777221508,0.8866094367,-0.2804375335,0.5956392877,-0.4161451496,-0.2440226343,-0.2676674958,-0.1898348999,-0.8465143647,-0.5866188605,0.73420786,-0.186961063,0.7735260716,-0.7425437331,0.4089237823,-0.8091300117,0.9452625771,-0.6843412964,0.0866264596,-0.9312241709,0.3673243667,0.279799606,0.6500672012,-0.4646285963,-0.8249181452,0.653430813,-0.7105518899,-0.4206366828,-0.2573736457,-0.7912395776,0.4867699551,0.6085766926,0.617213813,0.9381021409,0.367959106,-0.2966273523,-0.1870784076,0.8824667366,0.1726471084,0.96695204,0.5423716823,-0.7011141973,-0.8919522541,0.3064584978,-0.5133269718,0.5605239528,-0.9112736093,-0.7371619193,-0.0299120104,0.6151616326,0.8254418424,-0.2975524298,-0.9105309243,0.1431714348,-0.9655593526,0.6297537351,0.6035156141,-0.8019481801,1.0057624825
   -0.3552423318,0.0032862799,0.1602008006,-0.9142427915,0.3472247884,0.4545098426,0.0012791357,-0.167619551,0.9821891571,-0.3155227751,-0.6590229409,-0.944676465,-0.1551197884,-0.4586285245,-0.2634961996,0.3416050877,0.3687481743,-0.1450085447,0.5813374922,0.5733928893,0.6245997588,-0.3901437674,0.3953710053,-0.3211112971,-0.3647646413,-0.1452748796,0.7006865185,-0.1846190775,0.5034246373,-0.9601669635,-0.4415389464,0.1708943675,-0.9212548593,-0.9747077354,-0.2731967194,0.5158478922,-0.9521704342,-0.0631363991,0.1322184584,0.8536724896,-0.5467918288,-0.5675251087,0.8015546069,-0.1534931656,-0.2016398201,0.9523154398,0.9014665154,0.872793612,-0.1537420921,-0.9060431963,-0.1671368495,-0.868888819,0.4257242106,0.2679514067,-0.7628407738,-0.4212650949,0.4242743118,0.0675707732,0.2750462255,-0.9706516322,0.4738991452,1.0643874323,-0.1153285227,-0.6847250071,-0.409747525,-0.8764209545,0.4381616513,0.5887288834,-0.0422106101,0.7146227569,-0.2157031844,-0.7505598946,-0.7062928889,-0.967768695,-0.649222303,0.8285413935,0.6402499514,-0.1347405035,-0.7137467966,-0.098503438,-0.5691317178,0.9706359443,0.8604682349,0.6666992688,-0.7141245908,-0.3685150962,0.3589798597,-0.8871213785,-0.6351377689,0.0914577506,0.8053885419,-0.5897081598,0.5440041738,0.2020991852,0.4220988773,-0.2941432093,-0.1371449311,-0.821905828,-0.2251392678,0.2498622504,-0.9008821796,0.7999646726,0.4891487954,-0.3156762615,-0.74451243,-0.1342509524,0.2186585806,-0.8631603291,-0.1292990958,-0.1739015068,-0.2324671277,-0.4251473104,-0.2128135833,0.5797919539,-0.0535948007,-0.3951211917,0.8924782483,-0.1650969267,0.6222688971,-0.341239717,-0.5237080709,0.0687840647,0.5349324048,-0.7493199569,0.5022640194,-0.6089710307,-0.2762762288,-0.1583692512,-0.4055610018,0.029047502,-0.6133404049,0.8554781282,0.663016045,-0.0678497262,0.9902792606,0.1128833984,-0.2555400246,-0.4099525944,-0.6946174588,-0.8660876138,-0.6494892414,-0.2171112689,0.2759629396,0.4852494202,-0.0850601635,-0.7306150168,0.0698079715,0.7119576426,-0.5091010348,0.6628730158,0.4253031465,-0.9652253172,-0.7477242973,0.0529256469,0.0602143474,-0.2299814686,-0.9247060664,0.0197430086,-0.2407696343,-0.0094849118,0.8110455657,-0.5690055855,0.8146597658,0.1625247572,0.5213973311,0.7348547476,0.8608927351,0.197957891,1.3509211527,-0.1976073503,-0.5270692336,-0.3687696298,0.4155116502,-0.0718523387,0.7367989117,-0.0407847956,-0.7653259146,0.0293358098,-0.8535212149,-0.126200467,-0.1321982164,-0.2012710938,-0.4409338431,0.2660607104,0.1956750134,0.6026244649,0.8866933852,0.3090478815,0.4187415932,1.5711585849,0.1547576725,0.9729415484,1.5668750894,1.5673643355,-0.2554618434,0.7798402902,1.0126897801,-0.3152647384,0.2939230973,0.9758500405,-0.9406257908,-0.8216911616,0.7170003345,0.8848892222,-0.3542617139,-0.7679887798,-0.1680113054,0.4548869816,0.0875779686,0.8365618406,0.2571658726,-0.2215565387,-0.6454754655,-0.9059252128,0.6981344052,-0.813996735,-0.2804560847,-0.335419671,0.8962728429,-0.4370452911,0.8505227439,0.3406976602,0.4147730511,-0.3567295094,0.847212137,0.022300914,0.4760213322,-0.9700410569,-0.4375477318,-0.6417236636,0.0981829932,0.9771263365,0.5397116449,0.0085113688,0.3410275101,0.0500504818,-0.3693449771,0.4193284851,0.8664469417,-0.0798704072,0.7622959659,-0.1113939711,0.4051975258,0.5388267103,-0.6003456727,-0.0040030114,0.5902824276,1.5277561258,-0.3453805232,0.5361307209,-0.2468597705,-0.5604812048,-0.1207113729,-0.9172145468,-0.0995508499,0.9059101947,-0.8417640238,-0.5838984871,-0.9303998736,0.0757016283,-0.6481791268,-0.5986166813,-0.3483242951,-0.6919560046,0.2034929419,-0.2509165219,-0.8548583761,0.7455875915,0.7210690204,0.656745835,-0.9454535308,0.9986318606,-0.7639948995,-0.6678557445,0.6798685736,-0.480722733,-0.0104658218,-0.3942030172,-0.5016354553,-0.520701503,0.0653493888,-0.0071511397,-0.3103984353,0.7785363791,-0.142324967,0.0434236275,-0.3202749103,-0.0195203694,-0.405718697,-0.7358224895,-0.2555328715,0.1162422524,0.3568465099,-0.734425,0.1194907201,0.712472238,-0.0257367321,0.9530374206,0.6687977116,-0.445900874,0.3930919473,0.6517156427,0.4553712745,0.3115620928,-0.6535825466,0.4888080596,0.8289300696,0.3006199463,-0.1504258846,0.6960324831,0.9995676448,0.8462969253,-0.4977514058,-0.2429630407,-0.4474842296,-0.4339575854,-0.7094162445,0.7862602127,0.9946919319,1.2349329205,0.3034601604,0.6406943787,-0.344603205,-0.5838256673,-0.2893846173,0.2191479684,-0.1747969716,0.1524518729,0.5239758489,0.6728258699,-0.2706887987,0.4513326401,0.866306783,-0.6922924057,0.4052381299,0.356386349,-0.4764561253,0.099596345,0.1611327565,-0.2225100605,0.3553065745,1.9157320383,-0.3451900639,-0.440832725,1.4899220082,-0.0281255325,0.7639123489,0.7300768937,0.6362206249,-0.5524592501,-0.9376235367,-0.0835801667,-0.4385186062,0.1778373885,0.5374387915,0.6825115643,0.769138388,-0.0063735522,0.0700238854,-0.5643462754,0.5058946502,0.685979101,-0.4554511533,0.0690894892,-0.7033220448,0.2893261928,-0.5659739599,0.0674438617,0.8191655102,0.1452550043,0.3230481744,0.456395131,-0.1194857749,-0.4942139635,0.9962085419,0.3079954834,0.0126198403,-0.0753464494,0.8919679618,-0.1281016416,-0.3699965309,0.5349676784,0.7985711025,-0.6314222586,-0.7115229604,-0.6428586929,-0.7314830787,-0.8202493729,0.4095716185,0.1090177207,0.6973259421,-0.5893655519,-0.2183892273,-0.5840912336,-0.2839093228,0.9435690513,-0.5881247088,0.4909389245,-0.9239293399,0.1141699204,1.0436689742,-0.2249757185,0.1633108713,-7.8265872218,0.4465010735,0.6627812124,-0.2047473816,0.6079903093,-0.0505111309,0.2169684409,0.6910713149,0.7431734731,0.8622857662,0.8966742525,0.4743203981,0.1699201914,-0.1350267681,0.6956895559,-0.5494300429,0.8488174882,-0.5748532058,-0.3208091598,-0.8328861529,0.7949321713,0.8208381657,0.9385239825,-0.6432336128,-0.9602954636,-0.1655563244,0.3583021635,0.2037267361,-0.4028007812,0.5059913736,-0.6719591271,-0.1288398793,0.5145111433,-0.6901607776,0.7934412132,-0.4121029639,-0.2851235224,-0.8480338412,1.0018905961,0.6342580297,0.2638884482,0.1141262384,-0.7731320786,0.5809504287,0.6197444917,-0.5564451485,0.2051244972,0.541609194,-0.3451399958,0.989446956,0.7602290998,0.7209690722,-0.5817388002,-0.8592151618,-0.6572659611,0.9201646344,-0.5846095749,0.6785115466,-0.1694711408,-0.2843868595,0.6818379584,0.0198333404,0.2278368231,-0.4141846769,-1.4301275546,0.1100013916,0.1375922836,0.0198757863,0.069941967,-0.1372277437,-0.1761679554,0.4744447437,0.2656770092,0.7163576653,-0.2348749296,0.5455255152,-0.7600475845,0.23452056,0.3464283512,-0.6360578313,-0.7957050631,0.8398832489,-0.6189738484,-0.9125578485,-0.73525638,0.3205836312,0.7488306748,-0.7355628894,0.0260417004,0.7784221597,-0.6834307243,-0.6699844783,-0.1411160101,0.5463969151,0.7612628935,0.5225189805,0.8749506183,0.2188172136,-0.7718899426,0.1443023471,-0.2247737389,0.3279216138,-0.8315948473,-0.2540891717,0.0037870183,0.6594052756,-0.5286749815,0.8604674886,0.4096329578,0.0369446915,0.7665517776,-0.6899118933,-0.7736894209,-0.949571875,-0.9035533758,-0.1455770357,0.8632895259,0.5609168721,-0.1017445852,1.0037425064,-0.0066503339,-0.8307808286,0.7625579952,0.0785476162,-0.1499988223,0.0934175934,0.7050821023,-0.8078861025,0.396100794,0.5375368428,0.2060199075,-0.7978493528,0.5259077903,0.9845558546,-0.6797367527,-0.6716782526,0.2962536362,-0.4008956444,0.2414538424,-0.7460329443,0.7190221128,-0.5364966443,0.4748865954,-0.3673788855,-0.0977081442,0.0261140462,0.9594479374,-0.3448992842,0.701931414,-0.1976610829,-0.7037164021,-0.1140814772,0.9204183859,0.8868670287,0.6851474142,-0.1090706537,0.7606556664,-0.7628310734,-0.6938321062,0.5445641443,0.1707581664,-0.1587758551,-0.6754430846,-0.5440774144,-0.6554185414,0.0662891404,0.4286276315,-0.4418942011,0.9740170594,-0.245795893,-0.5663145598,0.1042203718,-0.358280536,-0.603668271,0.7999113102,-0.6101245667,0.4174711829,0.1728836289,0.1332724465,0.1604281861,0.6869848974,-0.9104845196,-0.4680381033,0.8416342421,0.0764289694,0.3695689091,0.4569108756,-0.4385188917,0.3105172223,0.4406888597,-0.6896211074,-0.743675997,-0.5798694522,-0.8061817745,-0.1997180453,0.1379475562,0.0190119078,0.0890713912,-0.4240108732,0.3372677778,0.0370287308,0.128992796,-0.4140186962,-0.4832570374,0.339700357,-0.0845347465,-0.5448769297,0.5406291735,-0.6963121294,0.3770863579,-0.3824288951,0.3845088064,-0.0717534314,0.1548551001,-0.8508604468,0.2807242265,-0.1575920679,0.0917378279,0.1761631942,0.6268925854,-0.4806783791,-0.9528417128,0.3331510767,0.4210343925,0.4036248557,-0.4018441152,1.0147860259,-0.7531638478,-0.5793363389,-0.7777100485,0.7369118501,-0.1215558734,0.2580867357,0.6228202535,0.1195179967,0.4730962999,0.3339343912,-0.9615151993,-0.6166858594,-0.7413992329,0.3354307861,0.670665972,-0.9682938584,-0.3839906096,0.2565765874,-0.8149331724,0.8856976097,-0.8405542099,-0.2545552177,0.887033793,-0.9241609642,-0.9703376093,-0.6373769903,0.9668115203,0.0029370373,0.5295965392,-0.7858996301,0.7812230532,-0.6740493063,0.7537472729,0.7394111756,0.0775653739,-0.4725557567,-0.3941686333,-0.57520365,0.1854243456,-0.8750324265,0.4073866376,-0.7693575259,-0.7132553961,0.6608508026,-0.0002492904,-0.2128419991,0.5783015043,0.7578798433,0.5150901541,0.8043598389,0.1891767486,0.61134627,-0.6016614599,0.8456491544,-0.7491199988,-0.3266518874,-0.0721088714,0.9096776612,0.0285855898,0.1260414159,0.329700929,-0.5521615674,-0.7828139964,0.2818188475,-0.2177720472,0.3163066772,-0.8236212097,0.8163937313,0.7087342032,0.2937843022,1.1291562547,0.9804427059,-0.0888284294,0.6956368582,-0.3986252339,-0.9838707191,-0.2407596648,-0.9319548909,-0.9660573881,0.891910751,0.3571066945,0.8472653112,0.9264444496,-0.2184324219,0.0967142729,-0.8709028697,0.3914248204,0.5806597457,-0.5900218837,-0.378670318,-0.3080310271,0.022834755,-0.1182916385,0.1756914624,0.7529318209,-0.4418537037,0.2947194407,0.0387744061,0.9704398174,0.7462789802,0.8339412818,0.9774469671,0.3457487078,0.8580951046,0.5131762334,0.2253209233,0.6380653208,-0.9311556533,0.5167782743,-0.8094703017,0.5677473143,0.2757724321,-0.8884832519,0.7698378792,-0.7316086754,-0.8229959781,0.8777583911,0.9382363476,-0.5791739221,0.0562133195,0.6148540041,0.1150150159,-0.3098218871,0.2090810655,-0.0818715753,0.1629444799,0.2073382262,0.4107524607,0.3078297258,-0.650824685,0.5227053639,-0.2041929836,0.7073087296,-0.7684002139,-0.3229900285,-0.7325758953,0.8345219545,0.5739785438,0.4455645704,0.2573365847,0.6317849968,0.7035869418,-0.3113291282,0.9825856514,-0.9249924278,0.6737429739,0.5436645077,-0.0656719945,0.5530369835,-0.3763599822,-0.0599438117,0.4430486661,-0.4915785169,-0.2626193961,-0.3915684399,0.5610547889,0.0183052332,-0.5738197155,-0.7590517898,-0.1589156945,-0.3996874104,0.8210464862,0.1354162104,0.1991478581,-0.8282671124,0.1111026139,0.9950805186,0.3651275053,0.5356374296,0.6609637345,0.7431342694,-0.9051791716,-0.5993675836,-0.4758835633,-0.1071031581,-0.0344649911,0.6233255138,-0.5149907408,-0.9673164187,0.578351244,-0.2709749402,-0.4338971727,0.865593346,-0.9471194213,-0.6774561002,-0.5192579135,-0.9367827699,0.5624088854,-0.4354146724,-0.1634837822,0.3108887609,0.3137077048,1.0074143289,0.9833590535,0.0870077321,-0.0503898532,0.1644136382,0.5452256469,0.4880306873,-0.8807994162,0.5559185199,0.7053631,-0.8950284734,-0.0856467649,-1.1263810429,-0.3985353681,-0.7587460197,0.4734734243,-0.1221717775,-0.3367840139,0.4827579899,-0.4867426285,0.2958459517,-0.0137188736,-0.3249512148,-0.7332796161,0.4867793588,0.2134353075,0.2835161804,0.6278444189,0.474457312,-0.7373220294,-0.2627151868,-0.8953759942,-0.0213468784,-0.3440741184,-0.8063556464,0.8530832734,-0.5571438483,-0.1151150718,-0.1113018651,-0.9162516346,-0.8428171359,0.8733631593,-0.2068032453,0.7944896089,-0.9060014799,-0.2862521374,1.0083465515,-0.703827774,0.5597177082,0.9299114913,-0.0277699181,-0.2453579608,0.2630379131,0.8411454369,-0.6553730248,-0.3636397649,-0.1732788658,0.6135512768,0.8313888488,0.9447820502,-0.3403396769,-0.8854720445,-0.9828311424,0.5774597732,-0.7510610145,-0.6666848349,-0.2864102444,0.0670026272,0.0598270301,-0.6498033217,0.3612512603,0.7224328083,-0.3928662402,-0.2314976243,-0.7252322936,0.8986518405,-0.6716309259,0.8637961632,-0.7430588982,-0.2521609767,-0.7983815601,-0.3382932346,0.7019306519,-0.7451701134,-0.5995653945,-0.0658032648,0.9285545543,0.0273960565,-0.6559109985,-0.0928902439,0.6969149208,0.7458353315,-0.8671083549,-0.7742299984,0.7748784617,0.1714619444,0.583042371,-0.7481010642,-0.9693373862,0.142446508,-0.6790439525,-0.2137096451,-0.8001447482,-0.3536351739,0.9461431814,-0.4415460322,-0.483717655,-0.90121339,-0.6910832616,-0.6678569706,-0.9572462465,-0.9739671925,-0.7712966732,0.1891122753,-2.3483304883,-0.6952906281,0.1317867878,-0.7378352135,0.970594816,-0.3710543562,0.6256629107,-0.4670461269,0.6352293066,0.2003424118,0.1581887621,-0.1365018539,-0.8996177271,0.2351288332,0.9788674942,0.8059238817,0.3080824831,-0.332137421,0.775299556,0.8718484006,0.5424746574,-0.8610859958,-0.6056262608,0.6985277814,-0.8310661229,-0.6050843605,0.5474691501,-0.3517397344,0.5731850432,0.261037812,-0.1271503021,-0.5153492267,-0.7464812869,0.0004346556,-0.6140299062,-0.8983187236,0.9310033582,0.739993866,-0.4721556927,-0.8683783625,0.5833997606,0.0610502486,-0.686481271,0.4328787696,0.1443873076,-0.6750647124,0.426192873,0.1253767438,-0.4212438538,0.0481431784,0.5669400215,0.7588150456,-0.4920728537,-0.6936474119,-0.7348102027,-0.2384636009,-1.0940729129,-0.9056471528,-0.1818145725,-0.0142302233,0.5676598341,0.3947439412,0.2240109963,-0.9193828693,-0.3963365538,-0.8341926902,-0.7215249833,-0.4177305948,-0.2326868229,-0.2971998548,0.766406218,0.9372584138,-0.3635154102,-0.8083479581,-0.0651801911,-0.4792471159,0.0219883361,-0.1579860006,-0.3018743316,-0.4408556121,0.5256123827,-0.2716102503,-0.4423470105,0.4039537941,-0.4912060397,-0.3343991713,0.388289485,0.5171637734,0.5963072237,1.0031333075,-0.1762659856,-0.5317582951,-0.8261476489,-0.6260876671,-0.6922179236,-0.8694976202,-0.3188547803,-0.4551985296,-0.0945878201,0.3576946655,0.2225813945,0.5746160982,0.1474537528,-0.4945017089,-0.2935914428,0.0430229734,0.4614710912,0.9250634839,-0.0270134791,-0.8058746038,-0.2159185394,0.2996370322,0.4341862603,-0.7052603645,0.2264721495,-0.9234965654,0.0927313655,-0.5859414428,-0.6027276073,-0.4145169505,-0.4799790905,0.096492513,-0.5732755373,0.1497525315,0.8026974089,-0.4899801466,-0.7213286286,0.9747165401,-0.891468713,0.6985176633,-0.3433688274,-0.8873186175,-0.5814515133,0.2416340904,-0.4942323599,0.1102700198,-0.45088988,-0.6382729859,0.0250708303,-0.9058953601,0.4205439029,0.6001101008,0.2486554584,0.6207622692,-0.4952020036,-0.9051677517,1.0168398838,-0.7042003795,-0.364769744,-0.9245075901,-0.4018888563,-0.1798676481,0.2653050182,0.6879580322,-0.4461848498,-0.8131669527,-0.7630289923,0.0516217354,0.6452025257,0.7450429907,-0.2062872093,1.0598888231,-0.7384685286,0.0409712804,-0.4591155955,1.3176867487,1.2979027519,1.5340063566,-0.6171409937,-0.6997067826,-0.4156071297,0.5290084678,-0.5686240332,0.3045096033,-0.5837471322,1.0244992612,0.5063780316,0.3482836166,-0.3662486741,0.5869066147,0.6841435125,-0.2685313736,-0.2224429159,0.865172784,0.4947654218,-0.4768630949,-0.0614896109,0.1060373159,1.0065827887,0.0969404327,-0.611029889,0.7260604297,-0.312856237,0.9314888427,-0.1023136523,1.4496213443,-0.2455991461,0.0856813033,-0.3135343828,0.1055458625,0.9501520802,-0.0474845208,-0.7651323256,-0.8910648491,0.0059922703,-4.5428674447,-0.9281788775,-0.8048070933,0.0415763016,0.6971229203,-0.7016341005,-0.1684027407,0.3141392829,0.5407342522,0.2174349439,0.3948358126,0.3998438925,-0.3249387522,0.0724657864,0.4319419398,0.9771540207,-0.146053204,0.8334336013,-0.1105118669,0.8127483847,-0.296248882,-0.0792625054,-0.2561348104,-0.7800459709,-0.4221168438,-0.3753467161,0.0780546088,-0.2808812588,0.8694217601,0.404945005,-0.5333673059,-0.4862901359,0.0382670099,-0.6353071228,-0.6794532393,-0.6599735041,0.2557731387,-0.8671431037,-0.6014566701,-0.5442156051,0.1750011103,-0.0202403196,0.6997046043,-0.128268347,0.8082393706,-0.581828155,0.6619908582,-0.4437533322,-1.0917670223,-0.16767899,-0.1831937064,0.5400549737,-1.174778756,0.0837618239,0.213890885,0.008346668,0.0726871988,0.5660324082,-1.1243161689,-0.6570976803,-0.2781732783,-0.2308914068,-1.1297317527,-0.3132877798,-0.3055620154,-0.3007385873,0.5208811713,-0.9354324859,-0.8926400746,-0.5439703571,-1.0189847523,0.5877555694,0.485077881,0.2625228495,-0.6753120337,-0.4831697858,0.4900524618,-0.9636739229,-0.8317478032,-0.9195441927,0.0105112947,0.4545383826,-0.4806971797,-1.389470686,-0.7620794373,-1.0949246915,0.1073218419,-1.2235484342,0.2015272698,-0.6878634691,-0.4036188096,0.1281845849,-1.2508834287,0.0118857986,-0.6359188839,-0.5530983829,0.082894248,-1.3590969802,-1.3316972438,0.4794192136,-0.3743324811,0.5753796954,-0.8719020051,-0.5474617019,-1.2908464478,-0.6393804247,0.534428631,-0.9472363715,-0.8607038919,-7.1173309608,-16.7679846062,-1.6184645735,-1.1475631283,0.4446847979,-1.0126211766,0.2146048317,-0.0211585686,-1.0101742204,0.3631832524,0.2223127577,-1.0377707123,-1.3942600917,-1.086347642,-1.3384421423,-0.935528339,0.4408176998,0.4620673633,-0.4020227429,-0.6579258705,-0.134878008,-1.0294360051,0.5476431914,-0.3009232469,-1.281728096,-0.590582284,0.0507282976,-0.4005930416,-0.0695297294,-1.1322629792,-0.7100119205,-0.1961648937,0.0782958598,-0.8252401405,-1.0664341069,0.0238380729,-0.4851805065,0.3753013124,-0.7027210603,-0.3858501733,-0.1625727891,0.3492132434,-1.3028961322,0.3392994275,-0.823169872,0.0143861084,-0.4485576553,-1.089532027,-0.0518823605,-1.2201533948,-0.1390408872,-0.2702063483,0.3572896884,-0.0012067109,-1.1512638386,-0.0123986274,-0.0968397157,-1.2703256963,0.3053282238,-0.9636991924,-1.1037248267,0.4366004078,-0.0551352553,-0.3300518598,-0.8084560724,-0.461019376,0.2372751894,-0.213770911,-1.0236688105,0.0182108679,-1.1043100802,-0.2029883105,-0.2356373242,0.4235373794,-0.3241430702,-0.6786510983,-1.2093131392,-0.8726111581,0.4465067013,-0.5254751883,0.3298819159,0.5679121601,0.0015314749,-0.2493962685,-6.7538479657,-1.3659522258,0.0859425249,-1.0699469249,-1.3337587438,-1.1426407649,-0.5171263477,-0.2820054345,-0.2238904601,0.2378075033,0.3523708581,-0.9169994946,-0.1199327929,-0.2064458724,-0.1158325158,-0.1822880843,-0.7137622095,-1.3422020161,0.5022524519,-1.153441561,-0.8561030553,-0.382624056,-0.5599799505,-1.0545262365,-1.2611250645,-0.9155248563,-0.5307037156,-0.0916674964,0.4252130123,-0.2181114992,0.5427995155,-0.0054048741,-0.8694739934,-0.7126505034,-0.0391194002,-0.6693400509,0.4350852207,0.2184833306,-1.3478267832,0.3592623604,-0.0857479269,0.2152799612,-1.2257436662,0.3079141189,-1.1279367881,-0.1641280042,-1.2736327695,-1.283159945,-0.6448710185,-0.9462936457,0.4541561199,-1.3258942949,0.5144970463,-0.884054335,0.4101060359,-0.5842006947,-0.300036771,0.0144300793,-0.9215757501,-0.3902803047,-0.9610098705,0.3588457485,-1.0136203873,-0.5238777046,-1.0714400154,-0.1535387328,-0.4823734916,0.2122487885,0.2477887341,-0.4920868461,-0.6078627868,0.1514619762,-0.0820112355,0.100572197,-0.8286599859,0.0190331339,-0.2009339772,-1.2756933603,0.4156677893,-1.2330057322,-0.8168825112,-0.4605424906,0.5354921706,-0.9160762958,-0.8785120533,-0.4442554502,0.365278515,-0.3648166177,-0.7967555534,0.3248271952,-1.129552439,-1.2808864035,-0.53989175,-0.9900708035,-1.1602931338,0.5682740083,0.1076954895,-0.1823926991,0.3213107622,-0.1871233281,-0.8632023792,-1.0212262573,-0.1879815951,-0.2985436612,-0.5552906902,-0.2657437495,0.2257617971,-0.2284389827,-0.1598008314,0.092178499,-0.7281568187,0.4504630051,-1.0267857038,0.4291969629,0.1433305218,-0.3383709989,0.490244941,-0.1473292257,-0.1051296161,-1.0170269352,0.4857636373,-1.3555491804,0.2074075716,-0.7938339047,-0.1758258734,-1.2858125971,0.0734746427,-0.6228808572,-0.8466742081,-1.310842135,-0.6599135549,-0.0244231993,-0.4109901333,-1.1233231652,-0.0314204279,-0.8525695648,-1.3343696552,0.3147986625,0.3013185711,0.343566823,0.5459754926,-1.1716520798,-0.3586496979,0.6032830561,0.5747154972,-0.1359034259,-0.7770313387,0.1671138645,-0.0474323435,-1.2939406901,-0.6993209092,-0.0989367839,-0.6655243971,-1.0741137328,-0.3541123484,-1.21749309,-1.2082839179,-0.3764936585,-0.0479643479,0.3170531542,-1.4388697341,-0.424349713,0.1883210868,0.1659021435,0.0658119409,0.5037354775,-0.8591090534,-0.6728572546,-1.1838545515,-0.2839325602,0.2450069533,-1.1159018861,-0.0920557084,-0.7788459467,-1.0308982625,-0.9853985625,0.3064104235,0.1009960341,-0.3879556915,-0.7773683965,-0.2320774489,-1.2118290892,-0.6978594688,-0.4959699145,-1.1061816769,-0.4072361301,-0.3889789204,0.3253502221,-1.2310960103,0.5421288965,-0.5603812892,0.3447252131,-1.2940906164,0.4327509625,0.4936735237,0.317595322,-0.5689992744,0.212225965,-0.7434774672,-0.0612081235,0.3613368015,-1.0693912211,-0.2650464855,-0.2549429003,0.3017991969,-0.7649223207,-0.4942347249,0.5279127099,-0.3452972567,-0.8859154857,-1.3479474114,-0.9452366868,0.3545696902,-0.5390279927,-0.8499658438,-1.1764880452,-0.7272061763,-1.0501359058,0.4420451431,-0.2469836668,-0.0193045737,-0.6804252159,0.4264174045,-0.7768948243,-0.8587862676,-0.8793761227,-0.6793647717,-0.9759442735,0.4383883986,-0.2798870929,-0.7907737372,-0.8351370886,-1.2462422273,-0.4850914641,-0.5985150882,-0.6886738237,0.5679399602,-0.9794071305,-0.5312777528,-0.6782539964,0.3345462229,0.0546202647,0.1066376595,-0.5984861332,-0.9751491536,0.2688444889,-0.5190134859,-0.8763821989,-0.1078638189,-0.1063813061,-1.1522598252,0.2628629038,-0.7564470245,0.286597881,0.4583309051,-1.0376131079,0.1198303156,-1.1355862875,-1.1837027388,-0.1098135387,0.2795768571,-1.387391196,0.1981406018,-0.7213742575,-0.4793237169,-0.1589614169,0.1182603897,-1.0809953719,-0.8362826457,0.342140947,-0.3580953622,0.4738725403,0.4205042339,-0.9692650856,0.0176015949,-0.2815466989,-0.971994417,0.1361349833,-1.1494980031,0.0748460917,-1.1180329927,-0.4081834602,0.0727787463,-0.1133651036,-1.0169906794,-0.4987939128,-1.2744028473,-1.372717097,-1.0297183264,0.0394772394,-0.3399108555,-0.5848876163,-0.1550243721,-0.8666184559,0.193555568,-0.5841075072,0.0228947394,-1.1196818064,-0.4731531435,-0.1900126545,-0.2968016216,-1.1873234299,0.4465157027,-0.6457505526,-0.0924350014,-1.2603429149,0.5204465664,-0.3683185618,0.5310970698,-0.4905617028,-0.0831658335,0.5064448433,-0.4110621769,-0.127637559,-0.9158814264,-0.516465451,-0.6830249327,-0.4256007146,-0.8133195043,-0.0935089685,-1.1501258122,-0.6053424426,-0.1732964177,-1.3703246744,-0.743401898,-1.4814210255,-1.3551586661,-0.0447877589,-0.8129755431,-1.335446711,0.0462583361,-1.2889671029,-0.423508658,-0.6989622424,-0.0336778293,-1.4062696998,-0.9549737372,0.4387409211,-0.6771225604,0.221789811,-0.0607276369,-0.8120989832,-0.0748379229,-1.3758108496,-1.300319174,0.4812911147,-0.1713361143,-1.17263113,0.0195483328,-0.4544029554,-0.8298641876,0.1627379313,-1.0450377429,-0.2662644466,-0.0005599384,0.2014256291,-1.218006116,-0.2900628616,-1.0898075466,-0.7359264471,-1.254685307,-0.6750742925,-0.4654425327,0.4066386774,-0.0436195246,-0.538502995,-0.9699360297,0.6178851724,-1.1094174896,-0.5243692879,-0.6807961562,0.324435512,0.2968849346,0.1291481337,0.1026854318,0.0677845459,-0.8853507415,-0.8341692452,-0.3403475767,-0.1525008764,0.552261105,-1.0552571263,0.1137103202,-0.1681262393,-1.151714566,-0.2033770807,-1.9850566482,-0.2558961752,-0.7867234129,0.0174911304,-1.2769539851,-0.6636899641,0.0976303425,-0.4864951665,0.6022296501,-0.9554048207,-1.2565714136,-0.1650166181,-0.3535002461,-0.1373482247,-1.1569243103,-0.4392696471,-0.703861026,0.1385279658,0.5260811203,-1.2399982305,0.5709821145,-1.1757382959,-1.0432462706,-1.1208310669,-2.6008555091,0.043286856,-0.5085381759,-0.0945042839,-4.307868353,-1.8440371792,-0.5064886534,0.1084911831,0.0851123696,-1.4170414156,-1.1254737522,-0.1092230403,-0.7009888455,-0.9051622137,-0.8728283615,-0.6332095122,0.4214949123,-0.1444133104,0.3243164808,-1.1856642469,-0.3582147723,-0.5589585706,-0.90053172,-0.8601029905,-1.3125049548,0.0222663279,-0.6632932439,-0.7234838133,-1.0394455196,-1.6077657527,-1.6999984344,-1.1745293169,-2.124711216,-0.9947448395,-0.4229950741,0.0377402429,0.4938314204,0.3627392051,-0.890471594,-0.9362558912,-0.0610875279,-1.2972418163,0.426653492,-0.1436378519,-0.8583922727,0.1144675792,0.1313759084,-1.3837493251,-0.0567564806,-0.8202643886,-0.8618966695,-0.4356244954,-0.2374848304,-0.4328340417,-1.1918641228,-1.0360548138,-0.1065164072,-1.0525283529,0.0064421199,0.0586126719,-0.0064221424,-0.2408991362,-0.5310885955,0.55281587,0.1730336941,-1.2285333364,-1.3312467925,-0.2862130671,-1.2107598147,0.142968929,0.3075318073,0.1843362373,0.4018425659,0.0860601301,-0.2339361541,0.1792459329,-0.8559675547,-0.1998126764,0.3070950367,0.3541354339,-0.6562190432,-1.0533052628,0.049457367,0.5583241826,-1.3815150301,0.0512326604,-0.9722101221,-1.3354027925,-0.0207909645,-0.8706965222,-0.1654126034,-1.2952624224,-0.2838119235,0.4970249903,-0.3501032614,-0.3134341944,-0.507828518,-0.7045554565,-0.6632469283,-0.4331144367,-0.7933445092,-1.2796878043,0.2142229312,0.2677509183,-0.0060993183,-1.1477477325,-0.1723014042,-0.5089186333,0.4869988534,-1.0092345748,0.3778666979,-1.2760902966,-1.0631727192,-0.4605934596,-1.2455032191,-0.2837228657,-0.8897256016,0.3931040877,-0.8469717496,-0.2568377595,-0.6627698695,-1.2572974908,-0.0514448468,-0.6912498672,-0.3475312214,-0.502603176,-0.3290677758,-1.2169047611,0.4904019488,0.1681915066,0.157722438,-0.7966561831,-0.9447565281,0.5082457358,-0.1219259829,-0.8618905429,0.135048829,0.8178643448,0.5432973193,0.3400691741,0.771625996,-0.007545986,9.6813394412,13.9415618605,-0.1193979428,0.1706246763,0.461273885,0.3767984991,-1.0442907283,0.531323026,-0.52760183,-0.3490586587,0.1715541155,0.5679396535,0.4239695518,0.8597391392,-0.5597044296,-1.1758608485,0.0045020406,0.6024773373,0.7743357071,-0.7938968775,-0.9854981122,-0.0738789709,0.8526829113,-0.4712548766,0.4906295972,-0.8944760392,0.103505616,-0.3511613729,0.1038024072,-0.5464995735,-0.5519635198,-0.5256593457,-0.306631472,-0.0299888261,-0.8706416526,0.4219651172,-0.9529325132,0.8157088429,-0.1478201384,-1.044037699,-0.3986910667,0.2712975016,-0.4013318953,-1.1121313219,-0.4711736408,-0.6717063364,-0.0429248413,0.0643002187,-0.39810705,0.7894626797,-0.5650484371,-0.3377348743,-0.9278418185,0.6728860197,-0.5762363418,0.2950970485,0.5365784084,-0.7082909713,0.4873024521,-0.0111695457,-0.4306787346,-0.7704364782,-0.9116581535,-1.2381934338,-0.0266986024,-0.6911392328,-0.7668519738,-0.387284077,0.7999649933,0.393371256,0.6710187315,-0.8741366938,-1.2046806086,-0.3028392148,-0.7294394894,0.7312091078,0.452303171,-1.0796629037,0.6795627505,-0.7973673548,0.393783209,-1.2692672884,0.2014119997,-0.6338716876,0.3394805947,-0.6269795854,-0.3784920892,0.3873469975,0.0046860322,0.1076300906,-0.8042020394,-0.7068704585,0.6331532675,0.9504286387,-0.6703114464,0.9973758142,0.6378401359,0.8642679338,-0.8586564144,0.2597739432,0.0000078754,0.4365303627,0.6759580095,-0.6289953962,0.2245613055,-0.7587571055,0.1254622089,0.7376618625,0.4417956036,0.0229040129,0.5364966838,0.9696486407,0.0456192338,0.0778931028,0.3967721594,-0.524849832,0.7185788523,0.081610686,0.176330483,0.6564678058,-0.1072252338,0.5814797609,-0.5054179583,0.3458371696,0.9724998215,-0.8576349013,-0.890468756,-0.7424424038,-0.8430197679,0.7966890191,0.8349723477,-0.7257111171,0.7105203969,-0.9908576268,-0.7600342026,0.3256555438,0.0556614007,0.1043301149,-0.2791526338,-0.3975665848,0.8050974628,0.8653703706,0.7463676242,0.6197376649,0.1136285309,-0.369223601,-0.8002962009,-0.114769565,0.8975380179,-0.75090918,0.1947178203,-0.3691179083,0.2055035742,0.7787441881,-0.9584339113,-0.7868466872,-0.4211984766,-0.914326972,-0.2417750582,-0.5829523653,0.3625324866,0.6420724795
   -0.4070192669,-0.438691549,-0.347441144,0.6205736106,0.9664547187,-0.9687285733,-0.5400857685,0.9431624577,0.4290588685,-0.4532186827,0.3630254372,-0.235007296,0.3284557331,-0.8347114509,0.8360616571,0.6737854619,-0.8982233616,-0.4333440979,0.5677149344,-0.3708780984,0.4214278829,0.8797770321,0.6774676292,-0.659946958,-0.547104597,-0.8601910853,0.9247523321,0.3430296314,-0.6035601398,-0.7513639651,-0.8852161552,0.5482880281,0.7459089905,-0.6197262382,0.515625067,0.3121568877,0.571539661,-0.495182349,0.6026102453,0.0842490583,0.6635575516,-0.4092190905,-0.0865109481,-0.2019773259,0.1382182264,-0.1381887391,0.5410497774,-0.4434058255,1.000203766,0.8304475102,0.9913265442,0.5368974319,0.4690782495,0.3874054357,-0.4140591656,-0.1347219013,0.7306728871,-0.189262648,0.0551782586,0.251870807,0.6839443756,0.5463292759,-0.6286196166,-0.4525863735,-0.5435627391,-0.6579892863,0.3391950708,-0.4390320423,-0.9904396765,0.1597562624,1.2200482677,1.2861703122,0.9542349609,-0.0945360452,-0.1389857392,-0.9207863268,-0.4364573038,0.1180087419,-0.8564985473,-0.7554687433,-0.4820768071,-0.4266389621,0.0539038461,0.1988135363,0.5459854988,0.2206631683,-0.4251356803,0.4188826566,0.9375079177,-0.6109003064,-0.1155855363,0.6766765837,0.4609603034,0.7415072205,-0.7649370812,0.8464640634,0.3114271727,-0.5846690209,3.57637696,0.2762617735,0.2877429417,0.9418926782,-0.5886836037,0.0342149802,-0.0555922299,-0.1830679628,-0.3875138924,0.9815733134,0.4071234688,-0.3240462567,0.731767044,-0.3694702442,-0.9651305145,0.8909837638,-0.1938204928,0.3583418567,0.237030459,0.4487376916,-0.738757669,-1.0103534103,-0.4236847151,0.2381027421,0.1852838632,-0.0712776258,0.0150082784,0.9762398099,0.562857981,-0.6380847182,0.4097253068,0.3662855574,0.7589279779,-0.0228273019,0.8120428307,-0.8154842473,0.3169862526,-0.0435574756,-0.8110462069,0.0062123701,-0.7109649505,0.9415768531,-0.4046692546,-0.7247057661,-0.2872969311,-0.5659682509,-0.9303796893,0.1526895248,-0.5620442202,-0.6415254485,-0.132220311,-0.2262320472,0.247387133,0.8674439237,-0.1801594202,-0.3564190984,-0.975541681,-0.0405469705,0.648619437,0.8050091555,0.3824928324,0.0376036982,0.7815940517,-0.4403558095,-0.65846959,-0.4746877739,-0.8305596937,0.0880474739,-0.636709207,0.2116959052,-0.8942430062,0.7755176412,0.0361250038,0.8967401422,0.4698154089,-0.2911058292,-0.1338401408,0.6486745918,-0.3989175076,0.7425475881,-0.8444593797,0.6612353016,0.3121019904,-0.1744522808,-0.509091842,-0.468114024,-0.4626632428,0.4494211976,-0.2387700027,0.2751655819,-0.3641347695,-0.4905666503,-0.8184105537,0.1795086269,0.6274845729,-0.8369777368,-0.5296433418,0.5111511406,-0.6573008905,-0.8749550041,-0.6578910648,-0.5857787559,-0.4216619512,-0.264462591,-0.4649101136,-0.0441522907,-0.176963814,0.0339388383,-0.4543170726,-0.563199336,-0.8891152589,-0.1075292167,0.3900293229,-0.6590829154,-0.1468986025,0.5372279855,0.4265523628,0.3648019417,-0.6891576055,-0.6219002188,0.7039710558,-0.6521112069,0.8867418567,-0.0114791795,0.5216354609,0.1790299653,-0.1282136867,-0.4596744524,0.9710037979,0.5394099436,0.2508675074,-0.9603749989,0.9544526516,0.2737961517,-0.27230152,0.3907675198,-0.6898475259,0.3384776837,-0.5708718201,0.7852595546,0.3977043548,-0.368950683,0.1704015205,0.3730402008,-0.6821411111,-0.9743985916,-0.9176394401,-0.1974938779,-0.5698309669,0.5320420734,-0.1105257267,-0.8355387078,0.1397838267,-0.6106175273,0.8976963637,0.3490626048,-0.2397887683,0.7606399819,-0.6474425723,0.495458551,0.9761314079,-0.3880720701,-0.2456463989,0.8827520336,-0.3431604524,0.8987279493,-0.099831415,0.0490138472,-0.0557056117,0.5187090877,0.3242071743,0.7214626348,-0.8784715114,-0.4521428804,0.2595289795,-0.1672916016,-0.5590277101,-0.6348973287,0.7725339516,0.3463378746,0.9102130839,0.6502055651,0.4300098601,0.5549458208,-0.3085319706,-0.034585497,0.7405182438,0.3236358047,-0.7693918932,0.0377126192,0.4250591007,-0.6153252429,-0.5526656541,-0.3016444097,-0.3621593806,0.0815913424,0.5937406722,-0.4035750418,-0.9921670391,-0.076628386,-0.7680656411,0.1583322837,-0.1983403061,0.5285213401,0.4722703879,0.0546533218,0.1201659894,-0.5341006459,0.7715349398,0.8175164168,0.5940165277,0.1992493786,0.804651509,0.0674939527,-0.5883416225,0.1353340121,-0.6759390117,0.1821216017,0.1301490607,-0.8888260264,0.0466861107,0.780069362,0.5595772466,0.5563363791,0.2225631992,0.0490653823,-0.2077354003,-0.583297307,1.017914404,0.0458455815,-0.8204323986,-0.305382212,-0.0201526945,-0.7322244011,-0.3113017113,0.3221049279,0.5736587644,0.8625326721,-0.6432643878,0.2425447153,0.9703220761,0.708640698,-0.9211188105,0.5023557464,0.4625910904,-0.7750805918,0.5136371557,0.6511044631,0.8740495676,-0.6939383171,-0.1529255843,-0.4028153279,-0.9445113083,0.7008160684,0.3428884747,0.3283585502,0.7021649256,0.5125100919,-0.0150048792,-0.2983088839,-0.4027899136,-0.4147386553,0.6464380021,0.9166401786,1.7325540725,0.7601966462,0.81581594,0.3522288205,0.1948656839,0.3352270402,0.5086038389,0.5644610603,0.7188286825,-0.2546401539,0.0926857845,-0.83398723,-0.8372310123,-0.9487548722,0.2153268556,-0.2917805658,0.0202239804,-0.4892070472,0.0958471874,0.7233926158,0.1808176948,0.4615112299,-0.7697476655,-0.3049928576,0.9822968555,-0.4730563074,-0.9106479216,-0.1433086804,0.6283260652,0.0438905553,0.6567799964,-0.3487042855,0.3782272968,1.3353222675,0.8760322219,1.0414968632,-0.003581178,0.204354318,-0.633355595,0.4471352233,-0.3018927511,0.2722303607,-0.2501780667,-0.7322964709,-0.7404982921,0.9532703661,-0.0076384602,-0.9589674015,-0.5556976935,0.0755481674,-0.237088796,-0.17494267,-0.6532924438,0.1382100718,0.2393858765,0.758804322,-0.1084447547,0.6482566707,0.7236529093,0.2687227708,-0.8357352745,0.1219816651,-0.898575894,0.2623401026,-0.3589635486,0.1350785956,0.0799424016,0.1547132614,-0.518581124,-0.5594089155,-0.434373173,0.8411627501,0.3392851387,-0.116336396,0.0959478714,-0.7929689278,0.5733971497,-0.0751857867,0.9326627645,-0.3427139197,0.9231184597,0.1600653973,-0.2048765368,0.7840625528,0.9785593823,-0.9674156604,-0.1025976616,0.5315000879,0.1969714068,0.7578853686,-0.5824981128,0.7449840627,0.5448720742,0.4763881294,0.8879403467,0.7915727014,-0.1108737751,-0.2265603855,-0.4892827088,0.9817484299,-0.221541713,-0.8507806181,0.1426071007,-0.6603570897,0.2243618806,0.1107775994,-0.9655105735,-0.6513063084,0.601291018,0.4426672636,0.0823140894,-0.8836726154,-0.464070636,0.4346247535,0.1433226392,-0.9536742084,-0.798404155,-0.1302735039,0.1427473063,0.8425030059,-0.818467031,0.0559894133,0.0075841122,0.0249214581,-0.156421864,-0.8038196563,0.7811406052,-0.2391934399,-0.5270171019,0.2243341421,0.3229919855,0.224302319,-0.783895008,-0.0372385048,0.1444050561,-0.1589075682,0.7036290395,-1.105141993,-0.3139904713,-0.7704302773,0.1405945575,-0.3667273861,0.669678569,-0.7412153853,0.8592487925,-0.9021367362,0.5134649779,-0.2165107646,0.3619152106,-0.5037833287,-0.8509124015,-0.9493459271,-1.4892186318,-0.7782903799,-0.4712996189,0.9068572062,-0.8369921708,-0.3228074284,-0.3850927379,-0.9493092809,0.041966126,-0.7204719287,0.7051640864,0.4207295556,0.068018646,-0.4965791144,-0.6497992707,0.2510925065,0.418999708,0.6389816093,-0.1756933678,-0.473521897,-0.2135198132,0.2727711731,-0.8035654089,0.9043147219,0.7185542702,0.9393812689,-0.9955396564,0.6163678681,-4.6471496555,0.6869695879,-0.4973519464,-0.5407388715,-0.1777183972,-0.3546315084,0.0024068149,0.6601590894,-0.74344495,0.3949689645,0.9408818039,-0.8448384814,0.6400447019,-0.8229885547,0.6887758731,0.4719436742,-0.4752317025,-0.6653045586,-0.9592677342,0.9000784442,-0.3106793884,-0.8271046856,-0.2136019885,0.7785257538,-0.88634263,2.0020852261,0.162666829,0.1306704083,-0.5247557232,-0.5806469094,-0.1330480352,0.0845649078,0.3954097777,0.3002416151,-0.6168973486,-0.1578938641,-0.9339702623,0.3817608105,0.5542803756,-0.3582723735,-0.9230520414,-0.8455549738,-0.3536780395,-0.0660640802,0.6191815643,-0.3237590026,0.222311403,-1.3376968299,-1.4042070508,0.8158590855,0.7396472119,0.4165206054,0.4396739381,0.9197541044,0.9118167512,-0.9023955751,-0.076229556,-0.5823734992,-0.9841746303,0.1265453638,-0.7134108687,-0.0252872434,0.3525598553,0.0979615345,0.2012412386,-0.8748454812,0.2981838006,-0.7654682064,0.5000142212,-0.16062902,-0.4220405364,-3.0087106143,0.2469396221,-0.6537413372,-4.018245426,-1.6977504416,-1.409180376,-0.4230095881,0.450683005,-0.3811224743,-0.4202792667,-0.7901686888,-0.6656143642,-0.3936218491,0.6977799747,-0.9452635132,-0.1602113988,-0.1776639771,-0.7913969741,0.850095385,0.4667712225,-0.8268701142,0.1651041344,-0.7118609897,-0.8069056555,0.2854477943,0.3843400608,-0.3821466953,-0.0115251585,-0.6169564008,-0.4453773267,-0.5761786817,-0.8742485247,0.6419773363,-1.0794508779,0.3161984973,0.3244926443,-0.2017057839,-0.9613999777,0.8454980158,0.9045017937,0.8860959935,0.2388030273,-0.3561100883,-0.7560827759,0.5923690331,0.3681276876,-0.245396692,0.905745679,-0.7835128378,0.0363951309,0.8086808534,0.3591447882,-0.7607066443,0.8114416535,0.0802969935,-0.1024869935,0.830363753,-0.3978213059,-0.4693242461,0.3591205747,0.2007984529,0.2572939495,-0.8371325193,-0.8463060543,0.5117788881,0.6524373124,-0.7596971807,-0.0209377756,-0.8208873213,-0.831238511,0.2482532892,0.5164598882,-0.5497005914,-0.6472289562,-0.2731807492,-0.1346359007,0.4082217403,0.6140230657,-0.8831800104,-0.0621394023,-0.6698293601,-0.443301723,-0.0573592691,-0.8294635213,-2.931398743,0.2712824498,-0.8020573715,-0.8911649629,-0.5395298398,-0.5558989478,0.1114131639,0.814345292,-0.0586282215,-0.0043517185,-0.7395664889,-0.4818487382,-0.4720157304,0.7335807711,0.8955417157,0.5621225581,-0.9493043288,-0.3408751755,0.7209998592,-0.4423312401,0.2676004509,0.095101695,-0.2481047247,-0.7635428227,0.1512557082,-0.6819360218,-0.3639202895,0.9163480933,0.5089550142,-0.3762293174,-0.064825828,0.7449620855,0.2425830821,0.6204097208,-0.3668040029,0.3734206601,0.071692715,0.8841995892,-0.0189228071,-0.627264006,-0.2329701044,-0.3929697372,-0.5576233812,0.5427218262,-0.9744663954,-0.5546001748,0.2664318416,0.1952818596,-0.4394234944,-0.9421374427,-0.8966694563,-0.8319123312,-0.8934660875,0.0337392018,-0.9447856011,0.3900404473,-0.4230372415,-0.8185645163,0.6730016877,-0.3450453734,0.6485457779,0.2904767938,0.7847729521,0.6582226981,0.398465691,-0.2424516284,0.3650679946,-0.5518326939,0.4330884992,0.1392792018,0.1810087057,-0.5141956746,-0.2248241399,0.2925822288,0.0628800914,0.538693459,-0.9197538157,-0.1951618847,0.3961725015,-0.1717575346,0.3810402484,-0.9705434776,1.0041541068,0.7128414587,-0.5742755016,0.5069449415,0.5406842405,0.5868812299,-0.2145070311,-0.2387810468,0.9494757372,0.1060929539,-0.2663729094,0.9137086244,-0.9501142469,0.8551536789,0.6037896499,0.1090366708,-0.5420890049,-0.6245900009,-0.8415268784,0.1600248714,-0.2880495552,0.5407259065,0.1778698123,0.5385712103,-0.8165717872,0.4304494712,0.9358938085,-0.5006576913,0.0268273217,0.8505980265,0.1540545773,0.8265322232,0.4337943976,-0.5441909726,-0.3945898927,0.2151824419,-0.4110780765,-0.3443094399,0.4161741842,-0.7102703159,0.8559911673,0.3982256545,-0.8942858914,0.9758077598,-0.1634406762,0.1461352195,0.6374199605,0.3565488167,0.2584648104,-0.0915910909,-0.753651557,-0.2003880798,0.1861442227,-0.1638126372,0.1519591664,-0.0018338423,-0.4419081264,-0.1740230634,-0.1826281659,-0.6254337236,0.0116062871,0.8799861216,-0.0652989765,-0.4464753861,-0.6464156963,0.5632327253,0.3484129552,-0.7371239123,0.6406954492,-0.1217760949,-0.0258813969,-0.2352073261,-0.1979628318,-0.3374724565,-0.4221816975,0.8585946887,0.561842391,0.689283969,-0.0502187226,0.0423511891,0.9100254863,-0.8277171976,0.4271792846,0.1489904291,0.9548780223,0.2612458278,0.4782772807,0.2958130892,-0.6130692394,-0.659536226,-0.8533720815,1.0243029742,-0.8172293406,-0.3149664754,0.8574890862,0.8779529421,0.3176670564,0.0531542961,-0.655300263,-0.3082582566,0.8214492595,0.3915327001,0.6389442299,0.4966782163,0.0531443823,0.3805387011,0.766446622,-0.9199427045,-0.2781566839,0.7206095608,-0.009582163,0.1387950462,0.9841013095,0.2192777284,-0.5767202941,-0.7121380884,-0.3829123263,-0.8657113884,-0.0162939664,0.3113370057,-0.90366462,-0.7932946148,0.4861431016,-0.2370962695,-0.2376866273,0.0825331347,0.7639894417,-0.6123751959,-0.0033303894,0.8221713602,-0.4404425915,0.9525985081,-0.3786079187,-0.5900888586,-0.8583781361,-0.6219790677,0.1852108539,0.3906922437,-0.1446008599,-0.4237416442,-0.4363866333,0.834920041,0.0848151462,-0.8208167603,-0.452334252,-0.8864272052,0.8892256386,-0.6927376786,-0.1924703194,-0.7556358355,-0.8124564633,-0.7326299186,0.1762857903,0.9246275337,0.492528351,-0.234642746,-0.8001106474,-0.3050846989,0.6959416162,0.6016470654,0.8573769387,-0.4088197986,-0.1059522791,0.3250956137,-0.8753142614,-0.91814376,0.0534760356,0.4080203926,0.7693026547,0.5152633624,-0.4012750057,0.0538031855,0.5270536371,0.5927671993,0.4031813346,-0.8019255601,0.5803223559,0.8157654569,-0.2270522092,-0.6079086374,-0.3796447628,0.8016623826,0.6578007467,0.8717711204,-0.7571515322,0.6779874814,0.6159728568,0.6533364743,0.0430304473,-0.7266924378,0.571605163,0.9512741021,-0.7867934992,0.3350892315,-0.0903132599,-0.4788886418,0.5510632915,0.7371695147,-0.6010232406,0.7506580021,-2.107905123,-0.0757960868,-0.6084515121,0.6405428576,0.1341189216,-0.4759847651,0.7224133617,0.9467946467,0.4109775451,-0.0502181931,0.6355618507,0.2807409668,0.2064040689,1.1217197418,-0.1753481999,-0.4492644776,0.6829780281,-0.3005715577,-0.8604243132,-0.7335639305,-0.054215823,0.5593214712,-0.7637055099,-0.4523439115,0.1776343048,0.6894810694,0.822142547,0.0607760275,-0.1153082848,0.5827004919,0.0200332797,0.7345181694,0.07774846,0.039461139,-0.9823499284,0.4316615747,0.0653902771,0.4522459805,-0.6452232144,0.6119295269,0.3813498022,0.3453488576,0.3460627287,-0.6260730072,-0.122029938,-0.3958936728,0.370332081,-0.0851060118,-0.6231428082,0.8859926457,-0.929018668,0.544327374,-0.7971137806,0.2758540907,-0.567044756,-0.8068021639,0.461592215,-0.0341539322,0.1833921321,0.7795985302,-0.2624539865,-0.2882376267,-0.9351678772,0.3830363739,0.5630548802,-0.0904075522,0.3473422889,-0.4999415614,-0.1797961436,0.5294668171,0.4593389927,-0.7167305766,-0.7982138032,-0.139559477,0.7146612023,-0.1376158246,0.337297866,1.0141440547,0.7469825179,-0.250337179,-0.5256695816,0.7657921907,-0.5733121982,-0.0955992059,0.8463599534,0.9852764754,-0.0949905552,-0.4354699904,-0.2568216839,-0.8671359935,-0.5335358019,0.734090028,-0.758489555,-0.4289105659,0.5338425396,-0.2873126837,0.3190206815,-0.941897713,-0.5377962124,0.3805584543,-0.2346952601,-0.6589919422,0.9773569269,-0.0626329913,0.0750203439,0.101649942,-0.3292192319,-0.1011646962,-0.2793761086,-0.0515941583,0.8564322505,-0.4582757146,-0.0978555338,-0.0373708343,0.951299236,0.6884851263,0.0408483039,0.0780391298,1.0128253739,0.5156367699,0.1099080423,0.7357147008,-0.2474931204,-0.9352271953,0.7292083901,0.3043761967,-0.6907282591,0.5376066632,0.1561211881,0.7553416404,0.6188563229,-0.0281711491,0.2936917637,0.9118239411,0.3581919288,0.6382485172,0.2884305104,-0.3606519602,-0.8868899321,-0.9005440622,0.4189358476,0.4313489068,-0.6766301098,-0.4948675249,-0.1960424698,0.19835035,0.6702357279,0.3589110197,-0.9013771294,0.4483576748,-0.8149359502,0.9339698338,0.4154091605,-0.4347639288,0.1935983148,-0.6395475771,0.4553622596,-0.408395708,0.1145922345,-0.4947380039,-0.5559922387,-0.7510409612,-0.2098556808,-0.5018303594,0.9723705216,0.6879594989,0.7254157194,-0.1627419753,-0.0544163787,0.1968363463,0.472681863,0.85233083,-0.4491311752,-0.3325719003,0.0264211978,0.0909879835,0.5988673397,-0.9660737544,-0.0282778484,-0.0712220068,-0.6166966655,-0.3886014966,0.9093985236,0.9999961457,0.0044728981,-0.4531763205,-0.007547971,-0.6908156011,0.5247158871,-0.6255760853,-0.5211361479,1.0119019741,0.3833439269,0.4150482864,-0.519596944,0.0921126395,-0.3083325889,0.5192767698,-0.5855418042,-0.6095163135,-0.4631041577,0.3845051008,-0.2120881134,-0.3112191801,-0.2195840641,0.374704217,-0.8686814297,-0.2582245508,-0.7350555462,0.4717787136,-0.7716161552,0.5485870971,-0.5447975926,-0.9538274824,-0.9115668088,-0.9767406668,-0.2308910458,-0.8352872143,0.3479262887,0.8056739499,-0.6067737991,0.1074265815,0.3695426627,0.4147733282,-0.9092563384,1.1405465708,-0.4664042467,0.7532593265,0.1255206602,0.1861293631,0.1399128886,0.9427857235,-0.0557052814,0.6801524771,0.5483660207,0.9651485856,-0.3346854002,-0.3414595259,0.7202579096,-0.0736942918,0.019895521,0.0872673362,-0.5240592438,-0.3879161325,-0.7960329407,1.0257218056,-0.8376708416,-0.8421956559,-0.9155399772,-0.5070058952,-0.4657885545,-0.8993714059,-0.4853111968,0.0938549705,0.6510203889,-0.2694873536,0.8062451306,0.7795517319,0.4798453665,-0.4656775681,-0.8377379277,-0.8821503164,0.9599041053,-0.463689898,-0.1444952019,-0.2671268059,0.816087969,0.7020214391,0.7570446591,-0.2967130089,0.9726366289,0.9801771085,0.9920882677,0.0518514057,-0.3378673981,-0.7417716297,0.6664006593,-0.8666518924,-0.3216308988,-0.2593359695,0.8981653166,-0.6984759857,-0.1966016576,0.0965262626,0.0578628179,0.7843816643,0.0433008765,-0.6065560732,0.7479323364,0.3888659251,0.6434647667,0.4516787006,1.003779368,0.0813505807,0.4414020833,0.2623944551,-0.4286559728,0.0194726105,0.3853307282,-0.5134169892,0.5772736362,-0.0475475523,-0.6907259037,0.7425384752,-0.246751059,-0.4633975467,0.6138770475,0.3263503618,-0.0947371715,0.6612802531,-0.1289861668,0.2640040513,-0.780069506,0.7010512386,0.1181699925,-0.7475438669,0.7777617234,0.1507261409,-0.7041646054,-0.7124608769,0.9364403224,-0.213492075,-0.2489154372,0.9061751297,1.0439320952,0.968873919,0.778009522,-0.1799562402,0.4308874281,0.5220108157,-0.2848980243,0.7195764092,-0.0113756762,0.8868752216,0.905347109,-0.6672548454,-0.4983181022,-0.7986745444,0.585611154,0.4345244028,-0.8863727863,0.3902361752,0.9390696238,-0.5335672543,-0.6134676028,0.0081744622,0.6001002385,-0.937723483,0.1740634951,0.1226048123,-0.0752072303,-0.7949493636,0.1119587474,0.4427484228,-0.1014552508,0.2092062423,-0.6962103544,-0.7282494203,-0.5611868565,-0.3674525967,-0.5195286463,0.6969605359,0.5638927992,-0.7086900381,0.2961955702,-0.8716293166,0.5533289061,0.7307714535,-0.4739083925,-0.8066747456,-0.7918584461,0.2371090203,-0.0461816481,-0.4553545488,-0.7554904376,0.4648443939,-0.0923825205,0.0396229472,0.4808356912,0.9099485753,0.1269638078,-0.2077668319,-0.711019637,-0.2640219649,-0.2435535316,-0.6493648529,-0.1512727357,0.2105422128,-0.5131922534,0.3496410228,-0.6008610163,0.4407921763,0.113771812,-0.0132352931,-0.7973503273,0.0899211538,0.7266601084,0.0693031296,-0.2962424512,-0.8763718312,-0.1242003688,-0.504426672,0.8890540003,0.7043501838,-0.0416588441,-0.912924565,-0.526530818,0.6393523706,0.2274702408,-0.8535581726,0.3050055363,0.2730357534,-0.6295007516,-0.6075947678,-0.3389334985,0.6553898733,0.4207942375,0.491067554,0.2059658689,0.2226669725,0.8199357574,1.1666756979,-0.4634739887,0.7182787722,-0.6801064316,2.8034464307,3.8305154917,3.2110532099,4.7652450883,1.0281323186,0.2358811379,0.5840891272,0.6813623203,0.5292186017,0.0905468661,0.830443865,-0.1710675058,0.9171693792,0.2267369428,0.9597130997,0.3340022858,0.2041406054,-0.4943073918,0.50463409,-0.4274777407,-0.7822941132,-0.7655228456,-0.6692350267,0.9395993811,0.1266068119,0.2323172238,-0.2159643188,-0.566365716,1.0123736359,-0.3824896225,0.4439338447,4.0618074486,0.2877882433,-0.7888851907,-0.8633557319,-0.1675061704,0.1598752055,-0.7932555822,0.395545863,-0.4025617529,0.6777918603,-0.5484311466,-0.2726060178,1.1424116293,0.891428586,-0.5370928356,0.9057630522,-0.4063778784,0.7879010936,0.9082877045,-0.5422986568,-0.79050179,0.2665339728,-0.8445968508,0.3116663151,-0.7903413459,-0.2461385521,-0.7879118287,0.8390868392,0.5505025736,-0.7382222347,0.7643588613,-0.9209138658,0.4526842823,0.9817916436,0.0295910082,0.7063294915,0.1577213758,-0.5029819312,-0.2079489267,-0.1697950315,0.6710357372,0.3068796083,-0.0273667827,0.1976310226,0.6037370648,-0.481883048,-0.5972277267,0.4730977049,0.3110842671,-0.0819434266,-0.7913293022,-0.0216717423,-0.861767819,0.8871705517,0.2881071647,-0.2914001294,0.3327586923,-0.9229721932,-0.1499186377,0.1250092057,-0.3831816146,0.0276078242,0.1040491119,-0.75997503,0.4499951391,-0.8616854327,-0.316511797,-0.8238879254,-0.8544683172,0.234807703,-0.5244552012,0.0192840481,0.6834874057,-0.0677156793,-0.22622968,0.8936221902,0.7970772884,0.2441751243,0.17187803,-0.7144069683,0.5933474994,0.8626654911,-0.6229777579,0.0591080977,-0.363804986,-0.1298079058,-0.9131396142,0.2776839291,-0.1238737877,-0.1875272236,-0.9110320781,-0.8365834427,0.0710394032,0.2417478057,0.0235310652,0.8689718279,-0.7483245411,0.6976820005,-0.2634476564,0.1646095365,-0.7493664473,0.1420860352,-0.068918692,0.4355121639,-0.7297615147,-0.3524417042,0.880900906,-0.6044173005,0.0354204956,0.6888944265,-0.3123606591,-0.0860289704,-0.3169323326,0.9750103436,0.7943268246,0.3225138571,-0.7763921965,0.4823819482,-0.2691572723,-0.8269795793,-2.379227268,-1.9705483827,0.9902070069,-0.7803724352,-0.9640783446,0.6632392991,-0.0795933635,0.8330904682,-0.7593088844,-0.3540723746,-0.9860659532,-0.1737086511,-0.7597012093,-0.9731681433,0.5062331493,0.2023648615,-0.1094057429,-0.0687157131,0.5835205329,0.9609430628,-0.3904943689,1.0002764201,0.1944038507,0.1851229585,-0.7711773204,0.7076988292,0.4034968224,-0.2821002736,0.9236721198,-0.2559766949,-0.810924411,0.3955386169,0.5925397854,0.1145126737,-0.1194535234,0.661378815,0.3490270205,0.5734309153,-0.2403393431,-0.1655078263,0.9835375473,-0.2493998627,0.0707526072,0.4160583399,-0.9430028921,-0.6363614078,0.7822850119,-0.7923491805,-0.7299232493,0.4159457646,0.3840987442,0.8289477769,0.4326638449,0.3037175518,0.8424661233,-0.0918265681,-0.5252939351,0.2660573188,0.3340023356,-0.5706996062,-0.4342255696,0.7850109198,-0.2094426334,-0.4539673867,-0.5639504272,0.875044873,0.3619610367,0.2754203794,0.7482881878,-0.8874582614,0.7463636198,-0.2418645848,0.0126146519,0.5758795183,0.1317033885,-0.8559689072,0.2137535666,0.5704581309,-0.252117983,-0.0313056389,0.4552598263,-0.8092092956,0.2466224026,0.0432734641,0.8108818318,-0.6142644631,0.8854170438,-0.8671544596,0.2393852383,0.1067620209,0.8326730604,0.8016048505,0.1651633323,-0.8936496731,-0.3963597667,0.6602023031,-0.484369481,-0.3442726243,0.9354636209,0.8195078005,0.9874022376,0.8172806321,-0.9453126991,-0.207245118,-0.248980667,-0.3684096064,0.3410577713,0.0285813722,0.2037758351,0.3860976651,0.9231897423,0.6804150848,0.6923887591,0.42461259,-0.9582451545,0.3879113247,0.6187242885,-0.1887657649,-0.6793448519,-0.9765891257,0.312051504,0.9532660585,-0.5138857386,-0.9283711717,-0.2851110293,0.7825914801,-0.3042720258,-0.2464487104,0.3234166137,-0.7182756563,0.0750467123,0.3444787906,-0.5469607894,-0.0799887787,0.1589777653,-0.0599567978,0.4411284269,-0.5665161413,-0.7775280674,0.22774847,-0.8062923416,0.8538008091,-0.5315246377,-0.2689416581,0.449129655,-0.2328945879,0.2475249131,-0.806794464,0.4171853977,0.1057378572,0.1204492562,0.9461438099,0.9340861111,0.138648995,-0.5182282364,0.5165432798,-0.7226132981,-0.4336459047,0.26316952,0.1584991614,-0.2836673981,0.3384767144,-0.9567530612,-0.9116656159,0.6037637573,-0.3153551786,0.1906719639,0.0774925604,0.4383120405,-0.3145255785,-0.8099403157,-0.0516562974,-0.2480534511,0.1749666292,0.8699564841,0.7071070209,0.6579883014,0.739377355,-0.9161955518,0.1056099566,0.2491804697,0.4261183988,0.2389180553,-0.6393915002,0.8651436022,-0.1432857441,0.3275180649,-0.877567964,0.6877954495,0.9275053893,-0.6937802357,-0.7947246576,0.4003668833,0.9617840065,-0.4382240501,0.1656584693,0.968112776,0.1758691811,-0.7342369076,0.5431845495,0.0033668509,-0.2949563167,0.3747527157,-0.5032570642,0.374887396,-0.0718204444,-0.7886489821,0.2643712555,0.3448050691,-0.0039216112,-0.0242985336,-0.2937188694,-0.0355310373,-0.6546184816,-0.0563332759,0.3057644377,-0.2905464164,0.2068910264,-0.5366030794,-0.3837959452,-0.5716262127,-0.036675025,-0.5491733181,-0.4041551188,-0.6659051482,-0.8868416466,0.2005910314,-0.0499654899,0.2425443209,-0.2236328215,0.4952701248,0.7993020082,-0.7281297694,-0.2526674472,-0.2678243137,0.4373108674,-0.4988102549,0.1528376245,-0.9791181188,0.8288151884,0.6072177803,-0.9021108175,0.6042069682,0.5767594083,-0.3738626146,0.7516055108,-0.3422154158,-0.2835972467,-0.6115330686,0.5170236151,-0.7188563327,0.9010418476,-0.5631605314,-0.6563012562,-0.6781931932,0.6935827999,-0.2118508301,-0.7318730862,0.9642467595,0.0143192714,0.943911405,0.8507000703,0.1545576492,0.1951819398,-0.8552359907,0.2799823366,-0.0861856322,0.4595534363,-0.8684638371,0.7492040009,-0.6348896807,-0.8682678615,-0.7415155932,-0.7201803837,0.9343667293,-0.4403643451,-0.8155362623,-0.2277117466,-0.5642185449,0.8585297925,-0.3878202923,0.4878539291,0.5144134083,-0.8242985965,0.7800656266,0.770919112,-0.2549785483,-0.3888533271,0.1066122087,-0.1417682093,-0.6676140985,-0.1246621776,-0.2700640166,0.3792500313,0.6800992372,0.0994899818,0.5387971074,0.9208107414,-0.5711344881,0.232815201,-0.0137890534,-0.9737447125,-0.8004365847,0.454977352,-0.733577791,-0.6230710044,-0.9741968045,-0.3356201726,-0.2571410693,-0.0074441817,0.9881286144,0.386999696,0.5421779372,0.1672321663,0.4705405272,-0.3557847892,0.6141404361,0.6493634284,0.873373158,-0.8304143394,0.7671468756,0.5167919198,0.8016430863,0.940549187,0.1428404805,-0.4974574335,-0.7136732405,0.9589869424,-1.0332752312,-0.8866886185,0.5857004045,0.7349331616,0.0927424504,-0.0866287451,0.5489774491,0.1447460124,-0.2503015445,-0.9362642056,-0.9519037843,-0.1073888655,0.0998877032,0.9637602881,-0.098183495,0.2510069873,0.0922985997,0.1327872151,-0.4905079803,-0.8728107634,-0.9155318719,0.3906112295,0.0847480291,0.8757157301,-0.8837340942,-0.5033307639,-0.6473645913,-0.5854759194,-0.2992556393,0.524671309,0.6907496458,-0.2790130565,-0.2313110809,0.6978372848,-0.8577970008,-0.8471673059,0.1721715015,0.0720041673,1.008577472,0.3405691508,-0.39566619,0.2545946906,-0.1536167646,-0.7961281798,0.3174238672,0.9443994627,-0.5470573453,0.2490257505,-0.4456850343,0.8224006499,0.3421051225,0.1352395466,-0.097372647,-0.7776350541,-0.4483750344,0.8860778141,0.7100773984,-0.9727803147,0.4312387003,0.0138568078,-0.3381324593,0.3538089846,0.6574842511,-0.0542284912,-0.6119334155,-0.5894678638,0.3024531392,0.7621451315,-0.9671531847,-0.4238158102,0.584510709,-0.969563835,0.7203080099,0.5067196542,0.7571827229,0.3265355472,0.6324068214,-0.5933209179,-0.9086851008,-0.7396258755,0.0756233302,0.9216970307,0.0300884917,0.2465699368,0.0781180615,-0.7123058521,-0.609954536,0.8559766528,-0.5488769846,0.3399780841,-0.1835329046,0.5271333528,0.8642395041,0.184239909,0.7671517358,0.1948666054,-0.2116390177,-0.7948311579,-0.2495332061,0.4232209594,-0.1541606458,-0.0435037369,0.26426112,0.9174672156,0.0898158489,-0.9564114835,0.410984315,0.52343503,-0.0327620456,0.0207327601,-0.3246708422,-0.3517005503,-0.4084556371,0.6456203022,0.204802444,-0.7121867165,0.1479013328,0.4387023092,0.2884328806,0.5916577776,0.2981660501,0.6631678225,-0.1379571503,-0.526142195,-0.9207543334,0.299795758,-0.8113487234,0.6419208116,0.4412427305,-0.7321035221,0.8061293478,-0.5080220476,-0.2254611541,-0.063071961,-0.3369768422,0.928136357,0.4891991934,0.2916229248,0.2776317475,0.3951336891,1.0181880986,-19.6426143551,-0.6404708422,-0.5937727815,-0.2278682642,-0.3528673209,-0.2004650698,0.409153471,-0.7170156696,0.4978188028,-0.2400752558,0.788191447,0.6453804448,0.612487855,-0.5447259765,-0.5737585061,-0.0950413374,-0.1981633667,0.4467170131,-0.000545199,0.0171879284,-0.6139857453,0.5227236722,-0.982654736,-0.5755717596
