encog,BasicNetwork,java,3.4.0,1,1670723124753
[BASIC]
[BASIC:PARAMS]
[BASIC:NETWORK]
beginTraining=0
connectionLimit=0
contextTargetOffset=0,0,0
contextTargetSize=0,0,0
endTraining=2
hasContext=f
inputCount=784
layerCounts=1,100,784
layerFeedCounts=1,100,784
layerContextCount=0,0,0
layerIndex=0,1,101
output=0,0,0,0,0,0,0,0,0,0,0,0,0,0,0,0,0,0,0,0,0,0,0,0,0,0,0,0,0,0,0,0,0,0,0,0,0,0,0,0,0,0,0,0,0,0,0,0,0,0,0,0,0,0,0,0,0,0,0,0,0,0,0,0,0,0,0,0,0,0,0,0,0,0,0,0,0,0,0,0,0,0,0,0,0,0,0,0,0,0,0,0,0,0,0,0,0,0,0,0,0,0,0,0,0,0,0,0,0,0,0,0,0,0,0,0,0,0,0,0,0,0,0,0,0,0,0,0,0,0,0,0,0,0,0,0,0,0,0,0,0,0,0,0,0,0,0,0,0,0,0,0,0,0,0,0,0,0,0,0,0,0,0,0,0,0,0,0,0,0,0,0,0,0,0,0,0,0,0,0,0,0,0,0,0,0,0,0,0,0,0,0,0,0,0,0,0,0,0,0,0,0,0,0,0,0,0,0,0,0,0,0,0,0,0,0,0,0,0,0,0,0,0,0,0,0,0,0,0,0,0,0,0,0,0,0,0,0,0,0,0,0,0,0,0,0,0,0,0,0,0,0,0,0,0,0,0,0,0,0,0,0,0,0,0,0,0,0,0,0,0,0,0,0,0,0,0,0,0,0,0,0,0,0,0,0,0,0,0,0,0,0,0,0,0,0,0,0,0,0,0,0,0,0,0,0,0,0,0,0,0,0,0,0,0,0,0,0,0,0,0,0,0,0,0,0,0,0,0,0,0,0,0,0,0,0,0,0,0,0,0,0,0,0,0,0,0,0,0,0,0,0,0,0,0,0,0,0,0,0,0,0,0,0,0,0,0,0,0,0,0,0,0,0,0,0,0,0,0,0,0,0,0,0,0,0,0,0,0,0,0,0,0,0,0,0,0,0,0,0,0,0,0,0,0,0,0,0,0,0,0,0,0,0,0,0,0,0,0,0,0,0,0,0,0,0,0,0,0,0,0,0,0,0,0,0,0,0,0,0,0,0,0,0,0,0,0,0,0,0,0,0,0,0,0,0,0,0,0,0,0,0,0,0,0,0,0,0,0,0,0,0,0,0,0,0,0,0,0,0,0,0,0,0,0,0,0,0,0,0,0,0,0,0,0,0,0,0,0,0,0,0,0,0,0,0,0,0,0,0,0,0,0,0,0,0,0,0,0,0,0,0,0,0,0,0,0,0,0,0,0,0,0,0,0,0,0,0,0,0,0,0,0,0,0,0,0,0,0,0,0,0,0,0,0,0,0,0,0,0,0,0,0,0,0,0,0,0,0,0,0,0,0,0,0,0,0,0,0,0,0,0,0,0,0,0,0,0,0,0,0,0,0,0,0,0,0,0,0,0,0,0,0,0,0,0,0,0,0,0,0,0,0,0,0,0,0,0,0,0,0,0,0,0,0,0,0,0,0,0,0,0,0,0,0,0,0,0,0,0,0,0,0,0,0,0,0,0,0,0,0,0,0,0,0,0,0,0,0,0,0,0,0,0,0,0,0,0,0,0,0,0,0,0,0,0,0,0,0,0,0,0,0,0,0,0,0,0,0,0,0,0,0,0,0,0,0,0,0,0,0,0,0,0,0,0,0,0,0,0,0,0,0,0,0,0,0,0,0,0,0,0,0,0,0,0,0,0,0,0,0,0,0,0,0,0,0,0,0,0,0,0,0,0,0,0,0,0,0,0,0,0,0,0,0,0,0,0,0,0,0,0,0,0,0,0,0,0,0,0,0,0,0,0,0,0,0,0,0,0,0,0,0,0,0,0,0,0,0,0,0,0,0,0,0,0,0,0,0,0,0,0,0,0,0,0,0,0,0,0,0,0,0,0,0,0,0,0,0,0,0,0,0,0,0,0,0,0,0,0,0,0,0,0,0,0,0,0,0,0,0,0,0,0,0,0,0,0,0,0,0,0,0,0,0,0,0,0,0,0,0,0,0,0,0,0,0,0,0,0,0,0,0,0,0,0,0,0,0,0,0,0,0,0,0
outputCount=1
weightIndex=0,100,78500
weights=##0
##double#78500
   0.7922091489,-16.7228663039,-0.1895311684,607.7056038949,0.0526371338,2.7344406517,64.2981705292,2215.2516687388,-0.8459670889,-0.5449478751,0.488919756,-0.2909045062,-32.7790263135,-0.4982951907,0.074854967,103.1029476473,22536.1677666429,2.5816766835,-0.1414125135,-223.9108054726,-0.8246453152,76.0530317265,-0.2576948131,-0.69676301,-2.8153853291,0.8199491179,-22.2700674315,-0.7697552445,2.7333949753,-0.2878700357,0.0771862049,-0.8673089476,0.5421876622,-0.6069295493,3.3615262071,-0.4091744945,4667.045262925,-3.4381753713,-1.5266021013,2.8150172091,-0.6658183079,-0.3800545943,3.5393319588,4212.61638428,74.9275697476,0.1049929673,-14.1316927169,3.4084620068,0.3621073804,-4.1670040072,0.04221918,-3.1990320864,58.4806406759,0.0366489939,353.8654100033,5200.3663124286,0.418410438,0.0411195329,6.25688268,2.6772330838,0.0318317189,0.722890726,0.0796362632,8319.0315055613,1.3878715169,-0.8013102127,0.5646522277,-10.2177115221,0.8648480682,0.0607789401,1.0238758434,0.5250697619,7.0213726593,5.1690413619,1.1280392076,-500.0872019518,-0.7506684456,-2.5512977389,-0.8331295631,-0.0798988119,5.4280545681,-1.3888170937,0.0775664442,0.0286307818,-17.6445394432,17.7435345159,5.6826996886,0.0837140163,-198.7674145402,0.2075688764,-0.1494459593,6565.7419424912,0.0286220616,4669.8595313873,5.117648807,0.6650068445,-2.9148190299,0.0798725169,0.6631645386,2.1830327794,-0.1330708319,0.454606802,0.2989103612,-0.9191063521,-0.150859627,0.577369591,0.2418556686,-0.9838714568,-0.5982339517,-0.3695981114,-0.7660739737,0.887555627,0.4112427297,0.2704668619,-1.0250712777,0.0876530436,0.4794472996,-0.5095607588,0.3944208184,-0.9617721774,-0.9321386651,-0.9259434107,0.7432068615,0.935773693,0.6394998198,-0.1094343315,0.3671697145,-0.6910691101,-1.2004017081,0.5759341221,0.7125446639,0.918507674,0.6330533088,-0.3668578489,0.8979106325,-0.6941043931,-0.627808602,-0.6506295683,-0.1017931603,0.1283623163,0.524518801,0.7817448087,-0.7915059667,-0.5491875181,0.2158047829,-0.5919914075,-0.4126588327,0.2828511438,-0.9514244528,0.8898425922,-0.4680052431,-0.6707326978,0.0523770975,0.6191823471,-0.0528851046,0.4238917585,0.1807980779,-0.6862298122,-0.0617460643,-0.2090914359,2.3912205415,-0.3796318817,0.7974879135,0.6181585493,0.6416926667,-0.5751384406,0.3115383423,-0.9936465951,0.1026271264,-0.6559915626,0.7353288607,0.2663020204,0.7957172062,-0.2464977831,-0.1402904418,0.5422735707,-0.0305542084,-0.770936004,0.0937928498,-0.6337226759,0.2677978626,0.2225888575,0.7325291462,-0.7968550773,0.2877417801,-0.454641179,-0.6983916261,-0.2122367523,-0.0979787055,-0.0485464122,-0.1522089155,0.5202842264,0.0092688036,0.7920997732,0.9773701492,-0.9508442,0.2274519353,-0.8303564866,-0.1393838183,-0.3256987067,0.9172357434,-0.7630801862,0.2540590151,-0.8123336515,-0.6170229155,0.2538728363,0.324799777,0.694372894,0.2722256178,0.8026722016,0.7599044533,-1.6951212265,-0.6613354549,-0.6852159494,0.2837595527,-0.7516213427,0.5193916828,-0.8589904578,-0.8747006105,-0.0430417879,0.698088992,0.1149592087,-0.038377076,-0.1001562058,-0.9455703583,0.6331122282,0.5899272253,0.7890837667,0.527542249,0.4252169946,0.101193912,0.3183617328,0.5046927919,0.3067151895,-0.7429051475,0.5415636935,0.7486571748,0.3928333835,-0.7444252143,-0.5119570948,-0.7790953807,0.9880403372,0.0444483082,-0.4957148885,-0.6372409389,-0.4746956155,-0.2581923822,0.0550792974,-0.7570161918,0.4711674457,-0.1223033221,-0.9490531729,-0.2760670044,-0.4962854422,-0.4632442526,-0.735005937,0.4194557931,0.9233769051,-0.3768349941,-0.0893214572,-0.057149841,0.8281221105,0.6070726512,-0.1947574211,0.8620669176,-0.2257277053,-0.5320634827,0.8464891498,-0.4216785403,-0.4219062333,-0.9026169816,-0.0594446647,-0.165084173,0.9591993347,0.9513643122,-0.4769860475,-0.6897336346,-0.2433368908,0.2406723729,-0.3650933746,0.6775131008,-0.4301678801,0.5904194805,0.1692605043,0.7476256874,-0.2893322039,-0.8746136556,-0.0302788155,0.2938833968,-0.2613118451,0.6854645987,0.4508087701,0.5516444296,-0.6998427333,-0.8241931059,-0.8512826304,0.5139164244,0.1950511673,0.3966206367,-0.2585491847,-0.0679835742,-0.0713140409,0.5662859665,-0.92591801,0.5015515058,-0.4851527933,0.5522131777,-0.1366929506,-0.7875832362,0.0564099566,-0.1484681633,0.279923378,0.0849087978,0.0812145687,-0.5514027045,0.8653792806,0.1613964396,-1.0464343927,0.232833426,0.5383847293,-0.7976734355,-0.386518643,-0.8944532905,0.4783362591,0.5966462201,-0.8261471241,0.353353313,0.5225470958,-0.8794378278,-0.7714453735,0.1265770528,0.8680958304,0.6066750269,-0.042012087,0.4488174561,-0.2857544962,-0.523278416,-0.0222266548,0.7274150386,0.0571113013,0.2200472658,0.5167635757,-0.2932497995,0.5779348398,0.8807068623,-0.7009337487,-0.7931444977,0.2924106395,-0.533622373,0.2769664281,0.768486879,0.1517397628,0.9345717483,0.864995843,-0.5606752478,0.7736531056,-0.7110836505,0.4663110279,0.9139251361,0.9527588716,1.2896429872,-0.3054109828,-0.215729991,0.7716183121,-0.9406709788,-0.093435952,-0.6354785745,-0.0499250982,0.6345798969,-0.6244881741,0.9949473925,0.6208420881,-0.136369573,-0.0378086663,0.3466046102,0.1159603527,0.5145239014,-0.8195410309,0.1314205648,-0.1271287925,-0.0684540112,-0.2383035593,0.5770405473,-0.7145266103,-0.323427206,-0.0554612447,-0.1631302433,-0.8345911467,0.5096844091,0.2740332956,0.9665174627,-0.6645029152,0.5278863162,-0.6677645019,0.7429850562,0.59714505,-0.4045075722,0.5425032056,0.0425981864,0.6855149257,0.9254897117,0.3369320123,-0.4304437676,0.4652456911,-0.9828115119,-0.0708864197,-0.7419509977,0.4171690514,0.518529445,-0.581441089,-0.3440890684,0.7351604368,-0.7476434052,0.5827423389,-0.855786149,-0.7074414794,-0.6629887814,0.7409103473,-0.3995041906,0.6284031706,-0.5000008391,0.9141929447,-0.9805202336,0.52999288,0.7352979436,-0.2594568522,-0.3047226096,-0.0843939783,0.0021248494,-0.9278124441,0.5299373859,-0.6141440693,-0.1567842786,0.0851745091,0.5367616327,0.5335284644,0.4209428585,-0.6906098478,0.5634969939,0.4808145898,-0.4192326504,-0.1177313311,-0.9685097506,0.7850998645,-0.665489307,-0.811503914,-0.7134398412,0.2003653824,0.3428997453,-0.9053696432,0.0621284752,-1.0012661562,0.5048619659,0.7239337358,-0.7550568815,-0.5381712898,0.975678195,-0.9535082634,0.3723932132,-0.5880496384,-0.5785796832,0.4517644855,0.0228852302,0.3531514617,0.1217739844,0.9849969629,-0.3455296581,0.9039579113,0.7753254458,0.6003240215,0.7880136156,-0.6239430316,0.7663969289,-0.1987788309,-0.9494712645,0.2112703878,-0.4966757651,0.2548371516,0.2968931153,-0.7316272871,-0.964684187,0.9412515718,-0.3639643066,0.6086145356,0.7279156769,-0.1586822903,-0.841847853,0.7784502719,0.3221098137,0.7774244857,0.7199692762,0.2224766847,0.1409299857,0.5166339353,0.9932117265,0.8975812099,0.5303122202,-0.3205720583,0.0425243217,-0.7844223528,0.9241332212,0.9806498185,-0.8647291274,0.7370930813,0.305839483,0.5903005967,-0.1040758983,0.1525525639,-0.6321519598,0.9455404422,-0.6710180665,0.5998660927,0.677641714,0.3240208999,-0.9249664449,0.0057102472,0.6441279374,-0.2747303597,-0.156748576,-0.0524018196,-0.7578706482,-0.9112563414,-0.0582309309,-0.4455428795,-0.4978731302,0.6757933662,0.8023620387,-0.4552146361,-0.834977759,-0.6194385195,0.7664793768,-0.89681665,0.6496171186,0.4096620719,-0.011511011,0.8366711657,0.9796879079,-0.9138742578,0.7584412179,-0.9436709556,-0.7583754996,0.1572631154,0.2701528527,-0.5684365048,0.8646153509,-0.6030011144,0.6949523531,-0.2357099355,-0.2670056579,-0.5631960341,0.637613922,-0.0186579887,0.3836262613,0.9763380407,0.0264977709,0.0621418903,-0.683985707,0.6520938519,-0.3624600262,0.9600109494,-0.9522206573,0.419673981,0.2421741669,-0.0282940384,-0.4160262257,0.7472077707,-0.4127695082,0.6020147496,-0.5987041404,-0.0842924854,0.556317807,-0.4510084145,0.19635139,-0.4476133639,-0.5278008842,-0.8421728048,-0.0769202186,0.4463858314,-0.4055764512,0.14047828,0.5655419081,0.3107026987,0.890455585,0.0887608505,-0.5765023627,-0.0548520523,0.7417921828,-0.0506747102,-0.094153973,0.5280821134,0.0553115656,-0.8351193226,0.5998923511,-0.1041037829,0.9395490911,0.1943622261,0.7141472194,-0.1045758508,-0.6949409075,-0.7907280542,0.6053904852,0.2856923822,1.0026482624,0.2476442489,0.6674678336,0.2022199242,-0.6768371842,-0.890266174,0.803583072,-0.5277360289,-0.6635379811,0.9969603641,0.7842165212,0.366286392,1.0112720695,-0.6823829444,-0.7358683235,-0.9747670152,0.9206730406,0.0598760404,0.9096385204,-0.235469849,-0.510228238,-0.9181181678,0.5171303725,-0.7634665752,-0.5294252895,-0.6895642546,0.7546664374,-0.8382480756,0.6307454426,0.4833255609,-0.8312337987,-0.4694369882,0.092365118,0.3519436037,0.4871247922,-0.7964892606,-0.8123755037,-0.587000178,0.5408946899,0.6535749501,-0.4679827917,0.3788544588,0.7895717556,0.0367836974,0.0473759087,-0.5704843084,-0.6228584475,0.3693239493,0.929777764,-0.4252115955,-0.3651711773,0.1724034556,0.0377954594,0.6780836274,0.2301570079,-0.8724426685,-0.9484142533,-0.0990954347,-0.5681125809,0.4154003101,-0.6303924595,-0.8248764842,0.6278891052,0.3859167404,0.250036276,-0.624386229,0.3360211157,0.2492384801,-0.4686308418,0.4546394364,-0.5708222885,-0.6520838521,0.7630247139,0.3941214052,0.1699320857,-0.8053405316,-0.4421624436,-0.3597733974,0.6109851686,0.066337238,-0.5618392735,0.1694993933,-0.4669318464,-0.627242194,0.1698267757,0.0870426218,-0.3772489565,0.2271931458,-0.3629287122,0.6599345795,-0.8553456122,0.8475033661,0.7658704985,-0.4623598985,0.3589413191,-0.577094357,-0.2008285227,-0.2072996066,0.6283478946,-0.5344578743,-0.1175211871,-0.430248468,0.124766775,1.038659975,-0.3543436433,-0.2199643951,0.341786839,-0.3410100325,-0.5959241868,-0.6613063963,0.1479269965,0.3732460228,0.9797958265,0.7820241594,0.6571228298,2.3266237568,-0.1977275581,0.6211118615,-0.1713494019,0.651329488,-0.8586559855,-0.9328345881,0.2886703933,0.4996336449,-0.4309584094,0.3044080892,0.7903065717,0.2874329872,0.0698604181,0.6804173359,-0.6086297136,-0.636693716,0.3116305916,-0.7577687508,-0.4412451352,-0.1328896636,0.929136026,-0.5218082752,0.1925350138,0.5157029887,-0.9263204196,-0.7693552898,-0.012422731,0.2107686244,-0.1238819566,0.4472670702,-0.8065135923,-0.1560762332,-0.5339903306,0.289435397,-0.5008290814,-0.9221212712,0.5385123409,0.7577792697,0.6763504782,0.7649314187,-0.6731488293,-0.2762874005,0.1324556141,-0.0379263651,0.5190252299,-0.9062403939,-0.6225273377,0.8455301941,0.8401102171,0.0194398404,-0.4909444742,-0.0021813039,-0.9253948153,0.4958509592,0.6522720808,-0.6412952382,0.344318471,0.7455010318,-0.698839446,-0.1803467547,-0.5503865868,-0.9486460929,-0.830984076,-0.9653266933,-0.5995497503,-0.9733839423,-0.4002204513,-0.6344557689,0.6911184674,0.7753604912,0.401505745,-0.9689956653,0.7527205301,-0.1757908604,0.8233742199,0.0541928315,-0.6133875946,0.0065823069,0.1273600531,-0.8679349537,0.8753087457,-0.2538039762,0.5160491534,-0.9763957937,-0.3183744728,0.2926987416,0.4714219768,-0.270886596,-0.2712638325,-0.8100093134,-0.5732848196,0.0593100534,0.1180299757,0.98482865,-0.2019019226,0.6500683117,-0.7356868642,-0.8305016616,-0.0541433993,-0.3576116858,0.7207469981,-0.444311838,-0.7112571456,0.3977752747,0.0508762523,0.6665003292,-0.6356103583,-0.6019143565,-0.7149581139,0.1656653826,-0.9761289422,0.7546586079,-0.8999240616,0.6963359873,-0.6820073774,0.8619006688,0.3012286005,0.0295558094,-0.6299479714,-0.0536667488,-0.6519611262,-0.198997037,0.0873922814,0.0835486423,0.4490892805,-0.6532702359,0.3315253966,0.441375207,-0.5338632104,0.4779825932,0.7307872666,0.0486483289,0.93812876,0.048573689,0.1392862347,0.4984901979,-0.3236572728,0.7509143437,0.3959306914,0.6544691254,-0.3851022786,-0.4146118884,0.3114907091,-0.6369237472,0.0154816833,0.4450918154,0.0146765056,0.5175018246,0.6936516981,0.4861595907,0.274347537,0.2262259302,0.0276328663,0.7418882825,-0.0882994215,-0.4874670183,0.0081272263,-0.3421688625,-0.0603549796,-0.6435159783,-0.2710210545,-0.9932198311,0.0594303759,0.6658426426,-0.8863304805,-0.0102827802,-0.2783505801,-0.2681918423,0.8849052357,0.8238669681,0.6829286446,0.9594551955,0.1907175706,-0.7583737402,0.2171745938,0.8184329692,-0.1817352649,0.7001237567,1.0825028766,0.6306885219,0.3963080743,0.1230808824,0.3642227251,-0.2908894421,-0.1723732714,-0.8279241928,0.0105893377,0.8734696896,-0.6461332703,0.9167342037,0.472894552,0.6451033966,-0.1578498654,0.0317315599,0.0571405762,0.8395573749,0.6538714738,0.404841458,-0.5363649655,-0.1873407257,0.2889106874,-0.7405927973,-0.9123256813,0.1882846495,-0.4529671894,0.7586121942,0.4024996502,0.3048488723,0.1242706436,-0.9949215965,0.096390029,0.9035898351,0.325774946,-0.5813414983,0.1839520168,0.2882107196,0.3521541809,0.0867847562,0.3092954155,0.2198776022,0.5650131006,0.6846465593,0.8933138945,-0.7812381036,-0.0757654837,0.3463447187,-0.9314160368,0.5268445199,0.8281675182,0.9604057347,0.7474628597,-0.1401791575,-0.2846207076,0.6734821161,-0.7571049577,0.7351422193,0.4000922633,-0.4887074092,-0.2898645377,0.6779132709,0.0893129873,0.3512848618,-0.8477525765,0.6718630498,-0.953085512,-0.0238995423,-0.6423503721,0.4192399169,0.3184993944,0.9233257186,-0.34425442,-0.8554856173,0.9854229197,0.4488682428,-0.2635792857,0.2498987271,-0.6923488479,-0.5561476484,0.4815785479,-0.5658160403,-0.0142543149,0.8574891075,-0.6631600648,-0.6112135369,-0.6829733098,0.236090858,0.9023344479,0.3506071209,-0.7346981416,-0.7185329135,0.6284420887,-0.9191240125,0.7917714138,0.0809802089,0.08625911,-0.4421259723,0.6903087402,0.913517599,-0.8441632339,0.9494521184,-0.49881463,0.6560799957,-0.9972963658,-0.7701852896,-0.0922253444,-0.2169904757,0.7133244822,0.3759175408,0.1325048845,0.1716097158,-0.2782033305,-0.2917721035,0.153208556,-0.6785612133,-0.1569299541,0.4388166455,0.8936549464,0.1540110812,-0.6871348239,0.9004195966,-0.0921749691,0.2377545975,-0.509241569,-0.0280395708,-0.4744530185,-0.2244247904,0.4528358286,0.8281039991,0.051449977,-0.6464995526,0.1345637506,-0.9769112004,-0.1636905629,-0.3838314018,0.1394631905,-0.0644369609,0.0020306506,0.9438897691,-0.0168963519,-0.012822889,-0.4714416927,0.9126790279,-0.2789208892,-0.9936388049,0.7511891891,-0.7187543833,-0.7719525408,-0.5695998541,-0.6490508469,-0.7468903008,-0.5047786902,0.1375879495,0.6072324097,-0.4290631206,-0.5295826206,-0.0204489253,-0.9798516291,0.9652588711,0.3941586335,-0.2409704227,0.7745383204,-0.8265072486,0.4227872793,-0.1664649311,-0.0604217192,0.7367664485,0.7647060168,0.5680704219,-0.5215815153,0.9741704332,-0.2479594716,0.4387507474,0.976052721,0.6850258629,-0.9955650911,-0.0903858861,0.3402906366,0.8007649712,0.5476289062,0.9705704531,0.0420070306,0.4121794885,0.2441752286,0.7713201402,-0.0800806343,0.5861333316,0.269265433,-0.9364419872,0.6685869658,0.9405309922,0.0154473897,-0.3272556477,-0.7775737338,-0.8843327948,0.6737773121,-0.8329346681,-0.5496119596,0.5101662004,-0.4221450233,0.1630733619,-0.3915582118,-0.4961796577,-0.1179935296,0.8947430562,-0.1477854492,0.6183970423,0.992253756,0.0469301291,-0.9035427969,0.2292050368,-0.2932167302,-0.0557545825,-0.2561157713,-0.4773206458,0.5520901334,-0.7482256764,0.2293034397,-0.1923705833,0.1116440703,0.5939056539,0.1245997982,0.691581024,-0.8438819027,-0.3874515119,0.9480184747,-0.5492802071,0.0430651738,0.3203396544,0.5210708056,-0.3904514471,0.718412228,-0.0432491006,0.5662262301,-0.485328557,0.669394228,-0.3780978597,0.2100078977,-0.4877663035,0.8390805372,0.4702506752,0.6177986565,-0.2067416098,-0.2411211157,-0.7309944658,0.1897198847,0.9279569603,0.6208982916,-0.0240276876,-0.910603876,0.567936432,-0.3064352517,-0.4993016887,0.0493927501,-0.494367465,0.6754812248,-0.4277027067,-0.4779276302,-0.4522204236,0.848411566,-0.4352209802,0.8696788505,-0.2881987365,-0.5848981041,0.6371642006,-0.3121851417,-0.5656521955,0.9195884899,-0.8947463834,0.6819970486,0.7613484071,-0.8812756365,0.0115587583,-0.3720181426,-0.1365864437,-0.4470245768,0.4506205903,0.5604723481,0.3040866668,-0.5967394956,0.00271406,-0.792318812,0.996560247,0.2787724633,0.8205006249,0.3849114676,0.1048352608,0.2450940761,0.0773447353,-0.2306987812,-0.1180829389,-0.1547332224,0.7127094782,0.0637920383,-0.2673457073,-0.3248953204,-0.7294658983,-0.6068218176,-0.6568528985,-0.4081257642,-0.8046137145,0.588244159,-0.1588035983,-0.2568572609,-0.3449166687,0.3745969336,-0.2504571897,-0.6233690659,0.5148027578,-0.7221348992,0.8371164422,0.7612141944,-0.7417585942,-0.0259499752,-0.9152576335,0.373588834,-0.5485872146,-0.3950038189,-0.1935668265,0.2642885194,0.4800293614,-0.950114898,0.1934406976,-0.3735277223,-0.3744924004,-0.2365132237,0.2305517486,0.5556944417,-0.7430494709,-0.7131524226,-0.4032729267,0.8178060682,-0.8226086454,-0.7710906477,-0.2858287925,-0.4622030912,-0.8417040287,-0.0787917341,0.0301797485,0.807216995,-0.3155888414,-0.9406531249,-0.0541419506,0.189210929,0.4396885103,0.4673299476,0.8052996344,0.3200056488,-0.4879437462,0.3859713601,0.696567135,-0.763564913,0.6957297771,0.4812519418,-0.9465024167,-0.8995055382,-0.1667408969,0.1642802526,0.9221413633,-0.2520684184,0.1191110233,0.1633022151,-0.270576977,-0.6361151364,-0.6021781528,-0.1466071481,-0.6050910103,0.3421381118,-0.6559733442,0.8468187248,0.3237013535,-0.7378406481,0.4315212482,0.131942074,-0.5898911834,0.3210157681,0.9689689348,0.0793876611,-0.5798294711,0.873478727,0.6653336197,-0.3365317779,-0.4397911012,-0.4578641227,-0.1489520878,0.0510881098,-0.5142704859,0.973463631,0.6845561379,-0.0836256373,-0.0302926301,-0.9251369409,-0.2299712347,0.7544448024,0.7125392812,-0.5934702704,-0.4767385664,0.8614350042,0.7532629098,-0.4166998771,-0.6446257421,0.6779221066,1.4430079581,-0.2361290266,0.5820203212,0.3296959585,-0.273322661,-0.4306027543,-0.5869822186,-0.1928736909,-0.4553153379,-0.160679297,-0.1757957217,0.9781326414,-0.2466622745,-0.3457925619,-0.5108591965,-0.7230475914,0.070439439,0.7196822828,-0.0457472184,-0.0198803305,0.6043958867,-0.1855867136,0.1711613735,-0.724071496,0.6243228282,-0.5080794807,-0.4891844093,0.7780310252,-0.3121960552,0.4478953768,-0.4517437216,-0.6579718574,-0.8371149583,-0.7615928961,0.5909676537,-0.3106016496,0.4864245637,0.5424916052,-0.5582361274,0.7752921826,-0.9660516179,-0.9635459427,0.4484680872,0.0547319169,-0.186483827,-0.8793070883,-0.3269811638,0.3426899546,-0.3591494548,0.7537230844,0.9830225518,-0.7543888545,0.5200705321,0.6706883724,-0.5269285981,-0.661803781,-0.2618056733,-0.9857309867,0.5990426215,0.63186518,-0.2480441591,0.8675084039,-0.6249908022,-0.2692725137,-0.5824974377,-0.9153275081,-0.286864011,-0.4203487421,0.726312415,-0.2435979187,0.6037204556,0.9062555083,0.4466539427,0.5316426053,-0.1265405128,0.9899713581,0.5368785954,-0.6417744242,-0.6127737391,-0.7394899528,-0.6858792071,-0.7932924498,-0.572464288,0.0684275656,-0.7702975592,0.3077613346,0.8589878083,0.3379850796,-0.6117336989,-0.3349403819,-0.6372981625,-0.628794977,-0.1909940443,0.6535834463,0.2210536584,0.4150968239,0.0074908427,-0.6116601075,0.885205958,-0.1944447795,-0.8663265496,-0.7606450334,0.2175651721,0.9692653763,-0.917377855,0.5100554776,-0.1106150492,-0.7964833267,-0.7337499043,-0.8065810969,0.2412863506,0.3543317058,0.9616803999,-0.3380821178,-0.7488793566,0.153745347,0.1236827137,0.4507606571,-0.7125447731,0.6881039684,0.7488129718,-0.0947817452,-0.9339984435,0.6333779217,-0.1463111262,0.6256911129,0.5151718213,0.6737263392,0.6522354613,0.4447771205,-0.3273004541,-0.0748454482,-0.1515996157,-0.7057613172,0.8381191804,0.0134168745,0.3591250864,0.9919895628,-0.981125498,-0.7721793525,0.2833288547,0.9116588779,-0.786821268,-0.9254854596,0.6364810673,0.9754487487,-0.2866346688,-0.9640207321,0.2546624917,-0.9252843641,0.3124189335,0.9577997055,-0.2321907282,0.2003092896,0.3502651458,-0.874735005,-0.1585020639,0.2082847798,0.4541295154,0.203794928,0.5788419271,-0.7594884776,0.3398366979,-0.3022615459,0.5388645129,-0.1368761875,0.9578736621,-0.5544229031,0.2363835272,0.55962428,0.7458893204,-0.779703083,0.6339054444,-0.0758344078,-0.2720486551,0.5573851729,0.0053098523,1.0788259409,1.1985682118,0.874510617,-0.4244081362,0.5923840615,0.9336639469,-0.5965808336,-0.5888380343,-0.4508914087,-0.0495773694,-0.5331073474,-0.2244730167,-0.04667904,0.801891886,-0.8799454962,0.5901823764,-0.7000749097,0.6580413382,0.2075843209,0.1501448416,0.7560534252,0.2722256867,0.7858816192,-0.6266221891,-0.7146452692,-0.4118478932,-0.9662187005,0.478140862,-0.708337769,-0.5494618931,-0.3265337664,-0.1410068438,-0.896709015,0.656513499,-0.7249425379,-0.5907118871,0.0445996581,0.5815240928,-0.512460045,-0.3345519284,-0.2355080718,-0.3208495241,0.4440892567,0.401509334,0.3272608364,-0.5264905275,0.0651726265,-0.8765983417,0.2696594408,0.0774715056,0.5376632902,0.8802649572,-0.320863942,-0.1899024396,-0.7114556778,-0.7122042585,-0.1000858925,-0.0507365458,-0.5645009546,0.0385068523,0.3530319805,-0.7920470269,0.1427382264,0.1918310386,-0.3739426276,0.1830295093,-0.4389041268,-0.495900692,-0.0995428129,0.3898696311,-0.4414301675,0.8830441262,-0.0450660075,-0.6268197091,-0.4687862445,-0.3918003665,-0.2440166264,-0.9391756857,0.3140692727,-0.424126045,-0.2325866147,-0.4204545928,0.9964646401,-0.661329471,-0.0253899133,-0.4827274143,-0.9133005055,0.6456139312,0.5890968419,0.8834810148,0.3190019761,0.0762502151,-0.7893167086,-0.5461787813,0.8277635953,-0.6418463217,0.4320976264,-0.1617389641,-0.1630143144,0.6449668962,0.39354699,0.1907696492,0.0361985939,-0.5454084531,-0.8865730099,0.1935643617,-0.3622685342,-0.3146782382,-0.2927078051,0.9757660493,0.2964513884,-0.7188246283,-0.642306429,0.5439850212,0.1664602729,-0.6249092198,0.5957593222,0.8995089809,0.3490857503,-0.5176507303,-0.9845736097,-0.7721495385,0.5019406179,0.8911134744,0.7962622035,-0.7014575634,0.0799438085,-0.0075369479,0.579687904,0.7274716301,0.6710208415,0.5394689039,0.9653250532,0.0348145546,0.0525277523,0.712368899,-0.3680463909,-0.6072268582,-0.6408630095,0.8512565561,-0.6347678379,0.9151954609,-0.0684671599,0.6836143922,0.9102492576,-0.2509228985,-0.7428777602,-0.5645824544,-0.1360455874,0.1321145186,-0.51015887,-0.813402019,0.9062196866,0.8962578944,-0.6963757851,-0.9858406395,-0.4114632196,0.6471383758,-0.2355174631,-0.5986620694,0.0437188278,-0.8862799618,0.2580005211,-0.2021445047,0.0810747497,0.4359100166,-0.0912239429,-0.9569049203,0.1638116432,-0.7571279933,-0.6587430499,-0.6465846776,-0.9936694854,-0.9169510021,-0.0293376282,-0.9314028641,-0.3850410251,-0.1253526495,0.2744377477,-0.8351656465,-0.4846455231,-0.3638521821,-0.5188104665,0.7226848422,-0.0435156388,-0.8984767972,0.4452215144,-0.487785467,-0.6740683842,0.5457359156,0.5699316247,-0.6088064261,-1.0588832282,-0.9161467331,0.7207024199,-0.7249824519,0.7050308726,-0.7235169885,-0.9917905037,0.7308856129,-0.2716997051,-0.2932938227,0.3186323629,0.7724568101,-0.3335234712,-0.201559586,-0.699448268,0.6928162876,-0.6208737213,0.6336632511,0.6199726252,-0.2569477949,0.2430403501,-0.3226517641,-0.9641705434,0.4467470092,0.3596302135,-0.8847315219,0.4876276198,0.2223803166,0.3482842853,-0.5007815204,-0.9774666006,0.8152333975,-0.7583726822,-0.0659076665,0.1667004139,-0.9994907836,0.9563038807,0.7136547216,0.2809278443,-0.9143258276,0.6052911254,-0.0315827297,0.5748482228,-0.6909366937,0.7004488085,-0.9929213001,-0.7792812545,-0.4780915988,0.1787055752,-0.1351761148,-0.9143857622,0.6462972531,0.7191634831,0.2166997546,0.2120615349,0.5865011683,-0.1428516419,0.8098167994,-0.4175312046,-0.3939714613,0.6392897262,-0.8016405225,0.1005729427,-0.8110634917,-0.1547225899,0.9222692216,-0.6321846145,0.3450842325,0.4945496328,-0.0817704276,0.99321697,0.4319975203,0.8069394897,-0.6446627316,-0.1488736983,0.8068168395,-0.3426558574,0.43679267,-0.1113530201,-0.7572147215,-0.4803718534,0.9094362989,0.1798821147,-0.6658907041,-0.5255094566,-0.1417340048,0.0939822498,0.8876175038,0.3871814657,0.920247775,-0.3811829093,-0.6715530687,0.9739106044,0.1097267702,0.7500433885,0.4886401756,-0.4226098116,-0.2575152246,-0.3681823932,0.4754932442,0.6563311864,0.5728094771,-0.2519586184,-0.4004927311,0.8032053386,0.0667457796,0.91293283,0.1430995023,-0.169296061,-0.4998159246,0.9753940185,-0.0005351446,0.7451298362,-0.6738431575,0.5953816863,0.8852500195,0.7173019131,0.9848200151,0.1647141936,0.4169026158,0.2560418076,0.3033499796,-0.8201625758,-0.9710747388,-0.2956054687,-0.3854602951,0.9072262633,-0.9737509213,-0.8706656086,-0.3447687042,0.3943951478,0.9036124085,-0.1391003942,0.8090013784,-0.5908351349,-0.0014942027,-0.2488910938,-0.5988419819,-0.983594656,-0.531240306,-0.3966959684,0.3126516473,0.1697932437,0.4228333031,-0.081742143,0.3570174085,-0.6210620577,-0.2769511649,0.4308378236,-0.3984694123,0.866528306,-0.247783238,0.6366391029,0.4451650023,0.4842313752,-0.242031375,0.7590251085,-0.3845774391,-0.2592884096,-0.3675285774,-0.4736166282,-0.5627741605,0.3114944772,-0.3159661332,0.5496211743,0.719983277,0.3235610163,0.4209015488,-0.7223283203,-0.7342873198,0.8442012135,-0.2524214141,0.1065413852,0.3018444929,-0.9759487341,-0.7135855781,-0.4772071202,-0.5388987965,0.7941811617,0.408652689,0.161191138,0.0799599842,-0.7398654366,0.5343071142,0.3244660891,-0.4041432916,-0.9275586465,-0.2512018581,-0.9850810007,0.7365455654,-0.6466725649,-0.5421441013,0.2137273097,-0.7903426472,0.5095974414,0.5229790591,0.9162476943,-0.9781516888,0.9294075524,-0.1495113616,0.5547416486,0.9457969817,0.3248696898,-0.0761788368,-0.2694651066,-0.4120443988,0.291067319,0.9322063353,0.7571565058,-0.7849440207,0.3564264468,-0.0535495235,0.4105176783,-0.5453210739,-0.0931877889,0.1204985455,-0.5154584239,0.7874116139,-0.0589626536,-0.5781303614,-0.3147272511,0.6643519162,0.6668362796,0.32933679,0.0119709308,0.5719904821,-0.5829677655,0.5385461813,-0.8213772085,0.9328760833,-0.2868147756,0.0131072178,-0.544872014,-0.9070255057,0.4382783012,-0.0794738125,0.3972202989,0.6082934312,0.7858905847,0.2057368771,-0.0246962391,-0.3336173149,0.8168052187,-0.7560835175,0.9273288477,-0.467339234,0.8434301641,0.1403949244,0.821463149,0.0445282627,0.379583089,0.2362940205,0.3740469475,-0.6743409683,0.2765358399,-0.8708435627,0.9696996788,0.718578011,-0.4376491238,0.8235160677,-0.8660983937,-0.2384170397,-0.8927099396,0.2538773947,-0.2218525498,-0.235588394,-0.4554139874,-0.020657627,0.3979920695,0.8193279794,-0.3513132045,-0.5412369008,-0.1097892023,-0.7812644787,-0.7595552953,-0.5392626288,0.1189466604,0.3642917238,-0.5758249316,-0.8953763374,0.5350311975,-0.7582261551,0.5807297673,-0.660566908,0.7536274703,0.5200648104,0.985513427,0.7736617089,-0.2494417664,0.635592709,-0.9147832678,0.4844429324,0.4380395946,0.126360066,0.2805910175,0.7368571613,0.6096647607,-0.5848049188,-0.2021855372,0.4028337838,0.8105354074,0.364036434,-0.6721820524,0.3970168526,0.4890773731,-0.4814508332,-0.6381091877,-0.5579029494,0.406852776,0.5831397904,0.7322084098,-0.2350929034,0.6953978655,0.8313136507,-0.637190674,0.8505295063,-0.8454164917,-0.8718775585,0.4938106306,-0.6452083876,-0.8398217952,0.8417988245,-0.1478601552,0.0610546552,0.3167425624,0.8588015416,-0.8579484273,0.9297658154,0.119101255,0.8844170816,-0.7524694187,0.3759990554,-0.0501935781,-0.1501960314,-0.7135229178,-0.838180898,0.4138042663,0.7217981412,0.2182742784,-0.7826724516,-0.3868901468,0.440219777,-0.6519209192,0.8881290574,0.3313792133,-0.9069924457,-0.5052197519,0.584714791,0.1148625542,-0.6265875991,0.0258819029,0.1072576204,0.0009905247,0.694899188,-0.8406559802,0.357125349,0.7359424767,-0.1513297165,0.4278267589,-0.2346638592,0.6833909237,0.2621395106,-0.611244716,0.4977853313,1.0020416242,0.9808867182,-0.862079814,0.6826302119,0.3001304643,-0.2895860022,0.1455061459,-0.5418745009,-0.6898806452,-0.5944178285,-0.7997068345,-0.4961847695,-0.360861288,0.1487324567,-0.4610117407,-0.4395682596
   0.754121123,-0.3902722145,-0.7033632801,0.3187555249,-0.6471553073,0.0678000493,0.7448468761,0.0930057178,0.866446505,-0.6914661685,-0.5084545626,0.0869176985,1.0803381816,-0.1704510492,0.5611357213,-0.4699868204,0.2820250893,0.0948796279,-0.7924629108,0.113914,0.3009407075,-0.0756796555,-0.0529617881,0.4573180662,-0.5395358572,0.0752223431,-0.1591289228,0.5956569894,0.8430978691,0.0556825761,-0.1889666735,-0.3445070009,0.5670558351,-0.9475137927,0.7421953658,6.0299505609,-0.5366810778,-0.914297355,-0.3122019215,-0.5673715231,0.0897791548,-0.6735689469,0.6779324063,-0.2710441551,-0.4598716595,-0.369035689,-1.0144869165,-0.4388091911,0.4548812469,0.8622436277,-0.7863420802,-0.3751945828,-0.9682933388,-0.8260898008,0.9532911117,-0.1411390877,0.1324705963,0.7139880524,0.6105043187,0.8803688954,-0.350605332,0.9622869721,0.1322713108,-0.8200309399,0.2780917015,-0.354196424,-0.5749196427,-0.5454599091,0.3053454365,-0.3398536906,-0.6676963487,0.3552072673,0.5732185642,-0.7445412315,-0.1097254139,-0.24333229,-1.0044494243,0.8684591045,-0.2753980075,0.6604742211,0.932120448,-0.304232127,-0.1750057402,0.897543199,0.63452768,0.4175749253,-0.9377306581,0.9059931176,0.3696178062,0.8445435599,0.6381582974,0.730454958,0.3161036636,0.7949282216,-0.4241489753,0.8806240489,-0.7796102515,-0.3014339195,-0.0186865128,-0.3966202036,-0.4620754133,-0.3201683486,-0.4609629089,-0.4654671682,-0.5425519894,-0.5790946408,0.305396217,0.9322036087,0.0347577719,0.1957585709,0.5879249141,-0.6149867881,0.0698453244,-0.0051688185,-0.3999297215,0.9780380838,0.2028430491,0.5795359404,-0.3222141969,0.0205427811,0.1211593142,-0.5084673906,-0.208549212,0.1460223939,0.4870738238,-0.3812795967,-0.9848788172,-0.2203750281,0.1630108073,-0.8829297354,-0.1929708207,-0.8579354367,-0.5884202119,0.1309695882,-0.486058223,0.863652496,0.8044080059,-0.6073610464,0.1883452521,0.1125110159,-0.5767685716,-0.6359356906,-0.6299557732,0.3841681101,-0.3706971826,-0.8615896093,0.7720633354,-1.0144694307,-0.2884704227,0.6220613855,-0.6866745411,-0.3248675337,0.1589162118,-0.1268636985,0.8933294626,0.0339249255,-0.48483761,-0.3988077301,-0.2886673851,-1.0116806598,0.8084917927,0.7372387015,0.8899789621,-0.0007394277,0.8111459987,-0.267179781,0.8208643077,-0.0441030971,-0.1272002181,0.3058754526,-0.3703144769,0.0514816681,0.4079619129,-0.2027531551,0.5724534877,-1.06170058,0.9022378121,0.6827579327,-0.4775467671,0.2745973805,0.7805754606,-0.9940425632,-0.2373812398,-0.4658763613,0.1656986247,0.5171329639,-0.9615427813,-0.8453231997,0.6864094744,-0.2003274936,0.4156957443,0.5136444862,-0.116463427,0.6174011976,-0.8561090237,0.1097486682,-0.5106098228,0.0847867824,-0.520448374,0.4281646509,0.4869882256,-0.9004642324,-0.7715428469,0.179326951,-0.4039251432,-0.1312383325,-0.5822823923,-0.8844847363,0.6946344227,0.5388011291,-0.7759012717,0.4125425349,-0.7103569198,0.4667235413,-0.3764016056,-0.5865862117,-0.684140646,0.8221734804,-0.5000395145,-0.8958752382,0.743988892,0.2002569957,-0.3047123334,-0.0377724896,-0.3901432665,-0.165237917,-0.2028353401,0.9587766975,0.6466021941,0.4537854394,-0.6352193142,-0.0616783945,0.8641173145,0.362768907,0.5456940987,-0.2870080675,0.0212172607,-0.1106099828,-0.3793252519,0.485677194,0.4797956016,0.9765242696,0.3251746209,-0.0939440191,0.4497996016,-0.7043815051,0.8519957089,-0.6148156017,0.2377266993,0.0745316711,0.7339859515,0.7401505549,0.7449505954,-0.0622475918,0.340718017,-0.4044972587,-0.696310314,-0.1535546396,0.4583063767,0.1530732423,0.9460547946,-0.007494231,0.4436387787,-0.0912991148,0.4625739968,-0.8810636714,-0.790020711,-0.0905612665,-0.4214798858,-0.5899985441,0.8836487678,-0.772920096,-0.0781902745,-0.6359080591,0.0796260701,0.5753522703,-0.8707568742,0.5402539828,0.3831170333,-0.7727744569,0.4867507082,-0.7289105904,-0.0158083444,0.6861540322,0.425499816,0.7648374221,0.2173379064,-0.2235166436,1.0389984423,0.7570264233,0.7473959615,0.270027261,-0.8414604097,0.6614342258,0.2146436491,0.1389585513,0.4034146869,0.9928284552,-0.2343901687,0.5223812207,0.1022698704,-0.7853921111,-0.8049887025,-0.7672619139,0.4313331878,-0.8002025909,-0.9724065094,0.641244762,-0.0868562859,-0.5523421674,0.6256725252,0.8591428414,-0.1917676245,-0.6394730014,0.0903160328,-0.7833320154,0.0345751122,0.1192537115,0.2751097668,0.122324759,-0.141562384,0.5368244911,0.4197281316,0.0236942295,0.8755506078,-0.4708284443,-0.0797698961,0.1955290252,-0.02661821,-0.0050793879,0.6881811703,0.6348146581,0.7399524009,0.7467170218,-0.4981006862,0.9205980355,-0.3482818464,-0.1647444643,-0.0589111988,-0.6264323648,0.2677411835,-0.8424777454,0.3787538482,0.6184315678,-0.6105908072,-0.0499553805,0.4137040393,0.1301609557,0.3263265393,-0.2933238051,0.2255835799,-0.9141450123,0.3427319019,-0.3649074951,-0.1443444406,-0.4534915895,0.8848707489,-0.5619395505,-0.7924725085,-0.5147385393,-0.8959882688,-0.2669185726,-0.6469648389,-0.0739080693,-0.448001879,-0.3430226094,0.2479847307,-0.2947247856,-0.2882811773,0.9229391566,-0.9366925551,-0.7384687361,-0.862679155,-0.5581261701,0.7041131859,0.314795876,0.5945750102,-0.3945549089,-0.4640346889,-0.2558385281,0.7897347489,-0.7508078351,0.1005916431,0.2827120739,0.9060708306,-0.0888570439,0.474035851,0.5009107163,-0.3957708288,-0.4756839024,-0.7914205402,0.43760215,-0.4872581462,0.9789349413,0.2409820605,0.0826562784,-0.4513009277,0.3013316512,-0.8607320027,0.328638011,-0.8585253445,0.653140959,0.0718725042,-0.0584702413,-0.6825022681,0.9251415552,-0.1653589274,-0.6885977527,0.9130283077,-0.2268234309,0.3015467887,-0.3393285904,-0.5881460287,0.0260610026,0.9958170055,-0.2133780876,-0.38135953,-0.0820779367,-0.0088156501,-0.5672268189,0.9266791648,-0.5994453897,-0.5268285962,-0.4593812412,-0.3396341533,-0.1449011336,-0.2761371004,0.916015246,0.7094499005,-0.7936596985,0.4590392249,0.3753216042,-0.7252667936,-0.5569711281,0.8735300217,-0.6393427366,-0.36284748,0.3260556342,0.989198977,0.8057000915,-0.0359471403,0.6972479503,-0.2229532928,-0.945708569,0.9426277229,-0.0260100215,0.7049944503,-0.951445968,-0.6888526194,-0.129043848,-0.9350432057,-0.8732313175,0.6228553417,-0.4953552743,0.0470889064,-0.0969298176,0.3168884247,-0.4325955747,0.4454135232,-0.6349910412,-0.7732810656,-0.6366271718,-0.7357663864,-0.7096169747,0.3138682216,0.6297064381,-0.5880153673,-0.5555720808,0.1725635048,0.7661554408,-0.8957679667,0.3568644273,0.515963145,0.4363150408,0.4137453733,-0.5210766675,-0.7895421537,0.3589159264,-0.2217717558,0.0713326819,-0.0096554858,-0.483658087,0.5211106581,-0.870447908,-0.6581305305,-0.8103055763,-0.0122512582,-0.7910123824,-0.1874614261,0.9550838363,-0.6817691434,0.2747314241,0.2693718637,-0.3254220237,-0.6698305435,0.9329237239,0.6529212238,0.3395291913,0.0076529315,-0.914628831,0.0470685825,0.063962399,0.6047586407,0.890726982,0.1401288738,-0.8209745773,-0.2742443696,-0.6728697547,0.6567867572,0.3916752876,0.5703681956,-0.8490549233,-0.7967881056,-0.8268132273,-0.0541018517,-0.1302346332,0.5303872029,0.7068516977,-0.232101432,0.9223950395,0.3752570666,-0.7684948928,-0.2336771813,0.7328024547,0.4544063481,-0.7293589724,-0.3563796469,-0.5882514109,-0.8396798328,-0.8402143951,0.3137223627,-0.943843898,-0.95726805,0.9184208715,0.0299385611,-0.7350461953,-0.2793157064,-0.3787725213,0.2861617814,-0.3287850016,0.4325866144,-0.7662596122,-0.2746991432,0.4922239123,-0.3145182033,-0.7116644001,0.2366132465,0.5973614486,-0.4072988928,0.2771625241,0.3496440897,0.2165926713,-0.6171332758,-0.786179088,-0.5749004959,0.836772072,-0.9900355446,-0.1217544321,0.5306546144,0.8844794193,0.4660615911,0.2309913522,0.2036935611,-0.3381426358,0.8191159521,-0.3795002569,-0.028299157,-0.3658573337,-0.8660457479,-0.6241217043,0.2019602355,0.6422824688,0.1475810856,0.8831213784,0.7044372898,-0.0559755168,-0.1127839983,-0.8031774185,0.5583707398,0.5737181503,0.7585437349,-0.9520147889,0.674824017,0.7416887798,-0.1866511758,0.3855699318,-0.4423222817,0.1315562701,0.9506736322,0.8943207499,0.0275910593,0.4944437603,0.1168882705,-0.3257384382,0.8448434611,0.264145022,0.8053850524,0.9472460214,0.4203612178,0.2673154366,-0.065242311,0.7882806538,0.2166470463,0.1286748617,0.9827939986,-0.7516174923,0.0273093807,0.1885968651,-0.7682586048,-0.2109155104,-0.149867168,-0.7183538614,-0.7769634553,-0.5603727109,-0.7442526258,-0.5933355983,-0.3566320305,-0.7976934079,-0.5123108805,0.9009329983,-0.3928665203,0.5869347631,0.4165594101,0.3386561844,-0.0135973978,-0.8376090012,-0.7685836382,0.4685427232,-0.1643363392,0.4976356333,0.7303232027,-0.8051999517,-0.7736227396,0.0138067101,0.1761567581,-0.0335949012,-0.2024259043,-0.3391189402,0.716777387,-0.8085806909,-0.0018628491,-0.9437731697,-0.1212923743,-0.4573704659,-0.0806660119,-0.0403426827,-0.7935965642,0.1237593536,0.6268821516,-0.3751690834,-0.0171841056,-0.0615040756,0.410293493,0.7008404797,-0.8061858935,0.8193283848,-0.3841309069,-0.0028518279,-0.9040937079,-0.2876658002,-0.3739737919,-0.1829894187,-0.8479000965,0.0286089369,-0.8951968885,0.9181003039,0.8105068513,0.9979700558,0.3287401104,-0.4771832779,-0.7750502831,0.5937811658,-0.8881840475,0.1238997478,-0.6874874244,-0.617780062,0.546153978,-0.7036767267,0.0551566826,0.6698881566,-0.6363212372,-0.8032625136,-0.7984131546,0.5721992418,-0.6813812085,-0.6419908616,-0.2835377539,-0.5556461875,-0.4798131136,-0.214900357,0.5234696458,-0.1471633941,0.3437323264,-0.5419681368,-0.0925565142,-0.1859181492,0.6871047922,-0.3479056629,-0.4931898264,0.5939116539,-0.0789030088,0.6254261152,0.3214591108,0.9164621468,0.3332891892,-0.9324674044,-0.7758323482,-0.8955059684,0.9985415084,-0.6545143336,0.2913824504,-0.7794712026,0.0635191609,-0.824213502,0.543940504,-0.0754978208,0.7250956611,-0.2494080892,0.2702057613,-0.5440189532,0.7547818958,-0.8686503097,-0.7336943188,0.7356030287,0.3277613622,-0.4988239839,-0.7444264732,0.1584608307,0.3318065638,-0.3090064837,0.863629023,-0.3421215835,0.7313994697,0.260781646,-0.9463388007,-0.3435930955,-0.2761760614,0.9990173909,-0.9525037347,-0.8787173945,0.0054333206,-0.4161098136,-0.2559232666,0.054463322,0.862688426,-0.843698441,0.3183538008,0.8343894059,0.2762570557,0.9483623319,0.5522595861,-0.3518972091,0.104537006,-0.870676426,0.1271167455,-0.2061114585,-0.4942114038,0.368324283,-0.2901812119,-0.2505499559,-0.3939216893,-0.036162575,-0.5398353072,-0.2395329868,-0.0377866626,0.3640585539,-0.2492866916,-0.5063444103,-0.5491746632,0.6236716734,-0.1240689992,0.4338011258,-0.7968351104,0.4991985517,0.8892630713,0.7883463775,-0.5041857073,0.553598256,-0.328222501,-0.6898240827,0.6440050675,0.1181029617,-0.319207641,-0.2429154244,-0.5663915211,0.4727235482,-0.7377315855,-0.2772885912,0.3505977094,-0.0320885842,-0.4549825721,-0.586172295,0.7285062324,-0.3071975848,0.2570686182,0.5071846652,0.3273400762,-0.9638776984,-0.898874212,-0.3322787456,0.8628923174,0.2760100693,-0.9402792663,-0.4397827873,-0.4036690801,0.639087851,0.3842515298,0.6517083684,-0.9421755717,-0.4484392841,-0.2613950517,-0.89190257,-0.1392435719,-0.1465733885,0.0028644426,-0.4614259095,0.7094236847,-0.2562561649,0.1613974418,-0.1919946309,0.2440164985,-0.8652456357,0.6673493227,0.4788127408,0.5379133594,-0.8202041485,0.3986200865,-0.1515391266,0.5286715429,-0.3462084865,0.5885791047,-0.1141124005,0.3438763463,-0.1582828966,0.4315058246,0.3309085695,-0.2359834121,-0.8197316838,0.8514294822,0.76753019,-0.3317372063,-0.925521114,-0.4311189007,0.9078540529,0.2385358899,0.9805420411,0.2662862396,0.8731917679,0.0042541612,-0.5829020445,0.9402301252,0.7079753503,0.4188247135,0.3198704342,-0.4316597164,-0.0612230932,0.8324148711,0.834042191,-0.1127206141,-0.7932315349,0.9838637955,-0.6277242994,-0.9132009937,0.8276216625,-0.0142779563,-0.8188535384,-0.7081020588,-0.8413441002,0.3949045733,-0.8550755117,0.08390348,0.140239668,0.8264960482,-0.5701770113,0.9384837887,-0.0674976419,0.0538442141,-0.8313841263,-0.8185102353,-0.4756704073,-0.4520890981,-0.2233116523,0.9905258605,0.6458406181,-0.5478108654,-0.2755912179,0.8432230578,0.1580937072,0.8620308726,0.6504384164,0.1462312843,0.5927169882,-0.3087812851,0.4794493402,0.530936464,-0.2711483012,-0.9396469946,0.8761146795,0.8171236602,-0.3516958531,0.0522545927,0.3097696128,-0.6907451606,0.4856423923,-0.1211696886,0.4697843843,-0.8025204906,0.9148843281,-0.2832199146,-0.5645056761,-0.1748439806,0.4018018139,0.8228521018,0.9004902061,-0.9631238708,-0.3173073881,0.7723615987,-0.8196691347,-0.3178589998,-0.4988532145,-0.5904286597,0.791269975,-0.9648385779,0.8208169976,0.7065867324,0.0273655498,0.838133632,0.1819600161,0.5963135833,-0.0746119453,0.7615949068,0.2147265405,-0.5693046148,-0.2271978554,-0.190272702,0.3388638716,-0.0312806231,0.547943704,-0.567820314,0.5536659584,-0.2742819853,-0.2572999261,0.380635881,0.6547159064,-0.2720418332,0.3559676642,-0.5018238785,-0.0754083545,0.7691646204,0.6683541896,0.47335553,-0.7623613412,-0.5060419943,0.4788737776,0.3284481809,0.1733306079,0.0835062867,-0.6249825153,-0.8622503333,0.8868447838,-0.7849300886,0.0468487174,0.2580743159,-0.6271692378,-0.3325739287,0.6214320699,-0.2756499937,-0.6090782096,-0.2419143133,-0.7824361896,-0.6530842978,-0.6755608208,-0.5205587321,0.4307754046,-0.2222200643,0.4121099122,-0.7552086438,0.101664658,0.7402320347,0.4780040036,-0.4978105612,0.9164748995,0.1081315744,-0.3206861024,-0.0704348613,0.3828086914,-0.2258048873,-0.8434936694,0.8552265407,0.8221345337,-0.4194542468,0.9766424699,0.3750858159,0.5571534151,0.6920331798,-0.613655119,0.2568461805,0.4100347531,-0.336939073,0.3812391489,-0.2898717278,-0.0105133302,-0.4545958307,-0.191388554,0.5289094196,0.6271023061,0.4990574441,-0.2745758999,-0.553204951,-0.2210747352,-0.8697635585,-0.6378022798,-0.8178238109,0.7036712749,0.2114794974,-0.4386588284,-0.0150069074,-0.9211363005,-0.6557583591,0.2281555864,0.0485010639,0.4237572788,-0.8270761242,-0.0192337992,0.6538987022,0.6885443914,0.6854180806,-0.5114205453,-0.4402998738,0.952498794,0.4751346999,-0.2855443152,-0.5609337151,0.443772689,-0.70580646,0.0573597032,-0.8138524444,0.5214285818,0.1270786491,0.8354771202,-0.1197604797,-0.2104397174,-0.1431983838,-0.9584614492,0.5802949516,-0.3448966717,-0.4987119017,0.6759388837,0.776509708,-0.3049830993,-0.5693345724,-0.2381510191,-0.8036749784,-0.4552197068,0.5464275085,0.0467967253,0.7143184177,0.0221890217,0.5184728601,-0.1255776916,0.7039566148,-0.3098453907,0.5417636664,-0.5671745011,-0.7662001978,0.0978452445,-0.5231748948,0.3495598844,0.7313491603,0.2317228645,-0.10748229,-0.1967378567,0.2482552423,0.0201352282,0.863743554,-0.217485069,-0.8122375609,-0.0068759656,0.7945459026,-0.6636524962,-0.481709903,-0.4517348013,0.1914341163,0.3477323036,0.3877065516,-0.715773703,0.9795552582,0.5920049254,0.0902775052,0.3887076395,0.8654249954,-0.7352521045,-0.731027399,0.0174516261,0.3926327267,-0.6389696533,-0.7010244748,-0.441783484,0.3740698045,0.6438329228,-0.8568105427,-0.923950758,-0.5587934508,-0.4738925806,-0.8396145254,-0.7763027131,0.865717339,0.1278409366,-0.1768502403,0.6591614626,0.0904171562,-0.8518174,0.2844040048,-0.0479541796,0.0145231018,-0.0242385903,0.7200442081,0.2174248379,-0.1117575717,0.5001731976,-0.9523909982,0.6522668447,0.6891569489,-0.6845905111,-0.6796285626,-0.6278605024,-0.6146832039,0.2601470614,0.4935637691,-0.7047031182,0.783378584,-0.3408217337,-0.218080051,-0.2609058167,-0.2060283589,0.6736570928,0.9420139026,-0.512223897,0.6094859035,0.3754089248,0.0176637212,-0.2525989931,-0.45545706,-0.0141002643,0.3995091478,-0.4875198557,-0.4245041898,0.1344817662,0.6011176517,0.2976153911,0.2519926635,0.4765278985,-0.3050586273,-0.1621362332,-0.3961090325,-0.1519171789,-0.3637428795,0.7561896064,-0.0371870474,0.2793817296,-0.8187649798,0.1585042011,-0.1954990555,0.3319431881,0.7306676812,0.0971697885,-0.8251511569,-0.904294245,0.3456482027,-0.8094567436,0.1403792073,-0.7885083161,0.9395663341,-0.5223094285,0.2545166204,-0.2787640801,-0.1457277784,0.8260128218,0.9213883129,0.2975177682,-0.281544607,0.3377278539,-0.7807216027,-0.8611674342,0.1945677765,-0.0381555703,0.3717771256,0.740943282,-0.4278852891,0.4375406077,0.7859286695,-0.1621046945,-0.6407927124,0.1224239652,-0.0964747816,-0.1873056523,-0.2795546857,-0.716712802,0.6225976523,-0.9500777651,-0.5160065934,0.4661886255,0.5307508732,-1.2187951883,-0.0373446189,0.1739912527,0.3107375386,0.3013303313,-0.6481740248,-0.7956452205,0.8923751083,-0.119171148,-0.9514017385,0.6353073511,0.0690341319,-0.1319322626,-1.0485233243,0.0918151017,-1.1078588178,-0.6393374099,-0.2015871724,-0.8329295144,-0.7884446243,-0.9045483646,-0.8573289229,0.2056613696,0.4205615001,-0.827211181,-0.1797116999,0.3832094292,-0.3428537129,0.0853583052,-0.5080979333,-0.7332369665,0.1547304731,0.3609745922,-0.9446969767,-0.2409299421,-0.1493371084,-0.2291431829,0.2757619631,-0.5413350352,-1.0166422841,0.3213230331,-0.1821123084,-1.1585979432,-0.8682809004,0.2560190295,-0.7869930597,0.0060486446,-1.1004011182,-0.1702450071,0.1082958385,0.7673992572,-0.3984033328,-0.2424629329,-0.6041203486,-0.5283534458,0.1438694796,-0.8661360086,-0.2957505283,-0.9425332731,0.4515991605,-0.508021852,0.2750985767,-0.2622878666,-1.1701645771,-1.1355416996,0.4388299286,0.6723074661,-0.2848581185,0.537201995,-1.0208423393,0.6873211867,-1.0277199757,-0.6596899667,-0.9222958035,-1.1407543557,-0.9094748786,0.7750890572,0.191401577,-0.0604484551,-1.0331225976,0.7177613973,0.7057968665,-1.1762112297,-0.2914922406,-0.1117147494,0.6384828722,-0.4159976637,0.5288387239,0.321461377,-0.3824615464,0.3495721855,-0.6775661707,0.2539164476,-0.9299338794,-0.5809314211,0.017125969,-0.6820362853,-0.5093312771,-0.9003927293,-1.0994212416,-0.3506975186,0.1760746891,-1.2016629287,-1.160554594,-0.3169701002,-0.3891724282,-0.0634315866,-0.4839842917,-0.2458517347,-0.8370916043,-0.2860336406,-1.1591300335,-0.7049145159,-1.1672179219,-0.7430297871,-0.4977508667,-0.9806676822,0.6774782252,-0.7752812341,0.1687630099,-0.6687295777,0.4142455486,0.3199142206,0.7854608689,-0.6745993496,-0.0990869827,-0.6056159232,-0.1659275959,-0.3145687374,-0.3702245073,-0.7251409465,-0.2703023496,0.1986066039,-0.4417027364,0.6441997872,0.7308845149,-0.5557684025,-0.3721878658,0.041249087,0.0781202264,0.0939243104,0.4981672165,-0.7903375943,-1.1172727508,-0.4019953494,0.5375521912,0.2878893411,-0.3737241088,-0.251565614,-0.7657001113,0.7447590712,-0.1630793606,-0.3587910195,0.4781517072,0.0571031446,-0.0918894437,-0.4386946314,-0.6974860013,-0.3471847521,-0.2384334593,-0.9450432148,0.3981723597,-0.5445393174,-0.2400453886,-0.0635830979,-0.931303705,-0.2732735381,-0.6020814115,0.4076930377,-0.7748947729,0.0261732918,-0.1225769088,-0.1600831159,0.6927121346,0.4739532635,-0.4515597284,-0.6809781835,0.251973641,-0.8365786806,0.4902648891,0.2053372117,-0.76734824,0.7853321605,-0.1225553409,-0.2757778573,0.5928433231,-0.5804294668,-0.5048023782,0.7670950827,-0.7179959996,0.6949493252,0.5729446727,-0.3672396074,-1.195264785,0.7228708202,-0.5131341536,0.665351734,0.5170820859,0.4607248795,-0.0260772482,-0.8554996166,-0.2678831548,-0.9282487073,-1.1628950662,0.4433135052,-0.0317071419,-1.1992669529,0.5813248899,-1.1424290471,0.8670004169,-0.9143358479,-0.5057534457,-1.0643514698,-0.3827697944,0.4471550457,0.175761401,-0.9611234477,-1.0993355711,-0.883624632,0.2962331867,0.0811062201,0.3593259001,-0.0219143965,-0.02964694,0.6790663683,0.1543615306,-0.7726695392,-0.6288508665,-0.4460071576,0.5781555218,-0.2934422051,-0.5750819042,-0.634470611,0.2821013991,-0.5267586463,-0.5181299911,-0.9238564031,-0.4077946635,0.014387549,0.0787510951,-0.2717703918,0.1544709052,-1.0981110127,-0.9363243373,-0.1958244743,-0.0440365756,-0.6035293365,0.0596258198,0.189893299,0.2986674821,0.6613914758,-0.6556762148,0.2261040596,-0.2252885389,0.1115908756,-0.30675012,0.1500425725,-0.6063929699,-0.5604907232,-0.9628033207,-0.8269434636,0.7375882409,-0.5510034009,0.4191477551,-0.5989577746,-0.2136431407,0.0472425216,-1.09619591,0.7613348531,0.3688827257,-0.965833113,-1.0360781319,-0.2101517004,-0.3100034241,-0.8545039806,-0.2876644573,-0.4288929758,0.0521433759,-1.0589534306,-0.3017902613,0.2662356874,0.5596833479,0.3442172543,-0.007688919,-0.6839083322,0.5065047476,-0.7901177553,0.0597395893,0.4701668491,0.5280932923,0.0860262487,-0.3722933771,-0.9828945998,-1.0923996358,0.193525996,0.1000941008,0.3282276898,-0.6185155666,-0.089130289,-0.0492427939,-0.0963243661,-0.3337629168,0.5812891108,0.0313542698,-1.1553861196,0.0829442857,-0.4948811315,0.5876787532,-0.2042470445,-1.131832308,-0.988078556,-0.6688712886,-0.0326180337,-0.4861825594,-0.5125152455,-0.1173262551,0.2214274033,0.1328360028,-0.4176269309,-0.4859507811,-0.8752882815,0.4073599191,-0.1905263854,-1.0162993285,0.2291368515,0.0350043419,0.5274377413,-0.4801053503,0.8210425072,0.9041982572,-0.7808450477,-1.1342122379,-0.9841403866,0.7526117523,-0.6975401401,-1.0354852696,0.4069400517,0.7958878638,-0.1102110024,0.6676876076,-0.1451657676,0.5272750136,0.2016696186,-1.0248025986,-0.1402043754,0.3535768899,-0.8994160064,0.5740639351,-1.3428900164,0.1627711162,-0.3435420315,-0.5100098703,-0.7938566718,-0.791486258,-0.7459521679,-0.1866865841,-0.4230910278,-0.4384973363,-0.3884766623,0.5660551102,-0.2686782655,-0.0187182685,-1.0044357855,-0.0560722926,0.4176037314,-0.3291725777,-1.1976762945,0.7074136413,0.0635011352,-0.6088868111,-0.50818981,0.6725449213,0.7382583805,0.3177945705,-0.7383398243,0.204254112,-2.78186569,0.2027393097,-0.0164190153,0.10003008,0.0599145026,-0.5000509892,0.8727337683,-1.0794121673,0.115960128,0.3610588106,-1.1270060498,-0.8848086262,-0.2628873847,0.6843085198,0.5571779056,-0.1914191812,0.6450668423,-0.5494261541,0.7021174288,-0.5338023335,-1.0136253365,-0.7318403712,0.0344983435,0.180129965,-0.5754607284,-0.4587800333,-0.0992712335,0.4263455117,0.12288751,-1.6322026219,-0.9832361583,0.0233005334,-0.9669920657,-0.3128674645,0.3583347315,-0.2487752604,0.4948416044,-0.7339001447,-1.0656048884,0.2836961921,0.6901279538,0.457816429,0.224636052,-0.8012140014,-0.4531447847,-0.5402774853,-0.8332362818,-0.3509318468,0.1734474513,-0.5944352294,-0.6927658239,0.1505266041,0.7488905304,-0.958607539,-1.0437226274,-0.2605795155,0.5188221524,-0.7279632828,-0.3224589282,-1.0705342396,-0.9865298695,0.7454086483,0.6149988948,-0.2888933961,-0.9423499141,0.5922462443,-1.1174624724,-1.0136683717,-1.0945486493,-0.061263747,-1.0500067873,0.7449401311,0.3605998452,-0.3254822403,0.6666042448,-0.4840715259,-0.0177064598,-0.1131790987,0.4781719279,-0.8877001069,0.6265877462,0.5356840984,-0.2534143675,0.1325456815,-1.1521515992,-0.9792146866,-0.7365494845,-0.2262190967,0.1457585883,-0.6309825129,-0.3617541117,-0.7666712974,0.843922438,-0.9448612688,0.0095000443,-0.9704929997,-1.1975988262,-0.9482732579,0.201583738,0.1738670521,0.2497253633,-0.6324982041,-0.7494782671,-1.1934279789,0.6969614984,-0.1510310326,0.2946460447,-0.4614387753,-0.2625219103,-1.1608701629,-1.0045881224,0.340051014,0.5298520801,0.5207245712,-0.7838620105,-0.6518750505,-0.9240366543,-1.0162979913,-0.8370621445,0.8343675619,0.6460559267,0.9283210939,0.5361226356,-0.712073955,-0.4038338635,-0.5082951608,-0.3603128217,-0.1013087304,-0.7819572982,0.7448548804,-1.1540983697,0.0212001151,-1.1057489384,0.3434568373,0.2854892286,-0.8151020623,-0.0028293482,0.2511349601,0.301773512,-0.5358240128,0.1855206073,0.7647602812,-0.806699835,-0.4469703339,0.3224419433,-0.8646098631,0.22850853,0.4991176953,0.0829829416,0.4852035545,-0.8748856284,-1.1050996345,-0.6463435313,0.7558427563,0.7805896408,-0.92650938,-0.9833570358,-0.5412414873,-0.3643732164,0.6206837116,-0.4478207501,-0.3573026877,0.4748488507,0.5886274349,-0.7915957065,0.6940690623,-0.7962395633,0.2225166702,-0.3028035938,-0.9127689582,0.1326266112,0.6328428087,0.787253145,-0.8364493225,-0.6218656896,-0.3646673004,0.0038969568,0.0772511179,0.5704549138,-0.630382874,0.1490645152,-0.9077989239,-0.2243520998,0.2289689606,-0.5110454528,0.5184743776,0.4703768269,-1.1097523062,0.4671665273,-0.7761710644,-0.5289652395,0.0542468035,-0.7893415005,0.7600856317,-0.2311744427,0.0005008992,0.2645976006,-0.2427000331,-0.7621751494,0.6803820204,0.0190968843,-2.7903536141,-1.1127771569,-0.8809179955,-1.1055144235,0.3923968063,-0.3300113141,-0.0092249955,-0.9053321423,0.6893187344,0.3922170519,0.5324013911,-0.3846847498,-1.0274167869,0.521458499,-0.6823274667,-1.1441162942,-0.5483530476,-1.0865166669,0.7060000054,-0.0441003978,0.8169530801,0.8210934012,0.5931499141,0.8297757959,-0.4129880498,0.4804752564,-1.0913637189,0.2191117187,0.0419699138,0.1126852357,-0.5937571319,-0.0602872112,-1.1213974297,-0.5348561729,-0.4788697618,0.8904535974,-0.8876031012,-0.3658922106,0.5123292061,-0.1974276728,-0.8923484665,-0.3124075181,0.1396208255,0.044066545,-0.6214769033,0.2109713743,-1.1751280493,-0.7045794339,-2.7415644381,0.2912132235,-0.8857140168,-0.6217284442,0.436219635,-1.14565071,-0.154776157,0.3707239905,0.0834855449,-0.309995611,0.3385848112,-0.6384869911,-0.9293699289,-1.0995307641,-0.5076517988,0.8055045765,-0.3752502874,0.4591932113,0.8520951289,-0.3923213119,-0.6533255055,0.4991531709,0.4028400387,0.4704234027,0.6502369111,-0.7961249084,-0.7909376389,0.1756772126,-0.4143828575,0.166068426,-0.3444492676,0.1143516821,0.3671085837,-0.3128985017,-0.6562591203,-0.217679277,0.7796513785,0.3080240343,-0.9387147596,-0.409338486,-0.0259852816,-0.5494469121,-0.7776891009,-0.9619127001,0.4310105597,-0.9954990316,-0.1290945327,0.5494348024,0.0356468883,-0.5481887837,-0.5570614455,0.8543630596,0.1422930356,0.0441981128,-0.1869735462,0.0235466764,-0.0778916032,-0.3508510631,0.4406781994,-1.1096786813,0.1929897829,-0.6697543603,-0.0787409387,0.5986354993,-0.9222917682,0.5904036368,0.3238659811,-0.0549611976,0.2797199765,0.7939031513,-0.5021111423,-0.5461637461,0.839752263,0.27634376,0.0123427275,-0.6660650946,-0.1743065016,-0.7821133555,0.229579491,0.6053991569,-0.1197158901,0.4660375697,0.5586104255,-0.8744402396,-0.6299314968,-0.9153518613,-1.1682430355,0.0178721476,0.1947679328,-0.5243087079,0.1159021337,-0.7418299646,0.626340661,-0.6175779673,0.2946077574,-0.5545726503,-0.1172552036,-0.7617577648,-0.9740540702,-0.9487284818,0.0060720159,0.4240372587,0.6728817745,-0.8214055021,0.6302894662,-0.816167924,-0.9661106697,0.882567982,-0.2536739616,-0.3724701516,-0.039895522,-0.5531542725,-0.6965136348,-0.4121268833,-1.0244861514,0.4179013628,0.1156750525,0.5655014657,0.4849835609,-0.9537732204,0.8755471754,-0.2675647655,-0.780313614,0.0381825144,-1.0946044459,-0.222800397,-0.7337942767,0.6325014368,-0.2545672262,0.1741443412,-0.1612221214,-0.4247838246,-0.2782177749,-0.9265636066,-0.8134738061,-0.5284890257,0.0077814119,0.682173965,-0.8506410525,0.6572513964,0.2321589417,0.634699383,-0.2236633835,-1.0051720136,0.2875926057,0.3652352379,0.7335668248,-0.908143306,0.5158342955,0.8305918377,-0.6428898523,0.8919117354,0.5055354047,-0.7466779738,-0.5540837123,0.5997419539,-5.2341928049,-0.4178228038,-0.4806085975,0.550930609,-0.9494360204,-0.9678776611,0.5366508937,0.5546893947,0.9401719363,0.470916235,-0.945016955,-0.6457180781,0.8708738004,0.4717350281,0.8899847104,0.0320976791,0.8652597455,-0.5361696107,-0.878715946,0.042045424,-0.7325382848,0.9410078439,0.150449968,-0.5394517427,-0.2189141129,-0.9404208388,0.6671195121,0.9216290711,-0.5411207898,0.7786660842,-0.5444226005,0.8895566499,-0.0332559207,0.4281767777,0.4766221705,-0.0997622251,0.3912264082,0.3150461382,-0.7414102177,0.2070415492,-0.1966424553,-1.0350008214,-0.3525601701,0.435063889,-0.4260330726,0.5336983883,0.3457523075,0.5780430796,-0.3609156286,0.5644673295,0.3998588319,-0.9405465567,-0.5972143137,0.3383404059,0.8826339268,-0.8241539184,0.9009936624,0.4840910347,0.0481035621,0.8550887232,0.2610621283,0.7298032121,0.3015116407,0.8775225141
   0.5585725467,-0.0022603374,-0.1642432782,0.937279467,-0.3214066128,-0.7213623593,0.4470619481,0.1829957994,0.8648368659,0.0585924807,0.198930466,-0.2295070398,0.75040841,0.9590315829,0.2598725807,0.1090154639,0.1720193102,0.3143661518,-0.8243262694,0.2331919976,0.5124505421,-0.9523398835,0.9276965317,0.6023685762,0.5624835927,-0.0614195549,-0.7034091891,0.5685702515,-0.1812190518,-0.3668057793,0.5612401729,0.6047052181,-0.8202288408,0.9312197259,0.237959518,0.4955694992,-0.514196314,-0.5930621721,-0.4541609655,-0.5345941038,0.597721752,-0.2702698663,0.985019886,0.6826427535,0.9313339504,0.3092888437,-0.8699832699,-0.0579737657,0.3144742099,-0.1288789365,-0.5741299683,-0.8064309225,0.2869999457,0.8074951233,0.2634288799,0.4440890237,-0.1966153221,-0.3702496881,0.8488641028,-0.9440073579,0.2956767711,0.3925576324,-0.439072075,0.075181471,-0.7119974563,-0.5085477578,-0.65235717,0.9135778673,0.7470602646,-0.8438174505,0.6869482302,0.6581200425,-0.9303723168,-0.5901932392,-0.6186991282,0.1082849472,0.8750322068,-0.4337311627,-0.6616282018,-0.2815146163,-0.6932492046,0.0899184914,-0.7737702379,0.310940152,-0.7716583123,-0.372978379,0.7065916197,-0.6852487596,0.7289042243,-0.688900729,0.3093101543,-0.7968059755,0.53921902,0.6604151211,0.1503163312,-0.0470458183,-0.3262006246,-0.4950276429,0.9244823596,0.1655271016,0.838651771,-0.7149825593,-0.2885278075,0.2934152572,0.2663681856,-0.6468602319,-0.3697165274,0.8642843067,0.4310045761,0.9841078877,-0.1412069378,-0.3387707958,-0.5911243663,0.1577144026,0.7404568067,0.480157697,-0.598041881,0.4274083605,-1.0158185562,-0.0929561216,-0.4178115943,-0.56398921,0.9134272366,-0.6127016713,0.7375772923,0.1943291191,-0.6347578242,-0.1230111887,0.9374344683,-0.065106869,0.0143024909,-0.5436270917,0.1147895885,-0.7640988025,0.0441314814,-0.6644265269,0.7962722631,-0.1347134457,-0.0997119927,-0.2182693064,0.2642481868,0.6712379516,0.1381107413,0.5597026747,0.6720884549,0.6454489761,-0.2396772296,-1.1210326261,-0.3127419963,-0.1586337605,0.5913026884,-0.3396877962,-0.0237177343,0.1885366189,-0.1282179182,0.6372827721,-0.2356416728,-0.820687503,0.0168202449,-0.6555599413,0.9761244847,-0.6525946638,0.500314297,-0.4971833436,0.9037944643,0.3779019234,0.7045985686,-0.483929041,-0.2069902263,0.025068368,0.7613149693,-0.8671085866,0.5528158289,0.3055990769,0.6246817911,0.0383119298,-0.1786782408,-0.6803405583,-0.4690017104,0.5074207615,0.1660545864,-0.9313370007,-0.7190256016,-0.955258525,-0.1073103954,0.8988246356,0.2494292429,-0.5990201983,0.5952260655,0.0481426029,-0.3088907006,-0.5479368385,0.5216710731,-0.4455469951,-0.8483875772,-0.3686367592,-0.0435936261,0.2686475582,0.7389486157,-0.1811769999,0.4499481928,-0.0896633528,-0.6617458445,-0.4669997585,-0.4813241372,0.5613337993,0.6010013033,0.0247291822,0.8576069092,0.5729356636,0.8673035598,-0.6378627439,0.7778569937,0.8639545664,0.1270328284,0.9017037481,-0.8782591009,-0.7083467956,-0.9284902737,0.3733436233,0.6120246223,-0.1614844981,-0.0294851364,0.6540272084,0.2279660233,-0.78613119,0.2261332463,0.8360224385,-0.1048410446,-0.8527337952,0.6891697726,0.1407633628,0.724198408,0.2916354856,0.7970652205,-0.5841956985,0.0495605559,-0.5570143851,0.3437212663,0.447663042,-0.7965633973,0.5167789377,0.0465396757,0.627283106,0.6497334692,0.3363978981,0.8402612554,0.0336272835,0.5315854853,-0.1140799866,0.7469210573,0.2929697932,0.5755431317,-0.8582259497,-0.9846517647,0.4937906195,-1.0005281885,0.5169063184,-0.6211333454,0.315591403,0.6142331929,0.5876382462,0.9933317635,-0.8464391133,-0.2842139169,-0.9715194468,-0.3308747742,0.1636755896,0.2812698836,0.380423827,-0.5881007041,0.1993669997,0.6111837522,0.5008058307,0.6891025613,-0.5717243115,-0.1340038089,0.0583964224,-0.6194044036,-0.426353263,-0.0028369797,-0.5727898283,0.3090457052,-0.1826731005,0.9332843822,-0.6162154277,0.1988919953,0.2128722844,-2.1769840148,-0.6595409545,0.028404861,-0.4569832408,0.1103140679,-0.5548116286,-0.9113246127,-0.2283806428,0.1285963235,-0.0359786383,-0.5144194506,0.9075157375,-0.1025134798,-0.3230647621,0.4762762082,-0.5560552813,-0.7292563783,0.7761839784,-0.8346073894,0.6758786453,0.5452746227,-0.2938588775,0.8652677111,-0.640259267,-0.7044779882,0.4708232245,-0.2454675292,-1.0835717584,-0.9650217111,0.4861423749,-0.8978535154,0.3223583165,-0.7989820315,0.2458380922,0.5990469635,0.5370591616,0.4845204813,0.2273359828,0.0604805152,-0.5935299223,0.170966032,0.8039659987,-0.9403693475,-0.4241964615,0.2242439621,-0.3028672593,-0.6782728969,0.249228963,-0.2977558773,-0.8776971705,0.5266577881,0.4745026027,0.9534738197,0.4718673026,0.8417686448,0.6697933809,-1.1889045829,-0.7344066415,0.0113776952,0.4919564883,-0.1844838708,0.4761061146,0.0949032608,0.0761259676,-0.6701942746,-0.6725133526,-0.7367234284,0.7593275375,-0.5236002852,0.7058178974,0.2522161481,0.1289713424,0.9280181374,-0.0611745301,-0.300096489,0.3674250997,-0.4105986778,0.05875172,-0.0692803954,-0.5937636714,0.3406028661,0.8250821859,-0.5195020986,-0.4280303097,-0.3863553538,-0.1392371522,-0.5093783413,-0.7509851808,-0.1646618472,-0.9226819016,0.8627259706,-0.7753951319,-0.4260949726,0.4039990021,0.7622391972,-0.7792977,-0.4262250868,0.5894795448,-0.4487806783,0.4865944809,0.8384147786,0.4165945165,0.3446500436,-0.3792948803,0.0403555267,0.0535036107,0.4175803321,0.1504654441,0.7117421144,-0.0923572526,-0.3017795702,-0.1692379206,0.9839417739,-0.8111892029,0.047932556,-0.8380681779,-0.5734764222,0.6295245268,-0.1867804039,0.5001501066,-0.1868367914,0.6304676288,-0.9508839314,-0.8155228938,-0.1355621748,-0.1322397498,-0.5033734418,0.8983547497,0.2128319944,0.2097784611,-0.8706615446,-0.7212612061,0.3269764304,0.1920055104,-0.6222971534,-0.0037223377,-0.9558925085,0.6755482524,0.6428031022,0.123590033,0.385065129,-0.7141829312,-0.4303124614,0.2183794077,-0.1081405234,0.62966888,-0.1561067154,0.6363998906,-0.7159113926,-0.6487774587,0.6781828322,0.0195225917,-0.2445383455,-0.2627014931,0.0759080671,-0.7351047697,-0.9100848781,-0.6885817213,-0.0646209349,-0.652824426,-0.7166490117,-0.2758221769,0.9073171508,0.2803413643,-0.0502836217,0.033929185,0.5358521023,0.5565390395,-0.5736968094,0.7125952493,-0.7803538483,0.5937005524,-0.4523462651,0.1951787889,0.9365441286,-0.1478773033,0.8987851999,0.6065191622,0.2588329287,-0.0980428205,-0.5786113516,0.6693643677,0.0493962408,-0.8115707722,0.6550195799,0.6335491594,0.9960134953,0.3155885889,0.1232166599,-0.7781155582,-0.4654405158,0.9109824306,-0.4906313468,0.1255007921,0.78960513,0.7102592832,-0.8468187379,0.6880998298,-0.9168625366,0.9932643204,0.4392941085,0.3425790716,-0.7195683212,0.2912465488,0.3836181883,0.4484309603,0.4985656078,0.6759908911,-0.9435436513,0.1310430647,0.4192357108,-0.5097011979,-0.4961975632,0.6574679112,-0.7941725882,0.1540828395,-0.4036841899,0.3763411528,0.1585811545,0.5227698879,-0.3801964651,0.7790738462,-0.8362009437,0.5877671695,0.5984216092,0.5858522513,0.6468942847,-0.1830954664,-0.1646417688,0.6967278177,0.2235262976,-0.6656154618,-0.5184475558,-0.5713889058,0.6239255289,0.5915404119,-0.4769879848,-0.6688807912,0.2589866236,-0.8733437041,-0.6686657976,0.1664009951,0.5357037944,-0.42656932,-0.9709159991,0.5165685214,-0.5344151808,0.8398298122,-0.5607596987,0.6551993195,0.1551030362,0.8644812441,-0.1563220963,-0.2567965614,0.8446311471,-0.7598233878,0.7706797113,-0.4289664228,0.4491381182,-0.8456541734,-0.3567677778,-0.7114052456,-0.4660121005,-0.5795397393,0.004006201,0.8316972313,0.4839289694,-0.2760514994,0.2330741047,-0.5653942663,0.9762882661,0.131623105,0.3943313026,0.1765582659,0.1096027241,-0.2116107238,0.5851642837,0.5315971235,-0.5121034455,-0.0253106172,-0.69884036,-0.6791089629,0.9392953718,-0.9756829417,0.641006021,0.5305116029,-0.0646158081,0.8878919198,0.0254406382,0.9711578087,0.0800191983,0.5298313193,-0.257818642,-0.8221152459,-0.2056523867,0.7960114134,-0.157579845,-0.3520850031,0.4502453821,0.2925598523,0.4316686831,0.6436323153,0.2932822283,0.3445667308,0.3273799922,-0.7008544114,0.8178756321,-0.9495923723,0.0284241885,0.2192949695,0.9072873205,0.9122431719,-0.7228821283,0.480947459,-0.7429438235,-0.6358195673,-0.8495959686,-0.0118803175,0.5682829664,0.7843105698,0.5072808362,-0.8260152267,0.0210760094,-0.9069085442,0.096208956,0.1988534249,0.1181533089,-0.9508992474,-0.0721271317,0.246023933,-0.7287617054,-0.5544793411,-0.3708046383,-0.6048805718,-0.4449969323,-0.7426687528,-0.5641748956,-0.1250303947,-0.9006194978,0.0886797517,-0.1959270976,0.0191933132,-0.2285378953,-0.0642750175,-0.1482398721,0.8940368981,0.4067088876,-0.0903419562,-0.6359118669,-0.2101712881,0.6177543878,0.5458959466,0.3061281223,0.9128376231,-0.0290479379,0.8645361695,0.3378837795,0.5423583939,-0.5460830789,0.4965886479,0.7596241289,-0.2949231198,-0.3781539351,0.6890233557,-0.5345821789,-0.9910455343,-0.2773947139,0.1154662527,-0.5698653252,-0.4850793922,-0.0960616717,0.2217930304,-0.0265500459,0.9504245601,-0.9963601751,-0.3475705401,-0.6664230434,-0.4441568339,-0.7289179887,-0.1400760562,0.3158508381,-0.9320598941,-0.2042329374,0.1771967025,0.910293062,-0.3012428271,-0.0818119754,0.9352436987,-0.7386028932,-0.1440866321,0.2666120142,-0.1737655657,0.3116019508,0.9497297174,-0.4969974647,-0.897987179,-0.5081762875,-0.9642066767,-0.9776213205,-0.5502514581,0.5204824914,0.2237570013,-0.8934550896,0.5303713882,0.0161520384,0.473125034,-0.2487155585,-0.3640584198,0.9031850864,-0.7785487071,0.3975439695,0.1280425457,0.2844165624,-0.492081414,0.0662776114,-0.903427255,0.5387728049,-0.9360910196,-0.8959694593,0.2900336418,-1.0517367294,0.7170246076,-1.0973293941,-0.6528266997,0.1790964995,0.3589432768,0.7315194185,0.1298004384,-0.0999816961,0.2507730055,0.4132585825,0.1222581643,-0.4221685317,0.3039935551,0.6814992587,0.7952133761,0.0476741676,-0.2534059297,0.4456494692,-0.3496624683,0.632277843,-1.0006602668,-0.6673804528,-0.4410356995,-0.2034702817,0.5341731651,0.2087049271,-0.1995063184,0.2523667051,-0.2372361211,-0.0729536235,0.3302896549,-0.8326682608,0.5106733592,0.6516481993,0.2113529695,0.7296433476,-0.950685486,-0.1210288662,-0.257372629,0.4197735642,0.0313314948,0.1407088088,0.7357378012,0.4102320168,-0.1901064175,0.1404470053,0.8128976523,0.2207656308,-0.3917594216,0.8351627267,-0.3581066594,0.6602423633,-0.2282381117,0.5672947121,0.727101597,-0.7600071069,0.1750159242,0.589591417,0.3594269187,0.5179351002,-1.0780928495,-0.5066866778,0.2687749978,0.5002054104,0.5745017175,-0.3906538924,-0.8212206792,-0.1297862111,-1.0455158591,0.1182482207,0.8814489463,-0.6210158553,0.0935460376,-0.7775542681,0.7118960143,-0.8583240311,0.879287972,0.1756058667,0.1700485741,0.201040974,-0.5094236038,-0.3439289062,-0.7914049708,-0.5091266261,0.8705849414,0.3586070202,0.2701562407,0.4545978902,0.4714512882,0.0862835589,0.5400483761,-0.4544820672,0.7766819576,-0.1025038245,0.2741301751,-1.0575721654,-0.9764488968,-0.6877825935,-0.0614920995,0.4174112077,0.8052996031,0.4491785884,0.637062201,-0.039273839,-1.0571680625,-0.4801471284,0.5527617867,0.8917628892,0.7906394806,-0.8339976478,0.8679014568,-0.579627897,-0.3087438918,-0.7442957585,0.3269310512,-0.4876129975,-0.6679164685,0.2236336327,-0.6550678645,-1.0887329789,-0.4279735979,-1.0774564672,-0.0575739368,-0.7875869207,0.4544429742,0.004853886,0.0671741767,0.4715690262,0.6007045415,-0.930367272,-0.1527396502,-0.4164760016,0.3982958116,-0.7083853833,0.5490087794,0.023359865,0.2181773399,0.6614232958,0.6725003084,-0.1929272434,0.3712123712,0.8564382887,0.0538913115,0.4306203803,-0.4051383297,-0.6548750955,-0.9512038108,-0.2411518209,-0.7153883759,-0.5063552419,0.8650561653,0.3454078549,0.4851462728,0.3169998427,-0.2132363236,0.8757633739,-0.0291646359,-0.9856596369,0.3120229446,-0.0322483588,-0.9247631703,-0.3272587532,0.1971679807,-0.2015290986,0.8230105625,0.0154315343,-1.0070663434,-0.2923811404,0.4293662014,-0.5083941322,-0.0937475551,0.4167679525,0.2284922573,-0.2226701428,-0.6052754574,-0.9742599312,-0.3734953348,0.3754077826,0.351589518,0.8829312092,0.6135385239,0.4369570749,-0.6752081844,0.8077465743,-0.0254192824,0.3126234419,-0.2609755294,0.3677604368,-0.1023285721,-0.8316576824,-0.310345726,0.0990236587,0.8005330087,-0.6383818869,-0.2384615759,0.1296270456,0.3048020536,0.0961539781,-0.6154465975,0.6902296156,0.7849918127,0.3625557573,-0.1849941429,-0.071179165,-0.707849057,-0.9843752086,0.3146920851,-0.5872516235,-0.6047833626,-0.38667379,0.8844551187,-0.1036142471,-0.3015629845,-0.1604343748,-0.3657404419,0.8832604814,0.4323876506,0.4297293617,0.4851338206,0.0713362339,0.4630619115,-0.8291709279,0.8516664716,-0.3629266332,0.8801498251,0.7664765569,-1.0072191566,-0.1243082093,0.0724435821,-0.5370763734,-0.8725306041,0.255395254,0.6913013939,0.1357060984,0.6943124107,-0.0410181721,-0.8937338875,-0.5363995375,-0.3369151144,0.3583618866,-0.0339433353,-0.916783836,-0.5660705675,-1.0766397713,-0.5880219778,0.7875141633,0.3444247746,-0.1055791163,-1.0064645977,0.2055192152,-0.6879387984,0.3125555638,-0.5380618509,-1.0114994719,-0.2017472105,-0.8046700602,0.3466010563,0.2887834184,-0.0923407735,0.8552030351,-0.420436864,0.5302420656,0.6568520609,-1.0159472689,0.3686593607,-0.6387676268,-0.7967225046,0.5645059521,0.7938367352,0.4714073944,-0.973815612,-0.5674612364,0.5423358392,0.8580351029,0.1441959426,-0.4886513823,-0.4587674882,-0.7487154559,-0.9793318334,0.2659795253,0.7084729191,0.4500864692,0.4351535535,0.3891014709,0.2811129494,0.8334134941,-0.9718824333,0.0989889983,0.4323033495,-1.0599689044,-1.0896777691,-0.2709524216,-0.5982225565,-0.839909524,0.5454196243,0.6984612421,-0.9081265187,-0.099649219,0.586519658,0.089538978,-0.5762149886,-0.9052974193,0.3962554991,-0.2779130393,-0.5641039312,0.2712315589,0.063981454,0.4719761911,0.502047791,-0.3919173693,-0.5110847168,-0.656270529,-0.648636322,-0.9033324115,-0.8946412605,-0.9547853497,-0.9363766208,0.486903699,0.0140505276,-0.8022653345,0.1950887939,-0.0523298592,0.5143048226,-0.057658041,-0.3599283015,-0.3796322812,0.5320007283,-0.8270919433,-0.5635267928,-0.9074857653,-0.8832551068,-0.9918073206,-0.6786100167,-0.1101120152,-1.033825073,0.6037103212,-0.2708708554,-0.9558427151,-0.3394208829,0.2437352995,0.089962298,-0.2123256032,-0.9543696984,0.8956853484,-0.1760163417,-0.5385323893,0.0401878832,-0.362091162,-1.0146726783,0.5901489559,0.7049480484,0.2156258198,-0.4086192593,-0.7596435619,-0.7881262601,-0.868336308,0.7158511333,-0.8782186264,-0.1664715943,-0.0824035268,-0.5829405664,0.8520962243,-0.04680476,-1.1091048188,-0.6647978505,0.4728415251,-0.9812511292,-0.8783698943,0.411659773,-0.7752118147,0.5159012174,0.8036305167,-0.416793151,-0.0227270984,0.0851954687,-0.945903903,-0.8598419574,0.710815313,0.1069523845,0.0165033948,-0.0441618105,0.2049434708,-0.4757756688,-0.9276847803,0.420776548,0.8054879895,0.077142312,-0.8369045222,0.3003562456,0.385833453,-1.1080536319,-0.0753328473,0.1923651962,-0.535241531,0.7102368665,-0.278355003,0.4378155496,0.4109003437,-0.5129270979,-0.6983274431,0.1227291776,-0.3528231959,0.8372556329,0.3330921966,-0.1879683046,-0.4242315959,-0.9492153486,0.1772970096,-0.3231536592,-0.0900379643,-0.9802380168,-0.3784757879,0.3467517908,-0.0160035394,-0.7364240953,-0.7511951934,0.4361967159,0.6315079273,-0.0360893415,-0.9367857787,-0.1600770439,-0.1049468921,-0.9209433707,-0.9518435266,-0.8302882676,-0.9031739476,-1.0057603143,0.3350742917,-0.8605868784,-0.9145133387,-1.0704754772,0.4044342512,-0.990531609,-0.4343180113,0.4566346122,-0.5284916477,-0.3603784634,0.7164240942,0.4079602425,0.4033147681,0.6921696242,-0.0406707221,-1.096583602,0.4472866535,0.7614466185,0.7925759883,-1.1038285895,0.230011353,-0.1546851815,-0.5195190045,0.2388591355,-0.7123938876,0.8147319988,0.4990278657,0.306243249,0.4416203174,-0.6824463852,-0.3104230776,-0.1807863862,0.6226392345,0.8840679074,0.3344381346,-0.9142074593,-0.4669522039,0.1895201485,-1.0992596781,-0.7362615808,-0.7666648687,0.8604764931,-0.751522369,-0.7285995238,-0.2283570319,-0.5313051404,-0.4855730141,0.4785957143,-0.4134456637,0.3409213995,-0.4407088264,-1.0886338716,0.2958977773,-0.279870461,0.4917544295,-0.7206835582,-0.3526069597,0.4742351909,-0.9943347247,0.1639969673,0.6690671759,0.6875651809,-0.3495709622,0.5080532553,-0.3877423201,0.3678780145,0.1159813052,-0.3927534729,-0.2135152533,0.2940091988,-0.8280788352,0.8878699569,-0.4364287485,-0.8640310986,-0.4510294672,-0.5803337572,-0.4111057053,0.5668901996,-0.4044404994,-0.6232633393,0.840333833,0.1255839714,-0.8438677388,0.1742624585,-0.7052539416,0.515236231,-0.0382615583,0.8192787697,-1.0548415004,-0.3248349014,-0.5402869865,-0.7229646481,0.2774136699,0.0673991962,0.0056238569,-0.193468653,-0.2134032244,-1.0957115423,-0.213807469,0.0941096418,0.5480384442,0.5033864469,-0.5826082071,0.7095383468,0.3892154783,0.4431905392,-0.493322657,-0.4681731399,-0.8898311729,0.4793748499,-0.0146831179,0.4812413823,-0.1012005315,-0.4169230555,0.5145235062,-0.2728676553,-0.6023440277,-0.4988102709,-0.5131112038,0.1685624385,-0.2156912659,-0.7204873345,-0.7158275348,0.2763726757,-0.3750637968,0.4432629462,0.7206688795,-0.2476384001,-0.4780374861,0.7177093037,-0.6628919377,-0.3472119958,0.6700119998,0.6447055213,-0.51823033,-0.783195742,-0.2780248425,0.2850733588,-0.3697244553,-0.2131429949,0.3170823909,-1.0423622332,0.6976152338,0.3841730575,-0.2261818505,-1.0414276308,-0.0222795209,0.2740079451,-0.531170644,0.1271778742,-0.9582069791,-0.2381625305,-0.3153491762,-0.7272491756,-0.0670502579,-0.9377324177,0.1982641144,0.0893717504,-0.0723586938,-0.6657529023,-1.067854626,-0.2711787698,0.5964931615,-0.8955352647,-1.5328692768,0.4615467659,0.0227541794,-0.1872647242,0.0037010819,0.4851563988,-0.5047506122,0.6015793585,-0.4794392775,-1.0369120214,0.612114632,0.1236160156,0.1521563292,-0.6150678301,0.5077478488,-0.6186949867,0.1050451154,0.8081823533,-0.5732754337,0.2593013435,0.4601594499,-0.4854510945,0.6428258184,0.1265473192,0.2067722123,-0.4662850917,0.8498877521,-0.0445539795,0.6545145871,-0.1963086921,0.8433613413,0.2893197397,0.4990285871,0.6817095334,0.6657535771,0.53123458,0.8539992218,0.5756808118,0.0970539861,-0.0821067243,-0.2831803335,0.5214002978,0.5963233465,-0.6825063653,0.226843448,-0.8260234363,0.0609722677,-0.5717382134,-1.1697504771,-0.9710664272,0.5630437977,-0.8011293578,0.5836082124,-0.6940047186,-0.0564305287,0.609236784,-0.2996964044,0.6600982637,0.8646919484,-1.0915859855,0.7791342297,-0.7611915809,0.6417565131,0.1591530797,-0.4847502765,0.1154127441,0.7926164609,-0.7551298997,0.349323787,-0.7367015149,0.5743363343,-0.9109954617,-0.8053250143,0.8920928662,0.629687124,-0.120493435,-1.0400743903,-0.4380838151,-0.9305490178,-0.8019196877,-0.7237137382,-0.7432792955,0.0425680657,0.5030263435,0.8900839094,-0.8523902184,0.2369722916,-0.046054955,-0.611326367,-0.9562590769,0.120525569,0.3841562199,-1.0307345569,-0.2032272471,-1.0288709624,0.2693488987,0.2949953064,0.812000311,-0.413429742,-0.4144668189,-0.1048306293,-0.8229286221,-0.8604442815,-0.718505388,0.3518515079,-0.5013756509,-0.5660508072,-1.1143367458,0.5295248843,0.7497492863,0.4312614192,-0.3940447159,-0.048504191,-0.2864904166,0.6445569849,-0.0856203855,-0.7486804813,-0.1202103667,-0.888505852,0.1083517892,0.4703730727,0.6032922828,-0.7389422212,-0.8852838409,0.2135159688,0.7222541047,0.0630729896,-0.0419423222,0.3659301977,0.3203162072,-0.2786811278,0.8191027295,-0.1472946501,0.002098188,-0.2474822315,-0.0235664096,0.4349609017,-0.8231958939,0.1836982584,-0.7637247533,-0.0829217462,-0.1757294667,-0.2265148938,0.2366125974,-1.0983762772,-0.7787676753,-0.3039675587,-0.0822608686,-1.0085740401,-0.433889096,0.0029245971,-0.4253912999,0.8519522582,-1.0867225691,0.798587038,-0.8106073892,0.8827201946,-0.9235156737,-0.4053827332,-0.4308941127,0.5777592063,0.3499751785,0.0166913787,-0.1134259224,-0.1308799278,-0.6267350531,-1.0024121654,-0.2123830436,-0.2553542819,0.2944008229,0.3688493864,0.61782809,-0.43656302,0.5090299901,0.1154358553,-0.0983757778,0.2442576136,-0.80695571,0.046862798,0.3271852781,-0.9500133459,-0.0418401287,-0.5860394216,0.0244158555,-0.5303436701,0.3763648471,-0.8087578303,-0.0881937683,0.0366358458,0.6555683614,0.4700744913,0.3198920312,-0.8693873603,-0.001777071,0.3846024273,-0.7962068882,0.1102192911,-0.8163971777,0.0095930527,0.3871055824,-0.9051630629,-0.7411973138,-0.9190539044,0.0889401728,0.0686135937,-0.3713821999,-0.790519151,-0.0829276794,-0.7267303912,-0.0933165836,0.2905237059,-0.7908226772,-0.5844973765,-0.600930073,0.0575687652,-0.987943654,-0.3221242513,-0.2406054163,-0.6231457878,-0.7310469996,0.0642946832,0.2529867753,0.5011354199,-0.0497052263,-0.3573444206,0.6256587852,0.3713519437,-0.5090403746,-0.779315051,-0.2941160557,-0.3497226817,0.0645860196,-0.2364075703,-0.1774201772,0.7724710847,-0.7989622702,0.7713280468,-0.9238433545,0.7760588089,0.3551522945,-0.2828710532,-0.01699554,0.4333547964,-0.3395722979,-0.2878982823,0.3267831212,-0.491601204,-0.9258214042,-0.9682893412,-0.9667766836,0.9309879112,0.5929611689,-0.1805939509,0.0372544668,0.2135769334,-0.4527323083,-0.7060357201,0.7616908116,-0.4867130538,-0.7237972699,0.6715430955,-0.7133050132,-0.8637647062,0.2929373546,-0.8549124716,0.6326702678,0.5449418826,-0.4964110636,0.5355778982,-0.3888819133,-0.7017060356,-0.1662536013,-0.7371814477,0.0207278177,-0.2769861704,-0.556956454,0.2430821967,0.6255469074,0.9812132085,0.0070867678,-0.5115323948,-0.4056237814,-0.0940256296,0.9409409004,0.5827857158,0.0817665423,0.7691364883,-0.2019617262,0.4360047992,0.9283844619,-0.0819112821,0.5314053771,-0.1724591227,-0.283614028,0.6792618957,-0.0538114844,0.1445987165,-0.5052913681,-0.6150553819,0.839615478,0.8603118962,-0.4595370394,-0.0779388643,-0.9146387862,-0.3271849873,0.8286638864,-0.2284001341,-0.4243094415,-0.6596081115,0.1136926372,0.617243074,-0.8237231401,0.3684694922,-0.6171143242,-0.071693595,0.3330107329,0.1631958934,0.3270186984,-0.5374392926,-0.4678796071,-0.2652317214,-0.107120279,-0.5459632135,0.2121403133,-0.9254554921,-0.988257796,-0.0555746477,0.6241321837,-0.4121690844,0.9154882705,0.1721933456,-0.2600239676,-0.9356470164,0.2630878924,0.5256533389,0.7201953113,-0.5264944835,-0.0078269616,0.5486177971,-0.5248156779,-0.5800862276,-0.3545701702,0.4646143456,-0.2461486205,0.6694579976,-0.7493217552,0.4001479065,-0.9070663586,-0.4936311584,0.0754676481,0.9780801691,0.7377772909,-0.610058107,-0.4427685599,0.0463426056,-0.3047476412,-0.9331580784,-0.6287365277,-0.4232989843,0.65182883,0.9157455949,-0.1384859668,0.534354647,0.6281172128,-0.3649923961,-0.9220711231,0.1443162223,-0.1814833549,0.2602024899,0.694181753,0.1627523109,-0.6663535925,-0.5676486799,0.0487798009,-0.149979862,-0.6499016742,-0.5529787812,-0.470423892,-0.9326321741,0.5923091815,0.4208281592,0.9275437933,-0.7784217006,0.2235266036,-0.1160335982,-0.9196996507,0.2116683929,0.2000637183,0.7704858567,-0.454916293,0.900990775,0.5991494662,-0.1029776635,-0.1404497648,0.4513799222,-0.4008776767,-0.6411127955,0.4328945417,-0.8859941503,0.2953458689,0.5238324708,0.0738960381,-0.9521598907,0.1016704275,-0.383137535,0.7312380357,0.5532935464,-0.0655959624,-0.6631824489,0.7103093615,-0.4253074066,0.6432420206,0.0716633015,0.3728049278,0.2606238963,0.6983454548,-0.8641847575,-0.2617226387,-0.914050592,0.6494684518,-0.3903937357,0.4959159343,0.0910166922,-0.4233221015,0.6398832367,-0.0127827594,0.4259709865,0.1336663194,-0.6968505718,0.5180223856,0.135286783,-0.9859163292,0.2363343845,-0.1050336311,0.9753546511,0.8626803311,-0.0086210065,0.9555343322,0.9716528551,0.4044847168,0.6539258251,-0.8002961368,-0.8497128921,0.7085529231,-0.0156487467,0.1664570902,0.1163099531,0.9593816712,-0.4098568876,-0.2615456024,0.1759713289,0.1525695432,-0.4052133531,-0.0259255941,0.5623902287,-0.8944253215,-0.6580595432,-0.9592400554,0.571548698,0.2233829405,0.902539114,0.2604039185,-0.4510027555,-0.1523776679,-0.3201874113,0.3851544866,-0.3777136643,0.0621959902,-0.7926667443,0.5526644794,0.5492437144,-0.7779459649,-0.4061700579,0.4951655559,-0.0609936187,0.0062115787,-0.8481465589,-0.6418984963,-0.4440045654,0.1480866534,0.1764756777,0.1102193531,-0.9409516518,-0.0672857341,0.8784046873,-0.918163391,-0.7678798206,0.66609645,-0.3908336654,0.8240314912,-0.5567120237,-0.9638758184,0.0730539923,0.9354563708,-0.0744587651,0.2181229751,0.0397285107,0.650396521,0.6089357077,-0.9084839889,-0.035908122,-0.8770033543,0.2409939588,0.4579302621,-0.5112325548,0.9839488186,-0.6883464917,0.1693900159,0.5143075097,-0.3571606855,0.0899048537,0.7320050296,0.907506134,0.0965356188,0.028409247,0.0845497996,-0.0305072701,-0.981566568,-0.6189051903,-0.3360487831,0.0254221346,-0.7118721526,0.2838325407,-0.6528760895,0.9626733999,-0.9222004585,-0.1357712684,0.3599422728,0.9677141016,-0.0988224951,-0.3485639234,-0.5241347734,-0.5164012231,-0.1692449495,-0.6424565758,0.3710865811,0.7027684222,-0.690757861,-0.9069278561,0.8847813239,-0.617151567,-0.4896822841,-0.2241863434,-0.3776571747,-0.2774725494,-0.5034349592,-0.4012172115,-0.5749174968,-0.8777263848,-0.7241492221,-0.7344469232,-0.5770998165,0.9086792961,-0.4371001178,0.925345432,-0.3990054379,-0.6120895961,0.0588554047,-0.6770352263,-0.0643258876,-0.3284682041,0.7646148014,-0.7205401925,-0.1585460635,0.9714570897,-0.2046350016,0.1481153497,-0.7564148785,0.5490974352,-0.8140140727,0.6177241592,-0.4117342807,0.7640273612,-0.3853197622,-0.4442992415,0.7039266919,0.6064961164,0.4822066861,-0.2289967681,-0.5592745775,0.4717633049,0.4028511896,0.0889402947,-1.6430286013,-1.1422371751,-0.3303322804,-0.4828888582,0.5567048547,0.0198512519,0.5194636841,0.1302380097,-0.1228860035,-0.1749830845,-0.1896042507,-0.4737411003,-0.0177563456,0.0719184167,0.0883356437,0.198032116,-0.6874250998,-0.5888519904,0.0757942244,0.0557605075,0.4063123572,-0.3444956266,-0.0742575614,-0.4296528748,-1.175601401,-0.9921644152,0.5598698419,0.7946493403,0.2479429388,0.4936646492,-0.5533022686,-0.1101640597,-0.7139723458,-0.2006533269,-0.064635897,-0.797749075,-0.8365344723,0.4008447634,0.4654815681,-0.8903737261,-0.0553077687,0.3764218817,-0.7707512147,-0.3488243592,-0.4566959847,0.5778230194,0.2297986847,-0.9887327459,0.9004166947,0.9334831131,0.0370455146,-0.8476209807,-0.6520131746,0.5306898144,0.3400597904,0.8818900157,-0.1431019743,-0.2573627586,0.3697108301,-0.7618527278,-0.5944034511,-0.8537403101,-0.9035751553,0.4528760557,0.9058972606,-0.7748211711,0.3278669535,-0.6496227155,0.2429858075,-0.9932480476,0.8004850668,0.338594767,0.7199249217,0.0158242076,-0.7580309348,-0.7378521678,-0.1484040801,-0.1930085849,0.5007750619,0.7945124473,0.4483744596,-0.8827249971,-0.6071453618,-0.2038083474,-0.9766353815,-0.1526404506,-0.3963159374,0.2248399488,-0.9237156576,-0.4127838339,0.901697463,0.5842219995,0.3185509602,-0.7175428302,-0.2198561699,0.2691945474,0.0570818374,-0.9461752286,-0.4838355852,-0.8308092088,0.3665449964,0.8621828302,-0.9656990802,0.3850465849,-0.0702949021,0.9100088697,0.4943124751,0.7466632847,0.8901556094,-0.8255946143,0.7566090662,-0.1875605108,0.6055951019,0.6350348291,-0.6166804136,0.034025892,-0.4284439061,-0.0862581345,0.788477887,-0.7198598974,0.9603030591,0.2691613875,-0.0467781805,0.8883693855,0.8617098289,0.7290490771,-0.9420570996,0.3609961777,0.2402359322,-0.0131501961,-0.373784463,0.3628896436,0.2054160949,-0.9533948903,0.3610572044,-0.2036443303,-0.3254155936,-0.1917424399,-0.9283067231,-0.57942104,-0.9541313557,0.6357147552,-0.1216905003,0.7844051616,0.3652978223,0.9515030138,-0.3015426846,-0.5406170132,-0.9798924014,-0.4033523479,0.7362709825,0.5670705058,-0.7862140089,-0.9660171612,-0.8516477208,0.2091104191,0.1734087829,-0.3292017247,-0.7965025504,0.7743608182,-0.5164021496,0.6632060642,0.9012628493,-0.4455100469,0.703096834
