encog,BasicNetwork,java,3.4.0,1,1670726121322
[BASIC]
[BASIC:PARAMS]
[BASIC:NETWORK]
beginTraining=0
connectionLimit=0
contextTargetOffset=0,0,0
contextTargetSize=0,0,0
endTraining=2
hasContext=f
inputCount=784
layerCounts=1,100,784
layerFeedCounts=1,100,784
layerContextCount=0,0,0
layerIndex=0,1,101
output=0,0,0,0,0,0,0,0,0,0,0,0,0,0,0,0,0,0,0,0,0,0,0,0,0,0,0,0,0,0,0,0,0,0,0,0,0,0,0,0,0,0,0,0,0,0,0,0,0,0,0,0,0,0,0,0,0,0,0,0,0,0,0,0,0,0,0,0,0,0,0,0,0,0,0,0,0,0,0,0,0,0,0,0,0,0,0,0,0,0,0,0,0,0,0,0,0,0,0,0,0,0,0,0,0,0,0,0,0,0,0,0,0,0,0,0,0,0,0,0,0,0,0,0,0,0,0,0,0,0,0,0,0,0,0,0,0,0,0,0,0,0,0,0,0,0,0,0,0,0,0,0,0,0,0,0,0,0,0,0,0,0,0,0,0,0,0,0,0,0,0,0,0,0,0,0,0,0,0,0,0,0,0,0,0,0,0,0,0,0,0,0,0,0,0,0,0,0,0,0,0,0,0,0,0,0,0,0,0,0,0,0,0,0,0,0,0,0,0,0,0,0,0,0,0,0,0,0,0,0,0,0,0,0,0,0,0,0,0,0,0,0,0,0,0,0,0,0,0,0,0,0,0,0,0,0,0,0,0,0,0,0,0,0,0,0,0,0,0,0,0,0,0,0,0,0,0,0,0,0,0,0,0,0,0,0,0,0,0,0,0,0,0,0,0,0,0,0,0,0,0,0,0,0,0,0,0,0,0,0,0,0,0,0,0,0,0,0,0,0,0,0,0,0,0,0,0,0,0,0,0,0,0,0,0,0,0,0,0,0,0,0,0,0,0,0,0,0,0,0,0,0,0,0,0,0,0,0,0,0,0,0,0,0,0,0,0,0,0,0,0,0,0,0,0,0,0,0,0,0,0,0,0,0,0,0,0,0,0,0,0,0,0,0,0,0,0,0,0,0,0,0,0,0,0,0,0,0,0,0,0,0,0,0,0,0,0,0,0,0,0,0,0,0,0,0,0,0,0,0,0,0,0,0,0,0,0,0,0,0,0,0,0,0,0,0,0,0,0,0,0,0,0,0,0,0,0,0,0,0,0,0,0,0,0,0,0,0,0,0,0,0,0,0,0,0,0,0,0,0,0,0,0,0,0,0,0,0,0,0,0,0,0,0,0,0,0,0,0,0,0,0,0,0,0,0,0,0,0,0,0,0,0,0,0,0,0,0,0,0,0,0,0,0,0,0,0,0,0,0,0,0,0,0,0,0,0,0,0,0,0,0,0,0,0,0,0,0,0,0,0,0,0,0,0,0,0,0,0,0,0,0,0,0,0,0,0,0,0,0,0,0,0,0,0,0,0,0,0,0,0,0,0,0,0,0,0,0,0,0,0,0,0,0,0,0,0,0,0,0,0,0,0,0,0,0,0,0,0,0,0,0,0,0,0,0,0,0,0,0,0,0,0,0,0,0,0,0,0,0,0,0,0,0,0,0,0,0,0,0,0,0,0,0,0,0,0,0,0,0,0,0,0,0,0,0,0,0,0,0,0,0,0,0,0,0,0,0,0,0,0,0,0,0,0,0,0,0,0,0,0,0,0,0,0,0,0,0,0,0,0,0,0,0,0,0,0,0,0,0,0,0,0,0,0,0,0,0,0,0,0,0,0,0,0,0,0,0,0,0,0,0,0,0,0,0,0,0,0,0,0,0,0,0,0,0,0,0,0,0,0,0,0,0,0,0,0,0,0,0,0,0,0,0,0,0,0,0,0,0,0,0,0,0,0,0,0,0,0,0,0,0,0,0,0,0,0,0,0,0,0,0,0,0,0,0,0,0,0,0,0,0,0,0,0,0,0,0,0,0,0,0,0,0,0,0,0,0,0,0,0,0,0,0,0,0,0,0,0,0,0,0,0,0,0,0,0,0,0,0,0,0,0,0,0,0,0,0,0,0,0,0,0,0,0,0,0,0,0,0,0,0,0,0,0,0,0,0,0,0,0,0,0,0,0,0,0,0,0,0,0,0,0,0,0,0,0,0,0,0,0,0,0,0,0
outputCount=1
weightIndex=0,100,78500
weights=##0
##double#78500
   0.044843227,0.6585263726,-5.5219893531,-7.1455854731,-0.4867606214,-395.0761243677,463.1145923159,-0.598671316,6218.752921603,1.4375799842,0.2657493356,0.2823944998,2.2159975619,-0.0166523849,0.8231402048,-0.0248777358,1.4670147373,-4.110363627,-5.8803083273,0.0460497165,0.6731823801,-60.0755801837,0.7742962844,-0.8644086654,20.7782790229,-1.7542429224,-8.7448219479,-2.7099291211,11.1554207391,-0.7538918285,2.6994390128,-8.8145375494,-1.5870027772,-0.6696462354,65703.9244330679,-1.6172633199,3.735341826,-2.4854212058,0.0917351651,-0.3725360391,0.5934190654,0.8912730406,-0.5814848219,-0.8710281251,3.9703021324,-1.6161682336,-0.0069196777,60.4174426767,-3.6407454952,0.786113415,10.7257366793,253.9966062877,3.1025573405,1.4753715085,7.9737071634,-7.7377038495,343.7469756853,-2.5809256533,0.2027138647,219.9801209725,284.8609050241,0.3113149584,0.0251895734,-3.2199876584,-1.842531566,-12187.1968513726,6.4263979404,-0.4323961914,0.4343307801,0.2308974053,2.2382677225,0.6738982921,-2.3709904352,3.2071993874,9.4034731079,-5.7819851672,-73.5451507208,-1.7037292087,-0.7669317713,0.5502548806,-3.2251072064,-264.6772901965,0.5920581775,4.45314453,0.717413475,-1.6437137053,0.2215759261,0.0469898684,10.3405226753,4.9407258746,0.0683403393,-7.9166797284,-139.5444270608,3.3747378419,1.9619866022,0.0906372066,-16.6321792759,-0.8579968984,3.8508577039,-1590.5602978099,0.600307864,-0.6049096638,0.0282238953,-0.7081159896,-0.8575312404,0.2660186195,-0.1956354491,0.7397858585,0.8165943713,0.7538858762,0.3805815096,-0.7128420812,-0.588485308,-1.1073389009,0.0648578457,0.1197642029,-1.2315453392,0.668044103,0.6356900002,-0.5993384432,0.3661749901,1.1847603286,0.2934058261,-1.0584181245,-0.3562457908,0.5869199962,-0.014159902,-0.1705066195,0.2415613105,-1.0596956603,-0.8933306595,0.5442901358,0.4314082833,-0.0585877252,-0.2909418016,0.7447808429,-0.3903275507,-0.0160289932,0.1077795626,-0.0324923484,-0.1522258913,-0.5594086525,-0.189746535,0.1578107029,0.1976248638,0.5089752037,-0.594682959,0.0506131385,0.0699739781,-0.5514609067,-0.3746582104,0.6302623352,-0.7053272004,-1.0691062424,-0.9894979512,-0.8262274325,0.3320187414,-0.6648292718,-0.1719941439,-0.2575243311,-0.8383573117,0.6799081764,-0.9061330654,-0.6141918544,0.376640411,-0.6657099739,0.2000070579,0.0601029112,0.4321857025,-0.9848433117,0.3820855253,0.3359373468,0.224499815,-0.6023730174,-0.5639946169,0.1532853173,0.3206485063,-1.0901166744,-0.8302364994,-0.9699161278,0.6831754762,-0.453035156,-0.9962701444,-0.239852479,-0.7614028078,-0.5164998935,0.7539711109,-0.4188553463,-0.5281864003,0.7550875981,-0.1042076957,-0.4989105244,0.4156839844,-0.4255517603,0.3210303768,0.6256999702,-0.1864155861,-0.2276836655,-1.0719410282,-0.6129487731,-0.5747831127,0.028974285,0.6029545805,-0.444552891,-0.1302481374,-0.6361075888,-0.3785657399,0.524948832,-0.1659054784,0.1064633445,-1.1021616257,-0.3730871252,0.7561012484,-0.5484577799,-0.5543539794,-1.010312563,0.5431638365,-0.3309739835,-1.061878234,-0.3061776203,-0.5337282381,-0.0927208652,-1.0263848129,-0.9203496643,0.4610518003,-1.1005353234,0.4627617045,0.0525609664,0.0905139458,0.2125928514,-0.6866801969,-0.3924999821,-0.4795835013,-0.6419853982,-0.0297990934,-0.9896707498,0.105924891,0.0494117346,-0.0709364593,0.5995972163,0.0284106388,-0.297472893,-1.0508697492,0.0057691151,0.8088664119,0.4081212724,-0.7668778311,-0.1512156855,-0.9543869863,0.5453897434,0.0143588766,0.3072149214,-1.0134485397,-0.5975760384,0.7791007381,0.2030685889,-0.9707243443,-0.7504254768,-0.2865186254,-0.9010692726,-0.9434722488,0.6903139269,0.6769953646,-1.0551756568,-0.0751001075,-0.2756650957,-0.7659165572,-1.1141057536,-0.8938277628,-0.7902108653,-0.7221399894,-0.373824366,-0.8520628446,0.5540313834,-0.4169796247,0.6466077583,0.6270622414,0.732687543,0.4158642318,-0.4822422502,-0.1727285766,0.4740032258,-0.9788368461,-1.043243187,0.2073565264,0.3115691942,0.5979731558,-0.1347383926,-0.8814033389,-0.8216046377,0.410882215,-0.7137744812,0.0826258976,-0.5684072999,0.1232887722,0.2052746114,0.2852182311,-0.0037544328,-0.4306541512,-0.2580547104,-0.5669775468,0.3637232417,-0.6783834178,-0.3474795917,-0.0625954552,-0.2673514601,-0.4866107668,-1.0546044439,-0.3458695493,-0.6308292509,-1.0730985606,-0.5759528245,-0.6156316696,0.1197030731,0.3317831171,-0.2267760324,0.2960370481,-0.6175956633,-0.3250061588,0.0806520509,0.3952678579,-0.5982269855,0.5064479019,-0.4486411933,0.6561392324,-0.5603118474,-0.5671066769,-1.0047608343,-0.8167162562,-1.3537627923,-0.6484080294,-0.0986920276,-0.9613531199,-0.4071305284,-0.6824148777,-0.9146309635,-1.0401062671,-0.8775409031,0.046255799,-0.4043328931,-0.1159870369,-0.8144002937,0.4091769794,-0.1999560859,-1.1717033043,-0.2597640864,0.2625316395,0.0256365563,0.5160668556,0.6334240101,0.1350523578,-1.0490485267,-1.0713759851,-0.5506542881,-0.9180253171,-0.2963568858,-0.3319872977,0.4999307071,-1.1765361021,0.5409751816,-0.4954783011,9.0184803623,0.5849687681,0.0083866052,-0.6473819952,0.5032028925,-0.0700357025,0.1166352838,-0.9619434973,-0.6272839793,0.3346926924,-0.4614432129,-0.0561889818,0.4907153492,0.7110010632,0.463799033,-1.1631323371,0.7710857017,-0.9715247468,-1.0923577191,-0.3225443329,-0.3195750332,-0.3649534904,-0.4648202034,0.5276220385,0.3778468542,0.6426879192,-0.9079682036,-0.0440071242,1.1794044287,0.1729069779,0.6793517426,-0.230920793,-0.4757363559,-1.1262532719,0.4749146856,-0.1557501121,-0.9250257128,-0.9565219753,0.6833399661,-0.0468212078,0.6108747156,-0.4874874662,-1.2116009293,0.4085938342,-0.6545842637,-0.9425827805,-0.3253871589,-0.5947429507,0.614224746,0.0582945635,0.2195613161,-0.3816842485,-0.2803105317,-1.1190950155,0.26162884,0.0743827115,0.2067312882,0.1089433076,-1.1421095161,-1.179253465,0.3238056329,0.6778746761,0.1734699297,-0.2853434809,0.1447881569,0.3367114256,0.5743768389,0.0963331208,-0.9638269556,-0.5741337792,0.1089244436,-1.1171259924,0.5745347228,0.3755617171,0.4089856859,-0.0301237779,-0.6422836908,-0.970385938,-0.6382900761,-0.7018873959,-0.2593534347,0.4443626022,-0.6532934247,0.1426247281,-0.4076860242,-0.8564746089,0.4432010404,-0.0132662624,-0.9998513248,0.532169312,-0.0265516018,-0.3260680325,0.6146469635,-0.0954120163,0.4817207105,-0.0677393257,0.7600062737,-0.4173495244,-0.3656127952,-0.1569444872,0.2782157433,-0.4921295422,0.0808784855,-0.9808693297,0.2029923813,-0.8704970017,-1.0417164485,0.1440584898,0.3189508504,-0.9945508871,0.4377447455,-0.3078370885,-0.9401946298,0.0808965951,0.2909634877,0.4939955169,0.0560514687,-0.0986827798,-0.0896029703,0.0506960545,-0.1726756665,0.0521198005,-0.7737370478,-1.1241988081,-0.4359957152,-0.0110342435,-0.3153340148,-0.9180119867,-0.4654020723,-0.1899202701,0.0360293877,0.4443241344,-0.5634632566,0.2439624873,0.7967378447,0.395932642,0.8310680716,0.5814485094,0.0110784042,1.0722753346,-0.2536460782,-1.0433224663,-0.8720793964,-0.0860484073,-0.0958413403,0.4213877498,-0.7153628612,0.5801318724,-0.0383777174,-0.8418798835,-0.4204462156,-0.8743353449,0.7913618625,-0.8905480365,0.5623058312,0.0046737413,0.3203286646,0.0629019859,-0.4571412789,-0.5084178531,0.4899306318,-0.4559785158,0.0184445012,-0.2247043565,0.0737126537,0.834499433,0.3106993448,0.0065818272,0.575989865,-1.0875531453,0.2397108178,-0.5764617861,-0.8251211523,-0.8712030703,-0.3643596883,-0.8410424815,-0.5671744859,-0.3729564198,-0.9332468446,0.2652417293,0.1045487603,0.297194699,-0.1307609032,-0.6690393583,-0.1557428336,0.2694696432,-0.8535463207,0.3252511444,0.1936942685,-0.1772421379,0.2934913196,0.6062844995,-0.9816015756,-0.735443757,-0.2027906307,0.8896005353,-0.2905116599,-0.16854763,0.747509698,-0.6577816073,-1.1046506481,0.6136492257,0.6252563096,0.7428085388,-0.2500463794,0.8117570127,0.0708430619,-0.6361002492,-0.2599724486,-0.7976327993,-1.0129248339,0.4195153857,-0.9701623806,0.3356452769,0.0000469334,-0.2400065703,0.4468918597,-0.9245382953,-1.1402036539,0.0446703043,-0.1603700831,-0.4575424463,1.3598866517,1.7567930922,0.9225368515,-1.0141655301,-0.1538841115,-0.5394450648,-0.7019889399,-0.7364043194,0.4761942145,0.2670864083,0.1115147399,-1.1669460011,0.6943269784,0.7147206626,-0.174087827,0.0450508825,0.5507470213,-1.1059999102,0.6420104869,-1.0484504554,-0.6218761183,0.2299493749,-0.5727694265,-0.8561729536,0.0942013599,0.2583307175,0.0236501056,-0.2795833658,4.1617750062,2.511996905,0.2446640321,1.3226864614,-0.8176484199,-0.6085920108,0.6001400435,-0.4933717905,-0.2246398924,-0.1784058557,0.7815993114,0.6374068468,-0.4077484513,0.7623863158,-0.8511059292,-0.5220609034,0.2942590489,1.137602771,0.3363239335,0.0153663622,-1.0885522982,0.0898668509,0.2241220404,0.3542700702,0.0935072686,-0.1945262277,-0.3971489308,0.2034378488,0.7019660575,-0.2208489514,-0.4241535221,-0.6066871149,-0.0651920705,-0.9053434319,-0.9164942108,-1.0698757849,0.2397207014,0.6245745186,0.4816846249,-0.6082454623,-0.8977431375,-0.3796267381,2.0315927046,-0.0908190357,-0.322338304,-0.1074935991,-0.1146203408,0.2677282881,0.7985298387,0.3262626868,0.2692434244,0.5030952908,-0.8445140438,0.1552574735,0.5582965517,-0.144696068,-0.3592088703,-0.6892617417,0.5428287973,0.5651129282,-0.8490709537,-0.3554918894,-0.8322576135,-0.4682974314,0.1778149757,0.2221626985,0.8293566763,0.3718657622,0.4826691095,0.1528804049,-0.0932605431,-0.2063993092,-0.3211744907,0.4161322944,0.0626325186,0.7459546074,-0.9605813198,-0.3728604163,-0.0966561419,0.1943077143,-0.6963088059,0.7906559342,-0.1934134581,0.1209560971,-1.1302745998,-0.9735808453,0.3587799761,0.0198442234,0.473122202,0.7739613703,-0.641242944,-1.0424563119,-0.9112328677,-0.3771905174,0.8035784592,-0.1065092053,-0.6846507707,0.0615085772,-0.4488847871,-0.1353525378,0.7631500211,-0.1132748026,0.8091563731,-0.2801849064,-0.8418377582,-0.8891492368,-0.5809299976,-1.0440861133,0.5113435839,-0.0608794653,-0.9010919074,0.1890605028,0.6733541552,-0.3329279049,0.5543013069,0.3741823249,0.1363394696,-1.0042593625,0.2929946311,0.1059061742,0.1249758809,0.4311456608,-0.616013015,0.1988792985,-0.0427315098,0.6023480427,-0.426421076,-0.0312905579,-0.1652523176,0.3575380347,-0.1675296854,-0.9578488265,-0.6794643315,0.0646434647,-0.6238177936,-0.4639225148,-0.7814594077,0.7867423841,-0.3343013388,-0.6762146185,-0.6591143632,0.1838192245,0.7645037451,-0.1456130679,-0.0061530429,-0.1196130433,-0.8987044555,0.2710650874,0.5047578307,0.070492994,0.0178553778,-0.2685996711,-1.1008426315,0.1794764259,0.5129936562,-0.5990510612,0.3911150624,-0.7209096834,-0.2083843319,0.5237328903,-0.0257951709,-0.4601709394,-0.5029163403,-0.2391541786,-0.1458012552,-0.7905901064,0.069800015,-0.4438613909,0.1184247358,-1.1163422345,0.3564881015,-0.4015582204,0.4577872977,-0.1473144408,0.2863281412,-0.7995221937,-0.2199085393,0.2473694048,-0.6053295976,-0.5674824729,-0.0503497179,-0.6855960769,0.5645328151,-0.3282996091,-0.3418255731,-1.1332648469,0.7990966555,0.5718177138,-1.1325334256,0.1251584733,0.1056488363,0.2058853408,-0.1670542355,-0.4600235872,0.7949884138,-0.9892037196,0.7789030741,-1.0994749961,-1.1750371422,0.0286505485,-0.273206904,-0.4499085403,0.6652104411,-0.4896852453,-0.5022516673,0.7748052438,-0.8856149134,-1.1012001966,-0.3210617282,-0.5866356245,-0.2106167103,-0.8779501461,-0.8888655816,-1.1593479478,0.3323963633,0.335082307,-0.3738631757,0.1598172854,0.7963834022,0.1508468677,0.4948511965,-0.1487926084,-0.7552641085,-0.6455645937,-0.5206172825,-0.6474813014,0.0598497168,0.4312793873,-0.454978151,-0.4914954219,-0.4488215572,-0.3649807385,-0.5047832015,0.3266332494,-0.8539341454,0.7226314286,0.7377768038,0.5907697883,-0.5089538885,-1.131596882,0.266552818,-1.1771712584,-0.0392460255,-0.9100933399,0.3290081553,1.3753554001,-0.676897435,-0.0083534542,-0.5918774507,0.3029836174,-0.9675110753,-0.8732642908,0.0974655263,-0.5068004567,0.2148568756,-0.9979208675,-0.8088548388,0.0588787538,-0.1840188112,0.7465293965,-0.4178282517,-1.1508264042,-1.072506276,0.2651389625,-1.1406065683,-0.6177242049,0.294163445,0.3203081187,0.6786908218,-0.6727792145,0.3645208616,-0.4585954302,-0.6640488899,-0.0012945199,-0.4573981385,-0.3293232378,0.5415735699,0.281208923,-0.2876368591,-0.3043926537,0.5762403976,-0.9239571061,-0.079870382,0.3738813357,-0.3956969683,0.4174332344,0.66759688,0.1742517134,-0.9304843198,0.5651375894,-0.1743657884,-0.4628689366,-0.3758310505,0.8926136051,-0.645504318,0.4775096327,-0.6777659045,0.522132074,0.384633847,-0.9818818848,-0.3286628529,-0.5426300803,-0.7870566816,0.0806221579,-0.5283384524,0.1182681507,0.5974671458,0.5275458809,0.1515645093,-0.2880604553,-0.9067378788,0.9327551788,-0.500500969,-0.2430294663,0.6803107043,-0.135395156,0.3832855321,0.6413555783,-0.8132444141,0.2953071726,0.1612273803,0.0259777994,-0.4542238049,-0.6470653328,-0.1433244111,0.3307994304,0.2793734464,-0.7388360221,0.0476434603,-0.0188167464,-0.7432446317,0.8387425415,0.9089578122,-0.6317735444,-0.1544725326,0.1377010091,0.0892224737,-0.8908876055,-0.2126343824,0.8593841151,0.7708404302,0.1155636099,0.9188963907,0.4210938651,-0.6176552206,0.043038518,0.1459552568,-0.3242267134,0.1865581887,-1.0034560596,0.7332737967,-0.4817940438,0.9141612967,-0.6876637009,-0.2737935519,-0.7044780477,-0.1697809941,0.3238917479,0.6031521793,0.3289392856,-0.221460027,-0.3928538153,0.6291033748,0.5952567748,-0.894273218,-0.4819272677,-0.7786435074,0.8839278236,0.1127408381,0.0052701459,-0.3140306439,-0.3367323549,0.3507533918,-0.9929510679,-0.1080406813,0.424936708,-0.5833460636,-0.4502217884,-0.3357720816,-0.3940858471,2.7135664289,0.9994710915,-0.0745962554,0.1233677379,0.8556454175,0.6736681484,-0.1889491983,0.0482517324,0.8841069179,0.4345548154,0.2263794052,-0.6293720021,-0.9294151781,0.4384213892,-0.6913032684,0.3618528393,0.3676529772,0.1082067545,-0.4042217999,-0.5813692515,0.7086324254,0.6063989565,0.607986174,0.9178763137,0.5175050086,0.4057448635,-0.2951513231,-0.341583421,1.1241727471,-0.0865860897,0.7637910549,-0.9842823003,0.1332142874,0.379382007,-0.3386652032,0.6935973799,-0.5135089853,0.0566317095,-0.6080552213,-0.4528006422,0.3638409418,-0.6267634661,-0.6558507482,-0.4825121234,0.6790310918,-0.637057775,0.5806586886,0.5208371621,0.6825659853,-0.9566046174,-0.6315340312,-0.8137478491,0.0366957813,-0.018685763,0.5859791356,0.5257240828,0.2833233646,0.5820602649,-0.0338255144,-0.9663914677,0.4572823598,0.776431151,0.6811508139,0.252752903,0.7435248247,0.7407458778,0.4348995684,0.9128219746,-0.6197092505,-0.5028327201,0.5815490759,0.1941466932,-0.7558871218,-0.0989544201,0.8339900364,0.6978369047,0.3654651964,-0.0465786556,-0.3633305932,-0.0097258801,-0.8398878227,-0.2500827566,0.2534959787,-0.7408441933,-0.015829317,0.4748661764,0.3407955536,0.9250987182,-0.1402682246,-0.0072501658,0.2368943502,0.5844621179,0.2853868134,0.9487256272,-0.2523661157,0.8675398711,-0.5077062409,0.0596659353,-0.4932161374,-0.0802802264,0.6943181288,0.0837608706,-0.4639186492,0.0509001981,-0.0264237153,0.1327335186,0.2351529074,-0.1477167639,0.4109697669,0.4258645051,0.2551121017,-0.8540592797,-0.0289431005,-0.1493329277,0.8139247124,-0.7214722037,0.8761611119,-0.7499095267,0.582898513,-0.111180842,0.9592655278,0.2901282806,0.4013190332,-0.2831538811,0.6261139681,-0.8162258607,-0.5935726956,-0.04756227,-0.2505338093,-0.934521469,-0.7908322093,0.1516586174,0.348287413,0.2471203169,-0.776288852,0.7508030291,-0.5243293391,0.4671822317,0.3117462912,0.164983431,0.4716120634,0.6864657898,-0.0007680825,-0.6232335154,0.3644591278,0.1526174592,-0.3481475381,-0.5222562121,0.5275289389,0.7624535366,0.5108318655,0.1205808349,-0.643601344,-0.9696980739,3.4265429604,-0.6228844741,0.9390914695,0.7470122206,0.769152173,0.0392728132,0.4920197991,-0.2610484725,-0.9793264351,0.2216481246,0.0921438481,-0.2293271868,0.0821774365,0.7705898122,-0.2324106898,-0.795479765,0.6620477415,-0.0284283444,0.1959577906,-0.3423718771,-0.789509033,0.0862577208,0.1332905107,0.4916153762,-0.62503233,-0.1022477446,-0.4254559651,-0.5115437705,0.4977132182,0.8096047684,-0.3835713149,-0.9844682753,-0.5360583429,-0.6896356419,0.4769971015,0.1627531075,-0.2035392913,0.3139727466,-0.4768477253,-0.31610971,-0.16394974,0.6581891276,0.3244479163,-0.9569406394,-0.9754769945,-0.0943057766,-0.0540826022,0.2820196437,-0.9549105575,-0.2944104081,0.0806204208,0.7596534655,-0.2978498142,0.4377301466,-0.1334485808,0.3795510507,-0.0585692502,-0.5501047373,0.7744575151,-0.1941742455,0.1670334857,-0.299745636,-0.963615624,0.698033361,-0.1077131591,-0.1751913245,-0.6799126408,-0.7264864298,-0.9456974311,0.9262840025,-0.3106696699,-0.545681193,-0.6886918931,0.2243468028,-0.8841906324,-0.1675438715,-0.8755704492,0.2401171265,0.5202112197,0.9718006791,0.8203312286,-0.218279242,-0.6728684005,-0.6153477398,-0.5590458741,-0.2848644865,0.6286800366,0.1222074587,0.8417283812,-0.1374549108,-0.8643695507,0.5400557608,0.771172573,0.888771541,0.1087721376,-0.430837365,-0.621743361,-0.928343177,0.6960164178,0.4396999191,0.1863428174,-0.5432555965,0.0213965374,-0.2458826699,0.6227841513,-0.6857533171,-0.648439691,-0.6869164068,0.1199899805,0.6680356844,0.6659558017,-0.559793673,0.4666179481,0.8457057462,-0.9174936144,-0.7668915607,-0.2891422974,0.7854586474,-0.4402352703,-0.7365395911,0.4966997428,0.4692758699,0.0293698026,-0.3963549547,0.0165127458,0.3727078278,0.7159471248,0.6915512887,0.6637926654,0.2304756655,0.9437124446,-0.7787904038,0.7039737456,-0.4961072377,-0.8678900251,-0.0025388701,0.1167110882,-0.593627968,0.9829560974,-0.1534706377,0.7518341042,0.2422488503,0.7960500547,-0.5754870718,-0.7015955661,0.4566981609,-0.2483725052,0.584281233,0.6761186324,-0.0183185734,0.2609409875,-0.6838183992,-0.1994104114,-0.9906966119,0.5616928339,0.6073334997,0.98110722,-0.2087581305,-0.4090107064,-0.7110507958,-0.6877089549,0.8576278537,0.8388805181,-0.8051986836,-0.3525299919,0.7600849558,0.5946891728,-0.1555842521,0.451851836,0.6391248022,0.430920926,0.6033600849,0.3270522219,0.6808356598,0.9263366121,0.4636173167,0.2225672806,0.4292874147,-0.5599525021,-1.0019680037,0.7356852075,-0.0282195731,-0.2064938688,-0.8431827895,0.3777583556,0.9265976535,-0.4097609691,-0.4321618042,0.7286278188,0.2215143287,0.7797759824,0.78822552,-0.0604664435,-0.9168803432,0.1548549617,-0.5482676718,-0.6776080672,0.8167694534,-0.8751243358,0.2403179607,-0.9948210651,-0.0472188988,-0.0334611362,0.0286253663,0.5722956014,-0.0875926195,-0.0781938535,0.9596854318,0.1704123132,-0.0769106036,0.0007344445,0.5973922148,0.1411830934,0.2311009461,-0.1308857663,-0.5931122228,0.7124047923,-0.3175324848,-0.2374452615,0.9444367822,-0.1830838276,-0.7878227166,-0.3985304243,0.7985956581,-0.8186713969,-0.6320022693,-0.2684617764,-0.7020161438,0.8459910399,0.0964960165,0.8695130067,-0.090317897,-0.9660683518,-0.1897907524,-0.8488940531,0.1906793563,-0.2216260064,0.3782207153,0.7136291032,0.6737952482,-0.3368616314,-0.0790280217,0.9384720129,0.0155570459,-0.195883568,-0.0596183561,0.0884701225,-0.5980803258,-0.7295233706,0.9850654714,0.3226911432,1.2565107876,0.6716216002,-0.2744083683,-0.1420906063,-0.7307879436,0.2132330689,-0.604964631,0.8133187757,-0.8424904372,-0.1393460319,-0.4777715973,-0.3218276087,-0.4945049075,0.1371817003,-0.1170099797,0.8666134128,1.855851165,0.2230380561,0.8510288198,-0.654294957,-0.4248390106,-0.7221731283,0.2579191279,-0.0603842441,-0.1464685699,0.0968939604,0.9674923991,-0.1414773655,0.9314816628,-0.8342469016,1.0721335922,-0.2170697299,-0.9876819634,0.9052293448,0.4290663138,0.095151828,-0.2942167785,-0.0474405356,-0.7948140505,0.2763903573,-0.9050897627,0.0926024589,0.9399319311,-0.6091642417,0.9657668804,0.8770918178,0.1042562406,-0.1606886165,-0.042048768,0.3682632181,0.9668552796,0.9500493658,-0.3374588427,0.6100381615,0.6099985392,-0.5477265172,0.8685660686,-0.2528161026,0.7577322234,-0.0089158205,-0.4263789707,-0.5101480727,-0.8437383411,-0.4931684723,0.5972376692,-0.4529575714,0.5895846234,-0.2525416039,0.7496757639,-0.2762742001,-0.6670346918,-0.7861165758,-0.2269257882,-0.9227847036,0.6168970037,-0.001792547,0.8260839245,0.7690373086,-0.3778211294,0.4191151326,0.9687158467,0.165260801,-0.6617479584,0.4283592277,0.9156707757,0.2058518243,-0.4472057541,-0.4861832597,-0.5182373433,0.3915013396,0.7335484751,0.1246155941,-0.0061406489,-0.4471057851,0.0993650898,0.8459874179,0.6944541494,0.9775445766,0.7966238391,-0.0159435472,-0.0409151294,-0.5547358345,0.9025204239,0.7597428074,-0.9729287951,-0.0196874541,-0.3531888819,0.2607429853,0.4223537269,0.9163069857,-0.6176308354,-0.2167061524,0.1611149656,-0.2529903629,0.0063263997,-0.6603359554,-0.0341833419,-0.0105603603,0.8614440952,0.5753110548,0.2431519518,0.6115760371,-0.1546370032,-0.4771712174,0.9285614966,-0.0963000475,-0.3292088492,0.5007815432,-0.0195605198,0.2694347856,0.2141321012,-0.5784391708,-0.5688968966,0.8113334181,0.6093818249,0.0757665529,-0.8909994772,-0.3969858724,0.3464014353,0.4450416678,0.979794678,0.6597894411,-0.2184643823,-0.5047163169,-0.2271016465,-0.0490399507,0.0719886955,0.7428258412,-0.4017223662,0.4582878646,0.6724542958,-0.1431450253,0.6097905181,-0.747345035,-0.0291765566,-0.5793229168,-0.0134755777,-0.0542761869,0.11247646,-0.7069269502,-0.622165093,0.8977596426,-0.2643266208,0.5479359251,-0.7909792469,0.8180281741,0.041746835,-0.1259459481,-0.7729779586,0.800275582,-0.9463500721,0.8070475239,-0.9644309345,0.8376652836,-0.9141020448,-0.6455778081,0.7986769883,0.9341783256,0.6645493829,0.3907975893,0.5381584797,0.8953822175,-0.2991622789,0.7103847407,-0.8919699414,-0.4523470043,0.9040170254,-0.1564285475,-0.7636078006,0.9064961387,0.8092677892,0.4562317059,0.9065473179,-0.1101068136,0.2745248109,0.9484347609,-0.7868973845,-0.3316768769,-0.3261335487,-0.5174251666,-0.569214263,0.4874974003,-0.1477518413,-0.3390395707,-0.024725282,-0.8147707162,-0.1212385132,-0.5203030006,0.1242048878,0.343521287,-0.7926048718,-0.1233187203,-0.8922470641,-0.0031110009,0.7606773439,0.8332771957,0.7356163782,0.4180531807,0.178161554,0.3013787754,-0.709946505,-0.5365015371,0.7255731485,0.4293471897,0.0435939491,0.095902752,-0.8310840391,-0.2828428963,-0.3674059918,-0.768522051,-0.7505776238,0.7206049796,-0.8620081248,-0.1436501122,-0.1775392876,-0.174222002,0.5027891431,0.4009845858,0.0627791465,-0.5936815486,0.0771947705,0.0731381877,0.5204243832,-0.0057584654,0.6079089921,0.4892385185,-0.2627132803,-0.8532393186,0.0624276293,0.7534461784,0.6861943518,0.4331976763,0.5442254109,0.2911034061,-0.2368606801,0.7683415439,0.0931368806,-0.2816368457,-0.363052409,0.3562579679,-0.1638259473,-0.5324223392,-0.5052618273,-0.4333710243,-0.1562784319,0.2839188057,-0.9574253708,-0.6831012353,-0.781778817,-0.8357871102,-0.2267598461,-0.1313642754,0.6239128984,0.6023294937,-0.1452465335,0.4066818874,2.9184391592,0.9658105311,0.3117205417,0.9664970072,-0.9854720853,0.3557425052,0.7556950666,0.7060339331,0.8937777667,0.9361786991,-0.3566336683,-0.9433952328,-0.9722686928,-0.1610864023,-0.0268634486,0.6089481561,-0.1518929392,0.04604627,0.375810841,0.5585558689,0.1991450204,-0.2293699748,0.9084395864,0.5815700697,-0.2285571096,0.0581937122,0.7791816515,0.2351161695,-0.4053768512,0.6742962723,0.4806300792,-0.1014626093,-0.0538443808,-0.4449685688,-0.1200196703,-0.7003458875,-0.5624868901,-0.7183775323,0.0230966163,-0.5452837688,0.1301362598,0.0536724302,-0.1817199374,0.5243873757,0.1191430584,0.2958767097,-0.0107686395,-0.031176971,-0.7964884379,-0.171294329,0.2156596869,-0.2199883452,-0.5188167083,-0.7841369612,0.1001112527,0.8182056825,0.6725027979,0.6340952756,0.5471189598,-0.0120979385,-0.6740700295,0.4084312199,0.5075727418,0.4637260361,-0.5599772539,-0.2439175486,0.4087321017,-0.1779073706,-0.6125879976,-0.4715896967,-0.158234511,-0.2407774809,-0.8614929752,0.2218957464,-0.1207776559,0.4773404906,-0.3260551885,0.1861875442,0.1268548076,-0.6378144876,0.6463150031,-0.6324909804,-0.1995446276,0.579009073,0.4391693647,0.4577472344,-0.44535726,-0.2535104911,0.1840236888,0.4737241121,-0.5583137352,0.5580792781,0.7643935453,0.5214828122,0.0499548651,-0.3955872131,0.1432259519,-0.513490381,0.8136179507,0.4924632588,-0.6299518438,-0.9807199065,0.0363275126,0.30876137,-0.2244453367,-0.6914463991,0.5998251056,-0.9524103042,-0.4952876219,0.8841747991,-0.6012785787,-0.9415402072,-0.5109035678,-0.0432097433,0.3700917626,0.8108205416,-0.2367705571,0.6871903799,-0.3309801289,-0.773686361,0.9933930931,-0.4676201209,0.7853829526,0.8816909525,-0.4764600588,-0.752581883,0.5606030362,-0.4284367217,-0.4068377071,-0.6954692831,0.3740537015,0.3279449065,-0.1769718133,-0.043731148,-0.4015102342,0.1786425067,-0.0724116285,-0.2259650791,-0.0787434365,-0.5989088621,-0.1537995771,-0.289969349,-0.9699373177,0.2708729783,0.8338812114,0.5284605303,0.5578491364,-0.9932205709,0.237533988,-0.257971939,-0.9049816064,-0.5988624569,-0.4105984975,0.0148658759,-0.6753677942,0.0638090735,-0.4124121209,-0.3236728843,0.1764113707,0.2062409092,-0.3706193763,0.5570869203,-0.2236160274,0.4479329605,-0.1997211908,-0.8986156301,0.0135492861,-0.5310669567,0.3104898876,0.3648696584,0.638378328,-0.3864741405,0.5217555837,0.5086039995,-0.3170363922,-0.7931932412,0.2685966259,-0.0412627734,0.2067228911,0.9998053401,-0.6634510452,0.4594053749,0.5516138253,-0.3669849987,0.7306726685,0.3223430826,-0.5714566168,-0.6117308298,-0.0486276647,-0.2766245988,-0.2426727074,-1.0005939196,0.0221188013,0.230554767,-0.9324338851,0.4797696034,0.2581364884,0.2970706165,-0.8720681514,-0.8324157743,0.701110097,0.9384392524,-1.0115525242,0.01132882,-0.357949418,0.623661932,-0.97389238,-0.816858393,-0.3072988186,0.305891022,-0.1422989579,0.7552704145,-0.0674203509,0.8340725557,-0.2927876339,0.590154851,0.8969573425,-0.1993170175,-0.9649762964,0.3647558629,-0.6191167242,-0.9585478718,-0.8730811751,-0.1574173301,-0.8437005942,0.2595994048,-0.334620143,1.0006202091,-0.1921140036,0.3573893463,-0.3021375223,0.9149045072,-0.2701660639,0.0441818163,0.772607527,-0.4222036645,0.4025519709,0.0736241512,0.6191942588,-0.9295665921,0.926593155,1.155122066,-0.2218681506,0.1367579666,-0.2201728674,-0.1392963482,-0.9020044897,-0.5746392924,-0.9579197659,-0.4510206265,-0.7768822412,-0.399580052,0.6025678978,-0.6695138336,0.7930083871,-0.4578624265,-0.3524718064,0.6428138267,0.2172762533,-0.0571715783,-0.9223874783,-0.0511084476,-0.9833167805,-0.072564377,-0.4182379762,0.7717660221,0.2324659774,0.2816135642,0.126024612,0.3459498357,-0.0158757321,0.4817130635,-0.9098650437,-0.6457494271,-0.0156999486,-0.1675127766,-0.5876270443,-0.786013639,0.6567338192,-0.6720717012,0.3814279284,-0.4720176559,0.0192342965,0.32940746,-0.0420654081,-0.6935181424,0.4835735028,0.1617610802,0.2534613296,0.7496861254,-0.5336565173,-0.3033921813,0.208823903,0.9775261127,-0.3417285572,-0.5298003721,0.1675188531,-0.6555010748,-0.4490990945,0.3639918277,-0.1786141859,-0.6353767187,0.6330148214,-0.8384619658,-0.2881244749,0.1257154354,0.5666519495,0.5747787972,-0.7646332264,-0.2367639875,0.5142535065,0.3889914077,-0.5996967485,0.7271830089,-0.5087901814,-0.7718720651,0.4607328876,-0.2808231593,0.2259755643,0.287781267,0.1275008695,-0.0347594005,-0.3093543238,-0.8701636819,-0.868904631,-0.8193394862,0.8776721891,0.8130263381,0.0248316666,0.3752165942,-0.1982089596,0.7900543538,0.0989717915,-0.6788290183,0.9002799242,0.5615664483,0.2355720791,0.1121849523,0.6252904052,0.7480546884,-0.1931162489,-0.8372607709,-0.6529685997,-0.6565494751,-0.5272392843,0.58011969,0.6845954341,-0.3864074013,-0.8374603833,-0.9583076627,-0.8700831328,-0.5283646268,0.234519763,0.6753852017,-0.9856057815,-0.6568835281,-0.0700034352,-0.5238722891,-0.3507129048,0.84327795,-0.1648070487,-0.2033329612,-0.2970716075,-0.0132076681,0.8928137674,0.1412686192,0.213991309,-0.0801149664,0.3313831035,0.1823892816,-0.6950202363,0.4870748393,-0.9055577474,0.1409137521,-0.928262232,-0.13366247
   0.4690230802,0.8575161838,0.9297420108,0.8897026793,0.2969749995,0.731379863,-0.1676166457,0.5779676971,0.4209276227,-0.8429071705,0.4865544351,-0.0313578654,0.177566644,-0.4080421516,-0.9843980735,0.0580613149,0.6724495763,-0.67751072,-0.4113873762,-0.4933925441,0.1828065396,-0.2839642963,-0.3882727041,-0.9068453569,-0.3715369283,-0.0217657135,0.8907751279,-0.4774125581,-0.5641607931,-0.6112652166,0.0139661209,0.3587947298,0.8792962959,0.6735645347,-0.4093941781,-0.158005507,-0.8729772219,-0.9880156595,0.7349093882,0.7675942253,-0.3801268179,0.5515310651,-0.1180224027,-0.262432651,0.8988342742,-0.844582557,-0.9831384309,0.6267571893,-0.9974340711,-0.2171808187,0.047555136,0.7097219071,-0.3390434844,-0.7820037433,-0.8657058297,0.4557006028,-0.3129244494,-0.6095730373,0.3858407924,0.8082681109,-0.8169828155,0.7209532375,0.6903848298,-0.7719647175,-0.5344947201,-0.5602669867,-0.0952255285,0.518966393,-0.6340950862,-0.3197241831,-0.7604243176,0.637997665,0.4835343142,-0.0470800514,-0.6750162346,-0.550626148,0.8302111976,0.3781984067,0.9019710725,-0.3577321309,-0.5248061792,-0.2395139422,-0.2998726342,-0.8786239014,-0.2611828632,0.6679770527,0.3211657352,-0.4126088622,-0.0096892109,-0.7839406631,-0.7116733365,-0.414133158,-0.5862222926,0.375930011,-0.7027176499,0.6359822748,0.9157228064,-0.5268231813,-0.2465612568,-0.6073632331,-0.4011273501,-0.4561458455,-0.1568723812,-0.681958958,0.8022705165,-0.0191936581,0.1140925791,-0.2179114427,0.6841564095,0.9416979114,0.8870267882,0.339876257,-0.8341984224,0.1716747184,0.4980142658,0.612882174,0.9856164567,-0.1364222808,0.0492667142,0.2059124001,0.0572512108,0.4679527427,0.5578885707,0.952510762,0.5845127714,-0.9033617821,-0.5363043987,-0.2772711099,0.691456874,-0.8068147604,-0.2445173459,-0.1042316335,0.7551873148,-0.3068841907,-0.3046629728,-0.3175138501,0.1788036209,-0.0487443214,0.9595785443,0.3049156623,0.8862561062,0.707671352,-0.2640089756,-0.2583874324,0.1602342215,-0.8485528036,-0.2785010736,0.4997831001,-0.2669905363,-0.4346605428,-0.2128225968,0.786412726,0.1644272851,-0.5020316951,0.26618668,0.4636439744,-0.1297188228,0.8961565322,-0.3723016527,0.2508947282,0.7801276876,-0.0549383719,0.2197654092,-0.3314651451,-0.5098554178,0.3875522023,0.9196662091,-0.490040134,-0.5142089545,0.5363230719,-0.1647907201,-0.5594304283,-0.2328294837,-0.9831480166,-0.0335084355,0.8865891618,0.139060401,0.6201966369,-0.2539222441,-4.0573618269,-0.7512480137,0.249338812,0.7353649953,0.3348257667,0.8607714419,0.2377866104,-0.8692862464,0.554176469,-0.5975769051,-0.01435426,-0.8355551321,-0.2266507422,0.9615230362,0.6551805869,0.7664947911,-0.0648114715,0.6066308676,-0.6875015624,-0.048586711,-0.4990672381,0.7061275712,-1.0492606529,-0.5360731584,-0.5652882407,0.4127933041,0.2377355714,0.4400032895,-0.2867348634,-0.0117340555,-0.8846090754,-0.5258342659,0.8201075565,0.4581818432,0.3968061262,-0.061427071,-0.9066934432,0.709019969,0.8577757129,0.8889828196,-0.0518554222,-0.0379417367,-0.6031446312,-0.686861381,-0.5372465361,0.4718381641,0.0614208769,0.1403004261,0.2364293829,0.8478096897,0.3939610389,0.4188996642,0.8947476901,-0.5146684123,0.1011852324,-0.3073440372,1.3308567467,0.1135152804,-1.0110189536,0.1336388582,-0.6638107609,0.5510151832,-0.3328708708,-0.1484816895,-0.5949019862,-0.1553689872,0.9039713377,-0.0350662653,0.4007752886,0.307177081,0.8952306524,0.9947575388,-0.3841756711,0.3807304033,0.4089929095,-0.2363765658,-0.7433892214,0.5389979378,-0.5883886678,0.2443185223,-0.8922964545,0.0623699432,0.5767220815,-0.6593950145,1.0034771453,0.0558719338,0.4162499882,0.5401972793,0.4650460417,0.8939170607,0.1226546853,-0.7708484456,0.2575423824,-0.1984051749,-0.2625886807,0.7416953104,0.9719898125,-0.7519715828,-0.9255585916,-0.8086729991,0.2814557667,0.2685361178,-0.5201523078,-0.6895593066,-0.3671496021,0.9771034843,0.5914997329,-0.3479489375,0.4823624279,0.7247384345,-0.0069039871,-0.8314062835,-0.4555893948,-0.8525049086,0.4623718439,0.3722225879,0.8303299193,-0.7173099514,-0.4772482797,0.0743749712,0.3829069313,-0.0331766479,-0.0157382931,0.9643442787,0.1254821052,0.8978872288,-0.9658866483,-0.3547479667,0.8915172202,0.6884272131,-0.1202342773,-0.4477139797,-0.2920432046,-0.1917284873,0.8598675788,-0.2582857511,-0.3305392013,0.5477263023,-0.5362697608,0.0698211693,0.8465031849,-0.0242424081,-0.1866318579,0.3486667966,0.3856017822,-0.0708903338,0.481937495,-0.7238768582,0.8149229429,-0.8330343865,0.4993528708,0.50432332,-0.0789153085,0.9521929682,0.0945072828,-0.78885065,0.3152352484,-0.7259967532,-0.1851470896,-0.7445598466,-0.5844306985,-0.786159185,0.7897554915,0.8166184803,0.5858238818,-0.1979036559,-0.1412707648,0.0234805395,-0.8286484461,0.5380102383,0.1319742126,-0.4807591466,0.7620400795,0.2268818986,-0.9074118568,0.8798654518,-0.6276353697,0.0173989724,-0.8507812943,-0.5694530329,-0.4563357882,-0.8118168683,0.0778152093,-0.8865118525,-0.8912466355,-0.5446070066,-0.9117292127,0.7908424113,-0.3028563975,-0.7330225214,-0.2733192857,0.949325927,1.0006407368,0.6118924053,0.9912718725,-0.9703770936,-0.7586638189,0.5436233358,0.2351195903,-0.2235798808,0.2920968027,-0.5774887846,-0.3065648922,0.7086929023,-0.0370220192,0.1850352025,0.5129003048,0.2326347716,-0.952082384,0.9563516138,-0.6286500078,0.1424918172,0.2531137623,0.1703707459,0.7893492026,0.0327812776,0.3562122737,0.1761337274,0.8329777549,0.2138195453,-0.3773669233,0.8104725048,0.8344763193,-0.6795582229,0.5010414364,0.1997904742,2.7849106617,-0.9300196059,-0.7968262213,-0.0206893803,0.4355507208,0.2092234511,-0.1067534168,0.0498683024,0.3913381476,0.0860664926,1.3820695622,1.1610775767,1.3649381745,0.0192402967,0.755151493,0.8058402657,0.8095389227,0.5737590469,0.145760686,-0.6525590637,0.1881058418,0.2612846054,0.688255555,-0.2791214107,-0.4175767337,-0.7468231653,-0.3380796684,0.7118765339,-0.4285654372,0.7202259831,0.9725654464,-0.4675696244,0.0918818635,-0.7976711784,-0.7840593369,0.9823374344,0.5540607086,-0.5731769872,1.2091750173,0.5506162518,-0.161820583,0.568037368,-0.1996015758,-0.287521101,0.8421829903,0.6033680798,0.4379936173,0.3312191537,-0.7560822962,0.6661970851,-0.5037041294,0.0364371397,0.6282825165,-0.2326915301,-0.2530055587,-0.7362983429,-0.7657670977,0.7616142663,-0.6699732646,0.0633708367,-0.6552493986,0.4748890751,0.6972277074,0.8672866387,-0.1533451653,0.7140278659,-0.21582554,-0.6392217686,0.6423585542,0.9296412161,0.7940794463,-0.0521849255,0.7464722017,-0.5582562499,0.8806177356,-0.833076997,0.1397057795,0.4228923231,0.6582247814,0.1620833935,0.7701197907,-0.8110079081,0.5309070413,-0.2335010676,0.1417944496,-0.4745371315,0.1924771472,-0.7527507252,0.7940967877,-0.2749184481,-0.2354604018,0.3431077691,-0.48388757,-0.8069132565,-0.8185615808,-0.1621041439,-0.6920039852,0.3571892337,0.9297387502,-0.6357111124,0.1165150546,-0.3348148694,-0.8801190269,0.0530905337,-0.135447307,-0.1684784017,-0.762458722,-0.2508074342,0.4549565029,0.7536182395,0.0397947754,0.9281271527,0.3546176646,0.8620231255,-0.7625047711,-0.6113339481,-0.9706072041,-0.4055269402,-0.7433931741,0.0957721239,-0.3145313361,-0.3770326449,-0.4210833942,-0.2638005585,-0.4389749816,-0.2400728509,0.3851786815,0.4190935864,-0.9703347535,0.0919844309,0.3621678333,-0.8594276687,0.4972320863,0.8574233145,-0.5667634309,0.7105272497,-0.7233636076,-0.4751140544,-0.9932274693,0.7095610507,-0.9255610837,-0.3805953025,-0.4708134437,-0.5889029646,-0.2821572553,-0.3519361336,-0.0549063886,0.7662644266,-0.5214420759,-0.3413428448,0.9382468785,-0.6352918938,0.2248764106,0.205551438,-0.5098230633,-0.9161377923,0.5046861319,0.9238926401,-0.5044535888,0.121880879,0.7071526983,-0.3167393203,-0.7102215907,0.1882392742,-0.6012571639,-0.7032881093,0.818276396,0.8493502565,0.7190989767,-0.2887153683,0.8518886366,-0.9012228144,0.2531346101,-0.8797329139,0.5686769535,0.9447860876,0.9981480426,-0.9882628223,-0.0042577836,0.8076033171,0.977923042,-0.2732362998,0.7294989753,0.5480215774,-0.1794067957,-0.7616263695,-0.8808932959,0.0142748764,0.7851186927,0.4170348796,-0.6203359116,0.5173759763,-0.3068909186,0.2468379751,-0.9930272796,-0.8807921647,-0.3647071969,0.3778402583,-0.8062638479,-0.442385047,-0.3516911973,0.6539058552,-0.1369728344,-0.3954348766,-0.2647357461,0.5454328723,0.5286112423,0.9074762124,-0.4695388067,-0.0596283623,-0.5511057402,0.184419232,-0.5958089862,-0.0785024806,0.3520569874,-0.8468204263,0.4543627177,-0.1311849696,-0.1774814686,0.9406250127,0.2413177098,0.3490473746,-0.5999860595,-0.4073573144,0.9939086926,0.9835775137,-0.0733601827,0.2967934623,0.3653647806,-0.0179970736,0.517692772,0.1842892181,-0.0354697264,-0.096669219,-0.8283305624,0.0020184457,0.3202242285,-0.6705611056,-0.7323753697,0.0284575722,0.3727557289,0.7309034055,-0.6399039182,0.5299376351,0.0549896444,0.7936657451,0.8880859044,-0.7282371593,-0.4169550576,-0.506343845,-0.9359726891,0.6154126169,-0.555331924,-0.8378353899,-0.6049579812,1.2261801019,1.2580861897,-0.6987511834,0.6452527655,0.1057538258,-0.8792277659,-0.1777110824,0.8140575355,0.2399763583,-0.9505796641,-0.1799126926,-0.3583950804,0.166786512,0.0408954828,0.0209859676,-0.8910045177,0.3750463853,0.8677349265,-0.5618908019,-0.0754857083,-0.4483002689,0.391816392,-0.8183761208,0.1422811825,-0.5020317934,-0.704979858,0.9321973462,0.0549785463,0.3536520912,-0.028463415,0.8636317617,0.3773116514,0.8793442392,0.2895583644,-0.0840483524,-0.11183437,0.358681669,0.5156644934,0.9940307572,-0.8269057448,-0.2932290709,0.5151177055,-0.8730140306,0.8833955003,-0.6582089921,-0.867103302,-0.1431508984,-0.6164223799,-0.1474634468,0.6946602223,-0.5470915121,0.1114526158,-0.8233335382,0.0480052011,0.8695378868,-0.40374644,0.9312045711,-0.1609511224,-0.8313702269,-0.1239029493,0.4183103793,0.6313615228,-0.1507944056,0.4255073234,0.3814828613,-0.3100956843,0.6034020246,0.1003644895,0.5285588644,0.3415597686,0.0918021092,0.9058836387,0.3797675026,-0.7574838439,-0.1441075313,-0.8320017482,-0.858629468,0.778299374,-0.3336641416,-0.4327526946,-0.3534580839,0.6552843951,-0.389611432,-0.3572851895,-0.1637865692,-0.9476343223,0.2166325361,-0.9542049907,0.9267864473,0.0796120087,-0.0670931584,0.9290223644,-0.3824513251,-0.5445694811,0.3145243708,-0.550540572,0.587331353,-0.4695577234,-0.9138681129,-0.7345063585,0.7560460695,0.8284001922,-0.1232259324,0.0614251677,0.9560032647,-0.097905966,-0.838476375,0.4061881725,0.2912546312,0.9697264816,0.8224190973,0.9785481447,0.3906802261,0.7940649116,0.1918953403,-0.7067224244,0.8173386776,0.85524823,0.0971584436,-0.3929306561,-0.3458066216,0.0905577058,-0.8758892623,0.7612797817,0.8179376109,0.308648014,0.5676671818,-0.7777851377,0.309436368,-0.6280201215,-0.4884135917,0.8766010721,0.744867104,0.3901409305,-0.2579317731,0.6844252876,0.8908666964,0.289531445,0.4128431228,0.3038441496,-0.7164136825,-0.9134945803,-0.2993815632,0.8657556842,0.9503257027,-0.4051520452,-0.320448959,0.8496150781,0.6917228647,0.1663126416,-0.881393944,0.152094388,0.503227434,0.9375885034,0.0892434637,-0.4013554836,-0.3981315556,-0.9877725191,-0.6129880533,0.7402260504,0.2466086017,-0.983671206,-0.7600188089,0.7436944954,0.3177011412,0.7808067188,-0.9511967965,0.8077072517,-0.3875918135,0.4955771054,-0.7971409082,0.1085224394,-0.516466698,-0.2722630123,0.3392462619,-0.5605983903,-0.3791322474,0.7450403538,-0.0639856618,0.8772865455,-0.8696031551,-0.9256180979,0.9809476013,-0.3795899437,-0.9447096041,0.6865203042,0.5320951664,-0.2544167065,-0.8199042215,-0.5539927279,-0.9050788324,-0.6400200245,0.8817898499,-0.7461479249,-0.4317509543,-0.5866175786,0.4568406033,-0.2064558125,0.1071580207,-0.4966402697,0.8844305359,-0.675384142,-0.3338722285,0.027394569,-0.2806596479,0.6099171259,0.3624820109,-0.194706199,0.4517453323,-0.4059026073,0.1177823794,-0.0362921926,-0.3356931764,0.9706557769,-0.4353406288,0.0196275544,-0.0286103018,0.533587512,0.0843500038,-0.9776575496,0.3257873238,0.9836870478,-1.6594861148,-0.5746444409,0.6277244593,0.5607753847,0.4826688781,0.9151801947,-0.0362360412,0.818371714,0.7851945127,-0.5232713999,0.3254411399,-0.3451559765,-0.3656227916,-0.9520214577,0.8835666333,0.0036527025,-0.6506773248,0.0399741347,-0.8896361945,0.2746644607,-0.0924521791,-0.1597281761,0.4803416277,0.963104382,0.6108515082,0.1866462209,0.6487559251,0.1892468937,0.936123349,-0.1459739228,0.0621065889,0.3884938633,-0.3194676647,-1.126270969,-0.2727838439,-0.4126072069,-0.8745586338,-0.1346780792,-0.7412014554,-0.3867947186,0.2413490586,-0.2090257619,-0.7675242066,-0.6605515923,0.4024420143,0.6271490938,-0.1047927764,0.8316198467,-0.1804282241,-0.1189881113,-0.1351575544,0.6564872893,0.0345911445,0.7171215078,0.5424261853,0.0402235748,-0.6973783705,-0.0969124316,0.1620409065,0.7365217406,-0.2281951454,-1.0200990576,-0.1553133288,-0.6320611832,-0.9622979805,0.0645090894,-0.7046773979,0.7841608453,-0.7200579289,-0.6335461208,-0.4436718476,-0.5037022339,0.8543033109,-0.6230307009,-0.6201418168,0.5289586411,-0.6905004733,-0.1295534454,0.7084466896,-0.2582971482,-0.8761612997,-0.1188059279,-0.5042312048,-0.2335282447,0.328640154,-2.5465250625,0.7768174402,0.3087323065,-0.471043301,0.2454060613,-0.7674513638,0.9923644303,0.3825710647,-0.2325078897,-0.6819148848,-0.8313789902,0.0664078616,0.5304853631,-0.1022133566,-0.9017093982,0.4732013964,0.7076278607,0.4738050721,0.628861802,-0.1365950546,0.5683659484,-0.3834920219,0.2936755783,-0.1016910172,0.228223723,0.9175612395,0.7109479043,0.9284060403,0.7681756697,-0.9656286314,-0.248368984,-0.1238338544,0.2889929048,-0.78954394,0.3266255611,0.3138761454,-0.6932553602,-0.5773887568,-0.5827100936,-0.1146472108,-0.387523186,-0.028744046,0.2427871033,0.2598353294,-0.9590660752,0.550089103,-0.5677933066,0.8536725708,-0.8911940818,0.5855502205,-0.2809787251,0.5429805491,-0.7192894967,0.2015091512,-0.118558545,-0.4477955687,0.0005016837,0.3632647055,0.3230407916,-0.5048965377,0.1875309032,-0.3565923894,-0.8329262755,-0.9851352853,-0.575887333,-0.7439910766,0.235101815,0.5514742294,-0.1247742164,0.3350401486,-0.1091439036,0.4332636552,-0.501709351,0.7511856216,-0.1991149177,0.894047993,-0.0301764427,-0.8965022248,-0.5096849862,0.3009091659,0.8746615426,-0.3705391107,-0.2345907438,-0.5067183049,0.9802589546,-0.0589671625,0.0128755628,-0.2478527839,-0.2776301853,-0.4778107432,-0.4610253903,-0.7192183103,0.9899185495,-0.0352464246,-0.4418647555,0.0758133823,0.1835165536,-0.662761507,0.2991423118,-0.0613552757,0.162350602,0.8772075118,0.5877167489,0.7286134166,-0.0430996753,0.802519187,0.19814621,-0.811371617,0.7472283587,1.3351362738,-0.5167998401,-0.8569883555,0.173934354,0.1706294947,-0.9897272817,-0.2615644529,0.6034497278,-0.4333495324,-0.4930353727,0.5995756022,-0.8775604109,0.6464331004,0.2939743779,1.0017755071,-0.5668113101,-0.777058803,0.0545674231,-0.8713670551,0.68803799,0.4595320375,0.4685297819,-0.604019733,-0.6638855422,-0.3151916289,-0.959407854,0.9768322472,0.9137290496,-0.1445532057,0.1099267904,-0.9941486715,-0.1937995635,0.2616915522,-0.8009119795,0.7228676801,-0.4322976958,0.0011404301,-0.9675680795,-0.0800276646,-0.7506424906,-0.1371410888,0.2287498947,-0.2922713466,-0.0123740219,-0.3810691283,0.3187660933,-0.3035679954,0.7301871275,0.4928490849,-0.3083724037,0.7499801102,0.6960914136,-0.6515132325,-0.8236703214,-0.5331134461,0.2743714416,-0.7828616414,-0.9213996289,-0.978728424,-0.133742121,0.220980013,-0.151275298,-0.462002943,-0.2374110426,0.7361849044,-0.0775182527,0.2616283519,0.9786766361,0.756505885,0.5093122183,0.7696853574,-0.5583044397,-0.1821799293,0.863076729,0.5133807601,0.0201256105,-0.7552222877,0.0236308028,-0.7483394704,0.1360055049,0.884969438,0.8619497005,-0.01236552,-0.2108292181,-0.2547182897,-0.378664492,-0.8020161527,-0.6192864887,-0.2912610931,-0.1590567276,-0.0381418203,-0.8070649041,-0.7041672072,-0.2675519093,0.420255669,-0.5889736879,0.1618134065,-0.8994528849,0.1905347707,-0.920853879,-0.3439423738,0.9345921087,0.4768104963,0.0139404129,-0.0906067684,0.7550046209,0.2235203815,-0.9540152484,0.8407531175,-0.3868951913,0.1046557572,-0.853988231,0.1447717015,-0.4290766733,0.2236752065,0.5119852496,0.3407291789,0.0531204086,-0.8305544047,0.2017704854,0.5620071551,0.2511652655,0.9032377221,-0.1536699834,1.0710391101,-0.7126482638,0.3093481822,0.7177744361,-0.2870582098,0.9833387896,-0.9181310057,0.2941591756,0.1815681802,-0.8429891643,-0.2085341801,-0.6474447295,-0.8415230661,-0.9425261939,0.6308777649,0.2537119915,0.7261615149,0.6908632602,-0.0844605647,0.6767304812,-0.5134577115,0.4355421174,0.7564977174,-0.1921969922,-0.8056746725,-0.6439368163,-0.8098226437,-0.5537024112,0.4937696369,0.5417670954,0.9846835345,-0.1145366772,0.6673251386,0.219210953,-0.9509007491,0.437801922,-0.7581833381,0.8882952753,-0.52712985,-0.2042980577,-0.3585524814,0.6886078235,1.0000443683,-0.085502606,-0.2439510174,-0.9303435888,0.162456926,-0.8795637365,0.2100945623,-0.2662514536,0.0047030177,0.3125980419,-0.6705280358,-0.358405662,-0.4980909528,0.292096184,0.8564455661,0.8880614875,-0.3852629391,-0.1261302334,0.6733308361,0.4703108164,-0.3398521629,-0.2128965656,-0.5855657714,0.3012325062,0.0300839575,-0.0392378382,-0.4269665599,0.1694369099,-0.2983853566,-0.8671190992,-0.3612805671,-0.3496687837,-0.5581225407,0.1759696045,-0.5091275667,0.7301400777,0.9317620188,0.929731406,-0.6191106097,-0.696660642,-0.6411496357,-0.8203213888,-0.2538877526,-0.42844369,0.3579944537,-0.5906820031,0.160715102,0.3269369071,-0.0055776313,0.7978543817,-0.7884452678,-0.4772348081,0.8266088405,-2.0580961123,0.7079742292,-0.4468001403,0.7041088386,0.7617840733,0.5714146798,0.7596397585,0.7923384694,-0.5886779619,0.0753821592,0.6844055122,-0.7305885714,-0.9443185029,-0.4147166414,0.634064822,0.9576577302,0.0956299804,-0.4064315607,0.1686632089,0.4195378365,-0.6537235231,0.8082253052,0.4490948405,0.2076496845,0.9605561141,0.2711779811,-0.0498210331,0.04711026,0.8033911909,-0.4883646918,0.2883008054,0.5898171051,-0.0407305486,-0.9385173639,0.0331178275,0.9258721665,0.9570803485,0.3120207915,-0.4029651476,-0.5312007682,-0.5148197629,-0.3652946118,0.7113140462,0.0445883388,0.9009120642,0.3288802658,-0.338694308,0.9592004296,0.7367997119,0.2871665323,-0.063380396,0.3637915095,-0.2847924136,0.0072053003,0.2527478562,0.1148198867,0.2432714637,-0.3710461817,0.0585164426,-0.4380892187,0.9646350808,-0.2659565635,-0.1993601292,-0.8993353487,-0.3769655865,-0.6536335877,0.4633161812,-0.5938146213,-0.141456834,0.4665489726,0.3735778813,0.3810393532,0.6294244415,-0.6476862406,-0.6237902315,0.4609968053,0.7712048316,-0.5563664469,-0.9652737511,0.8653163949,0.9167443865,-0.1938654529,0.5725603292,0.7114538589,0.9774662173,0.5972184112,0.0447623295,-0.3081218669,0.2267592945,0.6050853681,-0.1867342913,0.8829677618,-0.6525004751,0.993369189,0.682391548,-0.1113927807,0.280638212,-0.5282290577,0.7740090189,0.7573839911,0.9356180025,-0.0978865265,0.9109663825,0.7208143172,-0.9390511694,0.0734858746,0.9048410599,0.6123854348,-0.8124319781,0.9809096646,0.6569952036,-0.4580552257,-0.2279687105,0.710780832,0.0808440464,0.3214468856,0.2005387925,0.4837795676,0.8806751569,0.2668276184,0.048072664,0.2898771158,0.1337840734,0.6815094194,0.9526501655,-0.1824281515,-0.084552867,0.0488071717,-0.0898815834,-0.6007317385,-0.7770555617,0.5111664369,0.9775603918,-0.0648427514,0.9311458706,0.0473508851,-0.7939834957,-0.5740056942,0.8380106576,0.4469241617,-0.544671972,0.7946797753,0.4864652949,-0.5543444176,-0.0844470366,0.837096113,0.3656283241,0.7294103658,0.4625974446,-0.4388206481,0.8536833094,-0.2464986608,-0.3993051251,0.7877497896,-0.8663980493,0.6009066101,-0.000918507,0.285452897,0.7592707963,-0.2337482293,0.0679073326,-0.8035105893,-0.8271834887,0.3295569821,0.8308457347,0.8192214549,0.8490471943,0.8591006091,0.7461817124,0.2854732588,0.4184947471,-0.4838669812,0.0637504478,0.8290233454,-0.0174370382,-0.4896154732,-0.073973123,0.4226604401,-0.1093064276,0.7226293753,-0.0311617768,0.3889814379,0.2177529833,-0.6325056456,0.7345459898,0.9417667973,0.7860683873,-0.5727100628,-0.8336548784,-0.1532132591,0.7002286021,-0.6940100131,-0.3780164904,0.6104585067,0.5432430735,-0.9759065823,0.8774861381,0.3852130967,0.2227811351,-0.8630115464,0.5194555668,0.4137841258,0.9050855431,0.9006480671,0.4174477056,-0.8195364191,0.1110676268,0.7821726742,-0.9521576287,0.3843388478,0.1649615828,-0.2732588454,-0.4172609073,0.2879648393,0.3689562794,0.7805765237,-0.7549623334,0.8533587244,0.5120287378,0.7708604772,-0.0815165094,-0.6634490613,0.4988658458,0.309813327,0.2212201914,-0.7189945696,-0.0342030825,0.0674455503,-0.5772472371,0.3414904188,-0.7812090071,0.4086572856,0.9999616438,0.1231262983,-0.5104080412,-0.9109634202,-0.1408235618,0.9784066257,-0.4561209577,0.724050557,0.4002593724,0.8204509192,0.802615283,-0.6975789808,0.9704479781,-0.7305040972,0.112196716,0.6950181649,-0.1160683438,0.407903102,-0.2179636606,0.4793784747,0.7519223537,0.636608804,0.9691554761,0.0959565779,-0.9337454421,-0.7129183436,-0.2809060363,-0.4923245113,-0.6565227261,-0.2179736179,0.6463347192,-0.5330182422,-0.0196890366,0.3606648822,-0.308561941,-0.8841038996,-0.8432199106,0.5963467612,0.296539515,0.2386447387,-0.1929798887,0.7457323994,-0.0815488895,0.8764127404,0.5352237387,-0.3253943399,0.7631882322,-0.1517778516,-0.8674025084,0.838034941,0.4202257417,-0.0712515547,-0.4090560869,-0.2297689793,-0.8740551152,0.2582948385,0.9336683796,0.3187308255,0.8275601624,0.6236858999,-0.5041229054,-1.0168277864,0.1907711684,-0.2934648003,0.0142012991,-0.0203008705,0.7872408684,0.6892147646,0.2888720497,0.6058486218,0.437487967,-0.2862154288,0.5162584895,-0.0184807443,-0.0169753134,-0.5934197412,0.9988088465,-0.4822473724,-0.6205687227,0.09348157,0.2120705557,-0.9685900067,0.1427986356,-0.2513414517,-0.3399941559,-0.0939011603,0.7738810855,0.1017993911,-0.7131301109,-0.8235273603,-0.0784456962,-0.747851339,0.2969689086,-0.1203166795,-0.2756796751,-0.1294773314,-0.4305196763,-0.0805556076,-0.7193437716,0.5552778373,-0.7212742223,0.7291302601,0.9692824144,-0.8610465229,-0.6914243731,0.5269433626,-0.2754823272,0.3609417539,0.9854942824,-0.5271966776,-0.1990807028,-0.5881658324,-0.2604740902,0.9583538367,-0.8223582042,0.8749487934,0.0480824342,-1.0300128806,-0.9181131962,0.4184869671,0.8609748552,0.8909325842,-0.1469809468,0.5209933473,0.7711788689,0.5048974418,0.3894898044,-0.5136222296,-0.7082849224,0.1548449596,-0.4071112682,0.051056922,-0.9421652379,0.1915057133,0.10032166,0.5946673228,0.7860920712,-1.042509877,0.1015098252,0.716231512,0.2417153553,0.6359747756,-0.0999433611,-0.8970627813,0.8020686995,-0.2460113622,0.0088507089,-0.5546932314,0.5042247153,0.766950563,0.8113275508,-0.5623265941,-0.8212825343,-0.4913930364,0.4242273569,-0.4553520548,-0.4611917057,0.8832221338,0.6564355262,-0.027854911,-0.7488586122,-0.1046720261,0.3642832183,0.6605627616,-0.2633500549,0.2934028289,0.9520976881,-0.9733367668,-0.7302285811,0.7085162524,-0.5016447915,0.6045118827,-1.4369908347,0.1856311013,0.7886744821,0.1559515565,-0.6677478072,-0.4407273577,0.2479515998,-0.8572242447,0.7297790354,-0.4089595749,-0.4127822929,-0.4807453081,-0.9010863656,-0.2728525231,0.0675351652,-0.6181346295,0.0642640346,-0.9645516722,0.9767629852,0.3776896006,0.7870105128,0.0146186263,0.2204485316,-0.971669271,-0.2564289117,-0.7348520737,0.5760908537,0.8896005095,-0.8908277028,0.4641065124,0.4753835031,0.827552382,0.5087844017,0.8534001729,0.1916718257,0.7951048365,0.8378710202,-0.9050889382,0.9455095155,0.8813213276,-0.267342563,-0.9990235083,-0.1542621997,-0.671992398,0.4648411152,0.1549274418,0.6371241622,0.295980389,0.939908245,0.7030518405,0.1929069391,-0.7219758801,0.5054443601,0.871737306,0.694185712,0.843082058,0.0819049301,-0.4626373443,-0.6959026255,0.1589814159,-0.0458999021,0.8123223153,-0.5065716604,-0.567021643,-0.3662802299,-0.8807898,0.0865347554,-0.7716923195,0.6933265639,-0.4267267554,0.7055874427,0.6200266808,-0.2356141148,-0.5266397115,-0.4854434165,0.6346582722,-0.8532332223,-0.1045513195,-0.4967570347,-0.4123535501,-0.4521643081,-0.2418786372,0.9301485054,-0.3395038705,0.688929889,1.0041505702,0.183079707,-0.1821634321,-0.7076785515,0.7932875144,-0.3146712549,-0.6668858738,0.8033063423,-0.2397762301,-0.5719945184,0.697571217,0.8502169597,-0.169942808,-0.9520308065,0.6370197202,-0.7530228196,0.1036962853,0.870034591,0.8839421807,0.459101863,-0.7618832969,-1.1645524341,-0.0322414716,-0.9283670949,0.7988701034,0.459586754,-0.5016316678,0.2890163875,0.6074526291,-0.9024217452,0.2095860029,0.5853647074,-0.5768570846,-0.0757609938,-0.0448903724,0.8223471074,0.3224557849,-0.196583328,-0.7771725294,-0.5998279929,0.2315052459,-0.0858830783,0.1279880394,0.7246759364,-0.7532110154,-0.4300911496,0.8089271845,0.2746539944,-0.6309141611,-0.4126810079,-0.1171958252,0.560462519,-0.9287097862,0.8542566678,-0.1451338904,-0.26887709,0.9155303715,-0.2192930759,-0.5852140141,0.3539004252,0.8059463074,-0.4949618795,-0.2888085863,0.6750470597,0.5868507133,-0.2104522968,-0.6473187323,-0.6727371778,-0.9466108501,-0.2924001139,-0.1854690811,-0.4984627995,-0.9617619368,0.157570058,-0.8552715905,0.7812517989,0.3106964996,-0.3628376919,-0.8553090667,0.5846986082,0.1297537523,-0.7689588858,-0.9849633546,-0.8233498075,0.7358564437,-0.2008047616,-0.2201082827,-0.1020809105,-0.3776687228,-0.3333269301,0.2153977459,-0.8117554993,0.1376432101,-0.1677148888,0.760661143,0.6254163296,0.9433625896,-0.8993892123,-0.6574573789,0.1022278538,-0.5657498396,0.9740672456,0.1730751477,0.399672885,-0.2592551877,0.9632271099,0.0108437774,0.5530001772,0.5499327539,-0.5677506422,0.1816861733,0.5195581262,-0.1221430256,-0.809374409,-0.4906358653,0.2906876056,-0.4124297759,0.3844828553,0.4525590762,-0.7064036226,0.7659405859,0.3912802117,-0.0978782439,0.0386644171,-0.5101602195,-0.5320041774,0.8661719984,0.3978305531,-0.1825151583,0.8620875126,0.5877163506,0.5626458591,0.146139435,0.4486063223,0.0328088042,0.7343141348,-0.5537421848,0.8912426048,-0.7153417034,0.6113196033,0.6191675896,0.4351609453,0.3182164552,0.5022334242,0.7045598417,-0.1959207131,0.7469127285,-0.1882557859,0.1409889096,-0.1798699985,-0.8844895044,0.0959090495,-0.2003028601,-0.2058154599,0.4836323536,-0.6351840931,-0.1486973698,0.2901803993,-0.6847340225,-0.7004365158,-0.0023023895,0.9317606507,0.4157576516,-0.6855798509,-0.3304340499,-0.3020178871,-0.4849090635,0.5168955002,0.2571759228,-0.3573519463,0.7632362035,0.7456530109,0.440984207,0.1322128784,-0.0407715538,-0.0532529969,-0.7100629187,0.2093736396,0.6997310635,-0.0982956574,-0.9862641139,0.8633433689,0.0592086437,0.8044250485,-0.305779368,0.3920280847,-0.8772713712,0.7397609166,0.3671549371,-0.9738473482,-0.4807014574,0.9782113666,0.6075813391,-0.7135601186,0.4082597867,0.2332339812,-0.997563098,-0.187809293,0.5721140519,-0.8605232641,0.7561964435,0.0078878478,0.8679296678,0.6758255949,-0.4337948586,0.4313203385,-0.3415241042,0.6531626019,-0.524331581,-0.9698485291,0.8394095626,-0.2191734899,0.6552539586,0.6244788947,-0.6179517912,-0.7483215039,-0.6101171481,0.8406585388,0.153224072,-0.7098212402,0.2892785677,-0.9565764783,0.4441906358,0.4598638081,0.050413491,0.6982009582,-0.9385724285,-0.4891237165,-0.2133514681,-0.2841187204,-0.3656438809,0.7397688983,-0.8702283647,-0.0861402891,-0.2106342423,0.8110479055,-0.7333322947,-0.2032451479,-0.2494287656,-0.9168005396,0.5842969631,0.0251829799,0.704826228,0.6708010541,0.0049941009,0.4564158162,0.5595260124,0.4005171433,-0.8585677089,-0.5644618863,0.6420665394,0.8930572099,-0.3765792447,0.6881779959,-0.7887071478,0.7922118702,-0.3660169948,-0.7790054897,-0.4698275831,0.1884572717,-0.3885662078,-0.2722848823,-0.5078897604,-0.9988994275
   -0.5091953097,0.5159435538,-0.4784846454,-0.4192507949,-0.3459652831,0.2290255044,-0.5645643473,-0.4355274672,-0.825269064,0.1003860637,-0.0793951115,-0.1816473797,-0.9513265913,-0.3803667382,-0.890627339,0.3489268984,0.9865746691,-0.6274549523,-0.1710560139,0.7219489453,0.2524687277,0.1900034837,-0.7862016923,0.9520360855,-0.6457054874,0.3704133518,-0.8230779558,-0.1043173393,-0.6589431335,0.5406646477,-0.229603006,-1.5581940299,-0.9880657203,-0.0078094567,0.5641279059,-0.3966446873,-0.0155466768,0.2458564263,0.1018235274,-0.1846009482,-0.5093875455,0.8429364499,0.3777523833,0.7211046335,-0.0709716686,-0.4882253233,-0.5878544267,0.9278665336,0.8526337826,0.2091580119,0.7547942739,0.1609449604,0.2541227705,-0.2277756188,-0.5063862436,-0.789313049,0.9824426687,0.6044375261,0.8958184071,0.0463554503,-0.0324529111,0.2407840174,-0.312212686,-0.1465121956,-0.7307683496,-0.2705166709,-0.0952491091,-0.161859927,-0.2953661297,-0.9432545742,-0.0775564876,-0.3220978133,-0.2129776681,-0.8879373236,-0.5103189151,-0.0069043395,-0.3227859208,0.6526624806,-0.2188050898,-0.8847380573,0.7515325624,0.6601643921,-0.6250218004,0.5710291449,0.8975851563,-0.581134019,-0.6043313625,-0.8090826982,0.8864749272,0.7498009491,-0.3102966781,-0.8763528661,-0.6530986863,0.3743891432,0.5683760255,-0.5801910609,0.0815165492,-0.3162605942,0.2841726275,0.7236717097,0.6019257164,-0.6435167354,-0.785136281,-0.3462161042,-0.6303344085,-0.6555527233,-0.4980609538,0.9714088733,-0.3789925283,-0.6616084528,0.0821090316,0.5394142648,0.4166923004,-0.0173501492,0.3366755282,0.6936949265,0.1864771389,-0.8904627294,-0.5220461787,0.6606905203,-0.3234832483,-0.756904716,-0.4204944973,-0.1162556971,0.3868554226,-0.1957377526,-0.8323051097,0.7001065866,0.7460687711,-0.3350729016,0.5575031055,-0.6240591721,0.5194112086,-0.2789315086,-0.9267771628,-0.5598058098,-0.5126191381,-0.7000634108,-0.7531997212,-0.6812359189,0.1158407836,-0.8509649464,-0.7467719683,-0.5712246808,-0.1475739478,0.2105419325,-0.44356115,0.4132727577,-0.5006689636,-0.194127729,0.9914196788,-0.4304705195,-0.1444807009,-0.0346313393,0.0813160739,0.8665655864,0.456975585,-0.6984920541,-0.8971749553,-0.3620175944,-0.7087685371,-0.7860547045,0.3635328922,0.2505920583,0.683164523,-0.0947606063,0.9394186782,-0.8622475312,-0.1431240578,0.3625282857,-0.6079446299,-0.1572560819,0.9247456752,0.1436840832,0.2409004263,-0.0960706486,-0.6186337543,0.3933838843,0.0924064082,0.7831471853,0.8834603708,0.3054539595,-0.8946137454,0.1657793969,-0.2133984815,-0.3899552,-0.3699121807,-0.661359069,-0.7251489219,0.4730255038,-0.2818113215,0.8561682466,0.6722743398,-0.4838966119,-0.9955252641,0.5668961107,0.6707829765,0.9788311636,0.788230887,-0.1673277822,0.0270988825,0.8281963348,0.5874211414,0.6683880159,0.519722697,0.7577378937,0.0624272476,-0.7825714989,0.2999049207,-0.3657412849,-0.1072464683,0.7414144439,0.3652668011,-0.6648544327,-0.6202584838,0.5939857094,-0.4486176686,-0.5483012962,0.6583041436,-0.2037448473,-0.6511641178,0.5107376521,0.6441129245,0.0903548599,0.2481685126,0.4998040762,-0.2606953348,-0.1597266857,-0.3582591934,-0.7685631665,0.6746222632,0.5745628182,0.461949434,-0.4388369013,0.0057141194,-0.6336743597,0.5910139029,0.3908199529,0.3029792061,-0.7370518174,0.0100416802,-0.6956322044,-0.7116820499,-0.0375064299,-0.6615637628,0.8308500068,-0.4215545235,0.3404097911,-0.0591303423,-0.5582452118,-0.5312125557,0.5306052833,0.2739843679,0.5697431261,0.7642365109,-0.6893790194,0.2387036957,-0.3495857485,-0.2817023319,0.474655822,0.4151706668,-0.4330672387,0.4439929534,0.2204178033,0.1046428281,0.162177081,0.9332522528,-0.5000744368,0.7424065467,-0.8953746612,0.8361560098,-0.5689299902,0.4316929902,-0.9643253748,0.5346270904,0.7488643908,0.4942707431,-0.8021551578,-0.1361205517,0.1915605296,-0.5726365851,-0.3469471775,0.8996942442,0.1525275229,0.344580614,-0.8229870751,0.6773625675,-0.4131411563,0.0254871265,0.3739026944,-0.0565881973,0.3718791965,-0.4039721947,-0.7587581164,0.5929570133,-0.3926788058,0.4365273596,0.7800214018,-0.9448142831,0.5551651818,-0.3865766516,-0.7870845985,0.7268316726,0.1171311047,-0.8787544152,-0.5643601834,-0.9696052133,-0.6496952871,-0.8515438807,0.0599705651,0.1468367109,0.6526178641,-0.6855988345,-0.8616759922,-0.2344986403,-0.9260816147,-0.0258755943,0.7121924413,-0.9966786845,-0.0434892246,0.6897371685,0.358237031,0.0436215265,0.4177960756,-0.8920083365,-0.0076928631,0.7262736279,0.6636095291,-0.564109351,0.0370092364,-0.2748421845,0.3821732959,0.2909094355,0.9002805789,0.0811850515,0.7550240573,-0.1949062899,0.1164397122,0.6482763281,0.0549051901,-0.0684480591,0.6691900135,-0.616519693,-0.585647725,-0.0509049984,-0.6151328346,-0.0072644333,0.5954182313,-0.8575571081,-0.3583719131,-0.1126027441,0.435381334,0.3533432938,-0.6123022712,0.1400381967,-0.4573481216,-0.5718138125,0.8418806149,-0.5918933131,-0.7132697079,0.5386370269,0.9191809291,0.9239478705,-0.3486460191,-0.0059496495,0.4463185532,0.7061188979,-0.6474341258,0.6339329975,0.9172292257,0.8351685027,0.8730122178,-0.9127509965,0.0318276376,-0.6478682209,-0.5707683469,-0.2577528588,0.3707994798,-0.0051788288,-0.8833659217,-0.9220188549,-0.4913748584,0.2531120298,-0.9110373254,-0.8673032016,-0.297318086,-0.3256837124,-0.8234025564,0.2063289566,-0.4683765656,-0.9454900098,-0.15231403,-0.3684861381,0.1082679113,-0.5196528979,0.9901410527,-0.9969071513,-0.8812261479,0.7880697553,0.0726378759,-0.5796229193,-0.0290495225,-0.4987492964,-0.266597923,0.5431990945,-0.4677108224,0.3422035323,-0.3536953684,0.4776314751,-0.883457571,0.6558697331,-0.9518658145,-0.0606307183,-0.9380088281,0.190460844,-0.6027671569,-0.2771031939,0.5637858761,-0.9069467978,0.1523570897,0.2290392034,0.107129422,0.1695081485,0.7313853965,-0.6089619815,-0.6751193388,0.9330967386,0.7306275032,-0.7877611713,0.2858716635,0.515437362,0.8260024928,0.752302322,0.9819136378,-0.1643470927,0.5958030365,-0.5988035711,0.7435913937,-0.0918368099,-0.8322042171,0.1231112655,0.5014329334,0.9658879615,0.8111105242,-0.7533395233,0.8234818963,-0.5413409154,0.7623367286,0.9143859349,0.3255399026,0.4999686346,-0.5254891342,-0.7397361374,-0.030808159,0.810606994,-0.5265733352,0.2364628843,-0.8766932373,0.5705502009,0.2443677472,0.8482986267,0.2930885049,-0.0665598331,-0.1169833136,-0.5623325732,-0.4158472887,0.80157546,0.8275492311,0.3921210835,-0.4924565809,-0.4103715524,0.5874261209,0.9634580503,0.9366129193,0.1186939053,0.2509833437,-0.43379863,0.170468984,-0.9238104637,-0.08672192,-0.6905050559,-0.6584864794,-0.2507837483,-0.2312438636,0.5324209396,-0.0374965347,0.6662936666,-0.2093706575,0.0956468376,-0.5320063907,0.4232723855,-0.969115623,-0.9108196579,0.1748998106,0.2000496083,0.0897310826,-0.3667829167,0.2452292094,0.6518569935,-0.7708835676,-0.2854482306,-0.4342199018,0.5138300955,0.3881446853,0.2749565922,0.0123558637,0.4301531894,0.4190004546,0.5816089496,0.1981151536,-0.5875904868,-0.4883719542,-0.5630870914,-0.4864381235,0.5536404475,-0.0194366622,0.6119168945,0.2902857543,0.9864949155,0.7605879381,-0.3289900837,-0.2747073602,-0.4171075124,0.1537675004,-0.4860644146,-0.1829855484,-0.0299463519,-0.3153014719,-0.3387665706,-0.8779357186,-0.8398464283,-0.9182835412,0.1284901452,-0.120211304,-0.2399974331,0.1445416414,-0.3053713759,-0.7537014104,0.6733465504,-0.6138777073,0.9828324742,-1.2484706817,0.2921082567,0.1706253641,0.7578051888,0.5670224446,0.2584537668,-0.2252976079,-0.1875256212,-0.8360246757,0.1015700711,0.0860518656,0.6151173377,-0.9798910222,-0.2148054108,0.3831585153,0.3296631561,0.5422703455,0.3713546743,-0.2005437747,0.337665066,0.406806963,-0.8829515045,-0.3565143264,-0.9068441475,0.3370017553,0.5162616296,-0.7354673566,-0.0899214952,-0.2615987734,0.8541543344,-0.8482019889,0.8720772625,0.0938211251,-0.3589031732,0.9913250376,-0.6138602779,0.0699186441,0.8882771996,0.7977378375,0.1789512157,-0.9668484727,-0.6811317899,-0.9554139413,0.1123298113,0.9522233346,-0.0245546352,-0.4322619455,-0.2632339255,-0.8722275387,0.1170793411,-0.138492495,0.807708014,0.6546146277,-0.8356879582,0.5361026519,-0.6087117901,-0.4551303115,0.5023722119,0.2747097266,0.7758294443,-0.2860672951,0.7621158939,-0.831934998,-0.1155757144,0.7661523693,0.3795025345,0.804301778,0.4659315522,0.4411121279,-0.0256112405,0.1525200626,-0.7094531913,0.6452338273,0.3163696523,0.1367335892,-0.0716431764,-0.5510615669,-0.9314171403,-0.9504692608,0.9213317383,0.3179566315,0.0977488548,-0.0021082023,0.0561289222,-0.016870337,-0.8452911281,-0.4441759814,0.637252808,0.4472002435,-0.8414487015,-0.5940540957,0.458531704,0.9862411413,0.0365999989,-0.6080136454,-0.7576738774,-0.6580208491,-0.1147163067,-0.2456280982,-0.0822301151,-0.3200753563,0.4757226997,-0.6083585509,0.2810297364,-0.7172540905,0.1454482642,0.9328214676,-0.5626276755,0.6032869816,-0.4775383319,0.6164892647,-0.1541428086,0.7980741456,0.8620026332,-0.8625955006,0.1864770785,-0.4972422953,0.4080439976,-0.13424803,0.0031913772,-0.6124468462,0.1691620343,-0.4715419549,-0.3393298137,-0.672333504,-0.817380068,0.8096112883,-0.984232638,0.5915114526,-0.2100164492,-0.920755387,-0.2168242888,0.5941816601,-0.0853765555,0.4799316765,0.3665048877,-0.6040570163,0.6632093087,0.0948100799,-0.2693750579,0.391932166,0.2718092088,-0.7472501189,-0.5291352592,0.0169899944,-0.1940119918,0.0783668749,0.3196325029,0.4320164442,-0.6719815175,-0.5884362316,0.6165138715,0.7933987957,-0.3762853863,0.4034748509,0.7070092928,0.1444602677,-1.0011770914,0.0055264553,-0.6559850489,-0.8677739525,0.012772015,0.8164155248,-0.7989946711,0.045867513,-0.7831105679,0.0495299004,-0.7933100523,0.9340592341,-0.7120305439,0.0371230895,-0.5785205898,-0.4474478586,-0.8295347506,-0.8102726049,-0.3957027955,-0.470861212,-0.3957764901,-0.0356999922,-0.3084657505,-0.7262792225,0.7453643319,0.8182072828,-0.3090537551,0.7095008342,0.7682585571,-0.9200887387,-0.7872124,0.9043175742,0.4322953085,0.8146306777,-0.6573978042,0.5109490258,0.405023917,-0.0524639145,-0.4463071886,-0.5553044846,-0.2012469106,-0.8472053523,0.2243542058,-0.3068976855,0.4584905435,-0.5497555958,0.9488036913,-0.0066059225,-0.3670461071,-0.9487356117,0.3940455449,0.0668382561,-0.6895585781,-0.0919510003,-0.7130942792,-0.4431299697,-0.5954365258,0.9782117234,0.003459169,-0.2218512419,0.4584367863,0.4074726542,0.0000056117,0.363181196,0.2353402925,-0.6693486301,0.9275921252,-0.7552135977,-0.0844092568,-0.582451806,-0.5750346712,0.3368258423,0.059110875,-0.2697005903,-0.4631311876,0.3093311101,-0.9995191133,-0.1540915928,0.7248285773,0.1840253024,0.1345980839,0.9190883675,0.8022018979,-0.1023181617,-0.2332886347,0.2251027419,-0.0783507688,0.8510371685,0.1397493886,0.8640525891,-0.1288580571,-0.6429483593,-0.5181892402,0.3484661295,-0.750552425,0.439487513,0.269967456,0.3408666009,-0.7581394211,0.1722325266,-0.5346887372,-0.4361566877,-0.2809829128,-0.9549007576,0.5240429309,-0.1193305677,0.0528714644,0.2072666037,0.1553925956,-0.1234752073,0.384783077,0.3796723825,0.7247647628,-0.3434546307,-0.8798629294,0.7293815082,0.6841183338,1.6190993364,0.7512327927,0.950407931,0.4781066114,-0.6305116434,-0.4294567975,0.3449408467,-0.597769557,0.8684984449,0.4654885913,-0.9034413562,-0.8552299493,0.5524876688,-0.308265256,-0.1090473427,-0.1676681141,-0.9272997045,-0.5900035618,0.9620789395,-0.1195038486,-0.1462841046,0.6969143027,0.775513494,0.1836109087,-0.0851130699,0.3354852374,-0.6055631705,-0.8103178614,-0.0576589524,1.3374002979,0.1302426065,0.1920432243,0.0208091359,-0.5441202363,0.6396933115,-0.7136795872,0.857704913,-0.0952062814,0.1564768197,-0.3754551246,-0.0801760955,-1.006976393,-0.3958778156,0.2588226131,-0.9296505922,-0.041849926,0.6565083373,0.7306691854,0.8647049747,-0.9384978794,0.4014747576,-0.1042660539,0.3409992235,-0.6995475919,0.4786224344,-0.1928046975,-0.3016230275,0.6089136553,0.0486257152,0.0117039214,0.7052871393,0.0651834566,-0.3745979049,-0.5367516112,-0.8333874603,-0.1490059456,0.4694433908,0.5096707723,0.9411912013,-0.7264389969,-0.0132785274,-0.368272467,-0.2560100474,0.9281912818,0.1777146072,-0.5137878556,-0.0235933949,-0.6057667202,0.7990525654,-0.0143192839,-0.2993674764,0.2626080907,0.4766813339,-0.7831495543,-0.2924816163,-0.4508161415,-0.8536844196,0.6870972146,-0.8127020506,-0.8433050379,0.0838196798,0.3656068098,-0.5248815881,-0.3249521214,-0.5111144932,0.3251677629,-0.7733918182,-0.6977428362,0.5310564603,-0.8340214636,0.1354920376,-0.6628639814,-0.0894432076,0.5832050609,-0.1611152522,-0.2781628432,0.4866763268,-0.301548481,-0.542448019,-0.3628621751,0.1573404754,-0.7459752237,0.280270091,0.9241943723,-0.1464034973,-0.1990947589,-0.5144432106,0.4877822925,0.3192413385,-0.4909475751,-0.3539828069,-0.4064428724,-0.6830895896,0.9605341561,0.6238948561,-0.2517245025,0.1204532244,-0.5957883354,0.0229469127,-0.4763271614,0.0488885103,-0.919460267,-0.9386685169,-0.0705089188,0.7522029214,0.2088303591,0.874391161,0.3798570604,0.4046030303,0.1317300586,0.3363662371,0.4948044555,-0.2382136947,-0.3049917352,-0.8817912344,0.0858390403,-0.5754764161,-0.1653831736,0.5862042961,-0.5992466486,-0.4967363628,-0.7015616179,-0.3158535913,0.8175200531,0.0964655941,0.2415125147,0.6585922133,0.8704464981,-0.0446085699,0.1917724957,0.5639311537,0.0705122259,-0.4114289314,0.9791217922,-0.0183471348,-0.0479780213,-0.6251897683,0.7998021922,-0.8905680285,-0.2535905034,0.2246917748,-0.5386616251,-0.9096942504,-0.763248,0.5232124977,0.9737426913,0.2521987054,-0.3281566329,0.4688941152,-0.821855815,0.3280948322,0.1657137433,0.305667779,0.8560578307,-0.8118056616,0.0368771389,0.9790667761,-0.4872248621,0.4265950834,0.3447291886,0.1139441563,0.3581317356,0.0414592818,0.3949560658,0.1206411133,-0.1826097613,0.438617984,-0.4874909576,0.3063246094,0.1526015638,0.557860832,0.0972176383,-0.4523313444,0.1410967779,0.1818438022,-0.1643946737,-0.9395390874,-0.916355684,-0.7367441691,0.5201262809,-0.0752549271,-0.9765283187,-0.6092159327,-0.705364432,0.0295239068,-0.4628737474,0.1838206291,0.8308814656,-0.2266821914,0.2736526629,-0.2420051775,0.8126827468,0.905393789,-0.2725744938,-0.2148682538,-0.2877336454,-0.6103125044,-0.028478485,0.5473027021,0.1192609519,-0.9288115804,-0.789145952,-0.1031995701,0.7992994233,-0.6347119956,0.7661366983,-0.6237744571,0.4103638272,-0.4520815863,0.745250987,-0.7875751599,-0.0498770717,-0.5681643571,-0.1501361607,-0.9702830805,-0.321678629,-0.2618521102,0.9868699702,-0.5416598434,0.0388206496,-0.2040215309,-0.8196982445,0.4019093701,-0.0758142458,-0.0820089915,-0.7596956283,0.3297219771,-0.0957499916,0.4587856952,0.6429457348,-0.8759041002,0.6012935828,0.129073295,0.7166678172,0.7898038369,-0.2172449557,0.8035168567,-0.7521846404,-0.8925376891,0.4257997637,0.1350019466,-0.1285124251,0.2436621017,-0.6197275253,-0.5727728193,0.142121482,0.9540077095,0.1770930046,-0.3433862702,0.501443859,0.0964361745,0.9917370995,-0.820806833,-0.7561478019,0.6622846624,-0.2643438818,-0.0981979388,-0.8810069241,0.1842938327,-0.4201602815,-0.7510160446,-0.9662907977,-0.834562619,-0.9423955037,0.2364455379,-0.3535778001,0.8612160572,-0.7460391575,0.7773778554,-0.6232937357,0.1798750083,0.5177844915,-0.7955757423,-0.780171868,0.7217124175,0.7502990442,-0.0682285682,0.9715491947,-0.4658239548,0.0000196674,-0.6598844879,-0.5245892232,0.9899720754,-0.0845042418,0.0477130393,-0.7374574114,0.2973796947,0.8663469388,0.6647127421,-0.2078223681,0.7059655368,0.1125812078,0.7437510503,0.5026208215,-1.0022845518,-0.1459088995,-0.8658805339,0.0274874738,0.4562377855,0.2014575267,-0.9653602062,-0.433245451,0.6112737553,-0.2488039952,0.784480964,-0.8921318851,0.0911048302,-0.1666409824,-0.7869206292,0.2757450677,0.7739383942,-0.915005397,-0.1003179146,0.5837886947,0.8992038895,0.6729121009,0.3628069843,-0.6798109002,0.4675501004,-0.2643783169,0.55717189,-0.0259958316,0.6907879013,-0.804741298,0.4436704227,0.0352419705,-0.256538887,0.8572801117,-0.1789331642,0.4198608833,-0.2799051803,-0.738447925,0.5307237134,0.2163524509,0.2430842935,0.9441950198,-0.7653926588,0.1208138035,0.6749373058,1.0069260229,0.3012439016,-0.5833419296,-0.5541310551,0.6384116044,0.7817437953,0.3676880853,0.0991414719,0.5528147979,0.7093321603,-0.3951796203,0.2840852125,-0.5008104822,0.806677589,-0.8067015683,-0.8562346517,0.8745975779,-0.0176850258,-0.6381900227,0.0762460985,-0.6255213004,0.288460795,-0.3656597784,0.7780530912,0.6309011854,-0.0158799491,-0.5565479651,-0.189485895,-0.7431677946,0.1914917142,-1.001438425,-0.1602741155,-0.0816309629,-0.8687737054,0.3713014947,-0.0969209485,1.2327502194,-0.53307777,0.9500857394,0.9853870032,0.8200019883,-0.3700429564,-0.4014093814,0.5554302755,0.6396910719,-0.343467801,0.9439128021,0.3337777539,-0.9829100079,-0.3724171378,0.2762027766,-0.9210080757,1.8353899607,0.2609187859,-0.7823745343,-0.5469376265,0.9640711543,0.925389226,0.3188142523,-0.9695845983,0.7903495847,0.9124167362,0.7840455861,0.6664792526,0.2099093655,0.4106217892,-0.756546764,0.0347559017,0.7473113095,-0.9448149262,-0.5262682981,0.0638331082,0.5198627259,-0.6830617821,0.8785874939,0.0977963106,0.9164119192,-0.2248211758,0.7901019588,-0.2560007168,0.1841652218,0.6280267658,-0.7258611294,-0.0841271232,-0.4294005166,0.7884111895,-0.1774192487,-0.2339647468,0.9028965864,-0.3820401656,-0.6731133985,-0.2629113617,-0.0147384618,0.9333065089,0.2254895854,-0.4059986411,-0.5743519945,0.269864708,-0.924345667,-0.8692844293,-0.1469232485,0.7899343206,0.0254093925,0.548251326,0.9201015243,-0.5321437311,0.3130818405,0.6899924263,-0.9916126773,0.4770653892,-0.6723238484,0.7196216025,0.0865888387,-0.2968624879,0.2457652734,-0.5675879045,-0.7434931895,-0.6128430205,0.5245319924,-0.2644355434,0.2452239558,-0.096475404,-0.9012937871,0.3516130333,0.4887825642,-0.0609209624,0.9183637977,0.5927597593,0.1517485615,0.8277405132,-0.2009939754,-0.130392644,-0.6210142651,0.5573703342,0.738361981,-0.8999708229,0.4953407851,0.8846207773,0.3439378326,0.7152452239,-0.3341733173,-0.0308843866,-0.1571914359,-0.5077344507,0.2999514937,0.8364464692,0.6038088312,0.6571147801,0.9475244652,-0.517110497,-0.8662813985,0.5296167525,-0.9638028613,0.8660493504,-0.2470990021,0.3231264196,-0.6223072441,0.2810238863,-0.8346370726,0.1321711894,0.0321966977,-0.5032212323,-0.3348413458,0.7414260279,-0.3840834639,-0.2749642919,0.9904194404,0.0362339411,0.7035356309,-0.842298564,-0.8356631885,-0.4225494173,0.6550684683,-0.3617360781,0.1123774198,0.4241782562,-0.5518911262,0.6438577759,-0.848483825,-0.5003746769,-0.6529961104,-0.5738307339,-0.179313724,0.8497352748,0.2867660782,-0.3097875125,0.0224557392,-0.6403357798,-0.9682153715,-0.9315123009,0.6204762505,0.5080625028,-0.8687944,-0.0042115062,0.9106970278,0.6136743646,-0.4100844933,-0.2181805216,-0.8738951968,-0.446632492,-0.783071848,-0.0947948778,-0.3689768553,0.3252212165,-0.8644580506,-0.1536349297,0.5276058934,-0.4500651548,0.2053224583,0.1310001793,-0.177567426,0.0939349897,-0.4055726487,0.3445434528,-0.3772949442,0.2385526579,-0.538203994,-0.9768853254,0.2187543921,-0.9231544857,-0.0253344304,0.6202741293,0.0633014418,-0.0390019982,-0.3343887562,-0.7411449161,-0.8926768986,0.4747758576,-0.90203697,0.4068735692,-0.5454310184,0.9217600933,-0.4695326944,-0.7538481882,0.9409193459,-0.0507774304,-0.1526437369,-0.7388404368,0.3760746434,-0.2787576923,0.1084007246,-0.7952345938,0.1895274232,-0.5502567975,-0.01330946,-0.5515247743,-0.6291253506,-0.4423706102,0.0064216806,-0.5792361879,-0.8576070566,0.9583406838,0.8275845038,0.1142064249,-0.5447641203,0.4328995356,-0.6535919108,0.5957659202,-0.8293452519,0.2274118104,0.5409361615,-0.9475183427,0.7833059263,0.635692122,-0.7536238955,-0.1136108124,0.1347731542,0.7443968579,0.6825679644,-0.9263204988,0.7259726904,0.0918563577,-0.0226463288,-0.2669277011,-0.6466505293,0.7216163393,0.2625733115,-0.6974106074,-0.5221134286,0.7656277431,-0.3266875338,0.8402775933,-0.5521631638,-0.8751186015,-0.5103684905,-0.3955705977,0.7291818966,0.4178927578,0.8229038031,-0.613479318,0.9564917832,-0.0311740732,-0.6666116563,-0.2914804804,-0.2747699311,-0.4407262572,0.785669429,-0.8096859125,0.7259417064,0.7578410449,-0.7926294121,-0.516826249,-0.9413597644,-0.5787820986,0.2783660995,0.6029962624,-0.3566074909,-0.078022127,-0.1295126177,-0.7372125252,-0.8383346436,-0.4637667628,0.9188595956,0.9101062153,-0.5789575227,-0.5583272765,-0.0160938313,-0.2774930911,1.0357776062,0.6448138047,0.9400458487,-0.865844937,-0.5294867492,0.9733957903,-0.8122325122,0.5306040318,0.8163855778,-0.3803358914,-0.5352001204,-0.945981383,-0.361150005,0.3951155335,-0.944691749,-0.7534316329,-0.6705564601,0.9903463601,-0.84793709,-0.1975785193,0.4817635797,-0.0893417286,-0.9257516756,0.704799179,-0.2017709541,-0.3970435331,-0.4437829125,0.3401529134,-0.9464339615,0.030182062,0.0362264555,0.6367870561,-0.1767765324,0.4662000449,-0.7927308784,-0.0450979863,0.9967692989,0.3235934148,-0.7528566302,-0.1588064778,-0.0311745722,-0.0363029652,0.3680502186,0.3828557668,0.088908442,0.5241864354,0.007318586,0.4727506951,-0.9437202746,-0.4744020751,0.7907464253,-0.2882296321,0.4470827357,-0.4974970253,0.9784253459,0.3564841136,-0.135502577,-0.6281784586,0.0778971406,-0.3658644372,0.9770306455,0.8420928433,-0.4963017085,0.7248213816,0.6406248356,-0.1922825866,0.5124632486,0.7665321219,0.2455984052,0.9321411418,-0.6630468988,0.1131394707,0.551840382,-0.941338561,0.3027252997,0.4560510922,0.7808523042,-0.8168409575,-0.8524316442,0.0510027741,0.2825401615,0.1127427575,-0.2970616478,0.5852585805,0.9235758532,-0.7115835266,0.6087804286,0.2808504435,0.1904246721,0.5036049224,0.8839210655,0.579780832,-0.3101155274,-0.5478218543,0.9416327492,-0.9941628037,0.2628131802,-0.771818429,0.8968075842,-0.2301277757,-0.9821713485,0.3989988637,0.1836539239,-0.7425617512,0.0070861941,0.6915845385,0.0609508564,-0.3665183948,0.1861750173,-0.5528335196,-0.574704568,0.7868207974,-0.5726143633,0.3977014499,-0.8689557147,0.2596298142,-0.054390886,0.112298289,-0.0015045951,0.1937385952,0.7519872193,-0.5362571517,0.8615919043,-0.3035547539,-0.5061077014,0.4288073253,-1.0939508689,-0.6731780346,-0.6602082574,0.5691054208,-0.9846224864,0.5640666495,-0.4725868794,-0.8821516491,0.6522453168,0.1766880676,0.2037702624,0.3431486156,-0.2211101976,-0.4573431159,-0.7518616879,-0.6645226957,-0.7500905637,0.4843320666,0.5179847984,-0.0192463483,-0.3445740082,-0.8712724443,-0.9270693135,0.1308915155,0.300987588,-0.9847303554,0.8528072363,-0.8858821203,0.3818219801,0.3590170508,0.859800552,-0.4784020102,0.3806531579,0.4631100838,-0.2020342073,0.6810420442,-0.7430007545,-0.1712650477,0.5035372423,0.9185200225,0.8117043309,-0.700520153,0.4574769121,0.2127903914,0.3236814211,0.5497297317,0.8672517306,0.56610898,-0.1397845549,0.0768147213,0.0296577814,0.8920141639,0.0942636791,0.5920741436,-0.6002962585,0.3632200993,0.8155472818,0.7484563043,-0.5956547419,-0.4248477517,0.6199167113,-0.3451873789,-0.4380678222,-0.0055139799,-0.6159016909,-0.2090650523,0.5363183662,-0.6863081308,-0.7019949921,0.5588604972,-0.7471580413,0.4519051503,0.9294532094,0.1881685538,-0.0501320981,-0.5725173289,-0.3511077883,0.3568001823,-0.3216836507,-0.4416072553,0.5855049577,0.6687308235,0.9088090769,-0.6351711425,0.7562042052,0.7494749702,-0.8656218517,0.7930440863,0.2033461387,0.8855954687,-0.5808335439,-0.3438776489,-0.8067743833,-0.4593698513,-0.6176153367,-0.5639324184,-0.8838186769,0.2521752368,0.6251395029,0.8060955168,-0.9214224406,-0.5175952004,0.7445752499,0.9831718362,0.5323698102,-0.6674916671,-0.5008736945,-1.0030822489,0.6605555001,-0.370737126,-0.6799661364,-0.9561358256,0.13845458,0.6961825439,0.0840439288,-0.6909447109,0.9797581962,-0.6833302733,0.4081977211,0.7379745561,-0.1856389776,0.1526990742,-0.4220829414,0.9098926265,0.1804825759,-0.2980848923,0.5279551791,0.0601710163,0.7908848933,-0.6012641017,0.5272644817,-0.0984972049,-0.2310693951,0.676367834,-0.0430609957,-0.1938643105,-0.216574677,-0.6510111124,0.5612461417,0.8517670767,0.6370791187,-0.4179039489,0.7932170654,0.8598311909,0.1678899011,-0.7272076232,-0.5380676667,0.5594989874,-0.5003233266,-0.1736926992,-0.8786394188,-0.9144724655,0.8482322918,-0.3611196196,-0.1418350656,-0.2181505212,0.944542358,-0.2772737967,-0.3251290177,0.1791962094,0.8666577354,0.8201811139,0.412011125,-0.3412706565,0.2024545082,0.9498697802,0.9262017986,0.4403767883,-0.2449180142,-0.519797839,-0.0601631989,0.147793789,-0.1487874294,0.3519369287,0.84343167,0.9692400273,0.0804479612,-0.8807387358,0.5703648057,-0.5341100674,-0.854396717,-0.9380435706,0.5089294684,-0.0791236484,-0.6303702224,-0.8658187147,-0.2563327699,-0.5678094076,0.1520311847,-0.2079162291,0.6816400352,-0.4688432275,-0.9203977218,0.795516912,0.1728157139,-0.0999203938,-0.6849751975,-0.2709593333,0.1020183993,0.0436977102,0.2626922029,-0.5631121374,-0.1651519341,0.2168843648,0.4718608469,-0.6893708678,-0.5411400241,0.9807630115,0.7460399177,-0.1135755835,0.2480678238,-0.7550813875,0.5863951958,-0.0808082837,0.135215476,0.7585413266,-0.8684211135,-0.3916692241,0.764987088,0.6727846918,-0.1736891156,-0.0510248648,0.4740742362,-0.9051384508,-0.2833837169,-0.3742995355,0.1495886807,0.0213548328,-0.6475665916,-0.3868599757,0.1966497856,0.6736532012,0.6162999346,-0.9908233614,-0.5031288044,-0.25873034,0.6528501567,0.6223071874,0.2693063513,0.2467340417,-0.5767487254,-0.5334843682,-0.6446839042,0.7054834289,-0.2999854163,0.6446508658,-0.6888300925,0.9728383531,-0.4806638974,0.8326663063,0.7279774083,-0.30973568,0.0682236704,0.9009167634,0.7212083754,0.9886834047,-0.1077492119,-0.5307033498,-0.393841432,0.0159440436,-0.4504197646,0.1026084739,-0.1890176955,0.0124850522,0.3143414434,0.7343041274,-0.6755171828,-0.6300464095,0.7748387065,0.1421250281,1.0035665843,-0.2199999739,-0.1170310957,0.9301318872,0.1919648968,0.5931846222,-0.7586523254,-0.0062453202,0.7937958201,-0.5676116548,0.1658049346,0.5163692907,0.9195059069,0.0725809614,-0.7454921821,-0.6986368998,-0.0282473712,-0.7550512555,0.4454667709,0.5091537752,-0.5742444391,-0.4475658617,-0.7755456603,-0.0667021215,-0.961785152,-0.5068371246,-0.7151836079,-0.7891032913,-0.5125426302,0.8855824647,-0.3106676464,0.7628792679,0.7431413777,0.9363503849,-0.6773612587,0.2184569344,-0.7399711288,-0.4741522608,-0.5227952808,-0.888961068,-0.179087226,-0.7006055575,0.6856830897,0.71480315,-0.912095372,0.7224679738,0.8553323578,0.5563041429,-0.6688261623,0.7130365741,-0.3553128058,0.0383692583,-0.486938071,-0.3052071298,-0.7049622518,0.525964671,-0.8662130822,0.684228541,0.5393059362,0.3150702681,-0.7697737401,-0.7935744976,-0.7278588798,0.0983958811,-0.3780238417,-0.6252223544,0.9609324563,-0.4126338647,0.3747615241,-0.4255600018,0.5226305542,-0.8589331982,0.7668323846,0.4120870781,-0.706037871,0.9392464084,-0.7883878286,-0.8944537605,-0.2907354742,-0.8241213172,-0.544938589,-0.0508544023,0.5347973501,0.4686294864,0.7356071742,-0.916427235,-0.3763549235,0.670199727,-0.9635578449,0.1848541594,-0.1012409572,-0.909447964,-0.4874548059,0.4584598392,-0.2660464464,0.3627596188,-0.6667948756,-0.015980154,-0.0601128181,0.5110477873,0.9575732588,0.0084659456,0.8680683794,-0.237248048,0.8257162908,-0.6108635866,-0.1052519665,-0.0301449986,0.2716924153,0.893253174,-0.815248699,-0.5401888034,0.573206612,-0.9039462305,-0.542432353,0.2527734183,-0.7503497615,-0.2194223772,-0.9727530298,0.2703819617,-0.1162528507,0.7595445055,-1.5421879247,0.3201253285,-0.2949291692,-0.411564112,0.7777888638,0.1046745042,-0.2445742827,-0.6802288538,-0.7987103378,0.5170701048,-0.074392033,0.6263603419,0.5452660538,0.4837868838,-0.9938094639,0.4381246066,-0.3956783678,-0.70460158,-0.6708580749,0.7147036256,0.8040895458,-0.9233695159,-0.8210285907,0.3614440886,0.115660796,-0.7780625865,-0.5355684112,-0.2297272609
