encog,BasicNetwork,java,3.4.0,1,1670726609019
[BASIC]
[BASIC:PARAMS]
[BASIC:NETWORK]
beginTraining=0
connectionLimit=0
contextTargetOffset=0,0,0
contextTargetSize=0,0,0
endTraining=2
hasContext=f
inputCount=784
layerCounts=1,100,784
layerFeedCounts=1,100,784
layerContextCount=0,0,0
layerIndex=0,1,101
output=0,0,0,0,0,0,0,0,0,0,0,0,0,0,0,0,0,0,0,0,0,0,0,0,0,0,0,0,0,0,0,0,0,0,0,0,0,0,0,0,0,0,0,0,0,0,0,0,0,0,0,0,0,0,0,0,0,0,0,0,0,0,0,0,0,0,0,0,0,0,0,0,0,0,0,0,0,0,0,0,0,0,0,0,0,0,0,0,0,0,0,0,0,0,0,0,0,0,0,0,0,0,0,0,0,0,0,0,0,0,0,0,0,0,0,0,0,0,0,0,0,0,0,0,0,0,0,0,0,0,0,0,0,0,0,0,0,0,0,0,0,0,0,0,0,0,0,0,0,0,0,0,0,0,0,0,0,0,0,0,0,0,0,0,0,0,0,0,0,0,0,0,0,0,0,0,0,0,0,0,0,0,0,0,0,0,0,0,0,0,0,0,0,0,0,0,0,0,0,0,0,0,0,0,0,0,0,0,0,0,0,0,0,0,0,0,0,0,0,0,0,0,0,0,0,0,0,0,0,0,0,0,0,0,0,0,0,0,0,0,0,0,0,0,0,0,0,0,0,0,0,0,0,0,0,0,0,0,0,0,0,0,0,0,0,0,0,0,0,0,0,0,0,0,0,0,0,0,0,0,0,0,0,0,0,0,0,0,0,0,0,0,0,0,0,0,0,0,0,0,0,0,0,0,0,0,0,0,0,0,0,0,0,0,0,0,0,0,0,0,0,0,0,0,0,0,0,0,0,0,0,0,0,0,0,0,0,0,0,0,0,0,0,0,0,0,0,0,0,0,0,0,0,0,0,0,0,0,0,0,0,0,0,0,0,0,0,0,0,0,0,0,0,0,0,0,0,0,0,0,0,0,0,0,0,0,0,0,0,0,0,0,0,0,0,0,0,0,0,0,0,0,0,0,0,0,0,0,0,0,0,0,0,0,0,0,0,0,0,0,0,0,0,0,0,0,0,0,0,0,0,0,0,0,0,0,0,0,0,0,0,0,0,0,0,0,0,0,0,0,0,0,0,0,0,0,0,0,0,0,0,0,0,0,0,0,0,0,0,0,0,0,0,0,0,0,0,0,0,0,0,0,0,0,0,0,0,0,0,0,0,0,0,0,0,0,0,0,0,0,0,0,0,0,0,0,0,0,0,0,0,0,0,0,0,0,0,0,0,0,0,0,0,0,0,0,0,0,0,0,0,0,0,0,0,0,0,0,0,0,0,0,0,0,0,0,0,0,0,0,0,0,0,0,0,0,0,0,0,0,0,0,0,0,0,0,0,0,0,0,0,0,0,0,0,0,0,0,0,0,0,0,0,0,0,0,0,0,0,0,0,0,0,0,0,0,0,0,0,0,0,0,0,0,0,0,0,0,0,0,0,0,0,0,0,0,0,0,0,0,0,0,0,0,0,0,0,0,0,0,0,0,0,0,0,0,0,0,0,0,0,0,0,0,0,0,0,0,0,0,0,0,0,0,0,0,0,0,0,0,0,0,0,0,0,0,0,0,0,0,0,0,0,0,0,0,0,0,0,0,0,0,0,0,0,0,0,0,0,0,0,0,0,0,0,0,0,0,0,0,0,0,0,0,0,0,0,0,0,0,0,0,0,0,0,0,0,0,0,0,0,0,0,0,0,0,0,0,0,0,0,0,0,0,0,0,0,0,0,0,0,0,0,0,0,0,0,0,0,0,0,0,0,0,0,0,0,0,0,0,0,0,0,0,0,0,0,0,0,0,0,0,0,0,0,0,0,0,0,0,0,0,0,0,0,0,0,0,0,0,0,0,0,0,0,0,0,0,0,0,0,0,0,0,0,0,0,0,0,0,0,0,0,0,0,0,0,0,0,0,0,0,0,0,0,0,0,0,0,0,0,0,0,0,0,0,0,0,0,0,0,0,0,0,0,0,0,0,0,0,0,0,0,0,0,0,0,0,0,0,0,0,0,0,0,0,0,0,0,0,0,0,0,0,0,0,0,0,0,0,0,0,0,0,0
outputCount=1
weightIndex=0,100,78500
weights=##0
##double#78500
   -0.6069084906,-0.1911528793,-0.8657494674,-0.0003429016,-0.4964596307,-0.0353471882,-0.4139871211,0.5077551163,-0.4581632778,-0.1751058258,0.5138218857,-1.9122320361,0.0409284744,-0.7021217078,0.3611919573,-0.5592427729,-0.2828402876,-0.0719754123,0.5511687165,-0.7927303793,-0.6674203375,0.018699522,-0.7364485951,-0.0738334869,0.6388171883,0.287028825,-0.1210367858,2.4195251463,0.3449818781,0.5294912416,-0.7751744434,0.1079723194,-0.70456393,0.3271474796,0.8460891061,-0.964894989,2.6548089701,-0.5441349831,0.9378596817,0.4482602999,-0.2244181192,0.946089081,-0.0477058772,0.2470026549,0.210365179,-0.5887173375,-0.1714019051,-0.5056980107,0.6581546251,0.5907732158,0.1765399396,-0.7160892001,-0.4439485817,0.2772979242,-0.8980366542,0.8036441825,-0.2537486212,0.0669172391,-0.3324634743,0.3597516522,0.6902238169,-0.8703088447,0.5638163399,0.5515513673,-0.7156220512,2.329114108,0.7288687935,0.6396068007,0.0170162774,0.1561907544,0.5682678221,-0.4115663283,0.6065622929,-0.5323844194,-0.4055344994,0.2324406922,-0.1899640428,0.080528535,0.4138726753,-0.5548589402,0.2672772738,-0.7649245432,0.4974642182,0.5568288567,-0.5356678114,-0.0909033585,1.2588561765,-0.2758058651,-0.6801021443,-0.3089270761,-0.6281166224,-0.1262480715,0.839123444,-0.8947863151,-0.1502331102,-0.3349521565,0.6398773938,0.3272087953,-0.4809845321,-1.6587970731,0.932679758,-0.9077644996,0.6242789765,-0.1800206233,0.5618989205,-0.2566675636,0.5827907617,0.70679204,-0.2294539736,-0.9099147466,-0.9369977831,-0.1416359794,-0.5621603586,0.7044854865,-0.8236128703,0.4878004848,-0.8878105667,0.0633191152,-0.9310933821,0.6712014097,0.2430935876,0.002641662,-0.5120644018,0.0504623726,0.898898777,-0.943169223,-0.6610123179,0.8991698274,-0.9122955359,0.2316140809,-0.7743988663,-0.854063646,0.6878615886,0.7230829965,0.9074220744,0.4146443709,0.168937718,-0.0607373971,-0.1706920856,-0.0981526414,-0.4450893042,-0.5407659785,0.5800867621,-0.4081989295,0.3309181996,-0.2346510186,0.5958195045,0.2956274134,0.9895943281,0.2416368998,0.900661914,0.8014900515,-0.2298427837,-0.0481004507,0.9307329553,-0.500566401,0.6290111823,0.0059699155,-0.9158532176,-0.8687605523,0.5826637247,-0.9053859843,-0.7307954677,-0.6179460151,-0.4528132924,-0.635006605,-0.1115747464,0.5512889223,-0.8404070958,0.9821683366,0.7862853457,-0.5909231521,-0.1183383352,-0.0308105085,0.4107651639,-0.8936624681,-0.1877693923,0.4114817882,-0.2813278678,0.5879279404,0.2346396217,0.9939536354,-0.5112931806,-0.4332130785,0.643440953,-0.6803511578,-0.2137354052,-0.7341847772,-0.1932697621,-0.6592991193,-0.8885049596,0.0142673474,-0.3033194218,-0.1244818944,-0.205991159,0.3535519991,-0.4581897422,-0.9307814313,0.4843639228,-0.0769200474,0.6654456396,-0.0733784126,0.1616907384,-0.5576707649,0.0308579979,0.525498732,-0.0417562507,0.8643735766,-0.0024236029,0.0907099167,-0.7104729447,-0.6511955462,-0.0838883656,0.2286861502,-0.8441319042,0.7374822141,-0.9533835158,-0.4267656649,0.9032725522,0.3605022565,-0.7026658221,0.0229807867,0.9167488478,0.3902735762,-0.7826115266,-0.5638536512,0.716978607,0.2136679942,0.4070745258,-0.6045039531,-0.7332103189,0.6986405299,0.6516486664,0.6765941967,-0.6441286119,-0.4287722931,0.6573830266,-0.7492242953,0.8449544055,0.1182040485,0.6530000143,-0.0621118551,-0.1459096043,0.7192017931,0.4649900813,-0.6261631743,1.0160287758,-0.7257937759,-0.7838612233,-0.1289920232,0.8222773037,-0.3748641599,0.5650697989,0.7687481189,-0.2432543478,0.9627585566,-0.5474751176,-0.8952269602,-0.8526390856,0.2520630048,-0.180148269,0.6243041211,0.1138525396,-0.4624054399,0.8901404679,0.0544304866,-0.7898006582,-0.0098505121,0.4239303366,0.0090383098,0.9993552317,0.5803632325,0.2373420853,-0.0764216432,0.8797756081,-0.1977068265,0.880209073,-0.9606631687,-0.1205613907,0.039078083,0.3184363313,0.8909725122,0.0601318818,0.992712324,0.1138419483,-0.0357864647,0.6964253457,0.4898030761,-0.2868919253,0.0657729733,-0.0707635172,-0.7714968546,0.694857972,-0.6727821342,0.8923633131,0.2058416616,-0.6498114946,-0.9622836791,-0.398201803,0.4092069799,-0.9356175306,-0.3756673892,0.1336258847,0.6304957334,-0.298201597,-0.3147509229,0.2683910261,-0.8483306266,-0.6191853758,0.7752449843,0.9467937539,-0.8641255307,0.5364389713,0.89049784,-0.2351846535,-0.559107975,1.0142440131,-0.2633615499,-0.8457634068,-0.8905860652,-0.1237138873,-0.8667065069,0.7394698582,-0.7074797429,0.4204337005,0.498288677,-0.3667235711,0.9103094848,-0.2069590454,-0.0041735092,0.2276580086,0.7098306198,-0.9374809286,0.7142929896,0.6669582935,-0.6099579678,0.340160685,0.8910642797,0.6364612551,-0.9263892151,-0.1256458062,0.8937464598,-0.1115615292,-0.6457558209,0.6406316113,-0.632677123,-0.9898989141,-0.9934335584,0.9756125819,-0.7235793446,-0.0616945084,-0.8841328679,-0.4550267427,-1.006019379,0.8412362045,-0.6080543004,0.7606548937,-0.9253995763,-0.2780767758,-0.8185223815,0.7842127858,0.5851817815,-0.7012148452,0.2004527817,-0.7097598313,0.7537026413,0.8535270446,-0.7220360304,0.7373579421,-0.5573440287,0.213349725,-0.1012234961,-0.4941281751,0.6078091833,0.495674669,-0.3041610416,-0.6204337637,0.4416540184,-0.9718137398,0.0628954799,-0.7894500911,-0.5524330906,0.7659741854,0.0124327352,0.5860574141,-0.5121827874,0.5490390191,-0.1400795793,0.321645458,0.5016391662,-0.1996380738,-0.2043268757,-0.8399706053,-0.9680771316,-0.3515840729,0.0939854391,-0.5275664074,-0.7208671674,-0.7386297354,-0.8959281476,-0.6926752641,-0.027897732,0.1428326013,-0.9610801619,-0.742807696,-0.1068347324,0.6264665074,0.0711095301,-0.1673315781,-0.7584242534,-0.195456759,-0.7571987526,-0.4180406145,0.1360034659,-0.5139415391,-0.2331871303,-0.8155561865,-0.2794411139,0.1896303614,-1.1270250153,-0.2898876302,0.3497696193,-1.002803662,0.0291229082,-0.141622733,-0.9015214857,-0.37199014,-0.3753104665,-0.3933778272,-0.9350282913,1.0061951551,0.1469930794,0.8126500848,-0.4735181413,-0.5964722187,-0.8322811541,-0.8526580233,-0.8006868462,0.926130279,0.4756191434,-0.8334114545,-0.1807113737,0.5667511696,0.5586156834,-0.634718327,0.914286649,0.719313778,0.6031087905,0.0460175135,-0.0882050995,-0.543329521,0.7719108753,-0.6640270298,-0.8045482176,0.0493640133,0.1623793196,0.9352043553,0.3292267499,-0.7561629325,-0.7623646219,0.6576769375,-0.7818020891,-0.127442988,-0.7591407185,0.3812206601,0.6050363678,0.4408626015,-0.8268324057,0.4182580867,-0.132159138,0.1457124272,-0.4790620864,-0.0780527579,-0.0216492337,1.0232384845,0.6698710926,0.7839520233,0.6392913572,-0.7107079164,-0.9790763418,-0.6972372972,-0.7991729281,0.4765821714,0.1784177737,-0.2962583218,0.6753872435,0.2597608747,0.425357164,-0.9363539355,0.3593901407,0.115104385,-0.8236354526,-0.0251099989,0.7837634697,-0.650029479,0.7244960491,-0.2334526762,-0.6470558504,-0.5980399979,-0.7318255609,0.7800402495,-0.9473537389,-0.1449232518,0.0059461095,0.6307875365,-0.0249919436,-0.7302499176,-1.0330440648,-0.8825203217,0.0465983924,0.3561409291,0.3451001862,0.6500578217,-0.3621535534,-0.7759812893,-0.5819303722,0.3560796312,0.2096676414,-0.4870294956,0.1481829616,-0.98739265,0.4267514073,-0.8462224979,-0.6032815836,0.0907906131,-0.3134984217,0.5208691813,-0.5925314987,-0.0630671173,0.2756772284,0.2012082553,-0.5814195153,-0.264616089,-0.9695088942,0.1786583167,-0.7386126105,-0.1155895815,0.7322532763,0.2763911683,0.0413810741,0.6027503896,0.5215661,0.1447979859,0.0567793791,-0.6722276151,-0.963068989,-0.6470265771,0.1323205502,-0.4776301187,0.9144673813,-0.2390657548,0.9418442493,0.8733068964,-0.0510643669,-0.5325568897,0.7258771627,0.4994810544,-0.7187431762,0.5679909572,0.7869641563,-0.0526559012,0.1894014978,-1.0786133199,0.2917186358,0.009858013,0.2917346854,-0.7244610152,-0.1369902425,0.6924057358,0.6315534379,-0.7488298003,0.7618998652,0.3027216918,0.3113605688,-0.7995725876,-0.7771060224,0.3366211522,-0.1354538011,0.9117110802,0.8551402816,0.6163474583,-0.9181077025,0.321743377,-1.0772850757,-0.7537338826,0.1213345281,0.5345960252,-0.070384974,-0.1914585813,0.5734273908,0.4032108673,-0.8068464669,-0.7761658057,-1.0539385839,-0.1891283888,0.7845167337,-0.1635886244,0.800420402,0.4746032745,0.4819176814,-0.1930383656,-0.0826001435,-0.3489786018,0.061198002,-0.7993242334,-0.0788192766,0.5140831516,1.0254882971,-0.5406417334,-0.7779712416,-0.7579821471,0.3858909851,-0.1529143867,-0.8826698346,0.7610094039,-0.0900467742,0.7584291953,0.0826113323,-0.9152376806,-0.7821836191,-1.1504073587,0.1123279727,-0.6954973161,-0.3258352814,-0.8433447736,0.4570125463,0.245983829,-0.5617472569,-0.454050959,-0.6614133315,0.5406163384,-0.4429434261,0.2838250132,0.2404465217,-0.561944711,0.5602400758,0.1224357171,-0.2927742481,-0.59604283,0.4665398286,0.808917052,0.2938148696,-0.9782959723,0.8938488058,-0.4121270255,0.5052156168,-0.8571241845,-0.0770109733,-0.386577515,-0.2193543641,-0.1874060988,0.1384005401,0.2231666805,0.4624146266,0.2574810169,0.7157943353,-0.2809854531,1.0140850633,0.7758894653,-0.0762522333,0.0208499467,0.8778660224,0.2516456175,-0.3578794496,0.3612558096,0.6306771514,1.0569967378,0.175039298,-0.1735076615,-0.9928686961,0.6343371004,-0.3518201792,0.0507503408,-0.4583528607,-0.1204170089,-0.5859933057,0.8821135243,-0.6205375996,-0.8832338883,0.1636303272,0.106167635,0.3031409048,-0.8215563219,-0.1115546215,1.0138041625,-0.230928577,0.8079102224,0.8389424637,-0.1909057583,0.0674280344,-0.3818160517,-0.3211859592,0.4096813788,-0.0932035939,-0.7010414578,0.7147442088,0.9962635338,-0.578043005,0.3510660407,-0.517996048,0.4168291054,0.3395128389,0.010801247,0.6082092332,0.2171021703,-0.2891033883,0.8445026677,1.0816079156,-0.4894870002,-0.1047764507,0.2768264944,0.0452228822,0.2042517734,0.1244509145,1.0649281547,0.7374441713,-0.8867732133,-0.1722079341,0.6358959253,0.5056802161,0.3123081631,0.6911726374,1.0103236521,-0.7540069754,-0.5083729665,-0.3909137193,-0.8666737992,0.9039061137,0.3820448863,0.6307973971,0.5437007434,-0.7929903083,-0.6300002691,0.1345851916,1.0536239301,0.6976606975,0.0446592962,0.9341820628,0.568384273,0.4035949273,-0.4168664224,-0.5886832779,0.081035553,1.0018105219,-0.7891530333,-0.4790864006,0.7322311914,-0.6363801176,-0.1707305246,-0.7726654401,0.2893956175,-0.7660895357,0.6273685854,0.1702184732,-0.7591764897,0.8713628154,1.0751436869,-0.0121549525,-0.2386790722,-0.4717312023,-0.4590004029,-0.3832722247,-0.0859463029,0.2300823427,0.5055203899,-0.1612226874,-0.5559865455,0.7269348436,0.8433887634,0.2691583409,-0.1041142573,-0.813291642,0.7569383454,0.2005186328,0.4235200905,1.0762129108,0.6499669728,0.0549913227,0.6535412346,-0.2944935426,0.1082614587,0.1492385152,0.5588987857,0.2246756826,0.5563110758,-0.3452302655,0.3620394241,0.0634742727,-0.9375028016,0.1124171825,0.6574329939,-0.4426951944,-0.3283364792,-0.1430853363,0.8680346719,0.0191962787,-0.850668032,-0.4436012616,0.5882771249,0.202912916,-0.796807697,-0.5190016661,0.3780724791,0.4290846273,-0.3211243183,-0.3588924769,-0.271208221,-0.8644056801,0.4013563683,-0.6846163274,-0.3689763331,0.8405219468,0.2306528975,0.8891697267,-0.7254484346,-0.6940618895,0.6530806541,0.4832019842,0.7653354316,0.4486871948,0.093236484,-0.7884194768,-0.1250815718,-0.0537206816,0.5527183341,-0.6561918675,-0.3182679937,0.8373912213,0.0930838321,-0.1261237008,0.372631881,-0.1098296209,1.0665679309,0.4332263409,0.7395003406,1.0446228852,-0.7548924232,-0.8468549648,-0.5539550753,-0.2653220273,0.2980904178,-0.5696456386,-0.2749469688,0.3396451446,-0.1172042223,-0.441021904,-0.8051837749,-0.4614358002,-0.8386391929,0.29418182,-0.3001984401,-0.3257172883,0.7394419149,0.23541023,0.3957698649,0.0489053001,0.5316635399,0.9197918833,0.5479016598,0.5462720813,0.2311586456,-0.3918427751,0.0464690524,-0.7127644171,-0.6930404177,-0.5162783447,0.3612384619,-0.8569460548,0.5901434814,-0.8776680053,0.3804636507,0.3684112095,-0.0168592994,0.1356139714,0.0911542385,-0.113378202,0.5599351,0.4212440659,1.0573824238,0.3209163981,0.178077343,-0.0081128168,0.109340976,-0.6799861435,0.2878775132,0.067526823,-0.5327233626,0.2416993389,0.355422495,0.5394059673,0.142943132,1.0167757764,0.3923440608,-0.1543737114,0.9139365457,0.7249388895,0.6634457575,-0.5413602453,0.1540403917,-0.327703573,-0.6123851395,0.0716408351,-0.1785509234,0.7486941361,0.2474238889,-0.2908571458,-0.8901814123,-0.9291506171,0.2599472257,-0.9529794238,0.1992018339,-0.6515472495,0.7318704647,0.7229295813,0.0597216631,0.0695036779,-0.264628514,-0.0897835514,-0.8378231635,0.4512020596,0.8083331434,0.746674539,0.8402405578,0.4088917206,-0.531102085,-0.4294546966,-0.9154218102,0.9061463985,0.1261481138,-0.5627881895,-0.1035269929,0.1780174699,-0.819182086,-0.4083597892,-0.1390787641,0.0943653095,0.8312083117,0.6228894036,0.9920417025,-0.1731510776,-0.9490862733,-0.2020963446,-0.2722652848,-0.3275458632,0.453814245,-0.3646510225,0.9943547777,0.4132527476,0.7999909025,0.444856178,0.4812530795,-0.5353664473,-0.0572749824,-0.5659694173,-0.4142947557,-0.2013100673,0.161792365,0.0682274177,0.7334090081,0.7945384745,0.237697069,0.5288925303,-0.4821441735,0.6971197954,-0.2306022403,0.9994034507,0.7961167726,0.1680896246,0.724345156,0.2617385847,-0.3967189334,0.29062298,-0.3139871217,0.4188177548,-0.1171166885,0.6970780027,0.2283217576,0.3722626387,-0.1450526883,-0.9475460849,-0.4125859837,-0.601884064,-0.0520174554,0.1496854156,-0.639809642,0.5135828434,-0.7510299693,-0.226942825,0.8187128321,0.3080185585,-0.4493902319,-0.2463492393,0.4965774066,0.338771172,-0.002782858,-0.707930999,0.3457616788,-0.8228465134,-0.9372671683,-0.6978098172,0.549842574,-0.9285824215,-0.0115852209,0.2877349879,-0.2288636639,-0.120533588,0.3072211255,-0.353144548,-0.528714853,0.374926169,-0.2035615663,0.1846032389,-0.3990509966,0.2644489936,0.107821112,-0.5279450712,0.6024564304,0.0822465773,-0.7138217282,-0.3698969295,0.4746211152,0.8627566995,-0.9162005631,0.7449251725,-0.2190202258,0.7606186171,-0.5528220164,-0.3857970163,0.6901988489,-0.6697108619,-0.5659024282,0.3349363091,0.7872785193,0.124119008,-0.7658043189,-0.7382811526,1.0106811584,0.1768938001,0.2786755703,0.1408295681,-0.7771759453,0.4011046059,-0.2554031624,-0.0070451521,0.123245968,-0.6616799378,0.1647738355,0.3913965469,-0.4576983891,-0.844385587,-0.0594944486,-0.3163611745,-0.2465175637,0.2698192251,0.7823200679,-0.9208693402,0.2319928535,-0.5965876423,-0.8943442787,0.7324308322,0.6073241896,-0.4748687803,0.7178593878,0.978339763,0.281402713,0.8663791995,0.8930869663,-0.4627392099,-0.2447031675,0.9254255924,-0.9521263255,0.87690132,-0.3005911232,-0.8378708192,0.5465700885,0.2737441896,-0.6862998783,0.3781673731,-0.6526083164,0.0709681533,0.585030801,-0.6057164965,-0.8393791315,-0.5676420968,-0.6043973021,0.0880041641,-0.9463055343,-0.8013405539,0.8447943586,-0.5270053714,0.9152772571,0.1802106526,-0.4622745324,-0.0580127923,-0.0143111633,0.56021316,-0.7180663908,0.7085463129,-0.5463003598,-0.3855802,-0.4390521033,-0.89537944,0.9994360467,0.6974389995,-0.5811211374,-0.4148131475,-0.8259431564,0.5295227129,0.2093336776,-0.8955343602,0.1548931396,-0.1199362112,-0.5147926726,-0.8296536463,0.3650605078,0.922239364,0.2360620555,-0.2265312825,0.2093926212,-0.7034486373,0.3625852956,0.8788649493,0.4192600523,0.0145313679,0.5842073304,-0.1526584475,0.7453862045,-0.1268691822,-0.5770048751,-0.4879392099,0.0443357662,0.47665635,-0.5287274518,-0.9251237114,0.4099583495,-0.5073830347,-0.6046839753,0.3629729038,-0.2711000265,0.4879689053,0.0318853453,0.2387377714,-0.1334591846,0.2443197731,0.4766059702,0.9834151398,0.237927814,0.7407788866,-0.3994690838,-0.6142193109,0.1998492492,0.2044029896,-0.2789251315,-1.0807548354,-0.6145826721,0.7907852799,-0.5372580816,0.373017201,-0.2305459393,0.5685547099,-0.2333299691,0.5191269575,1.0234747957,0.6112573128,0.7483852137,0.6402168603,0.4824332729,-0.9242597004,0.6245409654,-0.2296346886,-0.4658205792,-0.1109633309,0.9183575627,0.3736336758,-0.6437689745,-0.7402077524,-0.8756734758,-0.6150470836,-0.4322252844,0.8930126777,0.7251989584,-0.8702949387,0.589642751,0.9554328749,-0.3641199428,0.8568634267,0.8251350029,0.7296977541,0.0622121432,-0.6867353674,0.3737421993,-0.4139603833,-0.5858356132,-0.7118643286,-0.1264239936,0.8307347401,-0.0800867072,-0.5545952125,0.8574412476,-0.1638149469,-0.2250131574,-0.7128277096,-0.1288636888,0.4513588631,-0.3425365424,-0.548550118,-0.8530485442,0.1614052389,-0.4264898973,-0.9012512097,-0.1101491663,0.9928744719,0.4378283858,0.815777371,-0.0647792285,-0.8251473789,-0.5583566389,-0.5514704252,-0.3812451306,0.0413343001,-0.5618220213,-0.3803876381,-0.3003370089,1.011779603,-0.8704872178,-0.9644533945,-0.3073697945,-0.7795400482,0.9108269437,0.7685660082,-0.613388225,0.9621051661,0.5096827199,-0.7169866995,0.4673520864,-1.2184109163,-0.0811631439,-0.4704479652,-0.1848457747,-0.5102376509,0.7087999775,-0.4833146077,1.2732024621,0.593272724,-0.0428514757,0.242118545,0.5389195552,0.7861162845,-0.0218254199,0.3633006779,-0.9570590887,0.7565382264,-0.6820538009,-0.8186588971,0.7492711286,-0.2437153887,0.9842966047,0.0662316739,0.2986271244,-0.4092195227,0.6548779434,-0.7365569737,-0.1272889168,-0.1675157944,0.1792758925,0.1803638085,-0.7452819148,0.002140147,0.9701787094,0.6760020965,-0.4881412496,0.9521669428,-0.0935691692,0.851730887,0.3150975883,0.314969826,-0.3287295943,-0.4375938548,0.1011415331,0.6965295217,-0.0117877774,0.2915844663,0.6494036533,0.9587792061,-0.586749737,0.2248638502,0.7411887177,0.4033923551,-0.4168626769,0.7919850716,-0.8368494888,0.4279393303,-0.9835299338,-0.321466566,-0.2898598884,-0.946470628,-1.0560432553,0.004813575,0.7213154996,1.055097761,0.6511516411,-0.2268912965,-0.852481322,-0.7994532523,-0.8677146692,0.5486739887,0.9186994377,0.8304502688,-0.8905203819,0.2893951799,-0.903698521,-0.3312799565,-1.104269914,-1.019189922,-0.1106139013,-0.9372589616,0.3544755379,0.6267888891,0.1619446354,0.1880510277,-0.6348543981,0.1848156052,-0.7218599619,0.3595932043,-0.7154993464,-0.1500848355,-0.4214950984,-0.8403840382,-0.4957723376,0.1991582601,0.5060785465,0.2757865774,-0.044267575,0.8877950759,-0.1597040735,-0.1740030407,0.2723360422,0.4706152213,0.5145940259,0.41844735,-0.2357939507,-0.764585379,0.6250991905,0.4240086396,-0.4738458376,0.5186228681,0.6781528694,-0.2187339957,0.0660758375,0.7219456632,-0.0472078206,0.5959450545,-0.8363933073,0.3248098689,-0.2332660252,0.0784546456,-0.7935373928,-0.421349627,-0.2290165569,0.3675115415,-0.6491410632,-0.8618923955,0.5960544666,0.0696455314,0.3815505325,1.0212068564,0.4776102353,0.1330635567,-0.5502678974,0.2362760366,0.840552648,0.128026162,0.4228847814,-0.0459892588,-0.6503421075,-1.1113134697,-1.1192983482,-0.2821007024,-0.5036371458,0.5104452724,-0.1924725638,-1.0952998977,-0.1151255016,-0.2093021533,1.0831025944,-0.6796999606,-0.9260859096,-0.0219039484,0.8867481812,0.868804347,0.3650869492,0.4447546113,0.434048817,0.9124569116,0.2253852543,-0.5756827062,-1.1055718796,-0.5494140287,-0.8324936799,0.1611357743,0.2122905608,0.729857376,-0.5405645466,-0.6208894426,-0.7147780953,0.4756544704,-0.2970696041,-0.6354585974,0.5326901661,0.8543330291,0.824528958,0.6613240953,1.4775862944,-0.3765985288,0.0909595724,0.8224265558,0.0289939959,-0.4652130574,-0.1043933062,0.4225970012,0.1037275859,0.1198276303,0.4872780229,-0.6879770039,-0.8542740242,0.324998824,-0.3035467147,-0.1141712324,0.4033110518,-0.1627011944,-0.8028655307,-0.6248399066,-0.0100143698,0.4249113384,-0.0193617624,-0.5783861714,-0.2543872468,0.7764667235,0.3882916977,0.835765042,0.7421740414,0.7327373719,-0.4139821545,0.575301583,-0.7971197575,-0.2521962668,-0.1810803006,0.484321934,0.0905010562,-0.0989794662,0.280706179,0.2355138544,0.4556147397,-0.6105284385,-0.0162667015,-0.7687757869,-1.0302786292,-0.9958972466,-0.7171018097,0.4740351166,-1.096143427,-0.8054070708,-0.2902072733,-0.187851498,-0.6970718417,-0.3781487236,1.0522481809,-0.490411695,0.9394562664,-0.0297757547,-0.0124187514,-0.0552810006,-0.7472011702,-0.8548541717,-0.3587975747,0.2638612511,0.238633015,0.4787929824,-0.1364700595,0.1775578396,1.1470766297,-0.3396188927,-0.471976528,-1.0335508709,0.2539641304,-0.5390894452,-0.3847245879,0.3545738829,0.9339009431,0.0934322832,-0.2997843678,0.380438763,0.7178359564,-0.0629577445,-0.4541646537,0.1674315955,1.1190927419,0.5474631712,0.9752352053,0.6367783661,-0.2578040239,-0.7447036772,0.1505461404,-0.7333065347,0.1535182077,0.4796027288,0.8907851691,-0.5892767454,0.8023225236,-0.3467450865,-0.3432717204,-0.2860384039,-0.015782365,-0.9325792894,0.3079196169,0.9352286612,0.6682842742,-0.0356421767,-0.553775691,0.7623969921,0.0347687425,-0.302325032,1.0596029419,-0.443938801,-0.6961934539,0.7963169075,-0.7620141285,0.3451200794,0.7437002081,-0.4645054443,-0.1052665531,0.7112406108,-0.1582267972,-0.2123991999,0.3902819088,-0.9511769657,-0.1019377757,0.3938835088,0.8457110768,-0.893669887,0.5923734098,-0.4268974259,-0.3189949648,-0.14161246,0.7774397121,-0.4742753088,-0.8049612014,1.0238376903,0.8035414108,0.380538452,0.5820869105,-0.5678393141,-0.941755485,0.1024471238,-0.6007142973,0.2808887598,-0.5219420226,0.038141853,-0.5992839773,-0.4258272376,-0.1190923274,-0.6541873337,0.5929060119,-0.6293097028,0.1302202974,0.8327951281,1.0730864518,0.0004812507,0.4973632595,-0.5156601126,-0.5834520496,-0.5668554253,0.4597494461,-0.0762099386,-0.5205369764,-0.3305056941,0.417381428,0.7945108355,0.2796614436,-0.3984674156,-0.1706686958,0.0254858086,0.1433927549,-0.8253627484,-0.4073105586,-0.8279415952,-0.843946716,0.6203186912,0.3032850983,-0.2483784318,0.2204153103,-0.7489316613,-0.7869804935,1.0622906346,0.0197366446,0.8513022864,-0.5616474478,-0.6943837912,-0.8947351108,0.9762777562,0.0530404539,-0.7386343997,0.7556442418,0.9730875166,0.5377959225,0.5766456826,0.2660923747,-0.161477089,0.2240492974,0.4252228935,-0.2065859081,0.4029210356,-0.9432574303,-0.3580781629,0.4735384458,-0.9023861524,0.2007800889,0.0889824379,0.5730437592,-0.4234928447,-0.6200041703,-0.389632367,-0.4753238724,-0.7982594491,-0.3741593029,-0.8684212733,1.0759639793,1.0889379324,0.6440261434,0.0809722532,-0.6139291529,0.2868894328,0.5512439725,-0.3219945405,0.0316700156,0.291246791,-0.4586564928,0.0065360391,-0.6801984902,0.3814405781,-0.1884626498,0.7571925003,-0.6385794865,-0.6316577189,0.6834405991,0.3197422906,0.5635760793,-0.8133398376,0.1025084008,-0.7292273201,0.2053327523,-0.3891859092,-0.4568647057,0.6973669251,-0.5189064745,-0.1714123267,0.9381031767,0.6468193702,0.0736229104,-0.5663020446,0.994353026,-0.200435603,0.6758243807,-0.1536012475,0.3020257139,-0.1407294692,0.011021904,0.3782908662,0.4234881757,0.3155504507,-0.1796678402,-0.5436075373,-0.816856888,-0.0358529242,-0.8745362673,0.7465789456,0.8023965229,-0.8684483647,-0.9174096561,0.7201892829,-0.6117103408,-0.4729778631,0.2073449821,-0.0719925644,-0.8366667773,-0.3454353683,-0.8683119683,0.2438832494,0.6665042306,-0.0817985694,-0.2543066885,0.6396196412,0.0634858647,-0.9318867867,0.0449745226,0.9726160862,0.8360771632,-0.5593278604,0.1404121986,-0.1080505095,0.896352123,0.8554005249,-0.4053988076,-0.6229411121,-0.0400413896,0.0389716405,-0.035839172,-0.2932687258,-0.8059781532,-0.6802407602,-0.7084136802,0.9123863779,-0.1790953369,-0.9237532629,0.8311292749,0.4672188398,-0.8666802971,-0.8172038532,-0.578492379,0.1339021526,0.5967293983,0.177629536,-0.2308029337,-0.0510564304,0.8517100194,0.6111069768,0.2194673323,-0.7082309336,0.7397436422,-0.0592048391,-0.8169562343,0.0442569346,0.3854632238,-0.830483984,0.8864869579,1.0391205809,0.0168343538,-0.3085000728,0.6886072238,-0.3323958149,-0.6558163486,1.0075770283,-0.1220149358,0.833924803,-0.2545188824,-0.865702158,-0.0618409123,0.7212074795,0.1974649896,-0.6829377158,-0.5495882727,0.5686172077,0.8907384209,0.0795831369,0.4426856697,-0.2678498125,0.7055775734,-0.1456249886,-0.6681900304,0.874685245,0.7384400914,-0.8042433658,-0.3718330443,-0.7148973304,0.9634992883,0.1806082001,0.706717814,-0.2026128533,0.6290868828,-0.6317372631,0.2982396566,-0.6340203387,0.8910573433,0.1126371137,-0.6276757618,-0.5608007488,0.6708489377,-0.8785195729,0.8406905279,0.5113915582,0.6546802781,-0.0916656291,-0.5425171598,-0.9462130514,0.580457828,-0.0907578463,0.3452932544,0.6085111035,-0.5489279499,0.1006021887,0.6832467114,0.2216735253,0.297166538,-0.4522081299,-0.8654285535,-0.0367484025,-0.5120007089,-0.8442471531,0.0550285576,0.1012295166,-0.7916784492,0.2138692136,-0.2240680083,-0.5227216504,-0.1875317526,-0.9424143563,-0.3956596299,-0.4368626116,0.5037266265,0.6594474799,-0.2757920606,-0.310153288,0.8477121047,-0.7627149181,-0.8231197206,-0.7194117445,-0.036774288,-0.5807609064,0.856128824,-0.5467536367,0.5792258062,-0.1863898331,0.4283741945,0.1602975074,0.7724845553,-0.7447564038,-0.5060938751,0.4078400631,0.0881620264,0.2952802697,-0.7619931878,-0.1394950803,0.4794396722,0.5129025816,0.9742355864,0.8547861427,-0.7727147284,0.7497037725,-0.3006069156,-0.2525122543,-0.031750915,-0.906630215,0.5047363304,0.6601215824,0.5347993553,-0.3673517393,0.6556488729,-0.3613053203,-0.4315295397,-0.669165047,0.1040059077,0.835211669,0.1473829565,0.3990429666,-0.602169989,-0.7647894378,0.4717696361,-0.4670569114,-0.02590208,-0.2124153773,0.3345823658,0.7433569404,0.3974812872,-0.9377211948,0.3766052932,0.0439633299,-0.2987971719,0.9123708104,0.5832283767,-0.4682231227,-0.7014538178,0.127214079,0.5909949434,-0.7667414174,0.8718255262,-0.3091039797,0.282258692,0.831786661,0.7210272362,-0.3048055985,0.596990759,0.086610537,0.7686107818,-0.8980606496,-0.6182194332,-0.2111301308,0.6405833141,0.2406181184,0.13209412,-0.3046936019,0.0235819202,0.4101645428,-0.6473143033,0.9202525759,-0.2206587563,0.703474857,-0.0721980355,0.0678864722,0.7408766902,-0.122931166,-0.5082436474,0.8060116142,-0.5668484155,-0.5120434975,-0.5700562555,0.1335168036,0.8030813844,-0.86574359,-1.004724193,-0.5516250131,0.3742519844,0.7066586641,0.570708789,0.4109980434,0.3865868289,0.4222632038,-0.628116081,0.4408705183,-0.6390966172,-0.8524242998,0.1808701144,0.1996511974,-0.8712654866,-0.9081591353,-0.6913505955,-0.5448570872,-0.4372652003,0.2150273893,-0.9688122926,0.5848643903,-0.7917075801,0.4002785766,0.8602376462,-0.929709953,-0.1246548211,-0.4404174076,-1.1777876467,-0.7198477373,-1.1692103538,0.8735943103,-0.1313507753,0.5469077131,0.2043856062,-0.2944186212,-0.5668618474,-0.3223920927,-0.6743372828,-0.6755532067,-0.5718049459,-0.3895961529,0.7459923968,0.2624731048,-0.1563307917,0.3023700169,0.5666700783,1.0065667095,-0.0112570334,-0.5348736338,-0.8756386265,-1.0325658264,-0.011787924,-0.0353000712,-0.1978169594,0.3789267804,0.6673723714,-0.4289014527,0.3004365192,-0.557802875,0.6833794876,-0.1107710222,0.4946489903,0.8598075493,-0.2660730249,0.3447557127,0.5397674682,-0.023595671,0.90598645,-0.2155432262,-0.5045745375,0.5343678188,-0.1174347946,-0.5689453195,0.8372126865,0.2094395706,-0.7781223022,-0.77492336,-0.3353531216,0.1592494348,-0.1283168934,-0.9127671796,0.7147670232,0.0390119575,-0.5080824874,-0.6768930997,0.0892836655,-0.9387581295,0.4743491644,-0.1809129268,0.3322210951,0.6009126534,-0.2081882461,0.6554086042,0.1046169031,0.7160657734,0.7279583159,0.2875103878,-0.4770934244,0.8166868554,0.2286625682,0.3012801059,0.2965534486,0.1243665973,-0.8952913428,0.6908896834,-0.7329980286,0.5763222432,0.1075393242,0.3298347483,-0.3085169438,-0.9454170281,-0.5130988452,-0.2921618918,0.0086468901,0.6509125879,0.967558063,0.2666682491,1.0199286737,-0.643889223,0.0196111408,-0.2864243129,0.8678917894,-0.2834294629,0.107668418,0.8929964482,0.5174530919,0.9699775443,-0.7528718953,0.7075740641,-0.0877956895,-0.8830035575,-0.4693181136,0.4904821124,0.0273327535,0.4552787217,-1.0811354266,-0.2740098412,0.5795053228,-0.0286382287
   -0.7891977122,-0.9732029332,0.4694908099,0.2169541617,-0.0541200443,-0.5684878137,-0.7672759733,-0.2366738789,0.255081397,-0.7074986371,-0.2116759445,0.4107942605,0.0038518427,-0.0785959115,-0.5489995988,0.688853673,0.5808126496,-0.9319934274,-0.4350639964,-0.9163891778,-0.9500122975,0.3140735792,-0.1482659073,-0.1285768043,-1.1692115301,0.3894450662,0.4513355534,-0.2950021364,0.4572309244,-1.1057474469,-0.7819143154,-0.6747860941,-0.3084102189,0.0136485261,0.947767663,0.7291486936,-0.633782401,0.0983083674,-0.2609856202,-0.6645231314,0.6337964459,0.2680206119,-0.7041757353,-0.1746759264,-0.5917531645,-0.4793183163,0.0591587334,-0.2142867863,0.0854650399,0.0441383473,-0.7373374119,0.4843543865,-0.3398876417,-1.0792863176,0.7766824045,-0.2347219999,0.2005611685,0.1340800278,-0.2084136576,-0.6444558483,-0.729463711,-0.6128776432,-0.0801036351,0.5036051436,0.9567304829,0.618706722,0.7108596279,-0.8202502181,0.4914147264,0.7432967929,-0.5406825285,-0.3645582896,-0.2383190767,-0.5451419853,0.6192383232,-0.7689961872,0.0746497007,-0.9871454821,-0.0719723955,-0.6276822214,0.2748375683,-0.3343064808,0.4527869641,-1.0943000305,0.5898217558,-0.846612252,0.5393409459,0.6825244451,-0.0092562445,-0.134722365,0.3896156485,-0.4483938728,-0.6857980434,-0.7067814852,-0.7661732973,0.3851295578,-0.933630554,-0.2230337185,-0.0934224656,0.4262350274,-0.6623054392,0.1534085844,-0.6538685179,0.448869798,0.3802292845,-0.3302255509,-0.7315918223,-0.2329153267,-0.9860946324,-1.146924365,0.4850028277,-0.5559159834,0.3230108063,-0.7936206157,-0.2305537767,0.5166817594,-0.9804999406,0.8568276306,0.1671081008,-0.6970035793,0.3524283496,0.7411140966,-0.7289836283,-0.8860806196,0.7242053133,-0.8551047425,-0.0619639672,-0.1792521671,0.2956504626,0.4066862063,-0.762585434,0.3192552081,0.1588448191,0.5008299804,-1.0335176951,-0.7711911133,0.7184456416,0.347811984,-0.2009467717,-1.1493334252,-0.4069734551,-0.2518179532,0.7807631489,0.4457230058,-0.7263768174,-0.4725602615,-0.4405685724,1.0540053104,0.6501799512,0.7811707445,0.8274594048,-0.9787441501,-0.1063950301,-0.3633841261,-0.5021248366,-0.8578855642,0.7815977363,0.9055091242,-0.521779568,-0.8441205289,0.3620637268,0.5302863677,0.2900874235,0.5762324542,0.5442061081,0.6636493144,-0.4350846463,0.4500908778,-1.0074229998,-0.3273433861,-0.1780034939,-0.7711857771,-0.8755202318,-0.425209795,-0.6322837846,-0.4859694638,0.3917229871,0.4172536541,0.9847460914,0.7779146183,-0.5487633698,-0.3805081282,0.9202282972,0.7482630403,-0.7854455359,-0.485457745,-0.3443246415,0.7224441514,0.9708605082,0.2293631155,0.861960171,-0.6039914833,0.5998787151,-0.124429202,-0.027790277,-0.8717470309,0.529108189,0.6352772789,-0.8328902636,-0.1517638091,-0.753897696,-0.7895392508,0.0131036622,-0.2902934938,0.2613705299,-0.2861931107,-0.5530616033,0.0172313111,-0.8995066659,0.4252502208,0.4075262774,-0.505368937,-0.2482940739,-0.7413837039,-0.2073411648,0.3311158994,0.4197313412,0.1689868215,0.5007450734,0.0739630211,-0.5246049244,0.7295087757,0.3225631789,-0.9182993533,0.4135099398,-0.8878567449,0.6375988046,0.2104227703,0.3514410861,-0.6491873879,0.9005994014,-0.3375024592,-0.6191685035,-0.5315053423,1.2925733396,0.0102749269,0.4291096086,0.3827680243,0.1199802176,1.0911936107,0.557891498,-0.5243326315,0.3954847232,-0.5217216113,1.0084127368,0.9212338643,-0.2458965907,-0.6549332905,0.0991214324,-0.9109765885,-1.0193317352,-0.777633455,-0.462162238,-0.5400128345,0.8490594955,-0.2074155175,-0.2859261627,-0.3383499132,-0.0177143635,-0.4626817402,0.4951737746,0.6008431991,0.435726799,0.3287246872,-0.1328724078,0.187328967,-0.1833829456,-0.0043124049,0.4496982389,-0.8750670733,0.9333645662,1.0894824082,0.7630788901,0.2834424084,-0.0572217893,-0.7631086293,0.2647249513,-0.3484768502,-0.5567270378,0.6332208588,-0.5605345363,0.4239110834,0.7235488749,0.2744586678,-0.4311696222,-0.886789161,0.7188533246,-0.8674522434,-0.0824337678,-0.4921651716,0.8035219768,-0.3565633333,-0.5836752674,0.5110132699,-0.7035093903,0.7157321821,0.6968484747,0.4673563498,0.6803417984,0.1195069216,1.055779723,0.6313636665,0.635610947,0.0493116924,0.2712026163,0.126564362,0.6472751164,0.0572572587,0.4029710222,0.1282837496,0.620003396,1.0586346131,0.3705997463,-0.6402607964,-0.8663036361,-0.4485654048,-0.4272106031,0.7935623427,0.9850527401,-0.5029611895,-0.7832043219,-0.3225611226,-0.6683903705,0.664143076,-0.6479117849,0.6205373545,-0.4575462466,-0.5461953681,0.9066750789,0.5626697616,-0.2653634382,0.8014133042,-0.5997597594,-0.6536632695,0.4054214731,0.0006567284,-0.6278104332,-0.3376646634,0.6179510622,-0.4449241735,0.4049609122,-0.0009201617,-0.5810009511,0.5568191344,-0.5403668544,0.7328775662,0.2542043192,-0.6841428375,0.6160923806,0.8513587029,-0.9423162962,0.018970316,0.2793882478,0.7750086677,0.888432956,-0.8750762148,0.1244824658,-0.5597676213,0.5031015444,0.0280950809,-1.0560490704,-0.6080128846,-0.754919037,0.4270640666,-0.8836515729,0.3904891879,-0.2556402805,-0.5816823439,0.1162531278,0.9430731492,0.4421084304,1.0501881851,-0.881897989,-0.4991676832,0.3226976081,-0.5283592336,0.7371891489,0.3340813234,0.7398791859,0.9714410641,-0.7849306586,-0.3915095874,-0.7118538194,-0.73025818,-0.5941571727,-0.8244304177,-0.7372042494,0.0270407408,-0.6128453575,0.428556402,0.0073882576,0.1133764124,0.1829306624,0.1616046858,-0.3328415368,0.3699231522,0.8588207979,0.6834835797,0.8427100297,-0.1909300594,0.28859289,-0.1974511891,-0.9527683669,-0.842378919,1.0540349019,-0.391907096,-0.6259972447,0.468990898,-0.7951993473,0.0283995275,-0.288697118,0.0124152294,0.8671502831,-0.6798614941,0.8721461134,0.3915220435,-0.459209953,0.5222289862,-0.8658460409,0.4442046703,-0.9365322393,-0.3166886951,0.8012786306,-0.9063960554,-0.5843989196,-0.8491395189,0.0805274581,-0.6448948759,0.1619798935,0.531711632,0.4679844121,0.8834251732,-0.6302004512,0.9409293448,1.0403130728,-0.4927911525,-0.6781969932,-0.4538948453,0.3749904682,0.7193359698,-0.5588910232,0.7282173913,1.0336652677,0.4780350793,-0.8580301166,1.0584511148,0.8234401036,0.0579382716,0.4523587966,-0.8264557667,-0.085772433,0.7784937147,-0.2484233527,-0.025464774,-0.6703456589,0.0288399263,-0.5480034435,0.4315849752,-0.4285753103,-0.6386595546,-0.8042668964,1.0207768247,-0.6512822002,-0.9177217563,0.1433602838,0.6944854096,-0.6995681159,-0.7481524362,0.401327713,-0.6178214925,0.937382026,-0.8679520936,-0.1308784108,-0.8687823482,-0.2833670253,0.1968086811,0.8801555964,-0.7428188342,-0.8780863313,-0.4189781783,0.898005137,0.9943386963,-0.1576490828,0.4445902771,-0.9340431859,0.7731159337,0.0839399929,0.8519332157,0.4604896393,0.5465081625,0.3935011388,0.2939316667,0.047326055,0.4002769686,-0.921417115,0.8469524059,-0.7773552526,0.9931051025,0.435428612,0.6658978061,-0.552365997,0.0534949902,1.0092011602,1.0156234939,-0.6389595871,0.796452048,0.0017366383,-0.0952135473,-0.1809390545,-0.9095336886,0.0284217695,-0.6097470955,0.8969167098,-0.8921842819,0.5141064107,-0.8133400305,0.396055951,0.5429501977,0.4280562707,0.981411805,-0.6549646686,-0.942440659,0.8131016152,-0.4568347588,0.8424683947,-0.5909579123,-0.4390722822,0.0651582758,-0.0769910596,0.1146500324,0.0826987859,0.7672946035,-0.9046377919,-0.2808172008,-0.6916560346,-0.4290102811,-0.0977520492,0.0396238444,0.0536592721,0.6034629994,-0.2618176544,0.1028453035,-0.1396480725,-0.423845424,0.6581830683,-0.5141976522,-0.4227202082,-0.0803790143,0.5610727265,0.4660157862,-0.5683700784,1.0136529017,0.1882414084,0.2440728351,-0.7116132242,-0.0007368034,0.1929407166,0.9396154402,0.1147361613,-0.5594633038,-0.8839693667,-0.5884152972,0.4062329536,0.3969658079,-0.3070647517,-0.7073969674,-0.196159435,-0.5650242018,0.0941227987,0.2980602707,0.0766006476,-0.3443613602,-0.0034163566,0.3576207668,-0.4550712151,-0.1123102021,-0.9177952432,-0.475517229,-0.4178040581,0.6808447452,-0.2847793251,-0.3268910916,0.9897489053,-0.8797267204,-0.2957952622,1.0014920964,-0.0356267586,0.2324746971,-0.2111157669,0.0125197368,0.1082764715,-0.8565605077,0.2487710479,-0.8756871105,-0.2652819608,-0.6851069275,-0.4305150435,0.6822992374,-0.3182284177,-0.4920309877,-0.7319353238,0.5871960053,-0.8015998919,-0.1555046992,-0.9743394517,0.5665846554,-0.1193717925,0.7601476262,0.5189984277,-0.7451845395,-0.8990448089,0.9927939508,0.5393855165,0.5434051546,-0.5101861428,-0.9698820626,0.3673893782,0.5636179182,-0.9504603656,-0.6145263228,-0.2600443659,0.6442318065,0.4925784042,-0.5534945974,-0.8324016628,0.0797518508,0.2664748372,0.1691743297,-0.5986605323,0.1719451785,0.8642910867,-0.2879237059,0.5313771662,-0.4994606091,-0.1182413818,-0.0170523838,0.5696158787,0.796074255,0.6202164838,-0.2133697493,0.6417839653,-0.9232493524,0.2770116304,-0.5026332035,0.5753666423,0.8893055651,-0.1262664795,-0.0029690062,0.7236048774,-0.734418134,0.2866893928,0.9739951879,0.3824687598,-0.8844247935,-0.5028040982,0.1900706152,0.9912236818,0.3578876169,0.5668224031,-0.8843367535,-0.1208342986,0.1426551894,0.2253498101,0.1575095297,0.329802324,-0.9816545753,-0.1305284572,0.2554282895,0.8572210106,0.1376232029,0.0536811496,-0.318263256,0.2975011507,-0.1010964641,0.6459964771,0.2509273851,-0.8035384298,0.0154457702,0.8580423322,1.0069021556,0.8699152941,0.2331116385,-0.5758401337,0.6878187648,0.1188412483,0.8829477005,-0.3464404325,-0.5412568982,-0.3507610657,-0.6650082713,0.8421434778,0.795522682,-0.4564300464,-0.2933216189,-0.0754073956,-0.0949873424,-0.009061955,-0.5096341863,-0.6509286243,-0.3935037272,0.2103268127,-0.6111540822,0.4538751354,-0.8960727401,-0.2943890272,-0.7705574282,0.2212911826,0.3864686693,-0.5937443036,-0.8160820737,0.149881761,-0.7707724381,-0.8376879989,0.7556785171,-0.4729118659,0.068788127,-0.0683085004,-0.4074733534,0.0594567817,0.7260273703,-0.467675569,0.5943641281,-0.9654995683,0.4040870986,0.75091141,0.7395566863,-0.0348099492,0.1037396615,-0.4997007349,-0.9942723127,0.2314835542,-0.8515119174,-0.6525602708,-0.0887258114,-0.4451955506,-0.3164843439,-0.3615225648,-0.10524561,0.495569628,-0.6231547091,-0.5210003934,-0.2136321682,-0.817094533,-0.9449771561,0.3336376026,-0.7250338218,0.2454290376,-0.8021189599,0.9403583925,-0.1083468912,0.161546901,-0.9534577395,-1.0073416584,0.6926358114,-0.7512862788,-0.663819129,0.1870056558,-0.40781147,-0.7618851149,-0.8814151858,-0.0963148161,-0.6406303867,0.9112437094,-0.1314049301,0.2427917252,1.0509282107,0.9312359948,0.5910137851,-0.0424052304,0.3489385684,0.514832976,0.9221903726,0.182054474,-0.0432977999,-0.6937086904,-0.1771857287,-0.2691235156,0.9851014395,0.8554516866,0.5610590037,0.2887421004,-0.7653296922,-0.4597369478,0.5367713684,-0.8693536738,-1.071263817,0.2887330609,0.3208663025,0.5388817983,1.0352406162,0.0090815277,-0.6647243506,0.3156614414,0.4064076248,-0.3352311548,-0.972274221,-0.5913799051,-0.2516362096,0.1618953857,0.4964482232,0.7863905081,-0.4966339395,0.0994847243,-0.3902960015,-0.3096355914,-0.8562574618,0.4000346675,-1.1521829548,-0.8839456034,0.4809046408,-0.7971574248,-0.5979084365,0.6177062524,0.7141333424,-0.8734219976,-0.962845147,-1.0416288429,-0.257648238,-0.9499302535,-0.9258806161,-0.1349443311,0.9358105071,-0.8160744541,0.8738993142,-0.8493899909,0.3737591401,0.9205543065,-0.2115006755,0.0885419336,-0.0657841369,-0.9209058959,-0.2737440491,0.1277404339,-0.2342464858,0.5019707856,0.4781903871,-0.7514156607,-1.019172016,-0.2916975362,0.0614032801,0.349950163,-0.7674461487,0.6993157522,-0.9227670704,-0.9087575405,-0.9845063446,0.901104551,-0.0348227829,-0.3900496658,0.3959935467,-0.3661720861,-0.7220851559,-0.3377027217,-0.7235290997,-0.575225587,-0.2510335855,0.1331198148,-0.4709332924,-0.2208764559,0.4071728889,-0.8065531427,0.5193655924,-0.7899470492,-0.5825134726,-1.0752291583,0.3132454705,-0.8565697447,0.3304709129,-0.298440052,0.5279059177,0.187133252,0.7050591584,0.3314994763,-0.0040912278,0.6446455261,-0.2292542092,0.0208796438,-0.4067709218,-0.0375906543,0.0792612593,0.8643768323,-0.346268472,0.8594857241,-0.8568018725,-0.8542832081,-0.2177268529,-0.1400047938,-0.8947441382,-0.0417550919,-0.1859099956,-0.0902458597,0.6543662434,0.0149214473,-0.0122761035,0.7817771119,-0.9087410012,0.2250820729,-0.3449546946,0.1991075645,0.0639468372,0.7809265015,-0.4734430087,0.1778923096,0.9555994092,0.76605009,0.4313845839,-0.8979653432,-0.9009150509,-0.1138268334,0.1683346981,-0.219906944,-0.9230579076,0.6299168329,-0.4329608828,-0.3065924755,-0.0442987731,-1.119032221,-0.5913045228,-0.6715819387,-1.1367913379,-0.9125649571,-0.8035835072,-1.0801998226,-1.1413335555,-1.1130687697,-0.8275902867,-0.1383210805,-0.5888638191,-0.6878795981,-0.7337819953,0.0227210736,0.5292631397,0.5448046501,-0.5279144098,0.7073285804,0.4967008631,0.9756037881,-0.5184393043,-0.5351374492,-0.3023638403,-0.1187795078,-0.4913374887,-0.805737206,0.2577508531,0.4621351003,-0.9449673169,0.4740365566,1.0281769411,-0.6878965575,-0.1926671945,0.5150846858,-0.2165395441,-0.9522693853,-1.0031530917,0.2714432729,-0.2126469673,0.2433217788,-0.2590151368,0.4183857253,0.4241210931,0.7556976804,-0.364204296,-0.8175257917,0.2732709683,0.5794562924,-0.6676988958,0.3989568244,0.9283148656,0.5403808611,-0.2179555399,-0.7128784578,0.8120129554,-0.2356944095,0.6773833169,0.3630687952,0.8717880787,-0.7993357184,0.2390694377,0.0650446401,0.3301472759,0.1400749244,-0.8417003012,-0.6750600455,-0.3107053402,-0.3036925819,-0.4851115496,0.4399162097,0.0313258884,-0.4584411489,0.5698370709,0.1279756841,0.5020680776,-0.2462648497,-0.4034569004,-0.6779325916,0.7635734653,-0.5176769201,-0.841208837,1.0627666796,-0.6567754427,-0.1613348451,-0.6177080083,-0.0428622019,-1.0551281754,0.5944763539,-0.9634893214,-0.5598479383,-0.0951247672,-0.2034006832,0.9538002563,0.8934533628,1.1302331639,-0.0561307488,0.5679628394,0.5010128861,-0.0670399356,0.4578825358,0.036284485,-0.6632775679,-0.2974796203,1.086592531,-0.6852125527,-0.3821562543,0.0451469853,0.3446265553,0.197549382,0.4682690283,0.8962404657,-0.2840550022,-0.0098120913,0.1464900579,0.0658973738,-0.611577405,-0.7053475416,0.7437949928,-0.9099064837,0.7042289341,0.7199371326,-0.1855868669,0.2782772758,0.8125876089,0.8527438782,0.6136917534,-0.3802605494,0.0929793867,-0.2515022065,0.9699523415,-0.485834571,0.5761694514,-0.0791704443,0.0972538759,0.827744674,-0.4581784835,0.5913357732,-0.5739871263,0.5317897576,0.3319774736,1.0831513976,0.5512831844,1.1150324705,0.3225139323,0.0333923934,0.3209666722,-0.2543654936,0.6161897858,-0.3511049805,0.2639399003,0.1523045067,0.2056747054,-0.020406366,1.2141218185,-0.0334311245,0.2437704282,0.5161280585,-0.1451756649,0.4149956267,-0.7440479621,-0.9252231725,0.7241713309,-0.2169768912,-0.791194147,1.0729833231,0.53627987,0.1856635073,0.4244052025,-0.3030386311,-0.1494655506,-0.2865680592,0.5291690699,-0.2136254113,-0.004822732,0.6630658974,0.7855245881,-0.8076878418,0.9562882133,-0.3808230075,-0.5723375575,0.9965782818,0.8533826215,0.9993264407,-0.7078223773,1.0251740111,-0.672307086,0.0087300647,-0.3874750217,0.8834148164,0.1251453441,-0.9051482995,-0.5649546909,0.2151813542,0.2179989496,1.0744657283,0.4417598427,0.4285872378,0.1035316376,0.7694504618,-0.5718361184,0.0105537593,0.6088661986,-0.4881880202,-0.0516991115,0.6716035924,0.1894977081,1.119838363,-0.1207165495,1.1822256525,-0.505256558,-0.0179094981,-0.1759823711,0.0322899496,0.7792504151,-0.9713681616,0.2352896243,-0.4599800573,0.4250780338,-0.7580202623,-0.3982319631,0.8974294773,0.7538312319,-0.9416522105,-0.3459198626,0.6983170999,0.3363542256,-0.4728308733,0.698847386,-0.5603391598,-0.0849514207,0.6713376181,-0.744396307,-0.4199405794,-0.7359790736,-0.3998619869,0.3404984592,-0.1438609588,0.3329400725,0.8256433755,-0.2656152135,0.4306868589,0.408066898,-0.9873089902,-0.2025448999,0.8876381582,0.9343469659,-0.7192500469,0.047108856,-0.0807365064,0.6504644157,0.6605400413,-0.8240667217,-0.5082353722,-0.1779905763,0.395426537,-0.7336691005,0.8805104967,0.9994828459,0.2323718843,-0.2893398484,0.7083439231,0.8384115857,-0.273683514,-0.3292639522,-0.030953016,0.1488306827,-0.0868597892,0.36752623,0.4713308664,0.6550306518,-0.8831626183,0.7185048414,0.2785349947,0.287527477,-0.8056939678,-0.8711413388,-0.6305357468,-0.2081011809,0.9669449475,-0.4475163511,-0.3233639247,0.4972844312,-0.5204928087,-0.3655433923,-0.2642021584,-0.6996735497,-0.232699676,-0.5492615533,-0.9526029287,-0.2239940602,-0.2904795134,0.936567495,0.1934398995,-0.5680745512,-0.4995652358,0.8357132247,0.355326324,0.9957096198,0.6828693727,0.1147102598,0.1199798991,-0.2198754371,0.2386178794,0.8926118339,-0.3274964659,-0.1854543399,0.7165822892,0.4160808433,-0.3385669896,-0.7187425927,0.586894672,-0.7599060933,-0.79307043,-0.0548057632,0.4835674057,-0.8086269701,-0.3644894984,-0.0456736303,0.6289321604,0.2251851867,0.9935117989,-0.060189121,-0.5615972237,0.0087167241,0.129865923,-0.8465874702,-0.5124744273,0.3094354574,0.3259722209,0.5978110063,-0.7831413606,-0.4983158774,-0.3899758053,-0.3424023222,-0.1521083505,0.6946073082,-0.3590071958,-0.8479135981,-0.0814565331,-0.9170882759,-0.6177920506,0.6317660215,0.7344106587,0.7268592937,0.7099770914,-0.6760290113,0.0882145172,-0.1776998917,1.0012657152,0.1509621051,-0.3008645886,0.3486215345,0.5489773575,0.0343274322,-0.1127029355,-0.6367721876,0.308770767,0.9305249772,0.4234787162,0.6040708738,-0.1853912503,-0.6392631682,-0.583939984,-0.01228229,1.0084799824,0.2056763965,-0.0503525311,0.2899274475,-0.5053298188,0.9457322387,0.8750502386,0.7798143469,-0.52457406,-0.7748693715,-0.8231051841,0.9516904716,-0.2642348371,-0.8821113816,0.5420227893,-0.8149969093,-0.8927822267,-0.4641702911,0.3778325306,-0.596410569,-0.8206278158,-0.9627323286,-0.540651296,-0.5720205365,-0.2127338989,0.4265118576,0.2819258952,0.4533540889,0.9530811871,1.0068017088,-0.6440912717,-0.4362078397,-0.8334511057,0.8931630221,-0.6347944462,-0.9369798834,0.6354235469,0.2568819584,0.9733271212,0.7394277071,0.7364193761,0.8362815004,0.1889675097,-0.316404295,-0.340449959,0.8591929424,-0.7276642278,-0.7675383322,0.4311495192,-0.3430913268,0.0501727378,0.2819997632,-0.5986189818,0.1769854498,-0.4667780315,-0.64866171,-0.5906716769,-0.5250176703,0.3805475807,-0.3423921277,-0.8051464058,0.9014694337,0.7293754804,-0.7275078753,-0.1258946068,-0.3876742951,-0.9315593924,0.0491031505,-0.3850190407,0.2282340053,-0.7087725484,0.7450248448,0.5307336702,0.2579338279,0.793998818,-0.5057238563,0.9895348888,0.2089613979,-0.5299162466,0.3755332944,-0.9522435736,-0.8660487823,-0.7441701259,0.3595961352,0.3221871723,0.9410057678,0.2730280596,-0.0348227072,0.4954835356,-0.246786249,0.2563647621,-0.6179059226,0.5191965755,-0.3776436569,0.0451150506,-0.5517341286,-0.0265165015,-0.7404936294,0.4475635594,-0.4452056437,0.4609940848,-0.6616835804,0.3299573091,-0.7059560468,-0.2174056403,-0.5622630756,-0.6605602385,-0.3588588576,0.2619901253,0.5451808952,0.6465844058,-0.4253674583,0.7027793235,0.7862953969,-0.8356624651,-0.3117762316,-0.9005360813,-0.4477308849,-0.862157152,0.8363285152,-0.1706533723,-0.8618942733,0.0122656147,-0.3609944654,-0.0319467666,0.4228910373,-0.5134793273,-0.6583447301,-0.2598432044,-0.128422443,0.5932126734,0.2055695694,-0.0567055023,-0.8615871733,0.9023733906,-0.8030481912,-0.2069017738,-0.2608364551,-0.2640478272,0.2400785085,0.5738802057,0.1102391895,0.662483595,0.5751418904,-0.3691575515,-0.3372624513,-0.0722040059,-0.2406149432,0.0897027685,-0.02787465,0.4542289269,0.1478732901,-0.2576508228,-0.0885648229,-0.3687374489,-0.7886214287,0.4380504858,1.0211159975,0.6578245806,0.1271343584,-0.7681581797,-0.6019551724,0.0126989669,0.2323843913,0.6769181185,-0.0205392267,-0.2441802277,-0.711026774,-0.8671711162,-0.9094323482,0.01331936,0.2940295161,-0.6948252967,0.0603391175,-0.0291907151,-0.1203158313,0.3893287434,0.1601750227,-0.3036904035,-0.2629965878,0.6292015289,0.4087026684,-0.7795102698,-0.4833654633,0.9718756871,0.4064570364,-0.7972875834,1.0207401474,-0.6736028257,0.5456940524,-0.6105878,-0.367267179,-0.0891384733,0.047604329,0.703749361,-0.3755819642,0.5954511172,-0.5279973867,-0.5563132732,-0.3817850397,-0.3920934198,0.3097070584,-0.5105420681,-0.7545271069,-1.0594988906,-0.7846860229,-0.0057962525,0.5703659634,-0.7570738399,0.4522214713,0.6707058341,-0.5891804955,0.3224995683,0.0197510803,-0.0458389628,0.7495585405,-0.3506862895,0.1167415363,-0.0317322936,-0.7756493052,-0.6532139013,0.462557268,0.0464566502,0.1040070655,0.9884828793,0.8595383926,-0.7847844122,0.4861975946,-0.702713116,-0.3227285325,-0.8799635484,-0.021920859,0.8257730329,-0.8367580332,0.5798469411,0.7299678473,0.6305974042,-0.7150302814,-0.1752016047,-0.0826736621,0.3429526512,0.599970544,-0.246437771,-0.3643839211,0.9846660997,-0.2308757994,0.8205360164,-0.4050936666,-0.9434346601,-0.0269939589,-0.131655122,0.5560671275,-0.2223188235,0.8299545858,0.810140501,-0.9619072425,-0.490418025,0.4487909411,-0.2838143071,0.5398111264,0.0269206848,-1.0075078359,0.8786121586,-0.7533323648,-0.5547817364,-0.2472723134,-0.8324662489,-0.449629742,-0.425604181,0.13132438,-0.5094162904,0.6687165086,0.6648234921,0.2254570242,0.374414225,-0.0268443969,0.559113134,-0.3466424224,0.3665553887,0.858583361,0.1870471463,0.7109488749,0.3228931664,0.7453019305,-0.7028958637,-0.0959645236,0.0961385573,0.0759470077,0.2925118995,0.3796961246,-0.7237478222,-0.2530055773,0.7377796809,0.0693279416,0.2566794806,0.5475782174,-0.6223815801,-0.597474994,-0.7581502866,-0.8304285736,-0.2059532213,0.2475725989,0.5279781553,0.0119556972,0.9900668274,0.9578039047,-0.7402602381,-0.464265208,-0.9364568482,0.6437024788,0.5584736532,-0.2968596424,-0.4843500467,0.581476635,-0.3296764425,0.5492059461,0.5005824996,0.1011508712,-0.6872410741,-0.1363860622,0.1557369808,0.7624728546,0.5422648456,0.846144439,-0.4950915703,-0.9058809851,-0.7438372749,0.6504838662,-0.5059702465,-0.1534529572,-0.0217552565,0.9374927579,-0.2736972259,0.9551285241,-0.5163830677,-1.0121242141,-0.2751947057,-0.0254258936,-0.4311524999,0.4348944141,-0.674762755,-0.8644887738,-0.7291199931,-0.61047972,-0.9965848813,0.2142456319,0.5695255562,-1.1345691622,0.1879702991,-0.8551419067,-0.5410789519,-0.4789924209,0.5676515349,-0.6126053895,-0.0298447114,0.1423799724,-0.9317640068,0.8817221638,0.2589845733,0.173906205,0.2040378814,0.7537514726,0.1212924386,0.540794755,0.1964312658,-0.7810976886,-0.4686102442,-0.3497478496,-0.3889978966,-0.5886350182,-1.1910768202,0.0763131859,-1.0046435436,-0.1711216836,0.3721492557,0.1297348772,0.6206504014,-0.2011828867,0.4989371704,0.8496444735,0.0718013265,0.1151035136,-0.489579684,-0.547993529,-0.0253418668,0.7881355169,-0.4353757835,-0.9196789518,0.5750778671,-0.1553880583,-1.0124967721,0.0264324579,0.7711443856,-0.4555919942,-0.7139361027,-0.5727390353,0.5428409018,-0.8550704375,0.4504581568,-0.8458223496,-0.6716574872,0.804979128,-0.7406654391,-0.4379573421,0.026067543,-0.6337955936,-0.1532230957,-0.2091313609,0.209969869,0.6416285967,0.1298300503,0.3446634628,0.3647708446,0.9022315929,0.1782532152,-0.8773163986,-0.0719909558,-0.7804907521,0.2326964456,-0.400414635,-0.0445645207,-1.0403963363,-0.4895514327,-1.1380259728,-1.2055432462,-0.4403604648,-0.1208186868,0.2939990918,-0.0961735407,0.2927907657,0.6620968982,-0.9513773866,0.2853235558,0.5123636133,-0.0566978973,1.5928084888,-0.0877541017,-0.2909411833,1.0404979649,0.7886996131,-0.2249544975,-0.7065678711,0.6287715084,0.3090555965,-0.0181548686,-0.2454777801,0.2604748469,-0.7960925061,-0.056566765,0.6421228277,-0.0945635643,-0.8546818226,-0.9343829945,-1.0694293159,0.397707233,-0.0412059439,0.5215273082,-0.6095364248,0.6915054636,-0.0424977895,0.5207051485,-0.004176364,-0.1515848754,1.2780045949,1.1934993789,0.6179519998,-0.6569496302,0.2570569543,-0.3934207498,-0.0898621451,0.1084436509,0.7498159028,1.1292484879,1.1710937447,0.6504359713,-0.7362738197,-0.9747987712,-0.7353331906,0.3563358935,-0.8242066059,-0.7406423265,-0.8830050013,-0.1332753581,-0.0827257136,-0.0683528857,0.5007698135,-0.8018665734,-0.0411126843,0.5880892145,-0.7247332541,0.1313350961,0.7994042893,0.1009922582,1.1321350354,-0.2411035624,0.240562891,-0.0081998675,-0.5835981449,-0.5139057432,-0.6832614722,-0.2689060139,0.4183155159,0.6116126043,-0.4551734502,0.8172481002,0.7812907448,0.3455479036,0.5826728563,-0.8779183433,0.1536911396,0.3344967123,-1.0087861206,-0.5433061618,0.6509225988,-0.2771150046,-0.2868438287,-0.2498524476,1.0349893308,0.2206455513,0.6843487207,0.6117635535,1.1687264959,-0.3366169803,0.7811341811,1.0093832536,0.1372006963,0.8774895105,0.9752590792,-0.3825547633,-0.68040122,-0.5490312922,-0.6010329488,-0.753148482,0.2343109029,-0.7961300264,-0.0185650301,0.3401604496,-0.955505014,0.488960347,-0.48236671,-0.6692532091,-0.653504199,0.8633721918,-0.7608971391,0.200312225,0.777387767,0.6578979927,-0.5110955664,-0.6812102392,-0.4110778304,-0.6904628989,1.1300954379,0.6165990148,0.3111035572,0.4198759473,-0.7575067984,1.0554084456,1.1130616494,0.7628119864,-0.0602821812,-0.3906775249,0.5391093494,0.5653874204,-0.1761362401,0.8375759718,0.1569539261,-0.6617667501,-0.9679444919,0.4453332035,0.1627032139,0.8666588756,-0.336185551,-0.0390907732,0.1340357202,-0.0273640302,0.1882352989,-0.0733151391,0.8610271816,0.4813744142,-0.609919517,-0.9824049958,0.2187915487,-0.2110208882,0.4899257041,-0.2951520557,1.1779760979,0.9811683551,-0.2231183357,-0.0140504333,-0.8251872574,0.921357968,0.5558453499,0.8578037705,0.9167946588,-0.884576624,-0.1287688862,-0.4376800932,0.7851760335,-0.143990495,-0.354261352,-0.1326330732,0.3841896094,0.817452947,0.1657271583,1.0490062019,0.02460241,0.1433061581,-0.8579214553,0.059942701,0.9065411227,0.4954390723,0.7327907717,0.5302230102,-0.7287172433,0.7828551762,-0.5756479423,-0.0145417289,0.7695022224,0.3264339093,-0.8028328563,0.414032808,0.9190221692,-0.2786170949,-0.5188004869,0.2857859139,0.0536172366,0.5657074106,-0.421281983,0.6392990446,1.039570688,0.9565636834,0.0861257337,0.3560414374,0.1042728445,0.5032840473,0.4613626969,0.7574589296,0.2802480348,0.5358027309,-0.0346683489,0.173850705,0.0662807358,0.4744956838,0.8324477303,0.779347562,0.5187239009,-1.0851322332,-0.8441521864,-1.0181784702,-0.3542507017,-0.3178309583,-0.3755384995,-0.231813528,-0.8912211937,-0.6685899351,-0.3412016345,0.7180390134,-0.1165167834,1.0404603631,0.0557263901,0.6909965574,0.8176454791,0.054693911,-0.0006562875,-0.7271946031,-0.9498554756,-0.7162793146,-0.428361098,-0.304950573,-0.7047705745,0.6566875431,-0.4040352036,-0.7907284412,0.192896183,-0.5080363348,0.8147957417,-0.4730877188,1.0275350676,0.8041567641,-0.2402000342,-0.1439039035,1.097197319,0.8963380769,0.5571375485,0.1720759825,0.3722326176,0.0928799039,-0.3967322713,0.9731158546,0.1264792554,-0.5055588064,0.2473484895,0.4756724498,-1.0485808299,-0.3664128037,0.3205086848,0.197453526,-0.4527759245,0.2384385643,-0.2836281375,-0.3625137142,0.0675853915,-1.1439008074,0.512570506,-1.0051217862,-0.7398202804,-0.2241376976,0.1079694856,-0.4639797382,0.1639788397,-0.2132079497,-0.7538700407,-0.2818029486,-0.0655297054,-0.4745933371,-0.8344499392,-0.02318857,-0.5515156611,-0.4692918356,-0.4697322485,-0.8836881154,0.0881284193,0.3637639497,-0.1239450727,-0.375192748,0.5020785355,-0.489469915,-0.5085533119,-0.3568116307,0.43744327,-1.0186168781,-0.0336050266,-1.0683531609,-0.3141518045,0.165923666,-0.5594502594,-0.5200323505,0.7784107743,-1.094094103,-0.0663510762,-0.0426509816,-0.4699974039,0.7022290345,-0.7997896879,0.427864225,-0.2782613048,-0.7547734616,-1.0625906754,-0.3365282701,-1.1487656029,0.713282329,0.655116909,-0.1078346338,0.71487714,0.1049350572,0.7689032837,0.6224873992,-0.7846656462,-0.1206754097,0.1037167431,-0.1481181063,-1.0130139513,-0.4575078578,-1.1444404799,-0.6426916869,0.4596379061,0.1214928294
   0.6420553928,0.2823828496,-1.1957720341,0.1539055841,-0.2800415001,-0.2354538047,0.3300254266,0.0206251318,-0.9101950337,0.0179403793,-0.7477679676,-0.0283651711,0.510025075,-1.0214402723,-0.3662844858,-1.0980198828,-0.5602015448,-0.8021974905,-1.2338683383,-1.1469036459,0.1615420192,-0.8732010069,0.1617047724,0.0415649837,-0.2419990486,0.4602819596,-0.2967307534,0.5009940388,0.4086469082,-0.1236072274,-0.266818893,-0.5476646867,0.6951116764,-0.8757808939,-1.2466432105,-0.2101796113,0.5302795587,-0.0961728473,0.1394369411,0.0435030154,-0.3935147781,0.7734984124,-0.4105175794,-1.2100215327,0.4307248731,-0.068090763,-0.7256436861,0.0769775545,-0.9941130879,-1.050224169,0.2043690349,0.62562866,0.7262093615,-0.5284711955,-1.1680684235,-1.0966750057,0.3428166028,-1.0358394089,-0.8942506438,-0.7476352661,-0.735640847,0.3376948806,-0.7083702726,-0.7743375204,-0.3083653668,-0.5672627579,-0.2430882238,0.3683624212,-0.9492726005,-0.4574513141,-1.0302147216,-1.0036741062,-1.0779655326,-0.5075818596,0.0341915224,-0.6060378867,-1.2242213935,-0.6411903087,-1.1684968992,-0.291651513,0.5749022532,-0.6011492702,-0.2315736631,-0.9762273779,-1.084151248,-0.5958898202,-0.0957145946,-0.8015770148,0.3455809011,0.5114791406,0.6259547641,0.3432484909,0.1945045028,-0.912400353,-0.3317544687,-1.0053198724,-0.2964844506,-0.6623157499,-0.8765678847,-0.1718948816,0.0093795926,-1.0261285889,0.0861520931,0.3506967334,-1.0931988091,-1.0088757288,-0.1879681861,0.4222635678,0.5007742216,-0.9090934071,-1.4484359007,-0.0592279353,-0.3405758022,-0.58576112,0.4294149431,-0.8499077425,0.3283459772,-0.8495123639,-0.9552153507,0.5904297625,0.5809310569,-0.8075849547,-0.9088246147,-0.239020125,-1.0335573136,-0.8352766968,-0.61246289,-0.8377302984,0.5822635666,0.4507859793,-0.663351098,-0.7709548236,0.1219491414,-1.3613428486,-1.3796638957,-0.4024094803,-0.432316785,-1.3714089675,0.3858788461,-0.9033215784,-0.1003339553,0.6590037094,0.3374898826,0.2432983158,0.5440055065,-0.6044512875,0.0345334611,-1.1294436547,-1.147478313,-0.4833279609,0.4225661497,0.1121061936,0.6208986322,-0.2872063401,0.0196136595,0.5385392627,0.0801544216,0.1229871136,-0.1017180643,-0.2725098227,-0.7221052353,0.4005158348,-0.2977633072,-0.3259885731,-0.9988333351,0.1870385977,-0.7999187355,-0.152720859,-1.079653238,-0.2127278655,0.5254462038,-1.1638661918,-0.7778685939,-0.4485952244,-0.0477786536,0.1613282888,-0.7919714932,0.3622607923,-0.5360372993,-1.1392943101,-1.1951828153,-0.167104931,-0.3753367779,-0.7368872027,-0.0982095338,0.418127595,-0.403098852,0.3178483951,-0.2924447255,0.5297774582,0.0655932301,-0.44671092,-0.4454111728,0.316347305,0.624221001,-0.2626151834,0.1334913811,0.0978182737,0.0671411037,-0.0874994042,0.3793857426,-0.0902713193,0.3772098818,0.6520569014,-0.9882127542,-0.409101796,-1.0276351059,-0.7539211143,-0.2011858631,-0.6673710693,-0.3514306844,-0.7844398226,0.5696161558,0.0481310152,0.4466940205,0.2704795055,-0.3468968624,-1.3805394979,-0.7223467696,-0.2254588662,0.4632273461,-1.0026916952,0.6792635888,0.4664442857,0.1086844281,0.5811801351,-0.6133378718,0.2113591567,-0.2271469417,-0.7314595384,-0.233333167,-0.5273652806,0.4741971253,-0.7891167645,0.2132852013,-0.948060533,-0.8172258153,0.3624497865,-0.9929396582,-1.1199354659,-1.1773370248,-0.1311629684,-0.3231688908,-0.7944207362,-0.457990926,0.6390820154,-1.0310943594,-0.8554253988,-0.6914589117,0.7783202631,0.3565807069,-1.1304446331,-1.154183599,-0.9963453185,-0.8243424146,-0.4411666811,0.2298196282,-0.3221263717,0.2954929358,1.2033248641,-0.4901704364,0.5140659788,-0.4895526424,-0.7708819904,-0.9821909528,0.4694702252,-0.5082627303,-0.5226817296,-0.6858168926,-0.1903266764,-0.4430134394,1.1837575783,-0.1587357499,-0.0693938712,1.0195746657,0.9558246829,0.8785210465,0.4215334366,-0.1095814082,-0.791393477,-1.0650712336,0.2756668547,-0.2472375454,0.0098039895,1.0871108146,1.1281863836,1.292895228,0.9282439274,-0.7640860602,-0.3373010327,-1.0372425757,0.3316757083,-0.1773374181,-1.2564380514,-1.1856867639,0.4236699946,0.5354561345,0.3654628361,0.9065315673,-0.1862689027,-0.3993430956,0.470462699,0.894228744,-0.0195892723,-0.1768719021,0.5200278462,-0.2343106501,0.2063280111,-0.733798534,0.2813659051,1.492665689,0.3113435324,0.7436027913,-0.4372382296,-0.8632890501,-0.4825309671,-0.5437364331,0.2575073671,0.6892118423,0.4379974832,0.0424618353,-0.6726029143,0.7220289611,-0.0160017005,-1.0899845948,-0.3174627917,0.0171729636,-0.1447983035,0.3382420003,-0.811532422,-0.789866474,0.8272287811,-0.6958162166,-0.719596934,0.2751342737,-0.4875704825,0.6502887473,-0.1674712319,-0.4190742565,0.2319150194,0.117686234,0.1436164243,0.2234511105,-0.0593469749,-0.8586590822,-1.2086253906,-0.7185129448,0.2044281674,0.7006544197,-0.7046911653,-1.1566293073,-0.3161942074,0.9281056179,0.6759727711,-0.18626667,0.0662872525,0.5270441657,0.0585786579,0.3194861209,-0.6262788919,0.4615035136,-0.7506969127,0.9020667085,-0.5428082014,0.1278732539,1.012902928,-0.2116379502,-0.9009383682,-0.4080393896,-0.1090190177,-1.0958282522,-0.8262693606,0.1897285996,0.4836158251,-1.2484541168,-0.0189009251,0.5008082475,-1.1073454137,-0.0857509631,-0.4596718566,0.649390539,0.1238973013,-0.9540322528,1.0413625702,-0.8090778856,-0.7789930568,0.5298001864,0.0438444136,0.0628580189,0.8940626305,-0.7674536093,0.1240342926,0.5178514072,-0.3518865059,0.1189553359,0.407879801,0.1306546682,0.9525443899,-0.424898859,-0.4402721473,-0.0323626703,-1.0537839846,-0.0218684234,0.2135755198,0.5282803322,-0.3536546348,0.1301360624,0.8207046683,-0.6738585398,0.4097248645,0.7156649925,-0.0606378049,0.1999159008,-0.5131519264,0.7981383874,0.941451041,1.111066189,-0.3524334182,0.0474319752,0.6731486062,-0.6169958656,-0.4970205657,-0.5922364207,-0.5144590779,-0.4488965496,-0.2432871602,-0.3819029298,-0.933440101,0.4654784097,0.6727361445,-1.1744405879,0.0489209564,-1.0639841694,-0.0342404152,-0.5752330077,0.6941779354,-0.5831177602,-0.7998257101,0.1073107481,1.2676146999,1.0991132195,-0.2883298992,-0.4759413047,0.0820582041,0.4906738365,0.6192985338,0.5906664012,1.0204862566,-0.2938469615,-0.0270153823,-0.7060686473,0.5126035467,0.8608849124,0.7526092972,0.7253754293,-0.8393562684,-0.1772517359,-0.5927821325,-0.4439744126,-0.2367370124,0.4945813187,0.3322229577,-0.1666995248,0.2424941129,-0.2382310791,-0.1493133221,-0.3757160937,0.552779827,0.1169920651,-0.3978236095,-0.1717502222,-0.6840346635,1.0886267288,0.2349941045,-0.535818413,-0.6605833339,-0.8130404371,0.0064400812,0.5756634646,0.4959029189,0.1492112521,-0.2438181531,-0.033443546,-0.2595988687,0.2873981636,-0.1463097548,0.1892011045,0.8441791719,-0.1961069457,-0.8452489973,-0.7809487856,0.4463225238,0.1534636126,-0.3254789171,-0.0019098327,0.7837097574,-0.6000170643,0.7354481592,0.0496113678,-0.1456322611,-0.330873957,0.7420393257,0.2962467261,-0.4079597781,0.3892088665,-0.5852811584,-0.8026682387,0.1356137961,0.3510133351,-0.2200527133,-0.112024752,0.9781052801,-0.2032109278,0.7957534583,-0.8778967917,0.3437275441,-0.3285805165,-0.5086744191,-0.6980181261,-0.4098822091,-0.2379927175,-0.8467671659,-0.731126462,1.0491129356,0.3078098865,0.9126997454,-0.782993758,0.8135856361,0.3924375454,0.4680301925,0.7883126333,0.3785667302,-0.9449398757,0.5765272384,0.9459463313,-0.5658456141,0.1313959607,-0.1353128715,-0.0989836532,0.0396488858,-0.552798812,0.6845838466,-0.8903254024,-0.6596344258,-0.1213101269,0.928868822,0.2999466812,0.5786470906,0.3235192236,-0.3609333519,0.5932137281,-0.7178268869,0.708416424,-0.6142276035,0.4043156741,-0.823841474,0.7707802375,-0.7188868519,-0.1931280314,-0.4858269349,-0.1054263678,-0.7717119895,-0.0593878956,0.860842906,0.0869517858,-0.2557494577,-0.5868285549,0.8304331691,-0.0540566333,0.5499411194,-0.8387156498,-0.5317199925,-0.9970803088,-0.6097473828,0.4643902625,0.0722283861,-0.4777270244,-0.1806511338,0.5326955615,-0.734806485,-0.2877305317,-0.2518948311,-0.8012429869,-0.5340571749,-0.0538905301,-0.8983503415,0.3415793623,0.0306516201,0.9074054848,-0.952316565,0.8777266983,0.1210216148,0.8219640336,-0.3842455062,-0.0843513305,-0.1005271743,0.8413733122,0.4208793792,0.8542431661,-0.2210172918,-0.5684529021,0.017045322,0.3507153657,0.2436603609,0.0620131382,-0.1486582741,0.1636421303,0.1550539978,-0.5737526937,-0.107334619,-0.9991053707,-0.2451980838,-0.0453624873,0.3865621859,0.4171240614,0.8332742743,0.6732993141,-0.5036237182,0.4437356815,-0.4120777737,0.4469661992,0.9966987275,-0.0099663906,-0.7197879643,-1.0980043166,-0.6098729045,0.8136912167,0.7793712636,-0.9524717711,0.2053348529,0.5508620298,-0.7555844115,0.39896259,-0.6208685938,-0.7997136072,0.1594669295,-0.6347076319,0.4674959014,0.4370006776,-0.3633847595,0.3496780583,0.2279756831,0.6788530073,0.1843074785,0.4814464714,-0.2723394371,0.8287694068,0.272633463,0.4351664882,0.8599164218,0.136867536,-0.0793638147,0.5126412685,-0.4735081373,0.7262586422,-0.3843889139,-0.6846235423,0.4455688021,-0.3260246619,0.0329997278,0.3550076328,-0.2508612937,0.042338931,-0.0541716423,0.3348321046,0.42667927,0.1836464377,0.743297693,0.013376117,0.7239082167,-0.3867543997,0.9620998295,0.7022864522,0.3188581936,0.8063779145,0.928894722,0.7648566226,-0.9032261538,-0.0940044554,0.8062466678,0.6985046584,0.8693440838,0.0519835385,-0.9291296148,-0.2672479671,-0.3117800858,-0.0473825621,-1.0881960227,-0.6775562184,0.4436565505,-0.6061180927,0.1426271635,-0.7354548064,0.9095691327,-0.3400275287,-0.8679466484,-0.7309683626,-0.2486575658,0.3900730085,-0.4197950989,0.3503899718,-0.6448294609,-0.8145138547,-0.8560628943,0.5767820178,-0.3218865225,-0.7481346004,-0.3373981854,-0.9395333431,-0.2607251622,-0.0232934879,-0.0185345821,-0.1178657337,0.979786856,0.0210599184,0.8708603083,0.5859710293,-0.3339587329,-0.8425406513,-0.8421845244,0.8855634425,0.6384526185,-0.1764371167,0.9702929813,-0.6273365707,0.4261474516,-0.8130287594,0.980660853,0.7915762073,0.4658209689,-0.0802452438,-0.0233247255,-0.1451616265,0.5632194623,0.2940233238,-0.1439677875,0.2388049408,0.7969274337,0.2221590529,-0.3327085412,0.7166504554,0.1602746684,0.2223617374,0.9912954833,0.0500429791,0.3377218302,0.2082235922,-0.2620837903,0.8042003466,-0.6995071277,0.6611022963,0.9048487832,-0.5291893084,0.5395753934,-0.2600397803,-0.0916083206,-0.642589831,-0.3367865184,-0.8536933422,0.0480115866,0.8872148966,-0.5936980911,0.2595482397,-0.8834493681,-0.8071224842,-0.2896153696,0.7897741819,0.8894542736,0.6188076857,-0.2688577502,0.0226964929,0.7489638322,0.1853719094,-0.4908705133,0.6937102876,-0.2857324627,-0.728574748,0.5552527913,-0.8058124994,-0.385124887,0.0044420538,-0.2495420589,0.1991541266,0.5498137827,-0.6032851977,-0.0332978961,0.072824802,-0.2906545398,0.1961225049,0.7371650637,-0.8987428201,-0.3770964678,0.156415797,0.3142862147,-0.6114379374,-0.0031771787,0.4198450578,0.063632002,0.9262155563,-0.1802879732,-0.5324419178,0.3136942882,-0.9039088894,-0.0277842182,-0.0000953426,-0.4876721056,0.6181635011,-0.7395469153,-0.5607740239,-0.3080637706,-0.0321852694,-0.1331013181,0.433746479,0.9039102714,0.9261826721,-0.8613724805,0.1797063668,0.4545198807,0.3128383268,-0.2264474665,0.6485446656,-0.0904470363,-0.9084337496,-0.777838317,0.460969912,-0.2787135476,-0.8911495949,-0.4369566609,-0.3014063668,0.139262285,0.7619077649,0.3835461511,0.9061279056,0.2098923642,-0.5430184987,-0.9026420207,-0.6154200927,-0.4696733701,0.3041817736,-0.0284134681,-0.199752618,0.2000075102,-0.0374489439,0.5056316241,-0.4126127328,-0.9486771892,-0.8650314057,0.9897796144,-0.339892447,0.3345723232,0.5118187031,-0.7742787175,-0.3838373442,-0.6560034317,0.8234313082,-0.6129665971,0.9626805876,-0.5109447992,-0.8829236977,-0.7432050425,0.101690406,0.2621349663,0.7712169556,-0.7230392929,0.7360782716,-0.5423040537,-0.3278565337,0.1658891014,-0.2328817158,-0.7869959141,0.3764463355,-0.2951981343,-0.2477205544,-0.871754881,0.6470781457,0.139220147,0.3901340077,0.2361360835,-0.2642944196,0.7828228715,0.7595634044,-0.4981458104,0.0995189707,-0.9667375108,-0.8328781454,0.9722211843,-0.5491830638,0.4535301326,0.9402648294,0.4681134917,-0.9529283669,-0.9710292169,-0.2977295597,0.7441250541,-0.3088730747,0.9087718819,-0.3442714106,0.6469893017,-0.3113912206,0.2244521762,0.7232105033,0.0987265397,0.6483736703,-0.2189813538,0.5415872974,0.9737581633,0.426868546,0.9830700638,-0.1081371636,0.8112136731,0.4946790829,-0.2043004662,-0.7270713045,0.3232840684,-0.6741411148,-0.3067646409,-0.5238387152,0.3741449326,0.0744536496,-0.9103688254,-0.439196072,0.1630925827,0.4082101064,-0.4700841594,-0.9451024438,0.0692610418,-0.5125250098,-0.7541766832,-0.1974438908,-0.3232902586,0.5673267141,0.2974228851,-0.6319605977,0.8586068765,0.2104379936,0.3726139976,0.5738169797,-0.0187545728,-0.5740796386,0.5628738529,0.3837621495,0.4106254528,0.3856400703,0.9447496722,0.3558755092,-0.0979314667,0.9767941576,-0.0336056865,-0.9134626193,0.8447020871,0.7137502265,-0.2752367427,-0.4719983061,-0.2552834776,0.6009634183,-0.2585163165,-0.3853187917,0.7521465348,0.7527732454,0.4985863123,0.3063529275,0.5699764164,-0.3237427117,-0.503479295,0.9591427342,-0.8670297212,0.7317763216,-0.5057388507,-0.973284655,-0.911371877,0.3637490437,-0.041603584,-0.2410016433,-0.3733413543,0.3204465631,-0.6060209679,0.3099299668,-0.8406167107,0.8909119134,0.7715843233,-0.2983166677,0.5132289645,0.6287203911,-0.0966678502,-0.5422224254,0.0126814203,-0.5681114889,-0.8380995374,0.866998625,0.8141223955,-0.382669678,0.9951267382,-0.3847468034,-0.0240716923,-0.1255635414,0.8244477751,0.9110959952,0.1546568023,-0.4631295215,0.088727262,0.7793484229,1.0021894431,-0.8441539433,0.732804893,-0.6948699364,0.6791458169,-1.0172144795,-0.0382159271,0.9690599974,0.9888878971,-0.307765589,-0.8654461051,0.5245499256,0.7409093206,1.0370000755,0.6068724697,-0.7726296881,-0.5846355973,-0.4510410533,-0.4075105031,0.1513857235,-0.3970187452,-0.193950535,0.7255904385,-0.8043677698,0.326485039,0.9581983048,0.4991400333,-0.0146538995,-0.1845641853,0.4895543444,0.2927067694,-0.1998770827,-0.8764346494,-1.0228670676,-0.205678782,0.8058209902,-0.0707053469,-0.5961938445,0.8890971435,-0.4980056434,0.388463072,0.757610419,1.0869696988,0.680354861,0.8191474158,0.2158876673,0.2649953825,0.1098542069,0.567785149,0.9278916005,-0.8056937113,-0.3438238639,-0.0380359894,-0.7855450306,0.2513731878,-0.3629128698,0.1539492534,-0.686289515,0.3157104021,-0.0428339849,0.3542084212,0.9788084753,-0.0393968804,0.5377521027,0.6390134818,-0.6660162882,0.0401195571,-0.4370949216,-0.3532286022,-0.0632091839,0.6349968157,0.8593090339,-0.2702755005,0.4179807764,-0.4001091598,0.5290038939,-0.6256291781,0.8838231969,0.721642541,0.8015420152,0.4416187955,0.5160581171,0.8162224004,0.7665671069,-0.3558469421,0.588589627,0.6042572778,0.5619284678,0.4760438666,-0.1998891769,0.7554671208,1.0449269394,0.5498464373,0.0815465145,-0.3201487714,-0.4187229438,0.3523354054,0.7785617024,-0.8194781031,0.4159002352,0.5600096016,-0.7411096326,-0.2178140918,0.7745816011,-0.252113609,0.4534928123,-0.6794474266,0.7102072532,-0.7564444583,-0.9325539929,-0.4439554927,0.1698059994,-1.1516341603,-0.1881278678,0.1521687596,-1.0476560715,-0.7752961204,0.8299201482,0.4317905248,0.372282621,-0.6079965993,0.5289683401,-0.2275119883,0.9182932233,1.0185499565,0.0571124572,0.8804938785,-0.520601901,-0.1410181056,0.8265604963,-0.3913111736,-0.5543257157,0.4788553705,-0.8490906747,0.2697650384,-0.8041349326,0.4289990627,-0.002362415,-0.9265347607,-0.9838135452,-1.0766049973,-1.0371472104,-0.5040475532,0.0294909832,-1.0236282408,-0.170024605,-0.7402202892,-0.2442080386,0.0290721848,1.0273061508,-0.225694987,0.3726558464,0.4365883813,-0.5576262647,-0.7666289408,-0.4165469943,-0.5791127038,0.3922308821,0.5853561697,-0.0121622625,0.6722954136,-0.056019745,-0.0965004864,-0.1499427835,0.0441080446,0.1708553012,0.7568152237,0.6724998985,-0.9075930506,-0.4380299275,-0.2741756375,-0.5194284271,-0.1523406958,0.3414944816,0.3047181143,-0.0942480891,0.6168749383,0.3878162191,0.583588157,-0.7359204867,0.2729167757,0.8413457118,1.0539672437,0.4651793772,0.2270696729,-0.2278776444,0.6903989676,-0.6625047578,0.3568480364,-0.1474973928,0.5842989808,-0.4998013833,-0.8367163817,0.6227314722,0.6148289578,0.3749679611,0.5989398447,0.681139352,0.6905474951,0.8008025548,-0.3530169372,-0.9124931968,-1.0856080987,-0.9990559082,-1.060013067,-0.7454886034,-0.8662797087,1.0027694734,-0.425425844,-0.4590793255,-0.8285964209,0.0195353643,0.3508561125,-0.626358303,0.7608409748,0.9859869074,-0.4227677235,-0.1062426455,0.0741669623,0.3853200465,-0.5673552739,0.2107949823,-0.0573121956,-0.8494035035,-0.0731394073,-0.7762039083,0.6392304928,-0.6657741256,0.4941057518,-0.4490176336,-0.880178003,-0.0259590178,-0.8286638745,-0.7771925045,-0.8563703767,0.8360911871,1.4762585366,-0.0580518834,0.5979312036,1.0406597618,-0.8643315251,-0.269495146,-0.5978363625,0.1073962437,-0.4989150598,-1.0831405143,-0.9409070984,0.2769593729,-0.1278467016,0.5473638698,0.678009241,0.4181792057,0.5560000424,0.4914353794,-1.1512476682,0.7348989876,-0.3665983868,-0.1114157604,-0.2611033234,-0.5654939643,0.7237976877,0.4777354243,1.0892710579,0.4205372077,-0.6734801805,-0.4162718042,1.3204693955,0.7671070917,0.7465264367,0.9124030411,-0.4958405003,-0.1996536912,0.529444414,0.7231765958,-0.6455525626,0.7247727613,0.7881779728,-0.0236855186,0.2826270291,-0.3999988068,-0.3179879208,0.1746686675,-0.4710660052,-0.5036880669,-0.0004212353,-0.0356252344,0.3369860662,-0.5670495384,-0.1902978771,0.1640092485,0.5978645875,0.9236190314,0.1616810677,-0.0130994415,1.4514159065,0.2680634508,0.9791101926,-0.0552816399,-0.0018870717,0.9115609719,0.2688067091,0.5683206926,0.0899445238,0.4642023801,0.608904071,-0.5622666518,0.8235706122,-0.1428766545,0.5050045336,-0.2511403224,-0.5435053824,-0.4110257573,-0.6846226148,-0.2277982658,-0.4398846029,0.9642834395,-0.8057111334,0.1011348324,0.9749794815,-0.4533461301,0.0859152766,0.9371783152,1.3027604776,0.0508032866,-0.2820055569,0.1171357087,-0.2426846808,0.8781586489,0.9264000414,-0.2555776792,0.2716564764,0.8151953333,-0.3506283492,-0.3283731623,-0.5844681314,-0.0319454646,0.8336249177,-0.7717785154,-0.0342095893,0.1301677132,-0.6218705324,0.197793863,-0.7078524353,0.850814903,0.9382298872,0.6560096455,-0.5079690953,-0.9711904515,-0.7435536542,0.5191436235,0.5570992128,0.224965064,0.3869179671,0.2221360234,-0.907400413,0.6946901031,0.2679261561,0.3768546818,0.4386245587,0.0203487662,0.2239070874,-0.240425442,-0.8419604212,-0.1280307909,-0.4455563889,0.8263006216,1.0229512181,0.1013007103,0.1695121253,0.8951176796,0.4012306524,0.107530338,-0.3963893769,0.3062974788,0.6487611161,0.9324145088,-0.5943286697,0.330807226,0.3902612659,-0.8744430098,-0.5451177173,-0.5405314264,-0.0626725254,0.1274643802,0.1165705068,0.6746931644,-0.5154487269,0.3502906296,0.6563002748,0.4515858578,0.3973559515,0.6695810401,0.3193683811,-0.1520404943,0.9969720621,-0.9570628608,-0.3986451588,-0.4682567313,0.8643589419,0.3724059017,0.0380260715,-0.6705114907,-0.1418768537,0.9859673658,0.3727546056,1.0258586207,0.7740078367,0.0796641923,-0.8492856049,0.9808984363,0.3004959236,-0.1241748389,-0.4914980331,-0.5847062831,-0.8452383804,-0.5043069692,-0.170097599,-0.0217197468,0.2060909036,1.0278685101,0.5112878296,0.5822199652,0.5596166659,0.5685608135,1.0638923757,0.0458410211,-0.5827092237,-0.5814956318,0.928639287,0.0613594579,-0.6504269661,0.4405147224,-0.1198507036,-0.7499092039,0.7514961623,0.4183264343,-0.6034543788,0.0716049465,0.2771039277,-0.309973593,-0.6972642028,-0.5899297488,0.1654821345,-0.3978154478,0.5246517988,-0.31550993,-0.8331885131,-0.7773630266,0.7515423911,-0.9777507283,-0.8810038817,0.3399192971,-0.8823222441,0.025700277,0.4879907815,-0.6937449862,-0.1827858847,0.7530442006,-0.3827497086,0.3150407753,-0.4824136152,0.8980424706,0.5111654345,0.2966444735,-0.9259007419,0.1011477344,0.783394143,0.7104893386,0.3234362821,-0.509880675,-0.5560077961,-0.9265121179,0.0654040615,0.6292328895,-0.2998913244,0.8344339998,-0.059527687,-0.8927300062,-0.1956155616,0.6123071979,0.4506828074,-0.8835756878,-0.4135373283,-0.22654012,0.0127013182,-0.6653917243,0.7955634481,-0.373784872,-0.7535432885,-0.5546294398,-0.8034573249,-0.841175544,0.6339025457,0.388601563,0.2634397916,-0.9331607731,0.9641433939,-0.1163063086,0.701077293,0.9132413988,0.3291617875,0.7944089293,-0.0292014898,-0.8318798218,0.0460339272,0.7436929012,-0.900682017,0.1749668398,-0.2200854484,-0.3717694478,0.8046243776,-0.625146526,-0.7393896421,0.703516479,-0.6118473848,-0.2995910255,-0.9298481609,-0.6275452563,-0.5550441239,0.8416034786,-0.8762820121,-0.5734653786,-0.2312043459,-0.9192282436,-0.5870739379,-0.0541713499,-0.3702444764,0.3840409248,0.3068494611,-0.166884934,-0.9863904163,-0.3840188335,0.5472068651,0.7718780029,0.6289747713,0.2412617646,-0.3592842825,-0.1290599144,-0.3960123735,-0.070265757,0.0808217615,0.1766595952,-0.3579823452,0.8324556942,-0.1302993325,-0.2828036097,-0.6681974082,-0.2885543515,-0.1453163213,-0.5480686055,-0.532931666,0.5326336289,0.9546874554,-0.8933711126,0.7537562553,-0.5542597005,0.122270277,0.1697795566,-0.2012081442,-1.0011031902,-0.537471598,0.7097133488,-0.4026272923,0.2693620692,0.0526664181,0.2036399553,-0.0566145473,-0.592183026,0.3636410308,0.4022078181,0.8467453609,0.3744942292,-0.8864403878,0.1729750282,-0.6318701671,-0.5265792959,0.0149407886,-0.1022185605,0.4092053244,-0.9783587351,0.3698300007,0.2708823927,-0.0072205345,-0.4867212244,0.5348402889,0.1061123619,-0.8187963192,-0.1146903773,0.1287560763,0.7640296086,-0.4026039146,0.1931115404,0.5619348383,0.6888906793,0.6650709639,0.0931266352,0.9063138014,0.7551932457,0.5780826665,0.3853783325,-0.674644325,0.4085575407,0.7223328609,-0.0532945835,0.6252812713,-0.7525418678,0.9082941687,0.6973157904,-0.4867546435,-0.234364758,-0.8235745318,-0.4072030111,0.8047176042,-0.1166310606,-0.5232617512,-0.6016678446,-0.8542605236,0.444623731,-0.6748875057,-0.7048782274,-0.1643311669,0.9342884384,0.7853619204,-0.8461704803,0.5935641461,-0.767093944,0.1085451433,0.8650628057,0.5634918092,-0.5718131127,0.0033379203,0.0290480319,-0.5781751224,0.302780818,0.2256052952,0.1754856321,0.2616454756,0.6614200124,-0.6160688491,0.0958507848,0.36538324,-0.8131788079,0.208801525,0.026809067,-0.0537699921,-0.8896786919,0.9694932031,0.6955354681,-0.1479757187,-0.2128713191,0.9463914336,-0.2525776356,0.1965079939,0.0576216509,-0.3069500612,0.8145079546,0.319119064,0.7433811671,0.7614298683,-0.253848996,0.2630064431,0.2632801864,0.2170991708,-0.0490983602,0.6626443352,-0.1695755272,0.098587998,-0.3244448994,-0.7055900541,-0.1985868733,-0.1718926238,-0.4315369536,0.016395416,0.5813060123,-0.5533200604,0.1635704698,-0.8709146769,0.2889850011,-0.5085238775,0.6922999805,0.5324927759,-0.6777185686,-0.7864595761,0.8758125578,-0.716160666,-0.5658281176,-0.5450826442,0.6752068306,-0.8805705805,0.0189795294,0.0434142833,0.4088160025,-0.2584537737,-0.9032275204,0.1949316911,-0.7043429385,0.6029981164,0.0050064076,0.1899068437,0.6395984756,-0.0787839821,-0.7827257806,-0.770237729,0.6833127964,0.03095728,0.4909739333,-0.3976048985,-0.3662288211,-0.8722998667,-0.7630292612,0.0780893314,-0.4448647313,0.7765987462,-0.8450601373,0.0381028327,-0.7455637887,-0.9649773094,-0.2443368393,-0.4258309071,0.0430268459,0.2625111232,-0.3005521996,0.8363898624,-0.6542322951,-0.0724197667,-0.744811225,-0.7238080496,0.5560769351,-0.6566956939,0.2399669123,-0.896896383,-0.8564036952,-0.5204083051,-0.4648258219,-0.8281928784,0.1606154936,-0.392144085,0.4654787949,0.3495200661,-0.8253064448,0.0557219193,-0.8790195581,-0.9989709685,-0.4315425955,-0.0461219971,0.0387781873,-1.0019959651,0.7413065889,0.8045245424,-0.3960930635,0.3991671444,-0.9687291863,0.7976153656,0.7173198691,0.7333586645,0.6364417133,-0.4277596112,-0.4142997355,0.5197909513,0.9589965522,-0.020544827,0.3028788648,0.8730126606,-0.4729109498,-0.8035294386,0.073074702,-0.420579578,0.9358032197,0.798348316,-0.6989919177,0.1874277237,0.4306642036,0.2448202075,0.2536772285,-0.5640766405,-0.7054439223,0.2629819121,0.877395348,-0.9687514321,-0.5748872873,-0.0310814672,0.5305570306,0.8325079678,-0.4099009485,-0.945866709,-0.816446008,0.4381827962,-0.0107991567,0.7963089645,-0.6238438401,0.6960012778,0.2666794789,0.4284598757,-0.7340036042,0.6802045392,0.001498989,-0.1573559392,0.0688675269,0.8769746545,-0.700793282,-0.637786603,-0.3143991636,-0.8395211908,-0.1746621907,-0.2740977458,-0.3080851219,0.8890598514,0.635101506,-0.1259208298,-0.5100512021,0.9618157238,-0.4626029106,-0.6737773121,0.892259908,-0.1593405975,-0.4745344241,-0.6829709662,-0.8357875748,-0.7149140245,-0.0721113745,0.5803625435,0.7863075596,-0.242952252,-0.0305749545,-0.9164351417,-0.5552881184,0.2882845442,-0.9515473187,0.7150702321,-0.8587945693,-0.3998274693,0.385319478,0.2155673996,-0.518819084,0.2799036207,0.3066502144,-0.6140767682,0.2866992984,-1.0534869211,-0.7155419692,-0.9910092364,-0.1214834647,-0.3084319883,0.9408556606,0.6841301519,-0.1805769885,0.6778518716,-0.2844626112,0.6776796892,-0.5559451251,-1.1402437559,-0.5759445887,0.5748388548,-0.3115553205,-0.5353367383,0.7907421083,0.2218679474,0.4330149396,0.1152331181,-0.2137522603,-0.7930337032,-0.117454261,0.3332214054,0.6093032167,0.4331648229,-0.2051262331,-0.5491499677,-0.1061819578,0.7571125417,0.0601703969,-0.8867433755,0.6478734619,-0.6034235099,-0.1009172474,0.3749388428,-0.5305096092,-0.7571951348,0.2392436869,0.3111006687,-0.4391532271,-0.670196613,0.4503302161,-0.5756735596,0.7738165382,-0.4131116795,-0.6763062923,0.3186260308,0.5228101701,0.0715218611,-0.8187239961,-0.4351845057,-0.4338887183,-0.5300131863,0.7849309151,0.6304142921,0.3397404518,0.047331657,0.3256608128,0.3674721325,0.0226338083,-0.4213795541,-0.566102747,-0.2412997582,-0.9318121368,-0.8206227155,-0.125055412,0.9281919944,-0.8071131447,0.60481499,-0.065652975,-0.4488739514,0.8096384885,-0.5168469673,-0.3202980906,0.2833278751,-0.5890604837,0.1647624037,-0.1910320338,0.0493257367,0.5505609272,0.7100704208,-0.5220766483,1.0996675199,0.8109520649,0.2577846326,0.6172120866,0.3979380918,-0.4498380699,-0.4456876662,0.1776657939,-0.6343793868,0.5672411158,0.9514107692,-0.4221782214,0.6185812837,0.9290229729,-0.5272482661,0.349002543,0.6805147033,-0.9723205579,-0.7388343764,0.1080401952,-0.0642660418,-0.9324244973,-0.701538109,-0.8960404205,0.3489180734,-0.200245879,-0.6441179176,0.8231336691,0.4252217522,0.1801763717,0.3567812271,0.1655724682,-0.6244143217,1.1231972825,-0.2519724175,0.4074936069,-0.2655980034,-0.2695067196,0.5486066408,-1.0297024731,0.3131742713,0.4448758395,0.1655175188,0.4252125096,-0.6447254907,0.1312424593,-0.6879214706,0.1473499253,-0.9360398905,0.2394607701,-0.5391334242,-0.6444718413,1.147140417,-0.7799050128,-0.5217215718,0.0608865221,0.8110932549,-0.696390148,0.3448193264,0.3558671762,1.0764468462,0.8349063881,0.2448755432,-0.7299418307,0.8725079829,-0.3465716932,-0.0892610819,-0.2483357718,-0.5461708702,-0.5614906417,-0.136780742,0.6434413437,0.3294606291,0.7118963917,-0.5538116319,-0.8361759709,0.1235419416,-0.2611871162,-0.1012485476,0.8869939621,-0.0684335336,1.0534356428,-0.5225802296,0.1997387517,1.0689814848,0.5059378702,-0.2268789435,0.4336241027,1.0006804228,0.7675315723,0.8404819494,0.5162869544,0.2485031594,-0.3056725377,0.5360382637,0.7951363941,-0.0229751461,-1.4053278103,-1.0230201043,-0.135772744,-0.7179421469,-1.0160374092,-0.7666593347,-0.7618881083,-0.1931992149,0.555073514,0.6889769293,0.571778355,0.6533631913,-0.5864327052,-0.7586530489,-0.5745395568,-0.8616247703,-0.2717618858,0.3934843127,0.5634099301,0.67341589,-0.0253967236,0.5209680077,0.1675596346,0.0921801675,0.8692004962,0.6130263833,-0.4645150666,0.7213286436
