encog,BasicNetwork,java,3.4.0,1,1670727033468
[BASIC]
[BASIC:PARAMS]
[BASIC:NETWORK]
beginTraining=0
connectionLimit=0
contextTargetOffset=0,0,0
contextTargetSize=0,0,0
endTraining=2
hasContext=f
inputCount=784
layerCounts=1,100,784
layerFeedCounts=1,100,784
layerContextCount=0,0,0
layerIndex=0,1,101
output=0,0,0,0,0,0,0,0,0,0,0,0,0,0,0,0,0,0,0,0,0,0,0,0,0,0,0,0,0,0,0,0,0,0,0,0,0,0,0,0,0,0,0,0,0,0,0,0,0,0,0,0,0,0,0,0,0,0,0,0,0,0,0,0,0,0,0,0,0,0,0,0,0,0,0,0,0,0,0,0,0,0,0,0,0,0,0,0,0,0,0,0,0,0,0,0,0,0,0,0,0,0,0,0,0,0,0,0,0,0,0,0,0,0,0,0,0,0,0,0,0,0,0,0,0,0,0,0,0,0,0,0,0,0,0,0,0,0,0,0,0,0,0,0,0,0,0,0,0,0,0,0,0,0,0,0,0,0,0,0,0,0,0,0,0,0,0,0,0,0,0,0,0,0,0,0,0,0,0,0,0,0,0,0,0,0,0,0,0,0,0,0,0,0,0,0,0,0,0,0,0,0,0,0,0,0,0,0,0,0,0,0,0,0,0,0,0,0,0,0,0,0,0,0,0,0,0,0,0,0,0,0,0,0,0,0,0,0,0,0,0,0,0,0,0,0,0,0,0,0,0,0,0,0,0,0,0,0,0,0,0,0,0,0,0,0,0,0,0,0,0,0,0,0,0,0,0,0,0,0,0,0,0,0,0,0,0,0,0,0,0,0,0,0,0,0,0,0,0,0,0,0,0,0,0,0,0,0,0,0,0,0,0,0,0,0,0,0,0,0,0,0,0,0,0,0,0,0,0,0,0,0,0,0,0,0,0,0,0,0,0,0,0,0,0,0,0,0,0,0,0,0,0,0,0,0,0,0,0,0,0,0,0,0,0,0,0,0,0,0,0,0,0,0,0,0,0,0,0,0,0,0,0,0,0,0,0,0,0,0,0,0,0,0,0,0,0,0,0,0,0,0,0,0,0,0,0,0,0,0,0,0,0,0,0,0,0,0,0,0,0,0,0,0,0,0,0,0,0,0,0,0,0,0,0,0,0,0,0,0,0,0,0,0,0,0,0,0,0,0,0,0,0,0,0,0,0,0,0,0,0,0,0,0,0,0,0,0,0,0,0,0,0,0,0,0,0,0,0,0,0,0,0,0,0,0,0,0,0,0,0,0,0,0,0,0,0,0,0,0,0,0,0,0,0,0,0,0,0,0,0,0,0,0,0,0,0,0,0,0,0,0,0,0,0,0,0,0,0,0,0,0,0,0,0,0,0,0,0,0,0,0,0,0,0,0,0,0,0,0,0,0,0,0,0,0,0,0,0,0,0,0,0,0,0,0,0,0,0,0,0,0,0,0,0,0,0,0,0,0,0,0,0,0,0,0,0,0,0,0,0,0,0,0,0,0,0,0,0,0,0,0,0,0,0,0,0,0,0,0,0,0,0,0,0,0,0,0,0,0,0,0,0,0,0,0,0,0,0,0,0,0,0,0,0,0,0,0,0,0,0,0,0,0,0,0,0,0,0,0,0,0,0,0,0,0,0,0,0,0,0,0,0,0,0,0,0,0,0,0,0,0,0,0,0,0,0,0,0,0,0,0,0,0,0,0,0,0,0,0,0,0,0,0,0,0,0,0,0,0,0,0,0,0,0,0,0,0,0,0,0,0,0,0,0,0,0,0,0,0,0,0,0,0,0,0,0,0,0,0,0,0,0,0,0,0,0,0,0,0,0,0,0,0,0,0,0,0,0,0,0,0,0,0,0,0,0,0,0,0,0,0,0,0,0,0,0,0,0,0,0,0,0,0,0,0,0,0,0,0,0,0,0,0,0,0,0,0,0,0,0,0,0,0,0,0,0,0,0,0,0,0,0,0,0,0,0,0,0,0,0,0,0,0,0,0,0,0,0,0,0,0,0,0,0,0,0,0,0,0,0,0,0,0,0,0,0,0,0,0,0,0,0,0,0,0,0,0,0,0,0,0,0,0,0,0,0,0,0,0,0,0,0,0,0,0,0,0,0,0,0,0,0,0,0,0,0,0,0,0,0,0,0,0,0
outputCount=1
weightIndex=0,100,78500
weights=##0
##double#78500
   -0.019491882,0.1335825599,0.1525584421,2.822879576,-1.9777294693,122.3984753312,0.7769846128,2.5236040049,-0.8339003913,-0.6521525095,0.9084970004,16.9988841437,1.5115631074,-303.8965368881,-1.5900705907,-0.4030833419,-7.1509287582,-77.3056369612,-0.2687186432,0.4235989058,14.6175733634,-0.2880397782,0.49162986,-0.4882067994,0.0578251313,0.1735630212,25.2031449682,0.6608339418,3.4914885064,-54.8507152433,-0.1695518628,-13.5261773775,0.643335231,0.0536292297,-0.4772544987,-5.3512269459,18.249316525,-0.6995636983,0.13751544,0.2152023745,-4.8110861698,0.5208856791,-0.8444219919,-0.3989212087,0.2335247106,-0.1960830618,-9.4272829949,-823.3673339717,-10.0578021731,-0.7839445511,0.6590711202,-0.7741985991,-17.4536827585,-7.4416929193,-2.2213309723,3.7348792703,6.3348737555,-55.7366376559,-3.813702355,8.9592552588,-0.390983201,0.8101541644,-1.650476862,1.7014490619,0.0813219345,-9.8829958505,0.6004325779,3.0031996883,0.6587709944,11.3717223047,0.160834837,-0.1912404919,0.0365445832,0.1984474041,0.7906186556,-141.9400339799,-0.6551694979,341.9369199508,-8.5894823771,-8.0022193311,-0.0256789266,-0.2464599935,0.697732204,-0.223927905,2535.5292625376,-0.4905355779,-0.8054410092,-2011.854312941,-3.4422254531,0.2063233951,2.6676247166,-0.0588523659,-18.8771928683,-1.1617486653,-0.2395141732,7.0339307918,0.4128039007,-0.0723218182,0.8186347474,0.8641412867,-0.5761588518,-0.4925872298,0.5805534867,0.1339817387,-0.2057808448,-0.4042823021,0.4060690805,-0.8428608814,-1.2042032868,-1.0883983386,-1.1797756027,-1.1371580927,0.2350835183,-0.9112428739,-0.9122736945,-1.0739783263,-1.2280937744,-0.0596089122,-0.0154228574,-0.5616499719,-0.3908925622,-0.1651999239,-0.7048492742,-0.8821052256,-0.2317213848,0.3165612262,-0.6386830229,-0.8160018561,-0.6152699408,-0.4542559464,0.6522145361,0.3934723512,-1.1565177973,0.1607791651,-0.3820884437,-0.826039856,0.0394713107,-0.3996032794,0.3176355988,-0.8353745959,-0.0063867073,0.2624163758,0.6011105638,0.428572099,-0.0984374143,0.278710786,0.210602941,-1.1010969448,-0.4042942876,0.2047343043,-1.2464570043,-1.1227503164,0.5267314891,0.5751848145,-1.2509890405,-0.9207886286,0.5587667353,0.5396479377,-0.1121236005,-1.2222748291,0.1285715665,-0.5372621947,0.6948193126,-0.6940104662,-0.9291427105,0.6946536573,-1.1668781337,-0.7337804007,0.65894816,-0.7795037357,-1.0279275113,-0.0376799286,-1.0933566657,0.3740995115,-0.122457706,0.6989065193,-1.1856792643,-1.1351786346,-1.0083422162,-1.1653232707,0.3473146131,-0.4119190675,0.0437085692,-0.6060860252,0.0209729505,-0.7042055024,-1.1145979971,-0.5973347071,-0.7152404707,0.4061510806,-0.9537337007,0.4334606031,0.4106738402,-1.1395759423,-0.2798820381,-0.8472332549,-0.3054453467,-0.654746713,-0.9949409081,0.4210884134,-1.2569906491,0.5318091221,-0.0113689794,0.2352262734,-1.0642099201,-1.2682935172,-0.7033481451,-0.8800447996,0.0420757318,-0.0969726215,-0.2137153848,-0.9850400365,-0.6746934281,-0.8192283771,-0.0805508853,-0.6872763499,-0.2925212998,-1.0752646434,-1.2748329588,-0.9316895232,-0.3165122743,0.4934335913,0.3399072304,0.5042334534,-0.4528158087,-0.6787829914,0.1698514849,-0.2961080089,0.4850626758,0.4309547567,-0.7285180135,0.0526083382,-0.1626528533,-0.3052897741,-0.0975758681,0.4822106346,0.5436033176,0.0504771117,-0.2772306547,-0.3970829432,0.0375729964,-1.2283566435,0.5773888959,0.1626599061,-0.1957121433,0.2718926504,-1.1409085601,-0.366133329,0.5136986402,-0.6609302846,-0.9437636268,-0.8553467743,0.1770497199,-0.4418842066,-0.9948640584,-0.5922447891,-0.6752513381,-0.876741552,0.0580564727,-0.3157892611,0.2065133227,0.2452364083,-0.2344141273,-1.1562213452,-0.8168772845,0.5365304868,-0.4809379554,-0.5980310827,0.0355502583,-0.0292603934,0.2633644186,0.5360797186,-0.9955573142,-0.7836304833,-0.4843369712,0.495133842,-1.0199853174,0.1451569374,-0.9582511082,-0.3001448589,0.4381537234,0.2754220343,-0.5206284242,-0.2463124508,-0.0908466306,-0.9058100154,0.2019209664,-1.2620672871,0.0434378316,0.0861232465,0.3496564351,0.2927536377,0.5229416051,0.3282067849,-1.2032352398,-0.2001922711,0.4996188235,-1.0373088564,-0.2961486898,-0.7186228577,-1.0333275719,0.6281284192,0.0025354374,-1.1333971266,0.0396308359,0.4229438679,0.4374601392,-0.9974718086,0.0310537878,-0.6298418821,0.1396266448,-0.5188900581,-0.2770277512,-0.9925243219,-0.5004513172,-0.3658185968,-1.0601733672,0.3115415246,0.1400829402,-0.931498739,-0.2151465904,-0.0843038032,-0.2460198438,-0.9772024087,-0.149059968,-0.4302731711,-0.13707665,-0.1841762148,-0.6531309399,-0.7503622765,-0.3996020319,-1.091570755,-0.6557098751,-0.4912321446,0.1424993548,-0.0592578307,0.1792959696,-0.6365586316,-0.7567307433,0.0535352377,-0.1172944431,-1.2626231867,-0.3167285166,0.4295573749,-0.8621503254,-0.6854750105,-0.5335137348,-0.2318031919,0.089762845,0.3141295722,-0.1533697548,-1.2872580951,0.5094829662,-1.2273882815,-0.9888327307,-0.8326358414,-0.0962845323,-0.0684005959,-1.2071484821,-0.2136146672,0.1869061836,0.7398006803,0.0541228256,-0.7239229932,-0.485457426,-0.5205702407,-1.0038169271,-0.8697759553,-0.6157504044,0.6174868364,-0.4582440022,-0.6448647503,0.7306728774,-1.053832636,-1.2209622764,-0.1549368215,-0.8969115941,0.2471191244,-0.9136664176,0.2640441126,-0.7837486913,-0.4789077861,0.3508844065,0.3252270849,0.5329172227,0.1410905622,-0.0873160493,0.6929167152,0.206740912,0.0994263822,-0.3844930539,-1.1301803569,0.3683057872,0.1016839252,0.7438604366,-0.9006199287,-0.4205102,-0.5660270206,0.7543221005,-0.5756607375,-0.8056941201,-0.61820556,0.1673345105,-0.8203399206,-0.0430124962,-1.2176772997,-0.2469475898,-0.8832042215,-0.9585876346,-0.0855622857,0.3363811778,-0.3621521606,0.4395946058,0.5399369297,0.3191532908,-1.2785213096,-1.0449069401,0.5666071329,-0.0151569914,-0.8149385475,-0.477201959,-1.059684621,-0.6150893863,0.2031760621,-0.2143654984,0.4802756798,-0.72965159,-0.1772054742,0.2065377382,-0.9767869668,-0.2148293158,0.3750775569,0.3602501453,-0.4343971256,-0.7517250392,0.5759625866,-0.6506054417,-0.4227155859,0.4142940643,-0.3952859904,-0.7671343751,-0.8294266973,-0.641752977,-1.2139595103,-0.6082081443,-1.0256242912,0.4487089641,0.7215226916,-0.1445924261,0.3456795771,0.5590806737,-0.3951067085,-0.6463497256,-0.1460708579,0.2053184294,0.6607870062,-0.7239485946,0.1564855611,-0.0089062132,0.509781736,-0.4224534544,-0.4644365798,0.2315534681,0.1467807138,0.4457120292,-1.1284331974,-0.5559783571,-0.0259032807,0.0239078088,0.5396784909,-0.5234259586,0.7814312734,0.7320365811,0.7444118042,0.8601001735,0.5011793291,0.6468066541,-0.1327465218,-0.203017402,0.1712235616,-0.2261814567,0.421709805,0.6188278258,0.8124432732,-0.366464411,-0.0436300491,-0.1912323996,0.2313929568,-0.0145560039,0.5979097146,0.5102317739,0.673865627,-0.2622550738,-0.7391220676,-0.8762146464,-0.8702270275,0.2260226709,-0.2874041366,0.6115287561,-0.5357912284,0.1486098508,-0.3553147489,0.9522969853,0.0536162788,-0.3520636703,-0.6046149432,-0.2436897414,0.7634922907,-0.3819055688,-0.1814225125,0.7439512483,-0.4344321791,0.1918514555,0.2262797084,-0.9365181586,0.0989890613,-0.1361282331,-0.9000505453,0.6017373893,-0.140313722,0.18640782,-0.9936036048,-1.018529408,-0.2486775757,0.0476236515,0.5374327711,-0.0146386274,-0.8160875449,-1.0623640453,0.0964307466,-0.1097003013,0.2923258959,0.8220099486,0.0743312099,-0.5166244981,-0.9910561353,-0.5229865186,0.5969983839,-0.7003901844,-0.1877943211,0.3347222029,-0.0903841326,0.6236770767,0.5162870469,-0.2762159183,-0.6957419692,0.6172385475,-0.0810776902,0.4187049887,-0.1529792178,-0.7898499338,-0.783834739,0.1344760853,0.4542588671,0.6648639078,0.7775216165,-0.9486438053,-0.8928976279,-0.229534842,-0.0855626804,0.4893306352,0.3751081943,-0.1649421498,0.0256917942,-0.617717385,-0.5356024927,-0.4876575803,-1.0314940039,-0.0780883115,-0.134949897,0.1227036529,-0.1433560769,0.3274585641,0.2387717408,0.0211720654,0.58193942,-0.913105902,0.5172814345,-0.6317495375,0.6226824444,-0.4660191857,-0.3050314512,-0.4463453339,0.1935031516,-0.0228991211,-0.5379205083,-0.4984133468,0.2443700749,-0.6466481924,0.61764465,-0.9981893362,-0.3415100808,0.7867463372,0.8105785707,0.7684745385,-0.0530920925,-0.0674848767,-0.1528606597,-0.1687081324,-0.0735899515,-0.7445682802,0.6084242662,0.6197832918,0.0488205536,-0.8659364901,0.6641181999,0.1327056699,-0.2497353776,-0.9372449927,-0.8971786162,-0.8718069998,-0.8697537958,0.2659403535,-1.0126346521,0.4653239268,-0.7898849383,-0.466209716,0.2984886961,0.8188597874,-0.6526886482,0.3494753378,0.2269113085,-0.8932340567,-0.0175042154,-0.7426415541,0.6599408335,-0.0234725173,0.7206069964,-0.9111450446,0.3698289986,-0.9789922347,-0.9287171607,0.8798306448,-0.3718589906,-0.2642845435,-0.4780647116,-1.0501020232,-0.0721322727,0.740437803,-0.7556514645,0.1610627123,-0.2775626827,-0.3711747064,0.585729636,-0.8196742465,0.2409185549,-0.355174167,-0.2722750106,0.61729983,0.8696456666,0.459122384,0.118966307,-0.40849242,-0.8371436847,0.1598039427,-0.7434582907,-0.4633270628,-0.947061686,0.5093950329,0.0931157128,-0.4291637923,-0.1821217228,0.0587339185,-0.0841718025,0.4963417916,0.078326707,-0.3590266692,0.0305060248,0.2381926678,-0.4345566699,-0.3115637677,0.0875765912,-0.0414688502,-0.4718455937,-0.3633160881,0.8326022798,-0.8351198432,0.7758928404,0.4761179155,-0.6243293101,0.8645906099,-0.2184765462,0.7919407733,-0.4529223837,-1.0563100021,-0.4607670847,-0.3624491306,0.6518152477,0.3490435816,0.3124582238,-0.4766168571,-1.1285788519,0.4936031449,-0.312037227,-0.7476499337,0.3887738985,-0.9406387032,-0.0044721857,-0.6144537521,-0.4534888982,-0.5398142925,0.1206876115,-0.6148892914,-0.6526307955,-0.2911310532,-0.9528817941,0.0734319889,-0.153375031,-0.9187095361,0.0593442959,0.0129046256,0.2553503767,0.5750930994,-0.6520814054,-0.0592885045,0.2977822065,0.1753774427,0.4116428954,0.0751624136,-0.264172317,-0.8913597592,0.4654032077,-0.7719916875,0.1586544319,-0.7437505435,0.433988799,0.2373874966,0.6026724162,-1.0171937635,-0.1886806333,-0.6395120101,-0.0068697262,0.706011443,0.3122605201,0.3016981475,-1.0228100812,0.4392013679,-0.1938257821,-0.562497946,0.4709765457,-0.8575821977,0.0854489626,-0.5303627718,-1.1719235483,-0.1835710076,-0.3648521278,0.8743051387,-0.108080951,2.7071193549,0.544509815,-0.3537476148,-0.3247223388,0.448243302,-0.9502626412,0.7860338876,0.2821293654,0.7059444963,0.7948474372,-0.2404744281,-0.9743658727,0.5048893776,0.0455538764,-0.8439589356,0.845299479,-0.3662816184,0.4447049209,-0.2857812633,0.1894831583,-0.5440867778,0.7856824509,0.5957779898,-0.7067267453,-0.7290847169,0.7719528067,0.2257523627,-0.9303621874,-0.2438343108,-0.787300469,0.6668569866,-0.2395259979,0.6633650924,-0.9319848867,0.2596726146,-0.5244729851,-0.8190519484,0.2796615694,-1.1462747801,-1.0619469409,-0.6283908039,-0.3168915378,-1.0955775013,0.7115696283,-1.0506956079,-0.6504304397,-0.6472417312,-0.003600696,-0.8992045299,-0.0191335375,0.1870061429,-0.6786086984,-0.5155863141,-0.9237619901,0.7182739531,-0.2284242349,-0.3712468598,0.6901084296,0.5839733408,-0.1103375985,-0.8062451168,-0.4993341642,0.6674453288,0.7741751699,0.0741709752,-1.0695988974,0.5632669297,-0.0554734958,-0.5049383472,-0.3993747912,0.4005137242,0.2510349469,-0.8527641261,-0.0451408037,0.5953047881,0.4477452984,-0.5989810441,-0.3823945746,-1.0426639981,-0.5959505687,0.7052076711,-0.7124470777,-0.3938999761,-0.9743275695,0.2557191592,5.219333051,1.7220538594,0.5588561561,-0.8964392781,0.624348368,0.0926657579,0.233007915,0.639018538,-0.5181078577,0.0948935736,0.6609967847,-0.3202571818,-1.1205475796,0.7252059211,-0.7260005018,0.2832137422,-1.0821489093,0.0156355843,-0.768271967,-1.0272895616,-0.2689749421,-0.7883616104,-0.5747531823,0.2475516433,-0.1820503576,-0.1884438573,0.76504243,-0.2931526557,-0.5699041034,-0.0871795775,-0.841671444,0.8199027786,0.1843985898,0.5750104383,-0.2595053671,0.7631957081,0.1412444542,-0.0728882541,-0.9452007864,0.0982870517,-0.3564581969,0.6818893918,-0.0164816587,-0.4262627304,-1.3917630364,0.0057257205,-0.4890898263,0.2143279175,0.0735824868,0.5391725625,0.1561936286,-0.8408407903,-0.1473959787,0.6285563517,0.9396905507,-0.0522167695,0.8629540914,0.7655068788,-0.3932036805,0.052588381,-0.3880899981,-0.8365781381,-0.9823365794,-0.7631155187,-0.9800572775,0.4515929118,-0.6708059217,-0.1154408129,-0.1949662884,-0.8100692914,0.4831023822,0.5909153728,-0.0950612254,-0.7588395705,0.435341753,-0.5542584523,-0.8987854583,-0.623839489,-0.0331750589,0.4432270981,0.1305901502,-0.1818825397,0.8923698173,-0.5766317753,0.0538596973,0.9572814747,-0.6987032598,-0.8933762956,0.0487208399,-0.2845655157,-0.5467294973,-0.8640149927,0.8341745738,-0.7489463655,0.4475457258,0.7279884565,0.5872767013,0.7231722236,-0.2966979123,0.820345349,-0.696159526,0.8842849617,0.8562137804,0.873281577,0.3269683798,-0.9323475332,-0.5581571781,0.5634748816,0.135669896,0.8835937933,0.5047233933,-0.3348197471,0.3414499547,0.3589682565,0.8982278527,-0.2489991692,-0.4752432387,-0.2178887777,0.6619519533,0.6798644726,0.6828018104,0.3060826438,0.4405011901,0.5978109226,0.2211503381,-0.9222298841,-0.3489271066,0.9820415847,-0.5013915512,0.0178122154,-0.7847905448,-0.6558279582,-0.4921956796,0.4153721575,0.9263339103,0.3414087449,0.3662803514,0.9269450825,0.1691261912,-0.9511368182,-0.7217586205,-0.1059903885,0.5326283156,-0.005706903,-0.3369710155,-0.2222256801,0.0592237869,0.6691399226,-0.2381242846,0.4021338413,-0.5900884925,0.151290641,0.1825705596,0.8812013449,0.4152211338,-0.3041517305,0.2373917368,0.9454183058,0.9726114329,-0.5527011343,-0.0379493219,0.2700235988,-0.3124841366,0.5425594971,-0.4578248653,-0.9971190018,-0.9924523945,-0.1352824123,0.2340162566,-0.3039742172,0.8070045075,-0.3440184598,0.1298402562,0.5125901848,0.702919526,-0.61082757,0.4067918907,-1.0143284796,-0.4245082725,-0.9618131638,0.5248179127,-0.3134735321,0.2649552075,-0.0691190222,-0.9777988022,-1.0067798605,-0.9248741425,-0.2597247583,-0.5245386392,0.0468823687,0.964053771,-0.810638996,-0.6994349613,-0.1500987697,-0.8634290146,-0.7076196296,0.2935247056,-1.0105626623,0.8927179388,0.7198706759,0.1209110201,-0.6452078444,-0.7383441496,-0.8306012031,0.8229908108,0.6394873603,-0.465783911,0.098334843,0.7269792702,0.3895713654,-0.7042206738,0.5631591724,-0.8845397905,0.7701928534,-0.4680924866,-0.3249094295,-0.6367980614,-0.7646938533,0.0816972994,-0.2891095511,-0.1067909715,-0.7639650418,0.527159669,-0.1317708617,0.3718630308,-0.2316683735,-0.6360133389,-0.8943370174,0.2368868326,0.2301900206,0.149579296,0.89903899,0.3326095515,0.1109575485,0.7393882884,0.2623824601,-0.7321488982,0.6637045414,-0.7064618592,-0.2915899954,0.3898245067,0.5513495275,0.9122274668,-0.7261679054,-0.5572994303,0.4126197052,0.6032415903,-0.6783156477,0.1861547027,-0.4788199467,0.8634034798,0.4313534078,0.6314813795,-0.106351195,-0.9586926458,0.0401207513,0.0430193383,0.3575165816,-0.889152745,0.4068523185,0.3786012489,0.3381852102,0.8219028819,-0.9308195084,0.6319894489,-0.1873460883,0.1653361001,0.6937202732,-0.0419579863,-0.8247952345,-0.7389554109,-1.008277966,-0.0266158645,-0.1537000885,-0.9696158215,-0.8958469925,-0.5286846516,0.1965258831,-0.2651159915,-0.0183853901,-0.6584610718,0.1202471742,-0.4537596936,0.8748361318,-0.1782730012,-0.6290213029,0.8699812006,0.7330223635,-0.4689240822,-0.9262133937,0.5832763594,0.4059987831,-0.3409713554,-0.3717071005,-0.1806936283,0.0033431684,0.5425512779,-0.9854569296,0.5137196328,-0.0314441358,0.1383869365,0.6888336658,-0.092516641,-0.1219817098,-0.5695125636,-1.0004132225,-0.78022465,-0.7145224927,-0.1016507068,0.8247484289,0.0853857726,-0.3041198568,0.9217014137,0.5688320228,0.955528203,0.2537387901,0.6519756396,0.9394044708,-0.9059352617,-0.7309036653,-0.3284876988,0.3290504914,0.6427260891,-0.1644403486,0.0127320096,-0.0368619451,0.7192190232,0.1126687459,-0.0254502355,0.4284031532,-0.1225579865,0.9214516168,0.1658628696,0.6598953668,0.8663151332,0.0580065191,-0.0483388637,0.8052191816,0.315020064,0.8975645672,-0.0661232595,-0.465108166,-0.0516776714,0.6301045994,-0.3375587261,0.7084813113,-0.0659601533,-0.397488112,-0.1182880183,0.5384364278,0.8801127646,0.8028018776,0.651408444,-0.9982586845,0.0836445536,-0.2659401516,0.4318693548,-0.2261702794,-0.4648492932,-0.8997886744,0.9817155477,-0.3689828398,0.7952817906,-0.5445559317,0.7030894396,0.5027785074,-0.6369598181,-0.6092476403,0.8144746828,-0.2446341325,-0.529674866,-0.422016825,0.4456296723,-0.8443461596,0.7829019357,-0.8083706662,-0.3902437964,0.9762196141,-0.5005156335,-0.2316386447,0.0629064349,-0.6169264906,-0.8708628701,0.518712267,-0.7444877777,0.5297891193,0.1474987275,-0.3956421978,0.0108057392,0.4852571071,-0.4203573831,-0.1110711435,0.8401501746,-0.4525387027,0.3396605514,-0.1936275866,0.2042874301,-0.3847160641,0.4194679868,-0.4819222733,-0.1754698667,0.4079798352,-0.0742068952,-0.8723755584,0.3087455775,-0.6070613927,-0.1795886093,1.0141005876,0.1392997587,-0.0232412042,-0.53596585,-0.995829326,-0.9559957764,-0.1908442089,-0.1309910785,-0.6564699932,-0.4659264623,-0.6418717899,0.9270611396,-0.4694422985,-0.2057766931,0.1987325882,0.0819956067,0.8871773587,-0.8035113322,0.4711872657,0.0566240042,0.7069215554,0.2851626143,-0.6865439003,0.5290815046,0.7683618569,0.0921366807,0.583911018,0.1013730778,-0.4077905565,-0.5572081743,0.7022569195,-0.1679520563,0.5589374113,-0.3896675926,-0.7391398522,0.4332763653,0.6132642813,0.059669887,-0.9439285106,-0.4521135894,0.4939847754,-0.9363669097,-0.6651188508,-0.006652455,-0.6743111962,0.8603879268,0.6874578362,0.1040698911,-0.8280867464,0.5856622359,-0.3127081248,-0.8883994174,0.9202911289,0.2257755425,0.7223849038,0.5167302524,-0.3368071867,0.8889322234,-0.5528350932,0.7566318346,0.255815514,-0.5621540793,-0.4647093691,-0.1191919834,-0.8308524864,-0.0871322007,-0.0438258148,0.3957856456,0.6100506848,-0.966412376,-0.828857614,-0.2914451944,-0.1488723436,-0.3405751521,-0.4247564178,-0.040757717,-0.4031466627,0.4027189527,0.6027261902,-0.0177420159,-0.0197213679,-0.5526211868,0.107156806,-0.3284705524,-0.9274908142,1.0318663333,-0.9752839723,-0.87365715,0.1277162833,0.052034871,-0.1269966449,0.4418169203,-0.7437579499,-0.3018453253,-0.1553436948,0.7102417103,-0.381190834,0.3092665446,-0.7179501008,-0.7992221349,-0.3838580824,-0.2855991101,0.5541048005,-0.1106091116,-0.1237496533,0.2113072818,-0.0353821247,-0.6973937739,0.0787503455,-0.1619997434,-0.9238178556,-0.0875003989,0.1639156409,0.454061931,-0.8465593044,-0.1879225199,-0.6609410854,-0.6351847411,-0.6013874228,-0.601234329,-0.1362336483,-0.2226865088,-0.8319164487,0.255713967,0.1323450398,-0.2538853941,0.7566239721,0.5364535071,-0.2392202586,-0.1389927869,-0.5960624675,-0.598721137,0.4574811879,-0.5555275048,-0.8045348753,0.5109229339,0.9722496545,0.6879416548,0.7115567374,-0.2471637169,-0.7860737903,0.0918539124,0.133425421,-0.7243906547,0.3885152299,-0.6793035869,0.115979751,-0.1482665694,-0.4461104727,-0.2261015284,0.9242910149,-0.5812680177,-1.1005683213,-0.1743302388,-0.2177041431,-0.2718631566,-0.4107676732,-0.1645253027,0.7869193539,-0.8816447783,-0.5820592687,-0.6735829662,0.42221367,0.9167476483,-0.4729869238,0.880639536,-0.0787985919,-0.7289845908,0.7472789206,0.0028139721,0.3638238256,-0.6153214815,0.359532342,0.0927405403,0.4265830993,0.6096989381,-0.0956353762,-0.6991498282,0.3394866522,0.6132336384,0.176308035,-0.1425624554,-0.5433178724,0.3258952068,-0.8821099523,-0.5499340372,-0.176165194,0.6907243197,0.3209263382,0.5105264511,-0.1310719739,-0.8160552362,0.0089990125,0.7929267588,-0.3748266431,-0.4925570256,-0.8685020953,-1.1951834295,-1.4761722844,-0.9297595633,0.2111787783,-0.7013889115,0.071238557,-0.9341649191,-0.7658355384,-0.097358797,-0.6617792508,-0.3971887133,-0.8965673615,-0.8646805792,0.0668125742,0.7317856922,0.5620186612,-0.3772425898,0.1513522304,0.8769335154,-0.8273711369,0.5303708853,-0.519280335,0.4735584222,-0.0267441263,-0.396748094,-0.638183163,-0.9132795556,-0.9166373098,-0.7769107484,0.8714023308,0.579066689,-0.6048731233,0.4032284485,0.2890710113,0.7146116129,-39.0213275968,-0.6136909984,0.1867333352,0.9071586801,-0.8101901498,0.0089683984,-0.457863268,-0.5056301215,0.9014993579,0.7145485371,0.4126221634,-0.3607132689,0.4304521174,0.9868223551,0.8732367824,-0.2039105043,0.4165728273,-0.7261679341,0.6204725977,-0.7299757115,-0.0179222198,0.3218483587,-0.0367540511,-0.8874030915,-0.7936523831,0.8333580595,0.2167052037,-0.214130706,-0.0050993683,-0.9639337236,-0.1507616963,-0.3091216275,0.0752709055,0.4714165675,0.0575034842,-0.5408110594,0.1233894496,-0.2118155472,-0.1179972492,-0.7431940372,-0.0813527808,0.085517709,-0.0760611989,-0.7925942509,-0.8785464894,-0.462867252,0.7869229418,-0.2882799824,-0.4347435242,-0.5014231094,0.7762120419,-0.4712876661,0.7433976269,-0.94033014,-0.2320381294,-0.0516993747,0.6906500943,0.7135865716,-0.1838194558,-0.9858782261,-1.909996809,-0.667068941,-0.6938101256,-0.0662873499,0.041971348,-0.6718637412,0.0225187506,-0.0218305139,-0.7311958846,0.1513054839,1.0075601423,0.8165105556,-0.6174472297,0.8583055025,0.8380681802,0.1196972893,-0.3442166888,0.7869632061,-0.1302320157,0.851943942,-0.5234269608,-0.9346835911,0.9783874878,-0.3548135234,-0.7130189864,-0.8210342229,0.236192672,0.0025379541,-0.5415352459,-0.8145846334,-0.7651748913,0.3075293084,-0.8527130141,-0.4739854853,0.2579335512,0.921993454,-0.7756756002,0.2977449714,-0.3358859374,-0.5286187213,-0.7183403914,-0.0135003859,0.4881691034,-0.0771413703,0.5284202549,0.372332253,-0.2939009925,-0.6158003824,0.3224273573,0.2987853164,-0.6185631392,-0.6394017737,-0.2077971161,1.0037569398,-0.1327620221,-0.4740438395,0.0040805147,0.8254413908,-1.0195028882,-0.9963024403,0.4643494019,-1.3274273228,-0.9192422945,-0.1876473454,0.0599614526,0.4381242595,0.9502032803,0.9231178233,0.0613565951,-0.6497489759,0.0604857954,0.0069498546,-0.8595336079,-0.6914722483,0.2255232583,-0.5887974651,0.6050122438,-0.5760234716,0.5210921726,-0.2579985689,0.1073637001,-0.6744390933,-0.1814566391,0.7520431539,-2.3558339157,-20.0951978237,-20.6522185972,-0.7671864242,-0.9218448281,-0.7581469311,0.8836867666,-0.8918655122,0.5533778184,0.0914800543,-0.6565034349,0.6228824721,0.3207209148,0.0854325178,0.4171674413,0.4682435431,-0.6302676138,0.896379297,-0.7375452304,0.0208266509,-0.4316435249,0.7759811354,0.6052928899,-0.1019556808,0.5322240552,-0.5573175453,0.3011666969,0.4497099499,0.5851661936,-0.909568244,0.1251625052,0.2379424423,-0.9712354819,0.7233513292,-0.4205224989,-0.8184496289,-0.0036209987,0.1466202424,0.6082517019,0.2870123921,-0.4554583578,0.9681247234,0.5007172681,-0.075669032,1.076914893,-0.6016538291,1.060705263,-0.5601288734,0.8084790932,0.4946722044,-0.2429134106,-0.8239136047,0.3149745085,-0.1525515132,-0.4618666933,-0.6187425842,-0.3399594961,0.5427283768,-0.7660480461,0.001567412,0.3962367535,0.4280933107,-0.1348814288,-0.5585340148,-1.0017021564,0.4721145596,-0.7881877492,0.6669142678,0.5699636625,-0.8826209139,0.0192612997,-0.4465505654,0.1976334947,-0.8080058103,-0.9575942548,0.6416827058,-0.9749106166,-0.2253159679,-1.0038545201,-0.2991807283,0.6381859202,0.1285877993,0.4907503928,-0.8990762645,0.5482334437,0.502470372,-0.757308079,-0.025669877,0.7434694171,-0.2573694075,-0.9535693964,0.4344864845,0.8777418654,-0.175814336,0.4365130165,-0.7931247116,0.6956822545,0.1661943211,-0.8531533796,-0.0184445007,-0.8889470941,0.0337872721,-0.9495000839,-0.3208938308,0.6443977589,-0.8123077667,0.1427687518,-0.0115514572,-0.3432807108,-0.3450614515,0.0206263458,-0.1761348589,-0.932448912,0.6236690252,0.3251833204,0.7671345355,0.3338265579,-0.1001983819,-0.7070684117,-0.855614382,-0.3985061968,-0.9421662793,-0.3048379962,-0.9434012336,0.1147441078,0.7324255534,0.5744118973,-0.496396542,-0.5133073872,-0.0005193367,-0.6298253129,-0.9773412672,-0.0561086543,-1.0165702362,-0.7667772781,-0.1735201886,0.143396295,-0.0980374813,0.463482444,-0.9982293617,-0.2695332665,0.4651011209,0.4708400284,0.4780760699,0.949636152,-0.1015668982,0.6106626971,-0.6264722203,-0.7044664945,0.3104731103,0.6115355883,0.2410775872,-0.9528533779,0.0953074728,0.2919846426,0.1530423275,-0.4314625604,-0.219814399,0.7332550631,0.0275450779,-0.2321375047,0.9595225456,-0.4682660634,0.0783547276,0.146397731,-0.0711490828,0.2852347168,0.7349160571,0.0865643073,-0.3582240883,-0.8076670001,0.6292747985,0.0466205853,-0.9053271943,0.0500811789,0.5408456993,0.5043456352,-0.9548730363,0.7502765609,-0.2367018646,-0.2207150559,-0.9005776301,0.2411147367,0.6586363017,-0.8552657638,0.2427485102,-0.1381026486,0.6553545523,0.8245800364,-0.6043408135,0.8503588792,-0.8600005621,0.0175788034,-0.2482120891,0.8857192106,0.4462707375,0.1403722941,0.6560028099,0.7910565252,0.6110634026,-0.0792325525,0.9710071708,0.6977614874,0.4635336402,0.7524253642,0.7581646849,-0.3329058853,0.7537762097,0.3594677791,0.5136860477,0.1612877599,-0.1473161965,-0.0082671442,-0.0907462562,0.413172932,-0.4119905438,0.77545086,-0.0147708455,-0.6217541908,0.823236299,0.4772205658,0.2839811484,0.950444743,0.4231248923,-0.7451585227,0.3310822385,-0.8172177784,0.5823734236,-0.9687370556,0.3385272174,-0.3312027685,0.4353347794,-0.7112008452,0.8994314736,0.8409446008,0.7097087343,0.9505599527,-0.5623994682,-0.2833649583,-0.5517440906,0.8999153714,0.3836063817,-0.2019505312,0.0040179153,-0.3693336246,-0.4098788961,0.2503496442,0.4635685413,-0.7522406111,0.9684242259,0.1858282025,0.9553166945,-0.1140066328,-0.9019315073,-0.2141191317,0.6214774292,-0.8375359489,-0.9265727836,0.7306437282,0.5766125217,-0.7803432337,-0.6417983611,-0.2819166177,-0.7160294527,-0.646179382,0.75417598,-0.8199965751,-0.3463522006,0.3750476834,-0.8125351131,0.1386861493,0.1792865857,-0.7769672518,0.3863483208,-0.2716216099,-0.6713736098,0.4882939297,0.5090988005,-0.0069749415,-0.8002087207,0.0503154018,-0.0098572862,-0.0948101394,0.8283826269,-0.5101328535,-0.1113221068,0.8368003819,-0.1755777144,-0.1052015178,-0.5388885951,0.1118169789,-0.11388629,-0.1864147092,-1.0076038723,-0.547465685,-0.772993732,-0.041620757,-0.185380812,-0.591693323,-0.4450843432,-0.9629437587,0.7558503873,-0.3635378075,0.0644844874,0.2693401727,-0.564950475,0.0825203418,0.7099356231,-0.1399050628,0.2417297461,0.2602626596,0.0028989651,0.9250238248,0.8362716756,-0.1644108676,0.615516686,-0.844024854,-0.3547553303,0.6417449877,-0.7951529985,0.0552077354,0.459307811,0.6812082408,0.753241141,-0.4301525117,-0.5490153466,0.729273278,-0.1798107628,-0.2433812437,-0.4876224385,0.1067807455,0.0928612773,0.2828715132,0.7381210006,-0.0954116898,0.4255862436,-0.3069532194,0.2760125457,-1.0103890522,-0.0917710271,-0.8973319671,-0.1734951236,0.3426392316,0.1258046225,0.3061036682,0.0408932374,-0.3843472914,-0.6636169688,-0.4184410152,-0.3937284945,-0.6937381466,0.8361165914,0.6427767021,-0.860090534,0.2363196453,0.4882062954,0.4262844684,0.5573478422,0.1558283768,-0.6181145528,0.5052353617,-0.201463004,0.4944546397,0.1182820735,-0.6000760902,0.0086467257,-0.4241291454,-0.6507060953,0.3410869937,0.4685108115,-0.4765538371,-0.4416875873,-0.417070889,-0.589963805,0.0427234482,0.5058594076,-0.7457883563,0.1878662505,-0.5099892317,0.2386420918,0.0722583187,-0.184787339,-0.9554346186,0.7588135022,0.4723461544,0.1965401458,-0.4083434217,-0.7177077069,-0.3631302143,0.5232017196,0.0930874823,-0.0936338304,-0.9715997474,0.0262692385,-0.4426700545,0.4033241545,-0.0741400611,-0.7062506599,-0.5778269202,0.0508131448,-0.5373727246,-0.3997807036,0.2253715107,-0.1553493575,0.6322750068,-0.1595663793,-0.3860354829,-0.685364079,0.0067484173,-0.8903926187,-0.8813496657,0.8614957489,0.9018450741,-0.2333567097,-0.9264297623,0.3676023505,-0.0931013254,-0.091311575,-0.818995314,0.7758509426,0.7958493508,-0.5763910516,0.9245914857,-0.2073202526,-1.0219359756,0.4019204321,0.856058035,0.88860515,0.3522119415,0.471828848,0.7016874009,0.5198498714
   -0.3920982811,0.5794674774,-0.2493016714,-0.7616285904,-0.865971761,0.5801164994,-0.5123150063,0.6693517641,-0.2543869344,-0.0585730277,-0.3143430266,0.9136662001,0.0582576367,0.5094432674,-0.440671773,-0.2530621656,-0.8130626852,-0.418631343,0.0908312907,-0.9330475262,0.5388303459,0.0217085229,0.1003317269,-0.2324635192,0.3308975046,-0.1275328869,-0.0052290211,-0.160012667,-0.6973165036,0.7500055041,1.017162869,-0.2349084428,-0.3944896799,-0.4247050067,-0.0522327576,0.5406644039,0.8772193809,-0.644210481,0.7197849679,-0.892008447,0.0354294011,-0.0390722493,-0.2510736047,0.103591676,-0.4119301183,0.6414892054,-0.4867646063,0.9664639931,0.0096152888,0.8078021673,0.6689489407,-0.8238889824,0.680147586,0.1734444021,0.0347954779,-0.3056524653,0.2035339507,0.5305251826,-0.821018427,-0.4596058579,-0.8133669545,-0.616426932,-0.9369848796,-0.0052623866,-0.214972464,0.3013993266,-0.2626404988,0.5147649081,0.4362235781,-0.3082203958,-1.2090524915,0.3526468202,-0.0845725023,0.4209041586,0.0321209031,0.574647206,-0.1580636282,-0.3028372814,-0.220340697,0.9283155858,0.5519249419,-0.8173127846,-0.8692266784,1.0219257225,-0.2494009516,0.3048070893,0.5214817512,0.9567396693,0.8982585177,0.2628563148,0.1903251333,0.0601232713,0.7298680319,-0.5198218168,-0.3219645136,0.6126086393,0.492903305,0.0019942608,-0.5291638469,-0.8794226436,0.6152777417,-0.3746107214,0.9755962245,0.1950287118,0.9047025741,0.5717243692,-0.9089243857,-0.7210150506,-0.4191908666,0.6804563633,-0.984346452,-0.3827121456,-0.8047193214,0.3501095287,0.1068239559,0.9174746953,0.5300519579,-0.4415034988,0.5530907704,-0.1361374174,-1.1285184391,-0.2923849936,0.0484106745,0.666531151,0.7780262949,-0.6707929361,-0.5167914118,0.0293306636,0.223787905,0.3984674323,-0.9444999473,0.1805283274,0.6177251468,-0.5480012579,0.5164043771,0.156072649,0.643417211,0.2659778584,0.7378883578,-0.9172924216,-0.6611013015,0.400191624,-0.7294940046,0.5309480336,0.4234364522,0.2106165203,-0.8329024697,-0.0334531338,0.3631364275,-0.3558330768,0.6485616833,0.5077237898,-0.5898025562,0.3625053176,0.2742115799,0.6333499343,-0.0650169275,0.214634338,-0.1445355167,-0.4493613312,-1.1714813978,-0.2401776031,-0.4806048814,-0.9649921349,0.5718709396,0.8011571326,0.4603295156,0.8395152662,4.1291200893,0.3889107269,0.4458582474,-0.4811350997,0.2829209144,0.5461520975,-0.2163213077,0.463796807,0.7822497641,0.5068724778,-0.7867825276,-0.2375996977,-0.8285063485,-1.1579319505,-0.030831874,0.153819662,-0.6202915721,-0.3841821679,0.2275292203,-0.4375647274,0.4815342203,0.3329595192,0.7381182874,-0.8378925021,0.7879059559,0.5706770681,-0.2244806305,0.6306162557,0.2161395691,-0.5833195906,-0.0226761504,-0.8201968221,0.5413760374,0.2890037608,0.0506990785,-0.3005302968,-0.3254460042,-0.6867409662,-0.1716076905,-0.6504100497,0.3693764596,-0.2524587778,0.6167638981,0.1639171584,-0.7718947425,-0.9516464112,-0.0572210796,0.9438236267,0.3344623514,0.1941360555,-0.5152185276,-0.0440559706,0.5768592554,0.4932236829,0.7422091289,0.4404080486,-0.8457510177,-0.7892927609,0.3578131309,0.3277239928,0.5089315623,0.9359802533,0.8018379045,0.2906298375,-1.0042233505,0.1645883134,0.8734630171,-0.3089237858,-0.5289448356,0.7783295946,0.3899916826,-0.5608174019,0.5279427063,-0.2786802512,-0.5536917996,-0.2427056734,0.8492954293,0.9436830597,0.640355465,0.5662854912,0.5068829148,0.4305793766,-0.2794873342,0.0914178948,0.0075908771,0.5500789109,0.2571455193,-0.4286020157,0.5502754546,0.6398679798,-0.3213162262,0.2930249132,-0.6031285091,-0.127170876,0.7540072434,-0.2341359508,0.7204036441,-0.0823884555,-0.0340066622,-0.1944012944,-0.9314339463,-0.1503879908,0.1134094846,0.1850397942,0.0007359318,0.525145234,-0.39094019,0.1345062696,-0.8438332139,-0.5692464538,-0.0705910621,0.2874813451,0.8261860062,-0.442877561,-0.0570895568,-0.8441984356,0.9612839255,-0.752989407,-0.3503176177,0.2725814584,-0.5573507172,0.2260678577,0.915741572,0.6297219811,-0.0315199488,-0.0681388318,0.6486304342,-0.5548016335,0.7407677311,-0.5576145204,0.9705499467,0.1463322594,-0.242811325,-0.7440724392,0.4339522986,-0.0860076156,-0.515776953,0.040545254,0.9059349538,-0.082009709,0.8612191852,0.7941225299,0.6097385805,-0.2367365228,1.3132266883,1.1208945574,-0.3806286788,-0.59977928,0.7202656833,0.9426684513,0.6828277813,-0.0610431819,0.7696576612,-0.1564025482,0.5314415844,0.2787452959,0.6023698781,0.7019669652,0.5065164104,0.9809650593,0.1782562467,0.0304809007,-0.7982293961,0.8267114091,0.6209039739,0.5749965984,-0.9371941939,0.0539434092,0.6787621592,0.792441499,0.2555331844,0.0985728741,1.2773486307,2.2597329621,-0.6504938638,-0.6097957824,-0.3399948615,0.3208951419,-0.4375996768,-0.4676268828,0.0245965053,-0.8393954312,-0.6708056347,0.8564012307,-0.2255144996,0.0409710596,0.484364384,0.2544689582,-0.0159812763,0.4322561186,0.8038928254,-0.417715703,-0.4608950919,-0.598612139,-0.8889756638,-0.5365828411,-0.9048323535,0.8754282132,0.1846968705,-0.1359185816,-0.8135428044,0.5050363555,-0.4997556374,0.8324774817,0.9760284685,-0.5378309273,0.8914490016,-0.2235669529,-0.5087462823,0.7071844323,0.5832253945,0.6608532782,0.4122631741,-0.0597654246,-0.3107317202,-0.1727677692,-0.7030255051,-0.2684607292,0.8351628388,-0.1507242496,-0.0029900416,0.5196895887,0.0430710095,0.292509427,0.2612130754,0.178183274,-0.0130277164,0.8202921854,0.5391741798,0.6367732405,0.4098591938,0.4233488795,-0.0949192716,0.7777829858,0.9787271182,0.180464204,0.8848135512,-0.467383704,-0.2691677515,-0.3587622916,0.0946512192,-0.3747258561,0.3366051275,0.5556560276,-0.3526703178,-0.4823001327,-0.4556746587,-0.8174674501,0.6141599624,-0.5984049844,0.4132217232,-0.7040350564,-0.284918952,0.5525281877,0.1779732337,0.2272554858,0.1759850156,0.9610837872,-0.949942911,-0.6261288633,-0.9071340706,-0.1940036083,0.6379834653,-0.5608904894,-0.2309496675,-0.1814211809,0.8497143436,-0.8870158395,-0.941839159,0.1347433939,-0.1669063477,-0.3444831055,0.575576201,0.6677752497,-0.0464352224,-0.6943042645,-0.700591998,0.9094140187,-0.2506453148,0.230220652,0.5916213844,-0.1125519151,0.3031155346,-0.6423050288,0.2296831528,-0.5829582809,-0.1621013709,-0.5315417055,0.0240613988,0.7746772523,-0.4324600756,0.1240191109,-0.3207514601,-0.6866394362,-0.9041490471,-0.7179337864,0.8910910368,-0.8484592925,-0.0570698154,-0.2934309142,-0.3247772986,0.2064513502,0.695032323,-0.2624234318,0.8078014229,0.6152757399,-0.7392615567,0.3404331562,-0.7741409629,0.5728047534,0.1280691886,0.2016811854,-0.993111038,-0.8513085957,-0.7732362634,0.5774904123,-0.7626450502,-0.177176698,-0.9444837736,-0.4321197457,0.8587695808,0.2707697228,-0.7223709242,-0.4723214942,0.1833103844,0.9826305708,-1.0133699177,-0.2747836836,0.938779869,0.4570017842,-0.9349752272,0.8123176994,-0.7871776952,-0.1060577411,-0.0720407162,-0.5089268367,0.7656840783,-0.6678600328,0.6602294824,0.9444483923,0.339264309,-0.0284985586,-0.5396750595,0.5179476759,0.0183814677,-0.0866713904,0.0147764178,0.0142599539,-0.1179562558,0.337224368,0.3879475483,0.2798977736,-0.6659306967,0.6725485174,0.1468064783,-0.4965025022,-0.292853348,0.3234410474,0.6748589006,-0.5235500886,0.1588252198,-0.9775283719,-1.0114759868,-0.6711937875,0.0361540429,-0.1553353673,0.5583983509,0.3197184838,0.8192110471,-0.4199600378,0.4540083343,0.1556088948,-0.1144388569,-0.0094292174,0.0830785437,0.5123233899,-0.345759875,-0.3107450937,-0.7275796305,-0.4625674437,-0.738218227,0.1155651482,0.0004112723,0.2054927523,0.62375661,-0.415175549,-0.622255063,-0.6178838634,-0.5897932791,-0.5603762091,0.790755198,-0.2899771211,0.3694438321,0.4681103786,-0.3105366328,-0.6999796271,0.006838334,-0.419714412,-0.9195919381,0.7340756228,0.2549396728,-0.2323661896,0.7004385277,1.02252317,0.283659147,0.0957464397,0.4595888782,-0.7252118943,-0.5608188976,0.9170528059,-0.5076175748,0.0156630159,-0.0692129821,-0.6382139103,-0.0547162307,0.6467476181,0.0682744443,0.4975784548,-0.7062833784,-0.0267254849,-0.7700633325,-0.1680083235,0.7501584404,-0.3358606947,0.8393885102,-0.6535161042,-0.8526115005,0.7497498679,-0.967344262,-0.5615209395,0.1458345716,0.4097346239,-0.261813505,0.2586001199,-0.7406422182,0.269998347,-0.0131197626,0.1482646316,0.2493013808,0.7317778366,-0.6826037123,-0.1138912518,0.0063380396,-0.198314319,-0.2871080074,1.030978772,0.2883098542,0.0733684996,-0.301215408,-0.4881904442,0.7525670652,0.074894819,0.1667858225,-0.8531446081,0.4301032993,-0.4262640732,-0.2971685911,-0.5913298475,0.3118465248,-0.8231849605,-0.0080581365,-0.2142392789,0.6635059531,0.344248076,0.6786102138,0.2533453227,0.2803603874,0.5566589695,-0.0272699653,0.5036747346,-0.6827515637,0.4918616326,-0.8851649256,-0.8344093861,-0.1274379791,0.1373015266,-0.2200828216,-0.2975482848,0.5078251892,0.9543266896,0.5586120062,0.8304996407,-0.8284690268,0.9684935025,0.3924292393,0.5433391708,1.0248809917,0.6417665821,-0.4175688102,0.0662337638,1.0179446328,0.1057032101,0.9236264474,-0.5513597054,0.4400082234,0.2868788799,-0.2487719399,0.0459970123,0.3124588483,-0.8090495869,-0.0837353673,0.6501007278,0.8374338614,-0.6348681874,-0.1819669209,0.1703293799,0.3954252416,-0.1948091611,0.8446702448,0.4549185832,0.3429345163,-0.5707830018,-0.4577821505,0.328976086,0.5510060222,-0.0700028453,0.1286236352,0.5202807872,0.1867536175,-0.5878219443,0.4478015761,-0.631741398,-0.120414891,0.8546196095,0.0606624199,0.8195134068,0.5786535637,-0.1981922343,-0.3202056713,0.7987614655,0.3466289713,0.5004688692,-0.3304382534,-0.1915754498,-0.7825281281,0.183145505,0.6261978854,-0.5164907842,-0.0363983335,-0.6061135619,1.0262405731,0.3920728056,0.8960624993,-0.4950421718,0.7090297691,0.7536726045,-0.756930488,-0.0423681661,0.7779147357,-0.076255931,0.5924702766,-0.7361476222,-0.4416336225,0.7187716428,0.5578596502,-0.8743930506,-0.5599216887,1.0495861389,1.0728767027,0.9909056407,0.7081172864,0.5790509776,-0.5425538686,0.6182744683,-0.7601742841,-0.8807605059,-0.5137530526,-0.4583709027,-0.3867831576,0.6475734305,-0.4696413497,-0.2724479365,-0.0977812204,0.5771069501,-0.5333022021,-0.3929152526,-0.7125126943,0.7397201897,0.0684178153,-0.7009225796,0.1022097242,-0.9044843689,0.2922875386,0.5277035883,0.2879198769,-0.2586005287,-0.5990768845,-0.0746618605,-0.1395568521,0.402790351,0.8724651323,-0.1769955674,-0.4635693744,-0.8881469692,0.0585174124,0.1592784939,-0.8858477862,0.7087050125,0.070840595,0.7202926287,0.3069275029,-0.2335624961,0.417045201,0.5637041054,-0.5420653349,-0.3120198446,0.4499873859,-0.5884971669,0.6197515942,-0.5491087469,0.6585321117,0.9851207114,-0.0545130213,0.7595112837,0.252257935,-0.3221839464,0.6234837917,0.6314083629,-0.8223724283,0.6251624619,-0.5024184959,-0.4375597312,0.9849882363,0.7023816961,-0.6673120626,-0.5867687157,-0.5441407596,-0.7440811553,0.2516367204,0.7386254577,0.4722042173,-0.7406050919,-0.8903077813,-0.2287805379,0.7877209178,0.7346658415,-0.6404338386,-0.1925534138,-0.4616242271,-0.0009449047,0.0477226227,-0.1995190367,0.1557549861,0.5023479176,0.6149015385,-0.3227800155,-0.0603163872,-0.3031914398,-0.2423095619,-0.6392467439,-0.1703457872,-0.9024298238,1.0168086762,0.7053070396,0.3019113761,0.6406532626,0.7541085255,-0.2107511823,-0.7597149328,0.8737665757,-0.8886020923,0.9048783158,0.6807852439,0.3625199888,-0.1368105396,0.8942991363,-0.3560549143,0.656858944,0.9056752059,-0.4370085812,0.3108055458,-0.4054424851,0.8247453908,0.0882788878,0.8936779202,0.0541464413,-0.1112167264,-0.1848668363,0.1586805331,-0.964002507,0.6888809006,-0.5416328962,0.2819654103,0.3341988811,0.0009681816,0.1778467013,0.8171079178,-0.8212450049,0.8349608177,-0.5061502302,-0.7004687938,0.5120584001,0.3707259089,0.8437652469,0.2691046357,-0.2955397206,-0.4199452123,0.9369265266,0.6742692112,-0.6374693138,-0.1217905977,-0.3518964953,0.8377764455,0.7302344854,-0.5621192382,0.4672315033,0.578656366,-0.4231839067,-0.8765602894,-0.4760127914,-1.1025084403,-1.212753476,0.1763136921,-0.2715552717,0.417709322,-0.7254649361,-0.1856054459,-0.5730817413,-0.1302118455,-0.1671345256,0.2413552528,0.2418046157,0.2984665607,0.0986683264,0.5513507426,0.6873843611,-0.5915093043,0.8230966542,-0.8840806689,-0.4269912821,-0.4200759014,0.3672460604,1.011365769,-0.0316619604,0.9359876023,-0.2324329743,0.6111897727,0.1157673605,-0.2013874477,0.4814583765,-0.9747171066,-0.7011845491,0.5684509423,0.117733684,-0.7436695874,0.8407048524,-0.5387080366,0.3505603743,-0.9393588914,-0.632061672,0.0609444709,-0.4629578937,-0.79898962,-0.9144336601,0.3056764749,-0.6461729166,-0.5353330043,0.378753713,0.815194805,0.7973451107,0.2104735167,0.0934091269,0.3353831102,-0.1751871684,-0.917543454,-0.3961616807,-0.6799363704,0.1580910658,-0.4799972942,-0.7411685619,-0.3755427384,0.7400175555,0.2025680256,-0.6590219356,0.9318149553,0.8146633286,-0.5612991034,-1.6147400898,-0.8265610789,0.7061240481,0.8193967836,-0.2948122379,-0.7736081161,-0.8439293798,-0.56151717,-0.6366965097,0.0567121214,0.5219845747,-0.2910162695,-0.6164871089,0.3886368375,-0.3332454437,-0.6424963824,-0.5475166143,-0.7265719448,-0.1759189359,-0.5813600999,0.0600637908,-0.8133661958,0.7936931635,0.3372989916,0.6562723323,-0.2512297262,-0.0466726131,-0.600011935,-0.9564428442,-5.9951108044,0.168382163,0.3466695184,0.52345761,-0.2242936926,-0.135579172,-0.1642352257,-0.6187627481,-0.7488263723,0.6221072408,-0.1064325568,0.006029287,0.3514729746,0.3311077594,0.4327287369,0.745175509,-0.4903141587,-0.4434688846,-1.2664827637,-0.6363114294,0.536086111,0.1220776881,-0.0396437373,-0.1001830216,-0.3142344199,-0.7014003646,-0.8028008814,-1.0085075705,-0.3445440469,0.12305158,-0.540034023,-0.2058315395,-0.1177703115,0.3239173563,0.4231050865,-0.0774773544,-0.3544973835,-0.4321316609,-0.8163013998,0.641146652,-0.4094488264,0.8230011426,0.6481195321,-0.9261210636,-1.0442900604,-0.5936966941,0.535178865,0.2364222179,0.2115745832,0.161354794,-0.39755251,-0.1429651444,0.4910496395,-0.7084672081,0.3320742779,-0.0816063069,-0.908320095,-0.7337688974,-0.4099469126,0.2686427448,0.5931863702,0.5281370003,0.736282558,-0.2148778482,0.9892643037,-0.7692442494,-0.1618766573,-0.0184328446,0.1750110354,-0.2973262621,0.4934822157,-0.8949969924,-0.3618198084,0.1641984575,-0.2382437266,0.265357436,0.8371116496,0.2727823957,0.0333205908,0.5353512578,-0.2995632219,0.7178643703,-0.2167508256,-0.9676640979,0.0295714325,-0.8428189015,-0.1502383755,0.9929581305,0.1017053988,0.5013049422,0.3438601244,-0.5450968053,-0.7436278725,-0.0340500418,-0.3168963417,-0.0967696633,-0.084847541,0.7646720007,0.0528224642,-0.3168323606,0.8559401922,0.6909462976,0.3503563022,0.2491046306,-0.5710079199,0.4264039507,0.1051042264,0.2342310085,0.3278651435,-0.7262348141,0.1828378094,-0.2311377807,0.6913072008,0.2112567064,-0.6734603076,-0.2180098268,-0.812855222,0.5569687949,0.4114857104,-0.3473142573,-0.0737198094,0.7491677526,0.8128323578,2.5041219449,1.132701556,0.740615242,-0.6512729416,-0.3347858679,0.2651387685,1.151639573,0.979272854,-0.0795392092,-0.5270604612,0.2328305755,-0.9200285213,0.6024803727,-0.5900106421,-0.0726214149,-0.6664569252,0.8040189826,0.020634814,-0.6259837993,0.9343654041,-0.8149123103,0.8320605161,-0.868656597,-0.8581706259,-0.8512430483,-0.921169079,-0.1417547732,-0.6430207455,0.7910124261,-0.281453726,-0.6808165734,0.5346986541,0.2488635709,0.9927599038,1.0086875146,0.1062459514,0.1414711926,0.6772214056,0.3389756041,-0.7306723846,-0.8588573106,-0.5430678462,0.4695453736,0.0274967197,-0.9636711188,0.7499983813,0.5858428133,-0.1204875588,0.6282299163,-0.5171332331,-0.1830330734,-0.7326382957,-0.4118663861,-0.8727601939,0.9186261908,-0.1490396898,0.5735373207,-0.7134729702,0.6048599717,-0.6975188875,0.3316505059,-0.7214270995,0.0488727921,-0.5418033518,0.5404708415,-0.070199876,-0.7355620419,0.3347676626,-0.5298007522,-0.089997203,-0.699675851,0.467525099,0.0234947609,-0.07137649,-0.2977675562,0.195484201,-0.7912194169,-0.7299931532,0.7099672092,-0.3612963149,-0.2047573297,-0.8613891344,0.6302059012,0.2204767438,-0.4002682401,-0.0654844462,-0.1945333581,1.2059192486,1.1257400403,0.8106045117,0.2389173219,-0.7824626939,-0.6668298048,0.4303404543,-0.363245633,-0.2177516817,-0.1162742337,0.8698578315,-0.1710174335,0.2888622346,0.1558558839,-0.6208657121,0.2024553695,0.7727484652,-0.3545018603,0.6987286168,0.9648887532,0.209717022,0.2835581999,0.7827778268,-0.9181105558,0.5071244908,1.0061689148,0.3749942111,-0.4120914353,-0.5379608797,-0.4264805928,1.0057479569,0.5290930079,-0.3882779268,0.387409192,-0.2363081552,-0.6657336318,-0.3657829515,-0.566912396,0.6214157737,0.2019089775,0.8265194189,0.263410695,0.6945846869,-0.4627001757,0.5330271865,0.3655470886,0.2034679874,-0.1995897606,-0.6826072589,0.7663379611,-0.0120051895,-0.0595771435,0.6386183004,-0.0168350586,-0.6155642053,0.8782334569,0.0775833292,0.067186716,-0.9466384933,0.4334984182,-0.1814246274,0.1780038065,-0.5359788971,0.20101849,0.7088096667,0.0373594928,0.53915182,-0.3505830514,-0.4757813575,-0.3906038372,0.5612441428,-0.74392034,-0.5784575899,-0.8349045806,-0.5172316094,-0.9161797802,-0.6634553414,-0.4003562533,-0.3753082547,-0.8252700643,0.3571223158,0.9647644201,1.0093658645,-0.8184082956,-0.8358973289,0.7860700536,0.7387132579,0.4135043381,-0.4465398843,-0.702495607,-0.4654711915,-0.4142853855,-0.9201836726,-0.3678414155,-0.922604818,-0.5419561366,-0.4532893295,-0.0514311058,0.8429054867,0.965417045,0.4985209504,-0.2919808611,-0.0268212886,0.0736751718,-0.3365044061,-0.1974385191,-0.7402964572,-0.5583613961,-0.4553953735,-0.9498680656,-0.2036744751,0.42482806,0.2176140827,-0.6901026596,-0.0885877284,0.2784405196,0.2757916931,0.5468105226,0.3223383494,-0.9288884878,0.2668229563,-0.5408752506,0.0059475475,-0.0130567102,-0.6911118746,0.0573924806,-0.0596595451,0.0914128718,0.2214357499,-0.8738800456,-0.2454039357,0.1706494933,0.6283456108,0.0703042426,0.6010184549,-0.9715604054,-0.244877637,-0.3785790174,-0.0126151818,-0.9318381794,0.5012491469,0.7827613337,-0.6032899354,0.500839401,0.0908301989,0.02128723,-0.9132701678,-0.4468977147,-0.2907436336,0.1060071197,0.7053608535,0.9620765679,0.3908632851,0.534451092,0.5866688019,-0.5264523004,0.8299029842,-0.6629880484,0.0242770253,-0.1067374835,-0.5858240706,0.7230791788,-0.1378668617,-0.701966401,-0.6835477518,-0.2095596,0.2216575793,-0.0756567118,-0.3333044975,0.2694103507,-0.6531121759,-0.373547729,0.9023085664,0.9796438285,0.4418432303,0.5135385235,0.5638839929,-0.5900393022,-0.0234087481,-0.8060210884,-0.9348886306,0.4367765509,0.0718376562,0.5081349795,-0.0840837791,0.0639706733,0.212736992,-0.2134068315,0.1066458858,0.4829892689,0.9879503112,0.1336207014,0.7958346926,0.8930274517,-0.6065891201,-0.433365555,-0.8078843644,-0.5394858455,-0.9160121327,0.3766292044,0.7628252245,0.6692308737,-0.0883121602,0.3192527901,-0.0201270449,-0.9221508638,-0.1878258941,0.2466754087,0.7708597053,-0.8244057,-0.5715175663,0.8116751228,0.0280001479,-0.1657384963,-0.0062278173,-0.1163091467,-0.6272431198,1.0153958416,-0.4607967288,0.2350090607,0.9215613797,-0.0788579234,-0.7109561566,0.5355916024,-0.474246975,-0.3438348354,0.2452541827,-0.0153111473,0.6926730412,-0.3169298868,0.6551548492,-0.588620644,-0.055270854,0.935300021,0.2926365608,0.3370875923,-0.6287870451,0.6644843931,-0.6787301879,-0.7303875183,0.8945008449,0.7950745052,-0.0121959196,0.7735338435,0.8640588622,0.3498782877,0.4493429095,0.9910378643,0.8760705108,-0.9105278427,-0.5412892431,0.086110167,-0.2666424939,0.8750467136,-0.5665803764,-0.2943654952,0.1888435798,-0.6080945229,0.9740176001,0.9855148196,-0.4776571173,0.3750066433,0.0434008898,-0.7809980359,-0.0482809667,-0.4752502092,-0.4957607723,0.6786113739,-0.4890523446,-0.7034223267,0.776522435,-0.3984986948,-0.2985139664,0.1786628289,0.7586530576,-0.7088740767,-0.3790150945,-0.7287071223,0.0420136534,-0.489773936,0.3621132774,-0.387613535,0.8548489712,0.0997344047,0.8986029303,0.6612959938,0.1253024456,0.7034749496,-0.739678922,0.9818342673,-0.3451854263,0.2043984699,0.8686001121,0.1598429023,-0.0485399623,-0.6071790208,-1.0047714859,-0.6087876666,0.4261216616,-0.8511293435,0.4567308694,-0.5076811435,0.0144251044,0.4181251978,-0.1892038229,-0.3215354008,-0.3385183385,-0.3919853842,0.3401300842,-0.2487470492,-0.4002931761,-0.6393208355,0.6740786614,0.9735257808,-0.6719524946,-0.3342470686,-0.1022580071,0.0804462431,-0.5772729915,0.45534246,0.6129801077,-0.5031206755,0.7191760883,-0.9954755032,0.0864231406,-1.6770966574,-1.3051054268,-1.509472326,0.3454170607,0.6973295431,0.296022815,-0.3349304704,0.1633177734,-0.6894533949,-0.8087909314,-0.447657429,0.8120033461,-0.1078218883,-0.3869028377,0.3743120929,-0.5058150188,-0.1035400562,0.9081868401,0.0841640899,0.4486044409,1.0354444564,-0.4973501272,-0.6238943951,0.7971427498,-0.5611401204,-1.0074983324,-0.9923149166,-0.3514993143,0.2207770145,0.8517222368,-0.5138981767,-0.0680887528,-1.0281631711,-0.6103447184,0.578563836,0.4631792554,0.1614822009,-0.1679314012,-0.7959623418,1.0161320479,0.5570806393,0.9755120559,-0.6764540813,0.7019048735,0.5934662265,0.3938958764,-0.8456614881,0.1798436108,-0.57503418,0.6990124654,-0.759716974,-0.9164434274,-0.5789809487,0.3116497701,0.7080783299,-0.4525830582,-0.7175219257,-0.9423332823,-0.0066604243,-1.0751662782,0.0511867566,-0.5744426974,-0.7149210728,0.8338626713,-0.8991463128,0.4935787112,-0.8628788857,-0.9670445877,0.7456554168,0.1817857893,0.9904774344,0.1788295089,0.9442514336,0.2652989623,-0.5510153318,0.0645166821,-0.2542088502,0.8463000997,-0.921218796,-0.9791641331,0.7789447103,0.5873608003,-0.7664227559,0.1593250076,-0.1419513005,0.483786916,0.6349952971,-0.1247624806,0.7151397156,-0.427983017,-0.0808865509,0.2435979978,0.7779845158,0.0592372077,0.9750810487,0.6791804719,0.62892783,-0.1688948266,0.3056266614,1.0601115593,-0.1069992778,-0.2942083019,-0.2583584675,0.9912301165,-0.1987650864,-0.1191813817,-1.0273029621,-1.0102090394,-0.0568738681,-0.689310711,-0.0884045169,0.8355408176,0.2319201105,-0.2521444212,-0.4139491953,-0.9414074293,0.080192806,0.3284355589,-0.5411147813,-0.8372249257,-0.9777791679,-0.5941265367,-0.262423648,0.1831272855,-0.3543965366,0.9844226851,0.1822281663,0.1677148343,-0.2298815896,0.7248894961,-0.8568018672,0.3115478728,0.2930333766,0.2096116161,-0.2405307744,-1.0568302643,0.0419376622,-0.8373057102,-0.0890349974,0.891048695,0.2154431061,-1.0455675022,0.2737740698,-0.6357494284,-0.1411232128,0.7264987496,-0.1991703603,-0.5835250321,-0.5736428882,0.144082802,0.6301110195,0.1861122403,1.8923739718,-0.1613744481,-0.0178884323,-0.0590197853,-0.3137993557,-0.7308429976,0.3817352362,0.2730000627,0.7081318748,-0.1435043274,0.6836024975,-1.0738291473,-1.017987173,0.7095817864,0.5413428986,-0.2052771622,-0.7492675073,0.4498415984,0.5252291216,0.1744637626,-0.9319911091,-1.0118696317,0.1953724434,-0.3914678317,0.0554005396,-0.6792416344,1.0112847863,-0.1832337232,-0.1261549865,-0.8739608493,-0.3172373681,0.545621999,-0.5433944991,0.3193107065,-0.9681189083,-1.0131394386,0.0581066222,0.3430308957,0.1569883657,0.1683777404,0.7677024851,-0.5773785864,-0.0279299141,-0.4825277311,-0.7946752359,-0.9117934404,0.5648454728,0.2714436021,0.9413300264,0.0197926583,-0.1727353884,0.4451907952,-0.8419535665,0.6807435347,1.1046600179,0.7900070173,-0.1137374435,1.0388324543,-0.7344409491,-0.1508565132,-0.390818965,0.2259636218,0.4676597387,-0.3524325637,-0.740322622,0.0969910883,0.3337100078,0.3951429087,-1.0127379496,0.1992988794,-0.4344934134,-0.5857937232,0.0012794215,0.3662949714,-0.104693422,0.3080534274,0.4562753734,-0.3415100021,-0.1944313347,-0.3144126162,-0.6408423826,0.0226627666,-0.2417784107,-0.8821164501,-0.7565605507,-0.1929609117,1.0330104287,2.199084654,1.1845593079,-0.0665154534,0.6801686303,-0.2377904243,0.6685927059,0.5824884527,0.1359880157,-0.1060409962,0.7090857672,-0.9454425103,-0.0602241192,-0.7962250578,-0.5457621724,-0.3698544126,-0.6493425232,-0.8494198529,-0.8795090825,0.7324254342,-0.2405946403,0.8901095188,-0.893469228,-0.467057196,-0.8760173692,-0.5223448916,-0.0648257942,0.7927779056,-0.2908556744,2.7342801918,0.6990770977,-0.4428886352,0.9014856825,-0.3120756106,-0.5839752966,-0.5885640203,-0.5859012133,-0.1816867197,-0.5815457374,0.6001060039,0.3349055061,-0.3850274267,-0.582061426,-0.9849163434,0.7298842374,-0.2393886589,-0.4141527257,-0.578784921,-0.4549372619,0.4217075461,0.9114952851,-0.7068664314,-0.6013722124,-0.1482364398,0.9931998626,-0.470284761,0.548993155,0.7754022724,-0.7693278982,-0.3519104046,0.7120350016,-0.6864574051,0.2705299821,0.8974430591,-0.4243048322,-0.736090914,-0.7959711148,0.2696338781,0.2689306698,0.1403247951,-0.7309960364,0.2836969694,0.0107049987,0.8708431618,0.6805634192,-1.0593677255,0.0181972104,0.2675514735,-0.1645833951,-0.4057671637,-0.2819424813,0.7140886157,-0.4362741665,-0.4842012034,1.0267947567,0.4933564168,-0.1022731456,0.5556169778,-0.4475291198,-0.52245593,0.5822144716,-0.066984843,-0.2427173164,0.8383247065,-0.9279299997,0.2893001352,-0.181798741,0.2798378564,0.1323834949,0.3202751592,-0.5137315538,-0.0872985562,-0.0304272168,0.8913489161,0.1089570185,-1.0420063365,0.1414507116,-0.0553351268,-0.9405587688,0.2897346923,0.0788069588,-0.8706375912,-0.635991453,-1.0541647279,0.1984344634,-0.4186741343,-1.012137915,-0.2241702425,0.7718911165,0.4878191436,0.6787114411,-0.7881973947,0.0048176856,0.1554966049,0.026375435,-0.8219925541,-0.3316777526,-0.0420556515,0.3273652215,0.5182662567,-0.0879608058,0.8488136294,-0.0285138098,0.1114511764,-0.1822705804,0.1451421735,0.8518928937,-0.8567926476,-0.8129104893,0.3827168513,-0.6097566387,-0.8372317301,0.0846371864,0.4759214054,0.6115463968,-0.7575759581,-0.8768613048,-0.6691474216,-0.8016777149,0.3214476803,0.673796046,-0.7280345078,-0.3962618769,0.2465657693,-0.6363125398,-0.7958321722,0.8380040953,0.5205704954,-0.9931670459,0.7859970585,-0.5135549998,-1.0766493243,-0.0416672555,0.4512367702,-0.0473544722,-0.9482687047,0.026346255,-0.732586515,-0.6736009078,0.6661277658,0.8706837115,0.608290624,0.3615546981,0.7410247526,-0.285801359,0.2339576923,-0.9924581365,-0.3131284153,0.5238174431,0.2582210658,0.7792623901,-0.9754046644,0.4091230868,-1.1236041146,0.0592761758,0.1143886949,0.5743442145,-0.8575799417,0.2538198517,-0.2252845825,-0.5487717099,0.2752326694,0.3495683762,0.0635349433,-0.2969522461,0.2301214456,-0.4208392088,0.0029532887,-0.2429690264,-0.7496081207,0.8097777756,-0.2235759725,0.3772796302,0.1266702962,-0.2413608803,-0.1338393039,0.2534327363,-0.0988657089,-0.8795743964,0.5728541994,-0.7998827575,-0.1954378672,-0.9380636563,0.0793765089,-0.671779209,0.4427100213,-0.236647748,-0.2239370779,-0.9708923611,0.4327273407,0.3705898431,-0.6811445427,0.4479163489,-0.8682001466,-0.0107014183,-0.5314818483,-0.2226470328,0.65563354,0.3630200729,-0.9297310916,0.4713973867,-0.1561628646,-0.4311564459,-0.356438758,-0.6554923223,0.0812411476,0.7134077104,0.6788291665,0.7718258427,-0.3143363405,-0.2289328007,-0.2637730518,0.3448636745,-0.6583781451,0.1031617781,-0.9980375193,0.1072114331,0.2939625718,-0.0317830674,-0.052650666,0.8830204864,0.1627252062,0.5271816759,-0.2904920081,0.5144263596,-0.9755000256,0.6493981575,0.8056037299,0.1743371568,-0.2182571949,-0.7893791567,-0.2801423654,0.6654706601,0.046557415,0.4716295753,-0.1627365865,0.4931083809,-0.7461375973,0.6724661969,-0.0844756842,-0.5796889106,-0.9473342825,-1.0142807773,0.6142989643,-0.8748901372,-0.4167918086,0.040767515,-0.3527539684,-0.9704772436,-0.0151036365,0.2865395735,0.8630709536,0.1688189283,-0.9419115689,0.3156815422,0.35481767,-1.0156320647,-0.5831566553,-0.9840544178,-0.8164705035,0.0037419551,-0.6328149039,-0.908808144,-0.7259162372,0.7792297001,0.4473534971,0.4162785886,0.4735288513,-0.2832459973,-0.985774795,-0.8179051389
   0.612774343,-0.9890898207,-0.0688743906,0.041650818,0.1887135924,0.5580520525,-0.8921747935,-0.1834511322,-0.3369774427,0.6404553941,-0.1493908853,0.6763867682,-0.4387160473,-0.1253739281,0.4980123515,-0.5778149869,-0.6069409368,-0.7967455999,-0.0935890882,-0.6234111523,0.1493873055,0.1215706368,0.7089753413,-0.3966038774,0.3939656647,-0.8758614756,-0.7595402417,-0.8021019166,-0.1859456533,0.7635414697,-0.3595699932,0.4809534604,-1.0019412632,0.4192765836,0.2951376288,0.6203253042,-0.4133269871,0.0069335502,-0.9538995853,-0.2207808004,-0.6604966143,-0.8936543584,-0.7145376299,-0.9233429283,-0.3730455484,-0.5173008482,-0.9436788342,-0.2012187118,-0.8473391007,-0.9490904073,-0.8754528376,-0.7661260434,-0.7886568745,0.6801861128,-0.0228305737,-0.4906269983,-0.1765677525,-0.9963875979,0.6487833817,0.4973681458,-0.9097364199,0.190381213,0.6438747715,0.2396654375,0.8855734644,0.0337637941,0.5456059073,-0.1365392587,-0.8339423352,0.9500935778,0.7076314482,-0.2165713978,-0.1075409262,0.2863116493,0.1424519095,0.1344061063,-0.9986632926,0.9036805389,-0.9954829258,0.7864114685,0.0403522578,0.2564824123,-0.357379681,0.1843813926,0.2847613737,-0.2079316424,0.2897273854,-0.3632538508,-0.2172296139,-0.0111445826,0.2850715911,-0.6878767479,-0.6672692802,-0.7909293098,-0.9679029969,0.2129247611,0.808634387,0.7591065337,-0.3621225611,-1.0071777732,0.9306822152,0.5352317312,-0.8161061828,0.4794215713,0.8578035464,-0.8910427339,-0.4179128498,0.6452758976,0.6452472487,0.500689757,-0.3388342979,-0.6732875024,0.468322494,-0.5558487426,-0.8503664202,-0.0763193301,-0.3750945476,0.2578294314,0.2164914672,-0.5042204517,0.9298720794,-0.308166389,0.9202467198,0.0058243768,0.5398936638,0.6158183927,0.2054230991,-0.5678310107,0.8425936649,-0.7944356395,-0.376187249,-0.4260508904,0.4833622959,0.5298988946,0.9314416528,-0.5565889788,-0.1941034593,-0.1143738901,0.9648873189,-0.2045795717,0.6428166575,0.4862718559,0.6246088649,-0.5364236979,0.7986696947,0.782870779,0.2746305163,-0.6788976409,0.3558106278,-0.162806054,-0.1749766944,-0.1488319151,-0.5190065723,-0.2994171131,-0.4185153643,-0.0793654931,0.1492901107,0.1230107353,-0.7842682697,0.0387511077,-0.7999970865,-0.8426649015,0.6961618067,-0.5567339108,0.1216146338,-0.6826876889,0.8656876823,-0.5402898268,0.2077533582,-0.1282064384,0.5665336384,-0.4332516357,-0.9043103709,0.0722032826,-0.2362687464,-0.9777535344,-0.9439844995,0.7384082041,-0.7087885562,-0.3970103862,-0.6435570615,-0.8046737056,0.0089634686,0.798218771,0.7511154545,-0.3029343501,0.2766679841,0.4308313233,-0.1063326493,-0.9246607504,0.1422280017,-0.8538944441,1.0242140534,0.5318576403,0.5665733673,-0.6467679671,-1.0833354366,-0.1489797793,-0.755958996,-0.2774243903,-0.418424493,-0.3289110264,-0.557462708,0.8164284194,-0.9089545955,-0.2981703769,0.8539436124,0.0448126388,-0.4552811839,-0.6880200257,-0.9447558232,-0.1302970781,0.4171544888,-0.6822979437,0.519513882,-0.6768491322,0.5752503767,0.0461815235,0.0307360564,1.0525344103,1.0373807182,-0.4804542575,0.1193109503,0.1873103743,0.7788896806,0.3315675509,-0.5583024859,0.5931680881,0.5132936462,-0.9593023473,0.3085429248,0.7259854416,0.4822821544,-0.8698643895,-0.4177628487,-0.0216760407,-0.6437646107,-0.315457242,-0.7121699727,-0.178881182,0.1714223608,-0.8576291591,-0.5697099446,-0.2517466187,0.5089919329,0.2348142001,0.0910359394,0.6230206537,-0.1806820857,0.9701485016,0.5938652813,-0.7411412633,0.6495476414,-0.0323538634,-0.2823229476,-0.2061412735,-0.9652262409,0.2681991598,0.2659560799,-0.3139069214,0.2709379513,0.4279192664,0.1821449093,-0.7766923047,0.4242903256,0.2451590137,-0.9308448364,-0.2776278712,0.3056120455,-0.6488486511,0.3126966753,0.41119712,0.9431555514,0.3634308935,0.857604503,-0.6991795855,-0.4779470042,0.4230829919,-0.0258526457,0.4633755155,0.6372822487,-0.7308266617,0.6115849373,0.2252327903,-0.5500987124,-0.0624099938,0.1097181749,0.4999439224,-0.5461922894,-0.6200015549,0.588732545,-0.8093982967,-1.0117864216,0.5469470849,0.8735730606,0.6371551348,-0.7896652907,0.3076312144,0.8506474401,0.2164873062,-0.3340071304,-0.3900968741,-0.0042328847,-0.1580089333,0.9946548606,-0.416504696,0.3675831726,0.2909543401,-0.1845075085,0.8123650684,-0.6077188173,-0.0413754877,0.8919340587,-0.4570775072,-0.7193586802,0.1142056744,0.5607739497,-0.3755184958,0.3394963813,0.5370790076,0.4030520965,1.0239607089,0.5070818139,0.2269626655,-0.374451909,-0.1221986213,-0.4982569642,0.7958796187,0.8364257631,-0.6744325124,-0.6941844575,0.7024012224,0.0145168692,0.2733449121,-0.9024115966,0.2121424944,0.631731518,0.7063177957,-0.7535634999,0.698150143,-0.0732039119,0.1901447566,-0.9303475832,-0.5221850699,-1.4217965732,0.6753697993,0.5362939708,0.8683998684,0.0208437895,0.638707187,0.1735481183,0.4675312085,-0.3496788342,0.0655097798,-0.3634735571,0.4934016429,-0.3479007523,0.4974221993,1.0030921059,-0.7562568935,0.6590966412,0.1053733548,0.5449028423,0.7232664695,0.8703085437,-0.0730621565,-0.7615648193,-0.9934487044,0.5033157639,0.1527498099,0.6508411698,0.6590858239,-1.3090907568,-0.4334460874,0.2148042919,0.7304951895,0.4620546184,0.3211784731,-0.0461825771,0.7171893372,0.6078819031,-0.769232042,0.4230826422,0.7132234628,0.9431020161,-0.2493387573,-0.6144366677,-0.0925209175,-0.2535759054,0.0038973148,-0.648911059,-0.3131453741,0.2300316578,0.2127690977,-0.4841660202,-0.8214777721,0.8352770787,-0.9113589392,-1.0714205582,-0.0480561087,-0.4848087925,0.6977627018,0.9135425217,-0.7005872076,0.814990741,0.0725262967,0.1553567493,0.1296836793,0.5287472515,-0.2875876306,-0.1401709669,0.736238654,-0.2049850656,0.3605401978,0.9188626343,0.5946222402,0.5364483239,0.6345508065,0.3026774886,0.5652803697,-0.3321344242,-0.2908778339,0.9147707817,0.2869233287,0.197583122,-0.7595252917,0.1209302866,-0.3188299199,-0.8865111106,-0.8420452034,0.952239084,-0.3110394207,-0.2623946706,-0.1801204516,0.3826125234,-0.5289475357,0.6556235699,0.3652482365,0.6641368541,0.1934530269,-0.1409071563,-0.9109564313,-0.9579344459,0.9739208177,0.6857014799,-0.8058853042,0.9935722935,-0.6366283827,-0.7351040809,0.5512504208,0.1989923123,-0.0708246109,0.2560881594,-0.669267285,-0.4117795812,-0.3171896572,-0.6446413441,0.0127626573,-0.7969449381,0.5656475067,0.2544456572,0.571845806,-0.7091146412,-0.8957609974,-0.693286349,-0.7609076508,-0.0337226386,-0.250882738,-0.3127282092,-0.047705414,-0.6214944863,0.4504454552,0.2547706156,-0.9588201246,-0.1816581202,0.4251613101,-0.4330125625,-0.5831755347,-0.7731422961,-0.9016569212,-0.0816477335,-0.3479742223,0.5837281856,-0.9647533147,0.63166028,-0.1003591398,-0.0625509823,0.2774614304,0.6943979373,0.7692598561,0.6590735096,-0.8777298622,0.4630827146,0.5882160074,-0.3620917777,-0.0085675263,-0.1733888941,-0.0924027552,-0.8693425879,-0.6494980036,0.6763359987,-0.3150462251,-0.2869152859,0.5885058047,-0.7596249069,0.1565157996,0.4728266978,0.6225278259,0.0713380867,0.4214922101,-0.7606680209,0.6869832865,-0.2945248356,0.3418335088,0.3467674053,0.7812374828,-0.2069888452,-0.1653072807,0.3163229285,0.708047459,0.0667088859,0.5311220635,0.0161426676,-0.8441529906,0.1791833062,0.0774462383,-0.5350956044,0.0201877724,-0.1527930937,0.6057867096,0.0486003521,0.7534965467,0.1297268201,0.6863921917,0.7768850613,-0.8512767253,-0.4319008949,-0.8375260423,-0.6585105523,-0.2262561323,-0.3135839858,-0.086092731,-0.5167457278,0.6792159023,-0.5908368998,0.2417556873,0.5608544913,-0.1234419603,-0.0987689387,-0.5968321119,0.2403281918,-0.787326555,-0.6223820342,-0.9123118345,0.1608208763,-0.8293803756,0.312843232,-0.6016019357,-0.6580327772,0.9916042044,-0.292042201,-0.7573515128,1.0176957142,0.9270063953,0.9849277344,-0.0595374171,0.3121628745,-0.3041395974,-0.6737101729,0.839189421,0.960226964,-0.013688099,-1.6345157849,-0.2313511267,0.1811015022,0.302530088,-0.2258831003,0.7386199566,0.3333731897,-0.7581856846,-0.722639685,-0.7004261233,-0.7747443412,0.3900182038,-0.357789226,0.1769311535,0.0563423345,0.716855779,-0.2586709513,-0.1555383856,-0.119680285,0.2901133785,-0.5434514981,-0.7970799759,0.862891212,0.9457496349,0.7752828465,-0.4004710071,-0.6154194258,1.0021605509,-0.3042489451,0.0600285875,-0.6583082901,1.0127644726,-0.7622024021,0.2403453935,-0.1675893547,-0.4628907595,-0.7735554965,0.4345420995,-0.7606291652,-0.3480519444,0.3534117081,-0.5824403335,0.8794120502,0.7743430876,1.012422869,-0.6263594571,-0.9282518509,-0.8217229403,0.6321642801,-0.4301782786,0.2634951141,-0.4917540776,-0.5644735571,0.477204102,-0.4601444762,0.2635865955,0.9671033078,0.5576592222,0.7911107281,0.7538269848,-0.4233120704,-0.1737420592,0.6911590071,-0.68160386,0.2913278813,-0.7690457059,-0.4094609609,0.4236290881,0.2992339003,0.1133962085,-0.7740220869,0.3462509201,0.1034682148,0.8543643579,-0.6035186051,-0.8418826599,-0.3257198821,0.6794433657,0.3635844938,-0.2721469813,0.2708389091,-0.4947647494,0.4605498633,-0.0034825538,-0.5262834096,-2.6653667294,-2.011881259,0.7776170338,0.6586136563,-0.1812835315,-0.2264047432,0.0875894002,-0.0688914616,0.6045691895,0.4288452076,-0.4739182829,-0.0177083925,0.3472821782,-0.8305299402,0.2599614709,0.1433507106,-0.807433682,-0.7071259726,-0.4634897512,-0.4074190427,-0.0125201376,0.0410689519,-0.0107013324,0.8254353301,0.4656220763,-0.6616586749,0.0246777735,-0.9463428814,-0.6205745656,0.1431879977,0.6430808339,0.2109943287,-0.5364919791,-0.9543224934,-0.2864707399,0.6648770962,-0.6116743931,0.4743157788,0.8925353488,-0.4885486492,0.3877373036,-0.5591037926,-0.4078628212,-0.0466770901,0.0518050384,0.0680476972,-0.2184329511,-0.1990502178,-0.6935477903,-0.558741888,-0.0391817409,0.132341198,0.0585497756,0.063107065,-0.5803946375,-0.14996057,-0.210699885,-0.9635998517,0.2179768606,-0.6766761049,-0.8216027634,0.3202224684,-0.8276514339,0.2479622106,-0.0362265452,0.198408932,-0.8813631032,0.1557365039,-0.6624462778,-0.7072335769,0.4128770357,0.8483439462,0.8532428436,0.306731129,0.5129317165,-0.3216853087,0.3236333549,0.4078421019,-0.8750231112,-0.1801000994,0.5261605435,-0.1124107643,0.9706504246,-0.8227224414,-0.5010623807,0.384514554,-0.5454630542,0.5060443379,0.5549541884,0.5745950163,0.9282404667,-0.3262082807,0.4564113839,-0.399388502,-0.8583042486,0.5831245336,-0.8431372848,0.7179731528,-0.8905562095,0.2992926435,-0.9362838043,-0.6451397467,0.6735774194,0.4007411291,-0.4562427043,-0.3364492196,0.7075799175,0.353382885,0.3263033673,0.6687125184,0.529855812,0.394547986,-0.7025128296,0.1410279572,-0.0298424097,0.0585736734,-0.5071272065,0.5367835786,0.9788245281,-0.3575849539,0.4455367114,0.0305045689,0.3599515467,-0.3021390083,0.9401468289,0.5034865792,-0.6387237255,-0.4170218465,0.1388008982,0.3443431094,-0.3214848823,-0.552991383,-0.1677135926,-0.9678327201,-0.2904958735,0.775722569,-0.2403150043,0.4383066926,-0.4575328391,-0.4600741274,0.1716958829,0.3801898785,-0.4869091718,0.2244701382,0.9296171459,-0.6549083529,-0.0644001637,-0.6923840267,0.9030242802,-0.1222321277,-0.2358593128,-0.6255289752,-0.2728657706,0.8387178139,-0.8839469196,0.2471565328,0.3602327406,-0.0073586471,0.7144365172,-0.4138197723,-0.6454774851,-0.4767815252,0.5964504737,-0.8334346642,-0.9431158382,-0.1976568104,-0.6121552049,0.5898566797,0.9598127903,0.0542990486,-0.7944993824,0.692522429,-0.8561643946,-0.3794402492,-0.5986880034,0.450859922,-0.5229571011,-0.0183723397,-0.1346600511,0.7767101982,0.2903106243,-0.120212523,-0.6961066197,-0.7934592328,0.5080181733,0.2949330679,0.0755773039,-0.4801033836,0.1748037036,0.4788698528,0.0878484196,-0.5337682224,-0.7129295793,-0.9746301976,0.0956679723,0.7828696116,0.4466557138,-0.6298634428,0.8493933953,0.3238867538,0.9155000326,0.9692679874,-0.7420384169,-0.7236573178,-0.8615331133,-0.3225601182,-0.1416511772,-0.9703976186,-0.1944158965,-0.7128718775,0.3738305476,0.5662567015,-0.5425483243,-0.4144932166,-0.2745122637,-0.5707000806,-0.6462501213,-0.5798028275,-0.2483238015,-0.9012574186,0.0609487352,-0.898936842,0.4596325099,0.7261089332,-0.7768719954,0.0150112326,0.2318496682,-0.2148040825,-0.7260202132,0.4886738687,-0.7112804226,-0.8127069761,0.3563072451,-0.6217406231,-0.3019091912,0.7487297717,0.571037085,0.109799907,-0.4962349938,0.0411744292,0.3944863248,0.7875505293,0.7076677972,-0.0174345945,0.4504275723,0.979864785,0.8798630973,0.5657395982,-0.7057539889,-0.4482457846,-0.864251803,-0.5077363266,-0.4786686779,-0.6579991291,0.6036258425,0.1713077415,0.7601955775,0.6370474778,-0.2410239537,-0.0633775743,0.8802464112,-0.1927380706,0.5322959033,0.0310809342,-0.0648204966,0.8722317214,0.4250717289,0.8991747619,-0.3669786734,-0.5924888631,-0.3756677517,-0.7567474918,0.7919599841,-0.5734386308,0.7666813273,-0.8451200734,0.6536534453,-0.3272622167,-0.0083045216,-0.8972404122,0.5971880443,0.4659419243,0.8979469331,0.9118973264,0.237938475,-0.2560876548,0.4009978879,-0.6505641978,0.8718495551,-0.9426563357,-0.1915708979,-0.3772641648,-0.9792053836,0.9463611459,-0.6769660094,0.3436876042,-0.2868001529,0.1163723793,-0.5875982921,-0.0507491422,-0.8979709738,-0.5126836089,-0.2768854507,0.9588859579,-0.785828223,0.1392343621,0.2943563836,0.6639977991,-0.4138694606,-1.0091884508,0.8724851335,0.138472357,0.8887193138,0.3390638366,-0.6082224827,0.6935042737,0.7068553005,-0.9322702144,-0.2731024487,-0.0398964042,-0.1008128964,-0.5504198143,0.1911221156,0.2186245642,0.5959792978,-0.1087790672,0.0186971736,-0.4993436241,0.6476237164,0.6587330093,-0.7523619557,0.0168420389,0.291234014,0.5501091562,0.744171407,-0.9877677629,-0.8747504373,0.1960743913,0.6742753295,-0.4062937657,0.271622579,-0.4265251325,0.8529362713,0.0178164578,-0.2212218818,0.7481416819,0.1680257141,-0.204106926,0.1511508192,-0.4062805696,-0.140019435,-0.1630825695,-0.9042755188,-0.8302581759,-0.8444819306,0.2468592484,-0.8269314761,0.2755343546,-0.8129981727,0.363877636,-0.1898971764,0.2076433774,0.5245022889,-0.442003646,0.8266977783,0.5787174238,0.9087771259,-0.1564479265,0.0193738688,-0.4351992463,-0.7011233644,0.7722385148,0.3530244421,1.6054026497,0.1281983979,0.9222879735,-0.8519629403,-0.6412012552,0.2507253114,-0.205458005,0.9834175277,-0.5378627594,-0.8099618075,0.0770229968,-0.1882978056,-0.5263167551,-0.0747156217,0.0862910163,0.4394588111,0.6181288747,0.0219469681,-0.3836898554,-0.7548020984,0.7375896549,0.1324781011,0.542135019,0.7721397083,0.7515491428,0.6795333725,-0.3740087807,0.1674232836,0.943774526,-0.1089210646,-0.8419240228,-0.4987358428,-0.4271413939,-0.0583379718,-0.5445168373,-0.8812893328,0.5668957523,0.3997715127,-0.0727140943,-0.0293465704,0.9741898605,0.8995262079,-0.7277299937,0.891720129,-0.746196979,0.2480247466,-1.0055308415,0.5646807983,0.808926841,-0.3162596859,0.7345285704,0.4619921157,0.8178621933,0.3485303409,0.5385713034,0.2888669841,-0.4322636339,0.6969920201,-0.8072118191,-0.3451920059,0.1418610192,-0.5627128968,0.8874308564,0.743673179,0.7574329104,-0.1893422906,-0.5304634761,0.663293666,0.6913935096,-0.4669010149,-0.1633116415,-0.720009371,0.6778682206,0.9100119818,-0.6603995707,-0.1293221374,-0.2646117544,0.8687420834,-0.4931282488,0.9377933673,-0.2081715181,0.3960744021,0.0140843285,0.4678512936,-0.3653006913,0.9119685625,0.4290476916,0.5165748254,0.7000265619,0.8343170646,-0.7178739403,0.6442834728,0.8223185551,0.757812468,0.2468058251,-0.8337506213,-0.7114409209,0.6175376154,0.6431848111,-0.4795479002,-0.1579566742,-0.4474254819,-0.7052668648,0.558638268,-0.3158923458,0.2772010542,-0.9118126462,-0.2483175685,0.0718842736,0.2118231537,-0.8628799567,0.303765231,-0.548412301,0.5937052938,-0.2034377988,0.0069427687,0.4677413856,-0.2224613514,0.4436197477,-0.3073771511,-0.1975938762,-0.3460799552,-0.4813170686,-0.6271536077,-0.6470593876,0.1238108439,0.8977063723,0.0983463439,0.6085690898,-0.2841776004,-0.8325821323,0.9004079259,-0.1063674878,-0.3448289759,0.4063836713,0.4391293757,-0.5586325066,0.2764087833,1.0070018229,-0.2487271669,0.1803239337,-0.8961194272,0.3320148524,0.7674828072,0.8083618321,-0.4852379331,0.1580187168,0.9286275479,0.2566065546,0.0990625156,-0.0662707463,0.6298151748,-1.0530845703,0.6527831774,-0.2792355336,-0.4758325001,0.6758266831,0.9069371944,0.9382395795,-0.7771947118,-0.5676037467,0.6928434258,-0.8344521969,-0.656734133,0.6988304761,-0.4489023477,0.8156251846,0.1438228349,-0.4655555233,-0.5741864461,-0.3395549253,-0.0789781557,0.1949240797,0.6158008954,-0.7099165343,-0.8040668856,-0.8208359693,-0.589335673,0.1489135362,0.2087966226,0.7212067872,0.7692988285,-0.3840124289,0.5138724537,-0.4143207596,0.2920248867,-0.7329024223,0.7891325808,-0.3170725265,-0.4726266983,0.6424033898,-0.2335065841,0.045852174,-0.6670983483,-0.7942519472,0.3361125606,0.9939551888,0.8839517356,1.0072413583,0.7417518235,0.6410699974,0.4884848807,-0.1512116741,-0.9982093178,0.150260262,0.1654865752,-0.7485199491,-1.0434663074,0.5897599168,-0.411751242,-0.2134180047,-0.5033172876,-0.024516274,0.8828120716,-0.8207108302,0.6846115404,-0.0938425997,0.1924103652,-0.644046744,-0.9741771466,0.6372733584,-0.7855461773,0.4103356422,0.3862045596,-0.9087759515,-0.9147977836,-0.59159459,-0.960597055,-0.1098588129,-0.7037984042,-0.9582115235,-1.4245599692,-17.5691828679,0.0386241056,-0.6885001204,-0.2290038207,-0.2651338439,-0.0615365988,0.9474132876,0.5604962971,-0.1877860896,0.1760330294,0.9013587827,0.4288164534,0.8599187051,-0.4191481895,0.6488063102,-0.3758975791,-0.0808309083,-0.2927331573,-0.3933216546,0.0476649349,0.582951016,-0.376400563,0.5048291399,0.013223823,0.1604053825,0.7505054864,0.1810320356,0.8558987065,0.5159985175,-0.8156029097,0.9656754353,-0.8633920929,0.9647788473,0.7460515941,-1.0153121403,-0.5789235964,0.7235494157,0.8020016001,-0.1139784436,0.5820542812,-0.2812487577,-0.8337587635,-0.785250516,0.6273323843,0.1215560481,0.7793839603,0.1242872891,-0.9483628451,0.3231821858,0.6743073022,0.0670084121,0.5876279148,0.8841384718,-0.4045447371,-0.6551036717,-0.2831938968,0.0909925739,-0.9971674103,-0.413742212,-0.2238780854,-0.3979922721,-0.7833857978,-0.8268909182,-0.966773775,0.6721668526,-0.0689520951,-0.8681599741,1.0606193999,0.7574454977,0.4734873132,0.3388235664,-0.8594410368,-0.2796039107,0.9654244434,-0.0360577308,0.5845770794,-0.6539533787,-0.5450357081,0.4124737135,-0.5116694983,-0.6047876264,-0.6632750134,0.1035603983,-0.4838919596,0.2276908045,0.3769641981,0.4678703955,-0.1683035521,0.7861739387,-1.0092847854,-0.6459943651,-0.7750292556,0.7268003779,-0.1541436184,0.2869136568,-0.0398107203,-0.0798139117,0.6295765947,0.5147428948,0.2841128864,1.0234984266,-0.6735415305,0.9459255633,0.4022103548,-0.6168535727,1.0161304757,0.8277852963,0.1509938272,1.0305908553,-0.4469589542,0.172006897,-0.3331373039,0.5858253919,-0.5437209286,0.7965132125,-0.205990236,0.8020159966,0.6528533106,0.2787968993,0.5227315701,0.8951299248,-0.052516277,0.1832011856,-0.433467529,0.4912020399,0.1646630166,-0.1870675875,-0.039695828,0.3925940861,0.6198648254,0.9191631296,-0.2178760624,-0.763789932,0.7894835111,0.9538455031,0.8655787653,-0.7392574004,-0.1344093153,-0.3578109353,1.5996116041,-0.6247890312,0.9353251,-0.4339511171,-0.7256645741,0.2962223039,-0.1025996823,0.0301578934,0.9363957611,0.1349845087,1.3611595992,-0.9898695954,-0.2776958541,0.5609591106,0.1738194798,0.2276215243,0.6677452382,-0.4351088623,0.4546789372,0.8025393359,1.0172451066,0.9228258002,0.4532022488,-0.3221939109,0.8844486942,0.6064130854,0.050805797,-0.8367669093,0.3223462457,-0.6891161096,-0.0284219379,-0.7194872579,-0.392806359,-0.9469798091,-0.3194617161,0.0623825965,-0.7680809405,0.4779249293,-0.2981777002,0.3837498968,0.8119007572,-0.4636642772,-0.5989151571,1.0256358639,-0.4711582623,0.2820517389,-0.0982289803,-0.8591324113,-0.4468125505,-0.6945811057,0.7767634108,-0.7715966079,0.4902575285,0.3399605511,0.255840467,-0.1779906798,-0.0246285333,0.8270644978,0.4465602048,0.8217956897,-0.5956344832,0.7600749359,-0.8136654135,-0.3233778054,-0.8621747979,-0.1336752339,-0.37956991,-0.0731453509,0.7576734431,0.9955668712,-0.6723938745,0.7038972255,0.3160538722,0.3169197904,0.5812759175,-0.128256751,1.0365675174,-0.5949259788,-0.3026263899,0.3365086687,0.735059902,-0.5574556823,-0.5241567503,-0.4249268905,0.7210601299,-0.223055224,0.9521715174,-0.645250304,0.0886297433,-0.190143494,0.0654104038,0.0924855834,-0.9750366447,-0.276548907,-0.3913996446,-0.117645239,0.9678047117,0.1071140018,0.4708572724,-0.2216426425,-0.3874798613,0.8933904201,-0.3791415089,-0.5096964808,0.8101893213,-0.2255324967,-0.9000728175,0.2072817999,0.4370629596,0.2776981917,0.0715021044,-1.0029925374,-0.5302272406,0.4853130423,-0.7844327652,0.287548379,-0.0086988241,0.8421503229,-0.5183825604,-0.3261447269,0.0974003536,0.6468772197,0.5078079569,-0.8783505452,0.9128479375,0.2436957963,0.6328972477,0.7678200356,0.6727689258,0.9813826064,0.6049468154,-0.2294564262,0.84115631,0.6718326957,0.392546192,0.2582610344,-0.4627546103,0.4987858714,0.7511884116,-0.616490077,0.1520844754,0.4280002578,0.9799016094,-0.8986070215,-0.9465754442,0.1667999151,0.8247959522,-0.4799084607,0.9621568397,-0.9752576776,0.0116155786,-0.669585314,-0.5112000913,0.453539347,0.2161991133,0.1442337697,-0.5508523975,-0.9772745509,-0.0890519617,-0.915967734,-0.0003841312,-0.1213134213,0.6860827682,-0.8807914726,0.1443110163,-0.3769309732,0.1261470559,-0.9875952768,0.9112300297,-0.9004559951,0.3820343217,0.0048115673,-0.5870464535,-0.1954167096,0.3582453955,-0.8200336607,-0.3161717096,-0.4959481644,-0.9854769306,0.6141758543,-0.7443713689,0.2027640969,-0.4109035033,0.6866043867,0.8418973139,0.0579839932,-0.2244611128,-0.9425238395,0.4082383722,0.6566115183,0.3742202296,-0.7185814225,0.1602725433,-0.7205416793,0.5869120642,-0.3072076747,-0.2229198617,-0.6692771717,-0.2074049667,-0.6639431976,-0.4764812815,-0.4098430684,-0.3737758323,0.2837625156,-0.4618427722,-0.4890658132,-0.6046602029,-0.9200306069,0.6476975721,0.5124964874,-0.4123714544,-0.205400047,-0.9547738693,0.4013015458,0.6435317764,-0.8206735338,0.8708866786,-0.2880931732,-0.6494029958,-0.1551293814,-0.6934959777,0.5525608186,-0.1300053092,-0.9206314084,-0.6629498139,-0.4889141951,0.2902065981,0.7720737155,0.8556094372,-0.9296929058,0.3286795659,0.8043355997,0.5516752821,-0.8326315685,0.3070953634,0.4466587834,0.709839778,0.0915053202,0.8949949748,0.117696593,0.4305997345,-0.2296003128,0.676371732,-0.2878322592,0.974859118,-0.649942555,-0.3473980187,-0.2203306771,0.9130662147,0.3096774091,-0.326799778,-0.047632512,-0.9946778683,-0.2315018375,0.0526740289,0.9219003651,-0.3309727422,0.5930491781,-0.1281809998,0.3879366995,0.7809590153,-0.0123203217,0.1833979182,-0.3711161216,-0.9202128276,-0.1086562012,0.9337684937,0.9605322996,0.9041132,0.4374029368,0.0749086319,0.778342812,-0.9755690679,-0.8001298142,-0.9740287437,-0.5320867759,0.3413776037,0.7723516781,0.1036427002,-0.9346260538,0.0937244419,0.9641744804,-0.2869971476,-0.9393471672,0.2615891045,0.796740302,-0.7082670225,-0.2441777168,-0.9116486779,0.7174192828,-0.2317062686,-0.2623574322,-0.1349876662,0.1368741743,0.4180522245,0.8829722304,0.4404958168,-0.9001610023,0.37012976,-0.4614102444,-0.8321590044,0.5439152822,0.5469225434,-0.6843422791,0.9336798774,0.6954440902,-0.8866722205,0.4580929127,-0.9113679193,-1.0119377124,0.4672710341,0.2241698636,0.0173931084,0.0269551437,-0.3065394373,0.6837498735,0.0819097811,-0.505436403,-0.3153652564,0.7888882523,0.6476810353,-0.6657625178,0.2254965768,-0.9501766456,-0.0801481622,0.0745387685,0.9105778741,0.3232459761,0.6453478286,0.9714418532,-0.4685257476,0.7819914554,0.3504641485,-0.3115541493,-0.7218021103,-0.8322679496,0.7352433461,0.4403147097,0.0467361538,0.6590447322,0.6610668049,-0.0969831733,0.7691782954,-0.5139528525,-0.6565789593,0.7496055038,-0.2161937418,0.2364241986,0.1608612856,-0.7857257575,-0.3810523773,-0.3785932149,0.4815526592,-0.4345618034,-0.7086273259,0.7642144287,0.6423073698,-0.565112851,-0.7086278519,0.6332662248,0.5497547106,0.7283144033,-0.9333799231,-0.8779614415,-1.086985461,0.0958430165,-0.0639023059,0.606567828,0.0381962032,-0.7230081779,-0.7945051977,-0.7100696615,-0.4221844699,-0.5278199568,0.6840591846,-0.2053896091,-0.183810868,0.6878437718,0.0128168647,0.4944758397,-0.407872409,0.0060157401,-0.841931533,-0.5005858414,0.4003787675,0.0011964853,0.1544292618,-0.0071520182,-0.5778245594,0.1803695064,0.7122076233,0.0192740418,-0.0182715374,-0.4419747497,0.5461180431,-0.9448121336,0.6036777023,0.8062544438,-0.0859498703,-0.2217981801,-0.3308560325,0.3808759197,-0.9900387164,-0.7461434635,0.7319426154,0.7271951634,-0.1492795459,0.3617084845,0.362984317,-0.5797383526,-0.0980754748,0.4272103496,-0.8838276115,0.0038514035,-0.2167624896,-0.9251407253,0.408341346,0.967020024,-0.666067559,0.6905509803,0.7830054143,-0.3611688545,-0.0894625474,-0.265636302,0.8127134596,-0.7627425812,-0.0298845134,-0.3242438194,0.4816151118,0.1635053854,0.2899868771,-0.7382579193,-0.8302354631,-0.7692938593,-0.0993700232,-0.6530367968,-0.7148089583,-0.5238917889,-0.9138763279,-0.2746365266,0.8020901918,-0.4416025317,0.801226276,-0.7990330107,0.963356227,0.0496657541,-0.1728832765,-0.2703391,-0.718432272,-0.5654890543,0.0088737144,0.735745475,0.0471464574,0.85909408,0.1933345555,-0.3529449672,0.6416382741,0.5771373979,-0.9652850677,0.0944099123,0.1076510111,0.6075857911,0.441515255,0.1544319613,0.763896572,0.7997861303,0.3265492266,0.1361261823,-0.9202368455,0.2001638932,0.3454438235,-0.3190609121,0.8251745832,-0.0457515892,-0.4508768105,-0.172098336,-0.6299206794,-0.7759050309,-0.897536909,-0.8909331987,-0.0658859358,0.3056569042,-0.4441461562,-0.7132462939,-0.475795781,-0.324567075,0.7981476131,0.6650281252,-0.7604013016,0.9458491503,0.9128937803,0.350942617,-0.5330114108,0.5538967144,-0.1349878073,0.1872649181,0.0760257989,0.8638125926,-0.4701445917,0.8721203335,-0.5655734147,0.4698175751,-0.6214456383,-0.448000465,0.9645650582,-0.5038843973,-0.5089999649,0.7990442735,-0.1362848308,-0.99133405,0.8207394778,0.7945242023,-0.2173387861,0.8489044442,0.9332024085,-0.2244703864,0.3476895796,0.0224781342,0.5062239692,-0.9523058311,0.06204031,-0.8999524747,0.1873936112,0.3541379642,0.9063290191,0.5626656315,0.7202359179,-0.4097609552,0.5578021734,-0.4966730644,-0.3087406631,0.3919925516,-0.0553131432,0.0523620032,0.1164406725,0.2366042151,-0.4473774809,-0.6766284618,-0.8530208358,-0.9249652205,0.2713106973,0.6850597345,-0.1601573986,-0.0235354952,-0.0028252263,0.6798952178,-0.4272544879,0.6325135373,-0.3400442525,0.4060798038,0.9153579745,-0.2772330595,0.8516909238,-0.8569315083,-0.8787386492,0.7186160402,-0.3794199216,0.4908850745,0.5978247105,-0.3787363575,0.5717093785,-0.5587302504,-0.9946128542,-0.2032784022,-1.0258895514,0.237715177,0.3124972686,-0.9020780501,0.9138670486,-0.8304881465,-0.2510864581,-0.4875540451,-0.9218723843,0.256700854,0.9298530324,0.8355675523,-1.7183233865,0.0388025678,-0.2743851121,0.1309118926,0.9221819594,-0.9370580964,0.1329901581,-0.3420412753,0.6785563905,-0.4575898916,1.0036347616,-0.2167990462,0.2408382419,-0.596020485,-0.9017943156,-0.239309572,-0.2696175151,0.136459245,-0.2717208793,0.3761444554,-0.7090680997,-0.7451386097,-1.0003948148,-1.6389907476,-0.572089514,0.0556951529,0.6198130371,-0.0357593677,0.4287251288,0.533461045,-0.5760341943,0.9607846567,0.9821349581,-0.9562358778,0.625238572,-0.8820003535,0.4915704626,-0.8886251828,0.0531207726,0.7492703838,-0.1926286996,0.303809272,-0.0103574823,0.6348459871,-0.243888563,-0.1225346774,-0.7422498933,-0.8440057625,-0.899238697,-0.1326459974,-0.3216914884,-0.2764169252,-0.360931273,0.9701094567,0.6245918012,-0.9266805017,0.1833614926,-1.0060537942,0.7655800605,0.3689435421,1.0065935449,-0.2283775438,-0.6051808134,0.395849714,0.7786048507,0.0893979163,0.1197977839,-0.529401008,-0.4920735655,0.4393478174,-0.9766752979
