encog,BasicNetwork,java,3.4.0,1,1670724274789
[BASIC]
[BASIC:PARAMS]
[BASIC:NETWORK]
beginTraining=0
connectionLimit=0
contextTargetOffset=0,0,0
contextTargetSize=0,0,0
endTraining=2
hasContext=f
inputCount=784
layerCounts=1,100,784
layerFeedCounts=1,100,784
layerContextCount=0,0,0
layerIndex=0,1,101
output=0,0,0,0,0,0,0,0,0,0,0,0,0,0,0,0,0,0,0,0,0,0,0,0,0,0,0,0,0,0,0,0,0,0,0,0,0,0,0,0,0,0,0,0,0,0,0,0,0,0,0,0,0,0,0,0,0,0,0,0,0,0,0,0,0,0,0,0,0,0,0,0,0,0,0,0,0,0,0,0,0,0,0,0,0,0,0,0,0,0,0,0,0,0,0,0,0,0,0,0,0,0,0,0,0,0,0,0,0,0,0,0,0,0,0,0,0,0,0,0,0,0,0,0,0,0,0,0,0,0,0,0,0,0,0,0,0,0,0,0,0,0,0,0,0,0,0,0,0,0,0,0,0,0,0,0,0,0,0,0,0,0,0,0,0,0,0,0,0,0,0,0,0,0,0,0,0,0,0,0,0,0,0,0,0,0,0,0,0,0,0,0,0,0,0,0,0,0,0,0,0,0,0,0,0,0,0,0,0,0,0,0,0,0,0,0,0,0,0,0,0,0,0,0,0,0,0,0,0,0,0,0,0,0,0,0,0,0,0,0,0,0,0,0,0,0,0,0,0,0,0,0,0,0,0,0,0,0,0,0,0,0,0,0,0,0,0,0,0,0,0,0,0,0,0,0,0,0,0,0,0,0,0,0,0,0,0,0,0,0,0,0,0,0,0,0,0,0,0,0,0,0,0,0,0,0,0,0,0,0,0,0,0,0,0,0,0,0,0,0,0,0,0,0,0,0,0,0,0,0,0,0,0,0,0,0,0,0,0,0,0,0,0,0,0,0,0,0,0,0,0,0,0,0,0,0,0,0,0,0,0,0,0,0,0,0,0,0,0,0,0,0,0,0,0,0,0,0,0,0,0,0,0,0,0,0,0,0,0,0,0,0,0,0,0,0,0,0,0,0,0,0,0,0,0,0,0,0,0,0,0,0,0,0,0,0,0,0,0,0,0,0,0,0,0,0,0,0,0,0,0,0,0,0,0,0,0,0,0,0,0,0,0,0,0,0,0,0,0,0,0,0,0,0,0,0,0,0,0,0,0,0,0,0,0,0,0,0,0,0,0,0,0,0,0,0,0,0,0,0,0,0,0,0,0,0,0,0,0,0,0,0,0,0,0,0,0,0,0,0,0,0,0,0,0,0,0,0,0,0,0,0,0,0,0,0,0,0,0,0,0,0,0,0,0,0,0,0,0,0,0,0,0,0,0,0,0,0,0,0,0,0,0,0,0,0,0,0,0,0,0,0,0,0,0,0,0,0,0,0,0,0,0,0,0,0,0,0,0,0,0,0,0,0,0,0,0,0,0,0,0,0,0,0,0,0,0,0,0,0,0,0,0,0,0,0,0,0,0,0,0,0,0,0,0,0,0,0,0,0,0,0,0,0,0,0,0,0,0,0,0,0,0,0,0,0,0,0,0,0,0,0,0,0,0,0,0,0,0,0,0,0,0,0,0,0,0,0,0,0,0,0,0,0,0,0,0,0,0,0,0,0,0,0,0,0,0,0,0,0,0,0,0,0,0,0,0,0,0,0,0,0,0,0,0,0,0,0,0,0,0,0,0,0,0,0,0,0,0,0,0,0,0,0,0,0,0,0,0,0,0,0,0,0,0,0,0,0,0,0,0,0,0,0,0,0,0,0,0,0,0,0,0,0,0,0,0,0,0,0,0,0,0,0,0,0,0,0,0,0,0,0,0,0,0,0,0,0,0,0,0,0,0,0,0,0,0,0,0,0,0,0,0,0,0,0,0,0,0,0,0,0,0,0,0,0,0,0,0,0,0,0,0,0,0,0,0,0,0,0,0,0,0,0,0,0,0,0,0,0,0,0,0,0,0,0,0,0,0,0,0,0,0,0,0,0,0,0,0,0,0,0,0,0,0,0,0,0,0,0,0,0,0,0,0,0,0,0,0,0,0,0,0,0,0,0,0,0,0,0,0,0,0,0,0,0,0,0,0,0,0,0,0,0,0,0,0,0,0,0,0,0,0,0,0
outputCount=1
weightIndex=0,100,78500
weights=##0
##double#78500
   -89.8053909844,-0.9476406395,-6.2226770174,0.9113815645,1.4102393463,-0.7132835305,0.4346890543,-0.1604073691,-0.020467769,0.1990526598,60.3107954179,-0.3866235048,8005.1309092,-39.4721949909,-1.8598864957,-0.6854231945,0.0825664502,0.3469675428,8944.941752909,0.2631622141,-45804.7947849901,3.8192901767,13.304056748,-4.8312612734,0.8258880445,-1.6661148458,-5.4054854894,-32645.6190319477,-1.0705609319,-3.0103140499,-0.0461084811,-0.388621017,0.5065320186,-2.5730983615,1.8152959204,2.4159402698,-0.0610385708,-5.1991335683,-8.5017749237,295.2470484835,6.9437428933,-0.9793204578,-6181.2341547659,5.7136332202,11.7212514038,-2007.8458847365,-0.8359045029,-0.033160742,3.3564888665,6.1725317447,36672.0568923166,-4.7758036571,0.1835750887,-33.5593154745,0.8463856538,-1.6798359509,-8002.1836941486,-2.0454325414,3.4851253597,0.769046245,-0.1953030959,-0.1529807359,-0.7374253179,0.0374173487,0.6083880626,0.3442966443,-0.932316527,-0.1133169553,-0.0392537194,6330.9916532044,-0.0737573283,0.1991337756,0.559539577,-3.5172325338,-11695.6077115512,31.9083597837,0.5780814824,-2.3871377528,344.1489202289,-0.0462479931,-0.3889100311,-1.5142892533,-0.0429035559,-0.0780408615,-2017.8105724111,0.8847805992,-7.4275091698,-1.7542325264,-0.1690068909,2.4146428407,53.4014278903,4.5620032169,-15.8033684009,0.6540615135,-0.3332007414,0.3567538234,14.4428883821,0.7523223068,0.490481137,-704.7158243403,-0.740068219,0.8872787231,-0.1034180793,0.8530632674,0.048304993,-0.7327048345,0.3185684418,-0.637525453,-0.7167639936,0.6702063508,-0.1945961319,-0.4312219353,-0.1727534351,-0.8283860884,0.1753216589,-0.0955606866,0.2798350994,-0.8604685745,0.8712138882,-0.3289611101,0.6439673822,0.5490433136,-0.5131324385,0.855255381,-0.8818652087,-0.2313282195,0.961335845,0.6401445923,-0.5069901003,-0.5086873053,-0.8727154327,-0.1982351214,-0.6576403879,-0.2217297502,0.4834417236,-1.900135408,-15.0893536199,-0.5722642302,0.5236225393,0.5378803502,-0.2397011689,-0.5857026977,-0.5447733267,0.9372083599,0.2465967722,-0.9443670412,0.4710574699,-0.4695454777,0.0038880934,-0.4336763385,-0.6447967251,0.7779897188,0.2810384313,-0.6196266717,-0.480544903,-0.6034655898,-0.4787999187,-0.1244102704,0.6521969971,0.3811881737,-0.1309069196,0.0566050163,-0.3069227305,-0.6284716885,-0.7742712989,0.5782209302,0.9141340169,0.7140506668,-0.5453616622,-0.1272013754,0.5730878588,0.5785487497,0.3041114883,-0.299441156,0.5444842346,-0.8479195808,-0.659904117,0.2497445569,0.627002404,-0.5523979395,0.0519151829,-0.8199440138,0.3638668898,-0.5419833464,0.3043631317,0.6729259853,-0.09502463,0.4088601726,0.15080238,-0.8813679749,0.8109932726,0.2202398366,-0.8933543904,-0.3028428796,0.804205593,0.0714206528,-0.3936002673,0.8446979514,0.684439928,0.0633680969,0.4384881282,0.8066872469,-0.5361518348,-0.5787172746,-0.0576654891,-0.6398551279,-0.156154478,0.8079402337,0.7049867264,-0.6654023033,0.2305335393,-0.8948676557,-0.6695385547,0.8846833482,0.1841390155,-0.3195896514,-0.7862873096,-0.5494779116,0.0539697146,0.4445134032,0.3703614018,-0.5536244767,-0.8914776915,-0.9728710336,0.5411061312,0.9598041498,-0.4593208684,-0.8218170843,-0.4511887617,-0.8367753868,-0.2427862117,-0.1169386217,0.67053058,-0.3678974372,-0.6681681493,-0.1928003953,0.7696983566,0.9191323659,0.2050660056,0.5353774622,0.8264343141,0.2764628708,0.9120309982,0.6252382151,0.3493591593,-0.5524481326,0.5491800939,-0.3471909651,-0.8651100077,0.4703432922,-0.7474054231,0.6384508325,-0.3840254769,0.4281418902,-0.0436342717,0.8244086735,0.1851964896,0.1506737066,0.861733415,0.7853694033,-0.4206371756,-0.7055696304,0.1550136666,-0.9970046605,0.4393672651,0.842261813,0.8712319908,0.2759520977,-0.5228884945,-0.4954456373,0.2494159373,-0.4249073763,0.7905607797,0.3308501748,-0.8562762792,0.8903678309,-0.2584344082,-0.8528213186,-0.0608393171,-0.1658985871,-0.2652122584,-0.5337727548,0.1902014201,-0.2382432854,-1.1310252326,0.8930137378,0.6687697542,-0.0456918329,-0.1192933564,0.3125317871,0.9057389091,0.291578339,-0.3032120997,0.5586015005,0.3141008493,0.4545045482,0.7637948301,0.8766667761,0.1992807637,-0.1154764334,-0.0389905427,0.2660231375,-0.90907481,-1.0011981569,-0.4377573126,0.740762194,-0.3379112332,0.6508399171,0.8897403626,-0.7497933918,-0.5913954641,-0.0757381566,-0.9088694593,-0.9605523966,0.1362035513,0.2707946705,0.4763477138,0.6884012861,-0.3373043797,0.4305280356,0.5698967741,-0.0144459408,-0.4105360099,-0.7772679654,0.5751503357,0.9795330231,-0.9045663466,0.5737292228,0.9272000037,0.0646556932,0.7351185241,-0.8024442826,0.987077354,0.9818016758,0.5563108436,-0.7099026168,0.8237795953,0.2945490777,-0.3411225803,0.7110352802,0.1017021237,-0.9155611021,0.8758948071,0.0597575518,0.901300488,-0.1505239831,-0.5980832559,0.3819255614,0.4296208219,-0.6147687867,0.8875201313,0.7284914618,0.8362444947,-0.0705535435,0.9586844868,-0.2150085492,0.1402618825,-0.0343225417,0.6776597173,-0.1244008117,-0.0367501358,0.9272643626,-0.7533615201,-0.431105916,0.3800010412,-0.9502218711,-0.4392899889,-0.5985993173,0.1452158379,-0.6176698533,0.658607122,-0.7645625063,-0.4566636145,-0.7451297755,0.7513877931,-0.0404509387,0.4017570906,0.2964639632,-0.4012772619,-0.7704208262,-0.9123568005,-0.632932037,0.4999644013,1.0768358389,0.0662583312,0.8286289297,0.3713961588,0.7972267818,0.0527764001,0.1680844292,-0.8859509753,0.5934251315,-0.9416437535,0.8021135029,-0.8127681821,-0.9600584623,-0.6944949949,-0.4346425482,-0.3504557472,-0.0845441788,0.9284273029,0.3804615856,0.3302574037,0.1843775441,-0.7870661955,0.7948108965,0.3600548803,0.8309348542,-0.8914686553,-0.4966383996,-0.0962251001,-0.1637642675,0.3751703684,0.5044702178,-0.6315728071,0.3785253056,0.599427862,-0.5167934163,-0.593476008,-0.8551495454,-0.7701901188,-0.351832472,-0.8566300177,-0.2350714841,-0.8019207269,-0.2108749154,-0.0579025166,-0.773970785,-0.7923459899,-0.3267811274,0.478254929,0.100346787,0.2063195748,0.9472451911,-0.7329205626,-0.4899833558,0.339224429,-0.0095754166,-0.3737444018,0.8636829519,0.8285565881,-0.4277126097,-0.8666457881,-0.3824867764,0.8164605634,-0.6303167059,-0.2500685084,-0.5460512066,0.9409934069,-0.0211435198,-0.8550999197,0.7144987997,0.8562739319,0.9824549531,0.0643768372,0.1318605246,0.7805619107,0.9225535648,-0.6273476157,-0.8401715674,0.4782928631,0.9744258922,-0.1686690803,-0.7188869531,0.3451177848,0.2097106359,0.5342423719,-0.154298614,0.0506938429,-0.9928914636,0.8765448074,0.0903664537,-0.5085953972,-0.7010257884,-0.0314919513,0.5028314462,0.0717386415,0.6048632424,0.4578078678,0.482934463,-0.4198520004,-0.5096999576,0.5993022698,-0.2180849967,0.4439177947,0.3075858831,-0.3003918701,-0.5058627773,-0.2872896105,0.5037951312,0.2188109113,-0.341057007,0.8797017165,0.3889433108,0.2685734583,0.8885548519,-0.7513190104,0.5407026008,0.3384638244,-0.4840929034,-0.2363058668,0.3391766214,-0.0002143242,-0.6091144531,0.8846267971,0.1951856804,-0.0196563351,-0.5003294078,0.2779549389,0.2874933775,0.3814220353,0.5715864429,0.6724817951,-1.0193148678,0.4271066488,0.1663969613,-0.6276349255,-0.0554935264,-0.1286229136,0.2150790609,0.2496695734,0.7871795553,-0.6013540951,0.8772617742,-0.6142604243,-0.6439227183,0.5984107877,0.2521679692,0.3652604964,0.5891157686,-0.5041612689,0.9220943419,0.931157009,0.7988673397,-0.6198970592,0.9075400454,0.5300748873,-0.2533134322,0.6272574071,0.8571345025,-0.8531693991,-0.8078669478,-0.6993373404,0.0408054439,-0.5455486981,0.9620855873,-0.8205335035,1.0112115125,-0.8435126695,0.5170345051,-0.3570209185,-0.1858337064,-0.5393465455,-0.568955471,0.8747950735,-0.1185986433,0.7593703648,-0.9473100228,-0.9485209459,0.4680760958,0.6494410774,0.8530102104,-0.7428627038,0.637613765,-0.2613667332,-0.1874910696,0.171825537,0.7893551562,-0.9105006677,0.1387794783,-0.1549980641,0.7187718855,0.046227546,0.3448100569,0.5176562795,-0.2848245178,-0.4236445437,-0.3991985834,-0.8712724609,0.3551250301,-0.0211589788,-0.4707570417,0.2848287653,-0.2454943836,0.4050993857,-0.25906059,0.6000749561,-0.6517531593,0.3514979367,-0.9016436921,-0.2569509259,0.6320076263,0.724620189,0.41787915,-0.4509264508,-0.9452695533,0.4847236929,0.1202596316,-0.6912328969,-0.9570384432,0.4092860654,-0.6080636381,-0.1753011435,0.0960389715,-0.7324087071,-0.4683098313,0.5511157729,-0.0041561994,0.749235611,0.3907343244,0.2367318971,-0.0766422562,-1.2202800439,-0.8080871262,0.5802085029,-0.0554901172,0.9573561477,-0.1703223111,-0.4991726398,-0.8136075168,-0.3224372193,-0.1457309591,0.9099046668,0.651473179,-0.6435120017,0.4617585433,-0.5653701128,0.3267484137,0.9640238473,0.439053351,0.030896062,-0.5287808868,0.9758714439,0.069442336,-0.6140923491,-0.3762362668,-0.4976975138,0.7525317538,-0.8303704516,0.5308440931,-0.7517433659,0.503341891,-0.217432086,-0.6203214193,0.7032436503,0.6757711816,-0.4325775427,0.3440320891,-0.9539523433,0.7939475862,-0.153777391,0.1253702564,-0.9625977643,-0.4686321104,-0.9754444315,0.5202014612,0.3338120756,-0.5220084294,-0.9730752641,-0.8067478561,0.642571734,-0.8067868231,0.2691120733,0.7274751313,0.707655775,0.4739424744,-0.4864116952,0.5735654111,-0.7813835009,-0.1615934879,-0.4274136695,-0.8215856322,-0.8875480703,-0.518499214,0.8340375627,0.9931267161,-0.8891281587,-0.7754565813,-0.0319934371,0.4218172987,0.1869213946,0.3397700751,-1.4773472832,0.2673621074,0.1624587167,0.7969278328,0.8530755014,-0.7251352528,-0.0212975891,-0.2220690913,0.9521592039,-0.388651085,0.2216140881,-0.7519745105,0.5319497024,-0.3701969545,0.4392792116,0.1166147539,-0.8416454255,0.2881703827,0.4784156285,0.4693611512,-0.3881427393,-0.3583920107,-0.2047416123,-0.72759239,-0.8920317792,-0.5133270368,-0.8294957794,-0.5113460992,0.6974165972,0.6881926022,0.0105884915,-0.7711343527,0.2594119561,0.262379242,-0.9503396499,0.0323316947,-0.2153758687,0.0130370144,-0.0929476886,0.2655828108,-0.3866489912,-0.293962393,-0.1386530649,0.3193006976,0.5508275693,0.6123623112,0.1150205429,-0.5387063609,-0.0451780029,-0.8560570602,0.7090200481,0.8658936438,-0.3815789816,0.3018743789,-0.9981746962,-0.6225464814,0.1556903998,0.4747371409,0.4216741016,0.0978981241,-0.849427588,0.033611527,0.4241680898,0.5496985575,-0.20533393,0.3115337332,-0.0594033607,0.8230968863,0.4485614489,0.040130718,-0.8113765268,-0.6394365446,-0.8163384484,-0.3764181755,-0.3594624631,-0.2507711522,-0.9648251674,0.0262978057,-0.7904878166,0.5674060099,0.5701586337,0.2980633415,0.1856285441,-0.4239186783,0.3769201082,-0.5493700838,-0.0114870264,0.2368881403,0.5390432784,0.332186777,0.9696927741,-0.1882122619,0.2451246723,0.1418083141,-0.6102411029,0.8087270205,-0.9589514206,0.9401839673,-0.2187565831,-0.2079850667,-0.1268106426,0.3228329358,0.8803699791,-0.1117196638,-0.5233396637,0.0813482668,-0.9017524171,0.3709911851,0.4445969099,-0.6427322033,0.2220387751,-0.7727142317,-0.2654072593,-0.8948786681,-0.2257713313,0.8278678411,-0.8993132164,-0.6976115772,-1.0111800598,-0.8289685956,0.3759145344,0.4011897492,-0.2693162311,-0.0742848674,0.9109977139,0.8445821511,-0.1733861702,-0.1833387963,0.6601515581,-0.2982826055,0.144401918,0.4697946398,-0.5590128738,-0.237200771,-0.9482171603,-0.3977019299,-0.0568333803,0.8711143008,-0.8393341695,-0.1165933223,-0.4702536673,-0.6128747126,0.3995109336,-0.1331052902,-0.6113496222,-0.8217488325,0.0112640424,0.0088191563,0.3718824661,-0.1009862137,-0.2012059878,0.9466662799,0.5846909696,0.2197798908,0.4735291435,-0.125608317,-0.6878331017,0.5001056699,-0.0807172301,-0.8846064359,0.3897615654,-0.345217984,-0.3182364153,0.335406772,-0.3321436559,0.1262633493,0.1505622002,0.0506683542,0.6546828785,0.5554886807,-0.9969128666,-0.2543356846,0.3020960276,-0.8964520361,-11.1842790835,-0.791062058,-0.4468559475,0.4594702651,-0.0810242514,-0.0980254805,-0.0412706379,-0.9206360756,0.9597378311,-0.4321628083,-0.36647004,-0.3676210478,-0.8928888758,-0.8641170005,-0.1291720691,0.7020914578,0.9867254525,0.0786766732,0.2316779748,0.4303281345,-0.970903588,-0.1554451607,0.3552116042,-0.678350421,0.6471614044,-0.8717428613,0.4079080336,-0.7427845427,0.7088417037,-0.6936109186,0.5386245585,0.2592473149,-0.4786256394,-0.5452521872,-0.1412345444,0.7916205889,-0.9756595317,0.0959121825,0.7760198056,0.7933171296,0.9967836448,0.7956435198,-0.2055713522,-0.266871486,-0.3057477626,0.565386283,0.3971482284,0.5153003118,-0.5072728178,0.1990028218,0.5740898345,-0.47386138,0.5009357018,-0.8714798632,0.8231111371,-0.2191115763,-0.096533652,-0.3920736909,0.7783082524,-0.0612688049,0.9243039765,0.197812804,-0.2133695465,-0.1969633573,-1.4476776839,-0.8685303018,0.7377215888,-0.2017705562,0.7282927608,0.3378431467,-0.4763824244,0.2118581905,0.5165828706,0.0594023213,-0.4353363949,0.3601463812,0.1655911823,0.3911570861,0.4954310572,-0.6245694165,0.8417989763,-0.0369454171,0.0300767119,0.7367230997,-0.2427103889,-0.8633240724,-0.7860415788,0.7459255292,0.5663866956,-0.5411494385,0.9228788812,0.5464333546,0.3905264106,0.7932114644,0.7612555093,0.3513328886,-0.6657352059,-0.2092223802,-0.2151192755,-0.8839433956,-0.0265118098,-0.2445276029,-0.209095724,-0.166869481,0.6966784287,-0.3024906133,0.8843639158,0.4849021809,0.636320515,-0.1889220211,0.1033319791,-0.9924081615,0.668983997,0.6390953069,0.1447303115,-0.7413937274,0.1585051146,-0.9325321249,-0.8702364549,-0.8986787558,0.2353722988,0.0616048872,0.1901306659,0.2558730654,0.0249850716,-0.0311105194,-0.8521089562,-0.400092989,0.2341357693,0.0575795984,0.3063298905,0.2192951201,0.6250488929,0.2443175665,-0.7674181757,-0.9444867512,0.0406573673,-0.2133562299,0.2084594039,0.3279924849,0.3422265015,0.8261163091,0.7553648667,-0.734282387,-0.7242505218,-0.4496580381,-0.71164589,0.5093348357,0.2235300511,0.3619686973,-0.3121377579,0.2840028067,-0.8678790189,0.981789008,0.0403779035,-0.6675745434,-0.9546207583,-0.461921758,0.1584960922,0.5377672353,0.0397937574,0.7711293542,-0.2703117839,0.309477721,-0.3224238726,-0.6612909517,-0.8743356044,-0.3812013385,0.166275342,0.6690129265,-0.234896178,0.5076983938,-0.3970167724,-0.6785351559,0.6052436724,1.00589769,-0.3430798228,-0.9839910535,0.7603612301,-0.7778183597,-0.9908691741,0.0757406594,0.0434628361,-0.9069975457,0.5966898503,0.7036585712,0.6313630235,0.5981277254,-0.6829234523,0.5369705735,0.6694473469,0.7474399263,0.3806334336,-0.1519152656,-0.7709680997,-0.8759210404,0.6023271409,0.9097723179,-0.3058922098,-0.1028315187,-0.4611410324,0.5960027323,0.3537142789,0.3564703711,-0.8820604612,0.5821538328,-0.6566227718,0.3787619521,0.234633007,0.1342215906,-0.8219751209,0.0474828744,0.3196179867,0.9247027767,0.9904503994,-0.0496380908,-0.6264587966,0.7228221267,0.445779273,-0.8849969546,0.1313384665,-0.06390865,0.5955977249,-0.861016223,-0.2328880798,0.3159467288,-0.0738225868,-0.9289944345,0.3701293871,0.2940609021,0.6507848577,0.3920168157,0.6769920503,-0.1317740055,0.3293550797,0.0016822005,0.2443510684,0.190036119,0.2589448593,-0.3016516671,0.8480999538,-0.4018830824,-0.0820834594,0.5361555433,0.1277332137,-0.1068040041,0.3808613771,-0.2926525174,-0.3135680293,0.5699187792,0.1351825678,0.8206483416,-0.0059380598,-0.9854841631,-0.4266838293,0.5840005324,1.0189982298,-0.4943505677,0.4369191522,-0.9197588866,0.357079921,-0.2849630187,-0.9381265607,-0.516805268,-0.2591363631,0.71902643,-0.559826241,0.0959394738,0.9730282552,-0.7008244772,-0.123793034,-0.7057789309,-0.5838137696,-0.2089781335,-0.6612384881,0.2097914237,0.0626105754,-0.744487554,0.0200841466,0.168803149,-0.2203609894,0.7994395742,0.9766580628,0.6509009759,0.2377011099,0.3739534629,0.0804583898,-0.3058680272,0.7941786915,0.3571663951,-0.8060009701,0.3179026422,-0.468927201,-0.264078306,-0.1808585737,-0.9950879959,0.6613221665,-0.5179650268,-0.5233156289,-0.7747329819,0.0278062452,0.0924891446,-0.5328661553,-0.8136381058,0.9353867096,-0.1150090523,-0.3874003661,-0.2048984364,-0.0615349859,0.8638413894,0.3453726395,-0.5131079351,0.3060933773,0.839983719,0.9625181264,0.0878557638,-0.2360591165,0.8833010628,0.6895361107,0.0329512391,0.29795582,-0.6487833437,0.4110756072,0.1688716916,0.2218523495,0.9278888603,-1.0186978244,0.1440004887,0.2818639908,0.7437314656,-0.8976012948,0.3895101944,-0.4140635625,0.4114444005,0.2613923928,0.6740301288,0.0689395587,-0.2564302575,-0.3541944496,0.7627811519,-0.0918705922,-0.028689052,0.9788573605,-0.9797865087,-0.0355596073,0.4677725668,0.5062549781,0.0958878184,0.2765834431,0.8060990245,0.9398453704,0.7325647507,-0.368882746,-0.5451753775,-0.8499085313,0.5236831745,0.94460045,0.5889363589,-0.8493264177,-0.7779013796,0.7430072023,0.0090133896,-0.8149920955,-0.6863836894,0.04121466,1.0506145501,0.1931563654,0.8677496888,-0.5744606732,0.1668881225,-0.2339853497,-0.7166461399,0.0649636325,0.1795133614,0.5567843355,0.3081534356,0.8801281476,-0.3808625731,0.2884270105,0.4104818564,0.4866411356,-0.9122009082,0.2731339115,-0.0153606322,0.136807693,-0.0621894888,0.2165630272,-0.7491825299,0.3192791243,0.1200789502,-0.1034427745,-0.2509555737,1.3484204297,-0.5052669177,-0.8926466211,-0.2338002043,0.1686354573,0.1318664613,0.9509330625,0.1886489603,0.001306758,-0.6760308827,0.1665206143,-0.5097957696,-0.6268773902,-0.2420667464,-0.7287165407,0.3234818535,-0.863580289,0.9016058362,0.6125239352,0.8879165749,-0.8315133664,0.523005839,-0.050337644,0.2925883471,0.4501922146,-0.6197963044,-0.3929299124,-0.2335003874,0.6560413207,-0.2239141218,-0.8028322215,0.6394681939,0.9223000417,0.1409987219,-0.723263824,-0.3267879786,-0.257432982,0.0784318464,0.2265014285,-0.4257626273,-0.0054242854,0.4050671851,0.5822955068,0.9399612961,-0.6493849187,-0.1590502141,-0.7602385321,0.5746033162,0.2486321407,-0.7079203298,0.1200464459,-0.7263975793,0.5097350298,0.1978238689,0.7309264411,0.5649871443,0.9076421437,-0.8470995517,-0.3397249943,0.204963504,-0.1667002236,0.4407910988,0.0638424382,0.2533765511,-0.2903147158,0.9560757451,-0.0400946239,0.2890853652,-0.8764648279,-0.8438347036,-0.8695456326,-0.0476112654,0.4695265636,0.2381125896,0.1888886849,-0.5176108582,0.7234250445,-0.3539674644,0.627931371,0.744414631,0.1202248345,-0.0868297951,0.6358123746,-0.1166062534,0.7890850556,0.8173925039,0.3870522667,-0.4699072583,-0.7583139597,0.4893259496,-0.9238471972,-0.4998154858,-0.6490677238,-0.0950935369,0.1628130763,0.5036985656,-0.530116878,-0.3732172363,-0.4476900478,-0.6082473047,-0.1510153538,0.3181388724,0.6819809341,0.9140248911,-0.2537567566,0.2070059775,-0.0392401698,0.1187703296,-0.5698794482,0.4868606633,0.7292864356,0.8459441882,-0.7178545059,0.856033931,-0.2365950218,-0.4087956609,-0.8775780264,-0.4856177881,-0.0019692291,0.5344448975,0.131637719,-0.962782368,-0.0011011666,-0.8430842701,-0.1169663958,-0.5440791176,0.3467760207,-0.8015279984,-0.9531247473,-0.8566779922,-0.8850879031,-0.2074035797,0.457577115,0.8011454359,-0.2085643502,0.3932006758,0.1123625039,-0.8939625784,0.4994596021,-0.4598312116,-0.6955183942,-0.1894466424,0.5305809556,0.3971705443,0.6344451811,0.0172644806,-0.8381251532,0.1809362666,0.5114203233,-1.2013042542,0.5251564318,0.3523662105,-0.0771405622,-0.2102696447,-0.8193917475,-0.8792781026,-0.6759319976,-0.5228281011,-0.9843145413,0.5745713426,-0.5006954014,0.0145874329,-0.326514801,-0.5679354285,0.1712685294,-0.8472206931,0.375788295,0.1462230887,-0.5280153031,0.83204733,0.3024234492,0.9201460063,0.1342294854,-0.7854182022,-0.8738848385,0.2035347883,0.0879244726,0.6442887561,-0.2482968035,0.6442152825,-0.281508073,-0.8184988665,0.9861556636,-0.0038327795,0.5558794886,-0.2774243834,-0.0919114619,0.2682628704,0.5024226367,0.4368942534,0.4372811344,-0.4813485889,0.0296532576,-0.9282345594,0.3820266273,-0.7140767343,-0.4195900446,-0.0650746424,-0.1916385642,-0.1979606376,0.6106131461,-0.5227708792,0.8206358938,0.299322122,-0.0431948018,0.4824513751,0.7727709938,0.7250193702,-0.9821993335,-0.4722923287,-0.4503943758,-0.3157145222,0.9225621086,0.8106724436,-0.7295129612,-0.6083542665,0.5605811159,-0.4946200975,0.6000844471,-0.2452995282,-0.5171247582,-0.2386496227,-0.8444462564,0.9163112536,-0.985533798,-0.1152004163,-0.1447135086,0.2940241186,1.0060343362,-0.7940599777,-0.8224247508,0.2111151914,0.7005716987,0.8841466651,0.0252115292,-0.0771301254,-0.6621345007,-0.2071873848,0.4182707832,0.5243343551,0.1065810728,-0.5021589276,0.6378369812,-0.3934368464,-0.9948027084,-0.452865159,-0.6089990003,-0.555999972,0.8460689613,-0.3188569793,0.6175969805,0.765855779,0.9796596805,-0.7380262892,-0.8518574764,0.6559223588,0.2324947321,0.3716302894,-0.1354571201,-0.9425317995,-0.469126243,-0.1128835206,0.8996368408,0.9776325833,0.1049025605,-0.8418006435,-0.0844272537,0.8866692308,-0.3726706221,-0.5196474863,0.3740118084,-0.8972071145,-0.5210096863,-0.2809502049,0.0196489299,-0.5078710594,0.8805813191,0.9046864578,0.7849306798,0.966318112,-0.033525268,0.8298184075,0.1266291896,-0.8223584285,-0.0319514244,0.5251190615,0.8459758911,0.0362946978,0.6911552044,0.8827234236,0.9346579451,0.4271156569,0.5351206877,0.6015348206,0.4340165811,-0.0656720245,0.2034894534,0.6863828241,0.8445945874,0.8209948796,-0.6604422347,-0.1875807817,0.0374365941,-0.8421725242,0.850467589,1.098051466,0.0437951771,0.170916635,0.5344650277,-0.3540576621,-0.0692877391,-0.8065810206,0.1018342235,-0.9855433601,-0.8305034377,-0.0267305645,0.4571425323,0.2789058001,0.3191217417,0.3189275993,-0.6733530934,0.1857135123,0.4767014306,-0.7730879314,-0.9475506444,0.9501397245,-0.536530253,-0.8437169948,0.8685129816,-0.930327873,0.1033196607,0.6446847482,0.9045363124,0.1890669983,-0.6524254971,0.9772921747,0.8842032228,-0.4798359125,0.8348001225,0.9739651924,-0.8883590895,-0.6070326388,-0.3687633705,0.3275284809,0.3831281373,0.3585529758,-0.9969140214,0.3377814477,-0.518590217,0.2348999558,-0.1089591304,-0.5005254657,-0.4590868159,0.840859961,0.3035075147,0.18152661,0.370976674,0.0058417527,-0.5192440412,-0.4498032968,0.4222174762,-0.0245540564,0.7247679365,-0.3627386576,-0.0966932258,0.1420579592,-0.1936627443,-0.9042732375,0.5784945865,-0.7252582761,-0.5065483386,-0.6015704893,0.7679457603,-0.7965669292,0.341178227,-0.9039723781,0.6263430581,-0.2967327216,-0.9967817917,-0.9250335561,-0.6979193774,0.8594933835,0.3808966888,0.5078377905,-0.4715394115,0.3293035681,0.758163633,-0.0179819717,-0.4373064542,0.6878796028,0.2908581309,0.7388776275,-0.9292534907,0.3060631616,-0.5043472124,-0.2610152016,0.7115233444,0.1924232711,-0.790425796,0.350319382,0.1817651605,-0.3812874273,0.4968894489,0.6151405043,-0.3852732711,0.4238176465,-0.1423556848,0.9951860728,0.2203942396,0.7554644364,-0.1718203074,0.8059074948,0.3794468656,0.7157878893,0.576350666,0.7966988472,0.3463711434,0.9756847406,0.5291578563,0.7143647639,0.1659451909,0.1789195262,-0.3255108937,-0.9245464566,0.6399419832,-0.2454370799,-0.3202069554,0.8449348764,-0.3206786372,-0.2824857505,0.3741425743,-0.057605026,-0.2122318239,-0.5723005137,-0.7012948665,0.0406946234,0.0095928343,0.5623399585,-0.7784347962,0.4691154023,-0.5342140691,0.8889072022,-0.1551468693,-0.1693828859,0.1386009914,-0.6168480138,-0.5846589869,0.5858103181,0.7371452589,-0.0857194489,0.1366509192,0.678663401,-0.1697101347,-0.8030617932,0.690177898,0.4108946652,-0.146165972,-0.0900400952,-0.4963144728,-0.9903804195,0.4542372027,-0.6648359639,-0.4560719348,-0.8785253782,-0.6072744636,0.6920796623,0.926658046,0.0345137148,0.9742043213,0.6046024209,0.1030841371,0.2094247938,-0.9540014793,0.2917284651,-0.1940631042,-0.9106360046,0.6341957225,0.5158076225,-0.955381588,-0.1877747339,-0.553494515,0.9266996854,-0.7469236522,-0.7274381114,0.3986279993,-0.9111549554,-0.6213097461,0.4283635272,0.5644984178,0.4915492607,-0.1641160639,0.7749414494,0.2718443824,0.073878201,0.7716254963,0.9666331969,0.0262551132,-0.9593239261,0.3285914164,-0.2852590804,0.0480480435,-0.3034359979,-0.5438446048,0.2611826036,-0.6688904461,-0.0262844109,-0.7335921623,-0.3576990931,0.2410105485,-0.5610780571,-1.0086850349,-0.9448411176,0.1268880815,0.9333494786,0.7654401091,-0.0138071148,0.1210295031,-0.9694595832,-0.465069349,-0.3502984837,-0.8504239842,-0.8657325522,-0.4170425001,0.028441202,0.4181602734,-0.828239799,0.0111362545,-0.5678017363,0.2519615148,0.6341843793,-0.2297375285,0.9590180574,-0.6940585374,-0.9936318162,0.8236975129,-0.5733759939,-0.7973121622,0.854215208,0.7266575004,0.7572971345,-0.0465956821,0.917146162,0.1320304695,0.2489319742,0.0586241706,0.3537550083,-0.928379352,-0.7004049664,0.0537156678,-0.6921935629,-0.8005085627,-0.4005064846,-0.454556348,0.8571165439,-0.9937008953,-0.7848973941,-0.658734699,-0.189106757,-0.2924658846,-0.6163826888,-0.1803398798,-0.1801127158,0.1202298201,0.1228480148,-0.131534721,-0.3322009093,-0.013212049,-0.5445683249,-0.1186598934,-0.449963474,0.8133338125,0.4828162816,-0.3026643189,0.3469431317,-0.631584778,-0.1525197408,-0.2529267368,0.2247984926,0.4361243549,-0.1520292805,-0.840756075,-0.7751854497,-0.4258987145,-0.0695631062,-0.3670955034,0.2863812792,0.3444005268,0.1025950186,-0.4960289729,-0.9006038794,-0.0166027405,0.1986356172,0.1350506322,-0.5979315378,-0.6652264254,-0.9527176685,0.3691947336,0.0491044605,-0.439988724,-0.4137335176,0.4302695709,0.120442027,-0.4157843519,0.7151135407,-0.3535585553,0.6195008298,0.2024220257,0.7359933658,-0.555788091,-0.0198486447,-0.5219443582,-0.8761579198,-0.6471812341,-0.4948196268,0.9561083651,0.2959041119,-0.4445992909,-0.8643005307,-0.5081700523,-0.3258583669,-0.992400381,-0.935492088,0.0845416149,0.8896059376,-0.5383600094,-0.8043853852,0.0711124305,0.8905177191,0.9361962109,-0.4401259735,0.4902351101,-0.9560902595,0.5423545542,-0.7954428147,0.8719887989,-0.9249769216,0.8193167522,-0.2956729579,0.0392310091,0.2413908469,-0.1690458448,-0.6218571894,-0.535423295,0.2964623261,-0.1806639358,0.6159949788,-0.6297517836,0.4722214681,0.7778740648,0.4987093132,0.0932566918,-0.5592270567,0.0674190685,-0.2536259934,-0.3691055344,-0.4307599661,-0.1496191536,-0.2295823511,-0.4634283198,0.4669544947,-0.0759507969,-0.1178838268,-0.6681506111,0.043579391,-0.9257906357,-0.7718290031,-0.1640085953,-0.8517760416,-0.4497546807,-0.9339815076,-0.3223230696,0.9274219175,-0.7151707205,-0.9753982711,-0.9040438055,-0.8693562248,0.8473720175,-0.1475751485,0.4763461641,0.678086641,0.5373641109,-0.7401813129,-0.4282995619,-0.9332808036,-0.0641776664,-0.2064756487,-0.70428869,0.2786335126,-0.6688364396,-0.4377362258,0.8986051803,0.6644736865,0.5294070748,0.4635356036,-0.0213314168,-0.3782312906,0.3237154029,0.5708224954,1.0048109147,-0.8956583578,0.960454951,0.5526078929,-0.0390063395,0.5441505259,0.0676652062,-1.0341630007,0.4658211711,0.1893000666,0.4154314453,0.5482696264,0.3758164826,0.5758749462,0.9272684882,-0.7877665853,-0.1690852069,0.3458181678,-0.5719488224,-0.52922566,-0.1630646075,0.3662716095,0.1961141276,0.974734087,0.3053028416,-0.6870754556,0.8944016345,-0.3627673342,-0.6211332204,0.1629080209,0.7641813103,-0.9404677589,-0.1676318209,-0.1753846521,0.5665310508,-0.3630074759,0.6710346685,-0.6166510637,-0.964700979,-0.5080806435,0.5369223563,0.4751856511,-0.9042920904,0.6265115551,0.9324584683,-0.0081784743,0.86971707,-0.8830507064,-0.3674932005,0.6974519722,-0.2493234444,-0.3929429576,-0.7592607128,0.7071488883,0.0923545758,0.3613519931,0.7488493249,0.4981529609,0.3312254935,0.0349224993,0.4327759698,0.1217844061,-0.6468110129,0.3651362744,-0.3003408188,-0.2416015092,-0.0263406249,-0.2876642632,-0.1919821877,0.9112791038,-0.6106985147,-0.5303973358,-0.7120098751,0.7635418968,-0.1383531107,-0.8450382301,-0.0609528459,-0.4066710157,1.0016031302,0.3883236671,0.391644867,0.5799473726,-0.2350411517,0.7438324683,0.3494857526,-0.5602276765,-0.9331581156,-0.9694836199,0.5589191094,0.2456430204,-0.0394341496,-0.1452343352,-0.9392712472,-0.3863769107,-0.1351185217,0.3554971323,-0.4827122825,-0.0023755718,0.822324674,0.6410046126,-0.355322357,-0.3986667295
   0.216304167,0.0171169475,-0.6851328751,0.6461589879,0.9749504558,0.4608727616,0.3129624411,-0.0058103694,0.3188767254,0.3098779894,-0.423934875,-0.8803458597,0.9229046173,0.3925996627,-0.5943876096,0.2833073747,0.2709446911,-0.3546856745,-0.6111214124,-0.2823759979,-0.7859851775,-0.6154372615,-0.4876546254,-0.6557044942,-0.9337897125,-0.1699327099,-1.029262945,0.929712134,0.9107336715,0.8102444524,0.5861207625,0.8471593176,0.5440463235,-0.3427848801,-0.454748692,0.2425377565,-0.4628761694,-0.413575552,0.0454028059,0.7819220509,-0.5504196956,0.6198598031,-0.8409520844,-0.7155744058,-0.7294814743,-0.1025048441,0.438977675,-0.5151633072,-0.5066304375,0.9833327385,0.7914854482,0.8439943002,-0.4013275467,0.1937456741,-0.8313845609,0.6720295335,0.5993116901,0.5859815043,0.355144315,-0.0220909218,-0.8485837641,0.8183064727,0.3123547678,0.2785463512,-0.3792267291,0.1356688133,0.4726909695,-0.2721387303,0.5115959836,0.2164229586,-0.1320962262,0.058192716,0.1299920873,-0.8567283316,0.4256697889,0.7501922506,-0.0264521971,-0.2901426325,0.0403037552,-0.2474296056,0.8352133823,-0.4876497027,-0.2979314954,0.5683265608,-0.9942020964,-0.6956031068,-0.5367136849,-0.5895698871,0.5556235319,0.6464503646,0.4008472847,-0.3425377665,0.1329179683,0.4276213676,-0.6412334745,-0.9040001763,0.2302153292,0.7626254806,0.3169890031,-0.4706689737,-0.3097750815,-0.979090257,0.9097050931,-0.6578745975,0.2487433333,0.1684620456,0.8803695554,-0.0123257314,0.5996113021,0.6541815284,-1.0006720008,-0.3458332406,-0.9185102217,-0.5939451542,-0.9758532423,0.7238364248,0.2277958441,0.2832468527,0.8572550368,0.5947762196,0.4025882934,0.5312381199,0.2429041437,0.226428327,-0.4642507006,0.3891769476,0.7349095465,0.8099793736,0.1732275747,0.4366307983,0.6291425413,-0.6761087112,0.5231528633,0.6233093558,0.740724309,0.0125962538,-0.6529114821,-0.6086984187,-0.7869750406,-1.0359040114,-0.1479552131,-0.3153539139,0.0373185236,0.3495530364,-0.4234038168,0.6894530295,-0.8676844369,0.5598401408,0.7557160337,-0.3863280585,-0.7252937709,-0.4576873842,0.8253885411,0.7374797084,0.5662372451,0.3223873643,3.1184029299,0.6637980327,0.4919904671,0.3351473483,0.9872235764,-0.3736935088,-0.7243303557,-0.1573513695,-0.783060005,-0.2792883501,-0.0267264995,-0.0161632909,-0.748575561,-0.6964688531,-0.1702195344,0.4889175228,0.0234198995,-0.4952550776,-0.05962378,0.4802314381,0.278418991,-0.257336725,0.9879604423,0.6002007444,-0.6868093133,0.0963845541,1.005025192,0.7051675426,-0.5104572039,0.3044845708,0.9848965936,0.3037409741,-0.4837641983,0.8333511659,0.9423941631,0.1056586973,0.7089838063,-0.7432403197,-0.7677558384,-0.0009844597,-0.7633313531,-0.6002362533,0.0427165754,-0.5170875769,-0.8068886669,-0.9363871934,0.8368376119,0.1596143097,0.2323353021,0.0812981499,-0.9293382869,0.1153616113,-0.5939076531,-0.1232074434,0.0421547453,-0.1745128019,0.290203485,0.0154059791,0.62816006,0.5094341366,-0.137682926,0.4523606411,-0.1763157546,-0.1301625634,-0.6260519365,0.3803522862,-0.3724908546,-0.8951563695,0.2296802003,0.0400445002,-0.3213920114,0.49636981,0.2275269671,-0.0071507418,-0.8289640226,-0.1758992658,-0.3284783791,0.5179057408,-0.8378374816,0.148664273,0.8281418349,-0.7536080504,0.4328626642,-0.7428797323,0.0319005529,-0.3876894807,-0.0614095254,-0.4348737541,-0.1722095599,0.0305202901,0.7636835081,0.8903262405,0.9031132829,0.8498288914,0.2176227684,0.198333686,-0.6038118773,-0.7629530365,0.1616033394,-0.0261806527,-0.4247839631,0.0448602399,-0.0959546318,0.1283050523,0.8838538776,0.8666993912,0.4487140851,0.5536757287,-0.0970946277,-0.1793741887,0.0907798133,0.3817665973,0.5667833916,0.2127534205,0.2368565056,0.2098171368,-0.2321888915,-0.3764041084,0.5037713849,-0.6551158672,-0.0463122129,-1.0088599393,-0.3118026718,-0.6616682243,0.3377529121,-0.8668984784,-0.4031482102,-0.2818685098,0.8815448867,0.054029108,-0.4208069928,0.4314443483,-0.0556587475,-0.3100975313,-0.7854642568,-0.1336307725,0.6217608666,-0.4662591697,-0.8290373104,-0.0262596074,-0.4810074992,0.8090798775,0.7376707243,0.8780856174,-0.0843407094,-0.0839719001,-0.2572673427,-0.1915697433,0.7361812669,-0.6772519273,-0.1810300903,-0.7035548401,-0.0786759774,-0.3073394294,0.6706129998,-0.4415197557,-0.1986567201,-0.8511268378,0.6056417815,-1.0450165087,0.7853217724,0.8629150787,-0.1680750988,0.8508257241,0.9681632532,-0.016978328,-1.021131609,0.4412507565,-0.103978687,-0.0836534775,-0.9455476056,0.5364633146,0.6816421506,0.1844032746,0.4093921405,-0.2505093038,0.6659388252,0.2408994309,0.9271055985,0.6537721411,0.869631945,-0.9593102384,-0.6296219575,0.6084943638,0.6498055576,-0.3956725599,-0.7649208572,0.4069245109,0.4600192284,-0.8079364555,0.4328710921,-0.1162007602,0.1722486422,-0.0183733779,0.7673377536,-0.5323219092,0.0077526608,0.6956861649,0.2181169281,-0.9443831913,-0.4345088109,0.6467560678,0.8887254019,0.0567941286,-0.291202596,0.5894079806,0.0602183276,-0.5254581743,-0.1582763451,0.8475086143,-0.5739869143,-0.9351203015,-0.0641214973,0.0790696949,0.1062092418,-0.1272025546,-0.5456639091,0.0959369598,-0.415396002,-0.6547312104,-0.5001414254,-0.0511592887,0.9752093208,0.5884206441,0.7086403987,0.5156050822,0.2048290285,0.2890011646,0.6894486935,-0.4061114184,-0.4327540866,-0.7189627716,-0.44737232,0.6931845385,0.185903013,0.6716254629,-0.4752494098,0.177900918,0.6466380786,0.5440236474,0.7183959746,0.739807878,0.7862381615,0.7979368231,0.000498037,0.5769851343,0.0250360278,0.5440926096,0.0174415501,-0.4146240923,0.1421523634,-0.2644697253,0.0148220255,-0.8746743088,-0.2864276906,-0.6838780297,-0.8179081422,0.5356234732,-0.7594422279,0.6766190312,0.5289911439,0.9273248413,0.5840823354,0.8199518644,-0.3638955102,-0.4895817222,-0.1843035243,-0.6920435318,0.8621603538,0.5426108621,-0.2102062875,-0.6037673883,-0.7695357484,-0.0054309574,0.2706563301,0.6043537644,-0.8342258291,0.3833485618,0.3523400188,0.40330344,-0.0829750325,0.4270543171,0.0080575282,0.7395200124,0.6835566421,-0.1217757227,-0.2590984633,0.0727771845,-0.5197389564,-0.4681131454,0.0450731725,0.9209718811,1.0026204155,0.8589792828,-0.8016597274,-0.6783608328,0.3970521323,0.7531710002,0.1671012641,0.9463593697,0.8886430745,-0.8441385388,-0.675971476,0.0995923978,-0.074536569,0.073717999,0.8411303423,0.352692983,-0.5342795923,-0.3373222916,-0.0018987048,0.3059188695,-0.0952457711,0.9564608256,-0.9825960594,-0.1604528394,0.1461886711,0.8776953457,0.3809553746,-0.1806373993,-0.9863575363,0.6671600199,0.3135050102,0.8011412615,-0.2995474398,0.0047781465,-0.8342220727,0.7080703517,-0.4633516285,-0.2573685336,0.7237036844,-0.4884884975,-0.7320827958,0.2466434857,0.2176380881,-0.1613452252,-0.4303732302,0.9653246372,-0.6946007598,0.224439588,-0.8038538654,0.4538820888,0.2616580103,0.3407086648,0.8975171354,-0.0645330332,0.8837173424,0.0879377751,-0.7944313986,0.3147019355,-0.8370809794,-0.9762754982,0.2543465012,-0.0452920579,-0.4774912368,-0.5324110419,-0.3529515926,-0.9834505471,0.8571221017,0.6827193306,0.4139196544,0.5025717962,0.3964318441,0.8727961674,0.5996701338,0.2276762448,-0.5006952791,0.3702250164,-0.1687233093,-0.9689782083,0.7244427573,0.4529263294,0.6398285752,-0.0216290336,0.2964359265,-0.0149436767,0.8575428482,0.7546033363,0.8484681572,0.7737353967,-0.2447444248,0.0730575249,-0.6546337583,-0.0478058453,0.284993178,-0.3611177616,0.6783175972,0.6590754357,-0.8319575105,0.5818070037,0.3922696186,1.4244977657,0.5961248981,-0.5125378196,0.3833123596,-0.3734080656,-0.6381686979,0.985075904,-0.2689907322,0.9891825037,0.6244878719,-0.2782740045,-0.6397994242,-0.1119216805,0.0165789879,0.4424863987,-0.0243626992,0.8103483008,-0.9352624183,-0.4086592935,-0.2160223024,-0.1446627103,0.8247887575,-0.040699783,-0.3440871824,0.7950328561,0.0180730125,-0.1895911961,0.7803740056,0.1170689649,-0.8012709496,-0.1224983723,0.4147625661,0.5247522473,-0.5782684485,1.0042101125,-0.4962409671,0.0118385769,-0.9875309555,-0.4947508848,0.1890870274,0.5185196668,-0.3670281056,-0.7280647536,-0.9824992542,-0.2376239124,0.4460665146,0.0652657341,0.757710639,-0.8804429372,0.5648022011,0.4287179568,-0.0375085486,0.7652099366,-0.4712707178,0.9932218633,-0.7857263718,0.1141073963,-0.7235400232,-0.7337942319,0.5401090751,-0.6231811215,0.1308564143,-0.7648408464,-0.4115466331,0.171425145,0.5238645331,-0.8312192405,0.5685498194,0.137953696,0.7038351037,0.6102070317,0.7747863394,0.6418329856,0.9141151045,0.5355491436,-0.4265545973,0.7262915939,-0.9334598671,-0.3151575707,-0.3766331721,0.0039329044,-0.3104952703,0.6724611671,-0.9700376506,-0.57306146,0.8042690391,0.5718348669,0.5961364923,0.4851758985,0.0782433104,0.9346991749,-0.3312858655,0.4187862739,-0.2112499833,0.5695122863,-0.4018982729,0.5778761011,-0.8524826238,-0.2256018301,0.8624163864,-0.3189075262,0.157467744,-0.9277884397,-0.2676224708,-0.4740950496,0.1234355582,-0.3825759087,0.2873927481,-0.7911564697,-0.6861685917,-0.8035847474,0.9106860701,0.0772412617,0.0120549648,-0.1827250693,-0.444903565,0.727161039,0.0119686396,-0.9199216426,-0.8494694271,-0.275629265,-0.6978350272,-0.5181180737,-0.571323404,-0.4036766873,0.3626591905,1.0205348177,0.1252821568,0.4099396659,0.6105644485,-0.7421401295,0.3137029279,-0.6532887804,-0.6409150646,0.9365078636,-0.2647244373,0.7588472389,0.8733354608,-0.9878277193,0.0241508897,-0.910918608,-0.1503272359,-0.5741050592,0.2291255449,0.1164830673,0.8854643,-0.1583583909,0.110477448,0.6168574017,0.0142608297,-0.4903943001,0.4918285376,-0.5700625627,-0.3549431267,0.9183865733,0.6324822064,-0.5217997291,-0.3017948637,-0.3887307431,-0.5589765741,0.1945939723,-0.3250380742,-0.3828968304,0.3115748964,-0.4349130592,0.4431138688,0.0197319556,0.6960218269,0.3754655197,-0.4366465075,-0.2278039708,-0.3820198937,-0.0451139115,0.286649865,0.8348207381,0.0472140606,-0.4567035984,-0.3668721451,-0.5045891492,-0.1144881141,-0.5857997605,0.2936553875,0.3959825211,0.347478032,0.9361436834,-0.2429732347,0.9370402328,-0.4610473887,-0.7541604955,0.4987494265,0.7751960809,-0.3195204231,-0.4699057241,0.6134198013,-0.8697277121,0.760928734,0.8651531965,-0.5951876942,-0.8353991006,0.3386138688,-0.2443965046,-0.3543066278,0.5026428422,0.9400544274,0.6585368124,0.3190972833,-0.6242776926,-0.6462220092,0.7321764879,0.5196388313,-0.3689792535,0.0287840156,0.5811630368,0.8193325223,-0.4162946005,0.7178831652,0.6803842611,0.3920896371,-0.8304736983,0.4408154233,0.0982704689,-0.7522029807,0.6523378925,-0.3791662524,0.6811449955,-0.7515047091,0.4416339911,0.9716899424,-0.1213551509,0.1943079573,-0.3061665525,-0.7834054007,0.2034212301,0.7017549071,-0.3317416367,-0.2171580825,-0.3845675798,0.9468041567,-0.2021023147,0.8494411892,-0.2177755419,0.2942052579,0.0708262728,-0.4477876065,-0.0148594181,0.2009024036,-0.5282612626,-0.7189219072,0.3027723333,0.1630156417,-0.7514372157,-0.2841141506,0.4216068806,-0.8470452094,-0.318751577,0.2210324468,-0.4576355586,-0.9064660524,0.4432400325,0.8126698506,-0.1776161503,-0.1636507847,0.2573258628,0.0895179845,-0.1286650389,-0.3955844156,0.462432171,-0.4738478295,-0.6745671444,0.9677229557,0.4972927923,0.2001848937,0.8621902804,0.8297452566,-0.0493797305,-0.4077354694,0.3037087127,0.5552361075,0.1021763803,0.1485852652,-0.5828438845,0.653123169,0.7463620734,0.775071538,-0.9813487655,-0.0620023163,0.1401906471,0.9937881947,0.1033052817,0.8459244551,-0.4753815905,0.2982843841,0.8824001739,-0.0879256196,-0.6007862763,-0.8657717975,0.4258342888,0.8608730916,-0.4141648386,-0.1748867183,-0.5846251955,0.0494966222,-0.9481421261,-0.4185983953,0.7419851819,0.5642534503,0.6477152145,-0.2013110094,0.5034799965,0.2674582682,-0.5129737959,0.8427562579,-0.5878192875,0.5607098477,0.1226702446,0.2457569167,-0.3955732152,0.8919245606,0.3764639914,-0.5987267009,-0.5603122954,0.3863887376,0.1640634013,-0.215956187,0.3751803488,-0.0073880025,-0.5550169274,-0.3194528861,0.7832605247,0.4999452584,-0.9720879313,0.1229138455,-0.9742372101,-0.23240743,0.0625602672,-0.4839733108,-0.8310185852,-0.5228225082,-0.1965419148,0.7209284938,-0.0955113922,0.0906575487,0.0409344911,-0.6601383189,0.4223187857,0.9739503632,0.1144019259,0.8563070568,-0.8904905386,-0.0390677288,0.0821902503,0.2041700027,-0.2813602761,0.6260622598,0.3911092061,0.0986442882,0.2538479787,-0.1140715754,-0.1880100443,0.5497793306,-0.2701733699,0.8642357638,-0.0388432139,0.3380976847,0.9878271436,-0.8052250403,-0.2601565464,-0.4800911786,1.1405778931,0.4781278946,0.863952097,0.9253777594,0.4160948596,-0.2796998067,-0.1124366042,0.6765665558,0.2741730012,-0.3212515044,0.4072140632,-0.1810926874,-0.4111539996,-0.1395143922,0.9662751675,0.7664841356,-0.1930209148,0.6027919535,0.711290292,0.3493525057,-0.4902162388,-0.0916526797,-0.1270011634,0.3412410962,-0.5276372407,0.3275342487,0.2724438285,0.4272431731,-0.3570712853,0.4871279755,0.4757975706,-0.3729534938,-0.8442971044,0.6006018002,-0.4233994887,-0.5328548308,0.4061762737,0.0444016842,-0.6349145187,-0.4642772541,-0.3197934054,-0.5532140744,0.4571115699,-0.3001177313,0.5539705603,-0.8167798068,-0.8259042265,0.7799721216,0.1193359989,-0.8517413234,-0.1995108107,-0.5047572549,0.0343390445,-0.8554838586,0.911008024,-0.9158839122,0.9207393447,-0.7925928777,0.2444720168,0.8867531991,-0.0558403721,-0.2084601715,0.399232153,0.0734071211,0.6909697783,0.066443841,-0.3317800245,-0.3859068001,-0.8496730747,-0.7971878384,-0.5038532265,0.1392485965,0.3565007071,-0.1168556751,0.274145491,-0.1299397943,-0.1644546783,-0.0009434376,-0.5908831387,-0.9458102285,0.1608394729,0.1675421166,0.1687750751,-0.2939484373,0.9963007215,-0.8444963266,0.7906217277,-0.2946813017,0.3248698267,0.7074465327,-0.3228895192,0.358217221,-0.182524766,0.3011528327,-0.8016531081,0.113332887,-0.8865640625,0.8342465212,0.6513577481,0.8418725452,0.0734094413,-0.9622029793,0.8962162802,0.8619899393,-0.4327296938,-0.3372180128,0.7625575858,0.360719441,-0.8412601063,-0.7992366485,0.1525715249,0.1558678772,0.6828957023,0.0513384717,-0.1678042258,-0.080378338,-0.7625526008,0.3111760885,0.408117043,-0.1579357582,-0.0240550659,0.5361654206,0.5384528231,-0.7560954915,0.4567732594,0.6120408877,0.1713829161,0.9933710486,-0.6556826303,0.5039283574,0.3254211225,0.0885373776,0.4235991143,-0.7068941091,-0.1246769266,-0.2571869048,-0.5202129132,-0.1309768084,-0.3387239179,-0.6781511146,-0.7882910168,0.4714999518,-0.4813475362,0.9789034551,-0.801345701,0.5625573425,-0.3927064711,0.3885620958,-0.1322099065,-0.6646235524,0.2315401839,-0.0149371601,-0.6912100637,-0.6940151007,-0.6789247816,-0.2167593666,-0.5265610481,0.248122431,0.748078608,-1.0232780617,0.8244779389,0.3433132591,-0.241232384,-0.8702828012,-0.3283988686,-0.560464851,0.1905828675,0.587896802,-0.8700405188,0.2802681146,0.744651163,0.2741201026,-0.1146859885,0.4914445621,-0.7034827574,-0.3181195476,-0.5459319531,0.83744561,-0.1373815002,-0.0828033371,-0.887740214,0.9275186297,-0.5629509652,0.6307807316,-0.0636715167,0.8591007301,0.5545910494,-0.8472050015,-0.3372214954,-0.4482511011,0.4924081052,-0.3917763373,-0.7682044849,0.0217197512,-0.2943557632,0.8640639388,0.1298592013,-0.8906221548,0.911797437,-0.4865705694,0.3533293342,-0.8648467001,0.0551803869,-0.4425890822,0.8679834224,0.8552305896,-0.6817472205,-0.4991366765,0.2004935495,0.2101704645,0.2422336064,0.0637224856,0.4310923517,0.5507763808,0.3793883222,0.1497202428,-0.0842231612,0.947446717,0.2573492451,-0.2119595411,0.3924191369,0.7239458853,0.992874726,0.5682417477,0.6331686568,0.3450838618,0.3211704169,0.1213553047,-0.7229155019,-0.0357566067,-0.6616118325,0.9139486435,0.2424249924,0.7289656706,-0.2548168518,0.9116579793,0.4376270893,0.2121751223,-0.5784568412,-0.2020414752,-0.8046350415,0.0138994582,0.7473254264,-0.9790585027,-0.2271633188,0.0298616084,0.3821502302,0.7324865987,-0.2654430153,0.9904580396,0.7723771023,0.2859394085,-0.2841156106,-0.176803412,-0.7873701636,0.8670904206,-0.7731026744,0.4555484402,0.6983384917,0.9296626807,0.4761633647,-0.4888116147,0.5881287625,-0.9238737716,-0.8943275366,0.6730582557,-0.5941023417,-0.3833541277,-0.7182224699,0.2735763272,0.3773173589,-0.0561102816,-0.9813610742,0.9350710502,-0.1263840447,-0.0392883242,-0.3778732132,-0.0708760466,0.788627739,-0.6401587157,-0.0465806128,-0.7016394005,-0.1212473491,0.8339827449,-0.0499041347,-0.0455032223,-0.3229841758,0.7529597151,0.6258229899,-0.81200106,-0.0704319572,-0.070983673,-0.2634966892,0.6936637286,-0.1755680233,-0.3169311732,-0.294014641,0.9148964936,0.6020496011,-0.6477558076,0.94551319,-0.1118109636,-0.673890043,0.9646573031,0.6279586534,-0.4317947402,0.7645339059,0.8333564813,0.4431063059,0.4457020246,-0.3664719026,0.3176314072,0.0629011715,0.4725334897,-0.9771032185,-0.4771695608,-0.6040106257,-0.3348665132,0.6428576395,-0.0075914909,-0.3800352871,-0.9802698921,0.6640587315,0.550660922,-0.3011280003,-0.5526498223,0.6611883648,0.1109235443,0.0188347999,-0.0075742519,0.638790141,-0.2572878097,-0.2121829996,-0.23005113,0.7553655162,0.0493453163,0.6159307518,-0.5163147239,-0.5829708859,-0.6632863069,-0.4976098019,0.4545504735,-0.4776581344,-0.2543041552,-0.3392884137,0.5278300163,0.9253698901,0.1204059234,0.2085081228,-0.8850264877,0.1418760824,0.1826435008,-0.9728403681,0.4875311991,-0.0675561035,0.0972496009,-0.7785320889,0.4939576997,-0.0894731313,0.8818430453,-0.1278257307,-0.1309625742,0.1509253329,0.0100663579,0.8343802906,0.925826501,-0.040699271,0.4140331142,-0.0758534428,-0.1482322915,0.2225635586,-0.542474092,0.2551851844,-0.0850595518,-0.0169470158,-0.5569648436,-0.571088515,0.693150685,0.2003703207,0.334198148,-0.0797534382,1.0065875675,0.2026963805,-0.598991972,0.3255811465,0.8923950269,0.3524963357,0.9583060409,0.856006641,0.4740876209,0.1346101017,-0.8486347888,0.197773689,-0.1289032154,-0.255636192,0.7115794032,0.8258592515,0.635174688,-0.3863876382,0.451260954,-0.4781680538,-0.8385007029,0.2656425519,0.2378481828,0.2198950951,0.2471677525,-0.2093367195,0.8572902137,-0.1606967792,0.5472522978,-0.2131157863,-0.0416170688,0.257306666,0.2115250176,0.7939897335,0.4121982848,0.3904681143,-0.0174333702,-0.970466027,0.4929412715,0.8272796981,-0.9478570569,-0.8539840656,1.0062222181,0.771051891,0.9673972822,-0.3076194947,-0.3159575138,0.277888596,-0.7432038731,0.1133448344,-0.3887002566,0.2701245034,-0.880375235,0.8830659034,-0.8324874445,-0.1956785769,-0.8253649021,0.5568911764,-0.8291504518,-0.3173927398,0.3928130992,0.1946999829,0.1728717754,-0.7884028207,0.3955951843,0.1827451631,-0.43853987,0.0352997487,-0.6205685374,0.3686874779,-0.6654148124,0.5884872842,-0.5893432825,0.5396425889,0.1655459976,0.3234002416,0.9007559817,0.928418681,-0.0283789628,0.4010295172,-0.0013563362,0.3069459572,0.2679587036,-0.833577904,-0.9222055323,-0.1840499251,-0.1627836914,0.347640965,-0.2623699822,0.5265498758,-0.7431627846,0.3129122822,0.1117505131,-0.9757387762,0.9208825171,0.9949813152,-0.6084386236,2.6375186686,0.0456025535,-0.2817811159,0.981940244,0.6776843618,0.5535962786,-0.54122336,-0.4326305472,0.8990415771,0.8704933411,0.8499687074,-0.4383421845,-0.7877769845,0.5992120274,0.8790881085,0.2133511502,0.4995068897,0.7536957446,0.4920264112,-0.770009666,0.7570215172,-0.4164134943,0.1632941633,-0.3945710451,-0.7056506582,0.1586756361,-0.1996089259,0.8870975143,0.5877989772,-0.8131666128,0.3310532787,-0.6526860327,0.9415400873,-0.4052611269,0.2648489386,-0.8022529805,-0.1409271637,0.3202038196,0.5519555785,-0.7943661003,0.6034122723,0.4635206763,-0.9244636015,-0.5080043964,-0.6979457896,-0.747688686,-0.3493677288,-0.1905744596,0.089760494,-0.7296945542,0.3024078878,-0.9154000671,0.3933846797,-0.6265401859,-0.4991447365,0.7873434914,-0.5084147785,0.024691569,0.5454992042,0.9053346675,0.2131503089,-0.0932813988,-0.3280879201,-0.5643065831,-0.3036575248,0.9062252737,1.0266496357,0.1043664141,-0.6015096588,0.4217297528,-0.1099728094,-0.6862749973,0.528709925,-0.0800133531,0.7476867326,0.2578451193,0.6022825614,0.403253941,0.9374689689,-0.2591079473,0.216400906,0.9954060524,0.9298839644,-0.3118957035,-0.2911436696,0.468700305,0.4652345507,-0.9442809445,-0.8405008597,-0.2970323553,0.1307156597,0.5771542021,-0.2464122106,-0.0512781632,1.0156107211,0.9200109808,-0.6662079505,-0.1878610816,0.9771840107,0.5887771341,-0.8617621948,-0.0732542841,-0.6886211005,-0.4759047095,-0.3419845024,-1.0385929047,0.603480931,-0.4934088102,0.8703061731,-0.2956895133,0.2333315448,0.7994564186,-0.4279065458,0.7317535816,-0.2864909875,-0.5371068337,-0.5818996428,0.1837952817,-0.7484540322,0.1868089186,-0.3668635759,-0.4775376688,0.6938406869,-0.8334500576,-0.3244364098,0.0245679141,0.9589433785,-0.3704523459,-0.326483764,0.2390146672,-0.1393831968,-0.6121263946,0.5182719531,0.2863100133,-0.3337753614,-0.7959891836,-0.6877861789,-0.7309155794,-0.9070403033,-0.8941412133,-0.4208368522,0.042519209,0.6590965378,-0.7706025094,-0.5177792686,0.3781687435,-0.7988074051,0.1717121508,-0.2325584379,-0.9407235135,0.7352985045,0.3767412526,-0.8269888124,0.1925662769,0.459321044,-0.4517064624,-0.6166670311,-0.6631974479,-0.288798237,-0.0829044784,0.6222054735,-0.4304709345,0.9971325016,-0.1430938556,-0.4546338301,0.8955924678,-0.7697997735,-0.6522882037,0.436424462,-0.9890193234,0.4136402054,-0.0188713901,-0.5782724102,0.7635665841,-0.5774857804,-0.4296337447,-0.9329121781,0.8648894643,0.3006672475,0.3685405798,-0.4864862745,-0.7821375223,0.190791024,0.2932153421,0.6396997777,0.0468526649,-0.8877566624,-0.0664373888,-0.8152092271,0.4870228963,-0.7132955061,0.3712013735,-0.4824522459,0.0501971702,-0.0521040927,-0.1801231974,0.5706813223,0.9863957265,-0.0175253803,0.040255082,0.1877698791,0.2744869253,-0.0347101124,0.4291855259,0.137465772,-0.2047919567,-0.3456018924,-0.0189756855,-2.7587845562,0.3190124833,1.003354442,-0.7889357133,0.6251165718,-0.146250701,-0.4304451455,-1.0093764852,-0.6454507025,0.6607635021,-0.7744699112,0.2017764192,-0.1357314016,-0.3097625935,-0.2122124015,0.5081213177,-0.2851266811,-0.0064988948,-0.2644576006,0.2014150136,0.8209559379,-0.6842629829,-0.854817118,-0.0650339768,-0.4672419641,0.9839830264,0.6014736179,0.0698214433,0.2119798786,-0.4422905625,0.4862460987,-0.058156695,-0.6522791717,-0.0087165793,0.0766254376,0.9838899653,-0.2595358301,0.1185901631,-0.2175513899,-0.725575971,0.7219548991,0.8111142625,-0.0472376955,0.6187952317,0.9459881743,0.9593209189,0.0106957064,0.1534127981,-0.7280649383,-0.9539297431,0.9674028677,0.602593736,0.4883458496,-0.121701889,-0.9691237397,-0.502545405,0.9223675756,0.5270168446,0.4579685891,-0.7377528848,0.8461107643,-0.3047513165,-0.6335735638,1.1497324223,-0.8483862376,0.1482928353,-0.9813677088,-0.8623741015,-0.2518264459,-0.1946847059,0.1689053622,1.4359312026,0.0333796804,0.9822554492,-0.2090649139,-0.992104461,-0.9174512893,-0.9693487118,-0.4168217131,-0.3962222227,0.7428798557,-0.6600836274,-0.3236259136,-0.8843723187,0.6652477884,-0.2977367339,-0.4454535232,-0.0552474038,-0.4627481757,-0.0108038473,-0.767203929,-0.1159600366,0.7672250782,0.0367401247,0.6066950035,-0.971063981,0.0237084841,-0.0576074688,0.2500973833,-0.0826949605,-0.7861797117,-0.4242901879,-0.7376536731,-0.796640595,-0.5373918285,0.7271953117,-0.0814043696,-0.7838584218,-0.4597586892,-0.8630750057,0.5738460158,-0.8537893991,0.4004314036,0.9734546142,0.2601237026,-0.7664639376,0.7856429468,-0.6098048467,-0.2346390686,0.2300147578,-2.0832538164,0.5929845613,-0.6949829697,-0.3908738847,0.3412622766,0.807525758,0.2259426817,-0.2341207254,0.9670474025,0.4060016619,0.2401940436,-0.6092206487,-0.5180686606,0.1244280533,0.1933032671,0.2637640156,0.4815961242,-0.3005409548,0.5945418979,0.1394835129,0.1035161361,0.3663856409,-0.0241381723,0.4802071876,-0.7683900994,-0.6126105901,0.8065332171,0.9302103786,0.5714298395,-0.0504723956,0.6452043248,-0.1779257352,-0.2733463973,-0.1788167601,0.0928949493,-0.7866485811,0.0815796129,0.8569907942,-0.9493788903,-0.1671044043,0.5176114361,0.7469848388,-0.0675530807,0.385453452,-0.7664141553,-0.4100383129,0.6629824343,-0.006756332,0.0210659102,-0.6371252109,-0.1636429077,0.4162138553,0.899594829,0.3200725761,-0.961845405,-0.8710413212,0.6730850396,0.7296387511,-0.1591804807,0.5303520616,-0.8924412988,-0.1486453025,-0.3102059515,-0.0290502909,1.0069593505,0.9718557359,-0.129256872,0.9423748949,-0.3900481224,-0.2735758272,0.9474010372,0.5198833502,-0.3217990622,0.2827757384,0.5268354642,-0.7418915926,0.6804289512,-0.0567370509,0.8695875887,0.8359607749,-0.9019908853,-0.7165681259,0.5551871902,-0.2147168095,-0.5374085147,-0.5410014834,-0.5405865899,0.3474195725,0.6774499651,0.4944968105,-0.3580657814,-0.30742048,0.2132781359,-0.1665112866,0.4229966303,-0.2471993989,0.5217462296,0.1086909972,0.4150474265,-0.4452105285,-0.9014382153,-0.2841579896,0.8608443345,0.7581718127,-0.0958668198,-0.5746591785,0.753107639,-1.2282658768,0.5871271244,0.7899023476,-0.6160008932,0.9695244776,0.4946211293,0.275899699,0.1839623446,-0.0538695941,0.3676105065,-0.2025425232,0.7781845077,-0.190961254,0.4391025938,0.661748398,-0.3533103283,0.1621578208,0.4388150033,0.1354276812,0.7169864495,0.0612104262,0.666530923,0.2952050591,0.4512863515,0.6509736103,0.0145905549,-0.5789652371,0.7096231806,0.9320591672,-0.2605758121,-0.6240251518,-0.981142971,-0.7941545415,0.8329407652,-0.7973662646,-0.4381449605,-0.3125349955,-0.1114958016,-0.8982758974,-0.4491910964,0.942877065,-0.2803145136,-0.588671568,0.4163619781,0.2120248094,0.6717207463,-0.4442225776,0.5179737859,-0.9236424082,-0.7590315781,-0.6559437314,-0.0326566956,-0.9748928113,0.3499692262,0.7256457146,-0.0352297724,-0.6972218152,0.4773312659,-0.5188729821,0.1274328271,0.4408975137,0.8841284137,0.8792537735,1.0052269773,-0.7072960187,-0.5982927864,0.1531255486,0.8003933213,-0.7528947963,0.5409239951,-0.8247990476,0.132875955,-0.0704835067,-0.6828431789,0.6781805133,0.648268589,0.0125707298,0.9874299917,0.0693572251,0.4164632903,0.8912283848,-0.3511355741,0.3977776851,0.6169535143,-0.6231310415,-0.9795712112,-0.4167517388,0.0571862063,-0.8534668773,-0.9843179508,-0.7457551865,-0.6421624616,-0.1553166029,-0.6526373045,-0.7343025869,-0.9353004299,0.8536157621,-0.1662978131,-0.6768045748,0.5770623257,-0.3515708745,-0.0133257808,-0.3751891624,-0.8042322716,-0.3915322825,-0.7954042398,0.6775794499,-0.0146610067,-0.8377114767,-0.6731917831,-0.4184477928,-0.1143922961,0.357129292,-0.501448662,-0.479115637,0.1744526189,0.1861323746,0.9340730512,0.5814246588,0.6633409117,0.5717886023,-0.5270505683,0.3225471001,-0.6646690915,0.5351568855,-0.9059447542,0.09771479,-0.868396864,-0.4851105971,0.2131075697,0.9480668738,-0.2928765838,0.051844869,-0.2908093953,0.480905101,-0.4851317876,0.7592304806,-0.8213032282,-0.9893122317,-0.2267452548,0.9562509337,-0.4421019422,-0.3919927576,0.6068837911,-0.2336466147,0.5423961367,-0.3207579601,0.1193235185,0.371471724,0.7354060162,-0.2542286457,-0.2296047838,-0.5524617204,0.9366567527,0.7766693605,0.5224270449,0.0384056089,0.0822834395,0.0235057204,0.5792072158,0.0695014494,0.8794446901,-0.8856227236,0.354756217,-0.6389528517,-0.6746165063,-0.3625977215,0.4861922407,0.2288116186,-0.4360198801,0.8197137304,0.9824918932,0.9592563989,-0.5459478015,-0.1434949446,0.1308468784,-0.1737349975,-0.6475471642,0.7977097666,-1.8298034011,-1.939244178,-0.4422761014,-0.5939833852,-0.7544092015,-0.875185211,0.8306138013,0.5983526707,0.2308298144,0.4708087764,0.8733339062,0.4678100057,0.4058960056,-0.3444885325,-0.848064332,-0.0257955308,0.7992743776,0.3484103521,1.0106463005,0.3042039998,0.119026397,0.2277884463,0.1516726494,-0.5985241346,0.91539977,-0.1048722946,-0.2519891417,0.2796965341,-0.953559216,0.9288261045,-0.0354978447,0.6778256593,-0.7246524963,0.1203975274,0.0190001891,0.9088738668,0.918513988,-1.0010285968,0.0190318103,0.1997671901,-0.5340017978
   -0.798657543,0.6551956652,-0.4551056984,-0.1598911803,0.2037676901,-0.0715901197,-0.8167523288,0.129433227,0.962556348,0.0368805545,0.2321631588,-0.6665830191,0.4769973299,0.6731576955,-0.2443750093,-0.280959643,-0.0187518385,0.2005073707,0.9723648465,-0.3997324459,-0.6489109975,-0.3993088411,-0.8507382085,-0.6886023128,0.1532431407,0.1511222935,0.024440119,-0.691269888,0.8564971023,-0.2647640071,-0.8064626299,0.3534260983,0.3266738733,0.6867490779,-0.0299273844,0.6883973897,-0.7619162227,-0.3437266842,0.8015968692,-0.9078392807,-0.2980024661,-0.2081001028,0.7342098148,-0.4737729173,0.4166343603,-0.510009483,-0.8022597139,0.2824206542,-0.8388245088,0.9317029592,-0.8930110767,0.3096387965,-0.6687715852,0.5574577398,-0.5442359736,-0.4127521974,0.4844270713,-0.1995628292,0.4433332979,-0.2402439004,0.4188454254,0.09731751,-0.8254625519,-0.9007964549,-0.0451468094,-0.7731077525,0.1741440698,-0.6572120054,-0.2654726392,-0.2783318353,0.2509271632,0.7476480488,0.3098523751,0.7059898679,-0.210532672,-0.2197640427,-0.3112753666,-0.890693313,-0.5899107828,0.5295680501,-0.9849991654,-0.2528733801,0.8417201006,0.3986840036,-0.1893818191,-0.5450856203,0.8904156847,-0.3550750557,0.1810390141,0.1070560082,-0.9738034169,0.8632198953,-0.9744596019,-0.0843004288,-0.6369453189,-0.458649058,0.6859689289,0.197506088,-0.0974466867,-0.4718848591,0.754973157,-0.736272339,-0.6811877385,-0.0538973497,0.5204634123,-0.8619901397,-0.7489699821,-0.547922017,0.3239908779,-0.2307159573,-0.0920232851,0.0047609204,0.9132502709,0.5063000825,-0.9349446423,0.1358431213,0.5604544349,0.344766186,-0.6585110976,-0.4303729991,-0.1946312224,0.0984140172,-0.0318678508,-0.7157397328,-0.7726771809,0.0701853468,-0.5605201379,0.0882789572,-0.7760870424,-0.3066412612,0.679654038,0.2786571689,0.6162227704,0.0211444503,0.2530411717,0.8821360487,-0.2981247633,0.3321699275,0.5136595745,-0.2812396529,0.368898201,0.7690497336,-0.5812792799,-0.3624924013,-0.1447779674,-0.1535952853,0.6730029159,0.898799978,0.2154340825,-0.6863638828,0.4654823351,-0.8924152652,0.5363722594,-0.8244042646,-0.6551026716,0.6845761394,0.7483308485,-0.0953447541,0.9600009769,0.2840729639,-0.1633729848,0.4806588652,-0.5698078298,-0.3299201974,0.4465342839,-0.141666226,0.7989034248,0.2605228506,0.7040592279,-0.4774171512,-0.3926174353,0.8244106379,0.2518034176,-0.5853411548,0.7024234204,0.8356752012,-0.8668641675,-0.1383657962,0.2720797562,-0.8052112142,-0.5203050685,-0.6965511473,-0.2968018051,0.5367066976,-0.9234900422,-0.6900666409,-0.8611901378,0.6110232976,-0.3325582444,-0.6740080608,-0.5813308021,0.5025689565,-0.1424414212,0.1320913369,0.5785971151,-0.4620481086,0.5474862812,-0.0225941962,0.6518150503,-0.6074321599,0.4895058851,0.0787229448,0.3078241153,0.5614823038,-0.408218115,0.2509731847,0.1091957807,-0.8178426308,-0.4391431366,0.9289737208,-0.0648571204,0.1502225474,-0.1058607844,-0.6901062637,0.3720288476,0.9284291313,0.366300226,0.9480163941,-0.4836207994,-0.1950165056,0.1546181049,0.3002435435,-0.3456304728,-0.3149655334,-0.7346333522,0.2566217107,-0.4606633373,-0.2403897157,-0.4294544509,0.7588623733,0.6876500028,0.1240562035,0.2644717836,-0.834856243,-0.2055518741,0.2779393966,0.7168612045,-0.3277868632,-0.3402313888,-0.9537074402,-0.8392287841,-0.523252647,0.2581925633,0.9243440827,0.5077584808,-0.465067823,-0.9847121002,-0.2684826806,-0.0611831943,-0.3185669373,0.6816948206,-0.661493249,-0.0276407774,-0.4919741565,0.1904813221,-0.86511534,-0.8855752853,-0.9549523702,0.4135038978,-0.190264821,0.1289856527,0.0732104488,0.9836560589,-0.3767866042,0.0025141038,0.4939594907,-0.8171500465,0.2500929039,-0.3535987714,-0.2772811306,0.9413863228,0.7209429182,-0.0243611451,0.6217879653,-0.9322233,0.4714084712,0.0789553815,-0.1879754058,-0.4441113117,0.4249549701,-0.3628723794,0.0882984361,-0.4392527598,-1.0064414877,0.5603489637,-0.0377292839,-0.9501325268,0.4569454953,0.1826963869,0.7239932214,-0.5524785246,-0.2939632136,0.124830219,-0.4722708061,-0.7440959516,0.3043605473,0.0970294143,-0.4877743408,0.1499444566,0.6786334105,-0.5210784645,0.9467220799,0.9243284046,0.3101650918,-0.054262577,0.9827415273,-0.2717553748,-0.9169254531,0.8399928331,-0.7112399329,-0.9032120214,-0.9256464192,0.7383546547,0.8951662247,0.7623374335,0.3733158537,0.0917371412,-0.1834740192,-0.3181662376,0.1379282134,-0.8207554813,-0.793895897,-0.5395383037,0.5374640748,-0.3655516468,-0.7635577392,-0.1858675438,-0.514623057,0.3790126258,-0.5232599386,-0.0947004374,0.5800741639,0.4392791502,-0.5187468084,0.0850081272,0.0513309086,0.1927348726,3.0930732231,-0.5337282315,0.5670543565,-0.6112150398,0.5025055916,0.0138643213,-0.7163054796,0.4668624769,-0.729927615,0.6577000721,0.1252969489,-0.037043481,0.6296133772,-0.5995008818,0.5534424356,0.7344608836,-0.7977242748,-0.1486567482,-0.9331829785,0.6147359463,-0.5839662216,0.4497085549,0.323097238,-0.0537378124,-0.6877552708,0.3860368283,-0.070876874,-0.1205288416,-0.2591407653,0.5148401745,0.1393433335,-0.8715888055,0.1721111038,1.1244878624,0.0990408512,0.441972242,-0.5712635033,-0.8556133519,-0.3431026573,0.8572927631,0.5949881662,-0.9149723006,-0.0075610348,-0.294282532,0.8429530629,-0.9081944181,-0.2675555504,-0.5955471477,0.9725149303,-0.8856802222,-0.1615887582,0.2645749299,0.076240314,0.1685866476,-0.0255802437,0.6993492286,0.344342,-0.7034835485,-0.1937993219,0.9486355379,0.3606564037,-0.1257775454,0.0082245375,-0.5497950757,0.1791601282,-0.6340019926,0.9072289807,-0.7186847444,0.9664531184,-0.8624655841,0.9993703534,-1.0121167591,-0.0007754714,-0.7333607803,-0.3140528433,0.5986486272,0.8265092189,0.1454718857,-0.8174881006,-0.5188832491,-0.269084073,0.8572090121,0.7626730832,0.629867449,0.8151095519,0.4641802902,-0.6132931143,-0.8591437206,-0.7045004838,0.3432454812,0.6267753594,-0.3353452475,0.3703668221,0.5219266568,-0.7584877803,0.2807632658,0.0125810247,-0.7420939139,-1.2575176796,-1.3303129276,-0.772666417,0.6926222334,-0.3724598274,0.9853320301,0.5825078471,-0.4604092208,0.6646088025,0.3724156717,-0.9151273119,0.6091278125,-0.352318581,-0.3445699093,-0.7130412598,-0.0463132351,-0.575800403,-0.6130870198,0.2223696044,-0.3509443731,0.9323146293,-0.380828136,0.3163132533,-0.355871709,0.1224050682,1.2543909663,0.9902858843,0.9890024292,0.2450288222,0.2714483322,-0.7467043491,-0.6241205163,0.8295937501,0.1822165597,-0.9553080402,0.488336674,-0.7618606547,0.6991947662,-0.126748658,-0.2941375866,0.080988838,-0.5707001176,-0.0842791787,-0.5938488233,0.7750331231,-0.4016357524,-0.18012427,0.1573602974,0.2329581592,0.3462653149,0.8779797717,0.0419905065,-0.5444770844,-0.017300398,-0.1743319549,-0.9885135548,0.1964926588,0.096086979,-0.581699424,0.3190441828,-0.1547425761,0.8763384341,0.5670090986,-0.4815290884,-0.7604277556,-0.8017284585,0.3638710227,0.8481806461,0.4009628426,-0.6054521718,0.663171178,-1.0644470139,0.9481627058,0.8286756138,-0.2757910596,-0.7727107336,-0.2649585632,0.203175708,0.1810281157,-0.0799776568,0.1995131356,-0.3939369437,0.6425799166,0.2419202835,0.1830433663,0.8963613274,-0.4519854275,0.5382779107,0.5194577898,0.1584350251,-0.2381891688,0.3661034275,-0.8860490451,-0.0484731236,0.1090355111,-0.8428427061,-0.8305033771,-0.8647521491,0.8763724467,0.2507163887,0.2693600592,-0.3205493971,0.190083773,-0.514349379,-0.1638338928,0.5624572404,-0.5961569214,-0.4509023577,0.1910459921,0.6800458513,-0.9379518297,-0.9189010556,-0.8605258009,0.4144345169,-0.7057413311,0.4675467544,0.7744012614,0.084890555,0.4299007049,0.1556692465,0.7166377566,0.6038678323,0.6190642423,0.4231383085,-0.2526273972,0.0656382484,-0.2146261109,0.8448041636,-0.3586622184,-0.5158801464,0.6184774398,0.1197072568,0.585594193,0.4084619944,0.0864875792,0.5661451315,0.2789044199,0.9503813222,0.195390386,0.0640942265,0.1526897399,-0.5901757811,-0.3314051534,-0.1732103572,0.348840884,-0.7970289121,-0.1048706054,-0.4418373971,0.8804956594,0.1861157683,0.3662284987,-0.7511361117,-0.4997421797,-0.2780252442,-0.5542066252,-0.6715929371,0.9864476493,-0.3151692325,1.1258650355,0.0460841575,0.3744001428,0.1669439108,0.7193254474,0.0067920009,0.7086214242,-0.7877872789,0.9546770046,-0.2889007378,0.6947533084,0.9421641747,-0.514874664,0.2206373727,0.0437553251,0.8133442973,-0.9904278266,0.8679633452,0.07725516,0.348059687,-0.2261330845,0.4007718779,-0.0886952268,0.6414904704,0.9878575124,0.7984833312,-0.6646712732,-0.3099515457,-0.1386285242,-0.6960353066,0.9791305377,0.2417754589,-0.2123751739,0.2061101376,0.0584051564,-0.1910987363,-0.6234169872,-0.1124945856,0.8053134169,-0.4037918772,-0.6364546533,0.1522662089,0.2665825347,-0.6610643884,0.0198771078,0.9278590306,-0.15999117,-0.1880852668,0.6512542219,0.5659564342,-0.7967992126,0.2580415237,-0.2963901963,0.8344301644,0.1009604467,-0.0600824281,-0.5184616368,-0.437767769,-0.1148325905,-0.6368749105,0.9701695301,-0.309574953,-0.6446795901,-0.3816988794,0.3792862558,-0.8576213032,0.5623070178,0.9288281372,0.2602257052,-0.9801505087,-0.7409199048,-0.1855781586,-0.0593907533,-0.913672472,-0.3764240371,0.4392522415,-0.7241584729,-0.100672818,-0.6766656938,0.7823185735,0.6726243919,0.2226867149,0.5117437147,0.9694295055,-0.3789034717,-0.591626584,0.7863882678,-0.195125662,0.8324067881,0.3761105968,-0.2651755645,-0.3427568685,-0.059633899,-0.1671581118,-0.7616203185,0.9131664379,-0.1753417274,-0.2358483536,-0.3650184483,0.5008221661,0.2813298717,0.7394707764,0.6384019928,-0.4873207485,-0.455694399,-0.6259069062,-0.1047002858,0.1486672315,0.9800838142,0.3775006337,-0.2466471166,-0.6694185624,-0.7240005082,0.0039262338,-0.947776254,-0.7427711274,-0.4911772711,0.140095685,-0.2481253375,-0.7272852373,-0.0284341186,0.779051394,0.5095268275,0.9937655284,-0.0686322045,0.5273106214,0.4226003025,0.8658554694,-0.0078659417,-0.2335376352,0.4680530751,0.9400745964,-0.5096564,0.1828197377,-0.2888796986,0.9516812425,-0.20877717,0.890402864,0.1593071451,-0.2414313898,0.4662736105,-0.5482615524,0.4182198695,-0.6076949093,-0.8425472285,-0.9515559425,0.4743528884,-0.3337706537,0.9195805004,-0.5727071767,0.8478642706,1.1489804663,0.7366071803,0.9778343161,-0.5807437547,-0.3201682644,-0.0161755247,0.8374802537,0.4181979045,0.2172622021,0.6998797932,-0.1293019062,0.017159539,0.6220716659,0.6390839333,-0.2951908671,-0.4845848024,0.8775953767,0.7907520682,-0.1744810331,0.4846069316,0.6237946308,0.4228969442,-0.3888705597,-0.1048750173,-0.7992941953,0.4984068225,0.4324820538,0.040894665,0.7274123041,-0.7958640599,0.0438242515,0.8140608892,0.8323422723,-0.1509047149,0.4226378015,-0.0959815981,0.208312564,0.6445847109,0.6940661063,-0.9232072641,0.6613748833,-0.3807847921,-0.7478813804,-0.3147175323,0.4398770139,0.1801687908,0.1990190801,-0.1908034243,0.4699243303,0.2788957252,0.6699333264,-0.3518895865,-0.6504029993,-0.6935625187,0.1317153954,0.3793455937,-0.6800275669,0.9450548066,-0.8429134707,0.8381787075,0.5629343561,-0.7142660798,-0.9859638703,0.5429092936,0.929894574,0.5377368751,-0.8734144264,-0.4815303212,-0.8150483933,-0.1800218344,0.0226160717,-0.098687814,0.4809441629,-0.5899745774,-0.8392908988,-0.9370998428,-0.5083518139,-0.8648504818,-0.6031773761,0.4370231433,-0.0000883547,0.3065555981,0.0004560508,0.36071568,0.8856280553,0.8070784278,0.3791416176,-0.8796025392,0.6038873833,-0.19491218,0.4293685839,0.1023552992,-0.7722656119,-0.1249555977,0.868343917,0.9893017213,0.6308361041,0.2691993794,-0.8188021031,0.3058644102,-0.5466199676,-0.6097675852,-0.3311241494,-0.56552361,-0.0907808482,0.2930297875,-0.9082285828,1.323483766,0.9996529388,-0.0195918883,-0.34784146,-0.3283291987,0.2798205768,0.084506464,0.054408283,0.1039703043,-0.9416991797,-0.4915090511,-0.5885595799,-0.242848135,0.908514215,0.9463476569,-0.8227615841,-0.5923600296,-0.8985976169,-0.3896434864,0.5816696999,-0.9484976653,0.9626010332,-0.3880300088,-0.6141716318,-0.9817812995,-0.3746507521,0.6854753225,-0.5933259573,0.029151167,0.1473590432,0.4991494623,-0.9242013108,-0.113849814,-0.2338269076,0.8039758961,0.9433117704,0.2368149419,0.9391908011,-0.050954539,-0.1494312866,-0.2791041012,-0.0385534036,-0.8874317276,0.3883008205,0.0438880521,0.4094642958,0.7250762926,-0.7791602405,0.7759232087,0.7986761898,0.303661455,0.8953220171,-0.9222787477,-0.56260043,-0.8566013153,0.6395408035,0.0763143655,-0.2772128441,-0.6804821513,0.1765688361,0.2327145052,0.6870196002,-0.3986813852,0.2894121061,-0.3183144136,-0.0455359209,-0.5528605112,0.7246683337,-0.162456627,-0.4466071598,-0.7885774061,-0.6478132313,-0.9472684659,0.2516410942,0.2550229705,-0.2032083719,-1.0477656124,0.333911971,0.0688535729,-0.3818970546,0.8489905779,0.2944543337,0.4513646387,0.3606540778,-0.9701940104,-1.0527111537,-0.4285883648,0.8578933883,-0.2870483954,-0.71741329,-0.5407071792,0.9794035051,0.6891724462,0.1966682493,-0.7945733014,-0.6641507383,0.3848231891,0.7896356846,0.5523549995,-0.8114697615,0.4249821155,0.1632959051,-0.7852033883,-0.5833443086,-0.6374597636,-0.5539518878,0.4607930803,-0.5032509492,0.9573066865,0.1690618758,-0.0569214601,-0.6841831671,-0.8028399782,0.2450628857,0.481210118,-0.0893219053,0.9679038829,0.4098107099,-0.0049927123,-0.0849223769,-0.6645770002,0.1065865048,-0.3332868849,-0.8502626355,0.0937956206,0.3371704762,0.302957154,-0.1983756555,-0.3096638615,-0.8213808412,0.7680121897,-0.7368864756,-0.114880843,-0.0407853391,0.2863385384,-0.793350694,0.3793583409,0.8101106699,-0.0604248444,-0.5446027673,-0.0059582772,0.3818522735,0.4040737008,0.5924402024,0.4221533028,0.3225648239,0.2514493353,-0.5922087169,0.838757255,-0.0610157508,0.2277743406,-0.2134756019,-0.1552064307,0.0830083086,0.0432700114,0.7519074763,-0.4152826225,-0.4486599051,0.7310102046,-0.5824922624,-0.7763357168,0.4364047938,-0.0320013141,0.7686151136,-0.7383451045,0.6590592615,-0.1838516886,0.7931656704,0.8905604574,0.8350080732,0.5759213136,-0.0648199089,-0.5437651176,0.7757196248,-0.5307767446,0.2342201477,-0.4193473043,0.8791741762,-0.8357053298,0.0725458694,0.1598002644,-0.239145105,-0.7866263411,-0.3896902753,0.7457526894,0.1792332614,-0.9429605961,-0.4070636627,-0.2025263207,-0.2840443637,-0.0891941907,-0.2891705208,0.2266154302,0.8496749714,-0.9743168293,0.3624413644,0.1689134537,-0.2893339951,-0.5166408591,0.7700281403,-0.2569135128,0.7766544544,-0.8906288445,0.5948288502,-0.7599497338,0.39204147,0.1248907291,0.6673455286,-0.4089274298,0.0820896751,0.9581103353,-0.7735703859,-0.3596649936,0.2955185599,-0.0582892852,0.0623748627,0.0028102892,0.609427693,0.3722904352,0.7454425546,0.6948834021,-0.0328529151,-0.8473247449,0.172783542,-0.1755247279,-0.0859697697,0.7116686672,0.4326238797,0.426575501,-0.8750337163,-0.5436860855,-0.5216703662,-0.9774137399,-0.9420428315,-0.8639299833,0.2523902142,-0.7661112019,-0.7423961027,0.8753450306,-0.6063533284,-0.0778271276,0.0545407938,-0.7312192558,0.8337297348,0.537105187,0.7471991188,-0.9544570969,0.1007593933,0.3803818101,0.0367632329,-0.6900576492,-0.1040177071,-0.3862117266,0.4186957379,-0.8456829091,0.4790630321,0.7077138192,0.2606080418,0.9028625294,-0.9106916439,0.9909036495,-0.4188115859,-0.6649755999,-0.337231834,-0.1782851777,0.5317618695,1.0060434029,-0.9206703582,-0.5969476162,0.0536534502,-0.0965487172,0.8698596831,-0.7115359396,-0.7250229591,0.7967775439,-0.1409066753,-0.3414926519,-0.3024201401,-0.0456729652,-0.7948888639,0.3075607639,-0.651158787,0.273274188,0.0323136194,-0.7875119263,-0.4746122047,0.0550462028,0.4678547984,-0.5093725552,-0.2332403755,-0.8032850699,0.8931158746,-0.970190381,0.421256325,0.9447696223,-0.1877692518,0.7957947384,-0.6214194378,-0.5162030678,0.9643349577,0.3261398919,0.6583559427,0.2111278432,0.3278927849,-0.8808635507,0.7924426548,-0.5480557657,0.159313197,-0.9447702589,-0.736331319,-0.9764109766,-0.8216368125,-0.0026188603,0.4425380254,0.4050317655,-0.1082324001,0.731856295,0.1958814514,-0.6970787993,-0.3071880169,0.8300663367,0.6525793648,-0.4053407878,-0.6265878557,0.8381390375,0.9426124059,-0.0205299726,0.6249784225,-0.4366260975,0.1474467746,0.2901119931,-0.4460813545,-0.1136191526,0.3179547585,-0.6277870592,-0.2635770309,-0.5400442274,-0.3475695983,0.2124398018,-0.8921468756,0.3267706527,0.3740017557,-0.5870161972,0.7679098063,-0.4915446931,-0.322156017,-0.3579687442,0.5931333865,0.5203570192,-0.358168021,0.2249612321,-0.3322476197,0.6395365329,0.4887441918,0.9500237542,0.4638303256,-0.5432483353,0.95449511,-0.3607971614,0.8961484452,0.0219220606,0.6160156063,0.9248864131,-0.319844375,-0.9860746864,-0.4349151051,-0.5689606589,-0.2108687372,0.2741323844,-0.6337662344,0.4691136881,0.5730637597,-0.1560725626,-0.9085233434,0.4659756995,0.685644288,0.8038359378,-0.0765987231,-0.3932889354,0.6215041382,-0.7171139702,-0.7967229209,0.6401597285,0.815496297,-0.4566424503,-0.8711578032,0.8934520625,-0.9791164945,0.8467261519,-0.6802987694,-0.1844375156,0.1925459612,-0.3519694062,-0.1634800331,-0.3556150251,-0.1447215207,-0.663868119,0.0118654763,-0.6697403374,-0.7707402612,-0.0341523106,0.3587876543,-0.3722497109,-0.5369627644,-0.1494116584,0.9786508427,0.549821375,-0.2555657534,0.7931758631,0.5207063529,-0.4081584989,1.0456282542,0.5888607802,0.3867697885,0.877689804,0.9865977263,0.6675022683,0.0161656743,0.4736597579,-0.4778286843,-0.3447527549,0.6630946714,0.6924288055,0.8404418866,-0.9604308938,-0.3168722038,0.1351461485,1.0000563153,0.8017696751,-0.1424395588,-0.3398461673,0.3470051283,0.828630909,0.5647341457,0.7022058159,-0.1960133314,0.1411775278,0.6564601475,0.0523433005,0.6527120335,-0.3329274605,0.0892311975,-0.2309546621,-0.9353206425,0.9197560098,0.1597395344,-0.5923140969,0.2419649498,-0.7316371267,0.9315368288,0.2484926176,0.3162142958,0.9458060284,0.5636795142,-0.4014927479,-0.1783343161,0.4765265265,0.6401166473,0.7491412925,-0.8343625059,0.312442439,-0.2342387155,0.5415295539,-0.9451593342,-0.5027344486,-0.5103713986,0.3613936385,-0.3591104482,0.2624185982,0.5165471984,-0.7277455014,-0.7563477292,-0.3499336874,0.4402735346,0.929893702,-0.2917044601,0.4259952939,0.7145046631,0.1031447444,-0.584936525,0.7815738617,0.4320921742,-0.4465246538,-0.0595361918,0.6184880796,-0.7460742274,-0.0253571782,-0.7845751513,0.2133425577,0.1087848387,0.9679054096,0.4168253679,0.8253678807,-0.0396015795,0.9419846146,0.3817217748,0.4291781204,-0.0405686891,-0.2933617368,-0.2914897274,0.2277086741,-0.91659806,-0.2409965879,0.7582400301,-0.4132932663,0.0200769698,0.0442574722,0.5604239847,0.1134749741,-0.1290414656,0.593199754,-0.1898016783,-0.8640877591,-0.6373784766,-0.2451520355,-0.3361527695,0.0441424343,0.2907437234,-0.4385926129,0.8644141501,-0.8341312452,-0.3532943843,0.4010862243,-0.096658961,-0.4842314636,-0.4290234144,-0.7505861137,-0.4381556656,-0.4784733961,0.8502269043,-0.0535727525,-0.9074293414,0.4201499712,-0.0922526279,0.9412652171,0.601946015,0.7789063282,-0.225483356,-0.208301645,0.4801683759,-0.5306889971,0.16534804,-0.327877663,0.669674776,0.4594707791,-0.3062217583,0.3985987129,-0.2921604056,0.0845954767,0.033091453,0.7732633098,-0.1816148439,0.6398456876,0.9791960529,-0.4091470048,-0.6126231275,-0.9648129216,0.8386058436,0.7698178082,0.6833317334,-0.6489395091,0.9381376745,0.9148054413,-0.794745925,0.8738797403,0.7982725837,0.8175332596,0.9180815424,0.9354376786,-0.9834665245,0.9252526411,-0.1925879922,-0.1819696685,-0.1344976531,0.5720788158,-0.7788532786,-0.5354247299,-0.5791020869,0.3938426035,0.1147388506,0.719425898,0.7923190906,-0.1806800317,-0.6256850557,0.0806041022,-0.1887565705,-0.4215300056,0.8524899446,-0.314996693,-0.0906695377,-0.01479792,0.0816999266,0.8074099179,0.0694205242,0.9633979067,0.4100397581,0.7934708232,0.9843007936,-0.0219534255,0.0506549595,0.3441742763,0.3872298066,0.6927219251,-0.7924372562,-0.6096691664,-0.3809123193,-0.7870572877,0.4454976251,0.9827559871,-0.8271195037,0.0573652462,0.014205244,0.5762075642,0.222603941,0.6528412663,0.5691570666,0.1420178256,0.9108881777,0.546901285,-0.3873908068,-0.2671813218,-0.4243107847,-0.4521958242,0.1429188434,-0.513725901,0.658794337,-0.0762520082,-0.3304875398,-0.7617905642,-0.2822048238,0.9392889652,0.1741680491,-0.9106392167,-0.9387835804,0.9917092259,0.0132909016,0.1450893659,-0.769559951,0.3930325075,0.7791259366,-0.9401597164,0.7020543981,0.3661438334,-0.0084601204,-0.4370072269,0.0446355133,0.8535171941,0.7624325938,0.1676872918,0.3126526924,-0.1840211915,0.209477113,-0.6307496826,-0.367986977,-0.6672425227,0.1962813122,0.0594250721,-0.3150177892,-0.3989520123,-0.6679201635,-0.5990528455,-0.4995348864,-0.646774975,-0.3847072379,0.7691544688,0.6904441376,0.9203279942,0.8396507599,-0.1983461511,-0.8565954678,-0.3342382374,-0.7996579617,0.4075036751,-0.8623546676,-0.978237842,-1.0033267065,0.8344794966,0.1560447637,-0.2241604903,-0.6073019321,0.3684707948,0.1661052911,0.1364761991,-0.2446024173,-0.6276684001,-0.0997715118,0.3598914815,0.9035006183,0.7160591014,-0.3449861063,0.8197871395,0.8128096397,0.9129366356,-0.6117888583,-0.1283201934,-0.3636390476,0.4596983657,-0.8817503215,-0.5423890612,-0.8278130698,0.3752088324,-0.5577861103,0.8199220376,0.5710426337,0.0640640703,0.0323369012,-0.5958147897,0.6795544557,0.8649112836,-0.6997177295,-0.2619202116,0.3888872869,0.29316833,0.5646592232,-0.6757170891,0.2604877154,0.2301811245,0.0907551007,0.2763578387,-0.0820291261,0.3525672073,0.1862445937,0.5328821689,-0.7614639211,-0.4085571109,0.0361369505,-0.0042792601,-0.5128276432,-0.1121825562,-0.543145898,-0.7584273875,0.6311801303,0.7350209894,-0.73180575,0.2221361309,0.5694336389,0.4292905685,-0.328762395,0.1235574979,0.1536129678,-0.5240980295,-0.807585757,1.0239596653,0.947746576,0.221838905,0.5949441421,0.2534745458,-0.0808450539,-0.0637235647,0.5346698787,-0.2403333671,-0.2733211541,0.6223457213,-0.9229767798,0.0624834535,0.3279866567,-0.4689128352,-0.3117507026,-0.511408672,-0.5279706137,-0.0058977695,0.7757876208,0.9487712208,0.2770196685,-0.2649313511,-0.7018903405,0.9193196338,-0.2983737462,-0.2161706708,-0.4297724167,-0.0300293037,-0.4178748345,-0.2306119596,0.601860503,-0.6708885818,0.783794788,0.2496739644,-0.9904312871,0.9751382278,0.0024079183,0.1848028356,-0.7441960718,-0.4716596301,0.9225256763,0.5002281605,0.1292523833,-0.9184802984,0.262752721,0.33596432,0.6057804189,-0.037060308,0.5461018252,-0.9043067448,0.6465883228,-0.8259043206,0.4836100891,-0.7324420694,-0.4867482653,0.5181865096,-0.4995252563,-0.315942081,-0.8174092193,-0.6307902166,0.7840724783,-0.7841145234,0.0556204492,0.8890915297,-0.5386196704,0.4588984976,0.4723836129,0.3177685244,0.0452240744,0.2599235532,0.5588311464,-0.9385542263,0.2279417404,0.0809601136,0.0458111695,0.5025258427,0.0364134349,0.3076126823,0.1597076597,0.2768918836,-0.6399634691,-0.0531564818,0.7099681451,0.3200144417,0.9369246341,-0.2109207218,-0.7371484225,-0.114025945,-0.7447063312,0.1768241266,0.1363296605,0.1101902448,0.4033225655,-0.7256470899,0.9376795731,0.9487950944,0.3609162045,0.6122354457,-0.6289497494,-0.7246446181,-0.6642312915,0.8645032143,-0.2438686589,-0.7880859807,0.1130529588,-0.1722789552,-0.2198360126,-0.8596404876,-0.4340327168,0.3197958022,0.421279135,0.8640319715,0.6982282715,-0.3740216995,-0.6402888387,-0.7979195734,0.1652509477,-0.6413815588,0.3442676802,-0.5392857344,-0.6577213612,0.2042883291,-0.5396147945,-0.9037619159,0.0022201154,0.9130008926,0.4014506545,0.622803145,-0.884946354,-0.2325532647,-0.7484598765,0.7996155006,-0.287477387,0.7103979355,-0.4159887789,0.8783884427,0.0191053789,0.8933838127,0.3253574127,0.2565165611,-0.7450108715,0.5967173505,0.9651726742,0.9328095852,0.1877297821,-0.9407416794,-0.0553586141,-0.7993255662,-0.4393603134,0.8666081289,0.3156037088,-0.4250962948,0.0828647723,1.0663641534,-0.1184511187,0.1144887169,-0.6910223452,0.4597732313,0.42559649,0.211593302,0.9300323743,1.0480876937,0.8898611018,0.3023134346,-0.6719770087,0.4929773046,0.4814913691,-0.247448146,0.5192842338,-0.3401543521,0.9724031797,0.577593025,-0.8822677686,0.4911433757,-0.5106425096,-0.8489764136,-0.094972576,0.3891880364,0.0430818244,-0.5380707322,0.5315549786,0.4594493121,0.4313297826,-0.3654813118,0.8519501544,-0.9341917042,0.4363055746,-0.8734362659,-0.4765735862,0.3479808445,-0.6738169315,-0.2814926279,0.7927631064,-0.9262013125,-0.388296345,0.6414473204,0.031637468,-0.4848683032,-0.8689060042,0.1229147922,0.2468064415,-0.903212464,-0.0509159426,0.0185799094,-0.3402180989,0.2679584389,-0.8133541513,-0.0129699946,0.3199302893,-0.1841519424,0.6733013039,0.4685103304,-0.5374468993,-0.7882429578,0.0539855481,-0.7519607693,-0.2341888719,-0.9092524715,0.5525914005,0.5869261788,0.0783313531,-0.5426264279,0.8402951585,-0.7687157961,0.5457672614,0.1419336184,0.21529179,0.2004142294,-0.2174682932,-0.4373512254,0.68561032,-0.8683639137,-0.6718918055,-0.0989686228,0.1910667933,0.238016468,1.0300313909,0.7389648734,-0.5435097635,0.2611364389,0.4365038203,-0.0202041243,-0.6569136028,0.9881196791,-0.5863270716,0.087091268,-0.7286291818,0.2710330005,-0.2150240021,0.4107878705,0.5604253043,0.769085485,-0.4545701373,-0.9122924947,-0.6284427946,-0.179947771,0.5051016767,0.621002811,-0.207907793,-0.5543348,0.134000957,0.7364720537,1.7888493393,-0.743948392,-0.3775037972,-0.7568495818,0.466330159,0.9629699361,0.0812158258,-0.0053124506,-0.6940739929,0.8948072281,0.3274234099,-0.8007407962,0.2704339595,0.6800100078,0.3695038464,0.3544419434,0.0632695903,0.3515913652,0.9485663176,-0.535766747,-0.2408260877,0.8253887019,0.6495674771,-0.3649522533,0.063182034,-0.4768428356,-0.028711115,-0.7483496875,1.0698646074,-0.3908887938,-0.8667780282,0.9586365351,0.1152487107,-0.7801969901,-0.4384828868,0.260720221,-0.9753861063,0.4921370614,1.0099457613,0.5743858878,-0.7882785654,0.2964938616,0.41553864,0.7919388278,-0.21437787,-0.1228890513,-0.2377240746,-0.8098004389,-0.8850606478,0.8110439794,-0.2889238068,-0.5291775566,0.6064993048,-0.9334477455,-0.6867808449,-0.5459830445,-0.8452780698,-0.488444621,0.155393075,-0.6337529238,-0.4377144652,1.044557724,0.1125332503,-0.7846893476,-0.0729941859,0.1446727884,0.1334183413,-0.3121000155,-0.3432504255,0.6846977643,0.6283832706,-0.1929121622,-0.8069523981,0.8756131547,-0.0037275353,-0.335733326,0.6701387051,0.2102267719,0.1382338913,-0.2700533381,-0.6132931301,0.5371642059,1.0508111071,-0.8868806605,0.4688767648,-0.9407472142,0.4112772448,0.4657696591,0.5062231251,0.6936925273,0.3563591197,-0.4192066685,-0.8173076165,0.1481283059,0.3143836414,-0.0410963625,0.130770483,-0.9344923586,0.4686454448,0.2863228487,-0.3246980395,0.8651465772,0.2604237277,0.0828081584,1.0294789281,-0.0631418245,-0.8918668318,0.8828531119,0.6178558224,0.8770798177,-0.8807385962,-0.1111482408,-0.1987855167,0.8542414544,-0.7901792468,0.0529546753,0.1176159003,-0.0409787424,-0.7974499853,-1.0047489467,-0.3505873852,0.2439956165,0.8907405772,0.0292130615,0.1383409813,-0.5346447083,0.3239736201,-0.0004143306,0.1583005702,0.2942688181,0.7348645588,0.9762427038,0.4081097604,-0.2697431249,-0.0535939045,-0.4510104738,0.323512371,0.7736030606,0.609134482,0.0409907938,0.6073070069,0.5279067199,-0.2464261244,-0.136290959,-0.1328968541,-0.1244218477,-0.428574266,-0.192722975,0.6003005374,-0.919568763,0.0839785634,-0.6304394086,0.2538113606,-0.8105369979,-0.6942858054,0.3878547859,-0.5302765264,0.0233553247,-0.5518642085,0.5786008239,-0.0728666503,-0.8585854509,-0.0721622444,0.5607364042,0.8849704218,-0.6215647347,-0.0818940465,0.611588264,-0.1043520743,0.9541131759,0.9329458385,0.7420508002,-0.9197573364,0.9192170629,0.8350120166,0.7378494067,-0.1742903991,-0.7351258088,-0.6961673821,0.2975166676,0.8043131997,0.0449180151,-0.5641765694,-0.0130613748,-0.6447558358,-0.4443236231,0.6910755494,-0.4431207587,0.9792884991,-0.4664060085,0.3496856144,-0.0254642152
