encog,BasicNetwork,java,3.4.0,1,1670727273382
[BASIC]
[BASIC:PARAMS]
[BASIC:NETWORK]
beginTraining=0
connectionLimit=0
contextTargetOffset=0,0,0
contextTargetSize=0,0,0
endTraining=2
hasContext=f
inputCount=784
layerCounts=1,100,784
layerFeedCounts=1,100,784
layerContextCount=0,0,0
layerIndex=0,1,101
output=0,0,0,0,0,0,0,0,0,0,0,0,0,0,0,0,0,0,0,0,0,0,0,0,0,0,0,0,0,0,0,0,0,0,0,0,0,0,0,0,0,0,0,0,0,0,0,0,0,0,0,0,0,0,0,0,0,0,0,0,0,0,0,0,0,0,0,0,0,0,0,0,0,0,0,0,0,0,0,0,0,0,0,0,0,0,0,0,0,0,0,0,0,0,0,0,0,0,0,0,0,0,0,0,0,0,0,0,0,0,0,0,0,0,0,0,0,0,0,0,0,0,0,0,0,0,0,0,0,0,0,0,0,0,0,0,0,0,0,0,0,0,0,0,0,0,0,0,0,0,0,0,0,0,0,0,0,0,0,0,0,0,0,0,0,0,0,0,0,0,0,0,0,0,0,0,0,0,0,0,0,0,0,0,0,0,0,0,0,0,0,0,0,0,0,0,0,0,0,0,0,0,0,0,0,0,0,0,0,0,0,0,0,0,0,0,0,0,0,0,0,0,0,0,0,0,0,0,0,0,0,0,0,0,0,0,0,0,0,0,0,0,0,0,0,0,0,0,0,0,0,0,0,0,0,0,0,0,0,0,0,0,0,0,0,0,0,0,0,0,0,0,0,0,0,0,0,0,0,0,0,0,0,0,0,0,0,0,0,0,0,0,0,0,0,0,0,0,0,0,0,0,0,0,0,0,0,0,0,0,0,0,0,0,0,0,0,0,0,0,0,0,0,0,0,0,0,0,0,0,0,0,0,0,0,0,0,0,0,0,0,0,0,0,0,0,0,0,0,0,0,0,0,0,0,0,0,0,0,0,0,0,0,0,0,0,0,0,0,0,0,0,0,0,0,0,0,0,0,0,0,0,0,0,0,0,0,0,0,0,0,0,0,0,0,0,0,0,0,0,0,0,0,0,0,0,0,0,0,0,0,0,0,0,0,0,0,0,0,0,0,0,0,0,0,0,0,0,0,0,0,0,0,0,0,0,0,0,0,0,0,0,0,0,0,0,0,0,0,0,0,0,0,0,0,0,0,0,0,0,0,0,0,0,0,0,0,0,0,0,0,0,0,0,0,0,0,0,0,0,0,0,0,0,0,0,0,0,0,0,0,0,0,0,0,0,0,0,0,0,0,0,0,0,0,0,0,0,0,0,0,0,0,0,0,0,0,0,0,0,0,0,0,0,0,0,0,0,0,0,0,0,0,0,0,0,0,0,0,0,0,0,0,0,0,0,0,0,0,0,0,0,0,0,0,0,0,0,0,0,0,0,0,0,0,0,0,0,0,0,0,0,0,0,0,0,0,0,0,0,0,0,0,0,0,0,0,0,0,0,0,0,0,0,0,0,0,0,0,0,0,0,0,0,0,0,0,0,0,0,0,0,0,0,0,0,0,0,0,0,0,0,0,0,0,0,0,0,0,0,0,0,0,0,0,0,0,0,0,0,0,0,0,0,0,0,0,0,0,0,0,0,0,0,0,0,0,0,0,0,0,0,0,0,0,0,0,0,0,0,0,0,0,0,0,0,0,0,0,0,0,0,0,0,0,0,0,0,0,0,0,0,0,0,0,0,0,0,0,0,0,0,0,0,0,0,0,0,0,0,0,0,0,0,0,0,0,0,0,0,0,0,0,0,0,0,0,0,0,0,0,0,0,0,0,0,0,0,0,0,0,0,0,0,0,0,0,0,0,0,0,0,0,0,0,0,0,0,0,0,0,0,0,0,0,0,0,0,0,0,0,0,0,0,0,0,0,0,0,0,0,0,0,0,0,0,0,0,0,0,0,0,0,0,0,0,0,0,0,0,0,0,0,0,0,0,0,0,0,0,0,0,0,0,0,0,0,0,0,0,0,0,0,0,0,0,0,0,0,0,0,0,0,0,0,0,0,0,0,0,0,0,0,0,0,0,0,0,0,0,0,0,0,0,0,0,0,0,0,0,0,0,0,0,0,0,0,0,0,0,0,0,0,0,0,0,0,0,0,0,0,0,0,0,0
outputCount=1
weightIndex=0,100,78500
weights=##0
##double#78500
   -0.1705145072,-0.9457301558,1338.711898109,-0.0723155951,6.4609911379,0.4622879594,4.4397707658,1683.9167860987,-0.4591153873,-0.436178926,-2.6877162697,-0.8094614441,0.5753778989,673.4207939672,-38.5057008045,-0.3208708992,104.9193276619,3.9471846887,-0.7274200904,13.9166000753,-0.4036413474,-3.4691491476,-0.6978205755,164.9597103219,0.2857374138,-0.0129350331,120.0007008651,1.5194304969,-7.2214617686,0.6160819873,-0.9383402183,0.6480094076,4.3538172372,-0.1667946702,-0.602878729,-0.3389725704,-0.8753172913,0.7229533358,-0.0683871986,-0.1820558364,0.705888808,-0.0218050446,0.6848143782,31.5299891827,-0.0676497616,69.8636560788,2.2411067151,6.7311763901,0.9829302794,-0.7732842475,32.7021327536,0.7798646952,0.7203489125,4055.4109947099,8306.132100372,-2.2320015782,0.6452479486,0.3479706902,19.0987181776,-0.6255439819,-1.6707356685,-0.7392341674,0.818622353,1.3339947626,10598.7804802011,2369.0511406819,-2.5085497114,3.3714922108,-4.1837705846,0.0692645524,12.4331683749,-0.0715404757,1.426021693,0.4368631866,-1.4873161503,-0.2695070676,0.991746252,15.408006658,0.8154851803,-0.2994249435,-453.8473721242,-0.4965723035,-0.0142627967,-4.2554568721,0.7150031288,-0.1402447998,3.7917310646,-0.6285305388,-0.4080666839,1.0201545406,2.2585336085,-0.6648028493,0.4023944424,0.9087575288,-3.1472645989,-0.0320163895,-0.9342498901,8.6421560914,-0.7457333635,45.216644811,-0.1228876735,-0.7408572154,-0.6041886884,0.1093686818,0.4783226602,-0.6679548979,-0.3505244972,-0.0051080365,-0.6230337302,0.2418883654,0.2443526112,0.3738313946,0.7116031849,0.6219610705,0.8586089818,-0.3817022424,0.593077258,-0.5133892426,-0.5133361687,-0.954791846,-0.1725981401,0.8868452581,-0.6858070679,0.2430305253,-0.7671004858,-0.1638524121,-0.8113892028,-0.7799284467,0.0125641946,-0.0220505339,-0.5490010966,0.7083543111,-0.3451466404,0.6395575703,-0.0779394358,0.4609759556,0.8398463802,0.4624084988,0.0677822115,0.7983590275,-0.5935043987,-0.4899156299,-0.8731499272,-0.2492307312,0.7282522691,0.3112863004,0.0386218986,-0.6945350475,-0.2292909105,-0.0667676941,0.0009603407,0.9313141901,-0.3633819025,0.0493611353,0.2537549655,0.0857844719,0.3171910839,0.0911266309,0.7911760638,-0.3574820911,0.3757079515,0.0862974871,-0.7871241459,0.1938540777,-0.6873020994,0.7927714967,0.1798513445,0.4776348374,0.1512690674,-0.2255282552,0.0681267054,-0.7551338139,0.9079821177,-0.1615258146,0.808159694,1.0786861591,-0.076240426,1.0178144917,-0.0068921905,1.0938902429,1.1282371393,0.2724229046,0.3993283224,0.7265064086,0.1141535998,-0.3631422441,-1.0271968779,0.8889671583,-0.4484401975,0.3459079355,0.2106534083,-0.25901,0.3878270017,-0.5044331988,-0.5760858059,0.1956726073,-0.6673324648,0.2513276456,0.9012485006,0.2080564379,-0.0036803381,-0.3381747865,-0.6499927747,1.1395210206,1.1194494797,1.0870459012,0.9676028733,-0.3037699793,-0.3107855086,-0.2276770702,0.9406201642,0.026647306,0.9692735488,0.5263992907,-0.4887320491,-0.158554779,0.3109539998,-0.1166509039,0.3074697322,0.8777123442,-0.8864704127,-0.3456128274,0.0765566864,0.6896106209,0.0953246337,-0.1838282036,-0.5871955015,0.1342846275,0.637294339,0.7159775483,0.5873523349,-0.4205475062,1.1036275643,-0.5249844826,-0.4080372868,0.1599403496,-0.1626200834,-0.6173484788,0.0899731729,0.1148871935,-0.7246625861,-0.6100374033,0.2633297656,-0.0688295444,-0.199677316,0.8998910007,0.2898601184,-0.348624522,0.3061657981,1.0503095522,0.5190412298,0.7411616589,-0.1811568064,0.3878557872,-0.1247164626,0.143459819,0.9360072311,-0.137159443,0.3855504511,0.3040628335,-0.8221955983,1.1195471722,0.170961539,0.4252332313,-0.7866383049,0.6537430303,-0.3452310645,-0.2438268937,0.9534704953,-0.731805848,0.9552052431,-0.1001901269,-0.0157862598,-0.491169343,0.3297862224,0.8246389107,0.8742105679,0.5904020822,-0.0654448671,0.5520757487,-0.1567817421,0.1028106309,0.8924835188,-0.4637687261,-0.6421652063,0.4772632382,-0.1800334087,0.5800476204,0.1471429356,-0.7952818478,-0.5493910326,0.240535734,0.7149800832,0.8308972659,-0.4779487022,0.2008091792,1.122003019,0.7334788727,0.2486016491,-0.4893956609,1.1066185909,-0.5217941294,-0.4671636572,0.1508566362,-0.5450420914,-0.6058611129,-0.6817903249,-0.2823192039,-0.6850346153,-0.8260130566,0.8480052362,0.6652983868,0.1281771063,-0.666600955,0.6333836408,0.1833994883,0.7109446459,0.8623339587,0.6567577653,0.8441679474,0.8662753897,0.5485694316,0.7982846909,0.5548720231,-0.345749208,0.1518199127,-0.3624391351,-0.3813255679,0.5996151852,-0.6884250632,0.0037100521,0.3275886217,-0.2699281799,-0.7092957752,0.4865575518,-0.638100221,-0.1977382592,-0.617495384,-0.6516735261,0.0464960442,1.1283066205,-0.4402751207,-0.8133435121,-0.7779964621,-0.3490669399,0.7633592639,0.6733541908,-0.6428455891,-0.5620574394,0.3503819784,0.3540324388,0.039897367,0.027366809,0.1645581689,0.5717442854,0.2616147796,0.4499736774,1.0029923351,-0.7521249708,0.3092913627,0.9586640903,-0.068648136,-0.5783300031,-0.0877440497,-0.2736030649,0.0273138486,-0.7767466912,-0.5662836371,0.0927164388,-0.7043343154,-0.206320226,0.5910058804,-0.1359485445,-0.5423647479,-0.2158892679,0.6860166495,0.3733482105,1.7294354255,0.0657744988,0.6638215813,0.0487076587,0.2682657726,-0.7909791012,0.7949138135,0.058630892,0.8901176672,0.7540721621,0.2928552477,0.7879299062,-0.2890358717,-0.5834575431,0.5914310323,-0.862344203,-0.4639162892,0.4261310433,0.348256165,-0.8113511619,-0.8507015598,0.6720480741,0.2121309516,-0.7223607503,-0.1153387322,0.4627407153,-0.1391748948,0.2508669744,-0.4159994387,0.9555603559,-0.4344355349,0.563771143,0.2807611247,-0.0143018004,0.6507456955,0.4489817365,-0.6981740534,0.5457918171,-0.9853240444,-1.0172471525,-1.0357986969,-0.1348617985,-0.1632231891,0.525687927,0.8272632471,-0.3753256943,-0.544242353,0.7119806545,-1.0276901569,-0.807126115,-0.652159005,-0.7803948533,0.4075157592,-0.2448816713,-0.8773609265,-0.3824755465,-0.3037887894,0.8602300579,0.7243423226,0.6290323526,0.4320896552,0.9431800021,0.3605831882,-0.4319908001,-0.8087426808,0.7565263513,-0.4167019931,0.4751506054,0.7614261515,0.8141741602,0.3714458883,-0.5831178017,-1.0194044007,-0.3836511249,-0.4413387974,-0.0994119861,-0.9655545623,0.1461457241,0.0299690727,-0.587258741,-0.0465466286,0.1345965561,-0.7505902371,-0.5688718504,0.3147460379,0.8737649602,-0.6120660056,-0.4416779276,0.69501173,0.1832590507,-0.1225430775,0.4970444358,0.1621203802,-0.6677840624,0.0318279129,-0.742378801,-0.0661761576,0.0519024047,0.2780840651,-0.4147062314,0.1052589508,-0.8255692954,-0.785744955,0.0210891781,-0.0374500247,0.5803937152,-0.4166398516,-0.6568577261,-0.7748976894,-0.3065271926,0.7724741792,0.3698444331,0.1063399095,-0.0965972516,0.8974402351,0.2289286079,-0.3530968853,-0.9542069409,0.7042247895,-0.9758821003,0.4769851688,-0.2853076864,0.7637891922,0.3748230038,0.5565642755,-0.2348230278,0.1464370096,-0.675082531,-0.416294426,-0.9666210834,-0.3818476741,0.2121377943,-0.1567634825,-0.5912453576,-0.6876510065,-1.0003445001,-0.7144200344,-0.7050414331,0.0466819403,0.4093429681,0.2274709991,0.5496102349,0.0710526046,-0.1408021706,-0.4952372316,-0.4599755042,-0.2545247606,0.490789262,0.4384452692,0.0867917802,-0.5280555241,-0.7999386681,0.2095409799,0.3394525461,0.7583509622,0.3119916965,0.1534863064,-0.341849115,0.2580423811,0.8413802805,0.2518882208,-0.0182242643,0.6058035807,-0.2430392202,0.1134727699,0.2412007145,0.6934605577,0.6736738544,-0.7330011103,-0.512442301,-0.2627646604,0.9749957575,0.7873495341,0.6493737712,-0.9003048092,0.9349212505,0.9361777433,-0.7247337536,0.3587596909,0.8470644176,-0.9905340114,-0.7819363139,0.6073254784,0.2684399734,0.345685623,-0.5486864238,0.298772854,0.1412800298,0.5894124498,-0.4991296215,0.0440328991,0.9456927748,-0.3142336559,0.5507117707,0.0013557594,-0.2161983192,-0.5094777204,-0.6729310129,-0.5514253877,0.975266107,-0.2622844427,0.6019303597,0.7315470016,0.8487645742,0.1532446001,-0.6811328542,-0.8256131769,-0.8816369661,0.0620562788,-0.5584886897,0.6953168758,-0.4379502041,0.8229115058,0.4349688759,0.2267023004,-0.490170155,0.751095588,-0.1807479302,-0.3023884354,0.6201548298,0.8680254599,0.6506602837,0.8047556326,0.9707297649,1.0107982088,0.7093989096,-0.3741347838,1.1121754866,-0.6584169684,0.0978399682,-0.7617629896,-0.8786548816,-0.89920358,0.7913478535,0.0412525419,-0.7249522908,0.4626869925,-0.3172838916,-0.2449668601,-0.5985611093,-0.0902362922,0.5970231672,-0.613411045,0.3271510604,-0.6266803939,0.7143209997,-0.1439516972,-0.4168956037,0.3904772971,0.2470507053,-0.0736671121,0.0565020916,-0.3907605088,0.4091075936,0.9315488806,-0.4698685298,-0.5895961228,-0.9169924597,0.0915078781,0.2610248479,1.0046705171,-0.0404601993,-0.1566399201,-0.8704052706,0.5003057418,0.716188057,0.812170231,0.3756072446,-0.7865767398,0.4878191577,0.6599715195,0.1561661108,0.2278858317,0.4711464645,-0.2123818013,0.7871762147,0.6414441182,1.0719474943,0.8879613466,-0.5498052024,0.6768420374,0.4859589682,0.3059818861,-0.0345078396,-0.5640095905,0.5156022865,0.9646308162,-0.745997233,0.7492582773,1.0016464546,0.2362353456,0.9207160123,0.198887173,0.9990119715,-0.5179236386,-0.9157339593,0.2183107696,0.16358253,-0.8785806343,-0.1914922224,-0.620549648,0.0159646451,-0.7738526611,-0.5696051608,-0.5036884461,0.8050501915,1.0863279679,-0.7326291246,-0.3013880337,0.4359702481,0.5039582339,0.8619069341,0.5587572274,-0.9599690888,0.084386242,-0.6671196039,0.2668787814,-0.5537670602,-0.1580123479,0.5216451992,-0.1129308182,0.3019618356,0.9518633588,-0.3307878431,0.7825582609,0.2412052138,-0.746083079,-0.4732182566,0.4418216861,0.7194473689,0.654582495,-0.3512219925,-0.3818201855,0.8623647709,-0.1376419878,0.7806383024,0.1974343246,0.641820657,-0.9037836006,-0.1426287202,-0.5805002196,-0.2430700641,0.5864082543,-0.4585501249,-0.7214836885,0.3876543926,0.0494850364,-0.7306451101,-0.2509122408,-0.9242240388,-0.8806396676,0.7136327875,0.9552756055,-0.2329660273,-0.6173013212,0.7426639086,-0.1076811553,-0.4006059647,0.2397613492,0.7034560192,0.3517023635,0.3424421767,-0.2154279845,0.3565136395,0.6587931809,-0.7541718327,-0.4215775638,2.7188796545,0.7065302618,0.4276925762,-0.1798916279,-0.410952217,0.7326706332,-0.8058990561,0.333162597,-0.9021580134,0.2571882505,0.6921573173,0.070286761,-0.1320649144,0.7829104174,-0.5160554203,0.1149955247,0.5538631816,-0.7696526628,0.3318598857,-0.3831056936,-0.7109484638,-0.6409273662,0.9016428995,0.7119532659,0.642202637,-0.2922275193,0.4529883888,0.4596080906,0.0008382428,0.903526431,-0.1442020677,-0.2501625489,0.1972070327,-0.9883780485,-0.493426766,0.1139369661,0.4651016744,0.2930244151,-0.8602666787,0.2224312703,0.6543228839,-0.1501139825,0.9534126178,0.5526228689,-0.6863706879,-0.6239078559,0.3399685065,0.4940924574,-0.4572508561,0.2516397958,0.3224295864,0.6931858594,-0.31703479,-0.0948306432,-0.6499509858,-1.5025372349,-0.627961822,0.6945805787,0.4155569434,0.5727236795,-0.9997975833,-0.5675649443,-0.116417286,0.7792514166,0.143290789,-0.3990454011,-0.2048772256,-0.3355735044,0.7732277905,0.4510765082,0.9734444843,-0.404635314,-0.9769703973,-0.5903042352,0.7333341274,0.843862646,-0.8285760126,0.2949392857,0.1354915208,0.4448973679,-0.4250737514,-0.8516821691,-0.5495769486,-1.3116021127,-0.439327924,0.8112423757,0.7392005754,0.4179801845,0.8131138053,-0.6402862462,0.1046148626,-0.045175441,-0.1520677072,0.6521969906,-0.1134630368,0.527102536,-0.7401737639,0.7653969546,0.7364692562,-0.735544685,-0.083053759,0.6812910862,-0.9473628613,-0.2972058817,0.4050780225,-0.0737304133,0.0485073509,0.7127693802,-0.7595091842,0.5348580855,0.5912741912,0.2588900555,-0.3309372329,0.6790995426,0.6558912691,-0.9238772482,-0.4172719177,-0.8911822188,0.9502680671,0.2728820791,-0.2550734653,0.8078096429,0.7233528246,-0.8066846766,0.2965241941,0.6293185478,0.3198918248,-0.5092762064,-0.7472015035,-0.7624291665,0.7251215206,-0.1749274987,0.8324572312,-0.9995054864,-0.4222943256,0.1637146931,0.4424575754,-0.5330288003,-0.8182558602,-0.0905385708,-0.3871678046,-1.0126111578,-0.7326693654,-0.3058798546,-0.7814847228,0.2809662192,0.2066738059,-0.779213788,-0.7398901913,-0.0826886188,-0.0045843554,0.6051094014,-0.7801202546,0.7959640981,0.5635613569,0.167973579,-0.0970510201,-0.7693958527,-0.2823207443,-0.0842129102,0.5816491663,-0.8447771905,-0.8916455662,-0.1346559432,0.5668979425,0.9623369068,0.0223848583,-0.7258517801,-0.4662455133,-0.1687850142,-0.1972467767,-0.0596533224,0.884050064,-0.6297127122,0.4056635459,0.8984377152,0.1298467162,-0.6574273926,-0.1244136639,0.3265604585,0.6716127508,0.4619651551,-0.5685734691,0.0186603658,0.2082584133,-0.3344543801,-0.5782922163,0.3139192122,0.8917283524,-0.1419797688,0.5551059166,-0.0958938852,0.5959743891,0.5856879704,0.2216969295,-0.9013575399,-0.4762280214,-0.2363419784,-0.2284262138,-0.560825255,-0.0076593832,0.1978196076,-0.1857059065,0.1843797199,1.2321887937,-0.145770588,0.3721536578,-0.3970210089,0.4083340835,0.4363200856,-0.1597097262,-0.2755250366,-0.3206290475,-0.2081718487,0.1045132992,0.3876460746,0.0250885846,0.0191231655,-0.3904661863,0.9488640117,-0.7175136745,0.317166492,-0.231680757,0.5703126412,0.5567686882,-0.4741578603,0.9657105843,0.8271576505,-0.170029602,0.4253019718,-0.9385460168,0.7822275006,0.4350950648,0.9367137212,0.4306735651,0.8931880077,0.60823762,0.1750586388,-0.8935278634,-0.8883834386,-0.0509219411,-0.0662428558,1.0590534773,-0.3249137076,1.0001823735,0.7629522948,0.2161390839,0.5390557687,-0.8737773345,-1.010557025,0.6573993013,-0.3174233315,-0.3915411346,-0.640237787,0.8255882316,-0.7417146664,-0.6905463214,-0.8339953303,0.4675871226,-0.9947764706,0.8413714718,-0.1773170164,0.5476123524,-0.365069634,0.5985714781,-0.5217483895,-0.3183557758,0.4258234136,-0.2690468214,0.1767271206,0.0433726414,0.6194651066,0.3110308188,-0.1677356813,-0.9787163032,0.7577820815,0.1717561986,-0.5453563377,0.6163141462,0.0408210879,-0.5945795914,-0.8861242888,0.0328541885,0.31491471,0.3333565313,0.6829353652,0.1330149817,0.273940609,-0.4281970001,0.0002289055,-0.0622794048,0.3092124512,-0.3565527489,0.3021332824,0.0196691321,-0.2274567552,-0.2899289561,-0.487011344,-0.4680055505,0.8741000427,-0.0699182627,-0.0469310415,0.9110941874,-0.3088763171,0.2455123534,0.8146074452,-0.9023565764,-0.7164922917,0.4804659544,-0.0795457585,0.231812224,0.5047565996,0.2034564965,0.390661259,-0.734060968,-0.0046136034,0.8832990519,-0.8200343498,0.8423073766,0.4943445641,0.4536743483,-0.7918080738,0.0133566975,-0.2922479391,-0.4171100371,0.5383382438,0.1611218918,-0.1757414573,0.7571837835,-0.836408075,-0.7755517118,-0.9285251372,0.7013540214,-0.8175442699,0.6698454926,0.5062529407,-0.7156967105,0.8712263557,-0.4833808146,-0.7271815285,0.7388748607,-0.1406206248,-0.6114194007,1.0840973673,0.6213547295,-0.9653704961,0.814368928,-0.9102968653,0.405400242,0.6095698742,0.0511478743,0.3040192685,0.2809535796,0.5055491948,-0.3813080827,-0.8337699561,0.95812105,1.052218277,-0.7183453511,0.9929182601,-0.4734938958,-0.0103842121,-0.6347443145,-0.2745840245,0.9300231145,0.9539616384,0.4825621562,0.1695371726,-0.1363233554,0.6696163788,0.5048894186,0.1701771783,0.5685104052,0.7564080994,0.916741412,-0.8438324351,-0.4614379285,-0.6688237994,-0.7375014076,-0.0943062251,0.1169908827,0.6651762876,0.3999533665,-0.1879947936,-0.3079219926,0.3481869207,-0.2952323195,-0.2748129773,0.7895689458,0.6445398289,-0.4305561196,0.3736643274,-0.0846657619,0.8776313987,-0.1602743125,0.7720518612,0.554682569,1.0929222015,-0.7722157288,-0.2083222995,0.4836519317,-0.4744525694,0.4496756076,0.1285128818,0.5300344204,-0.5236255057,-0.024136038,-0.581625543,0.1918025084,0.7510026566,-0.2496586328,0.6296056182,-0.7959838611,0.5052353217,0.6708503886,0.0512789034,0.8900465917,1.3785529018,1.0984370147,0.3012690388,0.8888884703,0.226201054,0.8054370937,0.0506913052,0.7699560129,0.6165338832,0.1126377292,-0.0477905814,-0.7108020929,0.4098418605,-0.1190389832,0.7626485035,0.1865817343,-0.3979245249,0.6837307616,-0.4871590579,-0.3097246747,-0.6099099121,-0.0984877906,-0.3131486841,0.4861034425,-0.2898423385,0.0568585715,-0.3217904131,-0.5846231358,0.1199268477,0.1635205692,0.5006505503,0.2742517727,-0.5990533312,0.3104603732,-0.2510895059,0.4006317397,0.944714832,-0.7225979833,-0.7912988323,-0.1385117219,-0.3611031745,-0.5177735569,0.2679326901,-0.5268079203,-0.9869156233,0.1663105344,-0.2218397649,-0.3702039448,0.844031638,0.4050604913,0.6577843906,1.0186710242,-0.1373969377,-0.2056214031,0.1032300525,-0.1188222188,0.5225265066,-0.4238113254,0.2279220316,-0.5624659432,0.0753408234,0.8829457387,-0.8350706254,0.7681489853,-0.7977721195,-0.7151102756,0.1481728871,-0.6855710333,-0.8249609673,0.28301289,-0.6698407061,-0.5318362163,-0.5682621244,-0.9270503187,-0.4685290949,-0.8607939795,0.2467929428,0.3282714812,-0.3532215784,0.8688959228,-0.7159429406,0.5277152958,1.0495873147,0.8140805276,0.811834895,0.5467380673,-0.9289290092,0.7020248561,0.4860230777,0.3773161166,-0.0533984398,-0.2920613959,-0.5878974491,-0.2368517039,-0.7602054522,-0.3582549459,0.5183098563,0.6518477328,0.520825982,0.4051397342,0.7897150837,0.4237200674,0.1901381181,-0.4142278043,-0.0932579731,0.4359256477,-0.7983003359,-0.4243986742,0.7415115229,-0.8002703911,0.2193361286,-0.9397264948,-0.7135421642,-0.9633455834,-0.5402937464,-0.4112693621,0.3810830797,-0.5241863966,0.2905758373,0.508275689,0.1913958964,0.7155158785,-0.388801249,0.5861492392,0.3463381466,0.6275882312,-0.5663632501,0.8730577152,0.7283703051,0.3085245224,-0.7965302821,0.7306719753,0.1627368204,0.0227916352,-0.343447287,0.0546478661,-0.5249684886,-0.3497504463,-0.489524501,0.0806915018,-0.24678266,0.3963777289,-0.8465698941,-0.8602382968,0.7678034344,0.5803955766,-0.2486765998,-0.5418113154,-0.7597597534,0.6808340379,0.8707378878,0.6888636735,0.5945345042,-0.229557948,-0.8645030114,0.0521275615,0.1998495879,0.2212441857,-0.3574576779,-0.9137051777,0.2429395412,0.4370378303,0.229824143,0.7040218957,0.2796771454,-0.0728638857,0.1942516286,0.9012258512,-0.0488124977,0.8248742998,-0.8480700936,6.4926507166,-0.6756689222,0.5336084056,0.2933034754,0.8410215876,-0.0094499003,-0.656786324,0.0157279837,0.5932435797,0.0208431471,-0.1658523323,-0.4736854944,0.3920237539,0.4527982982,-0.6668081679,-0.8398918689,0.5851872972,0.3681234911,0.4884511687,-0.7963826459,0.9259144618,0.4039990821,-0.9459757323,0.4278445536,0.4262418076,0.0664099157,0.5315913132,0.4629091255,-0.0733158787,-0.5259409279,0.9297911459,0.5504765009,0.8756081795,-0.24927749,0.2077449095,0.6004642954,0.8245649305,-0.1924508128,-0.3138465128,-0.7626538256,0.2379127004,0.3061753427,-0.5524394588,-0.0902344094,0.8615523698,-0.9211361655,0.802015946,-0.5434647798,-0.9787942671,-0.9713729578,0.797649864,0.3646946267,-0.4166574652,0.1270736359,0.2707153871,0.8348836514,-0.5000874988,0.7051001918,-0.5548675986,-0.2550520263,-0.9689705258,0.9830217157,0.7341620445,-0.7488423179,-0.2524801003,0.4535388967,0.2335284371,-0.3122288396,-0.1967919977,0.1464387846,-0.4193199191,0.7666852889,0.2444493633,-0.7178839523,0.0361668485,-0.6682922691,-0.6579606663,-0.9475754255,0.2509358926,0.289640858,-0.211183786,-0.9689642951,-0.913482737,0.0994462815,3.5821576316,0.2017409646,-0.7872979628,-0.5020203978,0.7277203371,0.0895409213,-0.2363034711,-0.1868713946,-0.8719402791,-0.7620921636,-0.2499176572,0.536280749,-0.6973059441,0.6090619959,0.4964163029,0.9896010258,1.002471933,0.0595143172,-0.4027178683,0.9965554841,-0.1750942614,-0.3220395336,0.5673415693,1.2161990441,1.1825852171,-0.3110969128,0.150490372,-0.0448548618,0.0321184826,-0.1766955058,0.8641465146,-0.5709807079,0.6979398116,0.5703127225,-0.5382486587,0.4770094302,-0.552031545,-0.9502825219,0.9095576998,-0.1633825156,0.2419456156,-0.5886924247,-0.8166450394,-0.3590453026,-0.2170439014,0.0019104761,0.974260661,1.0048274212,-0.0127205395,1.2545806536,0.0611764734,0.6732440125,-0.6304899529,0.0759062487,-0.0276527161,0.299164354,1.9727436184,-0.2038574862,0.0966636166,-0.9750406621,-0.411864196,-0.0913234953,0.3326841279,-0.6776006129,0.877665933,-0.5490754822,0.6663679507,0.9133546077,0.3192418881,-0.684931422,0.9345203221,-0.7485022754,-0.4957092209,0.6382395047,0.671170895,-0.1019675389,-0.7926967039,0.9594388776,-0.1338870326,0.4064143273,-0.8334285988,0.6344495316,0.5512520106,-0.9206148173,4.6121611773,0.973266903,0.0317567447,0.1368726885,0.0065736565,0.7463753832,0.7791876383,-0.5066427278,-0.6964258147,0.194609938,-0.1532405304,-0.2986454516,0.1887516125,-0.6153075101,-0.4504171006,0.844017478,0.4592552053,-0.844550359,-0.5717111315,-0.6376180211,-0.7126806992,-0.0707983718,0.761529786,-0.2131218872,0.1066023434,0.3321992549,-0.442776296,0.3004852504,3.1712680238,-0.0786170241,0.2744338712,-0.8404615189,-0.5703309078,0.0181750139,0.2417669524,-0.9730709595,-0.3726720117,0.6032430659,-0.3862860899,-0.6060069249,0.7654418546,-0.4575200511,-0.8616947508,-0.841224626,0.8991437596,0.6068450509,-0.8815739943,0.4115422877,-0.3031244845,-0.2379210888,-0.3994696176,0.396324897,0.6433646126,-0.1388287265,-0.8010297984,-0.2429198282,0.7293273507,0.154259127,-0.3869976521,0.8626824915,0.6952284282,-0.8624845701,0.543819345,-0.5806998032,0.0220655549,-0.6263311079,-0.1964173079,0.3881327543,-0.0972586625,0.2316044674,-0.3457223839,0.8949744642,0.1113593241,0.6348176407,0.0223459209,0.2989456016,-0.8194371501,-0.3578375364,0.9788535503,-0.2883889153,0.548830194,-1.1742338786,-0.2585234186,-1.609839196,0.3293084936,-0.9961510194,0.3635320326,0.0686419141,-0.6620909884,-0.4531167019,0.3756902718,-0.0330977378,-0.4585311188,0.9480329246,0.9704024902,-0.08223324,-0.0400514223,-0.2155330981,-0.6077355848,0.0741906734,0.3446852726,-0.8630110548,0.8979278814,0.8968621231,-0.8018121657,0.8388114645,0.4251356108,-0.6381402904,-0.0149514837,0.1144261601,0.3063933169,0.7601177166,0.8402029623,0.6058102658,-0.6843048259,-0.7722133187,0.6147400152,0.7539616421,-0.4719924623,-0.2613719863,-0.165144943,-0.0214952753,0.1455777949,0.6569135777,-0.0693432806,0.4309067667,-0.5431054674,0.1767544719,-0.0708123978,0.1719456579,0.0300599443,0.7373464579,-0.2932509187,0.8649029629,-0.9708076889,-0.328847818,0.7615547285,0.0202388288,-0.7853333113,-0.5654162004,-0.3066429308,-0.1065693104,-0.7523425156,-1.0082553401,-0.2498304912,-0.6709099074,-0.6529162162,0.8356611358,0.2022587406,0.6625108612,-0.2332693798,0.804326597,-0.7427508315,-0.848418172,0.2140822275,0.3903309659,0.2092393682,0.3912459865,-0.1855121421,-0.9987616207,0.42861193,0.6540534439,-0.1964907747,-0.397778742,0.4744267329,-0.2401446064,0.1094800875,-0.3351322889,-0.3717652852,-0.5198883792,-0.3022531969,0.749480595,0.038145338,-0.7572808252,-0.4250947955,0.6276604823,-0.5046845652,0.5568819995,-1.021274668,-0.5571268544,-0.4410618515,0.9042795496,-0.7259804125,0.5416781166,-0.5670286446,-1.0558148072,0.7188606073,0.1865500199,-0.4304450794,0.047956569,0.6089626698,-0.4581796785,0.2971871501,0.4189304531,-0.0730058512,0.4399781324,-0.5846746521,-0.1896434026,0.2238674687,0.2506263269,0.6408653986,-0.5776045242,-0.1410916586,-0.8415616643,0.8954198197,0.0570471156,-0.3801980442,-0.4057991876,-0.4666982353,-0.9004075685,-1.0375565152,0.7808850319,-0.4857792969,0.9003638977,-1.0714942034,-0.3670611311,0.8367021456,0.7777942731,-1.0772884223,-0.5257925718,-0.965095999,-0.6001301599,-0.975323443,-0.9204218681,0.7937008068,0.475865927,-1.0842066547,0.4046607516,0.4639890804,-0.6737513698,-1.2207413744,-0.3585933307,0.5104714652,0.492955181,-0.3138630613,0.3522539213,0.3936288051,-0.7718155941,0.8691538459,-0.5637101067,-0.4785277043,-0.4928390963,-0.0822589689,0.3483181334,-0.4155006846,0.0080845802,0.3993806341,-0.4796737425,0.4849008066,0.203277255,-0.4198880255,-0.7419014996,0.8879379218,0.7580333998,-0.1956434747,0.540729625,-0.8863922857,-1.0210368482,0.2780020806,-0.2622938871,0.0093495638,-0.3662858827,-1.0490085464,-1.0517734358,-0.0333740548,-0.4813908475,0.8058670319,-0.5357350963,-1.116761744,-0.4672132625,-0.2135157559,0.2699184883,0.4430058624,0.1503671468,0.3786571115,0.2115184663,0.3737807656,-0.0517166841,0.7110098192,0.2949835387,-1.0479881863,0.4435550987,0.2185955037,-0.0722060481,-0.0920099454,-0.2832093015,-0.5249908567,0.5130007356,-0.6190382558,0.4789978979,-0.0822275233,-0.7261902572,0.3239877976,0.213440319,-0.1975765147,-0.5344622696,-0.0571957489,0.6047117629,-0.6870009641,-0.1928936487,0.2805261002,0.0739154031,-0.6634380414,-0.7633847851,0.5164464977,0.6604736972,0.0105563341,-1.0872109061,-0.1245047441,0.5893054197,0.8399311369,0.7969453858,0.6550933244,0.0337904285,-0.8829268693,-0.2591871993,-0.0216634423,0.3370444782,-0.6335302875,0.1045765755,0.1021454707,0.8681449206,-0.289176657,-0.6045214278,-0.1263989765,0.8286452005,0.1843919592,-1.1013319112,0.4554441825,0.2102816093,-0.3591763917,0.3257840521,0.3950036916,0.6183306084,0.2499053471,-0.7019140306,0.5977990991,0.4584570359,-0.6838750157,0.0071600496,0.6401802654,-0.9967547273,0.8584566113,0.1351099623,0.2749395253,-0.5531319775,-0.3707880623,-0.2604132035,-0.6678728416,0.7417989349,-1.0704284889,-0.1852699218,0.6959370583,0.2226185056,-0.5393949291,-0.3102230517,0.9075949795,0.7468138823,-0.323098372,-0.4874029432,-0.7805537584,0.4182214925,-0.6859642381,0.4869646018,-0.7322988173,-0.4747244494,-0.1746403546,-0.8459333774,0.5085629379,0.8163601502,-0.3034238306,0.7226172009,0.6821406993,-0.4572693315,0.0066894097,-0.4779401771,-0.7610769381,-1.11004899,-0.6468124401,-0.5523144469,-0.4728256961,-0.8064734928,-0.9868567333,0.0525019142,-0.5067026889,-0.896302211,0.0684145532,-1.0917570239,-0.889458244,0.8294747561,-0.8886662519,0.3019861081,-0.1568180388,0.3267091498,0.4015409337,-0.4830448927,0.0398357766,-0.8135007737,0.311029602,-0.8151201559,-0.6682546529,0.0232585964,-0.6263535668,-0.1898933155,-0.8196196669,-0.489455496,0.7534715149,-0.5618769561,-0.6817337574,-1.0407098228,0.5907399147,-0.9147915827,0.8029836888,-0.6053433915,-0.0982132655,-1.0758158184,-0.4228102812,-0.1218374457,-0.601546733,-0.0362358072,0.6757471662,0.4207313777,-0.2298219525,-0.5050917116,0.0513002868,-1.0727367963,-0.6897448233,0.3628583597,-0.4999199168,0.1253034745,-0.3582659979,0.6159465853,-0.4816399121,0.6312613423,0.8412966402,0.4296035498,0.8582575731,-0.2043212896,0.1136862601,-0.1580971768,-0.4877585365,0.1300469383,0.2765452812,0.0166577777,0.6322517199,-0.2311276043,-0.3440524757,-1.0103670198,-0.1857899337,-0.7108930572,0.0563621134,0.8546649499,0.2709355497,-1.0126108551,0.2187198912,-0.7147111741,0.2999429666,-0.0373073172,1.0238640798,-0.7690135025,0.7784389975,0.4404588995,0.5099912169,-0.5698024661,-0.3796778424,0.612695005,-0.9731406155,0.4853653377,0.704607601,0.0912778533,-1.0772041701,0.3908093872,-1.0720741682,-0.4787030957,-0.9614402133,-0.3316490064,0.2018819696,0.7099085742,-0.8565624812,0.0678913752,0.2796462436,-1.0150185059,-0.7664836736,-0.8985592042,0.5378230116,0.055542397,-0.7579641041,-0.1351745919,-0.4115382435,-0.5716751904,-0.4522628156,-0.0079398752,-0.7392353765,0.7233706896,-0.6151715779,-0.184629193,0.231921714,-0.0327441257,-0.4961125204,-0.3958086938,-0.3376437796,0.1321539179,-0.0729692321,0.20965023,-0.2560851628,-0.2097231065,0.5503182306,-0.5683993824,-0.9373119093,-0.4100241079,-0.9346846256,0.8716290646,0.1291219602,-0.577305991,-0.2179559595,0.0673089063,-0.5336627594,-0.8264804614,-0.9135690619,-0.3838646985,0.7562805858,-0.6248838946,-0.6595247187,0.0304363305,-0.3309084886,0.8704353011,-0.5644935407,0.4262760993,-0.3897815955,-0.1736141212,0.58486972,0.6195507438,-1.5740687564,-0.0016176943,-0.2546897849,-0.7072740969,0.2280146872,-1.1082915844,0.495735697,-0.1604116075,-0.6331423457,-0.4523877415,0.3944351012,-0.6233100922,1.0290586576,-0.1276595731,0.069613702,-0.6770866625
   0.0502630447,0.2160423888,0.8253086503,-0.8966099772,-0.7532181877,-0.4158351288,0.2130421698,-0.5451722418,0.6225439784,-0.5820379756,-1.1385100458,-0.6466562259,0.0015696219,-0.0933419541,0.8448259061,0.1537328993,0.5441052084,0.0497248007,-0.0011342417,0.3852257282,0.0543702658,1.0168798297,-0.7251270249,0.9593764157,0.1128642162,-0.8945424558,-0.2982246336,-0.9657601278,0.9598269591,-0.315355062,0.359396706,-0.5080421083,-0.0729138151,-0.071604187,-0.6843455394,0.4895284239,-0.8703926026,-0.8323095425,-0.9905060507,-0.6453600123,0.7335480506,-0.2394291366,0.6333137234,0.515642373,0.9949975623,0.9639924111,-0.5736124659,-0.4309011098,-0.0847368005,0.5965829592,0.1399595502,0.6471293644,1.0049754849,-0.3743249323,-0.3225494959,-0.7067663527,-0.9846848319,-0.5223470537,0.7567983817,-0.0194498897,-0.2089149475,-0.7575707751,0.2230949137,-0.1093196373,-0.997424086,0.540178289,0.4550562006,0.4608482858,0.65494949,0.3509015036,0.9631859164,0.6626204486,-0.897097429,0.5393521749,0.4626124679,-0.7765913582,0.2620952696,-0.3414671556,-0.3528383174,-0.3867180025,0.5971732131,0.7757701698,0.8080319384,0.1516603762,-0.8969643048,-0.7054474853,-0.6274766785,0.757622363,-0.0979947372,0.112480965,0.9514147735,-0.085390029,-0.2665564461,-0.8396387993,-0.6652284333,-1.1823280445,-0.9178955283,-0.6175656505,0.2859772617,0.5601554449,0.4678569777,0.5111760186,0.195890083,-0.5144911685,-0.810529213,0.7674743286,0.1863788294,0.4698654403,1.0348877134,-0.0070341523,-0.9041357407,0.8511490794,0.1389609953,0.458416568,0.4525672064,0.7378750998,0.5438996695,0.8663446966,0.573097425,0.2072284246,-0.3447543962,0.0735610408,0.7495324364,0.6508773444,-0.3926693799,-0.832624807,0.4834396393,-0.7302316693,0.5641725463,-0.2461695498,0.5315621696,0.1070839274,-0.8159493638,0.366700164,-0.4128071121,0.1770939872,-0.5713669877,0.7341085502,0.8363672223,-0.2707941601,-0.4946374775,0.8038411739,0.663980845,0.6831601634,0.2805150738,-0.0079188173,0.8246744781,0.7114972236,-0.7330752273,0.1165766566,0.1727711337,-0.0933231344,-0.9705132838,0.2707537946,0.2843883808,-0.2600188924,-0.9577518471,0.5173586898,-0.6706220691,0.7133095066,-0.8211284914,0.8581116465,0.3203912452,0.0890293289,-0.1199189277,0.4552151661,-0.090194021,-0.8638344515,-0.4467171293,0.8975789665,-0.9968487565,-0.9051988547,-0.8873959213,-0.5125497903,-0.1466518934,-0.9247652296,0.6625115051,-0.9899818993,-1.1949282343,-0.8123002918,-1.4911155621,0.1129640928,-0.3092928606,0.0053213436,-0.1934038474,0.7210818966,-0.0539065272,-0.6599023919,0.8305442461,0.9203792354,-0.2852193402,0.2103832167,-0.6456088345,0.9498804777,-0.7421475148,-0.6817035591,-0.9738760687,0.6788753351,-0.3126109531,-0.6455877191,-0.635033822,0.6482785714,-1.0706305699,0.0034562836,-0.9390379846,-0.1625019379,0.4461763912,-0.8633133998,-1.0603956752,0.2929545987,-0.2298395575,-0.2892695667,-0.5618311118,-0.7331301652,0.2736032697,-0.3081707313,0.8696427771,-0.4437697011,-0.733024179,0.3154315042,0.3119847681,0.7936184587,-0.1335959597,-0.4557757552,-0.2183453835,-0.7121607722,-0.3425592541,0.4262282224,-0.0432965719,0.2233878718,0.8883080688,0.1306861713,0.6722927921,0.3041454129,-0.7731762662,-0.9893690511,-0.4916373647,-0.1813422486,-0.9031551498,-0.5361993295,-0.5410096794,-0.2173383863,0.7708768874,0.3108974045,-0.20411757,0.908575948,0.8621917433,0.1032602715,0.9718694759,-0.2757675204,-0.2306504163,-0.6396337929,0.3962724343,-0.4812467355,0.3120056025,-0.0645483073,0.0661698411,-0.2810763741,0.9686648816,0.5985793153,0.0842516779,0.9667685012,-0.420285497,-0.0959430294,-3.1271247977,-0.2007659692,-0.5133706547,-0.4908296482,0.4129240408,-0.1762008542,-0.2764398925,-0.2612366052,0.3303124133,0.5753070116,0.7105570476,-0.2884239214,-0.2763570387,-0.5462561336,0.4188778031,-0.1774038954,0.9002760645,-0.9532018903,-0.3763025962,0.8308821385,0.6554752835,-0.6666213442,-0.2883631503,-0.5997717163,0.3465255477,-0.4880793229,0.4099515107,0.9502811951,-0.7982251233,-0.1563068266,-0.3632271925,-0.0518567432,0.6385353723,-0.1842081105,0.093085049,-0.4399127669,-0.8270174413,-0.8570434429,-0.187045482,0.6431098256,-0.9209367638,-0.2205109308,0.3300712191,-0.0212586815,-0.4021773078,0.5109534247,-0.446761336,-0.3409730681,0.724532562,0.4982880166,0.124373338,-0.30399075,-0.3636750459,0.4770080723,0.757617948,1.8244338841,0.9996671228,-0.2985076373,0.4719697426,0.0216614223,0.501427244,1.0107233745,-0.0211184171,0.8695523441,-0.1938043255,0.5676255731,-0.6512292113,0.1608934113,-0.383465728,0.6482807858,-0.960163857,0.3609612481,0.0391961291,-0.4303048602,-0.0644864822,-0.506300657,-0.7823126097,0.6176937622,-0.5593928147,0.883467846,0.0474728225,-0.0691882987,0.9011679296,0.5452722453,-0.4090169143,-0.3477935679,-0.7196595646,-0.8715158809,-0.8674696681,-0.1496605485,-0.0512133966,0.3887618097,-0.9235967981,-0.8543374493,-0.8466209756,-0.0291451407,0.3471839851,-0.924748106,0.1929945443,-0.5885077244,-0.3008109446,-0.9669026905,-0.067061021,0.3447057048,0.8797867868,-0.4740635434,0.2808038761,1.0319212401,-0.4342086596,-0.3205456969,0.212118603,-0.9621281739,0.0149250791,0.4437210686,-0.4304584396,0.3060271292,0.6360349094,-0.1453700613,0.7297943605,-0.3643045398,-0.4118627408,-0.9194896936,-0.9433242244,0.535206638,0.102503452,0.9954926484,-0.8798516955,0.7088982019,0.2350921238,-0.5551370276,0.2713712396,-0.5845042491,-0.9784663223,0.8998252498,-0.2387725475,0.5261997532,-0.0748309882,-0.4284001582,-0.3682208817,-0.2627870302,0.8324805766,0.1498906115,0.7046279805,0.9146036054,0.2925845985,0.0450160739,0.5199300675,-0.5292015076,0.4989699999,-0.4756959737,-0.1716730303,-0.5350803541,0.0255154454,0.3323272043,0.7730961645,0.6821682006,0.7095071138,-1.0141501057,-0.2889562743,-0.0881213762,-0.9654033736,-0.4494499501,-0.3875347653,-0.6837233564,0.7506638717,0.9344165497,-0.2554988633,-0.5520567323,-0.4226494973,-0.932933832,-0.0284135946,0.6932252805,-0.0303521257,0.2921415201,0.2318290705,0.7344696087,0.4900417619,0.3506238928,0.9041334555,0.2197445461,-0.959824675,-0.9511432026,-0.0827882194,0.4541709851,-0.8014949943,0.23269475,-0.0434897496,0.391057291,0.584884797,-0.0969018931,0.5670901122,-0.381999437,0.6360168398,0.1014431383,-0.1745957655,0.3532453418,0.2630902339,0.3576502657,0.6613638145,-0.260473423,-0.7015317061,-0.1586745925,-0.6280813938,0.6862653422,0.5082744,-0.079620723,-0.9646474166,0.8002706548,-0.5196949563,0.9347988417,0.2065095882,-0.6934357839,-0.7358593652,-0.7626374138,-0.5120736995,0.7975765031,0.7715451451,0.0184495675,-0.2901236839,-0.8559989911,-0.7848654904,0.4061879103,-0.1721218121,0.8526722699,-0.541235769,0.0012539736,-0.631548031,-0.5538256929,0.6629317278,-0.4889660038,0.3249518322,0.22770361,0.8640328321,-0.2874235661,0.0529772574,-0.0998851993,0.0215544695,0.933120597,0.5072333404,0.412095391,-0.0842294321,-0.5388067709,0.2839538899,1.0775273979,0.2283732573,-0.4599062623,0.3530215336,-1.0280074231,-0.0179064726,0.4400808446,0.0688886089,0.8203564634,0.1411904661,0.2439711126,-0.0106831955,0.2372201934,-0.889379646,0.5358846913,0.1981479036,-0.564852686,-0.0862432365,0.6653874134,0.948301431,-0.1786392983,0.1118807592,-0.798983736,0.8204908862,0.1191453645,-0.6282894312,-0.3464489862,-0.2925991082,0.6064512091,0.3016475055,0.1961888107,-0.0944485916,-0.4997556928,-0.1782114134,-0.2307648483,0.6192140679,0.7140725783,-0.2761660623,-0.64228841,0.3434709235,0.9530912661,0.2744811853,0.2584404727,-0.4655680478,0.6146853686,-0.9223171834,0.7429576967,0.5050830484,-0.932399963,-0.6284908223,0.2604372125,-0.1225710537,0.3428452118,-0.3883186196,-0.6170922745,-0.8739941146,0.1041095081,-0.8644615534,-0.2471029916,-0.8315811859,-0.1026700286,0.9151017893,0.7396776098,0.0421108299,-0.9110949776,-0.2721862456,0.4026660786,-0.9775787563,0.4794236509,-0.4852595199,-0.2412423838,0.3914116098,0.8387335184,-0.2085993928,-0.0606363201,-0.0895941408,0.7743835684,0.2870986814,0.4540418496,-0.7214040493,-0.0892059867,0.2598304523,-0.16913186,-0.0810911675,-0.1314335336,0.782003304,-0.9514165356,0.4214689738,-0.3191381623,-0.7670933066,0.6377603239,-0.8881047391,-0.9048347215,-0.190882447,-0.1779594024,0.796782127,-0.4109892485,0.7804169356,0.7174816666,0.164293945,0.0540146961,-0.1922307043,-0.6507092059,0.4082034835,0.8990261935,0.2403460035,0.5394130138,-0.2039422058,0.6241258297,-0.3478817757,-0.65832632,-0.7508737653,0.370908392,0.7407507706,-0.0371726503,-0.2071876886,-0.2229171906,0.2844473578,0.7309587925,-0.8079073887,0.937949707,0.3016049937,0.8555948212,-0.1218240678,0.4044059485,-0.3906069475,0.4675653609,-0.2461167568,0.2737579976,0.6723781573,-0.6246583241,0.5000983828,0.3741362399,0.066900093,0.0988606044,-0.4162434505,-0.7989963217,0.7347256748,-0.0275004598,0.7032447105,0.1830742448,-0.4140338887,-0.5035939934,-0.3996346141,0.3089651322,0.3317940124,-0.6974475648,0.6466850747,0.1174275675,0.0518454916,0.4190931558,0.844173603,0.018554224,0.2655060887,0.2817239559,0.5334070263,-0.8153450244,0.7111949211,0.4872555618,0.6536844195,-0.785757929,0.2226059446,0.4683370223,-0.0600011391,0.1445836172,0.8424495722,-0.7356978161,0.5916605258,0.5945135876,-0.2495460148,0.1581569183,-0.0409534815,-0.2947744841,0.9271991866,1.5833205419,0.0128048207,0.5242504502,0.7798802578,0.5942681496,-0.1608199668,-0.2896411038,0.7797630882,-0.3739768675,-0.2442950888,0.4838201243,0.0598654359,0.6415183914,-0.2501434161,-0.032644602,-0.3211058108,0.6056823452,-0.1663306831,0.395982725,-0.0201148498,0.8490029158,-0.6895867217,0.49195143,1.0292614719,0.9558158246,0.6322002583,-0.5319247653,0.3457683945,0.7484363953,0.9487062098,0.6912956422,0.1453175512,0.5091079425,-0.7458993833,0.0461698341,-0.5837483903,-0.6487334514,0.3027758192,-0.7654859277,-0.8769924109,-0.0308440449,0.1656478296,-0.1509818928,0.679324583,-1.0278174189,0.2269063054,0.5730486707,0.040147818,-0.7169344329,-0.1523647288,-0.0154021558,0.3962054787,1.0281505821,-0.4659121857,-0.3387756131,0.4753342434,0.4447576693,-0.122274366,-0.5335592842,-0.5472444188,-0.0203707754,-0.5348098531,-0.8179681788,0.6962982742,0.2454802959,-0.3723562069,0.6287490336,0.8267426674,0.7221785591,-0.4991415105,-0.5984817838,-0.7256443117,-0.1649929024,0.8809530253,0.4702669226,-0.6730893926,-0.3415985911,0.525742258,0.7020410339,-0.4104977161,-0.756571045,-0.7021408718,0.56816275,-0.3741174062,0.3237763358,0.0517708436,0.8023378686,0.3732013189,-0.5114094024,0.6171005435,-0.3726585103,-0.5486345595,0.3791309168,-0.4297450716,0.6010079942,0.4466151434,0.8149878603,-0.8583470889,0.0971764004,0.4726206191,-0.1762796095,0.8922404173,-0.763889403,0.34970382,-0.0065332229,0.8153571343,0.4890267953,-0.1300317382,-0.5771101004,0.9071549794,0.6329808342,-0.7835949756,-0.7802435605,-0.4637593937,-0.213811319,0.2679804688,-0.0825092541,0.7440354854,-0.7657739928,-0.133179757,-0.0561166629,-0.7360396357,-0.2287433031,0.1444514699,-0.0837707739,0.4265817198,0.1974941845,-0.6081504753,-0.5309819325,-0.077953024,-0.9947296701,-0.6076302576,-0.4296552777,0.6011283213,0.7443993307,-0.7949578747,0.005686969,-0.7363109034,0.559307069,0.5816093556,-0.2498265346,0.1217935333,0.5414739738,-0.2332826138,-0.5757267072,-0.070241573,0.129879772,-0.3424527743,-0.2967707055,-0.4113869026,0.4880028459,-0.8965879113,0.055520007,-0.8392013926,0.1646174851,0.0268358098,-0.8436437111,0.2609529902,0.1438451426,0.9682323946,-0.3459161274,-0.4709584213,-0.5863680462,-0.508399085,0.5728761459,0.65103303,0.4116239201,0.2558013263,0.1664050989,-0.4539262567,0.4235241796,-0.1043085363,-0.6743321876,0.7369126282,0.4540641971,0.4365172574,-0.5008743056,0.7237598443,0.6206710926,-0.6995265535,-0.2139294499,0.2838719127,0.9355519351,-0.0287398369,-0.5978246232,0.0048665647,0.5610533666,-0.4172696829,-0.6578272779,-0.6042398946,0.0633430065,0.4197468335,0.5299085869,-0.0193792814,-0.8416752473,0.9844759753,-0.6742439801,-0.8313188437,0.466621776,-0.3272732869,0.266011504,1.0628826573,-0.2428384957,-0.0978194484,0.3998498517,-0.9600218456,-0.9904070809,0.2580021819,0.3064932867,0.4172456281,0.4278666427,-0.4475655933,0.3862338526,0.4059793606,0.8883699253,-0.9589033918,-0.5596067955,0.2200454127,0.9967076894,0.8943093927,0.3245907501,-0.3611872586,-0.7498048889,0.9639501448,0.312091976,-0.6654173222,0.9055518912,-0.6281162131,-0.6352818067,-0.8014814394,0.0272168097,-0.710470412,0.0018540602,-0.5853820002,-0.8386926185,0.9044470822,0.0144962207,0.8615814718,0.7782430962,-0.1267848025,-0.3167455336,0.3032047251,-0.9962400125,-0.1815970097,-0.9873193957,0.6560622002,-0.3647227604,-0.3289742873,-0.0718609131,-0.2125370121,-0.7172600423,-0.0580385869,0.7569734516,0.8129305877,-0.50780424,0.8369185263,0.4471092064,0.0013611097,-0.953496714,-0.6680550369,0.9451543923,0.4635629077,-0.6995926957,-0.4407992268,-0.6169820141,-0.5682888952,0.9892913907,-0.1671042039,0.5859293302,0.375518189,-0.9051395951,0.3846010015,-0.60485796,0.0696722836,0.3058452377,0.4823744427,0.3150313056,0.9413619826,-0.0835585285,-0.6032687504,-0.0923830566,0.3776488827,-0.2704272599,-0.3269489148,-0.8881391258,0.6132097453,0.9451093679,0.6339057073,-0.3196749673,0.6612512857,-0.8035287739,-0.6374858494,0.5071547488,-0.1711510381,0.6289517895,0.2558552245,-1.8705649182,-0.6273677833,0.5476843739,-0.3562107665,0.190447215,0.5725967554,-0.4209297784,0.5472734939,0.7980767507,-0.8580952035,0.5901656325,0.6380752828,-0.8386174043,0.1496422419,0.8256693131,1.0104513645,0.7895118879,-0.0002306069,-0.4578052046,0.4397868117,0.7348113196,0.1913673809,0.1060620078,-0.4617332013,0.6695226495,-0.6960486319,-0.9821480987,0.5863458138,0.0428567472,0.1232824897,0.1215658907,-0.2665136328,0.1895570085,-0.0828379061,1.0006211404,0.0205594329,-0.3391054158,-0.542961071,0.5705925429,0.6024850999,0.54619552,-0.9361309163,0.1149100837,-0.4451528599,-0.6591368208,0.7747508683,0.715798868,-0.4243285396,0.2175864018,0.3261668323,-0.5002259516,0.0594348922,-0.3447155288,0.6416910622,-0.8587633547,0.299181297,0.838951598,0.805224537,-0.0793340445,0.0090688228,0.1164305306,0.0639888583,-0.156404516,0.8693101982,-0.3851524205,1.013160098,-0.5659709674,-0.7261906938,0.5062832106,-0.1214290806,-0.9751471326,-0.4351234993,0.9267036458,0.0181434286,0.9542868563,0.8409320555,-0.1596496968,0.6119441584,0.4282740755,-0.9152620254,-0.8848988028,0.6390718916,-0.2381436848,-0.8687330349,-0.0535660643,0.1547673376,-0.2044653596,-0.4868205976,-0.5635354833,-0.5880323956,1.0481792833,0.0855861659,0.2805774241,-0.8584277824,0.8919567746,-0.815177054,0.4401827872,0.0173584882,0.249858981,0.0488204241,0.6953537881,0.9343543984,0.9161795961,-0.9409820895,-0.9634363093,0.3989414911,0.2558526696,-0.6264734644,0.4789256038,0.7319860799,0.249979689,0.9326832479,-0.3818015418,0.251780563,0.4488183015,-0.5843565645,-0.7588892856,-0.0750952093,-0.4693133496,-0.7685584643,0.1755715323,0.689236056,0.7334045801,-1.2104718912,-0.5998823821,-1.131547778,-2.736373136,-0.7320906646,-0.9865444142,-0.5000988339,0.4634655261,0.363525189,-0.7349401997,-0.1480730285,0.2435386246,-0.6555056298,-0.4203164659,0.0519378422,0.822379526,0.9659231353,0.4181449399,0.2194445471,0.8959260992,-0.1822543438,0.0403944761,-0.8546845012,-0.693124841,-0.9752933585,-0.1199606791,-0.0319819594,0.4631607077,-0.0891003159,-0.7501095112,0.066290969,-0.7256723785,0.5067464569,-0.5446348744,-0.7653805058,-0.7229352304,-0.9686678321,0.1692580678,-0.3900349156,0.1664116022,-0.0079130929,0.3135006572,0.2213305089,-0.4426406895,-0.1129363464,-0.8387510716,-0.1207608397,-0.5788199658,0.7841549436,-0.3106204506,0.4688248131,-0.5217154516,0.9753176717,-0.4409684776,-0.1703981052,-1.0065451807,-0.4730526873,-0.5769923339,0.9482918463,-0.9745951217,-0.514504179,-0.5840196977,-0.5607520711,-0.2595811905,0.4323405827,0.4229143903,-0.9752718672,0.7605918054,-0.1171076337,0.381432802,-0.9000660528,-0.6585503521,-0.1225284455,0.6360131645,0.8932140026,-0.572114314,-0.1533777687,0.7060893764,0.5970068098,0.8484792484,-0.7677461712,-0.2181482526,0.4436988461,0.7937189159,0.3867699225,-0.0509470282,-1.0206811748,-0.4147944444,0.5721647347,-0.4976759653,0.1608575725,-0.6283900223,0.0968709113,0.8557643289,-0.5532867238,-0.7177728172,0.9826156925,0.1151909024,0.0291892688,-0.0497192096,-0.236047494,-0.8916928856,0.1939873469,-0.674666534,0.7983176413,0.8091303506,0.088582277,-0.7440493032,-0.0058729146,0.802663161,0.2429115498,-0.0890953555,-0.5893491786,0.5952934736,0.7649816922,-0.6312414345,0.0620988141,-0.1823662023,0.4821840206,0.5017098602,0.0543787864,-0.5287899189,0.3485006552,0.7637737219,0.0275443166,0.9708435223,-0.6988377834,-0.1745404117,0.5655500787,0.7638638159,0.4004851919,-0.0197429444,0.039104786,-0.7869017281,-0.6375519588,-1.0683377399,0.7084515078,-0.4518229735,0.6036765355,0.2578527431,0.9587394061,-0.9326601868,-0.5214396013,-0.0912648125,-0.4000663511,0.3399892194,-0.8308967482,0.1476212368,0.6590661137,0.537350289,0.6499344088,-0.5270155667,0.4135206027,-0.0428609017,1.0182669386,0.8557029706,-0.5310401406,0.3500522605,1.0067455282,0.8486438971,-0.8885825996,0.7941165354,-0.621938281,-0.0291770943,0.854010703,0.1246501175,-0.123094401,0.7132634401,-0.4835328789,-0.8270363387,-0.6771677869,-0.2825970888,-0.0393559621,-0.06022298,-0.549694361,0.1329359236,0.1996228585,0.2124068665,0.4743367247,0.4273060595,-0.1955733005,-0.5766303434,-0.3785368439,-0.5039320797,-1.0666686435,0.1259838426,-0.4651625268,0.8521307912,-0.2343323292,-0.4685212682,0.6034819838,0.4666949569,0.448022328,0.5373333752,-0.1121081459,-0.7335024715,0.2326005896,-0.7356931576,-0.2803349752,-0.454132415,-0.5427679084,-0.5048005874,-0.8636165802,-0.0137681859,0.6391771005,-0.2914300536,-0.8565558133,0.3610817673,-0.799211581,-0.1337635221,-0.1431123355,-0.8148060153,-0.2423033074,-0.075020736,0.6504602629,0.818695299,-0.3411039213,0.2928387027,0.734680724,-0.8363939838,0.0534737106,-0.0293676042,-0.1612121776,0.2629462513,-0.4367283274,-0.9685624907,0.393199139,0.1069138685,0.6800772642,0.9749943814,0.9681757752,-0.6637451233,-0.4472787689,-0.6861363235,-0.59896076,0.7347897573,-0.5234618391,-0.0743114441,-0.3700996286,-0.3150725839,-0.1847042727,0.3130473308,0.4017090421,0.7433425953,0.3626741303,0.5729955091,-0.4048048575,0.6466478612,-0.6568706415,-0.1653058836,0.0682070284,-0.836622071,0.2697126689,-0.4519495359,0.9339222672,-0.1877192778,-0.650884246,0.8766401134,-0.0215106364,0.5548389519,-0.0543248519,0.0184700231,-1.0030382635,-0.2509234348,0.2235994074,0.732839867,-0.1466451414,-0.1868923067,-0.9271095975,0.3378245493,-0.8647724497,-0.3365523573,0.384511007,-0.583487203,0.1560090649,-0.4148117651,-0.0619290998,0.0942714341,-0.6394302399,0.8116881936,0.2133870898,0.110350983,-0.0802494202,-0.042741922,-0.1329291071,-0.0194273766,0.1797034531,0.3162426347,-0.5829010223,-0.6084935708,0.0575149941,0.3920295132,0.1608125665,-0.1010431725,0.8861124216,0.5220809958,-0.6542980664,0.1766420671,-0.6038144774,-0.8006815471,-0.0246014717,0.4979366631,0.8230274633,-0.1277214345,-0.1959141286,-0.8054105786,-0.4756223134,-0.9503331343,0.4475931825,0.6760069448,-0.970290874,-0.6561557527,-0.8567253248,0.0900130614,0.8243887741,0.7971276759,0.7983238839,0.4211850502,-0.6101371264,-0.0453656749,-0.9433197329,-0.0332861951,0.1808243527,-0.3113327464,-0.2133147803,0.3699169079,0.6694923425,0.1529496297,0.459553022,-0.3259140181,0.3025609966,-0.3091087921,0.2953057945,0.4179924484,0.6106807438,-1.0340773103,-0.4652615548,0.3917101335,0.2577306558,-0.6347786463,0.6854863349,0.4442672622,0.355865564,-0.9109412446,-0.2827210069,0.664443876,0.0495573226,0.7315712012,0.1147487402,0.2350676747,-0.8794450816,-0.8954920135,-0.8126095133,-0.8256499078,-0.6748922371,0.3025098835,0.6822432725,-0.8163938674,-0.7017336498,-0.498137654,-0.9434121787,-0.3979554047,0.7115792629,-0.9682033712,-0.8016625337,-0.0386261812,-1.0651003239,-0.4019188076,0.9604166445,-0.1488671581,-0.4696558991,-0.4694571146,0.5498827202,-0.8901008472,-0.2496512225,-0.5080408713,-0.3494832338,-0.1461707813,0.0800762065,0.3462321485,0.1110507868,0.4044920868,1.0169598611,0.0512612727,-0.4628748592,-0.897512455,-0.7586635713,-0.6731316155,-1.0467308942,0.5586971475,0.1027575964,0.7016299134,-0.9334102342,-0.2051824799,-1.0025475497,-0.6333800906,0.341921407,-0.3857664479,-0.1047494004,0.8024054847,-0.4663773552,0.52310371,0.828883533,0.4755326508,-0.3167895646,-0.5881000905,1.015334698,0.8461897587,1.0722753993,0.6422867345,0.5702784221,-0.1508344327,0.8915145583,0.4968749724,-0.3582025985,0.0552418866,-0.8853353311,-0.4411799526,-0.7752201113,0.3122057613,0.2684720764,-0.5681216081,-0.256190813,0.23014857,-0.3697281575,0.8350651162,-0.993621183,-0.1606814431,0.1665415725,-0.0647176271,-0.4892178259,0.819183744,-0.1483908478,0.3362037815,0.8953864098,-0.7502287257,0.4832047968,0.9975200411,-0.142269293,1.0155022468,-0.7466266497,-0.4824292201,-0.3226066652,0.6228490705,0.4169811846,0.0054091438,0.2703145398,-0.0834783468,-0.0767167305,0.6828452389,0.5936957236,0.7272806943,0.6155498713,0.9500460259,0.2563954271,-0.629278081,0.1917342959,0.564450299,-0.8877070252,-0.4862658246,0.1874885407,0.9419223245,0.9546217741,0.6732083911,-0.9477235877,0.9559278189,-1.0067440591,-0.2942361827,-0.9407236059,0.7874669862,-0.3087025707,-0.2564044051,-0.0661283212,-0.6847512322,0.2717301179,-0.9828742513,0.0373102497,-0.8146835579,0.4728292143,-0.1555365629,0.0959401074,-0.4485644922,0.0326670116,0.05647487,0.2439502013,-0.3320825055,-0.2753522635,0.9584404632,-0.2430723515,0.504222442,-1.4031524971,-0.3978484369,-0.7442889238,0.5748819231,-0.7924683782,0.9419061388,-0.9603596664,-0.6117216969,-0.1839728778,0.6634938112,0.2748432689,0.3533086537,-0.1341731322,0.6584659709,-0.4104033097,-0.592461008,-0.0063067416,0.7262448237,0.8726735472,0.1206802693,-0.9713610074,-0.4235945855,-0.9521642933,-0.5186762871,-0.3911070887,-0.4859710861,-0.6211615735,0.9935924234,-0.8322053938,-0.740612122,0.7353947944,0.7850262524,-0.9667935225,0.6744776124,-0.0245304091,0.1607136733,0.3700970724,-0.1379770526,0.9827784078,-0.3687104606,0.4695369171,0.0868413037,-0.1508712391,-0.7734018768,-0.8264363754,0.3679104499,0.1885159712,-0.4659232926,0.7078458646,-0.4650175668,0.7620029088,-0.6428132472,0.7939933013,-0.2722863406,0.8943688265,-0.2699543959,-0.9612709396,-0.3105199676,-0.5030793617,-0.191839578,0.6058970251,1.0010439617,-0.8743750363,-0.9158225618,-0.7673833422,-0.4780323051,0.4685550399,-0.2042153891,-0.5761049884,-0.6605619347,0.1151447158,0.6377111547,0.5933531647,-0.8119504284,-0.9177437898,0.1862092514,-0.0826027876,0.5442269777,-0.1644562234,-0.5498127796,-0.7243986017,-0.0088501858,-0.5041496352,-0.3561779863,1.0098873071,-0.5293529585,0.1857041483,-0.2669148312,-0.4563050713,-0.1663492832,-0.3388339211,0.1879756052,-0.012764662,-0.744233963,0.1507866751,-0.4759101018,0.9877574749,0.7031483688,0.7171166734,0.8428515645,-0.1503952693,0.6100610549,-0.9417954829,0.1042218861,0.4748758572,-0.2929287631,0.3844186499,0.7512736937,-0.5553587877,-0.6022435465,0.0883692723,-0.2316563888,0.7453319686,0.1056689024,-0.1911088185,-0.8328743943,0.0145993964,-0.2393572079,-0.308857665,-0.0195575583,0.9093153992,0.9078591142,-0.2061842209,-0.2966422952,-0.8859144952,0.8576833346,-0.3265441368,0.2679492108,-0.9064837041,0.7403325376,0.6991493713,-0.9973339429,0.0218012962,0.1171302073,0.3107998864,0.0635561542,0.2299806105,0.2566449837,-0.4658027785,-0.3564906424,-0.646366796,-0.7700190886,-0.4116086708,-0.1595475566,-0.4844001004,0.8296185575,-0.4518927124,-0.7808087182,-1.0003936553,0.820978268,-0.0639738018,-0.5011244595,-0.8382724767,-0.953520088,0.7657987119,-0.6729872429,0.3160383589,0.7623972466,0.4211152594,-0.6491222884,-0.382212411,0.1757336949,0.1282707309,-0.5445354936,0.9282416018,-0.5418285122,0.6586541355,-0.445275385,-0.5521427639,0.4413791943,0.5349508889,-0.7581385252,0.5904908107,-0.2864038156,0.1185041787,-0.5303446495,0.2619636869,0.5911122628,-0.3727089689,0.2105707005,0.1221614544,-0.95428279,-0.5979145183,-0.8577943489,-0.6066820927,-0.1384455958,0.2933625618,-0.1137873982,-0.9510407421,0.1500894345,0.858668485,-0.6119694588,-0.6488314435,-0.3999757058,-0.4948068548,-0.4950653255,0.132525617,-0.4189435113,0.7457445407,-0.9607899759,-0.1162928722,0.0433018961,-0.3573196185,-1.0273565197,-0.4605222177,-0.5069065917,-0.258725006,0.0164243276,0.8821386615,-0.8362358826,0.5533304022,-0.5006202245,0.0279984001,-0.9297670174,0.5972026735,0.5205376892,-0.9417177348,-0.6745058825,-0.0332987871,-0.4892816668,0.6282398556,0.5787229854,-0.2535075927,-0.0609646877,0.2091542713,-0.5167115313,-0.1389262753,-0.4208354005,-0.3438463713,0.3138452042,-0.0495700639,-0.5497025506,-0.5781644258,0.5499300211,-0.0375316337,0.6560637012,0.1821342202,0.949549349,-0.9146074132,0.978120266,-0.6881839963,-0.325637741,-3.2414809396,-2.0156999891,-0.3047084155,0.2057048791,0.4262408401,-1.1269388933,0.9463858821,-0.7968665718,0.4540601549,-0.1572627775,0.4630021943,-0.400657077,-1.3992140874,-2.3338376804,-0.1925784668,0.6869878147,0.5595969256,-0.1629834707,0.0439557751,-0.2902231595,0.6205013384,-0.8184828547,-0.1783962931,0.3057220976,-0.3328396795,0.1726532159,0.3143339087,0.2817576635,-0.351499922,0.9924649402,0.3583512709,-0.6195356416,0.9633568664,-0.4100793842,-0.258711192,-0.3395829587,0.1031546802,0.6459603723,-0.1569298039,-0.6174527688,0.2690211433,-0.4743908354,-0.1931486763,-0.0070642747,0.0968277261,1.1059233264,-0.220372405,1.03075238,-0.0760245885,-0.3249330375,-0.0015707222,-0.019767728,1.3691124891,1.1424304916,1.1935279662,0.4929692393,0.9576683176,-0.9209829388,0.8851429322,0.3847376878,-0.4957060845,0.3944197358,0.5078007142,-0.9493019235,0.6150115597,-0.4380149905,-0.1610969202,0.1536690254,0.0306279891,-0.876641856,0.024231282,-0.7276492426,0.7068693846,0.9536308781,0.9264647009,0.1634101428,0.6838290506,0.3174162445,1.2018976307,1.3704091728,1.116755343,0.4999644179,0.3939297916,-0.2175171105,0.3619479079,-0.6833641648,0.6108587347,0.5206452653,0.5889248559,0.8109301014,-0.1887734615,-0.7867371055,0.4882699109,0.3048309367,0.4758779831,0.5470507651,0.2817508798,0.7971788508,-0.9032430062,-0.8194330546,-0.1481975246,0.650235,-0.4830267763,0.145970208,0.099244463,0.3111063724,0.5798949362,0.0684119973,0.3751543025,0.1818710172,0.0055837912,0.6281915976,0.9860316617,0.4469687421,-0.557245197,0.2767170469,0.3929173804,-0.1864795673,-0.6922548957,-0.9505320686,0.9916683051,0.5976485759,-0.0539296451,0.1950876991,0.3840266705,0.3870745308,-0.7674276368,0.3212342647,0.9779789357,-0.9176398049,0.9322653031,-0.0041942672,-0.3594671712,-0.738538982,-0.6880368642,0.824457306,0.6590842966,1.1520779657,-0.2421435909,0.5672974774,0.2435509093,0.2813955687,-0.5529398465,0.6890286992,-0.1634673465,0.1315024534,0.9391466638,-0.7383211663,-0.5198015553,-0.5090138992,0.7240428681,-0.3102011771,0.0082875087,0.5009571132,0.0689209769,-0.4864987424,0.3035999595,-0.5895282933,-0.4886640471,-0.4454558854,0.3095541192,-0.61353372,0.6394368641,-0.4806722347,-0.7345935066,-0.9628685664,-0.1625876732,-0.3202270907,-0.5822363032,-0.1437478086,0.6650868776,0.4549428526,-0.6334910306,0.3185686906,0.9376597706,-0.3459345017,-0.1877934021,0.5650377044,0.889678534,-0.7890697381,0.7836989469,0.7276255786,0.3846601723,-0.8927959653,0.7856683607,-0.3739812976,0.3363149993,-0.674087579,0.4337487433,-0.6946445686,-0.3609031896,-0.9494744902,0.0163178403,0.963894409,0.5084541098,1.0147138363,0.1718342177,-0.6561614497,-0.2968154618,-0.8961216176,-0.4918233148,0.6503307397,-0.4391033679,0.6660566658,0.3249104423,-0.188817414,-0.4591869634,-0.1709379129,-0.2797265767,0.9803234161,0.5332924598,-0.07754198,-0.3582294499,-0.0690920557,-0.5591792569,0.7590694516
   -0.1528054063,-0.7880685995,0.3741353789,-0.708141799,-0.388860569,0.95050313,0.9792517339,-0.7549842668,0.4194353858,-0.594418018,0.247750484,-0.4322493174,0.8026246812,-0.233375213,-0.682969105,-0.6459286453,-0.97346262,-0.144764103,0.9382456451,0.4216283724,-0.3454851058,-0.8822679951,-0.7876512609,0.4097858381,-0.4279204062,-0.0909206122,-0.0170621051,0.957706648,0.0328044112,-0.4267584044,0.2387091811,0.423950551,0.9942480798,-0.9269367888,-0.8398877767,1.0245917184,0.6869098065,0.4187078012,0.3367210595,0.8716295569,-0.5011181782,-0.3681724251,-0.8191039454,-0.5339177322,-0.1840665022,-0.7579520027,0.7817262676,0.6146911435,-0.8446564786,-0.4932493991,-0.9260020963,0.6500305826,-0.6401686134,0.4881132241,0.0068214318,-0.4479714347,-0.5488283318,0.8178224101,0.7834192985,-0.5422239489,-0.1805407733,-0.2640828247,-0.7066552826,-0.9582854341,0.3554838836,0.6671740001,0.1837964269,0.2064438833,-0.6682912866,0.9541326087,0.3877464701,0.6287955634,-0.4267927018,-0.3228036456,0.671330606,0.6317267159,0.6145242161,0.9404561453,-0.5447578749,0.0498813487,-0.8365970132,-0.7972470958,-0.0863320577,0.3220379429,-0.3587431841,-0.7899377021,-0.0163524858,-0.4195766934,1.0174564077,-0.2702234047,0.679700255,0.7584112081,0.8726936318,-0.5997407299,0.1089461916,0.1881079998,0.067474565,-0.1647186728,-0.2246422435,0.8135952518,0.9569218026,-0.4231441736,-0.877239859,-0.5964040538,-0.5453124824,0.090649988,-0.1436971334,0.4066819852,0.89210528,0.3489122685,-0.0512959683,0.2359554368,-0.62579329,0.5777867107,-0.8699472566,-0.1610531866,0.2322865415,0.3641244491,0.9020576647,-0.0990262892,-0.6683296452,0.8054247185,0.0013302775,-0.0711473646,0.4817606987,-0.5356519523,0.3348002934,0.2355031778,0.2318485407,0.7452220756,1.0113523852,0.7377438571,-0.8358262276,0.4439765501,-0.75563044,0.9077742176,0.4033624801,0.849031892,0.9753311532,0.9034634945,-0.2281611379,-0.3570451532,0.3139719958,0.9711661513,0.4023300333,0.8052126353,0.2816734703,-0.9348287791,-0.9132069868,0.4717355519,-0.8048366973,-0.6964635678,-0.711586292,0.0769135966,-0.0966529126,0.1117385886,1.006635096,0.2378598494,-0.6792056572,0.8813925402,0.4885672762,0.1427606493,-0.0153828372,0.2710399664,0.1645045657,0.5814983472,-0.3074617371,-0.2708502666,-0.7139855713,-0.1744270825,-0.4159615762,0.9975489543,-0.8158127164,-0.2504829066,-0.2734187991,0.0729662094,-0.7480406774,-0.1515264076,-0.793357749,0.2334416292,0.7588749823,-0.1079975445,0.1208703812,0.2041026161,0.8475223785,0.3095058925,0.3428769135,-0.1313761355,0.0480424755,0.6248045616,-0.077780131,-0.4662528248,-0.8070606494,-0.6094237961,-0.1841325782,0.3990979849,-0.5060028541,-1.0864524378,-0.6368398286,-0.1024933258,0.5676109641,0.9298803726,-0.8669909754,0.0544574876,-0.0631025145,0.9679418025,0.9517666126,-0.7754889667,0.4852248953,-0.6055801695,0.3204128493,0.2330224653,0.5917831322,-0.1096195147,0.4943931757,-0.6969362561,0.9088085484,-0.2658978732,-0.2207437394,-0.9152574806,0.1731345207,0.4009819165,-0.0827853051,0.5831115186,-1.0050632437,-0.3322901599,0.3698602953,-0.8854189553,-0.6361867463,-0.8208190965,-0.9639340237,-0.9599342948,0.3553998567,0.3818412791,-0.4282421164,-0.203130436,0.6660367955,-0.1138804737,-0.5459157918,1.0306820176,0.0776005785,0.4974223147,-0.2881600879,0.0152382558,0.8774602718,-0.116793102,-0.4758558532,0.4934472875,0.8843891378,0.6028985159,-0.6695626138,-0.8978856779,-0.6732043776,-0.7969955196,0.0779153929,0.3192281546,-0.6600666424,0.2363600104,0.1150791261,-0.9574038986,-0.5310931155,0.4219018832,-0.6455690027,0.6337273582,0.2382685305,0.5308449514,0.3057156007,0.4985107529,-0.4463082378,0.2129517774,0.6280246678,0.0493327397,0.9679575656,0.3341013636,-0.8142311366,0.4393299373,0.9533964525,-0.7070722431,-0.1737897769,-0.6867515066,-0.741348506,-0.3993437276,0.3984117315,0.6941763789,0.1945592435,-0.0686058632,0.5218395128,-0.0656058496,0.7820476226,-0.3414895955,0.2908851892,-0.4275498048,-0.3360695252,0.9088648426,-0.9186039977,-0.7158921168,0.6304533336,-0.5646782851,-0.4544373423,-0.5375498821,-0.1284951672,-3.6118644262,-0.884179464,-0.9072317696,-0.6563394984,0.5255968926,-0.7720231383,0.6243646481,-0.8266422163,-0.4347574526,-0.0993238798,-0.0983991382,-0.5511926877,0.2865248937,0.4316983941,0.7830530495,-0.7769872079,0.2551276844,-0.4334019588,-0.6128637101,0.6828452368,0.2972257703,0.5641579187,-0.5054686936,-0.6128288478,-0.3516099413,-1.0205908641,0.5938066399,0.5416245537,0.4810870228,0.9923670942,-0.3141597452,-0.3504511798,-0.211704299,-0.0053862662,0.4054027999,-0.7727653698,-0.3916008728,-0.2304281077,0.7480085995,-0.9283643798,0.0423692507,-0.7078411723,0.6292022423,-0.7452736147,0.7160680998,0.086952669,-0.0115129159,0.6924113351,-0.8797660532,0.0778302344,1.5061804581,0.1748882661,-0.3090445466,0.1838121464,0.9965360738,0.5801610106,-0.6991179899,-0.894547996,0.485663519,0.0504877881,0.3750761642,0.7467993328,0.1780186952,0.1174954312,-0.7547564271,-0.2159809756,0.248701871,-0.45414544,0.6929546661,1.2104486286,2.1584117935,-0.5535744388,-0.3216470284,0.5268376022,0.5117982031,0.9059290035,0.9699618163,-0.0509172627,2.5724476167,0.6595425539,-0.8661697258,0.5992887793,-0.7751840481,-0.844675569,0.3872548953,-0.0869106986,-0.7966181071,-0.7525523733,-0.1215410794,0.7033091705,-0.9079224603,-0.6845592869,0.3457207415,0.5912987533,-0.4995357118,-0.2889629116,-0.8658798675,0.6515882417,0.3026405606,0.554901847,-0.3441470693,-0.4509013319,0.8703351197,-0.9855235325,0.9721847636,10.4756819406,-0.6520119788,-0.0675489563,0.7505622608,-0.2582101284,-0.9539826732,-0.8847913422,-0.5130224508,-0.0254092337,0.6831744446,-0.3079574997,-0.2910634614,-0.4822625454,0.3358262009,-0.0100005853,-0.090422839,-0.1416108848,0.9073878166,0.1091582329,0.454935555,-0.0030240797,-0.7283184157,0.6177272765,-0.3811612867,-0.3374533501,0.0985220618,0.7651247076,-0.017136747,-0.1310809166,0.369727159,0.3896426577,0.6548513555,-0.4673101566,0.2137879169,-0.6124833359,0.4479237255,-0.0120025484,0.6270983721,-0.3883489744,0.4631090769,-0.5446650681,-0.4978478392,0.1158575949,0.5757899166,-0.189490142,-0.5534243719,0.7902920263,0.3361832635,0.9535660969,-0.1231937243,-0.4134684201,0.1394398425,-0.0960609213,-0.8987501569,-0.2270350651,-0.5650326637,0.321599532,0.9065317903,0.7977624713,0.5276908345,-0.5809782358,0.9007025088,-0.3106262279,-0.2357454717,0.51624406,0.0909496562,0.871370257,-0.7627168183,-0.1020046771,-0.4560269983,-1.0592874182,-0.9681776945,-4.8796853079,0.4842704137,0.1031610617,-0.1183188036,-0.5312389868,0.486309426,0.1934892864,0.6837518641,0.4966798354,-0.3384528462,-0.4648800398,0.8687109775,-0.8762056568,0.7921867955,0.5223311414,0.6576329674,0.4534640556,-0.7645987182,0.563343984,-0.9710107384,-0.9611464234,0.0077051329,-0.9942313937,-0.7578246838,0.4529736294,-0.240236474,0.3190108371,-0.0188655765,0.0492566904,-0.425925252,-0.7731402645,0.4739607319,0.2261477807,-1.0045863422,0.3758525969,0.9109661428,-0.6592953589,0.9690903654,0.7666758245,-0.2959388375,-0.9408413889,-0.2031017626,-0.6509695394,-0.6208186689,0.2642594606,-0.7794659682,-0.3254179596,0.900021279,0.9871783992,0.8733337067,-0.717053784,0.0743055144,0.9278101449,-0.1572507003,-0.4889492805,0.242868577,0.2408182441,0.0675267371,-0.1460469792,0.7304801984,-0.6207077553,0.1623199403,0.4718203986,0.108734764,0.2263120503,0.9015295463,-0.5703921304,1.0334506235,0.3372101542,0.9948087582,-0.1751465125,-0.4437581002,-0.1602880395,0.9480821295,0.2074782551,-0.0399624843,-0.2810793684,-0.6712133189,0.6711527862,-0.5038773421,0.8969864307,0.5841581213,-0.9230415211,-0.0503134096,-0.4869479477,0.6979726712,0.1485606488,-0.5938234994,0.9978275746,-0.913157671,-0.5378196397,-0.8366919236,0.7569508708,0.7783918603,-0.0701703713,-0.8184728351,-0.2116669879,0.611798482,-0.6257621806,0.3840176464,0.8215501401,-7.1778216829,-0.9881774607,-7.0657602486,0.9236291615,0.180374245,-0.5217050573,-0.4537012021,0.1697450914,0.3532518935,0.1799716226,-0.3867220149,0.2682235185,0.8714783222,0.0744405611,-0.1362259566,-0.3135653398,-0.2650016387,0.4838305911,0.5426266559,0.6072615618,0.1477227794,-0.9479726388,-0.0222961867,0.0537590136,-0.1608939632,-0.4711962097,0.8313233376,-0.6608136582,-0.6164829599,-0.1585186592,-0.3764608757,0.9685460274,-0.4912239172,0.1245152789,0.3070147563,0.0503729315,-0.2274732714,0.7221027663,0.5226442645,-0.4825469276,0.6003707201,-0.4924240558,0.0596655529,-0.2303416595,1.6174039581,0.2288675076,0.9214053841,0.4231269625,11.4977765232,0.1353342636,-0.1112020443,-0.8818684654,-0.7790832995,0.9282926002,0.4845054862,-0.1074904002,-0.3375612609,0.1584416387,0.3913313965,0.752127628,0.3779023977,-0.8164859096,0.2698230901,-0.0740013867,0.8297772071,0.1967176046,0.8187947878,-0.6553420535,0.4530905585,0.7028874298,-0.9801672544,0.666174072,-0.5767241492,-0.1264824799,-0.3562931,0.0014426329,-0.3399652418,-0.9189992683,-0.0266359918,0.9705218847,0.2377630419,-0.333321318,-0.1760765293,-0.9545186036,0.2610707031,0.3081237088,-0.0146054943,-0.2191783028,-0.3143443742,-0.7275197169,-0.792258012,0.4836688907,-28.5081104294,-0.0885350475,-0.5600881507,-0.1369334621,-0.2473159143,0.9870576762,-0.762811479,-0.9882357312,0.0741603902,-0.0293721945,0.4690867108,-0.8435985928,0.2600276791,-0.3073010694,0.3951396686,-0.0553450061,0.6008676285,-0.9444040818,-0.5208975978,0.7220157315,0.5862418793,0.0194058458,-0.0229535814,-0.8952657388,0.8897639841,0.0271605505,-0.6572825123,-0.271010521,0.1164070312,-0.1052935674,-0.898550412,0.7092943599,0.0357716116,-0.1977286902,-0.0622749507,0.7071979878,-0.3613724707,-0.4109481223,-0.5044750436,0.3087398482,-0.1169922205,-0.4069131113,-0.6217270409,0.1875489529,0.5554060577,-0.0565741836,0.1213761762,0.3372735608,-0.7319075969,0.5394332234,0.6760919579,-0.3878145065,-0.3368629971,-0.6495392175,0.5087949137,0.2718970748,0.2651637388,0.0907032867,0.3576534865,-0.9630898919,0.5508710209,-0.3433032328,-0.7201806187,-0.868433249,-0.8530835763,-0.9513328648,0.4698336032,0.445155366,-0.5490015785,0.9537007131,-0.3313503276,-0.4600823073,-0.1295503103,0.0719432977,0.6684923515,-0.2293918454,0.3782017884,-0.6255584925,-0.8375695386,-0.8427771288,-0.7715321636,-0.6801465486,0.1824292931,-0.8275601176,0.0217600874,0.3512308997,-0.4299823847,-0.8518180491,-0.5832212839,0.8566330789,0.0795518307,0.845835001,-0.3911443142,-0.1156908307,0.6354805248,-0.2231685933,-1.0013535677,0.5545421214,-0.9013087869,-0.8797199055,-0.6913664214,0.3395350404,0.8184354002,0.4417714744,0.3032877444,-0.0486014302,-0.8584171506,-0.0107695319,-0.7769337105,-0.1854137046,0.3782439208,0.0717905872,-0.0636134059,0.6211908011,-0.7573601223,-0.7777794717,-0.8004023781,-0.4301271072,-0.3806937429,-0.0096896049,-0.8297914411,0.6630087143,-0.0879537084,-0.9800495069,-0.3764124494,0.1858083145,0.5587238198,-0.7618398561,-0.652395107,-0.864409498,-0.9925389934,0.4429602974,-0.6437765484,0.2632690084,-0.0120274876,-0.8586797298,0.6665845078,1.0762607528,0.7194603615,-0.765577577,0.3568183945,0.5358534186,0.4574390091,-0.8487610653,-0.3256859854,0.0635624079,-0.898056624,0.0205055321,-0.0569683187,-0.1525817956,0.9197327934,0.8446485947,-0.5976136959,-0.1638653821,-0.7882143872,-0.0787980787,0.3570381803,-0.3580227922,0.4967397849,-0.0155271081,0.0675674307,0.1542203592,-0.0367396157,0.2698974547,-0.5869306408,-0.302663467,-0.8225986306,-0.8093292144,-0.7813823419,-0.7939147891,0.964952264,-0.4437969147,-0.2353310405,0.4637398434,0.3410174085,-0.4871808315,-1.00249603,0.9165765144,0.5781408088,-0.0109785858,0.6912036978,0.1218322754,-0.5536500662,-0.4034270914,0.4183810074,0.7584338001,0.7320128026,0.4947116065,-0.6253308085,-0.5416239591,-0.6238958913,0.7131259159,-0.7830525051,-0.6274838724,-0.6803352284,0.6126473397,-0.8056822342,0.0322133391,0.6965256278,-0.6039023284,-0.1483658795,-0.9121602969,-0.2323248149,-0.9097192238,-0.4209269408,-0.067254994,-0.9293503855,0.5886205902,0.5178011597,0.2165570095,0.9013366962,-0.1007940381,-0.6529185729,0.9562755928,1.0517117135,0.5979036496,0.1217013757,-0.1624495351,-0.0107613302,-0.4573730005,0.8473484535,-0.6321955787,-0.348740213,0.9089219011,-0.1837255958,0.6093846454,-0.0263751789,0.5030716898,0.4282551567,-1.0302443589,0.3747415497,-0.0527324531,-0.7522245117,0.2536413258,0.9410838044,0.2802333854,-0.2490439867,0.5393913065,0.6331149063,-0.0549673467,-0.1071240653,0.0368678705,0.1971830285,0.1882032182,0.8175133006,0.859315971,0.191395007,-0.1924988769,1.0741907124,-0.0170250177,0.6297295622,-0.041618389,0.7097832747,-0.4444974347,-0.6427233677,0.2244909024,-0.0011887185,0.2233000706,-0.4956491073,0.0211928907,-0.2192260684,-0.9640579256,0.4392996825,1.0704915867,-0.6303639763,0.0205401793,0.5060452223,1.0032088305,-0.3856875829,-0.9035834699,-0.665819529,-0.9050421867,-0.3709241554,0.8184611801,-0.9094675737,-0.3031941266,-0.7247450953,-0.4068801494,-0.4175636976,0.9125583402,-0.6727221191,-0.5171419329,0.5100679242,0.1867774998,1.1183807717,0.9431942945,1.1015780386,-0.5927011456,0.3793866399,0.9237486882,-0.006853773,-0.4244445839,0.8483345524,-0.6386884278,0.9623402051,0.729801726,1.0930259392,0.7023655477,-0.7663027039,-0.1422461662,0.3991716193,-0.7804037201,0.7786786656,0.0811041757,-0.4854744232,-0.840858144,0.7547261858,0.4580337587,0.0757665878,0.0359465143,0.84105102,0.3832453105,0.3463745722,0.4808263223,-0.7643134292,0.5802056176,-0.3883592174,0.4519498194,0.504515491,-0.5217140736,0.139103105,0.6133021652,-0.8496340749,0.8428857527,-0.8495880731,-0.8039160878,-0.4941674139,0.5421359609,-0.1916529825,0.0310709186,0.7308758427,-0.4440007148,0.3974541103,-0.1952799861,-0.3760220138,-0.6398690161,-0.2835087141,-0.3881531807,-0.4667631961,0.9923076821,0.0375055405,1.030600441,-0.2129314521,0.9821994519,0.2570535807,0.2148713012,-0.207290846,0.877137037,0.2919002086,0.5527077431,0.1444432287,0.0501837471,0.4189250356,-0.7952410759,0.7072580378,-0.1856103586,-0.0608928835,0.0561924233,-0.3756078007,-0.1806580874,-0.4524457845,0.6372492743,0.2892620061,-0.1554168292,1.0935605319,-0.0745941656,0.0215147648,1.0330167829,0.1876221376,-0.823763805,0.8850942276,1.1115643422,0.8890641848,0.5409802449,-0.7256593679,-0.870192883,-0.8514975496,0.8222442709,-0.9128422456,0.1035407021,0.5718910985,-0.2105432219,-0.7748348538,0.4875030984,-0.5086569707,0.1000840507,0.8731299452,-0.7201324353,0.0098141979,-0.1927686488,-0.9755405559,-0.7962623797,0.313019047,0.919161455,0.5515596252,0.5376925466,-0.4738141066,-0.2127041718,0.79597138,-0.5992280942,0.412572343,-0.8406810107,0.1423239213,-0.0906442376,0.3660564083,-0.5019573696,0.0050843473,-0.6484365222,-0.169630088,-0.3404086136,0.4814325605,-0.3616090402,-0.9077662844,-0.75698316,0.2485017117,-0.0112058786,-0.8007603627,0.1510725628,0.9567416405,0.7669652593,-0.4254475612,0.1983728798,-0.2847165129,-0.1848064585,0.8304057268,0.1252228345,0.5728902216,0.6315917922,-0.1398859563,-0.3128853853,0.1881101792,-0.7463517831,-0.7314559063,0.5613664489,0.9157007059,0.1087850539,-0.857898912,0.8319939976,-0.4698378958,-0.4962893886,0.5206088413,0.7260341765,0.9109784727,0.5419028149,0.1750559695,-0.6897497968,-0.318571137,0.4472903104,-0.5754219533,-0.1098654836,0.544754293,0.5657103776,0.3931448095,0.474782555,0.2333254898,-0.6832133682,-0.2391339791,-0.2778465887,-0.2823596727,0.9747659448,-0.2567819288,0.1791312822,0.5415029497,0.5892001344,0.2195124042,-0.7226293261,-0.7753400951,0.0381216893,-0.5039271487,-0.8137985238,-0.3693397704,-0.0904919192,0.8950811303,-0.6209858101,-0.6143630533,0.9354166394,-0.3788474513,-0.1580365037,-0.9360896292,-0.1761953857,0.5375863704,0.9313514346,-0.915389919,0.5210912306,-0.2228155946,-0.5904245334,0.5056810849,0.5414443398,0.1579424145,0.9951467567,-0.9444687503,-0.7095927034,0.178904973,-0.7304380996,0.6771615165,0.7168084956,0.1766763756,0.6040396189,-0.6653099609,0.8044718746,0.0064884579,0.6662585704,0.0456695337,0.8440795548,-0.7149851818,0.4352754129,0.1250996042,0.3907302271,0.9075258566,-0.45372502,-0.120973133,0.9261394577,0.4521787191,0.512599885,-0.6120474205,0.401473301,0.4331243433,0.0410313879,0.0601533898,-0.0669630692,0.2630568404,-0.4194873116,0.9563800076,-0.4094537012,0.2086803431,-0.5429984652,-0.6281095208,-0.3827171973,-0.5551291635,-0.8493277172,-0.1089972237,0.7258477999,-0.5023416267,-0.3632358301,-0.6311704911,0.5944915669,0.1452080518,-0.312468165,0.4491387581,0.3241133402,0.5918562521,-0.2768194104,0.8901425667,-0.2782491745,0.3514061397,-0.0473228521,0.1071172002,-0.5624635474,0.704652534,0.0113951462,0.8925980535,-0.1001059575,0.4165566982,0.2858132747,-0.0114694576,-0.1983796102,0.2981366596,0.1577287241,0.0793950223,-0.250526328,0.7289384783,-0.7374514135,0.6449568108,-0.7456486573,-0.8605226647,-0.3843536834,-0.6424699269,0.0212697604,-0.1757472768,-1.0052819936,-0.7427537546,-0.9771851562,-0.5466970769,-0.9850331023,-0.7755786646,0.0434255964,0.2023203709,-0.1876769466,0.467644768,0.9088073676,-0.6730222854,-0.1386432784,-0.7162609048,-0.0332929304,0.6886700661,0.9768515493,0.0738768685,-0.4358347555,0.6464373909,0.6523758447,-0.9738986532,0.6355553751,0.3952959846,-0.1527206648,-0.7045097228,-0.3274049231,0.3389933919,-0.5616348676,-0.2453483345,0.6837167853,0.716444451,-0.5825788004,0.0668688377,0.4779823054,0.2275774761,0.8067684998,-0.1660321364,0.7674077635,0.8168955979,-0.878753501,0.5477271472,-0.5310599128,-0.4136916091,-0.5683669786,-0.3352062023,-0.2954642946,0.0016422323,0.2858999798,-0.0844736219,0.1269861467,0.5966497747,-0.573117797,0.4351324997,0.0071501413,-0.2622031262,-0.0907349006,-0.7988980821,-0.4317043558,-0.6422472793,0.1598706479,0.3339870482,-0.7720887004,-0.2519290397,0.6660978667,-0.5268675229,0.945857248,-0.8476077345,-0.0172009583,-0.0963301935,-0.5787258994,-0.3025322224,-0.1847651346,-0.1713250927,0.1539779586,-0.576545635,0.9380328862,-0.5281133898,-0.6569183025,-0.6251997944,-0.8484383769,-0.9530008685,-0.7130218449,-0.8055369285,0.2661503765,-0.4858097197,-0.9158113425,-0.9089889316,0.3655038574,0.0737882601,-0.221024797,-0.3240769024,-0.8142457857,-0.4325820704,-0.1598931433,-0.0447205588,-0.0818745832,-0.4267627519,0.8269389414,0.8151314342,0.163703567,0.0071930638,0.6848752307,0.5974719592,0.839191872,-0.4558428413,-0.4068368686,-0.96361783,-0.4330294255,0.7065031895,-0.8366403263,0.437198888,-1.3517667302,-0.0039937971,-0.8198203591,0.5789026838,-0.3993308446,0.7407092618,-0.8829602361,-0.0748900538,-0.5222276792,0.6616869367,0.4376755263,0.4040502062,-0.5435911991,-0.9090052075,-0.0902718195,0.6337384038,0.2343750484,0.085177103,-0.6214453702,-0.738004094,0.4473358366,0.9674910339,-0.4111969281,-0.6281534806,0.2985418087,0.5288855125,-0.7285963051,0.7836556787,-1.0544395087,-0.083159877,0.376490135,-0.4593181307,-0.1080477038,0.2368103215,0.1806185833,-0.0700462345,0.2383271404,-0.7913610761,0.4312117068,0.3246474978,-0.2833624217,-0.9071832132,0.377329442,-0.5696384219,-0.6963168081,-0.2727277408,-0.6514621234,0.42492969,0.7688963813,-0.6000418222,-0.6740507807,-0.7816880037,0.6684706232,0.5299750451,-0.903602904,0.0068216327,0.341097794,-0.7710450027,-0.2676810705,0.3966349657,0.0214917363,-0.9059645206,-0.0657742038,-0.5493150713,0.9167196106,0.5863775319,0.3995592409,-0.3393766411,0.971744615,-0.3431734158,-0.9996644175,0.5888623116,0.5413382481,-0.4470730159,-0.8303291972,-0.5389303794,0.3227517143,-0.406769031,0.7214520068,0.9313142455,-0.1550898888,0.5966927952,-0.0018301666,-0.7918969468,0.5677834053,0.7903836408,-0.9332290032,-0.9302267831,0.4234752958,0.923569735,-0.8717126312,-0.9907434155,0.4524612423,0.0314649317,-0.116221818,-0.6946301669,0.0944295781,0.5553802178,0.8835738027,-0.8246760491,0.8094695957,0.5304397846,-0.6121418646,-1.198879327,0.2061753047,0.5070753167,-0.8650955326,0.0247772725,-0.2491110334,-0.316685296,-0.9793595811,0.8167440755,-0.147008553,0.9604893361,0.300824284,-0.2362020339,0.5567187579,-0.7011674034,0.0223126664,-0.1782324672,-0.9514050817,-0.8790294041,-0.9710983204,0.110365555,0.4706106567,-0.6868105564,0.7761421675,-0.549534651,-0.0547076837,-0.1994229816,-0.1546196414,0.0502005724,-0.0150088859,-0.6025724277,-0.1443558733,-0.2825546867,0.4200900434,-0.9168184166,-0.5230691766,0.7502824736,-0.3023618046,0.4796349146,0.1334290057,0.040014303,-0.6604274308,0.0588138055,-0.3519662975,-0.0378202779,0.3371952444,0.6657323179,0.173492588,0.5295042967,0.298259124,-0.5084697485,-0.4328494567,0.705862473,0.9557238746,-0.0847436331,0.3265348763,-0.081620062,-0.9512277952,-0.3719109164,0.6800043489,0.7178674806,0.5202286872,0.7192725402,0.6484654074,-0.198688255,0.744384638,-0.5772047798,-0.4873710014,-0.0402858155,0.4682077966,0.9911284497,-0.1372832634,0.8840659009,-0.8481857918,-0.8894062663,0.1358247342,-0.7380583043,0.5621305857,0.474593703,-0.3029934333,0.29596427,0.2001302667,0.5552243023,0.6637034735,0.8973331726,-0.622538783,-0.5240888404,0.6308315982,0.991414769,-0.662994989,-0.8628978006,-0.5177497045,0.6818628697,-0.4166841877,0.8392647807,0.4030800698,-0.4350040738,0.1748292605,0.4750303103,-0.2643292677,-0.4583225552,-0.6805021387,0.2829616555,-0.342052071,0.5894293102,-0.3335560842,0.2506494771,-0.7582955849,0.3693944899,-0.1170607295,-0.3949629016,0.345089729,0.688801833,-0.0842930069,-0.1130234294,0.0053469198,-0.5001071194,0.1005381235,0.423163395,0.4614265303,-0.9529857049,0.6525350563,-0.4999829513,0.7787842946,-0.0363701556,0.2395041804,-0.5229930479,-0.6723981776,0.0631333982,-0.5449543551,-0.0752074809,0.1276001252,-0.712210406,0.9408619104,-0.7280359811,-0.6981729223,0.2108120823,0.5748777403,0.2833004105,0.302988444,0.7110579321,-0.9995698597,-0.174751071,0.7469865447,0.5528156363,0.1405932105,-0.3308964988,0.960712144,-0.5703779821,0.4489679196,0.005310118,0.8298221583,0.6860992099,-0.8448937781,0.4081862633,-0.0927243218,0.4175573817,-0.8702596265,-0.9253433591,0.6874277853,0.3511273847,0.3225360633,0.4674283379,-0.3779570572,0.1983982886,0.9196431813,0.7106434015,0.2280317346,-0.9765800147,0.4154990705,0.068579164,0.4466124816,-0.0124709069,0.1097029655,-0.2124044384,-0.183044829,0.5491306718,-0.5825948248,0.126381387,-0.6883879883,-0.768844213,-0.5513067457,-0.1404206643,0.3916734755,-0.835129556,0.2378372336,0.1997651602,-0.128581316,-0.2666733932,-0.5993973939,-0.3350036327,-0.529587983,-0.5476679815,0.2792742239,-0.5580620527,-0.9107172661,0.9551256895,0.8647564322,0.9801723809,-0.8734336446,0.0497391005,-0.9302447186,-0.1823293302,-0.3765785993,-0.574185043,-0.0670110167,0.1145659147,-0.1659035635,0.4385358731,-0.347735978,0.0147904115,0.8397327616,0.8104955416,-0.1330654567,0.5585676241,-0.9778370252,-0.1847799599,-0.0576036111,0.2304537776,-0.7466729394,0.1231525995,0.3585691,-0.3643164463,-0.0078044266,-0.5502455857,0.7122278575,-0.7560779447,-0.0938679192,-0.6120899647,0.1810880721,0.9757121755,-0.9736059351,-0.2088196561,0.0233036288,0.7984233759,-0.7711480344,-0.6462561834,-0.0736389618,0.5170896524,-0.1260989787,0.7799822054,-0.3114540481,-0.9056945891,-0.5988296886,0.6923121773,0.2068611811,-0.1354749647,-0.2973635813,-0.0575625663,0.7316629483,-0.2559354508,-0.1098387416,-0.3439514002,0.8559099297,-0.4184289005,0.4728555426,-0.9617292579,-0.9060965778,-0.7519534494,-0.9864539475,0.1206658808,0.671371141,0.010172967,0.2554900807,-0.1140076656,-0.6368499509,0.3595424667,-0.0769948448,-0.9305266737,0.5342351695,-0.3015767321,0.4330174309,-0.3679711294,-0.5834257651,0.2670514657,-0.6483180597,0.0949024217,0.3003482348,-0.9256232219,-0.8429490417,-0.6276476418,0.0595550403,0.0634811399,0.6937699791,0.1657795948,-0.0628065883,-0.0944115287,-0.4708062728,-0.1995645379,-0.6657768156,-0.9934896632,-0.8704494225,0.0165615042,0.2691678768,-0.6505909657,-0.0359148993,-0.6246688352,0.2912378225,0.8675899222,-0.025727075,-0.9051112782,-0.4153917162,0.5408980397,-0.7578975633,0.0278292344,-0.8175017297,0.7990495901,0.464202542,-0.9936811124,-0.6751097355,0.3841347475,-0.9159213056,-0.9317799301,0.7602669922,-0.0144268396,0.7612434949,-0.7806862814,-1.0184355118,0.1270175034,-0.4589924738,0.3469784518,-0.0592911065,-0.4778844774,-0.3069884847,-0.4369936538,0.3925235217,-0.5483156124,-0.6267104109,-0.1015120217,0.8072762639,-0.5299358386,0.287639674,0.9493461496,0.6889829045,-0.7381282838,0.0933542652,-0.6105349311,-0.078719983,0.6592659058,-0.8928376737,0.7237304382,0.7491778813,-0.6873484119,0.9567428058,-0.6538466855,-0.5804594766,-0.2493671802,0.6716820823,-0.0970038434,-0.5709069381,0.0714545744,-0.235693278,-0.9667320099,-0.923128501,0.0327289171,-0.4676304554,-0.3957452002,-0.1356182834,-0.0364435895,-0.6339888514,-0.2595614857,-0.1071352974,-0.0748424511,0.890235895,-0.4378506507,-0.7080310658,0.0540376419,-0.9674390483,-0.8980007431,0.7424633385,-0.5556019702,-0.4407183548,-0.3454924806,-0.7167700356,0.6882253624,0.3010687293,0.8410203214,-0.8877554307,-0.2786834783,0.5323199893,-0.0812384832,-0.7421098076,-0.9564663981,0.8002234067,-0.1548851386,0.6330063689,0.047801463,0.701799954,-0.3297275361,0.1495213753,0.4664079178,0.4114533977,0.3825848318,-0.4657017721,-0.2553094047,0.4640902715,0.0095820976,0.3637386084,0.6607841752,0.9260719489,0.171245781,-2.0128310225,-0.1393494289,-0.8471506518,0.3770073859,-0.9609654057,-0.5528485276,0.3416150245,-0.4725100712,-0.7221423341,0.823320168,-0.1456838001,0.7693370789,0.2829778701,-1.0442678278,-52.2601252103,-3.8290127816,-0.1287722409,0.4213354097,-0.222802688,-0.5528711474,0.9967419314,-0.4567099906,-0.1536017934,-0.8760159623,-0.0248773934,0.3534160154,0.1596963305,-0.2983458523,0.2757274976,0.827447114,0.9238638351,-0.8705696397,-0.1329813451,0.1270052509,0.3362776631,0.6761609252,0.076108648,-0.1403172621,-0.1497293896,0.2628902451,-0.2120173937,0.5228299126,-0.0833182618,-0.7674217842,-0.8897172574,-0.55474866,0.8384943321,0.7103538521,0.8761316576,0.425053814,-0.3798148393,0.3614403662,-0.1796439665,0.1222067016,-0.5871028485,0.690921469,0.3799250405,0.3579459279,-0.3390619296,-0.0775420594,-0.1139187516,0.9699981009,0.8067637707,0.9048229969,0.6833129128,0.0165571869,0.3153172379,-1.4263316684,-0.4712969473,0.2815562511,-0.7615662941,0.5547336595,-0.5351047433,0.2219077402,0.6024206713,0.4025389937,-0.9016092625,-0.8008220769,-0.9874900738,-0.1421527985,-0.6310484489,-0.4534173014,0.8077494265,0.1365554944,-6.0914950475,-0.6802575016,-0.0379996306,-0.8858315111,-0.4024912239,0.890208966,0.3416859853,-0.1378247658,-0.9722550866,0.5023472457,0.5134500315,-0.7601807963,-0.7912943104,0.5658119241,0.8182912642,-0.2209938918,-0.9856988883,0.7851993129,-1.2766032389,-1.0106517292,0.6313430569,-0.6100591847,-0.8879750396,-0.0536943579,0.7840151223,-0.5124028767,-0.502122913,-0.2637744838,0.6215484484,-0.1544204084,0.5267982141,-0.9958280556,0.4012127423,-0.7256435326,-0.6554196506,0.1105694541,-0.4219331287,-0.5315383666,0.1585137781,0.5383912394,-0.1089266742,0.0761923204,0.5552967623,-0.8726769485,-0.6741547218,-0.8519456729,-0.447076332,-0.6217999005,-0.4515576993,0.0227012667,-0.5600845685,0.5311438515,0.2955664578,0.6788812555,0.1422342854,-0.468906833,0.678868643,0.2879691036,0.0577994454,-0.0876810908,0.0369723632,-0.8246620787,0.2030873477,0.4711722939,0.3802758693,0.5587764187,0.0533790986,-0.7108794036,0.0675944116,-0.4761696318,0.5039910366,-0.4651852005,-0.5907217727,0.659835625,-0.699374036,-0.662465007,0.3083762568,0.8649498059,-0.9028968975,-0.3303761946,0.9116310032,0.8435812652,-0.7861668225,-0.186394413,-0.1301225614,-0.5278045075,-0.0873585933,-0.1677365646,0.4782936156,0.3135046748,0.8158766204,0.829813655,-0.8483008363,-0.7357597558,-0.0868724592,-0.8015330015,-0.2918680668,0.8926133339,-0.7414784031,-0.7045501917,-0.0237823433,-0.2030494478,0.7787981472,-0.4930947094,-0.9869356956,0.2911469535,-0.5288704677,0.7376786527
