encog,BasicNetwork,java,3.4.0,1,1667577099783
[BASIC]
[BASIC:PARAMS]
[BASIC:NETWORK]
beginTraining=0
connectionLimit=0
contextTargetOffset=0,0,0,0
contextTargetSize=0,0,0,0
endTraining=3
hasContext=f
inputCount=784
layerCounts=9,75,100,784
layerFeedCounts=9,75,100,784
layerContextCount=0,0,0,0
layerIndex=0,9,84,184
output=0,0,0,0,0,0,0,0,0,0,0,0,0,0,0,0,0,0,0,0,0,0,0,0,0,0,0,0,0,0,0,0,0,0,0,0,0,0,0,0,0,0,0,0,0,0,0,0,0,0,0,0,0,0,0,0,0,0,0,0,0,0,0,0,0,0,0,0,0,0,0,0,0,0,0,0,0,0,0,0,0,0,0,0,0,0,0,0,0,0,0,0,0,0,0,0,0,0,0,0,0,0,0,0,0,0,0,0,0,0,0,0,0,0,0,0,0,0,0,0,0,0,0,0,0,0,0,0,0,0,0,0,0,0,0,0,0,0,0,0,0,0,0,0,0,0,0,0,0,0,0,0,0,0,0,0,0,0,0,0,0,0,0,0,0,0,0,0,0,0,0,0,0,0,0,0,0,0,0,0,0,0,0,0,0,0,0,0,0,0,0,0,0,0,0,0,0,0,0,0,0,0,0,0,0,0,0,0,0,0,0,0,0,0,0,0,0,0,0,0,0,0,0,0,0,0,0,0,0,0,0,0,0,0,0,0,0,0,0,0,0,0,0,0,0,0,0,0,0,0,0,0,0,0,0,0,0,0,0,0,0,0,0,0,0,0,0,0,0,0,0,0,0,0,0,0,0,0,0,0,0,0,0,0,0,0,0,0,0,0,0,0,0,0,0,0,0,0,0,0,0,0,0,0,0,0,0,0,0,0,0,0,0,0,0,0,0,0,0,0,0,0,0,0,0,0,0,0,0,0,0,0,0,0,0,0,0,0,0,0,0,0,0,0,0,0,0,0,0,0,0,0,0,0,0,0,0,0,0,0,0,0,0,0,0,0,0,0,0,0,0,0,0,0,0,0,0,0,0,0,0,0,0,0,0,0,0,0,0,0,0,0,0,0,0,0,0,0,0,0,0,0,0,0,0,0,0,0,0,0,0,0,0,0,0,0,0,0,0,0,0,0,0,0,0,0,0,0,0,0,0,0,0,0,0,0,0,0,0,0,0,0,0,0,0,0,0,0,0,0,0,0,0,0,0,0,0,0,0,0,0,0,0,0,0,0,0,0,0,0,0,0,0,0,0,0,0,0,0,0,0,0,0,0,0,0,0,0,0,0,0,0,0,0,0,0,0,0,0,0,0,0,0,0,0,0,0,0,0,0,0,0,0,0,0,0,0,0,0,0,0,0,0,0,0,0,0,0,0,0,0,0,0,0,0,0,0,0,0,0,0,0,0,0,0,0,0,0,0,0,0,0,0,0,0,0,0,0,0,0,0,0,0,0,0,0,0,0,0,0,0,0,0,0,0,0,0,0,0,0,0,0,0,0,0,0,0,0,0,0,0,0,0,0,0,0,0,0,0,0,0,0,0,0,0,0,0,0,0,0,0,0,0,0,0,0,0,0,0,0,0,0,0,0,0,0,0,0,0,0,0,0,0,0,0,0,0,0,0,0,0,0,0,0,0,0,0,0,0,0,0,0,0,0,0,0,0,0,0,0,0,0,0,0,0,0,0,0,0,0,0,0,0,0,0,0,0,0,0,0,0,0,0,0,0,0,0,0,0,0,0,0,0,0,0,0,0,0,0,0,0,0,0,0,0,0,0,0,0,0,0,0,0,0,0,0,0,0,0,0,0,0,0,0,0,0,0,0,0,0,0,0,0,0,0,0,0,0,0,0,0,0,0,0,0,0,0,0,0,0,0,0,0,0,0,0,0,0,0,0,0,0,0,0,0,0,0,0,0,0,0,0,0,0,0,0,0,0,0,0,0,0,0,0,0,0,0,0,0,0,0,0,0,0,0,0,0,0,0,0,0,0,0,0,0,0,0,0,0,0,0,0,0,0,0,0,0,0,0,0,0,0,0,0,0,0,0,0,0,0,0,0,0,0,0,0,0,0,0,0,0,0,0,0,0,0,0,0,0,0,0,0,0,0,0,0,0,0,0,0,0,0,0,0,0,0,0,0,0,0,0,0,0,0,0,0,0,0,0,0,0,0,0,0,0,0,0,0,0,0,0,0,0,0,0,0,0,0,0,0,0,0,0,0,0,0,0,0,0,0,0,0,0,0,0,0,0,0,0,0,0,0,0,0,0,0,0,0,0,0,0,0,0,0,0,0,0,0,0,0,0,0,0,0,0,0,0,0,0,0,0,0,0,0,0,0,0,0,0,0,0,0,0,0,0,0,0,0
outputCount=9
weightIndex=0,675,8175,86575
weights=##0
##double#86575
   0.0259731717,-0.0220447022,-0.0658962523,0.8177161636,0.5142795855,-0.797256799,0.1086365817,-0.019402349,0.6026969619,0.0416420453,0.0709602795,-0.0356862885,0.0818606848,0.2734370549,0.1680635309,-0.6360340568,-0.0403084059,-0.1172666752,-0.7951835848,0.0596700142,-0.9489630105,-0.440795604,-0.0695096379,-0.0378930059,-0.0331157014,0.0767372394,-0.6692088189,0.1987753688,0.021227217,0.2233888304,-0.0086535345,-0.1642742138,0.1118204102,0.0565064461,-0.3772024786,-0.3443164233,-0.0789989788,0.7395697529,0.1048294505,0.103624136,-0.0401503226,0.0627882308,0.0887073489,-0.200118144,0.3195913803,-0.1991882678,0.0297225154,-0.0335852626,-0.2191889474,0.270176672,-0.0871984965,0.3863077908,-0.9845544068,0.735250855,0.2905951754,-0.1817790678,0.5370599038,0.0367349755,-0.1421652514,0.0540115147,-0.1767831588,1.2053141013,0.94423628,-0.2011428563,0.0548631316,-0.0361882468,0.0415237697,0.2464618835,-0.0213304578,-0.0788819377,0.2122804966,-0.1923859164,0.1042324997,0.6113621564,-0.4761282113,0.1086184591,0.1722144632,0.1117820201,-0.5219653107,0.2096936162,0.780460448,-0.0798724799,0.1461860802,0.2774404326,-0.0734838947,-0.0846968255,0.1034802049,-0.0446055747,-0.5869810053,-0.0832156851,0.8511791434,0.0047802215,-0.0546835877,-0.312099174,0.0248981036,-0.0319938722,0.6791314838,-0.0800699788,-0.1386379198,0.1396703198,-0.1182822573,-0.5517694646,0.2147504348,0.1610603503,0.2596450421,-0.711789062,-0.0524381118,-0.0344256226,0.7222204433,0.4266191158,-0.4226484002,0.1788159887,-0.5969453168,-0.0489333705,-0.0707737635,0.0400883654,-0.0807187197,0.1979445322,-0.3207749115,-0.4529816674,-0.358337892,0.0066590427,-0.1524345433,-0.1409343332,-0.6158516823,-0.0869350758,0.3265393029,0.2732603689,0.2279840367,-0.094055478,0.8812051049,0.5173772259,-0.1862698095,0.1489075367,-0.02669883,-0.1681748768,-0.8509196306,-0.2782519956,-0.0342270973,0.003730305,0.1599689918,-0.0341988478,-0.9126535391,-0.0799863222,0.6038630301,-0.292477784,-0.2314254958,0.1001336788,-0.3970901948,0.0382939964,-0.0119909021,0.0162010357,0.2097267994,-0.3942989921,0.2447340593,0.0313748717,0.0725624685,0.0101184053,-0.7623579683,-0.2166091068,-0.1046339753,0.9227466208,-0.0673281043,-0.2225101508,0.0528473056,-0.5368181668,-0.0686562156,0.3930250596,0.0655259839,0.0417022306,0.3625064708,-0.0006873001,-0.1241214557,0.0057406486,0.426830542,0.0155617728,0.3014499101,0.0964128836,0.0729124022,0.1516450289,-0.166246113,0.0380882195,0.1832894032,0.4955851899,-0.3873741279,0.1854549275,-0.1173287435,-0.3193385272,-0.146448184,0.0544021665,0.0716415993,0.1387350904,0.1674162624,-0.1751790077,-0.3863867726,0.6081441618,-0.0752344911,0.0327469403,-0.5255810858,-0.1026742099,-0.1156008674,-0.2788558616,0.1612140009,0.5389201582,-0.1710169459,0.0484464291,0.0281350078,0.3695668913,-0.7251699589,0.0302408603,-0.2277214829,-0.3853566261,0.7128007176,-0.0822669237,-0.0642866323,-0.0333638991,-0.2818759892,0.2227297586,0.1447308407,-0.1853740129,0.128938664,0.5823344264,-0.2137803499,-0.3553373998,-0.2468246064,-0.0876061939,-0.1991755579,-0.2907054658,0.5680729689,0.0711660705,-0.4302567717,0.0191637434,0.1177200939,-0.5353090987,-0.0627312537,-0.0140135726,-0.0646542965,0.139468858,-0.4432567324,0.1840872134,0.9380431373,-0.0102418221,-0.1363080156,0.8334250769,-0.0418632585,0.2953647633,0.7683360446,0.7302540127,0.3270025244,-0.7729545355,0.7188752787,0.0101906639,-0.3222330521,0.0596113064,-0.2647195277,0.0070403654,-0.0690496253,-0.0806332919,0.5412255664,0.623873193,-0.8189224369,-0.0218098047,-0.7675559699,0.2066415845,-0.0921163587,0.2230941901,-0.2031701948,0.0259199922,-0.2943628493,0.1679890807,-0.1650843678,0.003817683,-0.0449229891,-0.216837909,0.4750738195,0.4835306953,0.2312116269,-1.0286063208,0.4703229679,-0.0996449693,-0.3108258813,0.0012063986,-0.0434592047,0.288054677,0.6294551233,0.0997488666,-0.1628348176,0.7405446084,-0.0238102558,-0.0683819467,-0.1202766127,0.0206757602,-0.2704909195,-0.0485011322,-0.1709865002,-0.0121505537,0.6619975085,0.1995272782,-0.0981789594,-0.93333878,-0.0281809678,-0.0589741171,-0.0066837092,-0.6578605906,-0.451163642,0.9868218006,0.0348024386,-0.022697386,0.5312664076,0.140676248,-0.0704446523,-0.2731650132,0.0004369825,0.5564119651,-0.2616519236,0.6799076361,-0.1306488149,-0.022526745,0.6237079247,2.1020521912,-0.4953088134,0.6024888428,-0.0419780979,0.1459317894,-0.6573270752,-0.1587382916,-0.2834255531,-0.1714014635,-0.1008906704,0.1017291746,0.3583920544,-0.0397307599,0.0075206433,0.2654800734,0.218481605,0.5425594767,0.0162898124,-0.5291080226,-0.0576678217,0.1411937847,-0.1857365732,-0.4237949355,0.1517663644,-0.5369563567,-0.887885567,-0.0086442264,-0.0516358552,-0.0578862833,0.037210483,0.1794837142,-0.039246894,0.2507405529,-0.1064339383,0.5139789315,-0.1299654651,-0.5372500088,0.0356760181,-0.1562149934,0.8910803209,-0.0628308854,-0.1909622812,-0.1431054446,-0.5124637955,0.2023285002,-0.0219932397,0.3366272489,0.5812201848,-0.9335324503,-0.1395838206,-0.2177458139,-0.2310857619,-0.2086318043,-0.1253517214,-0.5526910175,0.2654045607,0.0252849266,0.0915927208,0.3170362,-0.1939487772,-0.0086688576,0.675649575,1.5396730532,-0.017675666,-0.7824287425,0.0198074304,0.0258045582,-0.0010230268,0.0872363038,-0.1933453559,0.1568057169,-0.769201847,-0.0472705631,0.0154589658,-2.2683408902,-0.0876194837,0.1744120431,-0.4529560061,0.0161734603,-0.0788058373,0.2759856982,0.1623640827,-0.303997357,-0.0257292419,0.0462975606,-0.2962392332,0.2943118564,0.0012232302,0.1721097078,0.5150577545,-0.0934417247,0.8022760374,0.0281934292,-0.377662389,-0.1064658601,-0.0424941043,-0.2051297812,-0.0418824702,0.0302268817,-0.1971048832,0.3121999547,-0.2358536812,0.0067736042,0.1442010532,-0.1328741241,-0.168265468,-0.0018192935,-0.3078767206,-0.2683616526,0.0249298065,-0.0780080236,-0.1342657204,0.1536574388,0.0804881954,0.9211405761,0.0580623734,-0.0094288604,-0.1815752866,-0.0987241717,-0.0628268581,-0.0443152449,0.0767499681,-0.0617215885,0.0645171205,0.4769282743,0.0076049896,0.126567465,0.2073734274,-0.1646003967,-0.0182729714,-0.0859830711,-0.0628974306,-0.5483285813,-0.5298064609,0.0799150266,0.7541358249,0.4449946203,-0.0477655676,0.0207706538,-0.4384754011,0.0102479972,-0.0194581215,-0.0972435011,-0.0004459664,0.6844797668,-1.0318781273,-0.2062698862,-0.0229750969,0.0050174373,-0.2507288441,-0.1388387686,0.2328572898,-0.6069151552,-0.0228721375,-0.0493438829,-0.0703657069,-0.0190757501,0.4131631176,0.0144231696,0.0000431686,-0.2546581388,0.4748476528,-0.0077303783,-0.876566548,0.5030223359,-0.5386041572,0.0512970401,0.1972121286,-0.3421598661,0.2422186561,-0.0077780419,-0.1282533209,0.0728758079,-0.0910478564,0.2487397027,-0.3803067977,-0.1872772275,0.065597272,0.067018914,0.1248046649,0.3280794201,0.0204049422,-0.7254098789,-0.5360613638,0.2970471771,-0.0912287739,0.4597029123,0.8650189968,0.0446486132,0.3636544204,-0.0025404299,0.1338431881,-0.2570910295,-0.1999859437,-0.0021386222,0.0229781775,0.2179953689,0.0170301006,0.1868921505,0.0229902935,0.0365020026,-0.1238868891,0.1420573437,-0.1385493271,-0.0357472495,-0.0660544579,-0.019413039,-0.1163223632,0.1674078781,0.6969630854,-0.0760670962,-0.5523091845,-0.0687449003,-0.0045344907,-0.1284771664,0.2665782047,-0.0508307504,-0.1797641698,-0.0622769008,-0.3753327336,0.0821829529,-0.1293337294,0.0511105132,-0.0840003198,-0.6275142327,-0.3191734456,1.1147141987,-0.0307323445,-0.0231464712,-0.0609051948,0.1739953436,0.1371250983,0.0040109712,0.3748842875,0.0265416597,-0.0701170415,-0.0505847963,0.1664708084,-0.0428045797,-0.1022063209,-0.2062678511,0.625968372,-0.1263939394,-0.6063761774,-0.0524966686,0.0088570354,0.2960194209,0.3747720323,0.026483616,-0.5044757867,-0.2148944211,-0.1903801885,-0.0221483977,0.0969062107,0.3193670255,0.0672228554,-0.0261086063,-0.1613552143,-0.292570265,0.4714179778,-0.1599466534,0.0163674044,-0.1132765629,-0.1477725707,-0.261296386,0.0582433019,1.1645072845,-0.2442594047,1.1578753371,0.0616720412,-0.0788388566,-0.0639350529,-0.0672508173,-0.5396436687,0.1810377946,-0.0717848582,0.1277043125,-0.5963248758,-0.3805253339,0.1980015113,-0.1870360424,-0.0887120981,2.0806792909,-0.3982039545,0.2009136429,-0.0240755981,0.6797958945,-0.3030286799,0.0165408833,-0.5768299925,-0.0436334337,-0.110328624,-0.1341230525,-0.1214150869,-0.5801170186,-0.4799249291,-0.1785685691,-0.1692809541,0.2452098725,-0.4056628363,-0.0707662909,0.7660917784,0.1163749132,-0.1957854489,0.0323307356,-0.0787687482,-0.0957087926,0.3062005471,-0.0112580138,-0.021328014,0.3657384261,0.1442590927,0.0507172797,0.272521954,0.0442294306,-0.7932648192,-0.3822468999,-0.0887908577,-0.415683268,-0.2047464859,-0.0071035615,0.319816522,0.111341239,-0.2342129646,0.3130648187,1.0010109177,-0.0489742568,-0.0362046971,-0.1521240358,-0.2635470502,-0.4965904617,0.0405069413,-0.0962940794,0.1838950053,0.368386104,-0.0038563785,-0.8352483039,-1.133499826,0.047092567,0.5825515667,0.0109092917,-0.281466081,0.0075020916,-0.4883390629,-0.024116265,-0.1124547898,-0.4263220143,0.0366732088,0.5830373789,-0.0057428641,0.2805559273,0.1984561287,0.1473666014,0.1849225582,0.2827022416,0.3902398721,-25.5881841884,-0.056093619,-0.5258267416,-2.963714846,-0.2797886763,-0.1146177783,0.7899283274,-0.2580072217,-0.0564346577,-0.0783268295,-0.630228044,-0.0035722777,0.2973306308,0.4664983064,-0.4338943077,-0.4008429202,1.3923574599,-0.5752761492,-1.0576662367,-1.0584883307,0.1288729547,-0.1054775066,-0.2194892188,0.246417709,-0.8508557826,3.0482879264,0.7813685972,-1.0776794304,0.0499259632,-0.8646779874,0.0206893701,-34.9512466615,-8.9868693479,7.683714682,0.4306255256,-3.0972755997,-1.1280997096,-0.2215579212,36.5011513195,0.5672342735,0.1534193386,0.6988387164,-11.4945980733,-0.5146269477,-0.0277226157,41.0824142269,418.9210994509,-0.0551236051,0.4961033848,5.1757843483,0.7962242982,0.813648986,-0.9592050893,-0.0684807071,0.2072624909,4.6195718371,-0.3884209229,-1.1031593681,-0.8342738808,-0.6876046105,9.1802318685,0.8188381168,-0.2991029095,0.2530755572,-1.6204049963,-0.3018853093,-0.9268425085,1.5162292375,0.0256832126,-0.970604185,-2178.7948530865,-0.6798359805,0.5849491917,-0.4466277303,-8.4932608168,0.1585970602,-1.1446018246,-2.6707434714,-0.8233110122,-0.0691008438,2.2660456555,-0.4042239639,-0.6123407073,0.7210270972,0.2913975497,0.4491688629,0.2624986079,-0.7281745426,-2.500055646,-0.5952642675,2.8283568191,-11.7243459105,24.8433928931,-0.2725100992,-0.087191784,-0.7263393899,0.4300743246,-0.2728882331,-0.433276544,10.3858917514,-2.3641189768,-0.4723722869,0.6697380356,-2.1275076259,1.2082865852,0.954296444,0.9589884049,0.1080924433,-0.0950179177,-2.2991087856,0.1883328373,-0.811831827,-2.0693911837,0.5621198109,0.5565818483,0.2846210648,2.0020379097,-2.2796153378,0.9951586296,-0.4062080327,-149.8006225612,-0.6212197996,0.3095100903,-0.0226312435,-0.5339499433,0.0208708901,0.8400848152,-0.1329815926,3.1223189729,-4.3711029914,0.3775935302,-1.6361100613,0.673641122,0.2889548305,-2.1013333345,-11.0194487492,-0.9321725377,-0.9307936159,-0.2194805097,0.0437061337,-0.2916586776,-2.0877742462,0.0226945718,2.2127083818,-0.7059929326,4.1237084798,-7.0188375026,0.7580075741,0.5499306591,-0.8564874727,0.3858746732,0.2941001701,1.8675049166,-1.2373742194,1.1206641862,-3.5397808027,-2.9530589634,0.8627245908,0.2279132989,-1.6811427794,-2.1621389014,-0.6911049845,1.6836773285,-0.7984146602,2.7406104685,-0.0974719046,0.2784045454,1.3896144781,-0.7244665261,-0.3499222161,-27.2961582673,0.8255679167,-0.632348721,2.9472809098,0.7121556352,-0.6461167462,0.6908618884,-0.841555411,-0.8715524452,-1.3388523763,-0.1759207372,-0.1695677219,-0.2909285687,0.1543977598,-0.0644259065,-0.7222037368,-0.4306309004,0.2948996547,-2.3502393401,-0.2849494032,-0.0476782975,-0.4488304086,0.0520151294,0.0207336729,-0.4333898631,-0.221811714,0.7976849534,0.0011242834,0.8542575519,-0.4806599706,1.0873089935,-0.7209516,-0.743254162,-608.3778128227,72.4645921331,0.7703290936,0.9393567952,250.0608138601,0.1222811132,0.5727861131,-5.4057844578,-57.0053077499,-0.6263538062,0.4734810403,0.957986691,149.3665093955,-1352.2069527896,-0.6507404919,-0.8608192881,1270.7505165639,-191.2637490223,-0.4397414329,-0.1569919932,346.0352859356,0.7412406875,-0.2151806931,0.6382044681,-0.7491310754,-293.8824263898,0.9718537466,-0.016789797,1.1432102553,-0.8666277456,0.6103960252,-0.7526512924,0.5731027216,-0.5666010288,909.3003977361,91.496453462,0.5755032281,2.1732800084,-0.9181572114,-0.3296689466,0.3005122111,0.696166691,-23.2797145327,54.3814427365,0.5739849307,0.0972324271,-0.43604557,10.0301809096,-2571.1749446808,865.5241299758,0.1842059701,-0.2235507544,0.364083378,-237.6484302459,-4.3478212471,0.356808428,6433.4710246786,-3.8905606355,-0.6029761736,135.1105275417,0.9844962524,-1359.8942575784,0.0859388374,917.5361040882,-0.9025262541,0.4500076742,-1741.8277319988,-3.5177379586,-0.6913878368,0.1452257492,0.4965066334,2080.2151307817,0.0887886794,0.1558760038,0.9233019345,0.897099398,3660.6542974347,-0.2426909212,-0.9374569847,-0.8581228384,0.5928218808,93.1508926289,0.830417713,-0.5713380641,0.2009944471,-0.4120798631,0.0745017699,-1.1268532349,22.438660573,-0.2111039133,-0.5299581052,-0.5929295217,0.6848236029,0.0123106343,0.7590713382,0.3555917884,1.0230562515,0.3674356222,-0.399489173,0.1380681583,0.6097003518,-1.5669139003,-0.718423763,0.897545239,0.6002398264,0.2981506862,0.132553213,2.5680669634,0.8097394207,0.2690529578,0.1567125523,0.0037052835,-0.4753199121,13.9945342376,-0.6789851485,0.5514259838,-0.5411598281,-0.513308711,0.792118878,-0.0999051866,0.4571111049,0.2634221723,0.7288311442,0.1378150798,-0.1636867498,-0.289521349,0.6171527155,-0.3221395036,0.407560738,0.300262667,0.3470811329,-0.0489008282,-0.4572963222,-0.7545874214,-0.2237936355,-1.1516747967,0.5470918873,0.8968826909,-0.7540589953,-1.3275723776,-1.3809841197,-0.377757963,2.954899311,0.0315269251,0.4043968131,-0.2306311228,-0.6816012923,-0.7518534597,-0.221779639,1.0444093456,-0.7728107694,-0.3632535623,-0.1484292097,1.4394979431,0.6385532729,-0.3783966758,0.4738706279,0.3867762281,0.3602271397,-0.2381115765,0.7442375546,-240.3101783635,0.258802546,-0.5548599161,0.1163389597,1.4565109398,-0.1411165374,329.1055144616,0.9786555534,-0.8546220032,-0.89046277,-0.2786963194,-0.0361599944,-0.1717351387,-0.7436695703,0.9778811327,0.3593441514,0.4746627188,-0.1372567899,0.0172905615,0.3658621777,0.8026684611,-0.3908704924,0.2564054108,-0.3558516411,0.2826330442,0.6460936528,0.1372916376,0.6197316348,-0.8934083835,0.5487044927,0.8155798006,0.7940911728,0.7066210215,0.8239729967,0.2085357153,0.4661803614,-0.0188369717,2.2959293719,-0.7526592303,0.3202716794,0.080407031,-0.5683852148,5079.0022541722,-1547.573926746,15405.0869034067,-1.135088794,4.1012568226,63.7241457177,3.5175583379,77.1638286914,-0.327861668,-1.9447501172,-62.7639068211,-0.2217180569,1.05838257,-0.4597923834,-0.2070253718,3.8662752207,-0.4187028285,-449.4335648951,1.047863823,2.0348632833,0.73628516,0.29820424,37.6924659671,60.1350265043,20.7535818722,-37.3796935896,-0.9495423473,1.4362926949,9775.0793345264,-12.465542796,0.4479689471,0.9611462623,-0.9445247078,-0.3546487495,3133.9032906145,2.8024609277,0.3234711112,0.6613914125,-1.6318174433,-2.8153997132,-1.3556538756,11569.534241872,-1.8540795971,-5.8467106632,0.6129579792,-1806.555675306,-1.4220326094,22.9244180697,4.2296041956,2.7020597355,-855.4981301542,0.139212043,0.9610080227,-12.6747993779,0.1007546029,3795.5847597543,0.1392682492,0.3167415939,-1265.3049908871,-0.6766273018,0.2979118349,-3.3853419859,5591.3407905867,-1076.1852018875,-182.8841932532,-0.0087825213,-0.2839891023,-3.1438272926,-31.7567813868,52.9888261239,12882.6508853345,-1.4247091993,0.9306783967,0.7784950413,-0.6308593032,0.8641012208,0.4334485277,-0.8891401596,4.8164357996,-798.266030085,0.2093387772,0.2782022465,-25.8622306301,0.1172081493,4641.3492450982,-2.6542204749,1.0107508491,-56.7688208192,0.0512153606,0.9207464551,0.6587427468,0.7424643227,-0.5609815553,0.8946423964,-0.7396897256,-0.9462322016,-0.943759793,0.037938535,3.9423284926,0.648874232,1.3783591969,0.2046719209,0.7815173349,0.440704782,0.8035587429,-1.0313962972,-1.0905449696,0.8010149959,-0.1029442582,0.5073717872,0.2601367095,19.9888713135,-0.2007882859,0.5954069513,-6.7243217725,0.6657960298,0.4834639174,0.8886096257,1.2163060598,-0.5226710722,-0.4857731507,0.4253171556,13.0419123129,0.0795342485,131.4167163208,-1.0002894625,0.8113053361,0.8290834897,-0.9341044512,0.3493637528,0.6237580753,0.4255295086,0.6804457817,0.438579512,0.0443532293,-0.3561905495,4.8963465839,19.5616956201,0.5092945243,-0.6109274347,-5.4765277287,-0.1141863181,1.4935257783,-0.1965531132,0.07687111,1.2842025451,1.3599038369,0.6375226353,0.3037339756,0.1364779422,2.7453895415,-0.1075067302,-0.5993531102,-0.6979224428,-2.4162568656,0.1946430306,-0.845745676,0.2659145439,-12.6182588784,0.9856338318,0.8308429465,0.8710684011,1.2151392066,656.6473489952,76.7656898003,-1.9363610344,0.8198508622,0.0024145306,0.2774851009,0.9830231833,4.0051268141,-0.8999768024,0.7166074598,-0.1044515843,0.7339919425,-0.1478129951,0.4554778084,0.2605050883,-0.4066020997,1.8631004543,-0.3674618825,-0.1966896989,-0.8774494389,-0.0486094891,-0.0438062834,0.1935598937,-0.914273497,0.5498536967,1.3846960209,0.2651690173,0.9452276932,-0.3136394791,0.8101343895,-0.0282748747,-0.0570918392,-4467.176258232,0.0542858593,-1570.2785760979,-0.8621557429,0.532909613,-0.3160525774,269.7776450908,-0.1325444695,0.6851479649,0.448963353,-3463.4968855132,-0.6849964817,0.842140704,-0.398519263,-1.8839434123,0.7874681655,0.8665036144,-0.4379202249,-2.9165872773,-0.6009371372,0.2763790644,-6.7442703673,0.680806947,-45.4857489039,0.4768706462,-230.8632564731,0.4622097391,-404.1674885016,-0.6058671238,1030.3321096058,1.1492309235,-1.0669649282,0.4248660035,-1.1245116038,-0.0688173286,-0.2883794584,-0.8207941816,-250.2246330711,-0.8588360138,-0.5350245,0.3933681919,-191.740688914,0.3187462653,-0.5445069032,29.8164258092,-838.4918971635,-0.7437058492,-3.8139860293,-0.1821256992,-2.9441725442,-1081.7172999047,-0.8866783355,-1225.476457171,1.3629291526,22.2457023085,0.2747490971,-2033.3128866775,0.158068773,-0.0709885843,-1496.4864704112,-0.3742091336,0.3609295282,0.0050304817,-589.5780646489,0.0337142312,-0.3098902804,1.0688386364,0.1768973355,-70.4099485069,76.494945264,6.9560028875,-0.8074546032,-0.3092254058,-0.9368627588,-0.2758194581,-0.445009714,-10.6869041723,0.5598985722,0.2762694144,-1.9708888663,-0.9769884746,-0.2444166666,0.837214605,-7.0745869339,-21.6972847908,-0.5683853905,12.6656114556,-6.5371435752,0.910899692,3.3112158928,0.377356648,-0.1156834284,0.5174020293,-0.9334713045,-0.3189311385,-1.0241642809,-1.2765788323,-0.6080558655,0.1371816088,-8.0075641446,0.5544199199,0.458967869,0.2082159454,-0.6786515634,-0.0576761597,919.9868851416,-835.6471826236,5.3906788736,0.9349338844,0.2229144021,0.1785356922,0.1305016007,0.1406551893,-0.7602294237,-0.2318959888,-1.5115586421,-2545.41067442,-0.2989082459,-0.8106771475,-237.2698354154,-0.8479405474,-0.2673914116,-24.194871052,0.2704939666,-0.5780499244,0.5444130815,0.9707298819,-0.5119121773,150.8269997315,685.1811170379,-2.516845172,-0.2106684772,3.1412930293,0.8145239749,-0.9952394899,0.1562399545,0.4997817917,-4.5999616543,-0.0986164737,1.2858057295,0.8329516098,-112.6486435433,0.1437343525,-1.5591585825,-67.5660496451,-0.9571703701,0.2998869843,-0.0493763889,0.8641488249,-1.4057375448,-247.7519094932,908.8516028401,-1.0864779455,-0.1769121789,-700.8195888305,15.1006876168,0.4151708528,0.9075215621,0.376351443,-680.8629528808,0.4013570116,0.2124217394,-0.7657889541,-448.0701091626,0.5429019359,0.1577048872,4.4298908652,-2.3115942406,-1312.8930295187,0.0775215244,-1.3056327738,-0.6845500794,0.3855673697,-0.1922515005,-0.9661863104,3.3606051252,-0.4575732954,0.9523694858,0.5834571074,-1.407692316,-0.9346772388,0.2387320572,-16.332073924,-0.2980310614,0.2112499469,-0.2798878919,0.6080380066,0.8489094817,-0.5189699957,-0.9400793718,-2964.828340634,-0.6632514092,2.1465175084,-0.8469391046,0.4324323412,-0.9867602045,6.1151620159,-1.0645125423,-1.0310964507,1.8378311771,3.3507755881,0.7774635109,23.6415381709,-1.0775730618,-0.5982279153,-9.0257092603,-1.7250767964,0.2947701679,-7.383092087,7.5974740809,1847.2604033308,1.0670041366,-0.3935817197,0.3324905948,1.6264846164,-631.4979270503,-0.6057628118,0.2371054217,2059.1995355264,7786.9366799529,0.4071621906,1.4157731132,-3.2634184886,0.3879647762,-0.2800847317,0.1825440403,0.7528016389,48.0455087346,15.1972411949,-1.2565360686,-117.3897898508,48.8655404516,5.1835474271,-3.2486921734,7.5840635197,0.4710009801,2004.2037214165,1009.8273702183,39.6337366479,605.0380418036,0.7445947427,0.7102552428,-0.6367372162,-0.2526793007,-7.1092016567,-0.0655314182,-0.1677179583,-3.7412392904,0.0966011452,0.2055653645,1.366348608,1.0289711102,0.6031448951,11.9389198432,-477.1679846688,2.0677233927,-0.0092696963,0.0828017926,59.3725762904,-1.0547649257,0.1445819603,-1.0945984792,-0.1663562981,1.3625357654,0.5490527876,0.0940509721,-28.0092240733,5.8469932187,-868.9712710334,30.1672338934,1.02223505,-0.2867183017,-0.0301179732,2.1953780573,0.6390880209,2.8597455626,21.0389558244,0.4640610377,-91.3588795245,0.9341746114,-0.7321534729,0.1795506894,0.5234190615,-57.9952377783,0.9929733072,0.2352827778,0.2579873915,1.7670184022,0.4521757268,0.755091168,72.7831009864,1.056525238,13.9832859176,-1.0506068052,0.3097027594,19.1753918112,1.2043734656,0.5779279934,6.1457940108,7.6363850723,2.9478684467,-0.8883316085,-0.2502567642,-0.2116510533,-0.3934722391,-5.3911178907,-0.0564555619,0.7410001274,-6.9123504243,-5.837440753,12.5583996816,1.1893668299,-1.2144334436,-0.4292113797,-0.0530311691,0.5849599606,-0.1774320542,-0.1647965492,1.421332543,-2.2591993172,0.2170188588,0.3156122527,-0.160979709,0.79037881,-0.8434395648,0.3768216584,-0.9199406687,-6.0809826651,1.1160044786,1.2257448778,-0.326051447,0.9757421251,0.9264823615,-0.3728479798,1.1004337633,-0.5880026001,5.2412912256,-0.8970396182,0.6326684664,1.501575599,-0.1036973549,-0.1961106128,0.1063693538,-0.599136378,-3.5320301384,2.7410273173,0.2605017803,3.8783653167,-1.2383846739,-1.2622606683,-1.1122387668,0.1673762372,-1.0634417465,0.6676160803,-1.0748375733,-0.3731130387,-0.4129724505,-0.7780059229,0.124167902,7.5541655126,0.7378221599,0.7785691298,0.4571016947,18.285210361,-0.7044181663,-0.004625093,7.0313497064,0.6307052339,6.7601326014,-25.0066319798,0.9459416617,0.3385597085,0.5394733299,0.1524411829,-0.3430651945,3.7940425806,0.1028431925,0.5109370678,-0.7070521484,1.170686389,0.7498647131,1.2138419078,-9.5127076516,-1.4703279528,-0.7857618849,-0.4163475633,-0.5512826786,-13.3748996858,0.8457817965,-0.0619198286,0.5955800599,0.1119728499,5.666919975,-0.1698668855,-0.1117924967,-1.7906067036,-1.4385362762,0.2313083231,-1.5944623676,0.0578776114,0.0966896755,-0.8941988624,-0.5589129159,0.1468635851,-0.478597799,5.6386293578,-0.9923259209,70.6148980211,-1.3644499781,-0.0215723689,186.2155032844,4.8911358635,-0.0828136032,-0.7815374555,-18.7498155916,6.0303629566,-2028.694418502,-0.8731566072,0.1426013421,-5.1314684826,-0.6250074831,0.1935523057,-37.7896502587,0.6083024276,0.0979311759,-0.9401410898,-0.5774258081,0.2360423274,556.0366111763,0.4643727481,1.2278640846,-0.7381269741,0.0003962624,2.6632220828,0.6375140086,0.2072932137,-1.2781211693,1.0639968325,-0.3625448801,0.8856711579,-0.5540517352,-6.0455350109,0.6654261454,-0.9022171725,-13.2039548364,298.9101492538,4.8120780673,-5.6807934079,0.7937440701,36.62579659,-1080.8651928012,92.8572320847,-0.4493442775,-5.4484022664,-464.2961605234,-1584.3250943577,-0.9327432527,-0.0549234369,0.4689159007,0.0444087405,0.6492363908,-135.3715869647,-0.00562989,-1013.9179039628,0.3104125407,-0.4168053269,10.099108226,-1.0766952678,-1998.8333655645,-17.5763829357,-1.3645747674,0.1194015126,-5417.6368493963,-13.8467917449,-0.7154580742,19.4633693653,0.4588447037,-0.5929271754,-694.4495232717,2.2858512427,-0.3297122567,-0.9134694507,-11.0113288978,26.2993514853,-2092.0684808126,-0.5390069527,-0.5991409086,-3.711419549,-0.4843375247,0.8507855274,-0.199898193,-0.8525337416,0.1675214155,-52.9691139537,-0.8812493315,0.3993313734,-0.8046276186,0.8200982636,0.8697608453,-0.9960828167,0.8282302709,0.8714742161,2.2014960251,0.6014495329,-0.8546962655,6.4636671354,-0.8781585236,1.2586403709,-0.1703038811,32.866473678,4.3193994658,-1.8909417536,-0.3122463303,-0.278992598,-0.5069830071,1.2725619989,-0.2101251826,0.4314243013,0.2442342295,-19.3788338942,-0.2184328574,1.2262477658,0.8164680454,0.8389202197,-0.034170292,0.5504331023,-0.8674739918,3.3063139186,-0.1186996734,-2.6899650561,-3.9599189188,0.4288818523,-0.1642149711,-0.5428501775,-23.1659235384,-0.2576504393,-0.4173618407,29.5920662181,0.9396586719,-1.1599794654,0.2201858251,-2.0840626281,-0.779365167,3.877876872,-8.6576185785,-2.3726994963,0.6151530798,-29.1335057379,0.8146594865,0.3344545987,-1061.5315171052,-1.0187969244,-0.2267801726,1.1758736169,3.0194037291,-4.9939440526,-15.0375913135,0.5821312718,10.152127547,-945.6745370986,0.2183477289,0.6161162297,-0.7530049137,-1066.6818435288,0.696733656,0.3590923807,-12.4393269317,-0.858603321,-1218.668205082,-2.4430215177,-0.4086784,-0.4101155689,0.1103917691,0.6125646793,0.8760628731,0.8295917335,-0.6238143648,-2028.7344962066,0.1723817603,0.2808711004,0.2635655243,0.9449458552,-0.7774946706,-0.1169674248,-0.6609070502,-0.5116521163,-0.5412784802,-15.8954952068,0.009098322,3.0163014267,-1.0665299173,0.6655793627,-0.7297978011,2.4736711651,-0.8524559274,-0.115450143,-0.6064178052,0.3959189851,-0.9112184983,-1.2330393907,-0.1116820797,-0.190473365,0.2361637228,-0.67387732,0.0805198634,-0.3837677393,-1.5952868369,0.3721234377,-0.2567913143,-0.3396653387,-2.835221763,-0.0605345096,-0.1772127248,0.8238188844,-0.5725135468,0.0056022853,-4.5388268937,-0.2170505104,-0.3894946739,-0.3499589418,-0.0045604497,-0.4562578882,0.2130865063,0.5509909528,0.2384941198,-0.9369979068,-0.7819167994,-0.3712070867,0.9816128639,7.4460718366,15.3308080307,-1.2233196689,-0.7941329902,0.0186553243,-0.3592402424,-0.5271676705,0.4967193247,-0.5603958242,-0.1526514062,-0.7524069309,-0.1906161447,-0.503251125,0.7741865783,-1.6116699388,-7.4368837622,-72.739328542,0.0726508017,4.2277844185,0.3809003044,-0.6729442856,-5.8090294841,-14.2155659516,0.3071286245,0.769213997,26.2479481085,0.1197968618,1.3125102884,0.6528984847,0.4809607138,1.8514500942,1.5238795433,-0.637385937,-0.4412460056,-5997.4837876068,-0.3927568771,0.5983194692,-0.6422531298,-0.2123765453,-1890.2636043102,67.7843648959,-7.1021680053,0.273510016,-1.1496999744,-0.2139602842,-27.9843296311,-0.5545040305,-5.7721287064,0.8640683865,9.7262874562,0.0562204071,0.4038107571,-0.3517701597,5.4757895362,0.993143349,0.7556602236,-0.8886542079,-0.4255346678,-1.4306512641,-0.730856488,-1.2200929706,0.57829622,1.4796961631,-0.5395799542,0.0502188798,-0.3703367811,0.3513436938,0.6528158503,0.6880923155,0.860138359,-2.5746886821,8.4466410383,0.6769893647,1.3502786687,4.0139569324,-0.0328482217,1.7928329113,0.7777572712,4.0431018714,1.5157829693,60.18416354,2589.5690422994,-0.1121659018,-0.3370800905,0.2490779854,0.9841095179,0.8178257071,0.1018748168,0.8012008113,0.2158471017,77.6937128725,-0.6564371199,0.3018921154,0.4347006286,1.1631933994,0.0182828818,-0.0292918579,1.0093530434,-0.4795903696,35.8293228056,0.6879055277,-0.9822326876,-0.5427896208,0.1477553338,-0.0400375342,1.0283258099,-19.033229022,29.7016492349,-0.7500340937,3.3247398826,-0.1363528899,4.5121854746,1058.8999189726,0.773176045,0.9313947808,-112.0388205769,-345.2422411555,-0.0870492608,-3.0436967885,-0.1863026991,-0.6055903197,92.0738118619,0.5005058089,0.2949775644,0.8120134965,367.0152027378,0.2187007849,1.1087294376,0.6435804444,-0.0067683595,-1.4459479447,430.5260514489,0.083820832,1.0106948891,472.8854447431,0.3028321082,-0.6346800583,-0.198800468,5.6513177376,0.081282295,-11.8739974396,243.9220180795,0.3447051002
   -0.2603368434,10.1692468963,-0.2263666223,1.7253463486,0.4351270881,-0.5279383063,-0.4284672403,0.1556414954,0.2326977037,-0.2727817469,0.3935410963,-0.3745755772,-0.6142860167,-0.3550277371,-0.8529061525,1.3182579422,-0.3415370023,0.2480882902,-2.6749802507,7.4136273551,7.8311889529,-0.2979175682,-0.2689476497,0.9001361923,252.2408303013,0.9041086516,0.3282286746,58.2155850111,-116.8954070121,0.7475441006,-144.0701765582,-1131.5502687845,0.9244134516,-0.3461271311,-17.7044684681,-0.1116682365,-0.33169541,-0.4025659497,0.966584546,1033.481738999,-0.4997869346,0.2627883644,-0.6521952282,-0.2540219594,-6.5721583461,-0.342945276,35.9664578657,-1.4692778109,-0.3907083535,-6.5087785054,-0.1381701517,0.4288610856,-0.108366351,0.4929220786,-0.5994770664,0.5148567891,-0.1465021793,-0.1260961218,91.7752177737,-1.1255214971,1.6146720491,0.3641391284,0.1820839009,-0.9116003406,0.1396749924,-0.5881299426,-0.8456734156,0.5345697146,-0.1980820786,-0.1372966623,-1378.990937911,0.3651216916,0.3844536172,139.3193619001,0.7587405237,0.7048051157,1.5871717437,12.1999275212,-0.1932655861,-0.5358183919,-0.7989207079,-0.7722954604,-18.9731644747,-1.0807763486,-0.7958887187,0.8638009182,-0.8860839019,3.2560859988,-1.7561688531,0.7249482258,-0.1844103626,-39.5675033588,-1.0542762589,0.833033741,0.3692600973,1.4824667537,0.052960753,982.0206029501,-0.8892431382,0.5390280555,4.598283636,0.9774424562,1.3833007609,0.8877174594,-0.3497827565,-0.1527579765,2686.0419253469,-0.2318900447,0.4199621423,-0.5241159216,0.5360748802,-1.6819850343,81.7354743954,0.4748911215,1.3432136647,-52.2241127084,-0.2594665814,-0.3985759419,-0.56531541,44.7582459326,-0.2484637456,-2.4554054818,-0.0290608853,-0.2268096946,-1.0539247326,0.0397567107,1.2207373189,1.0104220856,-0.1841665245,1.1148296254,0.8414064822,-0.5996617805,0.8652458864,0.8619068908,-0.1098489547,0.6378774798,-0.5608050923,-0.798135978,-0.6890281637,1.5562010758,0.0928502252,-0.3141749253,0.3981464185,0.8964396001,60.4636094668,-0.2606277244,-0.7795276613,2.2720336108,0.512939039,-0.1508326249,-5.8891312757,-0.037287549,-1.3045835488,-0.0643513405,-0.1067473777,-0.6144099423,1.0157309652,0.9253920102,0.113779746,0.3774842491,-0.538683495,0.8397756676,264.9803402689,-0.2031598203,0.3256957394,-0.0337444314,0.1964207866,0.4923373348,-0.2784973415,0.1451813484,0.2028874931,0.057707895,0.8572450143,-12.5567356664,-0.7919062575,0.8497814114,-0.8306924782,1.5361644578,1.2910567421,0.0830428919,0.815806463,-0.7928428217,10.2652839732,0.7622592646,2.5999170542,-0.3917019665,0.6988012948,4405.6354570759,-0.445406198,0.700779078,0.0575176277,-3.4552088451,5.3719580598,-0.4634207585,-0.755217292,-0.5825488383,1.4712446006,2100.0540469645,-1.9814113001,-0.6002054625,0.1502714673,0.7103208981,0.3375177613,0.2342381664,0.1330058533,0.4556056632,0.2855428868,2.1649646012,0.1668896478,0.3710463994,2.2223748344,0.5346752376,5023.0159639239,0.273205322,-0.217997824,-7.3625820351,1.1101562189,-0.2017467643,0.3130404072,6.0792011733,0.029778476,4.8319186539,1.1491580825,-0.9312915661,-0.2345386625,-0.7942253668,1.3355757217,1044.9600727274,-0.9594929592,-0.6483997499,3.9168641038,-0.362023289,-0.3968473689,0.8152696591,-0.2203622323,0.1852701735,-0.6005816911,-0.9868163799,-11.124063102,63.181887777,-0.7971882158,-0.0860920233,-4.2141559901,3.0214154517,-48.9894673268,0.7135511968,1.2916619003,2.9168859629,1.2026012732,0.7756132896,0.1458558241,0.162919535,1.340351738,0.0638497705,0.3088203545,-1.6262366791,1.2892933192,-45.4222546949,14.5043381577,-4.0008463697,-0.985769801,-0.4423329262,-0.3409477459,1.5451239594,-1.1222906263,-0.160453448,-0.8330389385,3.9598727913,-0.9434118714,65.208167977,-0.9025670096,-0.2247269067,0.2049261512,179.9475015886,-0.6473365503,-28.179733398,1.0721438153,-12.8160281677,2.1479637707,218.0106583832,-0.0907991484,-0.7004599868,1.6855959774,-31.8854945597,0.2761510319,-0.6157219888,-0.516950003,0.5271933495,-0.7281813928,-0.6373280184,-0.8297599053,1184.399973749,0.0258919088,-0.7688592175,-3.1710622376,-0.2095559043,5.1128652879,11.7248338806,-104.0158593921,-0.3731155999,0.6584524135,0.8963547112,-0.9690792452,-0.0985213409,-0.1077659467,0.7252451705,65.3176729723,1.7453313512,0.2440137914,-0.8177062486,0.8798145592,1.0545404353,0.9090849326,-0.5460176036,-0.2657403447,21.546532877,0.6825697715,0.3564511396,3.5695978125,0.3368595642,-2.7899163879,0.6012830462,-0.0650764869,-3.6965781916,-0.6462446267,-0.9509620736,-7.1829693647,-2762.5615355562,10.6649281609,0.2134786654,-1.7779340243,-0.4471768395,-0.8980115659,0.2207639341,12.5922699391,2.0629567245,-0.8708699428,0.5243861501,1.9476583584,-517.3446087977,-0.1920728875,0.1990500095,0.582707873,-181.7111965367,252.1698442579,-0.4379535755,-198.6246516532,265.1135884843,0.3310055147,-1.0998037154,-3.0395762932,-0.6011129581,2.6063061449,0.7411425268,-0.9334718578,98.8233588179,34.2645919795,-0.7133804039,-237.3295696272,0.1316928064,-1.0694367292,-1222.9448959079,165.4836290572,-0.3373565616,-0.5231947888,21.2990867362,-1.1326295389,-1.5119241266,-0.064624984,1013.9618976395,-1.0553890453,-1.0111900201,-991.6866613355,-7.0325890606,-0.5152334967,-0.1375421193,0.7098549598,70.1930785082,0.3313462302,1.779389543,-0.8423282313,-0.9027406429,4941.5608775489,-0.3433987553,-0.8489074498,-0.6156901668,-0.8380072985,0.4434334097,-1.0871726402,0.4857535862,0.1813363095,-1458.5786397067,-0.5671508004,-0.9468750039,-0.1928596866,-0.8153464702,-1369.4779727352,-1386.121200792,-6.6196905666,0.5248281136,0.6570515216,-0.0703061152,0.0703393875,-0.170006639,5.0568731223,-0.7849048821,-67.8895977334,-8.4693039028,0.7459040846,-0.2293356203,-0.0509548954,3.4258621365,-1.2448376627,-0.3101419353,0.2618591706,940.9038503881,0.0054160613,18.1654848771,0.363240194,-0.396642531,0.314571588,-0.1188107064,-0.4596569444,-1.3483882243,-3.351044958,-0.8678232515,10.3101897603,-1.7501415936,-1.5009516326,-0.7573090421,1.7435707549,-0.4928070745,-0.8418146405,-0.2550575149,-1.795076219,-12.0091948589,-1.1180251159,-0.0009900789,-572.3337560404,-0.8663719735,-0.1127587392,0.2265642804,0.496247841,-0.6810923881,0.4713008835,-0.1162522102,-0.6543995187,39.1975015216,0.3196347778,-0.1334137617,-0.7664642681,0.5728176258,0.5454979324,0.325032669,-0.548821793,-583.0994196635,-1.1491346365,-1.0493203817,-0.9347867506,0.7014131683,-151.5939531037,-445.4114300953,0.7143093721,-0.927513325,-0.9834428062,-0.1609591097,-1.0569209459,-729.267414122,-0.9956970915,0.8754790197,-0.3689892774,-0.2424886319,0.6515369004,1588.5762534839,-1832.7243170216,1.9642813008,-2181.8984487516,-3.5291925092,-7.0065326203,-7.2096045304,-1.638266007,0.0084911678,-888.5875411392,-22.7183042132,2.8988808637,-0.5140759286,-13.8609076596,1490.0076533659,-3527.2478862996,0.7216126819,-0.3813353656,1816.2545731816,0.4355375833,0.3281756169,0.0458962118,-8979.4181809239,3.9867517409,858.370317404,15.3349181043,-0.3057921414,-0.3208970561,-0.2778817461,-0.3703404977,-1.0062105131,0.4515346595,-1459.2471232576,0.9024436453,-1.6226880017,-0.0856576493,0.2054158944,0.46437477,0.587964244,852.1935112329,-0.5185179073,-9.9102756237,-114.1012605428,-0.7597736174,-0.3462680717,-0.3115486016,-0.791724732,1.0595726573,22.1309494441,-0.5542576484,-1357.3631269041,0.105535041,0.3534751552,-0.7261194002,-7.1319324977,-0.5085596686,-0.5207392515,-0.0056828704,3.5068982816,-0.6991706927,-0.1772784065,-0.1681310047,-0.7823700576,-0.934178114,-8.7637385518,2.8597457215,1.7425464866,-1.3109022991,-0.3005324881,1.4029847721,-60.9062905082,2193.4400767907,-0.5928695053,-0.9558687112,411.130341941,-1.2352428934,0.9064447737,0.0587953718,-0.5180465367,0.1326603654,-0.3749400149,-0.3929043201,2.8887428637,-0.0119774025,0.8168858025,-0.1090907657,0.963468544,0.3544462712,-0.7144505292,36.450140907,-0.4822829199,0.768614627,0.4469762225,0.0481069467,0.1006000799,-2.9557388631,14.8706629791,-0.963116748,0.9063851143,-1.4352745306,8.9184475606,-29.4224438225,1.1201542937,-0.8911395772,-0.9529495984,-1511.6302998179,-0.5783032202,-0.1338645248,0.0298501957,0.3772651569,880.9409351024,-0.0078245684,-0.9395212122,1.3435236006,-0.3653864458,-37.6424601518,-0.6167870769,0.8953036245,35.0201741364,-0.5267418542,-0.9934172249,-0.9558717957,-209.5904210148,-1823.6819074743,363.4595371257,-0.8208891382,-0.4766208981,0.6400515633,-0.3061165545,0.1235419089,0.1399611188,-1.0492345435,-82.0277622871,0.3301087628,-0.6208001595,1.9776229869,1.5269293237,-0.5018222366,0.3792144489,-1.7397212143,-0.7136204056,-1.2126133264,6.0786935955,0.7483364389,-2288.9108948796,-0.0354342551,0.0393317229,0.024253083,0.027529816,-0.5999695855,-0.4424413649,0.501902914,0.219169162,-12.2486800002,10.6365381357,0.2189733628,0.8305098429,0.8216272054,1.4017816437,-0.3691014695,-0.4779253858,-0.2849929083,-0.605399532,2.1428029599,0.4901194927,2250.2950110611,2.2057535052,-0.0918167047,0.3956336498,-0.1888285482,3710.7628483694,-372.6581775313,0.5747263371,0.8007443211,-1386.9785511484,-0.8696818374,0.1561859943,0.0357833833,0.8689072884,2868.4566118628,3.0268930039,0.6787557267,294.7250005289,-0.5053208426,-0.8587712006,0.8416576875,0.8188095213,0.4517450802,0.0282388583,0.5531820287,0.3994316047,1.5579517674,-812.8320090739,0.1327879548,1.7737469729,-0.3509016737,-9.6530802498,-0.7339367511,1.2172549182,0.372576272,43.8368709049,-0.2628414731,1.3280114572,30.2958865366,1.5416170142,0.6640367654,-0.3667068439,0.0643893807,-0.5526111127,2.0494465362,9.0448118459,0.9381397117,-0.0557117093,0.4746846028,-492.2858980191,0.1273894161,6.235347122,0.2530894341,0.2711655174,-0.6412280396,-0.7295593541,1.4658042314,-8.5499600128,2973.4921596637,17.9198839516,0.6709965116,-0.3738791529,0.6571638504,0.5877187774,11.3583564629,0.8744381447,5.088745884,0.5382486741,1.4545124999,620.0286383626,4496.1533619255,1.1252356295,0.2608134483,9.1413681756,0.719762302,-0.0037164871,3.5415208927,-18.2619257272,-0.9827737169,-0.2527713529,0.7577972058,0.3993866227,-0.4699199293,-0.3144225098,0.5990400951,0.1306694076,0.5685588396,0.1267211994,-2.4028994483,0.4283624299,-0.6868942598,-0.1350909505,-4.1013396797,1.0041220791,-0.6494688601,0.0583116501,0.6886562166,-2.7506069442,0.0561069347,0.1807275585,-4.9148563039,0.5283094974,1.1672260417,0.7990620759,0.4733843073,-0.3497058436,1802.5710509233,0.8180960917,-0.5866420178,1.5747777324,0.0939259968,31.1098562583,3.852573386,1.1443697897,-0.0437317617,0.072620475,0.5584585823,3.7598148201,0.4750414346,2.4190943948,0.0869111288,1.0899251322,-0.7657479163,-0.3381954899,1.4790157657,0.0557429124,0.767965552,254.6537759747,-2.8164581138,1.1054239943,-1.3157336349,0.4939541329,0.8610773247,0.9901013331,-0.211611462,2916.3691140326,0.0368139431,1073.9215705163,0.0262223857,6.231633101,-5.471607736,-0.6497924119,-0.3038339996,0.7900227986,-34.8999811445,-6.9811695976,17.3527386851,-0.3882254091,1.5029440981,8390.4034369865,-2.3872904946,0.2471384434,0.1165082045,1190.7433157884,0.7791152753,0.8941281532,7.8895509523,-18.5136553878,-1.0789736428,916.4203865419,1.7286027888,-0.4840554894,2.1322171643,2.8347231989,1.1269126629,-0.6405593166,0.5245696478,0.831508392,0.4813862499,3.9186246083,-0.0795561227,0.5648905395,2676.8597429423,1.6440128907,4279.8194565337,0.1132786327,-3.3508818339,-14.7384789271,0.5565001419,-9.359933808,5.7827861319,0.0670138104,1.8419334539,0.5238184048,-0.6705365738,-0.0967399872,2.6718587833,0.0951843972,13.2136654084,-3.6375223403,0.8038063046,0.2818462477,-0.6847821197,0.4922495364,-0.7697980209,-1.546949906,-1.0497666521,0.4367540053,-1.2901339914,-0.7107537288,-0.7843972835,-0.2866425545,0.3359061665,0.6580427282,3.5889226361,2.1275658145,-1.0225948029,-0.7400356858,-0.9365876513,-350.1985732302,2.7851087448,-0.4234418995,0.7627726514,0.8173317399,-0.362697927,-0.2083265804,-0.918200136,1.0206965803,-0.7072043642,-0.5998926678,11.3480984306,0.9129959753,-2190.519370905,0.5246908377,0.1641452584,0.799765791,-17.6746902927,0.49324279,-85.9927976739,-7.7556798675,0.8037540723,-0.536688998,-0.1882364064,0.9281526836,-0.4726281529,542.1968756313,-0.9832086674,0.4346736423,-0.7431459725,0.0432266971,0.7102255456,0.0173162933,-9.2135525202,-29.0010327109,-1535.2399220355,-8.5755016105,0.9033038228,-0.5645297737,0.4023422979,2332.6519484012,-5.0068482956,0.9095224594,-0.1821807122,-430.6707895904,0.1916948026,-0.5451653383,-0.1908728101,-23.6706855997,4.9143867563,4675.8966930485,-0.6347004741,-0.9923109035,-2.5612109599,-0.457875934,-0.5571190767,0.3551350899,-0.9093480044,0.0018560238,0.5874895496,-0.9530304217,0.1991408974,0.2689182152,-0.8276613813,0.4228001219,-0.3438114416,0.1959593834,-0.4689576147,-59.5231228457,-0.2505835765,0.8184887659,-0.8130291333,0.7208207239,1.2312197366,-1.005305036,-0.6024830292,0.8306980188,-29.8100542158,-3.5482516586,-0.5328987476,0.5438998149,-11.0844780059,-0.5782060021,-0.4133047302,-1.3394519305,0.6296413877,-1.0945640516,0.0395403198,0.5599681414,-0.4612250577,0.6376428934,-0.0947644006,-0.5587768507,-0.3380020991,-0.0107836712,-0.6718562314,-6.8315475516,-0.2440209044,-0.9206730037,-0.4198687914,-86.5378439232,-0.432087374,-26.847340339,0.4009485979,0.7593271039,-0.9639423868,0.2225797229,0.004695963,-0.5327181802,0.1549511549,-0.9313714616,-3.7192361099,0.476029601,0.0432506886,-0.4380042468,-0.5567918406,-0.0993536163,-959.7320190863,-0.893339931,0.161829818,-0.6770673824,0.065306798,0.4218223237,0.1970048954,0.4732095476,15.0344590549,90.6508251638,1.0637416518,1.094770838,-0.7288450318,1.3278915752,-0.4429871996,-0.1475634165,-1.9772365321,-0.1981653353,0.6282781154,-0.4069178984,0.6709107395,-0.0387639559,-4.0155322097,64.1801804312,0.1733795156,0.7963367858,-0.1426257541,-11.1949717556,-0.3930596117,0.2848795922,-1.9687520552,0.695745471,10.3588635055,18.4372852807,-1.2813697256,-0.1987111059,-49.4591138493,-0.2312518324,0.1056683905,1.0021390079,0.5685097528,-0.4958460772,-0.3012940807,-1.2498600334,-0.5571739726,-0.9324519545,-0.677159313,-0.4343501676,0.7181040479,0.8506442374,0.5610171193,-5.7288438431,-0.0349612044,0.5427218101,0.2058566964,0.145563692,0.471780926,-0.5591814686,-0.0329111594,0.6771588677,-0.9276983777,-448.1766038912,1.1662842839,23.1489200249,-0.3781823206,-1.0881065308,0.8836111133,0.5573427655,0.6270045842,-0.3726825257,0.2482624854,-10.2026721686,-0.9327009534,-0.0124399072,-12.0767190032,-8.7027950773,0.258871647,-0.8436876914,-3.7039087854,1.9524615878,0.2730839197,-0.849652273,-0.2569474625,-0.9429500206,-2.2575097636,0.0216832711,-2023.4293670846,-1.5530493812,-0.9712079343,2.138961403,-1.0580571143,0.5243076272,-0.5441164729,0.7450996384,-1183.041511714,-0.1844422638,-7.1175770853,0.5145713739,0.1697129913,-0.1922735844,1.3154238517,-0.4178335765,-0.1795355945,1.0839240792,0.7080478891,-5.3411172443,-0.6824380903,-0.6789163719,0.7223198324,-422.8199178387,-0.1162138863,-11.7558633922,0.6004977757,-0.0483097184,-2240.9425903403,-1.1954356714,0.1141830544,-0.4479568112,-805.4626145133,-534.3302688527,-9.1207645447,-1.1778045166,0.1365704034,-1.5438694322,-1.5724636538,-0.3818998568,-0.5816696494,-3888.8740536708,-0.5120355377,-0.6854031007,2.6662867996,0.5949071216,-47.068847022,-38.3710149632,-1562.1618751771,-0.3212947173,0.8485066618,-9.9707447944,-0.4808674914,0.8163169619,-186.7730835627,-1.0727101482,0.6202834834,0.6909105847,-0.0461202891,-0.218769808,-0.3608689817,-2.2710415807,0.677687959,0.7435982242,2.353921733,-2.4235666465,-1.5310076198,2.3087125194,0.3858947304,7.8235227424,-109.9109929676,-2600.0987416354,-0.8066088514,-1.558572797,-0.1529787361,-0.1296708115,2.5820248449,5.2262516048,-797.059768608,0.1858161764,-64.0917741284,0.9974807881,0.2365065542,2.2225618369,-0.0612523306,0.9416531768,-0.7600848077,-0.5066121156,-4276.054223157,0.309482277,0.2140149634,-0.1973828303,-3.9447013699,-21.1260584338,18.7468495481,-0.042244623,-1.3110013179,-2.1348968814,-0.6637763026,0.040497958,-2230.6032015885,-0.834147655,-0.2925825334,0.7965721259,-0.9873785717,-22.0539809488,-0.8237481442,0.1553278676,-0.7281519684,0.9460985092,-1047.7326976604,-0.9007597985,0.8803119749,-0.9535847675,-7284.6737398526,0.6826975032,-6258.7374502746,0.0799958648,-0.9474933559,-2.1216041937,0.2543620654,-0.6858352589,-0.0840775169,5643.5896289954,-0.4626545105,10.0715503452,-1.258479572,-0.9711686541,-0.9305358105,0.8919668087,-0.966906079,-3128.2786736233,-830.0293948081,-5.3068443504,-0.4758997581,-0.435880331,-632.1707820876,6051.4677351263,-1903.0334814637,-417.0711972676,0.3675161879,-969.3834210205,0.2316640571,-0.9006039544,27.7374371464,-2859.9592230574,-185.4081526629,11510.3411143734,-1.8528561102,-218.0662870376,-68.3184455948,0.3037338474,0.775794724,-1.0547377998,-14.6131442005,-0.9351934995,-23.8085831343,-1.4341777274,0.6533332185,-0.7261786838,0.8783410281,6.6611009348,0.1938765211,0.6310666747,-3175.8479465541,0.6545887145,-0.3932013516,-0.8665388186,-0.7807572161,-0.4254674971,1.742396237,0.3808917968,0.1993963237,-360.8839868643,-0.2622986157,-1.1198876684,-0.157492647,-5.5626074113,0.0382896062,0.6602265622,0.1496626391,0.3074321316,0.8105438192,1470.7983296788,9.1784191377,11.5203045353,2994.5837480251,-1.0764330395,28.4897273782,-5.7203571155,-0.4386841131,-2.5142053883,6.5903899445,1456.6168760251,-10.9269270429,-0.1887457753,-0.0216010841,-1213.244477761,1.5740676363,0.0621419889,2.152064852,0.7771092945,0.8681321419,4.5014993894,0.6517384896,462.1629054914,-1.3317868477,1.0950048326,1.4625118125,568.9373763025,-2.2904092883,2.5328347452,-12.2484003636,-0.925746032,-1.638247555,-0.0629558564,5.1085834037,-4.1468018826,3.6467560682,-2.1047630952,0.6691395222,1.5904449774,0.0982448793,1.0452410041,-1.453005499,-11.1377306644,5.9836061525,-889.1419145699,6527.0197686476,-0.2961672903,0.776748634,1.2778229794,-1072.8252117889,206.5995241591,0.3515024907,0.3137381976,-4.1661220557,1.5413225364,0.3523439055,46.8729758947,-0.4832658332,1191.2172627054,0.5276679874,-0.0287053961,2.7482218337,-748.7180295952,2962.855610712,-48.2096715292,31.1834719452,0.0463555496,-5.2568875944,-0.3439496002,1854.659113658,0.2609453205,18.5240813333,-83.036485673,0.2033539174,1345.6287708293,0.242634074,1650.4991949659,-0.402043142,-2.7987639773,0.9760639896,0.8197501581,-0.0046624251,10.2475277683,0.6409587259,-1.5602492011,-1.7508656329,-0.3264589134,1.5415189167,1.1013930529,0.6701854399,-5.549415906,3.3954295646,0.397563802,133.2383559827,-0.2385496315,-0.7450327744,-0.7707299903,-0.7842665511,3.2438120969,-0.9049015959,-0.0418997279,-0.9093329066,0.2651082552,0.8091641963,0.0612656014,3.9055568491,-0.6648971133,-0.1237284569,-0.9259803634,0.3140926809,-0.2276150091,0.2136209029,-0.2080251955,0.2500847873,0.8501555027,-1.0235463567,0.5374925297,-0.3500084524,-0.5930013526,-0.8094171304,0.5721803064,0.7495375143,-0.3374726905,-0.2161939195,-3.8162130355,0.4341019302,0.411065602,-1.8885575824,0.8546191716,-1.5110522124,0.15409676,0.8620607358,-0.6778968953,1.1939796885,2.0202923389,-0.9436090852,-1.3469918438,-4.9732596773,-0.7622878625,-9.3149643838,-3.1893189349,0.4028519924,-0.8165558991,0.9116566948,1.3982060618,-5.1067669081,-1.1575405186,-0.7921577252,-0.050903129,-0.4096232461,0.5384944383,0.3737931182,0.4642637453,0.5202283782,-3.3049264674,0.563748904,0.1745997694,-0.0373305741,5.0726745681,-3.7463010522,-0.7254244006,-2.5166468448,3.4519763043,-10.3774713928,-105.2457240804,0.081549789,-0.9076905748,1.2941820317,0.7777734508,-0.8027315135,-0.7641354009,0.3840354315,-0.1311034995,0.7155075182,0.3692241283,0.421366373,0.3158761018,0.6325748294,-0.9897354924,0.7292087155,0.9600691333,0.3180678986,0.6867122782,-0.8944896003,-0.2490564469,-0.2072529895,1.3305739009,-0.2250405325,1.4349975976,0.2045421364,-0.2514053633,-0.7321857516,3.3560855509,-0.1518146362,0.0794998339,-0.1592220317,-0.4994135743,17.7650215238,-4.1018552794,-0.5638528858,791.1893157848,-409.9762588909,2804.8873265237,-2.014260561,-0.5527749481,-10.5226452829,0.0214034979,-4.4087606252,-0.4076081911,-2.8080214708,-11.9221461455,22.0148110134,0.0333576159,0.7053489773,-416.7310134984,-0.6343305959,-1.1426843979,-2.2682532653,0.2455701,-0.5256733594,-1.2364707156,-0.2870431849,-0.3585160018,-0.9859343211,-0.7500427206,1.7689599608,1.1485854046,-10.1956599609,-9.8857862901,-0.3080318103,-2.8850517781,-7.6040028187,-3.3091052617,25.9756970861,1009.2782752429,34.9976967603,2.519378282,-0.9060762885,-0.7981998336,-0.7831122835,-452.9026272971,2931.1367270982,-60.9636337203,0.4515834561,3279.3773180609,4.3170978758,1.6565308313,-0.4517617944,-2.9864009052,54.659091508,821.5386323428,-1.108437193,-0.4599017643,-0.8381409233,1.4706448989,0.1173615719,2.0718882606,-0.8081888307,-2639.781959618,0.5084633345,-0.5172441367,-980.8093087071,1.2330498697,-895.1516487677,29.0460713427,0.6142643936,0.6158814578,-10.775528096,-0.1521711968,-19.0582144005,1940.3055579178,13.7068488092,0.6702227197,0.3162417998,0.8177980159,-1.0532378932,-0.8446978149,-198.7855461684,18.6274850301,-3.784249645,-0.6910481076,-0.5317320614,-31.1191264257,0.3935242047,6.1181073265,-0.558825602,0.7448293921,-1.521552271,-1.3879712213,-0.4583381095,0.2910997013,4.5317536717,-0.5486940309,4.7831469124,-0.2550212089,-0.7023445356,-0.1013447199,40.6096585818,3703.8608648746,0.4175489379,-1.110356529,0.5614335752,3.951586148,2.7621602002,0.427961597,727.9073711186,-5.4648563573,17.1677678054,0.9402904612,227.4106878335,4.3103621283,-0.4437693847,0.5530319541,0.6054589046,-0.963196774,-0.9715208572,0.927597998,165.309427549,0.2009657412,-0.0679630661,1.6985505099,0.4008528245,2.1955170242,-0.3768598786,0.0035994574,-0.4978532586,0.2491125152,-0.3664043737,7055.0927036081,-0.3745242464,1307.1672806267,1.1669485405,974.0017847616,352.7630700638,0.4716668761,-0.2428780352,164.8586467896,1.1824856688,1.1011644634,0.3015785989,-947.1929096318,26.281086453,-19.1256852546,0.1051539542,0.7395879108,-45.3234577339,-0.2498955985,0.6105479491,15.797082442,8.5163460708,580.5103813109,0.2299382108,-0.8515626212,26.9821852576,-0.3652013767,1.067391521,0.9989032369,-0.2476683651,406.9924126129,-0.1770912485,0.5434628435,-599.9146962579,739.1110695428,-8.3055279542,-2652.0346850141,-6.4875734472,-0.8278887511,-0.192702569,0.0828148959,-0.0133289239,-0.1136376594,-0.3672275322,0.1416765336,4.5342243432,0.7394889554,-0.7335362047,0.8363295462,-0.8216455025,-477.7023329023,-15.2386512921,0.0990945469,4.2326837071,-2.4926846088,-0.8546036563,-11.1287147393,-0.4971065844,0.0406980682,-1570.7922618855,-0.9407755911,-0.4263577113,138.0626053173,-0.0422280683,0.2198318448,-3.5024588926,-2.3284628524,-0.2010441835,0.7979232829,-94.1250900185,15.5265117282,0.591437816,3.5111004775,0.7034297727,0.4032565587,-0.5663426714,50.2785052218,-2.8022947119,-1.4930248285,-0.3654133255,-0.0218706286,-0.3395143525,0.7271226667,7.3793339102,-0.970167157,0.456414629,-150.5945578417,0.1047075756,-0.037830575,0.0831659717,-0.3584084655,-0.6442884601,-0.7064331647,6.8752970131,0.1971831846,-0.148054129,16.7295788742,-1.6937898215,135.352191099,0.8832121893,-0.3518699961,0.5024890844,-0.7952174629,-4.2746168119,1.3125039255,63.9061791272,-1.3925268571,-0.8259096803,1018.0062943107,2215.7100783614,1.0117275233,1.50429351,-1416.0389938971,0.473637979,104.8535005282,0.5143620669,1.2190450163,369.5645120106,-72.1326904275,0.4162102442,0.6574436477,-208.3718357348,4237.5527821729,-0.6372021198,0.0109503338,-0.0741533445,32.542804719,-0.3802472457,14.8026314711,0.0613811153,3228.1785446585,-0.707971206,0.2503762128,1985.0693465831,-0.8292187126,307.9058719461,4.7674538208,-20.6506243035,0.0051191888,3.2523605956,4.707049131,0.4438708551,1.9018160437,-1.1264469098,0.8386284197,0.0964525123,7.2815596111,0.356543781,-0.8195731072,-0.4217902955,0.1794261954,-0.0976169815,0.0563271047,-0.8457541087,6.3984397093,-0.1217618969,5.6299121821,4.0945018061,0.6330233063,6405.6784601103,2.5938612873,0.9465011159,-0.680629868,198.2149171849,0.5042897891,-148.289121783,-4.480961213,-0.3276295462,-0.5061330002,3.4774792814,-0.8692718633,-0.9847239269,-2.6932826795,0.8233219225,0.0553068797,-11.3730598562,0.4724673836,0.4467887884,0.3848444012,0.2589745212,0.0616585552,0.9440508255,-1.0281568355,-3.8034668752,-0.1235212923,0.3162585754,14.3067299793,-1.0134056063,-0.9184925244,-0.2479316814,-1.0239211691,-0.0425729115,-0.0106304432,0.5367935707,0.2522459488,-0.1527095029,-0.7744095428,-1.5084425929,-0.7415809001,3.5213062234,0.0578573487,-15.4564237503,-0.7096869688,-0.6197263794,-0.3201548343,0.2363069097,0.8670229896,-0.9905027309,0.6539924752,0.896056206,0.7313613954,0.3093894227,-2046.5585274322,0.4207748603,43.0984088544,0.5722126623,-0.1058536745,-1.2036762578,-0.0146429812,-0.7611234422,0.0901627449,1.2284902696,0.4284349036,-0.4106234189,0.3001666935,0.6067656271,6.5509923507,-0.2155065895,-1.7465783789,-0.6668373226,4395.1669726973,-0.3819864938,0.7434571433,-0.7135637906,14.2299276382,47.9682956504,-1685.421373406,0.7778307551,-0.1887610961,0.5724077476,-0.0893815527,-1.4718560891,3.1392409702,0.1935247568,0.0524124828,-0.6288216309,-8.7135801564,-0.9029531388,-25.6998777292,0.30905517,-0.7212891282,0.345145773,-0.0132668917,0.8346857224,-1.1829674774,-0.9649553398,0.7998399629,0.7388580511,-1.2236637764,-14.1956481661,-2.4761421234,0.6264862121,-0.3653431673,-0.8816809064,13.227136082,-18.2257600988,-5.0844618323,-1.0549304629,-0.1202585961,0.130192443,2.5071394759,0.1361042847,-0.1933278905,0.773230886,1.1034067905,-1.7408337926,-0.5991083166,-34.3478268756,1.5152193469,0.6748799783,0.4095662623,4.6480991123,-0.7183435206,-0.9875559825,0.161350094,0.222869116,-0.7233930564,-11.6339871032,1.84285262,-0.8475321538,-0.9578488207,-0.2894420535,-0.2553400509,0.7689666723,7.9876343564,-0.2270544315,82.4353861117,-0.9668814238,2.2863371392,-0.9872271063,0.6369471459,-0.0555075996,0.1308729118,0.3915286824,-0.236954834,0.0396209395,0.8522103981,-0.7750860762,0.4095663057,0.3998802075,-0.6486288378,-1.4416201618,-113.5091550903,-0.2208726192,-1.1311814879,0.5351712228,-11.4191329553,-135.6160107103,-29.0853289945,-1.0952110607,-18.6266149386,0.2314987869,2.4470315618,-0.1858201125,-0.6583185205,0.8248616807,-1.0777549495,-35.835163714,0.3509071292,0.3494416232,-5.1395074457,-1.0273101044,0.6606183077,-0.5676593531,-0.8579650407,17.4295447406,3.8397640703,0.3113380647,0.6745033155,0.3180345947,0.8247818299,-0.1958492081,-0.8627691661,5.0932073467,-0.8928095192,-1.5637129672,-1.0173426198,0.1838212722,-0.1092865978,0.5854006052,1.8756385153,0.2371014007,-0.5872776039,-5.6491518566,0.968898865,-1.0316448872,-6.4223301497,0.1519544992,3.0757355128,-0.3560704859,-2.7120431473,0.0312331095,-2.4065947265,1.6379496738,-0.6255801469,0.649318939,2.8756532287,-44.2167996791,1.3922394717,8.0431669482,0.210274911,1.0934117406,5490.0175728477,6.2411711552,2748.4459696436,7.6271864959,-0.3022584334,-2808.0830541118,-0.2523963719,2.7630078901,0.9398054482,-194.8934827707,135.6824351586,-3.3824772828,1.4331718199,-5.0210284261,-2572.2219689792,28.661920357,0.0060341787,-2.15682445,1.6084142094,1132.2461724057,-0.6874053818,1.4878318446,-0.5445882899,1.5132230785,0.4169581158,-5.3210456789,-4.4230050808,-0.0167267545,2531.5194396146,0.5582207669,2158.3061034118,-95.5931026276,0.4391952003,-0.2593790053,2.6316819513,2.8991115773,0.0963813499,-0.174543252,0.8670529931,1013.1833608713,-5.8686901611,3279.1089372249,-31.6322897264,86.6683539235,1746.3222948015,-0.2532279839,-0.0235586749,0.0770524087,84.2449166991,1852.6189603493,1280.4370078424,2.2156480564,0.0257552321,-648.6720518061,4.6666089863,59.5352687337,0.3202264608,1.8880590054,-9.9807504041,1.570966277,-0.0365787934,-18.4040406888,13.0211112067,-3364.506632231,292.7071563569,0.3313772523,1.4162576806,0.1199791943,-93.8620204085,-1.2859197576,39.5855107989,-0.8342351344,0.6905589437,9.2190005514,0.4466704697,2.0146393802,1.4895634369,0.0571459597,1466.1698730079,0.9280013263,0.2551815711,20.0735886612,-191.4413493928,0.5267919084,1841.5934921553,0.1181966556,25.6866606303,-0.4225694484,20.2312922631,1.4654864718,7.1746230325,152.5444224586,1.2795688014,-55.6468044033,-1.6265413137,0.4992949204,0.4416686554,0.113150235,-2.1538578379,-0.8286371162,-0.0130328402,0.174677919,0.5618088809,-0.3774944053,0.3630841819,0.6071901966,0.5901246326,0.022726025,1.0267751041,-0.8538386905,-0.0176023221,18.7263982589,0.8605285376,-0.0225523337,-2.886319759
   -0.2599762733,-0.7547673753,1.1461093437,0.6484529173,-2.7557397037,-0.0998207762,0.3400071193,-1.5431297202,0.7991677878,0.2512037216,0.92998126,0.6585089711,0.7623917944,0.7057360664,0.9296157745,0.6902379673,0.0691612276,-0.3756190466,-0.4388195614,0.2447138233,0.7904348563,-0.4299968936,0.0512975008,-0.5864324338,0.9762982084,2.0154344567,0.8556295673,0.5954468385,-0.4101522316,0.1665556161,-0.6051280875,0.5654349806,0.8315296129,-0.3888254429,-4.0174282542,-0.1499948863,0.9374172842,0.8741823041,-0.2383618875,3.2866052801,-0.0395854122,0.7266868072,-0.0813300332,-6.2234886714,1.9861498398,0.8786486904,-1.6892636138,-0.4310823678,0.683685006,1651.4384149395,1.3816016455,-0.5840883089,-0.0594893849,0.498050658,-0.1490081258,-0.2606219591,-0.4894516519,-0.2338324365,5.2787171986,0.9094242148,-0.7527237392,-0.5206078749,0.0077332131,-0.0174005222,0.7281313991,-0.2181724773,0.5639158458,2.5838119471,0.7635383791,1.0263233278,0.9366406004,0.371824224,1.4702046336,0.0620400304,0.3996916374,1.0289019615,-0.1587830251,-0.140864141,-0.4453808938,-0.54378269,24.5216351434,-0.5935096149,1592.8088730004,0.1978875779,-0.0720813771,-0.517180141,1233.8241681519,0.2285984018,2.0138717495,0.7227397816,934.566013563,613.1192018975,0.6193775849,0.4797662432,4004.9626362205,-5.1019958127,230.5732265088,0.507431396,5816.0204811546,-53.1416144955,1475.3925793764,-0.4324411895,1959.615896797,-0.5987096473,59.1364746363,0.9439837003,706.807597046,203.2920496232,2.7700840046,-0.3453397515,537.9068846472,20.5990299413,2.8913200326,0.1975902435,0.8711672768,0.8333321462,5026.6474210457,-5.3036476436,5611.9764552124,1455.1830438677,1.0587119185,-1.5384528331,-0.5725544049,-0.5186185092,-1.8057907449,-1211.1317751744,-0.3573517087,13.7103476434,4.3145740227,-0.2143122364,-0.651158382,0.500161833,70.9295273945,52.685176312,78.0661705392,-2.3477171866,-1.1119432095,0.421978657,152.9673144039,-5309.2266336947,-0.9515539936,3754.1198046915,-0.055381305,-71.9048305433,-0.5524100945,0.6118519639,-2.7231907324,-0.5958705927,-941.3691153898,0.6224293425,-1.7047060452,1115.0910057861,2.749861801,30.3209542047,-0.2019784968,-0.6531359204,1.7266982536,-0.1219822931,7.4453174058,1334.2689235187,114.8687590609,4344.3302205472,-0.0334871921,-0.9958870814,0.7063787295,-0.3808797486,576.9279957305,-5.7617895935,-0.384434933,-0.2482230701,83.4144644922,0.2133116475,0.6056352972,0.3630657361,0.5585244379,269.9242504434,17.7775604001,0.5831380554,-2.3142243891,-0.7269176245,2.8070685659,0.078285307,-53.1690567906,-1.5080297538,-0.7560031412,93.5627453459,-1.8745972055,-0.4407810141,-1.3645892917,-50.0688012284,-1.4803262294,-0.1914305973,0.0561123249,0.1616989283,-0.7229003112,-0.2736038554,0.9532010549,-0.0840145445,0.1816338885,16.6394193823,0.0209197217,-0.4938768143,-0.9573311852,0.1353298129,-0.7315391275,-1.038000704,2.2423025794,-1.0760644533,0.9268031181,-18.431966661,-2083.2835516218,3.4424959706,-0.8678259724,3.5337265432,-1.2528622502,0.8728630646,-1.2351156124,5.5311009358,-1.2894971741,3.0456989708,457.3306464659,0.7407501953,124.9616559303,-1.0412054703,-1.0179240512,-0.1138818399,1.0281851049,-771.654055359,1.703708884,33.0346188083,-418.4528629424,-0.4108783265,0.9514518819,-0.6678639203,-692.4887421589,815.8160342611,253.1924833182,-8.8296410069,8.1513477297,173.080772032,-0.8053074464,0.2333926288,-0.5747787104,-14.4762151573,0.0459808042,-0.4715107999,-0.7601859641,6.3777738678,-1833.8425086628,-524.8509442351,-1.0822726699,-0.1969060056,0.7429039064,-2.4081735786,-0.9885005308,4.4068981725,-299.3379757327,0.0960330825,1.1623866865,0.1609116248,0.856224042,0.0785415344,33.0975994649,3.9193790886,1.2671948291,0.2621252753,0.6224721556,-1.6812213889,0.3439999177,0.3463300824,0.2131479483,0.1721769816,-1430.6642927793,38.9733915464,-0.5927760555,3.001129426,-0.3765630578,-0.8147736007,8.4831846793,-0.9017514824,-0.4602218233,0.6426364655,1.5350615906,33.0634518539,-0.1549299475,-0.700946678,-0.4712025701,0.7955654257,-0.7774953341,-0.0315709851,3873.2879948554,-0.7383199854,0.975184387,0.3147347777,0.5091041099,0.3459264328,-0.4905176203,-0.4646169564,0.9501709589,751.3305001207,-0.8847431812,0.4420148537,-0.0067548711,0.9255751658,0.7912280078,0.1968250086,-0.9614562666,-0.5099315328,0.0144582469,-7.3563468794,-0.0839316092,-0.4112298524,0.9082263456,0.7965796147,-0.406874975,-1.4494443807,33.8936103018,-0.9013814916,3.1105802734,-0.4632474306,0.965553309,1437.9653268417,0.9773418472,0.2739223703,0.8344548309,11.1894165594,-0.1096277806,-2285.9624782856,-0.9779847308,-0.0538306929,0.3827835077,0.9669566549,0.1273095757,0.5832052097,428.7508162873,0.4431348768,-0.1816004653,0.7143099168,-0.4743262558,-1101.9426831502,1.181470393,-0.4262810365,-0.3509660228,-34.8487134188,0.1535616116,-0.4334922112,3.5916527308,5325.392999112,81.5412020485,-19.4103618796,81.8164057935,0.7192616837,10.0854871254,0.5891810951,-1.5931638017,-0.4578891399,-0.5100322654,0.8517486593,6.0961625752,2.8305894684,-0.3096592782,0.2753451533,0.7610148608,0.3935945053,0.9751973711,0.0022052506,0.0013956916,259.8297666541,0.6331489087,-0.5849850008,0.4975134093,-0.144724888,-0.6757649078,22.5207890824,0.9251355672,1.3831548104,-0.9176453814,0.7802361581,7.2643340627,-1.8650902931,0.2705019503,-0.7250263746,-1.4829442703,-0.2379801667,0.1409432552,0.1798249976,-0.3196941477,10.2082306176,0.95440264,0.6227318614,0.7392682696,0.1705073061,-0.3615386745,0.5365083844,-0.4895544772,0.466895841,-241.7241875616,-0.3248306581,0.2591556989,2.6012723009,0.4392497015,0.7193625499,-1.7958034841,0.1398837301,-0.486412765,0.320831973,-0.9271546365,-1.1531322314,-0.1546666092,-1.6271475276,-9.2837527873,-0.1935246267,-1.0019080806,-0.2960826832,0.1349701562,0.3382363608,-3.3321619404,-6.6809806397,-1.5032142824,3.8311301026,0.0897976339,3.9116738631,0.807583984,0.756708738,-0.6958427078,-4.1260604846,0.2984901705,-0.4421937966,0.5408643977,-0.1162226656,2.053865864,2.6217863182,0.2557832179,-0.0102595496,1.2572880124,0.9318142063,-0.1949700476,-0.8771509039,-0.8501049444,-1931.5378729477,0.2310780594,0.3050110973,0.1309360387,12.1327531633,-0.8523704567,-0.1391128467,-3.7895918698,-0.0607984383,-11.9586937449,3.4591398925,1.1985512838,-0.1577551174,-104.0640469113,0.1339502238,-1.7652140213,1.4371564532,-2.4636260043,0.0696420589,0.7747607747,0.4930880011,0.7215095967,-0.8791169972,-3.40460396,0.9273808326,0.3456921237,-0.5860435133,-0.1005887785,-1.4527764416,-0.0929500338,-0.3401474949,-1.1120523174,-0.0777520349,0.5809997146,0.744731552,0.4714646431,0.0185495143,-0.2103741359,-0.7545240613,-132.6633717586,-7348.7055107442,1225.5938601656,0.6015018741,-0.9094059464,40.9003776013,0.7079358167,0.8963270056,1051.1350150667,-3.0386870822,-0.1435092006,2326.9579719494,2117.2558578379,5.0088621601,-1.9988490756,0.201307062,358.1131560311,-2.9713737151,1130.2579667649,0.4365524137,-0.0877909634,873.9741727734,-26.9609855728,-0.6981833045,2.5615777714,-0.3820325557,0.2699571684,0.4993727575,-0.9589723156,1.174172346,-3.3100146323,0.600572832,2.733619101,2.7470393184,1.2384319174,-5.3544751806,-0.7586433016,-18.7024357687,2439.1128317469,6.5392002578,1405.2075445959,-1.5586450623,-0.5639331034,36.9176343854,-0.3589808322,-0.0756254806,-16.7002379097,-2652.0458076774,-0.5737560101,54.879366894,8.8302902364,448.7264945007,-763.1720601245,1247.2133488795,-1.0053049894,1668.8580031038,1492.1628459552,5.3231064742,-0.1663933969,-0.7891564713,2841.4381639697,0.8894927219,3.142620314,99.7956748831,-0.3842273687,851.0045161025,0.7873199071,-0.9244215398,2.8188426876,-1044.5125206322,6.0246631329,0.2279298088,4.8062560098,0.4957924208,-2.556082395,0.7347401139,-0.7975683013,22.7421269817,0.496914903,-425.8639134923,0.3094164629,-4.2701856663,-0.9003967138,1.4631770612,0.977421206,-0.3943772721,0.6699894744,-6.2140770867,-0.4108699865,1981.1810626386,-1.0137035159,-649.3883098133,0.2022762874,6.161592427,13.343337543,-7.4646864084,0.8100582379,0.1010652919,36.7312989239,-0.1265430984,-4379.0639570083,0.6455715445,-0.2102535715,0.8065281089,0.4544043795,-0.6826414748,-0.0834260768,-0.5835237899,0.0390035725,-0.0568898323,-1.8788874204,3.2088869155,-0.615339233,0.0269603476,0.4355353072,0.4703461769,-0.6088190541,1.9758327936,0.2252779545,0.2705816005,-2.1639305321,-0.389565166,0.0832771624,-0.8138180726,0.5215198108,-0.3511940975,-0.6712538979,0.492199797,-0.1273770436,-0.6121959707,-0.8949356729,0.1579410353,0.8177927107,-0.3906674112,-1.0198973016,-0.7805507504,0.1866995271,0.0877867914,-1.0692899141,-0.992766345,0.2555352108,-0.1137163928,0.5397966306,-1.9172276544,0.8742030286,0.7705241011,1.6162643058,5.3275100469,-0.1507765821,0.6984799828,-0.3383818069,-1.2773601356,0.6575364377,0.8169890866,-0.9740322778,0.5584062288,-1.3613803531,0.332401915,0.2464606171,0.0440145304,-0.7473266962,1.149040492,-0.3842723989,0.8977696937,-0.1940339228,1767.960959976,0.0292942579,-0.123161777,0.0787635952,-0.0314638767,-2.4974375484,5.3326064275,0.3989236803,-0.643027794,-0.8662435255,0.2936809342,0.9232487712,1.0171218397,0.3894873035,0.9484820749,-0.2780593892,-0.6165925673,0.5694773382,-0.4617134714,0.4870724662,0.7966714982,0.1603572915,0.0345266893,-0.2225568346,-3.6611479412,-0.7190372011,0.4630119126,0.006577309,-0.1898632676,1.123166381,0.2827557447,-0.4828348541,0.4121209087,-4.2726221118,0.4242512968,0.1947682994,-0.4305729468,0.049282209,0.5042536247,-0.1310577054,-0.3836344106,0.0262746956,0.2655272464,-0.4965894228,0.4940539872,0.0782510409,-0.4612456165,0.0810755829,0.0079170031,1.2898376541,0.0961163432,0.2626030595,-0.425553992,-6.5584378955,0.3738547882,1.6362402123,0.3377386343,-0.7519064945,-0.398491241,0.0655829701,0.5370196737,-0.6250693708,0.3672453812,0.413241392,1.4084642203,0.4342437381,-1.8126869948,0.2024139717,0.2418940086,0.5329622018,-0.30626821,-2.7397334006,0.1827296499,0.6321484931,-0.194780636,-0.7045460537,-0.1491350402,-0.1794665398,0.7415232301,-0.4479844668,0.3583208477,-0.600454483,-1.3064063976,0.6369459047,-0.3820847354,0.0925824742,-1.0048035356,0.9044204509,-0.9872212122,-0.9695305526,0.3040841063,0.5378251558,0.5918044222,0.4033995305,-0.5203856446,-0.8529155957,-4.8533638812,0.15318565,-0.2414596019,-0.7557174928,-121.7962306061,-1.05655268,-0.5269443438,-0.9447612745,-0.9663144835,122.4324275441,-2.6048583463,-0.3867629379,0.8249941325,-0.2599043836,0.1950045369,1.8434073947,-0.7113595124,0.4166368281,-0.2001880326,-0.1810751955,1.94679366,-0.3049223757,-0.9766223198,-0.7003035116,0.2831037401,-1.1932096363,0.0277161828,-0.2361442576,0.7916837788,0.0325340304,0.5785482699,0.1371322315,0.4293442774,0.0665634152,-0.1473075775,0.5647500316,0.3711919748,0.0341997614,0.6705532986,-0.3133522353,0.065661457,-1.0928724814,-0.4024651691,-2448.743920839,0.1411705336,0.2619019049,-0.0801365329,-52.3796160259,0.368926201,-0.2653409358,-0.8757835171,-14.3363266205,-0.8117866301,-1.127150929,0.526775993,-81.3006130687,0.5631162032,-1.7253484855,-0.187335077,-0.0319466659,-0.9770944684,0.3025205073,0.7166206611,0.5917133528,0.4697223651,0.1466162707,0.3536273679,-0.1452756811,-0.9406363868,-0.252666479,-0.0831879512,-39.3485171875,-0.8775291257,0.2553464117,-0.7845329521,-3.3245437604,-0.8368139672,-0.6522820081,0.6856918168,0.5224214954,5.8144188815,-0.6028741823,-0.6687740634,-0.5699293638,-0.4638624241,0.6368424172,0.9468674772,147.7628178655,-29.0711123028,3.5999416184,0.5175088268,8.0690040703,-1535.7050896263,0.2848731888,0.0457761823,-0.9692548975,92.697063914,0.3504994398,0.2945550299,8.2664358511,624.6569829112,-586.4120940068,-0.2168364058,-1.1435817236,-595.5007676524,-2.0176193695,0.2717800294,-0.7163708634,-202.1459441617,792.8488608962,-4.1446535404,-0.6521882557,0.6695517642,-0.6448291527,-0.1494751312,-0.0998934809,-0.4967080466,0.0696703062,-8.1946373512,1.2190610643,9.6220039738,0.8445903204,-1.1235447716,-0.4257474799,-0.0406753865,0.3834056702,0.6051632006,0.5416503255,-2.6367766509,-1.0814535364,-0.4170918458,0.192260436,-1.3212582322,-1.0847050256,-1.576346239,-0.4974550563,-0.5132934578,-0.935915547,-0.2528385885,-0.259386386,0.0710354732,-0.0728913074,0.8115746506,0.4642438903,-0.3017663797,1.0145281732,0.788025702,0.900783895,0.2068684934,1.1268854582,-0.7128857191,60.8446162767,-2.6095358661,-0.1257026363,-0.4698898698,1.0780442213,-11.3899381027,-0.5762021734,0.582774686,-0.515201986,-0.414425656,0.6869703031,1.1211467723,-0.3177550592,0.3826660115,-0.8183332235,0.43375839,0.2306625808,216.2296451411,-0.3956601247,1.1143965378,-0.1770115568,2.1660436454,1.2120784357,-0.4083289254,-0.9679853049,-0.3283230229,0.0443338325,-0.8561246604,196.74767942,-0.8510159244,6968.8252376664,0.56269311,0.5138985058,0.2241133676,0.7323312757,-2.2535171288,0.4459876159,-10.2549776771,0.7703419505,0.3039755403,41.7615548668,-0.8713308717,-0.6906929716,-0.2366249532,-5.0669486599,63.4480705505,0.8096055652,-0.4595992503,-0.3284099725,-0.5236714144,1.0355584185,-0.5745282646,0.3657733297,1502.477758254,0.7455179459,-0.1051117622,10.3731827121,2.9483081421,3396.1356161951,552.5380846912,0.6793435912,-0.3183208301,-0.6975315384,-0.4067525843,-444.9784444052,0.9323733705,-0.0364002555,0.714422294,0.500087664,2.1023021426,0.76634929,0.2315159727,0.1164451376,-1.1912372795,-0.468950326,0.5794943819,-0.2068531783,15.8923202082,0.5790302431,35.7063439859,-0.5272091218,-0.6430854551,0.7958084919,0.4192478848,-0.0170546788,0.3393338947,-0.3488593655,0.0686509645,69.5468062047,-0.2491735796,1.1767641194,-0.6982882174,0.8105529296,-0.1565969704,-0.6940159883,-0.7747723353,-0.280233113,0.6228741112,-0.8660994303,-0.1235587465,0.4560504608,-0.2231937308,0.8627619687,0.9081834981,-0.2382831945,0.1461391105,0.168208902,0.8395102721,0.2149677391,-0.2668982149,0.4117001941,-0.5534369976,0.0566492342,-0.4326999409,-0.1022409484,0.4200864351,0.6048788383,0.0245533841,-0.1426459259,-0.6156183454,0.2608645387,-0.4320086874,-0.3386659118,-0.469716393,-0.3431793132,0.4911643707,-0.4729712035,-0.3848098236,-0.553899904,0.2380469679,0.4727383332,0.3417720368,-0.5242798655,0.4739522637,3483.9177856688,23.7328126052,0.0384492445,0.9442433065,0.8135568379,-0.2230463154,0.3902533968,-0.2488403635,0.7597342876,0.5952233968,0.6529017406,0.0285226914,0.1527225723,0.5268373321,-0.7279174722,0.2809568414,-0.2711019334,-1.0384463141,-0.1542925024,1.0211677013,0.1576518549,-0.6756289077,0.156921363,0.6267622306,2.5570595548,0.8231079582,-0.1464791331,0.3516529256,-0.349760553,-0.4028137578,-0.1623487057,0.3883482974,0.1368128506,0.8432973119,-0.0414756255,-0.2466231044,0.7063701788,0.5711364474,0.1322462326,0.9607616098,0.0501378228,0.2309250309,0.0542920944,-0.1323261514,0.6410401784,0.1868140513,0.3536856644,0.7126713346,0.4617434535,-0.1345861245,-0.2342036289,-0.7792890126,-0.1430609851,-0.811031285,-0.0745916761,-0.4085453524,0.0726771649,-0.309780709,-0.3947567764,-0.7272501142,0.8405810946,0.8983630471,-0.5348365521,-0.5702539341,1.1632927608,-0.0880825542,-0.3079827744,0.2676340152,-0.0471152202,-2.1307513638,-0.667861633,-0.0022226241,-0.645586149,0.7215106436,0.6354813314,-2.2015790975,0.4959533558,-0.0172293187,0.1643505738,-0.0085256245,-0.966465256,0.4000376286,0.4063202999,-0.9873779953,-0.1726285734,0.0840773584,0.2109143069,-0.3120696836,0.0393932015,-0.4716905894,-1.1483762707,0.5611887813,-0.3909087011,-1.8232596433,-0.2176068965,-0.2243939157,-0.8029021665,-1.7852427471,-0.0328316168,0.1941117589,-5.4397774156,1.4786861111,-0.8084790059,1.0034615661,-0.1946146676,0.785751147,0.5580527985,0.3036570585,0.8563095716,-0.2468451224,-0.1410827576,-1.9377847614,-0.4655349333,-0.119594157,0.838184319,1.3047619343,-0.6626230057,-0.624087627,-0.0557249072,-0.6744625398,0.835242222,0.447638725,-0.4440711087,-0.4453821709,0.9260330961,9.2847546645,1.0415602265,0.0830490526,0.1816972654,-0.1115519714,0.4727040322,-0.2627263722,-0.5098877546,-2.2496635307,-0.3085336397,0.3890000311,0.0561666495,-0.0001031328,0.745879338,0.7470912285,-0.9737758575,0.7037181739,-0.9998034157,1.0641634796,0.7466845275,0.9093690816,-0.0666329906,0.16985224,0.0940190639,-0.0938647848,-0.3741590017,-0.3604236813,-0.0719758663,0.393338113,-0.6133653592,2.6143492334,-1.310770408,0.1473335192,0.8409458419,12.3222190706,0.4675718873,-8.1960454939,-2.2207996154,-0.7415369724,0.8212534963,-1.9045544491,-2122.4806377392,1.1717002586,-0.7714608917,0.2845452372,-0.2314509684,-0.2031065588,572.7117249432,-0.9747613795,0.060045437,2653.2405588083,-0.0657315761,-1.535056197,-9.0648149933,-0.292016509,-0.5082623238,-0.0153068008,-0.6789995173,-83.8084631682,-0.7892325814,-544.5019239435,-11.5070810201,-2652.6551079664,2.820297346,3.2314393088,-0.2483545219,0.6197967484,0.8757987695,-0.2400729282,-0.4082384394,-732.1352892757,6.0383497754,5840.30916354,-0.2075644827,0.2077782029,-421.6527782343,30.259001989,0.6763124918,-863.5032455712,7.4173215278,-258.5628669226,1805.3145175179,1.8211307824,-0.5934554207,-1.0241366189,-211.7229267133,-0.4107350627,-0.9687187088,-0.4879436892,0.4895647985,-22.8773736719,-0.3791495491,-10.1326270363,-0.0385975419,2826.6632985853,0.3089583079,0.3609149992,1.0412394962,2822.7201627041,-316.7269487569,16.1511808024,-5.2574361626,-0.4532842601,-0.7432485821,-1.0467475288,0.8321871922,-0.196756915,-0.621854094,2.434561767,-1.2729978764,2.1791998435,-0.5453863241,-0.9828577709,-0.3602918298,-1.4427943043,-0.2252820724,-0.6315654464,1.5291974406,-1.4965252532,0.4465714168,0.1228869923,0.3321787802,-11.5650577508,-4.57394928,85.7181795657,-0.2064361219,1.1173975954,0.2367953616,0.4446141589,-1.6850253687,0.9385913922,-16.4526611696,0.3411944373,-0.2691622137,-0.3426405802,-0.7287660898,-0.9191430867,1279.6810989608,-0.0728045461,-0.3168753987,0.1958686313,-1.1590236799,1.2207214463,-0.8232666476,0.1304912096,-0.6816724836,-0.4532732312,193.8613662625,0.0153486508,-0.0089690678,-201.1649319307,0.2383178125,-38.8900169405,0.4279312411,-1.05990079,-0.31031038,-6.9123970141,-0.2253689659,-3064.7865817237,0.5715839203,1096.8320643967,0.8579591187,-0.242216026,-0.0601531577,-0.9267177393,-0.817849916,0.4304983226,-2.3183886929,-1601.1690908506,-0.1322758257,2.1380891709,0.282720323,-0.6171052923,1.1477076282,-1007.1814082086,0.5016403718,-479.5704322586,0.597528729,-0.7332409869,-1.119188422,-0.0005111969,-0.4142304233,-1.1367630968,-49.6225663779,0.1962978691,-286.2800683896,0.1099167985,-1575.4588046493,-0.0627555755,-2.3979234089,-4.881723223,0.8041966102,0.3918166758,-0.6635790637,-14.1187318904,0.7606682769,0.9786093858,0.5984812166,0.4469538967,-527.7386325454,32.8790510934,-2026.0149234196,0.5977791632,30.6970658831,-0.618500786,-0.2665093375,-0.1569499203,-2.7525116649,0.6522744571,0.3252193664,-0.882878376,0.0554539782,-0.4960716976,-0.3277890362,0.3769685195,-1651.0688956369,-0.0329410016,0.1241619277,-1924.2642377499,-0.7037008258,1.6444694067,-0.4086046664,0.5050625368,0.7451216468,0.0245390304,0.1028805945,-0.1606323013,0.2999257459,-0.8132293449,0.6313227662,0.5901127577,1262.1202131157,-0.5141708552,-2.0503981437,-5.3912916958,0.359675503,-8.1998070141,0.6647040019,0.560140355,-32.511538214,-2248.8253798129,-765.7507627045,0.794641982,-0.5799261841,-0.7772090024,0.4162146116,1.4244791757,-67.1872617954,-0.4447273508,-1.3110308623,-0.5703664247,-0.8216929342,-0.7749311421,0.044407911,0.7461015899,0.8406276851,0.0204712973,-0.8549084958,-10.7145097788,-35.4385624058,-410.9985347411,-0.792343671,0.4191600851,0.7956356235,0.0650230266,0.5822893408,-0.2061380769,-144.5438576016,-808.4899369612,-1989.4247847989,-0.6903017115,-2.7653341545,-32.9654486032,-0.3197826475,0.4797848587,-40.5006387994,-158.5764500029,0.2570741293,0.7722038345,0.3844012295,1.1669045202,20.5437499389,-0.4728065931,-0.9528422328,-17.0712071102,-133.9020517402,-151.5003773311,-0.0881699,-0.5975723415,292.402516366,0.6208848272,-3551.7793868297,-2757.158770765,-0.5077548468,508.0846250063,10.3234614881,-0.6975992572,0.5331849185,0.3587555683,0.9728904596,980.9230564411,2125.8634746897,-1.1622816497,662.6915905683,0.098201978,3.4964596189,0.0747433209,-1.0871249454,0.5524175961,0.1441753641,0.5497382572,1.1025201206,-0.3988034422,2.1785069248,0.5413681406,289.0566969294,-0.1498463848,0.4112570558,-2743.3559090206,0.534857481,-0.3900746389,0.0349123473,8.9426102572,0.0019846065,1.394571396,0.5712400373,-0.5446381503,-1.051889834,-0.4529710955,1.4690457204,0.7558607114,0.2388361799,0.6081428499,1.7858545619,0.6613089071,-0.8702714653,-0.848018077,0.1626156566,-0.3201146794,-0.4971955799,-0.0370843421,-0.654672445,-1.3285125016,0.0865888724,0.2529495265,-0.480961764,-0.734140073,0.8505760328,0.2940298396,-0.1065549338,1.6305238744,1.5432785425,1.1216965453,0.8668712786,-0.4690995824,-0.2596718761,0.3118969583,0.3127570482,0.9726804055,-0.0649573608,-0.8915731602,-0.6189734118,-0.2574401365,-1.9328719225,0.1155761452,-0.0851228807,0.0910406382,-0.9157281106,-0.0525143046,0.6973579355,0.6581321531,0.4401796895,0.9543201027,0.2313318894,0.5752023416,0.3021121371,10.3357570898,0.3072559162,0.3038613572,1.141823734,0.9202219986,0.6519399709,0.4553209272,-0.1946772816,0.1214781947,-1.9798006696,-1.8294338232,1.0006298726,-0.0758669103,-1.0240318629,-0.7582636872,-0.449989441,-0.0266068213,0.0140204482,-1.6106557618,0.0104595852,-0.1438777252,-0.4973614158,-0.2523823723,7.6069310568,18.882189992,0.9523655065,-0.065757749,-0.2123859371,1.1228915146,0.4089594386,0.9971159154,1.4993373943,-0.1053589887,0.4581075743,0.333112149,0.4397132385,0.2951274415,0.1178425228,-0.355073723,0.6706406365,-0.7801143997,0.2467143906,0.3997320425,-0.8767883925,0.0632781945,-0.8663473685,0.5219882033,0.2589986762,0.4752844052,-0.0833277427,-1.460838087,-0.6472754643,0.3598365319,-0.7236905059,-0.252104565,-174.8080752185,-0.0910827516,0.7353630837,-2.835138219,0.572338151,-0.8659662613,-0.4427115558,0.5182340727,-0.3476374541,-56.3060893442,-1.2621201415,0.0369991657,-906.8378606028,-0.6052822959,0.8110236476,50.7128695771,57.5309046541,-0.6274218078,-0.4670985278,-1.0167550457,1.0295009205,-0.6545863658,-2.1626074807,-0.4382620894,-0.1711520674,-0.0346942854,-0.8772028168,0.2161078101,-0.9313054087,0.2078041218,-1.0392403762,0.3602592486,-30.5348726346,0.8873007334,0.8925878452,-0.6798876946,-759.3134098452,-1044.1686940393,-3.3384933669,-0.9256740314,-1.4176977847,0.7206449777,0.1972482342,0.8279802119,-0.6042823623,3424.643116095,0.019857444,-0.0379182037,-0.4440548773,-117.6909369446,-1062.7116274867,-0.9042272662,-281.9980248339,0.649826785,-948.1450544488,-0.5181882289,0.7670883711,-0.0576779991,-4.0013279658,2163.3596359141,-0.1403616205,-6.1412918401,-0.4832467984,17.1815259443,-0.919438964,0.9252728675,1.0487908315,18.8817170609,2042.1536999582,4426.6903828506,-311.3082196266,-5.01097498,-11.8199096829,0.1231063212,-0.3349308563,-790.3394428594,0.9321712496,0.8426523409,-0.9082991163,-1278.1192653053,-0.5595059985,0.766193124,-0.4800471985,0.9800156481,0.625578485,-0.292729712,-354.2614143734,-3.8550723452,-0.4854453715,-12.4154135234,-0.9658724828,1.058400449,1.1516431845,-0.9424669434,0.0997000907,-2.9062411453,-0.7747948805,-4.5479241962,-0.5595687266,-0.1143956786,0.688391651,-0.2528433795,-0.8819947994,0.7222127508,0.0575718622,-1.2588098812,-1.3529762911,0.510267912,0.6247734147,0.5958962067,1.4478369362,0.9258611318,-0.5103262721,1.5344172266,0.4930888925,-6.6697095448,50.37883151,0.5563051578,1.1665735416,3718.6266190545,-0.5124566354,0.3543192096,0.3616103896,-0.6539245882,0.1049443507,0.2042844826,0.32345906,3.7854306166,-0.365314939,2.2606918251,1.19340721,-0.0206874784,-0.0726981254,-0.8454001153,0.5532225122,0.841969411,2.1899429071,3934.8992677816,-2.4943103787,-3.2342162937,-0.2093600786,-2.4277531743,0.8068893945,1.0067607574,-0.0697756431,-7.2149296572,-0.794436945,7.0604295285,-0.1555242845,0.2400837876,2.5018192044,0.3008516672,-0.9993880878,-0.7635317494,0.7134394172,-2.3689335258,-0.037431383,-0.4180469156,3.1279548716,77.0010520244,-4.5157982143,-0.9547934503,-0.2931452598,393.4171106812,0.0851394464,0.0347311803,1.9358098092,2.2296330974,-7.1280535558,1081.4840692789,-0.5440929368,-0.6865097355,0.5673044946,-0.3145449599,-2.8679787419,-0.1630547335,0.1683082254,0.0458517717,1.9113547314,-2.5861930401,-0.2414170294,-0.6983984447,2.2106596012,0.9660565909,1.9574399999,-0.8338393587,-0.6028516088,1.6169603423,0.1731866122,0.9090183324,0.9583523113,3.5791929293,-0.5026259591,4.7604196454,0.7416538405,0.6662822392,0.3833266361,0.8695448543,5.973147078,0.2279791995,0.7946696602,-0.5100129128,-0.7318411302,0.2081041701,0.3092442804,-0.5716548154,0.5557651131,1.0451194912,0.8000287879,-0.8173532213,-1.2032228686,0.1986302989,-0.2553971395,-0.7864641146,-0.2063860231,0.3948102936,-3.1658227589,-0.4247034651,0.6391388297,1.2630206087,0.3749855232,1.0157224203,0.5455318179,0.1780660879,1.2552174218,-0.9362259223,0.9856170361,-0.4150435962,0.7794397962,0.4905436936,-1.1036184723,0.9823976731,0.0951911338,1.085224718,-0.3044734603,-0.2341945818,-0.45297959,-0.5475350155,1.0160973036,0.0126429756,-0.3019358081,1.4565476331,0.1495903565,0.1359741746,-0.8204356357,3.7666249909,-0.046774035,-1.265940435,-0.0497043044,-0.564697692,-0.0149315627,-0.940322201,0.274083362,0.1937355456,-0.0051757404,-0.0282498035,-0.4810910784,0.737812207,0.3304896781,-0.9335691711,0.5857563601,0.3722004942,0.5928773506,-13.1125543184,0.8569460548,0.457308095,0.3340795606,0.5515199601,1.6441873205,-0.7075802516,-0.3431283976,-0.6073856511,10.7946009085,0.3277845736,1.6488730337,0.0964572383,1.5634097182,0.098837613,0.5354896749,0.260166524,0.5022634259,0.3887319988,0.3500025899,-0.6986648466,4.2866245184,0.6182732331,-0.0583101479,-1.6733966139,-0.7021712823,0.5252304361,-0.0594261925,-0.7360419277,0.8952002401,-0.8562839266,-0.127614831,-0.2956301079,0.7099885164,-0.2892852957,0.603625657,-2.9788044917,0.2488631153,-0.7771061184,0.3492371759,0.275392715,0.878178832,3.3963857133,0.6968465267,0.629448775,-0.0463382567,-6.8696361046,-1.409455863,0.3262383561,0.1284955612,-0.6411012498,-0.3564199725,-0.4343859522,4.5513297012,0.2460314739,0.8024829625,-5.2544362149,0.527365558,-0.3968292448,0.361499324,-0.300468372,-0.8044129611,-0.276630156,0.3721197408,-0.3314797403,-0.1771802453,1.8843467162,0.4242717774,0.4879432239,2.0067367483,-0.2060895135,0.7350883318,2.0413250302,0.2285486076,2.500913482,-1.9477432371,0.1915623284,-0.2080476722,0.0413627894,6.0372376968,0.2702753655,5.3898328165,-1.8272898939,3.466384245,0.6298817748,0.0648562375,1.4914126405,-4.4762510976,0.9306385084,-0.386260497,-0.0653105217,8.5306229819,1.6442673545,0.1323665931,-0.8012100263,1.7989481629,-0.1535346152,-0.1600342097,0.7101512637,-0.533654989,32.9620748387,-1.0062051442,-0.5963302531,-1.3926772002,-0.3504655034,-7.3688551409,4.8494167717,0.8811725916,0.0339240361,-2.7702167391,0.1946639325,-4.6127455403,-0.3475591337,0.6533326509,0.0706974889,-0.5849794053,0.62290762,0.6984107445,0.6299730717,0.7253717253,0.4627705548,-1.1909902483,0.004219567,-0.8737618449,3.6995466072,-0.8324846413,-0.3503178807,0.2593778046,-0.1830711956,0.3091842361,0.1625496476,0.7733694828,-0.4844240105,1.2732141928,0.7368096858,-0.678923092,-1.2897563853,-0.8677258658,-1.0050882634,1.369271494,5.0615756138,0.2213520117,0.4727178545,-1.5269221681,-1.7549257814,-1.5574417677,-0.7703470162,0.0397161356,0.1031411224,0.1834896816,0.1584164816,2.7018163634,-206.149892155,0.10970707,-0.511058107,-0.2658879482,3.0605898234,0.9044436132,-1.0743211954,0.109982116,0.0245529262,0.6210919298,1.6399369243,0.078234701,-3.9728847263,-0.0181173903,1.8761972028,2.4626652155,-2.6455558428,-1.0249601057,0.3226509074,-0.7211163072,0.0164869073,0.2904782725,5.9506595714,-0.8692354886,-1.583683469,0.2714539306,2.5151438071,0.2027422946,-0.3011972049,-0.1601007558,2.2130011295,-0.8472911389,-49.6723909399,-0.8632824074,-0.4480081882,-632.5539828404,-8.4625467771,0.6866242873,6.1186901815,1685.0035734007,-1.0031926983,0.2951674536,-0.5046679718,2.3332334187,-1.3160581402,-9.2039580764,-0.1286142376,-0.007819274,2.4440542103,-1469.634686347,-0.0951361544,-0.3373385812,0.5506585361
